-8.136600573852754e-12
-4.3960985973551165e-12
-1.1078209671628607e-11
2.3610908842836095e-11
-3.70757092334326e-12
-2.8635063063041264e-13
-3.633183565917808e-12
7.62710511989144e-12
-2.9330236593447846e-12
5.374850934214274e-12
-5.8731059794626324e-12
3.43127870459321e-12
-5.105079467392054e-12
6.268591646418394e-12
-4.729024747630832e-12
3.5655125686044545e-12
-1.5539920868058338e-12
-1.0912771059591227e-11
-1.157574649894496e-12
1.3624337796291467e-11
8.416261109445086e-12
4.657863932023993e-13
1.0395185889866571e-11
-1.9277233392513947e-11
-5.77410133453886e-13
-5.466766545986368e-13
-6.279856823324852e-13
1.7520724703850041e-12
4.683664879468277e-13
-5.07448461792081e-12
-2.941402587186135e-12
7.547520717160126e-12
-3.406468745832852e-14
-3.375025693400803e-14
-2.842875075712825e-14
9.62436951494647e-14
6.0897808935037456e-12
8.555167290312525e-13
3.166079038391525e-12
-1.0111376660926464e-11
-5.467074281264001e-13
-5.071054277132869e-13
-6.223314232651641e-13
1.6761442791048476e-12
-1.5027460807098655e-13
-1.7497920637722006e-13
-1.3775447281149737e-13
4.630082872597058e-13
-8.309266172172385e-14
-1.6129312274788973e-13
-1.572878797515e-13
4.016736642211132e-13
-1.57177842338781e-13
-1.9795609713231051e-13
-1.232294614358857e-13
4.783634009069804e-13
-1.245731339039054e-13
-2.4471509054798146e-13
-1.7516342371463912e-13
5.444516481665272e-13
-3.070270532748294e-14
-3.9571226885351275e-14
-5.654259067321375e-15
7.592819128015556e-14
-2.593114297654546e-13
-1.4955863774415895e-13
-1.2753064730315266e-13
5.36400714812765e-13
-5.995990054601098e-14
-9.375766978480647e-14
-2.77194621834236e-14
1.8143703251424145e-13
-1.3837062440483694e-13
1.3819256929406102e-13
-1.29929383560912e-13
1.301074386716877e-13
-8.774136125436885e-15
-8.79241580642367e-15
-8.897193125594973e-15
2.6463745057455522e-14
-1.1025858023350928e-12
-7.113876759635077e-13
4.016017757576169e-14
1.7738133007228264e-12
9.515393288445663e-13
-4.5922608406042284e-12
-2.2672075110281757e-12
5.907929022787877e-12
0.0
0.0
0.0
0.0
-1.326033540084971e-12
3.666737757755905e-12
-1.316430541965011e-12
-1.024273675705925e-12
-6.634196973871811e-14
-7.248717334750377e-14
-5.378867256823372e-14
1.9261781565445578e-13
-2.064562573037771e-13
2.809502755546273e-13
-1.6975567857898845e-13
9.526166032813927e-14
-3.8630758508268055e-15
-3.681527924516328e-15
1.6756379511397712e-15
5.868965824203364e-15
-2.2042407199520303e-13
-3.451427294749007e-13
-5.2760446808584683e-14
6.18327248278687e-13
9.65562153508301e-12
-3.750940898571301e-12
-1.6231600551046533e-12
-4.28152058140704e-12
-3.660294358552902e-14
-3.627643478121703e-14
-3.681894188283694e-14
1.0969832024958324e-13
-3.8920611140243386e-14
-5.386843314974129e-14
-4.008796940481543e-14
1.3287701369480015e-13
-1.7645188846852512e-13
-1.778829269638691e-13
-1.5426321842568674e-13
5.085980338580805e-13
-7.916528933722085e-12
1.2311340261200249e-11
-1.0307435033878945e-13
-4.291736977139397e-12
-2.14182823144088e-12
5.600181893474955e-12
-5.016782377631595e-12
1.5584287155975266e-12
-9.281091456873487e-14
-9.002691915587532e-14
-4.88915101023359e-14
2.317293438269455e-13
1.6360381416895808e-12
-7.217998534918857e-12
-8.617643470826315e-15
5.59057803670009e-12
1.0073125384439141e-13
-3.143109915876275e-13
-1.6925294434159738e-13
3.828326820848328e-13
-5.987552184969034e-13
-8.236330200731611e-13
5.55184104965674e-13
8.672041336043977e-13
-1.6377963885046513e-12
9.276159319891637e-13
-3.184391070638575e-12
3.894571527154063e-12
-2.8566763309198323e-13
2.5951467669091133e-14
-3.2490691278224344e-13
5.846230782051341e-13
-1.1754157126793322e-12
1.4406475559355305e-12
-8.79319750432107e-13
6.140879071759156e-13
-5.572470212314166e-15
-6.238779988159304e-15
-5.534631795075796e-15
1.7345881995549278e-14
-2.6114347631360777e-13
4.191670193342115e-13
-2.1919554583257716e-13
6.117200281197315e-14
-2.6547988559583667e-13
-3.096987387271624e-13
-1.8825730659717772e-13
7.634359309201775e-13
-6.643186029151334e-14
-6.554706327941591e-14
-2.7176930955785802e-14
1.5915585452671518e-13
7.126067042092734e-13
-6.633388298848486e-12
8.644063389868026e-12
-2.7232817952288977e-12
-1.2521908962884897e-13
-2.3167413996094262e-12
3.1127786705046175e-13
2.130682622187842e-12
-5.38566550292595e-13
2.1223169126051007e-13
-2.8421146736716364e-13
6.105463263992469e-13
-3.4500715162951706e-13
-3.550711297338617e-13
-3.33572575003023e-13
1.0336508563663968e-12
-1.7220793507840818e-13
-4.576516798657749e-13
-2.1022526800889398e-13
8.400848829530782e-13
-2.6156682163632353e-15
-2.345821824224634e-15
-2.681927469611771e-15
7.643417510199643e-15
0.0
0.0
0.0
0.0
-2.8943952237262174e-13
-1.7750489590113783e-13
-1.8359089798859078e-13
6.505353162623512e-13
-1.2390675651445889e-13
-1.3620042764543145e-13
-9.741550550062001e-14
3.575226896605108e-13
-3.190030228495407e-12
-3.69477252467235e-12
-1.1489570064236719e-12
8.033759759591459e-12
-1.1160167097933965e-13
9.575668881867367e-14
-8.797964003972851e-14
1.038246222003945e-13
-2.61631051628852e-13
-4.591149338115458e-14
-7.180592394534516e-14
3.7934846895535144e-13
-1.9771275585820495e-14
-1.4911853176390838e-13
-1.2989026968378237e-13
2.987800770335112e-13
-3.456941768788469e-13
-3.403246500624086e-13
-1.511823120458773e-13
8.372011389871319e-13
-2.16222754773441e-13
1.8491866553030965e-13
-2.1706151841080183e-13
2.4836560765393317e-13
-2.0907065952283377e-12
5.446008981410573e-12
-3.3606068667280537e-12
5.304480545820626e-15
-3.035822935794322e-14
-3.593872085186003e-14
-4.023913643777476e-14
1.0653608664757813e-13
-1.904538479857069e-15
-1.4171411169559005e-15
-1.6882720179430483e-15
5.00995161475602e-15
1.047140555640637e-08
1.9516116479244857e-09
2.0873683183666482e-08
-3.329670038799582e-08
-1.4278389059757196e-09
-2.7757052752709834e-09
7.323452694320537e-09
-3.1199085130738226e-09
-1.279862854349481e-12
3.5768037679257705e-12
-1.2747869957173438e-12
-1.0221539178589452e-12
0.0
0.0
0.0
0.0
-1.9991519267645977e-13
-1.472067530152949e-12
-4.1940932698324335e-14
1.7139236555277331e-12
-1.245731339039054e-13
-2.4471509054798146e-13
-1.7516342371463912e-13
5.444516481665272e-13
-8.309266172172385e-14
-1.6129312274788973e-13
-1.572878797515e-13
4.016736642211132e-13
6.205676825774585e-14
4.4604265943477385e-13
1.5357111544417971e-12
-2.0438105821342953e-12
-7.233054914027047e-15
-7.166595104587485e-15
-7.265414540450085e-15
2.1665064559064603e-14
4.486395246465571e-14
-4.0995904793835924e-14
1.645570555449982e-14
-2.0323753225319553e-14
-5.760635103976181e-14
4.9549868309874534e-14
-5.833240024906845e-14
6.638888297895574e-14
1.0314511625935339e-12
-1.5451977397138409e-12
1.6558017137857788e-12
-1.1420551366654708e-12
1.5153187791155898e-12
-3.6482547693435594e-13
-4.834126395664952e-13
-6.670806626147362e-13
1.1744300882276067e-12
-2.1171177872020452e-13
-3.511690078448382e-13
-6.115493016625629e-13
-2.2309504889150085e-14
-3.133753787592948e-14
8.093196730439505e-15
4.555384603464009e-14
4.62681652233429e-13
-1.0229959456218444e-12
-7.056938727631129e-13
1.2660081661515318e-12
4.790135064848561e-15
-4.745218159738967e-15
-3.605963630723804e-15
3.561046725614215e-15
6.867908802812783e-15
-1.8982464387109776e-14
9.00808108496705e-16
1.1213747475800254e-14
-1.8767866636978527e-13
-5.0644504522685096e-14
-1.0772048121791812e-13
3.4604365211038835e-13
-3.1836344828390115e-14
-4.740204148381681e-14
-3.3614766569289426e-14
1.12853152881496e-13
-2.61631051628852e-13
-4.591149338115458e-14
-7.180592394534516e-14
3.7934846895535144e-13
-3.070270532748294e-14
-3.9571226885351275e-14
-5.654259067321375e-15
7.592819128015556e-14
-5.299409158731705e-14
-6.825674286397794e-14
-3.8355552228165395e-14
1.5960638667946e-13
-4.0464538626794717e-14
1.617971268549156e-14
-9.880845885581526e-14
1.2309328479711817e-13
0.0
0.0
0.0
0.0
-2.6156682163632353e-15
-2.345821824224634e-15
-2.681927469611771e-15
7.643417510199643e-15
2.774751075875611e-13
-8.38264396429551e-13
7.188524847992144e-13
-1.5806319595722086e-13
-5.995990054601098e-14
-9.375766978480647e-14
-2.77194621834236e-14
1.8143703251424145e-13
-4.353049201837356e-14
-4.1442572063493163e-14
-4.4046823843759045e-14
1.2901988792562588e-13
-2.9058762363686443e-13
-6.00731390817841e-15
5.485905695268026e-14
2.4173588059236227e-13
-1.0892507422190701e-13
-1.2144042432989288e-13
-8.225095891341985e-14
3.1261645746522016e-13
-5.007347646460691e-14
-1.0763538790368138e-12
-4.932084230964813e-13
1.6196357785979066e-12
1.4271225340707535e-14
-2.8368142232861516e-14
-1.3627526127544733e-14
2.7724443019698695e-14
0.0
0.0
0.0
0.0
-1.97329114142787e-14
-3.5422766004726826e-14
-1.1726437995621142e-14
6.688211541462657e-14
-5.552608116435742e-15
-5.547366557796922e-15
-5.710574655485778e-15
1.6810549329718446e-14
2.550421189243526e-14
-2.8696359376107094e-14
-2.886567457460082e-14
3.205782205827276e-14
0.0
0.0
0.0
0.0
-1.2616146224777035e-13
-2.9096621090915917e-13
-2.0818045151566957e-13
6.253081246726042e-13
-4.6046472830638645e-14
-1.6668546895661487e-13
-2.0448164932247204e-15
2.1477675828047853e-13
-7.383009659774402e-13
-3.405873588407095e-13
1.7024648675716257e-12
-6.235765427534753e-13
4.770209378422793e-13
-7.112248162781842e-13
-4.1960410527415023e-13
6.538079837100513e-13
-2.0341445595948465e-13
8.706773085484299e-14
-1.651863493554544e-13
2.8153307446009615e-13
-2.475443365705737e-13
-3.8465559286660153e-13
3.5241831199072e-13
2.7978161744645567e-13
-4.5331246301390725e-14
-2.680119198501722e-13
3.0051463075717524e-13
1.2828535394386771e-14
-3.9406171044301994e-13
3.020900784752272e-14
-3.800579051736474e-13
7.439106077691441e-13
-1.1080584172868606e-13
9.656774807724922e-14
-8.711182049665857e-14
1.0134991414809539e-13
-7.958292506535429e-16
-8.110592585755386e-16
-8.678195430699997e-16
2.474708052299082e-15
-4.178863850570566e-14
-7.729597587124313e-14
-6.091210457097414e-14
1.7999671894792327e-13
-8.833516369471496e-15
-1.7274486913154497e-13
6.745120620530286e-16
1.8090387343896317e-13
-3.456941768788469e-13
-3.403246500624086e-13
-1.511823120458773e-13
8.372011389871319e-13
-1.6184048012918622e-13
-1.2716743561565565e-12
3.123165707910419e-13
1.1211982654946878e-12
-1.873095218362571e-13
-4.716493013141586e-13
-1.3894123584475085e-13
7.979000589951688e-13
-1.6972107062180858e-14
-1.7900927631960133e-14
-1.728587482692089e-14
5.215890952106189e-14
-1.3837062440483694e-13
1.3819256929406102e-13
-1.29929383560912e-13
1.301074386716877e-13
1.3008300860952036e-12
-3.3100905217908916e-13
-2.517322471070475e-13
-7.180887868090615e-13
-1.6308470494134065e-14
-1.4573219577549264e-13
-1.2674810657244386e-13
2.8878877284207054e-13
-3.4628050916864498e-15
-3.3863359884158254e-15
-3.1421631113386035e-15
9.99130419144088e-15
0.0
0.0
0.0
0.0
3.773578204874481e-14
-3.0747287320118674e-14
2.4680801453199036e-15
-9.45657487394601e-15
-5.000204881779958e-13
1.7294889888057942e-12
-1.2320855720514334e-12
2.61707142363059e-15
-2.6787969328435976e-13
-4.671923462510901e-13
-3.41520406562191e-13
1.076592446097641e-12
-4.2929333001106023e-13
-7.83022382316503e-13
1.8252865390384524e-13
1.0297870584237159e-12
3.049348305676939e-13
2.8079614868295525e-16
-1.5163425604143516e-13
-1.53581370674942e-13
0.0
0.0
0.0
0.0
8.460240948153087e-13
1.289885197688853e-13
2.2710943502590117e-14
-9.97723558086779e-13
2.947484779921815e-13
5.315530704928267e-13
-3.2947765284738365e-13
-4.968238956376243e-13
3.986003566127112e-13
-6.694430030360965e-13
-1.6610592252199282e-13
4.3694856894537593e-13
-1.997751293071045e-13
-2.5202275113896474e-13
-6.392020775753065e-14
5.157180882036005e-13
3.1381701435306344e-15
-1.8054850397456868e-13
-1.318029203899981e-13
3.0921325422103487e-13
3.56515306397138e-12
-8.350329356317868e-13
-1.312495858206014e-12
-1.4176242701335898e-12
1.173317594357176e-13
-5.3300572391761454e-14
-2.9371209688862185e-14
-3.465997735509394e-14
0.0
0.0
0.0
0.0
1.515784242812365e-13
-1.685231320101798e-12
8.232645861546514e-13
7.103883096659056e-13
-3.660294358552902e-14
-3.627643478121703e-14
-3.681894188283694e-14
1.0969832024958324e-13
4.2910158150577265e-13
-2.716672093468439e-13
8.52842021576939e-13
-1.0102763937358595e-12
-3.8630758508268055e-15
-3.681527924516328e-15
1.6756379511397712e-15
5.868965824203364e-15
-5.787826724447575e-14
-3.1419301152857095e-13
-8.880113376998059e-14
4.608724125430264e-13
2.7981895877341744e-14
-6.589194307623012e-13
7.33786861357605e-13
-1.0284932647265247e-13
1.433198074924056e-12
-2.5649687581407168e-12
1.0064246567106371e-12
1.2534602650599988e-13
8.44995294416362e-13
-5.354355542040132e-13
-2.763360615293047e-13
-3.322367868304333e-14
1.1518557444464302e-13
-2.0663261624930222e-12
1.0385133981488915e-12
9.126271898994857e-13
-3.22152800900114e-15
-3.2450492486267524e-15
-3.18661847010919e-15
9.653195727737084e-15
-2.574812079251256e-13
-2.945218070594162e-13
-1.7149479175380702e-13
7.234978067383488e-13
-3.179465735333977e-14
-4.0702720882514184e-14
-2.0228989715586997e-14
9.272636795144105e-14
-5.572470212314166e-15
-6.238779988159304e-15
-5.534631795075796e-15
1.7345881995549278e-14
-3.406468745832852e-14
-3.375025693400803e-14
-2.842875075712825e-14
9.62436951494647e-14
-4.869058118393393e-13
-4.2422506396538537e-13
-4.739535689634053e-13
1.3850844447681326e-12
7.107595690435518e-13
-7.44538624272391e-13
1.8309806417838452e-13
-1.4931900894954204e-13
-2.851052153556202e-13
-5.897360308184539e-13
-2.1679562783021792e-13
1.0916368740042817e-12
1.9776139388917173e-13
-3.033978896456574e-13
6.358851753571195e-13
-5.302486796006346e-13
-2.107896459718553e-14
-3.4148190833007946e-13
-1.5702717978120645e-13
5.195880527084719e-13
-1.272763106381343e-13
-6.264146623356026e-13
-4.2302481535939707e-13
1.1767157883331367e-12
9.439188378782583e-14
1.29487123909993e-12
5.768615726401173e-13
-1.9661246955278783e-12
7.025330488546084e-13
6.363267958033053e-13
1.3868336910508383e-12
-2.7256935357087637e-12
9.5943716832538e-13
4.617580716032273e-13
-1.626832538820251e-14
-1.4049269145404074e-12
1.7422779769560429e-13
-8.48501273807404e-14
-4.176113757771603e-14
-4.761653273714808e-14
1.0288195871280776e-13
4.793784520443736e-13
-3.3040843489911515e-13
-2.5185197585806505e-13
-3.5125702845633573e-13
6.838809925746715e-13
-1.4527023152241682e-13
-1.8735373259591988e-13
5.72596746613676e-14
4.615084178935914e-13
-3.778504796989324e-14
-4.809830445850644e-13
8.833714389750094e-13
-3.9365445971499677e-13
-4.250375395110838e-13
-6.467943974892652e-14
-2.157209296335046e-12
3.766901210480132e-12
-7.632364064756694e-13
-8.464555076694125e-13
-1.638071852458929e-13
-3.2027280210746284e-13
6.103292007188013e-13
-1.2624921336544478e-13
7.969509199686447e-13
-2.201367394161252e-13
2.889913960027891e-13
-8.658055765553089e-13
1.968241100757443e-13
-8.564192935475824e-13
1.074381145798226e-13
5.521570688920112e-13
4.508639498725104e-14
7.734355913321836e-13
-6.521356320342109e-13
-1.6638635428521792e-13
6.172610345797881e-14
-1.8471855597925152e-13
-7.077268471213359e-14
1.9376513723340557e-13
-8.803703859135686e-13
-1.481485792567505e-13
1.0691878664636399e-12
-4.066890129332614e-14
-4.01389780394921e-13
-5.42571728313607e-13
-2.6105295645616914e-13
1.2050144651646992e-12
-1.6690145451360885e-12
1.4990384227134163e-12
-7.009721012496333e-13
8.709482236723137e-13
-1.666578535925343e-14
-1.8532870236906255e-13
-4.881213565695934e-16
2.024826090848854e-13
7.751439468743836e-13
-5.465256543752122e-13
-1.5983793683918475e-13
-6.878035565998873e-14
-6.634196973871811e-14
-7.248717334750377e-14
-5.378867256823372e-14
1.9261781565445578e-13
8.618775143004305e-13
7.524753791126483e-13
-8.529612864877747e-13
-7.613916069253107e-13
-6.509613199390739e-14
5.937456350521749e-13
-2.9826140252317363e-13
-2.3038810053509216e-13
-9.974706996146447e-13
-1.2061671726091397e-12
2.9458653122393932e-12
-7.422274400155842e-13
1.143606842473017e-13
-1.2384432484368036e-13
-8.825642058597761e-14
9.774006118235563e-14
-2.3960505185103817e-14
-1.95551233159449e-14
2.6000214696483068e-14
1.7515413804565652e-14
-2.4066696418686627e-13
-2.531616183797393e-13
8.723163976271351e-13
-3.784878150605262e-13
0.0
0.0
0.0
0.0
-2.014970032350062e-12
4.321743989925119e-12
-4.977951520907458e-13
-1.8089788054843051e-12
-3.432273930115263e-12
5.184799752653599e-12
-1.3245426700437245e-12
-4.279831524945886e-13
1.6710958906430425e-14
-1.429783916112647e-13
1.0233292168687585e-13
2.3934511017958858e-14
-2.3650890270575765e-13
-1.8672187428374465e-13
7.68176437084651e-13
-3.449456600951524e-13
-2.690138966670811e-13
-5.571092731018939e-14
-6.277176697378077e-14
3.8749659095105135e-13
-2.16222754773441e-13
1.8491866553030965e-13
-2.1706151841080183e-13
2.4836560765393317e-13
1.3500938493976996e-14
-1.0089607623226943e-13
-6.961458505486281e-14
1.570097227931552e-13
-3.8920611140243386e-14
-5.386843314974129e-14
-4.008796940481543e-14
1.3287701369480015e-13
1.2561790976683885e-13
5.071372316139691e-15
2.3500174414115637e-13
-3.6569102622413544e-13
-3.669166173260967e-14
-2.282898214186173e-12
1.072207596297269e-12
1.24738227962151e-12
-2.8001796811123253e-13
1.423094809822799e-13
-1.3871537180598857e-13
2.7642385893494184e-13
-2.9049576110174013e-13
-4.1254713469342935e-13
2.501341051708791e-14
6.780294852780772e-13
0.0
0.0
0.0
0.0
-1.5027460807098655e-13
-1.7497920637722006e-13
-1.3775447281149737e-13
4.630082872597058e-13
-1.3292139645015186e-13
-1.364403549003764e-13
-1.1021639458192845e-13
3.795781459324566e-13
-2.6114347631360777e-13
4.191670193342115e-13
-2.1919554583257716e-13
6.117200281197315e-14
-8.850917747366397e-14
-3.163908378045165e-13
-1.9946217339070985e-13
6.043621886688892e-13
-1.4959722225270198e-13
-1.9330695811079297e-13
-3.189200294774237e-13
6.618242098409186e-13
-6.793244243269386e-14
-3.034766939428608e-13
6.768274574585062e-14
3.03726390629705e-13
-8.781696605558409e-14
-2.6534276311888603e-13
-1.0418740979805576e-13
4.573471389725237e-13
-6.643186029151334e-14
-6.554706327941591e-14
-2.7176930955785802e-14
1.5915585452671518e-13
4.545732751327773e-13
-5.723639290376327e-13
5.869582802685588e-13
-4.69167626363709e-13
0.0
0.0
0.0
0.0
1.1830186480315126e-13
-8.883416633379832e-13
4.2824910493863015e-13
3.417906935962003e-13
-3.4856881598206402e-15
-2.908858096470667e-15
-3.2810373859169548e-15
9.675583642208266e-15
5.361328114806597e-14
6.539953987420409e-14
-6.938053481448354e-13
5.747925271225645e-13
-9.108337243288073e-14
-1.0362535974269099e-13
-3.6708703372221016e-14
2.314174355477926e-13
-1.3348780379080412e-13
-2.5949226621024763e-13
-1.0404898166267508e-13
4.970290516637248e-13
1.894356135051665e-12
1.6434814388756077e-13
-1.5486051310261721e-12
-5.100991479130482e-13
1.9497737983841875e-14
-1.3776564173769652e-14
-1.602150507919518e-14
1.030033126912296e-14
1.0107231763726749e-12
-6.337917105114549e-13
-5.263953297835861e-13
1.494638639223728e-13
3.764541926782684e-13
-3.8139611564886015e-13
-1.9443041279124777e-13
1.993723357618392e-13
-1.851020390069919e-13
-2.948318298946125e-13
-1.5864642853378183e-14
4.95798511754983e-13
-3.4500715162951706e-13
-3.550711297338617e-13
-3.33572575003023e-13
1.0336508563663968e-12
0.0
0.0
0.0
0.0
1.6763918886168138e-13
-4.954360209687666e-13
-6.75674470106402e-14
3.953642791177242e-13
-4.438592150477764e-15
-2.9802996255851825e-14
-2.5298403675546095e-14
5.95399920818756e-14
-1.904538479857069e-15
-1.4171411169559005e-15
-1.6882720179430483e-15
5.00995161475602e-15
-5.251065095175699e-13
-4.406322008230722e-14
4.630436663915894e-14
5.228653629607224e-13
-1.0190738286895432e-13
5.5049217224494344e-14
-8.630635006726506e-14
1.331645157117247e-13
-1.7959139590033778e-13
-3.3531124148487875e-13
-1.27876146346716e-13
6.427787837319318e-13
-2.6012750949345187e-13
-3.353520674638676e-13
2.3947449634717386e-13
3.560050806101445e-13
1.64455432981237e-13
-3.996350789364185e-13
3.747774173336766e-13
-1.3959777137849424e-13
-6.218402683275962e-13
1.3058394625536176e-12
-3.5462309494212496e-13
-3.293760992839038e-13
-3.2275909883638797e-13
-4.979248063053793e-13
-2.763193251644453e-13
1.0970032303062143e-12
-2.2678253700549965e-13
-8.550185629636406e-13
-4.028805119037347e-13
1.4846816118728856e-12
-1.4981682292552086e-14
-1.4760003315538488e-14
-1.516454658719996e-14
4.490623219529063e-14
-8.928996342434135e-14
-2.194568019457166e-13
-1.0016967371566479e-13
4.0891643908572175e-13
0.0
0.0
0.0
0.0
-5.069542464188872e-13
9.253894604951899e-14
-7.844746404988418e-13
1.1988899408682093e-12
0.0
0.0
0.0
0.0
4.947960939673667e-14
-8.856934054813387e-14
7.029182123040023e-14
-3.120209007900325e-14
-8.699215682577921e-14
-8.461298640001896e-14
-4.3062816259542735e-14
2.1466795948534007e-13
-5.818757742955524e-15
-5.4139327558563806e-15
-5.82869384279321e-15
1.7061384341605107e-14
-1.1817522088956344e-13
-1.2098748352093365e-12
-4.390869126829692e-14
1.3719587473671908e-12
-1.2534573354243764e-13
-2.1852490106212807e-13
-7.306254661987313e-14
4.1693318122443837e-13
-1.7886261030018733e-14
-6.270765037080913e-14
-6.272425771453008e-14
1.4331816911535775e-13
-7.772754360893699e-14
-1.810913778572488e-13
4.2238517547071107e-14
2.1658040391911563e-13
-1.0685749906576493e-12
2.405452306796517e-13
-7.937840150741582e-13
1.6218137750521559e-12
-1.2391378772774612e-12
3.0220736520173727e-12
-2.299821994757786e-12
5.16886220017875e-13
-3.579581688455287e-14
-1.9279699148725021e-13
-7.40040493875288e-14
3.0259685775933006e-13
-4.554273715520025e-13
7.840211097527368e-13
-7.902865439699071e-13
4.616928057691687e-13
-4.6170685735490474e-14
8.99339898301369e-14
-4.1643546247665455e-14
-2.1197578469809807e-15
-2.593114297654546e-13
-1.4955863774415895e-13
-1.2753064730315266e-13
5.36400714812765e-13
0.0
0.0
0.0
0.0
-1.3486833744963072e-13
-1.6661855925638087e-13
-1.313226581663254e-13
4.328095548723383e-13
-2.0843213406882455e-13
8.201936042264863e-14
-2.382706082010028e-13
3.6468338184717644e-13
-5.078287795138626e-14
-7.654059662966971e-14
-6.586726446516987e-14
1.931907390462265e-13
-4.074153727013519e-13
-1.1417399327910032e-13
-3.5700198540928644e-13
8.78591351389736e-13
-5.249857806530826e-15
7.297045849304605e-14
-6.14362681371948e-14
-6.28433254932047e-15
-2.012063994972462e-13
2.079798170615818e-13
-1.0831941044179432e-13
1.0154599287745979e-13
-8.557755814954201e-16
-8.013969751371086e-16
-7.829187076486928e-16
2.440091264281221e-15
-8.866077568930317e-13
1.857779646786665e-12
-1.6548098727147021e-12
6.836379828210754e-13
2.2284594877498458e-12
-8.764744883208014e-13
-7.717447087461829e-13
-5.802402906828585e-13
-8.014888696266762e-13
-5.12215248615706e-13
3.3590272916295897e-13
9.778013890794197e-13
1.452972704385282e-14
-1.4087984635189316e-12
6.873397256074625e-13
7.069290108676118e-13
0.0
0.0
0.0
0.0
-3.2075374742877818e-12
7.939776268447524e-12
-2.85967320744242e-12
-1.8725655867172814e-12
0.0
0.0
0.0
0.0
2.310084419233072e-13
-1.052850837406319e-13
3.938596434395462e-13
-5.195830016222199e-13
-2.8964225339000204e-13
6.85659320283286e-13
2.9010887019997013e-13
-6.861259370932524e-13
-3.035822935794322e-14
-3.593872085186003e-14
-4.023913643777476e-14
1.0653608664757813e-13
-1.5922286995682965e-13
1.402944766847997e-12
6.441246216652608e-13
-1.8878465185564257e-12
-1.4832991991253133e-12
2.905911692472606e-12
-7.451917442209997e-13
-6.774207491262997e-13
6.439262334406409e-12
-5.985472249198356e-12
-7.559334132248338e-12
7.105544047040192e-12
-6.318840165178134e-12
-6.509483008076413e-12
-9.467466729288726e-12
2.229578990254304e-11
-1.9303632013230592e-13
8.841440374891605e-14
-1.2472883170078523e-13
2.293507480841748e-13
-6.926372749304949e-13
-1.8582385340212705e-12
3.718357008026628e-13
2.1790401081491055e-12
7.642909131118494e-12
-3.0484207351402186e-13
4.839306642129332e-12
-1.2177373699733697e-11
-1.523559083861321e-12
2.7335334789135243e-12
-1.8059276575362136e-12
5.959532624839963e-13
-8.553442718196174e-13
2.2539199200387154e-12
-7.490269329960698e-13
-6.49548715223013e-13
-6.70760219900361e-13
1.0124086371507144e-12
-2.1695842853989271e-13
-1.2468998871045742e-13
-5.081800348039593e-13
1.2440942609578391e-12
-4.463493120334584e-13
-2.8956491412041884e-13
-1.3144668044116924e-12
4.198132941526069e-13
-7.046155854363708e-13
1.5992690956954587e-12
-1.5115020473938277e-13
-1.2336694287313219e-12
4.422171570600767e-13
9.426024764106142e-13
-7.747089670880015e-13
3.580375672173405e-13
5.141338656431471e-13
-9.746246577248986e-14
1.0250692585327324e-11
-2.175657089070511e-12
-3.4396832030162394e-12
-4.635352293240583e-12
-5.183097510179999e-12
-2.3953503995568102e-12
7.896574514927304e-12
-3.1812660519042075e-13
5.0690812729442045e-12
-3.378034224150626e-12
1.8743966143403785e-12
-3.5654436631339757e-12
1.3348674515460867e-12
-3.477663197993105e-12
2.0883139972724475e-13
1.9339643467197976e-12
8.273866227974378e-13
-9.119972061719598e-13
1.7716560083147497e-13
-9.255501745695421e-14
-4.372063526382817e-12
-3.815342170191139e-12
-1.4220406741224002e-12
9.609446370696489e-12
-3.116703092390364e-13
-3.3844507821313873e-13
2.9953109433385765e-13
3.505842931183188e-13
-5.608035040500102e-13
-7.503809125419507e-13
-6.116266546366599e-13
1.922811071228621e-12
-5.52001326791109e-13
-6.168753243427428e-13
-2.952640664370504e-13
1.4641407175709092e-12
-2.383292485715944e-13
-4.1640990192490985e-13
-1.4853318070872893e-13
8.032723312052299e-13
3.7129422596539807e-13
-3.89768499641992e-13
-4.5143297815300566e-14
6.361757149189707e-14
-6.462025805624654e-14
-4.730608506828381e-13
-8.031085362275591e-14
6.179919623618388e-13
-3.9606247759005077e-13
-3.494392877012256e-13
-2.1291868612416566e-13
9.584204514154481e-13
-1.469575085334877e-12
6.009273412858364e-13
-5.70949148499908e-13
1.4395968925489585e-12
-2.3132399296713217e-13
-2.6360512021632706e-13
1.6999237946908075e-13
3.2493673371437633e-13
-3.0850180531535965e-13
4.7501880460121054e-14
-2.615145189695694e-13
5.225144438248084e-13
-5.994162008165462e-13
-6.170790706492886e-13
-3.3971713316754804e-13
1.5562124046333852e-12
-1.2836777367012668e-12
2.5712042148112947e-12
-1.1512604712012863e-12
-1.3626600690873778e-13
-1.5538716495810535e-12
3.4242986615110263e-13
-1.3961231195763897e-12
2.607564903006357e-12
-7.606083488307403e-13
1.8287311763260066e-13
-5.770011275937588e-13
1.154736358791895e-12
4.085165955893876e-13
7.812510676301841e-13
-1.4076698590043763e-12
2.179021957847954e-13
-4.4734239922557115e-13
-4.4563834834045245e-13
-7.358310420525673e-14
9.665638517712737e-13
-5.947249730116357e-13
-5.361479498663957e-13
-4.666775705540469e-14
1.1775406799334211e-12
-1.4044653987032504e-13
-2.469259975216876e-13
2.460456846597204e-13
1.4132685273229148e-13
-1.0903137530271018e-12
4.296382216821192e-13
-7.24642785339873e-13
1.3853183166848437e-12
-3.059480927663515e-13
-3.564733389304581e-13
-2.918989889133975e-13
9.543204206102096e-13
-3.7944852351985276e-13
-3.0348974369590646e-13
-2.617736962320691e-13
9.447119634478206e-13
-3.672577144354466e-14
-1.2440413901849708e-13
-2.1876161443987472e-13
3.798915249019168e-13
-1.1477992927339684e-12
-8.575177492046541e-13
-9.443803068068123e-13
2.9496973487454052e-12
-4.727555564793252e-13
-4.360973371261014e-13
-3.8749208775852276e-13
1.2963449813639584e-12
2.282414185190828e-12
-2.8017663421044496e-12
-1.0583408527961296e-12
1.5776930097097427e-12
1.7672451169923346e-13
-2.8403075497463526e-13
-1.687589320122538e-13
2.7606517528765387e-13
-1.175690719717842e-12
8.538225297379845e-13
-1.1267997965890057e-12
1.4486679865688614e-12
-1.0458436014604281e-12
3.579821059268514e-13
-9.69345101202908e-13
1.6572065967364958e-12
1.4398400273897834e-15
4.406566342631446e-12
-3.243739737162938e-12
-1.1642664454958414e-12
-3.84972641175615e-13
-4.4534366880159286e-13
-3.051193837349037e-13
1.135435693712112e-12
-5.590291341964234e-13
-2.9164844698970284e-13
-3.697467188927222e-13
1.2204243000788506e-12
-1.2032450662696659e-14
-1.2354808786735242e-13
-7.084999673392713e-14
2.0643053526397673e-13
-2.6483815344375824e-12
1.608814226198448e-12
-1.2076782564909902e-12
2.2472455647301036e-12
-3.1050207739525386e-12
-6.264642448027188e-12
-3.773222534104937e-12
1.3142885756084587e-11
1.9102542178209643e-07
-2.824619670552237e-07
-2.2791439794874373e-07
3.193509432218742e-07
1.6481917733293932e-11
-1.5084218147208128e-11
-4.9402651194090025e-11
4.800495160800439e-11
-2.0893780861685498e-11
1.924463434031842e-12
3.203004719821707e-11
-1.3060729770563595e-11
-1.3966626732328007e-12
2.0458549284998608e-12
8.788111772127886e-12
-9.437304027394948e-12
6.918250128085262e-11
-4.322177869044075e-11
-1.3038271055301226e-10
1.0442198796260046e-10
8.630428817398635e-12
-9.722503017226495e-12
-1.0956991933811087e-11
1.2049066133638988e-11
-6.155710940232803e-12
4.21426022949049e-12
4.138353119749779e-12
-2.1969024090074975e-12
-7.401070639350956e-14
6.840495874755454e-14
-1.2922185960430282e-14
1.8527933606385255e-14
8.730971235191986e-15
-1.9180493760435292e-13
-1.0510419874320077e-13
2.8817816511236066e-13
-1.747468252629649e-12
-1.1570664677256033e-12
-5.620772218700699e-13
3.4666119422252965e-12
-1.47408554291377e-14
1.0122012762680113e-14
-2.9310819894419545e-14
3.392966256087728e-14
3.66068297058175e-13
-2.2617055213744185e-13
-3.8870586770914564e-14
-1.0102715814981875e-13
-7.162332700879352e-15
-6.597318387037456e-15
4.3117821883150906e-15
9.44786889960172e-15
-3.605337740824453e-13
-6.97251064680126e-13
-8.833770036677204e-13
1.9411618424303184e-12
-1.427605457527382e-14
5.735987990463451e-15
-1.0243347601520297e-13
1.1097354260001381e-13
6.035203393451023e-15
-1.9289356764836296e-14
1.1872694886072142e-15
1.2066883882778045e-14
-1.0078743764672796e-11
1.0695494256221873e-12
3.409506873266615e-13
8.668243651723894e-12
-1.4041153872278102e-12
-1.2423746037665741e-12
-3.049508570607259e-12
5.695998561601604e-12
-4.8083362887955336e-14
-5.5312339121354955e-14
-4.470594558476427e-14
1.4810164759407437e-13
-1.9935104519644937e-13
1.2324883121453222e-13
-2.276474543601245e-13
3.037496683420425e-13
-1.2952423942791677e-13
6.895495761588496e-14
-1.5588636844138171e-13
2.1645565025341358e-13
6.304850315494799e-13
-7.372063696720458e-13
-5.947026231682191e-13
7.014239612907777e-13
1.972137011998337e-12
-6.798518440822211e-13
-9.388732092459489e-13
-3.5341195867014026e-13
4.541819991348554e-14
-5.454807125243148e-14
2.1724035435532063e-14
-1.259416409658621e-14
2.0798456622317567e-14
-3.0691685136096346e-14
-4.003910996811992e-14
4.9932338481898394e-14
1.110925365759093e-13
-1.5245019720841602e-13
-1.8820247834158468e-14
6.017790846666392e-14
2.3342216076511656e-13
-3.7289515556001524e-13
-2.3343299414196563e-13
3.7290598893686415e-13
5.871818483549571e-13
-1.2693359464173002e-12
-4.935472220793062e-12
5.617626318855383e-12
3.1613043426260047e-15
-3.244690742738405e-14
1.3893376912638715e-14
1.5392226172119328e-14
3.501493630373959e-14
-1.642119345862121e-13
6.414816840462526e-14
6.504882987784705e-14
3.0191235222642845e-14
-1.0009979430763529e-13
-6.498524414152446e-14
1.348938032265173e-13
1.1859688607537581e-12
-5.121694407600953e-13
-2.779919643529313e-13
-3.9580745564073327e-13
-6.987133179597343e-14
-3.958996546836012e-14
1.663960632319781e-14
9.28216909411359e-14
-9.046199906347017e-14
2.30388639644605e-13
-9.226218747070059e-14
-4.766445311043388e-14
1.5129224835403675e-14
8.65037213845939e-14
-6.378846828410527e-14
-3.7844477935892254e-14
-1.6106753452323342e-15
-1.6709191189372972e-15
-1.6043692189437212e-15
4.8859636831133535e-15
6.637305955344858e-15
-1.1645659460026922e-14
-1.1421446258972501e-14
1.642979976365458e-14
2.727053129723977e-14
-8.991331549652317e-14
1.567241341671552e-14
4.697037078256799e-14
-3.673010838562352e-15
-2.0458314898912986e-15
2.0254238703337783e-15
3.69341845811987e-15
-4.706272312289085e-13
7.131812892644144e-14
-3.6882242487883786e-13
7.681315271813113e-13
-3.862708638240325e-14
6.3769177982159e-14
-1.0110621911044202e-14
-1.5031469688711448e-14
1.2891809743434614e-13
-1.0628264952943747e-13
-1.4781110520649848e-14
-7.854337384258887e-15
2.958099279047837e-14
-1.6085802323334156e-13
1.399139467367102e-14
1.172856357691919e-13
5.1234854366827034e-15
-4.0644814722820025e-15
1.423793447143373e-15
-2.4827974115440723e-15
5.173787227177582e-13
-3.3298627671923326e-13
1.0047809279650725e-15
-1.8539722692648538e-13
-1.446554949663916e-13
-7.010136831406901e-13
-1.9099015949866092e-13
1.036659337605748e-12
-2.2172470141207104e-15
-2.4686341853265747e-15
3.3665668526939797e-15
1.3193143467533046e-15
-6.482093276276504e-13
-4.797844480558577e-13
5.052152794420557e-13
6.227784962414591e-13
2.332561927724756e-13
-4.8389701402285096e-14
1.477541078516556e-14
-1.996419021553546e-13
2.090715479070446e-13
-3.499247686293072e-14
-2.0204146464369228e-13
2.79623935995795e-14
3.493332812411848e-14
-3.8984618008946986e-14
-2.795564544954036e-15
6.8468544297825296e-15
-1.3647988729868331e-14
-4.356795390871053e-14
7.077563316376572e-15
5.0138379322202256e-14
5.3571234072623145e-14
-2.97351976415739e-13
-4.1883638433618136e-14
2.856643807767327e-13
-3.525851102082027e-13
-2.608280175050201e-13
-5.702939012430023e-13
1.1837070289562254e-12
3.5276493174118524e-14
-8.335187544920811e-14
-2.2566314150952036e-14
7.064169642604174e-14
1.1757801846139767e-12
-1.1647427864218264e-12
-6.553995191804611e-13
6.443621209883228e-13
6.946545450489191e-13
-8.058802874163945e-13
-3.363765830017363e-13
4.47602325369208e-13
-3.0937746167791296e-14
-1.4668933085681587e-13
6.070118595753284e-14
1.169258910670751e-13
2.595872962366316e-14
-4.7863767124491686e-14
2.0225226961268624e-14
1.6798105395598528e-15
-2.1451000214785177e-13
3.6174139178933133e-14
-1.4668168912466562e-13
3.2501755209358314e-13
-8.694730144827935e-15
-1.5358506009931177e-13
1.328069207748708e-13
2.947286946926897e-14
1.4326823653361712e-13
-4.083648907137535e-14
-1.1988816183956614e-13
1.745641437732328e-14
-2.031616258224157e-14
1.1119820320676386e-13
-2.619988754938173e-13
1.711168348692956e-13
7.506302851147368e-14
-8.31341591563294e-14
-1.0529659164944542e-14
1.8600789809800392e-14
2.1783228324493363e-15
-3.373765104702908e-14
-4.836254610477137e-15
3.6395582825056893e-14
-8.424659328691806e-14
-5.665828332647718e-14
-6.721975031308425e-14
2.0812462692647926e-13
-1.6147847221534675e-15
-4.131213107559692e-14
-1.062557831621503e-14
5.355249411396552e-14
1.2436276699908464e-13
-9.164339281488651e-14
-9.8903050931469e-14
6.618367674727122e-14
-1.6937636210693197e-14
-3.181279468462143e-14
4.3215910520769287e-14
5.534520374545417e-15
-2.500027011170944e-14
1.1750566202043845e-13
-8.749595345686855e-14
-5.0094384518602215e-15
-8.296389974646364e-16
-6.892778939818214e-16
-8.452692571968951e-16
2.3641861486433527e-15
-3.429552689259457e-14
6.45736041042148e-14
-1.7294047106624196e-14
-1.2984030104996029e-14
1.739492526647282e-14
2.8762410964279176e-14
-2.0688449940682598e-14
-2.5468886290069433e-14
1.2157252290620292e-15
-5.895218159372191e-14
-6.440398221591056e-15
6.417685458625094e-14
-8.896120326396559e-15
-3.7707579620131e-14
2.0254474210867093e-14
2.6349225735660407e-14
-1.3974411270779395e-14
-1.2615773233217334e-13
7.695340822136012e-14
6.317873538159302e-14
1.219423485247882e-14
-4.7716164073225843e-14
3.191029772967984e-14
3.611631491067226e-15
2.979647014698488e-14
-6.673209731509545e-14
1.6944318468506458e-14
1.999130869960404e-14
-1.0868138069497323e-14
1.463440935905258e-13
-1.5314965373436282e-13
1.7673698213333834e-14
-4.487823927377814e-14
1.0652088301354285e-14
2.104153844194429e-14
1.3184612530479474e-14
-3.542413469549686e-14
8.698444632859061e-14
-4.3229464930118893e-14
-8.330846702974884e-15
3.085418877867009e-14
4.4013991257294293e-14
-1.4389705519597806e-14
-6.04784745163666e-14
7.813143366628659e-14
-8.942599818593583e-14
-8.75971578598217e-14
9.889172237947053e-14
-4.619584290816636e-13
-1.1954281029350397e-13
4.69504776898188e-13
1.1199646247697704e-13
-8.3237887985068e-14
-3.841385980954373e-13
-2.085179217956562e-15
4.694616652984601e-13
-2.0766849329237924e-13
3.265277666510439e-13
-1.9669146061277815e-13
7.78321872541145e-14
6.59258100379908e-14
-1.8475247424004913e-13
-2.0518688281197698e-13
3.240135470140338e-13
3.983417608662564e-14
-3.0648254279612275e-13
-2.710144065096258e-13
5.376627732191268e-13
1.8204925247356706e-14
-1.1927084305302883e-13
3.221162732141897e-14
6.885429048425349e-14
-2.2910864358765785e-14
1.7670463366415652e-14
-2.0760892471032575e-14
2.6001293463382724e-14
3.1336950856788754e-14
-1.676195047001463e-13
1.5400610352174427e-14
1.2088194349118354e-13
-4.244495308102054e-13
-4.083371469351466e-13
2.553941058816787e-13
5.773925718636716e-13
-2.1691727587384753e-14
-1.3356678805669974e-13
6.278893438979878e-14
9.24695812542861e-14
-2.44869999348268e-13
-3.9671153708474964e-13
3.5200911461466853e-13
2.8957242181835023e-13
1.926937490539617e-13
-3.037799627001107e-13
6.480682856459104e-14
4.627938508155655e-14
-1.3960173445198916e-13
-2.4909549340766354e-13
-1.6551149080791447e-13
5.542087186675647e-13
6.85544734754485e-14
-1.4292808489555185e-13
9.655151096459855e-15
6.471846032364344e-14
-6.640543629868848e-14
1.7992250292337802e-13
-6.098650000590188e-14
-5.253056661878748e-14
-3.633491377835126e-14
-1.335119696158241e-14
-7.528959119979663e-15
5.721506985991339e-14
2.9637260737725743e-15
-1.4117373150000434e-13
-3.9669024615651633e-14
1.7787903004188332e-13
2.2572939570471155e-15
-7.721272254527407e-15
4.3407703189989e-15
1.1232079784813938e-15
-2.940840731074783e-15
-1.2943285515650266e-14
9.590809671856642e-15
6.2933165748683976e-15
1.179228433648605e-14
-6.864009257158052e-14
4.724619288060216e-14
9.60161535449223e-15
-1.5375975262013251e-15
-6.986074307932086e-16
3.546373739214016e-15
-1.3101687822194824e-15
0.0
0.0
0.0
0.0
-2.86616333429082e-14
5.578887565364905e-14
-1.2827454471563566e-14
-1.4299787839177246e-14
1.0504973546162436e-13
-1.0290488720240138e-13
2.8433187493713954e-14
-3.057803575293687e-14
0.0
0.0
0.0
0.0
1.2020767963266565e-12
-7.3234907143151e-13
-4.258428637548875e-13
-4.388486114025653e-14
-7.957896833493987e-14
1.9394564812683583e-13
-5.931748409416952e-14
-5.5049195697726483e-14
4.002821394658021e-14
-3.6340448615274626e-14
-1.1559099820885416e-14
7.871334489579979e-15
-1.7445468752016024e-13
-1.1577247837900333e-13
6.313887522925704e-13
-3.411615863934078e-13
-3.847596127087295e-15
-3.4464406388088014e-15
7.165027590487027e-15
1.2900917540907368e-16
2.62321714861128e-13
-3.527361161632235e-13
2.6151188715906293e-14
6.426321258618983e-14
-5.7281649477766e-15
-1.2664021513018213e-14
-4.222627018635347e-15
2.2614813479430145e-14
-3.4430791762573215e-14
-9.856755987715295e-14
6.35157698244571e-14
6.948258181526932e-14
6.932186386507879e-15
-3.056830074066363e-15
-2.336389560581323e-15
-1.5389667518601934e-15
6.169428069686699e-14
3.439776438301909e-14
-6.331601976410975e-14
-3.277602531577627e-14
-3.6395674542581274e-14
-3.4988767372566332e-15
9.606091136443132e-14
-5.6166360084593336e-14
-8.545271262264492e-16
-7.463326626853473e-16
-9.53697449602992e-16
2.554557238514789e-15
1.3257600112383448e-14
-4.932431250951981e-15
-4.605096175160271e-15
-3.720072686271193e-15
1.0681253740862192e-14
-5.343582674176265e-15
-2.510001481525944e-15
-2.8276695851599705e-15
9.31026141169224e-15
-7.269188087112089e-15
-8.127416452099699e-15
6.0863431275195535e-15
1.0413407891342258e-14
-2.2589569743240994e-14
-9.720157960603971e-15
2.1896319812502716e-14
-1.9887950417266692e-14
7.403629751918865e-14
-3.196049185031915e-14
-2.2187855251602796e-14
0.0
0.0
0.0
0.0
3.215129239131992e-15
-1.478140475501915e-14
1.3624590674961621e-14
-2.0583151590744673e-15
0.0
0.0
0.0
0.0
3.221423343225186e-14
-2.0423160224003455e-14
-1.0967580869010446e-14
-8.234923392379296e-16
-7.891679347907106e-16
-8.65098939146457e-16
-7.970932055289004e-16
2.451360079466067e-15
1.9590624662407144e-15
-7.13438544745229e-15
3.663916454535839e-15
1.5114065266757416e-15
0.0
0.0
0.0
0.0
2.3409668145382674e-14
-1.5580719561846665e-14
-9.337561930341163e-16
-6.8951923905018965e-15
-2.1370450131724984e-14
4.952145912408475e-14
-2.7886914443520887e-14
-2.6409454883891506e-16
-1.186014309598036e-13
-1.879567914749464e-13
4.4228566412866085e-14
2.623296560218848e-13
0.0
0.0
0.0
0.0
-9.803919086561956e-15
-1.7017603114124e-14
2.001820032432148e-14
6.803321876364466e-15
-3.4384661696993e-15
-1.4284944074065336e-14
8.956018103455988e-15
8.767392140308648e-15
2.757226502955532e-14
-1.9063861522509792e-13
-1.4978596797701515e-13
3.1285231817255937e-13
0.0
0.0
0.0
0.0
0.0
0.0
0.0
0.0
5.0017847958608876e-15
-3.971360528440751e-15
1.700249411491219e-15
-2.7306736789113534e-15
-3.116092082340689e-14
9.782395133568e-14
-3.4004468498441943e-14
-3.2658562013831183e-14
0.0
0.0
0.0
0.0
-9.805120899427384e-16
-6.675342492850794e-16
-8.08092372936776e-16
2.456138712164593e-15
-4.933096062033841e-15
-2.2144774489809337e-14
1.104604245672406e-14
1.603182809511911e-14
1.7012178064078834e-14
-3.3593598172487947e-14
1.646843074701416e-14
1.129893613949324e-16
7.848079759532347e-14
1.4090104263651075e-13
-3.1506898982863945e-13
9.568714959680273e-14
9.998203383646348e-13
-4.263036584982692e-13
-1.404737623398994e-13
-4.3304291752646493e-13
-1.0533953376790944e-13
-3.3200271808619664e-14
-1.6260181824706858e-13
3.0114162382359806e-13
-3.220763936133065e-14
-1.4224394934487916e-13
5.731241749473016e-14
1.1713917121148008e-13
-3.5608956156230823e-13
6.554771903192721e-13
-3.1377980486731206e-13
1.439217611035171e-14
-2.0401417726331767e-14
-6.351980424028024e-14
2.897090877247634e-14
5.4950313194135686e-14
1.6338942093767318e-14
-9.832243640516099e-15
-1.1114213423542582e-14
4.607514970291363e-15
1.9906396821750617e-14
-4.352507971914239e-14
-1.4972373050277107e-14
3.8591055947668894e-14
-8.623680955196963e-16
-7.052914856974449e-16
-8.21674936954776e-16
2.389334518171918e-15
-5.642021283085398e-15
-5.33067982535821e-15
-5.823217147081252e-16
1.1555022823151738e-14
-3.449334992957552e-14
-5.390710636755493e-14
6.525546163098578e-15
8.187491013403186e-14
3.5503016075864494e-14
-6.992037418975674e-14
4.194264355730456e-14
-7.525285443412281e-15
-1.956382293472415e-15
-1.3410993495778562e-15
-1.6856938563755047e-15
4.983175499425776e-15
0.0
0.0
0.0
0.0
2.6308674710853305e-14
-4.93618224664649e-14
2.25081835063765e-14
5.449642492350577e-16
3.208282869445629e-14
-6.775256798667732e-14
2.90834945128553e-14
6.58624477936575e-15
2.2019193818672382e-14
3.685742545528097e-14
-2.602021973067637e-14
-3.2856399543276947e-14
1.1167569252282446e-14
-5.501328257156856e-14
2.84772014268557e-14
1.5368511892430408e-14
-1.8332918477437623e-14
-6.278282998928099e-14
2.217629409474298e-14
5.893945437197539e-14
-4.163311124393182e-14
8.083232852234096e-14
-2.6711203286870592e-15
-3.6528096949722107e-14
-7.182776155946282e-14
1.694656161059618e-13
-5.321979846853722e-14
-4.441805607796201e-14
3.749826259545364e-15
-1.72359350561006e-14
8.370479771473428e-15
5.115629025081834e-15
0.0
0.0
0.0
0.0
1.0116750978620265e-13
-1.459881868975459e-13
3.508808037677657e-14
9.732596734567058e-15
1.4524404306177052e-14
-7.466682320836765e-14
-3.590921712069979e-15
6.373334061426038e-14
-6.551543987162302e-15
-2.872100597780998e-14
5.788973077961699e-14
-2.2617180814644753e-14
-4.2366784267681214e-13
-9.432864405549964e-13
-1.3351836854239074e-12
2.702137968655724e-12
7.13714357279349e-15
-2.1903908017736853e-14
1.450829937620336e-14
2.5846506873998826e-16
1.614977886822935e-14
-9.630645245022789e-15
-4.442291263759151e-15
-2.0768423594474207e-15
3.5519662305574544e-15
-3.7274660668342465e-15
7.006691224483815e-16
-5.251692861715909e-16
0.0
0.0
0.0
0.0
-1.9913755398637182e-14
2.0875782811484193e-14
2.366364773866586e-15
-3.3283921867136165e-15
-2.340135472947786e-14
4.856834671679516e-14
-2.5259921219599163e-14
9.292923228185514e-17
7.920947389061853e-15
-2.264190048483726e-14
-1.0685812644515835e-14
2.540676574029121e-14
5.1326164274063775e-14
-3.65461108560512e-14
-6.7721078944097e-15
-8.007945523602871e-15
0.0
0.0
0.0
0.0
-4.173753439905715e-14
-9.65949274635607e-13
-8.630124732627388e-13
1.870699282297397e-12
7.969944607647956e-14
-5.594076726149601e-14
-2.4393252996980962e-14
6.345741819971878e-16
-1.640917566184884e-13
2.166456162031792e-13
-1.2565377759853123e-13
7.30999180138402e-14
1.894049215512372e-14
-5.897532205073283e-14
-8.126489398551118e-14
1.2129972388112086e-13
-1.2077555525789914e-13
-5.948816109656169e-14
-5.5606188446959773e-14
2.358699048014212e-13
2.7608677619633745e-14
-2.5056253311096825e-13
-2.4673680684713766e-13
4.696906623384738e-13
-7.891157939467853e-13
-2.371548497158015e-14
-5.896344171708531e-13
1.4024656960892156e-12
-1.5064622414482535e-14
-1.5602446501777618e-15
4.3967174248240017e-14
-2.7342307183579776e-14
-3.266977157935336e-13
1.9718300179905403e-13
-5.878851639638439e-15
1.353935656341204e-13
2.2420285930523044e-14
-4.509339908353578e-14
-7.983653668469013e-15
3.0656766821481775e-14
-8.6172567014297e-14
2.7784931150640733e-13
-1.6504825097112245e-13
-2.662849352098774e-14
-1.3021637886230134e-13
2.876930044616586e-13
-6.371430098532082e-14
-9.376232461403694e-14
4.278455558825068e-14
-9.764357050759448e-14
4.276954677488288e-14
1.2089468144461101e-14
2.1906904763695993e-14
4.5330510257497715e-14
-9.188765906224544e-15
-5.804864911496913e-14
2.2510135429965047e-14
-2.972528141788724e-14
8.578818858228188e-15
-1.3636728703060636e-15
0.0
0.0
0.0
0.0
-2.4629874970843324e-14
7.116656002282041e-14
-1.4032357097713016e-14
-3.2504327954264095e-14
3.107433421360871e-15
4.863231168202165e-15
-3.916988125306661e-14
3.119921666350358e-14
-2.860174594395674e-15
-9.529870857451636e-15
5.598818791375003e-15
6.7912266604723016e-15
-1.8390598202451354e-14
1.1187498590286933e-13
-3.8350593218297057e-14
-5.513379448212086e-14
-6.3271987798408775e-15
1.0506120428660071e-13
-1.173039399156395e-13
1.8569934408879282e-14
-2.8185141479312397e-15
-2.4698079061169073e-14
1.2883863807893567e-14
1.463272940120677e-14
1.0717612281721106e-13
1.4188601813446442e-13
-1.6112133745046124e-13
-8.794080350121399e-14
2.566523008079192e-14
-2.4260533671018355e-14
-1.1756334451472122e-14
1.035163804169857e-14
-2.456590168229783e-14
5.684488102974479e-14
-2.4905262305584377e-14
-7.373717041862566e-15
2.9763326075066508e-15
-1.206658321616695e-14
7.737457551800683e-15
1.3527930568596154e-15
-3.1897470882458245e-14
3.931179803792087e-14
-3.516452249106627e-14
2.7750195335603616e-14
6.4294068683238475e-15
-1.3342612588370066e-14
6.011410961976019e-15
9.017947580701975e-16
0.0
0.0
0.0
0.0
7.09880078241061e-14
-1.0424796256509088e-13
-7.910502099320785e-15
4.117045684030546e-14
7.802361158259354e-14
-5.327984656154145e-14
-2.1530860363242534e-14
-3.2129046578097156e-15
-4.4556443446632924e-14
9.715870583849753e-14
-2.7286679641717235e-14
-2.5315582750147282e-14
4.6824496979501475e-14
-4.534596174074585e-15
-2.3654303389461714e-13
1.9425313308918906e-13
-2.3275534199695573e-13
3.27481301312568e-13
-2.583363050863279e-13
1.636103457707173e-13
-1.8268480176989212e-13
-6.638172550222509e-14
-3.154114442490984e-13
5.64477971521217e-13
1.0970086128623165e-13
-1.7169629507988625e-13
3.6961822496225526e-14
2.5033611297428772e-14
5.648303596088458e-14
-1.0811348470059541e-13
-3.0105890603984226e-13
3.5268935477955e-13
-8.936492013582076e-16
-6.952940374666706e-16
-8.483467448673824e-16
2.437289983692261e-15
-3.679272311410658e-15
-1.1298153323572242e-14
-1.2460864776652313e-14
2.7438290411635193e-14
-8.960714520207681e-15
-7.997832194700367e-15
2.3054880105849643e-15
1.465305870432309e-14
9.758410187498498e-15
-1.3917148522886132e-14
8.84707838305786e-16
3.274030497081833e-15
-1.469033289790133e-14
5.455388109708356e-14
-2.554644410400633e-14
-1.4317104095175762e-14
-5.5600026812174324e-15
-4.9615672471167336e-14
-2.1646641936240377e-14
7.682231708862519e-14
5.196373670623626e-15
-3.5195813335143387e-15
1.5031941425658787e-15
-3.179986479675166e-15
-5.269705474983359e-14
1.764127110052137e-13
-7.565923533915369e-14
-4.805642091622687e-14
-2.4080442752286474e-15
-2.2891897636814214e-15
3.4823951325719883e-15
1.2148389063380793e-15
5.208552678259179e-15
-4.38257269729851e-15
-4.124351795926387e-15
3.2983718149657166e-15
0.0
0.0
0.0
0.0
-2.7006735313975408e-15
-4.246528331874975e-15
2.931612675749902e-15
4.015589187522616e-15
-1.129967006621709e-15
-4.535681815091414e-16
-9.429151301093405e-16
2.5264503182401904e-15
-2.3458062702934133e-15
-2.0529029816846765e-15
3.0137921286836432e-15
1.3849171232944472e-15
0.0
0.0
0.0
0.0
4.483130518953607e-15
-5.128143977678315e-15
-5.222129351424487e-15
5.867142810149192e-15
0.0
0.0
0.0
0.0
-4.024417104475402e-15
-2.7315507033221842e-15
6.733030221013097e-15
2.293758678449378e-17
0.0
0.0
0.0
0.0
0.0
0.0
0.0
0.0
0.0
0.0
0.0
0.0
-1.5513041260631678e-15
-1.1451059351589148e-15
4.040529285507796e-15
-1.3441192242857123e-15
0.0
0.0
0.0
0.0
7.058789321073145e-15
-3.629434094995074e-15
-2.046943782077495e-15
-1.382411444000576e-15
1.3586263356656405e-14
-5.588651868708277e-15
-4.066988796579466e-15
-3.930622691368661e-15
0.0
0.0
0.0
0.0
0.0
0.0
0.0
0.0
0.0
0.0
0.0
0.0
-6.927220225853881e-16
-1.0087043365240538e-15
-8.802751743776617e-16
2.581701533487104e-15
-7.216812464681107e-16
-9.481354876354688e-16
-7.783616525496106e-16
2.44817838665319e-15
-7.603500975858499e-15
-5.630353464629933e-15
3.335825430902661e-15
9.898029009585782e-15
-2.3685149890603422e-15
-2.5870431748924425e-15
3.445707236407901e-15
1.5098509275448851e-15
2.4961127301185412e-14
-1.3121280582029708e-14
-1.0363238223976052e-14
-1.4766084951796552e-15
0.0
0.0
0.0
0.0
0.0
0.0
0.0
0.0
0.0
0.0
0.0
0.0
-1.702670130573111e-13
1.0162896960304909e-13
1.3197044471330671e-14
5.5440998982931876e-14
-6.3784985372311614e-15
-3.683068986699155e-14
3.092907554793197e-14
1.2280112856290842e-14
-6.850572358747976e-14
1.813830477707853e-13
-7.177574222024799e-14
-4.110158196305721e-14
-2.6266698698174025e-15
-3.8170474582171156e-14
1.7933917165065655e-14
2.286322728692293e-14
-7.131755610756536e-15
-5.981357124349491e-15
1.530231551415713e-14
-2.189202779051097e-15
-2.6843690142037073e-15
-3.240197518472689e-14
4.5247002317873666e-14
-1.016065811894311e-14
-5.156746009568011e-15
-2.4299007223123312e-14
2.1763581469214715e-14
7.692171763476603e-15
-5.236075219606149e-16
-7.628724446946957e-14
3.5196585528418617e-14
4.161426646301147e-14
-7.824214688303801e-16
-1.0551844096604787e-15
-7.673840113624168e-16
2.6049898898532752e-15
4.1408026712540286e-15
-2.0771703190936217e-14
5.647187085967546e-15
1.0983713433714637e-14
1.5005601011847988e-12
1.5930804409557877e-12
-1.4396389607091383e-12
-1.6540015814314255e-12
6.232313744797996e-14
-4.634011931489447e-13
1.240011800776274e-13
2.770768756233362e-13
2.390010675851352e-13
-2.8916772083052006e-13
-2.427204474348094e-14
7.443869798886553e-14
6.891765091203557e-14
-9.870095184104245e-14
7.008989705669943e-14
-4.0306596127692815e-14
-4.162814503318669e-14
6.123896770715226e-14
-2.5087479133680527e-14
5.476656459714907e-15
-8.448013041321852e-15
-6.94489837464827e-15
2.772046988613765e-15
1.2620864427356342e-14
1.49709162633103e-14
-3.245933226197818e-14
2.5359311819406587e-14
-7.87089582073869e-15
1.8124162592766572e-14
-3.364096638901164e-14
1.5053744506361372e-14
4.630592898836467e-16
-3.803368877827676e-14
5.283655822910765e-14
-6.738405108771389e-15
-8.064464342059402e-15
-1.3594213741280642e-14
-1.1057043154133492e-14
3.0945047893149213e-15
2.155675210609922e-14
-2.3821018314256297e-15
-2.447434252456352e-15
-2.5387784039398058e-15
7.368314487821793e-15
-5.0659962000347145e-14
6.716845071708636e-14
-8.581634778336166e-14
6.930785906662232e-14
-1.9425785640433618e-14
-5.6094166597858045e-14
3.893314832655329e-14
3.6586803911738405e-14
2.170570159733203e-14
-4.1724062079268756e-14
2.582867713499697e-14
-5.81031665306028e-15
1.254367492299007e-12
-8.831500698310125e-13
-8.973327672463097e-13
5.261153447783097e-13
2.422044804647896e-13
-2.8246717749483357e-13
-3.809999341793418e-13
4.212626312093836e-13
3.601283458456392e-14
-2.3876095541853357e-14
-4.955302550534398e-15
-7.181436492176096e-15
-3.759593927377424e-14
-7.677551556616477e-14
-1.3935583429479903e-14
1.2830703826941905e-13
1.709069696812638e-13
6.970687967022708e-14
-1.6144792629291957e-13
-7.916592305857152e-14
3.2138905287324704e-14
-1.4033675603012935e-14
-1.1981431155989893e-14
-6.123798528321894e-15
0.0
0.0
0.0
0.0
0.0
0.0
0.0
0.0
-3.505693530168634e-14
1.5615534502422132e-13
-6.472440711455992e-14
-5.637400260797512e-14
-5.1491177408799514e-15
-3.7866473556605446e-15
7.28513563795673e-16
8.207251532744816e-15
0.0
0.0
0.0
0.0
-4.4076356588993875e-14
2.1424270539172532e-14
-3.007443901683209e-14
5.2726525066653446e-14
6.387168611285541e-14
-2.025567241359794e-13
5.015085428872491e-15
1.3366995259425196e-13
-4.2901414587833867e-16
-2.4481099365063747e-14
1.1880806415802349e-14
1.3029307095139728e-14
0.0
0.0
0.0
0.0
0.0
0.0
0.0
0.0
-4.10566947947745e-13
-1.8461237875925082e-13
-8.026520070049963e-13
1.3978313337119856e-12
6.487979297652136e-14
-7.038789731145541e-14
-6.485379004168555e-15
1.1993483339102717e-14
-1.1081276712771178e-15
-2.2182175767279596e-15
4.446359706031101e-15
-1.1200144580260225e-15
2.9382162458397586e-14
-5.4101133467608954e-14
-2.413003954640074e-14
4.8849010555612175e-14
2.2899731181262225e-14
-4.054551075070742e-14
9.729614464750885e-15
7.916165104694398e-15
-3.2913688972974377e-13
-6.615887403554907e-13
-2.702238605765787e-13
1.2609494906618257e-12
5.656624627757984e-15
-2.923149154385459e-15
-3.4951530018997623e-15
7.616775285272385e-16
-4.437842830896973e-14
-9.667302514158781e-14
-3.6930269898254837e-14
1.7798172334881237e-13
-7.240303073506851e-14
1.1025554877572138e-13
-4.335558187683664e-14
5.503063836183624e-15
2.4904605758409862e-15
-8.065663346078892e-15
-1.1703394357550425e-15
6.745542205992951e-15
-1.6585713577547678e-14
-4.263700099769555e-14
2.388065819947731e-14
3.5342056375765934e-14
0.0
0.0
0.0
0.0
-3.759558096286599e-14
9.283920321750928e-14
-2.753692016008739e-14
-2.7706702094555935e-14
0.0
0.0
0.0
0.0
0.0
0.0
0.0
0.0
-1.2647077474587618e-14
-1.062329672418056e-14
1.426224851793417e-14
9.008125680833997e-15
-8.372138356006844e-14
1.2753826473908824e-13
-1.0516959152714527e-13
6.13527103481258e-14
1.6787082462974995e-14
-4.340741920989125e-14
-1.0205971668771182e-15
2.7640933913793358e-14
4.121157911534507e-14
6.378223324318809e-14
-2.891498283214385e-14
-7.607882952638918e-14
9.684967093258431e-15
-7.450001365016712e-14
4.253039574276223e-14
2.2284650814146298e-14
1.0972957639482937e-13
-1.127532222190958e-13
-3.1698907805908096e-14
3.472255363017445e-14
-9.709278978966455e-16
-8.967747628957963e-16
-7.236279275873836e-16
2.591330588379825e-15
3.836176282418411e-14
-4.2117677598125146e-14
6.384775834281673e-15
-2.6288610603405928e-15
-1.0866197036504376e-14
-6.193437333910796e-14
4.4450513366342876e-15
6.835551903897796e-14
2.6668368966583942e-14
-5.102931155303553e-14
2.2156429188863843e-14
2.2045133975877416e-15
9.334352744039304e-15
-6.7321178017719644e-15
-8.926801676806782e-15
6.324566734539436e-15
-3.721035099448653e-14
1.0614563942462665e-13
-4.588975144629132e-14
-2.3045536983848782e-14
4.985313577890263e-14
1.2476666780384054e-13
-1.0119560064517408e-13
-7.342420293756912e-14
7.689327543809212e-15
-1.0257238057019905e-14
1.1257371422844189e-15
1.4421733709262717e-15
0.0
0.0
0.0
0.0
0.0
0.0
0.0
0.0
1.357453890064386e-14
-8.68376050303326e-14
-2.916266433077784e-14
1.0242573046046634e-13
2.907719589536438e-14
-2.421803552079568e-14
-1.9989971601987337e-14
1.5130811227418663e-14
-3.521172020508912e-15
-2.872362943843484e-15
2.696112040558282e-15
3.697422923794114e-15
-2.823385279534119e-14
-7.017999164996503e-14
4.751362054576216e-14
5.090022389954386e-14
-8.626737624799858e-16
-8.771821229720848e-15
-4.661274918256535e-15
1.4295769910457365e-14
7.696520882505244e-15
-1.0282398073900167e-14
6.004091743443392e-16
1.9854680170505854e-15
5.00662586207531e-15
-1.6055362439409057e-14
1.4174736951685402e-14
-3.1260003743516465e-15
-3.598589169457429e-16
-9.958792389810788e-15
1.2137218196242596e-14
-1.8185668894860773e-15
3.7204780053511966e-15
-5.750611163437847e-15
-1.758636114779915e-16
2.2059967695646396e-15
2.7547012814309895e-15
-2.4295202381644258e-14
9.68298883919579e-15
1.1857512261017423e-14
-4.185345051060666e-15
-1.3548814266933215e-14
-1.453620491275026e-15
1.9187779809268895e-14
8.79059652848694e-15
-1.023980432665607e-14
-1.0270958519518925e-14
1.172016631768806e-14
-2.1753910043132487e-15
-3.221695752226108e-15
3.847355670722728e-15
1.5497310858166294e-15
1.8876451431710592e-14
-7.255619491092527e-14
-1.8758333866410576e-15
5.55555768658559e-14
3.11165200849686e-14
-1.4964306705351833e-13
5.97986446949646e-14
5.872790227358513e-14
1.2122754659362669e-14
-2.2099300541457318e-14
-7.752094082495991e-16
1.0751755290344276e-14
-6.983581869417975e-14
-3.121438230825091e-13
-4.533742735881963e-14
4.2731706913550713e-13
1.7659152870367685e-14
-2.184481672146228e-14
-1.1178401779541367e-14
1.5364065630635937e-14
-3.359147939901091e-14
-8.905166071042425e-14
6.32234266113677e-14
5.941971349806735e-14
4.787459155961309e-15
-3.1600826977857534e-14
9.87956883990358e-15
1.6933798981992635e-14
1.3014846224679687e-14
-1.2945216516483158e-14
-2.2339839346925988e-15
2.1643542264960678e-15
-7.391567976734336e-15
-9.025446518185831e-15
9.520339825371555e-15
6.89667466954861e-15
-2.3291567807941333e-14
-4.6613119313326296e-14
2.3504735629871553e-14
4.6399951491396105e-14
-5.493890024631215e-13
6.657929255608211e-13
-3.336823671578613e-13
2.1727844406016417e-13
-3.427593820740647e-15
-3.069243098615328e-14
9.63093040140363e-15
2.4489094405490324e-14
-4.415811074667162e-15
-3.2269776793218037e-14
-4.3780059942242344e-15
4.106359386210948e-14
-6.02412640174299e-15
-5.404394088525465e-15
-6.052640271204223e-15
1.748116076147269e-14
-1.6837524405225128e-15
-1.8792044699050013e-15
-1.6427792917802888e-15
5.205736202207802e-15
-5.338161940368038e-14
9.374379208970421e-14
-3.519283190587927e-14
-5.1693407801446774e-15
-4.1257601052601386e-14
1.1249136861957531e-13
-4.687454971982295e-14
-2.435921784715089e-14
1.8825920756566836e-14
-5.042571919342024e-14
2.447641959162422e-14
7.123378845229166e-15
-1.7352452884337075e-14
1.1473988949610323e-13
-5.64582695580596e-14
-4.09291670537067e-14
4.0029595176400113e-14
-2.109919254704563e-14
-1.1639390003471779e-14
-7.291012625882699e-15
-3.062445221176084e-14
7.333074082835651e-14
-3.1828095847729686e-14
-1.087819276886597e-14
7.917113263170243e-15
-8.892517972667238e-14
1.5778215394697019e-15
7.943024492403249e-14
-9.465133345802656e-15
-8.282993981569683e-15
-3.36317061265181e-15
2.111129794002415e-14
2.894316060385365e-14
-3.40189219883929e-15
-1.7603718628101922e-14
-7.937549776912494e-15
-3.0026074896920244e-16
-1.017393324825296e-14
2.2221355658488493e-15
8.252058431373321e-15
0.0
0.0
0.0
0.0
-1.966458999522927e-15
-1.024013773884997e-14
9.24875690894062e-16
1.1281721047478843e-14
-1.154816952923635e-13
3.0065752805778924e-13
-1.8391159258212355e-13
-1.2642401833019516e-15
-4.5906076311157194e-15
-3.654109370479834e-15
1.7067418946268012e-15
6.537975106968746e-15
2.4939252268615326e-15
-7.083622125024429e-15
5.670387115827123e-15
-1.0806902176642272e-15
0.0
0.0
0.0
0.0
-4.9878944398049184e-14
7.016833596736431e-14
-1.283731834400672e-13
1.0808379187075265e-13
-1.938561684259481e-14
-1.8456818028641463e-14
8.711634369759919e-15
2.913080050147635e-14
-1.411041734192645e-15
-1.6829745705258148e-13
1.0884130874814033e-14
1.5882436791195994e-13
0.0
0.0
0.0
0.0
2.246436862334782e-15
-6.639841662401984e-15
-6.400178182623409e-15
1.079358298269061e-14
-6.922689231021626e-14
-3.4266074189808695e-14
-4.148945902818978e-14
1.4498242552821471e-13
5.4323330528197446e-15
-1.010036079805965e-14
-1.0902849468125323e-15
5.758312692052447e-15
-6.790161809693623e-14
1.992619284565699e-14
5.2157466661385796e-14
-4.182041410106531e-15
-1.1649259282679558e-13
1.419745614153792e-13
-1.297561496085273e-13
1.0427418101994338e-13
-8.10265513117884e-14
2.0068812814076496e-13
-7.632479111462216e-14
-4.3336785714354084e-14
-9.510232584785076e-16
-5.806536537274696e-16
-9.119800522564673e-16
2.4436569644624443e-15
0.0
0.0
0.0
0.0
0.0
0.0
0.0
0.0
-7.873228466859939e-15
-1.0329918047462477e-14
8.558590470681915e-15
9.644556043640496e-15
8.776535876971936e-15
-3.168904715871222e-14
2.4496749674337965e-14
-1.5842383925976714e-15
-8.361458919097205e-14
-5.2715336354694736e-14
3.937064010783301e-15
1.323928615348837e-13
-9.03994179384963e-14
1.553827570795509e-13
-1.5515497287860544e-14
-4.9467841853194084e-14
-7.453540134457378e-14
1.0027394612763989e-13
-2.7107404399583164e-14
1.3688596165169527e-15
-2.9798295626831753e-15
-1.6959623483125384e-14
-4.796157699905085e-15
2.4735610745713633e-14
-5.616416689738849e-15
-1.2202170934964854e-14
1.1167766127591694e-14
6.650821497111997e-15
0.0
0.0
0.0
0.0
2.748949232911015e-16
-8.285293463431574e-15
8.046171985012925e-15
-3.57734448724565e-17
5.717434808099468e-14
-5.147910567077712e-14
-4.04101038659574e-14
3.471486145573967e-14
5.603267701099513e-15
-7.424189016859778e-14
-7.286239738873598e-15
7.592486220637176e-14
-3.91248131597536e-15
-1.2429490078373103e-14
-1.234374256469663e-15
1.7576345650818136e-14
5.9414619018741944e-15
-5.352898420207339e-14
1.4000500144270401e-14
3.3587022155928795e-14
4.2324037122485644e-15
-1.370332699123497e-14
8.14799039742057e-15
1.3229328815658462e-15
-1.6215795794782246e-13
1.9555106430060464e-13
-3.142544247842057e-13
2.808613184314215e-13
2.1082996151204903e-15
-6.831603591996772e-15
-2.0155216616432365e-15
6.738825638519515e-15
3.7892010527026656e-14
-5.4935639670864296e-14
-9.143284438203833e-15
2.6186913582041588e-14
4.5052285416764704e-13
-1.9367837923763803e-13
-1.6146482445475927e-13
-9.53796504752489e-14
5.313035104977311e-14
-4.6177293812902704e-14
-3.389171841255715e-14
2.6938661175686822e-14
1.254613676063985e-14
-4.739958390157646e-14
1.819014441486038e-14
1.666330272607623e-14
-1.023802169701756e-14
4.721344037392411e-14
-3.0530537781169563e-14
-6.444880895737075e-15
0.0
0.0
0.0
0.0
-1.0507303501031516e-13
1.280824351497244e-13
-6.741192463933953e-14
4.440252449992976e-14
3.285984152861269e-14
-5.1658940759185314e-14
1.0470806578542475e-14
8.328292652030125e-15
-1.3779587436239605e-14
2.839174448948947e-14
-2.748251174533476e-14
1.2870354692084944e-14
-3.8505416887308257e-14
1.0772608134855239e-13
-5.197339750051394e-14
-1.724726696073025e-14
5.6386443375256295e-14
-6.698122185301521e-14
1.5880305089099766e-14
-5.285526611340858e-15
2.0369120045738163e-13
7.573685265090223e-13
-5.776734458831773e-13
-3.8338628108322594e-13
-8.472469372556567e-14
3.0120683287666403e-13
-1.2310137145867575e-13
-9.338076769242272e-14
1.037318753542381e-13
-1.913044009416143e-13
6.162343959209944e-14
2.5949085995276957e-14
5.67836365374785e-14
-1.1499613950536447e-13
2.1895143699844983e-14
3.6317359268040685e-14
6.7260614414263765e-15
-1.057460046059439e-14
3.1626186800782245e-16
3.5322771511601915e-15
-6.21455436755344e-15
-3.335761791766534e-14
-5.038058115767768e-15
4.46102304009865e-14
-5.850276202412788e-14
1.5588022641228502e-13
-7.658332870209601e-14
-2.0794135686060868e-14
5.051505337468956e-14
-4.543663361471058e-14
-1.348270622089527e-15
-3.730149137889462e-15
-9.776610719990777e-15
-7.138167906315241e-14
4.535099852099679e-14
3.580729126214658e-14
-3.152453822277154e-14
5.776692125134477e-14
-1.513042430835968e-14
-1.111195872021357e-14
-5.457188037813738e-14
1.5711268026496482e-13
-7.155805683572867e-14
-3.098274305109856e-14
-1.4143132757311018e-13
2.381730456772133e-13
-1.9177323565170604e-13
9.503151754760054e-14
-6.999685207406462e-15
-2.3082028712575436e-14
-8.015655392985775e-15
3.809736931296771e-14
0.0
0.0
0.0
0.0
-6.081235763734206e-12
4.168117171727372e-12
4.090036406919522e-12
-2.176917814912714e-12
-1.3314065374071279e-14
-2.2662593784654123e-14
1.7013807189601978e-14
1.896285196912343e-14
5.51907558195368e-15
-2.5861060528550916e-15
-3.489197442669213e-15
5.562279135706228e-16
3.237954985029083e-15
-5.624415333906475e-15
-5.446465476279406e-15
7.832925825156798e-15
-1.2354549977033524e-14
-2.016113625258559e-14
2.94422176451987e-14
3.0734685844203853e-15
-2.6818825776886176e-14
-2.790646836712854e-14
5.1734507194288837e-14
2.99078694972587e-15
-1.3792460864713457e-13
7.794216845076646e-14
7.333851181468284e-14
-1.3356071618315189e-14
4.90723347762648e-15
-6.098955612450331e-15
1.422985382737046e-15
-2.312632479131936e-16
-6.152092625193012e-15
-4.606627529836616e-14
5.03093765347053e-14
1.9089913888538565e-15
-2.9147193064264442e-15
-2.826137640501509e-15
8.39314344465713e-15
-2.6522864977291777e-15
0.0
0.0
0.0
0.0
-7.709046553943371e-15
-1.7415302510262733e-14
2.303138783552579e-14
2.092961228680311e-15
-5.5301860514353474e-14
6.8551755104693e-14
-1.544977898705234e-14
2.1998843967127793e-15
0.0
0.0
0.0
0.0
0.0
0.0
0.0
0.0
0.0
0.0
0.0
0.0
0.0
0.0
0.0
0.0
0.0
0.0
0.0
0.0
0.0
0.0
0.0
0.0
0.0
0.0
0.0
0.0
0.0
0.0
0.0
0.0
9.252528310157278e-15
-1.7364130631825535e-14
1.1409273082586164e-14
-3.297670760917907e-15
-6.227796540999275e-14
-6.032083625057042e-14
1.848143368532797e-13
-6.221553519271755e-14
2.064153662898001e-14
2.9209804443946766e-14
-4.631830650423123e-14
-3.5330345686956285e-15
-2.1558043371945487e-13
1.662445305836254e-13
7.197255291647196e-14
-2.2636649780642804e-14
4.165370153622973e-15
-2.0430806791737598e-13
1.5262984617219252e-13
4.751285159155952e-14
6.243524156678607e-15
-1.5671433635744193e-15
-3.0090526101853048e-15
-1.6673281829188837e-15
-1.0582421285515942e-12
7.758680526807071e-13
3.615977558294216e-13
-7.922367995854424e-14
-3.550806867841193e-14
1.7136058957571375e-13
-5.615846831118469e-14
-7.969405258611762e-14
3.6045559970248374e-15
-1.3047812461503494e-13
7.409880495019315e-14
5.27747636678174e-14
-4.763748023633667e-13
6.772155809371466e-13
1.5483573315139312e-13
-3.556765117251758e-13
-8.493037794829118e-14
4.3571686688779525e-13
-3.16772700790374e-13
-3.401378814912632e-14
-3.329791844680552e-14
6.792333573080621e-14
6.032798253389712e-15
-4.0658215537390495e-14
-8.976617452306096e-13
5.808178715357322e-13
-1.5601522490938638e-13
4.728590986042628e-13
-1.5245770381578017e-12
1.4833550878208779e-12
-6.09147456031743e-14
1.0213669594010657e-13
-1.0715821869374526e-12
8.392965087428379e-13
2.2555996993817178e-14
2.0972968120079441e-13
0.0
0.0
0.0
0.0
-6.397473514901409e-13
2.252290911660303e-13
1.2731164070078863e-13
2.872066196233238e-13
4.2399793566722206e-14
-1.1409165233432405e-13
5.398260468626223e-14
1.7709254081339684e-14
1.4757300239830622e-13
-6.957400030878652e-14
6.964573587952472e-14
-1.4764473796904566e-13
-5.292889466159785e-13
-7.483512101362695e-14
1.5310829091726397e-13
4.5101577671234345e-13
3.953881670986537e-14
-3.273673375110962e-14
1.6240314970645936e-15
-8.426114455820384e-15
-1.457847747938705e-13
6.510832726844528e-15
-1.452016827962966e-13
2.8447562486332316e-13
1.641363358213131e-13
-2.2894613048601307e-13
2.9200299473295226e-14
3.560949519140461e-14
-4.76082635083882e-15
-7.792987581673157e-14
6.972097578737149e-14
1.296972638019854e-14
-1.777946387360435e-13
1.55789897585347e-13
1.5061871173570097e-13
-1.2861397058500435e-13
8.279624324831596e-14
-2.571033769114755e-14
-4.9747935514257934e-14
-7.337970042910491e-15
3.918267901832182e-14
-8.493075807979001e-14
1.4759164473232423e-14
3.0988914588235625e-14
3.5659257466804796e-13
-2.923225401082109e-13
-2.9929637426263106e-13
2.350263397027916e-13
5.972751280397729e-13
-5.107244647098914e-13
3.278990838738108e-13
-4.1444974720369355e-13
-9.002082866739567e-15
-1.8537334390729966e-13
-1.3139222857880344e-13
3.2576765535284386e-13
-1.3756405099495518e-13
2.469302133791261e-13
-1.8834099283800982e-13
7.897483045384015e-14
1.391743062725179e-13
-5.462454375084515e-13
-2.160120019945832e-13
6.230831332305141e-13
-2.7432064174359982e-15
-1.1259749738665653e-14
5.105649796803936e-15
8.897306359297735e-15
3.776556892127542e-14
-2.4916955947536684e-14
-5.0473191171175986e-14
3.7624578197437304e-14
8.765107176528472e-15
-8.682622155418886e-15
-2.8140004315021015e-15
2.731515410392512e-15
1.1600317614194115e-14
-1.5793025387383187e-13
6.871215588712542e-14
7.76177803725128e-14
-8.780137868131167e-14
9.452657292484826e-14
-3.7984838310203186e-14
3.12596440666667e-14
1.7710073122099634e-13
-2.6808913670573e-13
-2.0960276427825804e-13
3.0059116976298884e-13
9.254341818233348e-14
-7.739697829264288e-14
6.962275176581573e-17
-1.521606264145629e-14
5.722848915257168e-14
-6.441604906269636e-14
-4.22414866467008e-14
4.9429046556825566e-14
2.4933404710420793e-14
5.0160493559276e-14
-5.4586607735418144e-14
-2.050729053427859e-14
-7.094276936424929e-16
-7.437310119705292e-15
2.293415749736613e-15
5.853322063611172e-15
5.271666701527796e-14
-7.02107450025342e-14
-9.451666184701666e-15
2.6945744171957895e-14
-1.158296414479741e-15
-3.449720530750912e-14
4.4664456260211956e-14
-9.008954538223094e-15
1.3632310415491473e-13
1.1023178677882983e-14
-1.19533856933294e-13
-2.781242589950324e-14
-3.4723221444859986e-14
3.596875821778057e-14
-8.760470512027899e-15
7.514933739107386e-15
4.857954469021789e-15
-1.1007110740727307e-14
-1.9475923136340062e-15
8.096748585339534e-15
-3.5802399501128055e-14
1.5438894230405015e-13
-6.788682162246957e-14
-5.069972118045253e-14
1.003009594014552e-14
-4.69302954333371e-14
2.5121381423554325e-14
1.1778818069637295e-14
3.892138046859491e-14
-2.218148704898901e-14
-1.816315022771638e-14
1.423256808110442e-15
1.8143411789612116e-14
5.2765520707128375e-14
-9.130122871814476e-14
2.039229622140441e-14
4.446400945066523e-15
-2.851160951993298e-15
-4.4164979261677345e-15
2.8212579330945116e-15
-5.915008034968534e-14
1.6028630751180165e-13
-8.774003110153542e-14
-1.3396196060580886e-14
-4.0854016324152577e-14
9.765219741189546e-14
-4.377619537937159e-14
-1.3021985708371256e-14
1.264696065254901e-13
-1.2006719362340573e-13
-1.6861204428634402e-14
1.0458791526549688e-14
2.7376680791458783e-14
-9.688877142751023e-14
2.7939383809849278e-14
4.1572706826202114e-14
-7.999698904161542e-17
-1.683889518364928e-14
5.272337999636181e-15
1.1646554173054701e-14
-5.7711812364105076e-15
1.5347592662503475e-13
-6.915591391183381e-14
-7.854883147679031e-14
6.711020091351166e-14
-1.370908033771767e-13
3.046297877542784e-14
3.951762368823749e-14
-4.4743972265604505e-14
-5.0943490828211923e-14
1.352532895379188e-14
8.216213414002477e-14
0.0
0.0
0.0
0.0
-9.768578892101477e-15
-3.873308013112045e-14
3.1734408439038285e-15
4.5328218179318086e-14
-5.655552281381947e-14
7.175172783354486e-14
-5.4972525974852355e-14
3.9776320955126577e-14
1.7206537691118505e-15
-2.1591442397156814e-14
-1.956892073285631e-14
3.943970936090124e-14
4.096828740890731e-14
-1.286900721194526e-13
-2.3011163583237438e-14
1.107329482937825e-13
-3.1246301054170646e-14
-3.254884061110692e-14
-7.73778470606348e-14
1.4117298872591272e-13
2.765922194328544e-13
-2.439061922504354e-13
3.701099315794229e-14
-6.9697020340362e-14
-5.362861096980716e-14
1.7111177359195044e-13
-7.915750019975116e-14
-3.832566242239225e-14
-6.163436277595683e-16
-6.799857883427571e-15
8.250659570731805e-15
-8.344580595446637e-16
-3.2381111853708376e-12
2.012748685154045e-12
2.8411395590970023e-12
-1.6157770588801935e-12
-4.910158452382407e-14
1.2417050931158172e-13
-7.872537534696684e-14
3.656450559208712e-15
-1.9589081385667572e-13
-2.6067015603452712e-14
-3.0962781912464e-14
2.5292061137259175e-13
-1.5261378747261899e-13
4.1601923071991394e-13
-1.6614817336755137e-13
-9.725726987974311e-14
9.482048516088794e-14
-2.8040516530728046e-14
-6.693809477546365e-14
1.5812614530384535e-16
6.685863366966049e-14
1.869622540008327e-13
-6.520031319085754e-14
-1.886205744796377e-13
1.8892557892507185e-13
-2.8689943643511775e-13
1.2184891046870642e-15
9.675536840535877e-14
2.836594224066518e-13
3.182553735080004e-13
-1.7581280547674957e-13
-4.261019904379035e-13
7.619741914105069e-14
-9.930354035683416e-14
-5.172662422358441e-15
2.8278783638141878e-14
-3.219276436922282e-13
-7.231929080537445e-13
-7.681134896966125e-13
1.8132340414425864e-12
1.601187619444221e-15
-2.5421907351193328e-14
2.0444183251252555e-14
3.3765364804965596e-15
1.4127616167023809e-12
4.439317823425827e-13
-3.417581241361099e-14
-1.8225175866313323e-12
6.745159332993676e-14
-8.036112585271737e-14
-9.248387267384727e-15
2.2157919790165416e-14
1.3376882529728563e-16
-9.477081871941236e-15
9.152534264888187e-15
1.9077878175575669e-16
-7.714417916772398e-14
-2.8094381418102383e-15
-1.2208230248306406e-13
2.02035919792599e-13
-2.9972957653476873e-13
-3.4687079012452066e-13
1.6659790715773954e-13
4.800024595015554e-13
-3.897090241144037e-13
-8.293501593026682e-13
2.9523468206043154e-13
9.238245013566374e-13
2.883881977655091e-16
-1.1920950562845272e-14
8.603307215770884e-15
3.0292551493088785e-15
-2.2165039420854227e-13
1.797578654499899e-14
-1.7076045663235826e-13
3.744350642959014e-13
7.200571737789902e-14
-1.4192337572946869e-13
-3.591535675645288e-14
1.0583301510802288e-13
1.3784068906409702e-13
-1.6356466150287558e-13
-1.0976667077463368e-13
1.3549064321341167e-13
-8.558164881322922e-14
-1.836525297240624e-13
-4.499175371103591e-14
3.142259322483282e-13
-3.806486392559862e-15
-5.639002757142684e-14
-2.3678679821124973e-14
8.387519378511164e-14
-6.111574495586283e-14
-1.2811382277429955e-13
-4.760069382527447e-15
1.9398963711268914e-13
4.1645911813653575e-14
-9.925064548380161e-14
-2.0245233045155307e-15
5.962925697466339e-14
-5.884420742041437e-14
1.0154271619488996e-13
-9.560207416155393e-15
-3.3138301358320245e-14
-3.986297871639943e-14
3.7696982798159745e-14
-1.5749675240300222e-13
1.5966274832124139e-13
5.740803398513852e-14
-3.7925427021581674e-15
-3.334024043256308e-14
-2.0275250850417302e-14
-3.5051169842847305e-14
7.957732112665415e-14
-3.048306691041351e-14
-1.404308437339329e-14
-1.0251721641911508e-14
-1.1173764790707849e-13
-3.446292512797862e-14
1.564522946769683e-13
1.8190549619492562e-14
-2.7699368891423944e-14
1.5377370515739334e-14
-5.868551243807949e-15
-7.932144627613916e-14
1.359128320182724e-13
-3.504027589782137e-14
-2.1551109844311853e-14
-4.36428444090574e-14
1.5582753006873178e-13
-6.539794533015418e-14
-4.6786740329520064e-14
-1.0391290451550998e-13
3.4632237325639267e-13
-1.3692917394174376e-13
-1.0548029479913852e-13
-2.368473379631936e-13
2.5209849070799604e-13
-2.0762190094271805e-13
1.9237074819791486e-13
-3.5607596883874776e-13
-1.2255542001141051e-13
-2.328609771389444e-13
7.114923659891097e-13
1.2512012491861114e-13
-5.46914278878027e-13
-5.534192830706747e-13
9.752134370300907e-13
2.7462849266262084e-14
8.367890166955842e-14
-1.4305642013019773e-13
3.191466919437665e-14
1.1955401520719685e-13
-5.438314715977627e-13
-2.1152335115710616e-13
6.358008075476707e-13
-1.2827946528504098e-14
3.894843432554634e-14
-1.4880102973035926e-14
-1.124038482400631e-14
-4.620405652209798e-14
3.1570786007953184e-14
-2.75707023049635e-14
4.220397281910839e-14
7.783433394892773e-14
-1.853092147431783e-14
-3.9983818927611325e-14
-1.9319593546998797e-14
0.0
0.0
0.0
0.0
1.3296991110282515e-14
-2.885136214001593e-14
-2.8449052350481607e-15
1.8399276264781624e-14
-2.6931650652457342e-14
2.417306261473688e-13
-2.4114639405031354e-13
2.6347418555401396e-14
-2.1160440720995e-14
-2.0475755742497214e-14
3.4659516129159657e-16
4.128960130220059e-14
-2.957189743544269e-14
-2.5425156374350964e-14
-4.49899758154593e-15
5.949605139133974e-14
1.2640263763031447e-14
-8.232387246112817e-14
2.6812687292202126e-14
4.2870921405894333e-14
-7.676744082237443e-14
1.604715316188683e-13
-4.8035075834942006e-14
-3.566901496155182e-14
-7.264911377750417e-14
-1.0074369678802501e-13
-3.1206736587743305e-14
2.0459954715327133e-13
-4.337142280535711e-14
-1.2704350445270143e-13
1.7080669540689393e-14
1.533342577173692e-13
2.993451013776828e-14
-4.143143701061045e-14
3.1348064377712763e-15
8.36212043507091e-15
-1.7034168313705144e-14
-9.012908639651436e-14
8.288452967839767e-15
9.887480174238003e-14
9.293138156269805e-15
-4.160378203792943e-14
-1.1549125771654202e-14
4.3859769653313744e-14
-6.086144601202038e-14
5.136530067398144e-14
-5.599762072445652e-14
6.549376606249555e-14
2.020032681896323e-15
-7.848894031767536e-15
-1.1821132504547625e-15
7.010974600325973e-15
-5.136188758843685e-14
3.307037301729238e-14
3.2198981940329836e-15
1.5071616377111414e-14
-6.223880235874797e-16
-1.0388829382029725e-14
2.244180493962689e-16
1.0786799356220944e-14
-1.8109217096881718e-14
-2.5231878098475674e-14
8.153690371358844e-14
-3.8195808518231e-14
3.3765195052151227e-14
-2.5193373746153424e-14
1.0974211782135194e-14
-1.954603308813303e-14
-5.2657681894960117e-14
1.728007170072949e-13
-9.733918883872661e-14
-2.2803846273608204e-14
6.401940659371963e-15
-6.116244784481468e-14
5.1427408931650057e-14
3.3330982537924417e-15
-1.2867983789484705e-15
-2.9696971435816e-15
-1.0664715007142795e-15
5.322967023244352e-15
-1.2148377819020542e-14
-2.349087965930148e-14
1.005529480800622e-14
2.558396267031573e-14
7.90518116896395e-14
-6.53346858944407e-14
-3.313262282453482e-14
1.941549702933601e-14
-4.3501177429110926e-15
-5.178747568672551e-14
2.2865956644539702e-14
3.327163678509705e-14
-1.1849775168072371e-12
2.0193054668016223e-12
-5.45648933591255e-13
-2.886790164031324e-13
-4.492934860262089e-15
-1.292160379490988e-14
1.4857998158402418e-14
2.556540496769554e-15
1.2635151793996477e-14
-7.678740767947326e-14
4.2280561810225616e-14
2.187169407525118e-14
7.55304326801941e-15
-7.364418144625742e-14
5.3838762629350235e-14
1.2252375548887618e-14
2.2580475496536127e-14
-2.3826380821771257e-14
-4.1814445686284315e-15
5.427349893863557e-15
-1.6879711421416253e-14
-1.9636586025135344e-14
9.753041701425638e-15
2.6763255745125935e-14
1.6280443603743205e-14
-1.9585372018455e-14
1.2972463535329656e-15
2.007682061178808e-15
1.2452593109478044e-14
-2.1245444970405694e-14
-1.219558582740024e-15
1.001241044366769e-14
-1.191625863813079e-14
-2.3275316152387474e-14
1.3427215169388269e-14
2.176435962112997e-14
5.171501929038046e-16
-6.65581711213871e-14
4.021799513770445e-14
2.5823025790778786e-14
-1.129809300177621e-14
-3.498912113234654e-14
3.299176674920635e-14
1.3295447384916352e-14
4.5478231999907995e-14
-5.264377679567129e-14
1.2861450568153983e-14
-5.6959057723907864e-15
1.17383111447916e-14
-4.13192280301535e-14
1.4192689334037512e-14
1.538822755132439e-14
1.7769015582866157e-12
-1.041843376248309e-12
-2.3477685879914264e-13
-5.002813232391868e-13
3.943504231157805e-14
-4.370062598363627e-14
6.335929204503902e-15
-2.0703455324456154e-15
1.8757014082792708e-14
-3.9462926424935233e-13
-2.291847008063085e-13
6.050569509728753e-13
2.916512181110443e-13
-4.726001784172023e-13
-5.707902568894308e-13
7.517392171955874e-13
3.08201895551112e-14
-7.79079676888178e-14
-2.7072236482013192e-14
7.41600146157198e-14
-6.079552387641392e-14
-2.4964189268455166e-13
-1.357317849899136e-14
3.240105950599581e-13
-5.718119503464408e-16
-1.188437996381118e-14
1.6833801351179096e-15
1.0772811779039716e-14
-2.5313406950938225e-15
-2.174998451740699e-15
-2.544286846779361e-15
7.250625993613884e-15
2.0537913241331714e-14
-6.350067282224585e-14
4.1771544700117544e-15
3.8785605110902497e-14
-2.7949062243615518e-15
-2.8685613466491023e-15
2.0332670078736694e-15
3.630200563136984e-15
0.0
0.0
0.0
0.0
1.2451357135804836e-14
-2.5073140968260974e-14
9.709261737861337e-15
2.9125220945948066e-15
-2.501084363188509e-13
-1.9065306047400221e-13
3.532194766689311e-13
8.754202012392207e-14
-3.794195661111607e-14
-4.807329281162048e-14
4.904471385353526e-14
3.697053556920145e-14
1.3221187383552115e-14
-4.815408052007854e-15
-5.0733159124635725e-15
-3.332463419080687e-15
2.014622417148976e-15
-7.134289655302566e-15
1.0203827742910665e-14
-5.084160504757072e-15
3.419386735891183e-14
-4.549949781549072e-14
-1.1831110959827565e-14
2.3136741416406404e-14
-2.3817095683270638e-14
8.983709243246774e-14
-5.33083505347884e-14
-1.2711646214408643e-14
1.0487900199885668e-13
8.4988419678181e-15
-6.188949733316419e-14
-5.1488346633510614e-14
-1.0967190725485289e-13
2.5694373855230874e-13
-1.2154146639324724e-13
-2.573036490420894e-14
9.348750165933981e-15
-4.631462700860091e-14
2.972492634148417e-14
7.240950501182714e-15
-6.934285468628086e-16
-7.524111414874618e-16
-1.0181167602102794e-15
2.46395644856055e-15
-7.229101550634308e-16
-5.9500176553547366e-15
7.231641282674605e-15
-5.587134722564407e-16
-3.8308203313827794e-16
6.953588085180386e-14
-3.371409187505026e-14
-3.5438706943615376e-14
-1.6884441149754961e-15
-3.166767353375165e-14
1.4226594348482543e-14
1.9129523300244557e-14
1.2486320801028699e-14
-2.2749738860125717e-14
9.119125067046735e-15
1.1442929920502798e-15
7.367288371634129e-15
5.951792472129916e-14
-3.0591338896721817e-14
-3.6293874196211485e-14
2.564112728938989e-13
-1.2405806075006425e-13
-2.036966210655234e-14
-1.119835500372824e-13
-8.526493093810297e-15
-6.9087187850941665e-15
-3.3629563967964875e-15
1.8798168275700977e-14
5.475242384754322e-15
-5.413837713660527e-15
2.5025657363734155e-15
-2.5639704074672114e-15
-2.7272374569577794e-15
-3.981202794225785e-15
2.7065373662735198e-15
4.001902884910044e-15
1.1649062720517311e-13
-6.547594716353384e-14
-3.0965908609595614e-14
-2.004877143204361e-14
8.506201279060654e-14
-2.9306447519248007e-13
-3.631747903241998e-13
5.711772527260719e-13
-9.358430745647596e-14
5.973728780851477e-14
-1.1982587435551493e-13
1.5367289400347544e-13
1.0651705814680434e-14
-4.9245026027506827e-14
-2.1368080633887647e-15
4.0730128276215206e-14
-1.5490648602076182e-13
-9.708497118486991e-15
-3.0947092828624935e-13
4.740859114254946e-13
-1.8494531651591907e-14
1.3689413308704206e-14
-3.554072594927494e-14
4.034584429216271e-14
-5.897517374958426e-14
-4.825480985960819e-13
2.3568161276106543e-14
5.179551110695598e-13
1.3119357084526683e-13
-1.9754491657990986e-13
-8.524871462548955e-14
1.5160006036013398e-13
-4.2998597051173685e-13
-1.1301430967796573e-13
4.525567143654909e-13
9.044356582421283e-14
-1.8669108236100363e-13
-6.21224555779558e-13
-6.79002086284015e-14
8.758158467689587e-13
-1.3504433403661414e-13
-9.235106759356239e-14
6.205012110033677e-13
-3.931058093731943e-13
-2.901370655594204e-13
4.453485227297598e-13
-2.566809256588415e-13
1.014694684885028e-13
-2.5527909785036658e-15
-2.6447600347356515e-15
-2.333907205832568e-15
7.531458219071886e-15
-8.037192935587562e-15
-6.703095451128694e-14
-9.50269609738964e-15
8.457084354426402e-14
1.188546979352835e-14
-1.0885411374720824e-14
-8.685426430694326e-15
7.685368011886819e-15
1.3007865364019401e-14
-3.0053234662522515e-14
8.279633501268686e-15
8.765735797234428e-15
4.4672148590429507e-14
-1.611802038498045e-13
6.8496730079813856e-15
1.0965838225139346e-13
3.73002047543532e-14
-5.2009583178052875e-15
-8.189701005849316e-14
4.9797763621945207e-14
-5.930799897229492e-14
-6.027455903957798e-14
8.376360220133401e-15
1.1120619779173965e-13
-1.6200686765506214e-13
-2.0527993505728607e-14
1.662989096258364e-13
1.6235951534955047e-14
-3.8499021832428096e-14
-5.316085645849798e-14
5.076437471481824e-14
4.08955035761077e-14
-2.8590227668911043e-14
6.688647469045564e-14
-7.069074558236466e-14
3.2394498560819865e-14
-3.202266687455117e-14
1.00168168889149e-13
-1.8194402626953194e-13
1.1379852425493427e-13
-9.864384645187655e-16
-6.908749473258303e-16
-7.332251484567944e-16
2.41053856030139e-15
3.917944565274021e-14
-8.634726737846583e-14
1.4430416063817626e-15
4.572478011934398e-14
1.2691938462194055e-13
-2.1531971280786386e-13
2.435402596312587e-14
6.404630222279696e-14
1.2593072732244177e-15
-1.4809630794482346e-14
-3.532398659440224e-14
4.88743101156601e-14
-9.671662790912476e-14
-2.346500806415494e-14
1.1918159361155635e-14
1.0826347661212356e-13
-1.673236759739659e-14
-2.2230114090661744e-14
-3.497412450967565e-15
4.245989413902589e-14
3.2906151069578864e-15
-3.0650550251451007e-14
1.5498828926618355e-18
2.7358385261600454e-14
-2.105091929978429e-15
-2.9195749516078976e-14
3.071584871346604e-14
5.849927325913829e-16
-8.518763327346063e-15
-1.7370206772226355e-13
-4.06212624103436e-14
2.2284209345995294e-13
-3.394143770989424e-14
-2.8248858349951944e-14
3.5543854993559375e-15
5.863591056049026e-14
1.3572724072612432e-14
-2.9537083657431104e-13
6.417916569842149e-15
2.7538019593185587e-13
3.2482533086251433e-15
-2.087417241348172e-14
4.9371860936787384e-15
1.2688733011177855e-14
-2.0758167874193204e-14
-2.2827147795584264e-14
1.6660692780418948e-14
2.6924622889358514e-14
-1.0587897193141008e-14
7.190361349488962e-14
-5.480353605253888e-14
-6.512180249209678e-15
7.039783405913538e-14
-9.846154369485947e-14
-7.556505310341417e-15
3.562021494606544e-14
4.199726651451528e-15
-4.519555827571151e-14
-9.636001869673072e-15
5.063183349393306e-14
-9.323768050145959e-16
-7.202521328498135e-16
-8.694223575508589e-16
2.5220512954152684e-15
-8.119302476005654e-14
2.0384638776610153e-14
7.713518190310264e-15
5.309486779313624e-14
3.273724793185119e-14
-2.274212339337633e-14
-5.046772706249704e-15
-4.948351832225113e-15
-1.473782213669101e-14
-7.051625954051396e-14
1.9201870446542696e-14
6.605221123066239e-14
-5.89982178838625e-14
1.235078273683605e-14
7.809899857256598e-15
3.88375352897698e-14
-7.850493216988772e-14
2.6010205528294155e-14
-3.1993392189733366e-14
8.448811883132707e-14
-3.143963476093986e-13
-4.666594886255474e-13
4.2591666742656086e-13
3.5513916880838713e-13
-1.2509615923790799e-13
6.709122140337324e-14
-3.380401521235645e-14
9.180895304689138e-14
-9.414788209789083e-14
-2.0430839756561716e-14
-3.615372402541923e-14
1.5073244587987244e-13
2.45723900216814e-14
-3.48987554646922e-14
-8.267555126151696e-15
1.8593920569162494e-14
-7.849685608111078e-14
1.539392197307461e-14
-4.739237058430083e-14
1.1049530469233659e-13
-6.248129748614313e-14
5.694501919301472e-14
2.5449459088843748e-15
2.9913323842439786e-15
-4.8453933143143046e-15
-6.311181063412783e-15
1.1836205960681711e-14
-6.796315829546214e-16
2.792608297874329e-14
-2.6076632109905532e-14
6.607269307131199e-15
-8.456720175968943e-15
2.1054835110430317e-15
-1.0241945493486109e-13
-7.332029020486917e-14
1.7363426162868733e-13
1.0057704307621141e-14
-2.6745003017128187e-14
-3.848093207398029e-14
5.5168230783487295e-14
5.871484874823347e-15
-2.6614770292590535e-14
2.9954589277708855e-15
1.7747826489996294e-14
-7.823686070241555e-14
1.25439225829912e-13
-7.669222966746951e-14
2.948986453997356e-14
1.5370770363785861e-13
-1.2087338264176046e-13
-2.7093835555638033e-14
-5.740485440460095e-15
3.245909251556592e-13
-5.2456172708823235e-14
-7.381431056601247e-14
-1.983204418808248e-13
3.877537792018904e-13
-4.439509677471183e-13
2.3468846289186824e-14
3.272834225603934e-14
5.592412328758897e-13
-4.3900677003299673e-13
-2.271347255928169e-13
1.0690026274992536e-13
7.060336902802415e-14
2.5091673905824503e-14
-3.852577561865686e-14
-5.716926731519168e-14
0.0
0.0
0.0
0.0
4.2501622124848724e-14
-1.609633591704801e-13
3.341470216615407e-14
8.504703487947706e-14
-2.6948646253766792e-14
-2.805651122383678e-14
2.2349791927129955e-14
3.2655365550473575e-14
-8.161101027778636e-15
-6.166239795407794e-14
1.610921283924757e-14
5.3714286142608915e-14
-3.533605683658161e-14
6.922993959438045e-14
-3.9737166984338184e-14
5.843284226539383e-15
-6.320795853844938e-15
-2.5932046986403626e-14
1.6140040555471803e-14
1.6112802284776724e-14
-1.5663928527933905e-15
-1.5555545514236496e-15
-2.0049119421783807e-15
5.12685934639542e-15
-5.708331175909447e-14
-5.77472059486539e-14
2.8519913459428904e-14
8.631060424831972e-14
6.158939360600659e-15
-2.0020249657127614e-14
2.536020395443662e-14
-1.1498893657909667e-14
4.90438081370453e-15
-1.8860960400940444e-15
-3.552136909790843e-15
5.338521361803556e-16
-4.8790578234382486e-14
6.931261923193374e-14
1.520352323049326e-15
-2.2042393320600643e-14
-3.6301507517904256e-14
8.406062658897446e-14
-3.223665851548167e-14
-1.552246055558847e-14
-2.8073553179556062e-15
-1.5811774244193653e-15
-2.439765578322295e-15
6.828298320697264e-15
8.482052628825569e-14
-3.709318322908487e-14
-1.859606205454536e-14
-2.913128100462551e-14
5.966955073087571e-14
-3.6060871024203505e-13
-1.8690552141075467e-13
4.878446809219139e-13
1.1024983042016524e-13
6.247328918032537e-15
-1.4505733695420584e-13
2.856017761600789e-14
3.4673418459428634e-13
-1.8629152267307286e-13
-2.856373958617151e-14
-1.3187892233504126e-13
-7.275951599936338e-14
1.6622034174123757e-13
3.66269319138378e-14
-1.3008775765571196e-13
1.9836725793054626e-14
-2.980189801373967e-14
-1.116538658260241e-14
2.1130558803287456e-14
1.415123487355049e-13
-3.430001051972218e-13
-8.220649979467897e-14
2.8369425625639395e-13
3.7391305055416757e-14
4.078559133231881e-13
-4.3343476842347563e-13
-1.181244995513143e-14
4.415820342775774e-16
-8.256921992517365e-15
8.129669674328568e-15
-3.143297160887827e-16
5.418118525768943e-15
-1.4728880683189106e-14
-6.254679808174439e-15
1.5565441965594605e-14
-1.6576324369679026e-14
-1.992308336074991e-14
-7.52902416964431e-16
3.725231014739342e-14
4.024942620126297e-14
-2.851070756027435e-14
2.3668484270694366e-15
-1.4105567068058093e-14
8.68579628623552e-13
8.901610561700451e-13
-7.348311108595571e-13
-1.0239095739340435e-12
6.026500304836551e-13
5.94808104150164e-14
-2.9970326896914757e-13
-3.624275719295268e-13
-1.8791259326266328e-14
-4.447501198482376e-14
-1.0847912207460346e-14
7.411418351855056e-14
6.848039576064869e-15
-3.0104016484471398e-15
-2.032873547044536e-15
-1.8047643805731932e-15
3.525253835766534e-13
-2.953825578958332e-13
-1.705579959754037e-14
-4.008702608327979e-14
-8.996440891951395e-13
-8.910468084248431e-14
9.23588509471514e-13
6.516026056610717e-14
3.003547833815402e-14
-3.8774694352108875e-14
8.496007566636363e-15
2.4320844731842837e-16
-1.2272575159473565e-13
2.970933889744373e-13
-1.8322835889143796e-13
8.860721511735635e-15
-2.5823129248363808e-14
-2.92970166766924e-14
-2.2193886886191273e-14
7.731403281124751e-14
-5.1661432152485316e-15
-2.7489754973040052e-14
8.215590894058245e-15
2.444030729423035e-14
1.8433747106932785e-14
1.1243559721754751e-14
3.1504082948263667e-15
-3.2827715123513945e-14
8.670406075003737e-14
-1.1273722581243862e-13
-5.3572975993730165e-14
7.960614105613139e-14
6.939222917700805e-14
-1.1029070982518297e-13
-2.118381665445363e-14
6.208229730262891e-14
-3.021542250629908e-14
2.034246532686097e-13
-1.6661410568355764e-13
-6.5951250787533265e-15
-3.170643067262885e-14
-7.172635424035679e-14
7.72666898308544e-15
9.570611592990014e-14
9.100227580872074e-14
-8.515314630626272e-14
-1.0907807891542253e-14
5.058678389084059e-15
-1.5776745277177248e-13
-1.2671964542259786e-13
-4.284519435041217e-13
7.129390416984904e-13
-6.08308379351778e-13
-8.21054370284351e-14
-8.172823343865144e-13
1.5076961507667352e-12
-6.614182662568457e-14
-1.57763028764496e-13
-8.336024479043953e-14
3.072651001806194e-13
-5.114574794957349e-14
3.5622681547150775e-14
-5.938265247448522e-14
7.490571887690824e-14
-4.882655400860136e-13
-2.1826854967902533e-13
-4.719215292918519e-13
1.1784556190568922e-12
-7.109871567568719e-14
-8.552804950222501e-14
-5.5053764708897856e-14
2.1168052988680975e-13
-1.0029028122833043e-13
1.3213319437466794e-13
-1.0047158523353704e-13
6.862867208719934e-14
-1.8930009316942802e-13
-7.482693411498916e-13
-2.479737579526742e-13
1.1855431922719894e-12
-7.640619488003536e-14
1.215013053926293e-13
-6.090314793022058e-14
1.580803741762653e-14
-4.3602637058280523e-14
-1.2303076799172203e-13
2.6820803977046902e-14
1.3981260107295594e-13
-2.121872548370583e-14
-1.253415175683273e-13
3.285087318379652e-14
1.1370936986823673e-13
3.3303154845336152e-15
-6.4212163853321e-14
1.1217210495112226e-14
4.966463787367503e-14
1.1583264287789663e-13
-2.213158690324665e-13
-4.8237694538940415e-14
1.5372092069350962e-13
-2.9672469517474495e-14
2.2399219655481117e-14
-1.3895952835708283e-13
1.46232778219076e-13
7.581183876002737e-14
-5.862879156020751e-14
-1.5916544140374138e-13
1.419823942039218e-13
-2.097539629072254e-13
2.047723756496921e-13
6.883724347801106e-15
-1.9021370902682363e-15
-6.907643044998474e-15
3.4096625524304047e-14
-1.558828564229578e-14
-1.1600696837009764e-14
4.8619920348566585e-14
-7.586885650119967e-14
-6.268702714584868e-14
8.99359632984818e-14
7.289321543621462e-14
-1.365709949965355e-13
-3.371487321127859e-14
9.739265277159921e-14
5.05174085735012e-14
-7.60333274792318e-14
5.320131024019077e-15
2.0195787881711395e-14
2.7727248952067547e-15
-2.4361019257721308e-14
4.141950192872191e-15
1.7446344169642385e-14
1.0058249368870674e-13
-1.4516403393073787e-14
-2.0089284928850065e-13
1.1482675899286714e-13
3.9779613602428204e-14
-9.294903544522243e-14
-9.19708238019791e-15
6.236650422299238e-14
-4.103106668619565e-14
5.309916540228435e-14
-2.0954008422520435e-14
8.88590970643162e-15
1.126858728066622e-14
-1.3488068130191196e-14
1.744778587627707e-15
4.747022618972634e-16
3.1332033612094743e-14
-9.251636372609349e-15
-1.294840660468983e-14
-9.131990634795575e-15
0.0
0.0
0.0
0.0
2.9624959618733205e-15
-6.886819451123705e-15
5.42103275963796e-15
-1.496709270387572e-15
0.0
0.0
0.0
0.0
-9.86518043600854e-15
-9.86137570469209e-15
1.5158777590607308e-15
1.8210678381639906e-14
2.9699747786065825e-15
-7.45294528768356e-15
-4.3712093153536676e-16
4.920091440612341e-15
0.0
0.0
0.0
0.0
6.523420006491583e-13
-1.0855528273418977e-12
-6.909558734299682e-14
5.023064140357441e-13
0.0
0.0
0.0
0.0
3.122946537072601e-13
-6.252073447905294e-14
-1.5397548812483997e-14
-2.343763704157241e-13
-3.898279800133875e-12
1.784175180049161e-12
6.593523316723171e-13
1.4547522884123707e-12
-2.328234544388e-12
2.333507015961216e-12
2.4370015528040887e-13
-2.4897262685360654e-13
-3.4413180694585635e-13
3.997150314336826e-13
-2.8148552031941966e-14
-2.7434672455883523e-14
-1.299228232688317e-15
-2.6135395432878664e-14
2.232886218836031e-14
5.105761477206675e-15
6.309367042744768e-15
-3.209654767917844e-14
1.7648216437096113e-14
8.138964199337613e-15
0.0
0.0
0.0
0.0
0.0
0.0
0.0
0.0
1.7917631923371994e-14
-8.335276669791139e-15
-5.240424752772086e-15
-4.34193050080876e-15
6.232634530743651e-15
-1.0954525359711991e-13
2.143380930682276e-14
8.187880975955353e-14
-2.747157122439409e-14
3.4390758485228975e-14
-3.832992769885541e-15
-3.0861944909493217e-15
-2.718082806034646e-14
-1.4993554331332406e-13
1.4578213075237242e-14
1.6253815829843307e-13
1.602256877598429e-14
-1.6656131863124445e-14
-2.5175448434630298e-15
3.151107930603199e-15
-3.708086528896682e-14
9.139798634582611e-14
-3.515716744764595e-14
-1.9159953609213276e-14
-1.6234086426098614e-15
-1.5455323542177437e-15
-1.7694382642481508e-15
4.938379261075756e-15
9.644804378838049e-15
-7.769835753467777e-15
-2.2669517380622046e-15
3.919831126919293e-16
1.6659420084323906e-15
-4.143476125017971e-15
4.133997910367774e-15
-1.6564637937821954e-15
-4.662420861925054e-15
-5.12552970861067e-14
-1.4394795986851706e-15
5.735719754671693e-14
-6.906545724099e-15
-8.622143263236573e-15
-1.3982944792339043e-15
1.692698346656945e-14
-4.618283191494322e-15
-5.107997174028443e-15
7.820623840119623e-16
8.944217981510803e-15
6.89660075718335e-15
-8.491814729978767e-15
-3.963331439632813e-15
5.558545412428235e-15
-5.052841674560713e-14
-7.414818403723847e-15
-2.6554102434366032e-14
8.449733758369675e-14
-1.2028704381323915e-13
5.0966674438416663e-14
-4.6201093973595563e-14
1.1552146334841855e-13
-1.2279846137292536e-13
1.39081875860349e-13
-8.07226896979449e-14
6.443927521052106e-14
-4.113512431107635e-14
6.541138024578747e-14
-2.5417181362448135e-14
1.1409254277368821e-15
-6.277598366180436e-13
7.067636570920656e-13
-5.361650751519164e-13
4.571612546778979e-13
-4.5923929734658135e-14
7.004900702605351e-14
-3.483269731784947e-14
1.0707620026454135e-14
1.8772137122077035e-14
2.3808038890096865e-13
-3.384419101405441e-13
8.158938411749747e-14
-4.2751822212252215e-13
4.495191012192862e-13
-2.2551738624148985e-13
2.0351650714472816e-13
3.585574573329727e-15
-3.286741493052815e-14
9.076263699329028e-16
2.837421398726555e-14
1.1717288425081675e-13
-2.0697497122803497e-13
8.927888271779106e-15
8.087419870543846e-14
-5.434051013858787e-14
4.211531711509447e-15
1.2996931546313343e-16
4.999900911161528e-14
-1.1408004870286166e-14
5.071911129647565e-14
-4.653719118843063e-14
7.226084762241267e-15
-1.0546312902333837e-14
-7.918771187187187e-15
1.2048681214561078e-15
1.7260215968064906e-14
-1.0633261345689228e-14
-5.1538433947051705e-14
2.2869296565547082e-14
3.9302398727193835e-14
2.6153827850248767e-14
-6.101320220228166e-14
1.3301700649145243e-14
2.155767370288777e-14
-7.47316555189295e-14
6.986830844716235e-13
-5.337006394059912e-13
-9.025078954670682e-14
2.3311245971235885e-14
-1.620373191745248e-14
1.5312008212431939e-15
-8.638714875026597e-15
-1.8712422220714736e-14
1.0057426278390697e-13
-4.380433697431864e-14
-3.805750358887353e-14
-6.592409596553273e-14
1.2333893497842523e-13
-7.762253219099488e-14
2.020769317810288e-14
7.886343612582862e-14
-1.4079499575324462e-13
4.412340924511151e-14
1.780815038230431e-14
-2.144048380821058e-14
5.429152610195353e-14
-9.022460176032603e-15
-2.3828582117710253e-14
9.687802114081128e-15
-7.705718379731152e-14
2.5748359233012188e-14
4.162102245021811e-14
-4.3340652291153973e-14
-5.094599436019179e-14
-1.579697618913396e-14
1.1008362284047972e-13
-2.4018757410479446e-13
4.299865165987e-13
-1.812828849724797e-13
-8.516057521426585e-15
3.412561045959949e-14
3.0487069341449027e-15
-5.525960462218174e-14
1.808528722843742e-14
-2.197634517094118e-14
4.6091497782121324e-14
-3.281237328201369e-14
8.697220670833533e-15
1.2667544780614797e-14
-6.95903289759578e-14
-1.1655289257333797e-14
6.857807345267687e-14
-7.806872547773402e-15
-1.512378749140865e-14
-1.1953633519427133e-14
3.48842935586092e-14
1.0943264323953505e-12
-1.0823653875453131e-12
-8.974701471387632e-13
8.855091022887219e-13
7.884730897911042e-14
-1.9614389879975729e-13
-9.504744297546512e-14
2.1234403279611195e-13
4.931482131911788e-14
-3.808183792756e-14
1.2067632283685542e-14
-2.3300615675243442e-14
5.558233230180666e-13
-2.900213476416864e-13
-4.698080070408724e-13
2.0400603166449222e-13
-3.730015264652215e-14
5.4920676675805865e-14
-3.674063626733228e-14
1.912011223804873e-14
1.1436493480920654e-13
-1.315394988173461e-13
1.6580267650080894e-14
5.942963580581424e-16
-3.0614293326386523e-13
7.038758308837107e-14
-1.4649834803787552e-13
3.8225369821336907e-13
-1.4315988201546917e-13
2.7389513865186337e-14
-4.0214584196581135e-14
1.5598495234686408e-13
-6.492510832807563e-14
2.5006401135666923e-14
-9.42231160623117e-14
1.3414182325472024e-13
-1.4366863927637878e-13
5.73084278211018e-14
-1.5841790435989046e-13
2.4477811581516644e-13
-5.5784772213248694e-14
1.7002668625824364e-13
-6.838063307245592e-14
-4.58612809725387e-14
-1.0701271563742862e-13
-1.464639718584624e-14
-7.53310127662298e-14
1.9699012558950472e-13
-2.138095202466251e-14
-4.2507303068084016e-14
-8.107906018828497e-14
1.44967315281031e-13
-2.3104072572629336e-15
-1.8358857660244914e-14
-1.3856583020067276e-14
3.452584793757507e-14
8.843164261173605e-14
-5.771500671928439e-14
-6.9912789601667814e-15
-2.3725356932284843e-14
-3.710740325004088e-14
7.526514070714939e-14
-5.3006623606155206e-14
1.484888614904677e-14
-4.257281590380309e-09
1.3073699640151527e-09
-3.6990989779809594e-09
6.649010604346134e-09
-1.0588111283664561e-10
2.7524652134664073e-11
-9.360226881122031e-11
1.7195872951320216e-10
2.8557075901561008e-12
-4.625570315145931e-12
-4.698968017537097e-12
6.46883074252694e-12
-8.514810594999586e-12
-7.171695432019257e-13
2.6040019602893648e-12
6.6279781779121854e-12
-1.83589874828505e-12
2.825479318294343e-12
-5.7545386246370105e-12
4.7649580546277395e-12
1.5151240927948268e-12
-1.4377150554483705e-12
-5.8117692648545296e-12
5.734360227508126e-12
-9.97002870370687e-12
1.6832588377452639e-12
1.6911299663832207e-12
6.595639899578426e-12
5.098960956123427e-13
-2.5196751223698896e-12
-3.71557249630843e-12
5.725351523065951e-12
0.0
0.0
0.0
0.0
-8.127843692259573e-12
-3.4498594492902036e-12
-3.319035104156255e-12
1.4896738245705983e-11
5.6033756469199094e-14
-5.559670527060712e-14
1.950236940410094e-15
-2.3872881390020615e-15
-1.5181771585197194e-13
-6.26678224568294e-13
-2.933423065216801e-13
1.0718382469419418e-12
-1.283936027059424e-13
-5.869703942866002e-13
1.454099183430154e-14
7.008230051582462e-13
6.1197779194416355e-12
-3.903335548408719e-12
1.2227312291032235e-11
-1.4443754662065053e-11
-1.4585609636838806e-12
-6.946559412312554e-12
-1.570596277755995e-11
2.411108315355624e-11
-1.2018993393211385e-13
-2.638791236066982e-13
