-3.672044958212468e-12
-1.8865999792005125e-12
-5.013938455810735e-12
1.0572583393223734e-11
-1.666322214286731e-12
-9.837582366093391e-14
-1.6457919567657533e-12
3.4104899947134273e-12
-1.3217301014849773e-12
2.4447947503496438e-12
-2.6479705804237433e-12
1.5249059315590688e-12
-2.3252672318029275e-12
2.8973248441438044e-12
-2.1538369323093244e-12
1.5817793199684457e-12
-6.949877185002996e-13
-4.8826513654112876e-12
-5.314335300435424e-13
6.109072613955116e-12
3.805465333610258e-12
1.108422661761936e-13
4.709651443077813e-12
-8.625959042864293e-12
-2.595578103242311e-13
-2.4547790936454254e-13
-2.8304669255600815e-13
7.880824122447806e-13
2.0924134522895013e-13
-2.2681295003024545e-12
-1.3298188568252133e-12
3.3887070118987196e-12
-1.533099190568031e-14
-1.5140830667566408e-14
-1.279546099419213e-14
4.3267283567438856e-14
2.7255794130400995e-12
4.0244127601019253e-13
1.4150625408900809e-12
-4.5430832299403894e-12
-2.4574680471129695e-13
-2.2769487052123845e-13
-2.804858436715825e-13
7.539275189041175e-13
-6.760763965397093e-14
-7.840362574072509e-14
-6.207798634431549e-14
2.0808925173901198e-13
-3.7393800550269126e-14
-7.23064541230977e-14
-7.084862042235453e-14
1.8054887509572112e-13
-7.071851616678517e-14
-8.852131848268499e-14
-5.5671106248043384e-14
2.1491094089751353e-13
-5.6059880790903833e-14
-1.0964507359291575e-13
-7.8952987953239e-14
2.446579423370591e-13
-1.381100561293411e-14
-1.7783038843303696e-14
-2.5608488844255306e-15
3.4154893340663335e-14
-1.1660756777445563e-13
-6.638839795065403e-14
-5.790736319258592e-14
2.4090332891769587e-13
-2.7007280934527237e-14
-4.1974442063053676e-14
-1.259924981652182e-14
8.158097281410273e-14
-6.283263589059643e-14
6.393705217398058e-14
-5.920789605795347e-14
5.810347977456941e-14
-3.932372615598742e-15
-3.929919369266583e-15
-4.0257745040193685e-15
1.1888066488884694e-14
-4.956995631769708e-13
-3.183789551320383e-13
1.706083513529289e-14
7.970176831737158e-13
4.2534958682343413e-13
-2.0533894867501762e-12
-1.0244920368879837e-12
2.6525319368147347e-12
0.0
0.0
0.0
0.0
-5.974869612723078e-13
1.652879035466923e-12
-5.911359188239231e-13
-4.642561553706928e-13
-2.99438041430497e-14
-3.198217832779449e-14
-2.4453362326575007e-14
8.63793447974192e-14
-9.222409909410067e-14
1.2793461403588878e-13
-7.814037188411505e-14
4.2429856942327246e-14
-1.7395498825487233e-15
-1.6387084815680285e-15
7.694614732416227e-16
2.608796890875129e-15
-9.923226275692121e-14
-1.5423296748655266e-13
-2.3888254093689114e-14
2.7735348433716276e-13
4.329367195350067e-12
-1.6687577955071546e-12
-7.426689271791052e-13
-1.9179404726637936e-12
-1.6447435731324672e-14
-1.6237946772261365e-14
-1.6595262335504314e-14
4.9280644839090364e-14
-1.766963651499303e-14
-2.3829898686399313e-14
-1.7989960109716127e-14
5.948949531110848e-14
-7.978024467024375e-14
-7.820793994428483e-14
-6.998505877115866e-14
2.279732433856876e-13
-3.5129249140252338e-12
5.450009720045323e-12
-3.165127201396288e-14
-1.90543353400613e-12
-9.668125228719192e-13
2.542567028764891e-12
-2.2639514840632426e-12
6.881969781702701e-13
-4.180443242863499e-14
-4.045073833021182e-14
-2.1998863399648374e-14
1.0425403415849513e-13
7.273240300563632e-13
-3.2100563545829664e-12
-1.4118111915125573e-14
2.496850436441749e-12
4.597125491467259e-14
-1.4181475159949242e-13
-7.593939612242723e-14
1.7178289280724726e-13
-2.715764287870517e-13
-3.6532958042881653e-13
2.4864865348825127e-13
3.8825735572761575e-13
-7.32172010224525e-13
4.33987324449616e-13
-1.4412339377624606e-12
1.739418623537363e-12
-1.2997647655723687e-13
1.1960271504847667e-14
-1.445542496054447e-13
2.6257045465783375e-13
-5.290424666526107e-13
6.580564700651719e-13
-4.01023203776227e-13
2.7200920036366726e-13
-2.4627915309777565e-15
-2.9296331355073457e-15
-2.4128046958263354e-15
7.805229362311438e-15
-1.1705225958251788e-13
1.8611563016999694e-13
-9.578801591046428e-14
2.6724645322985187e-14
-1.1949423004497513e-13
-1.380448132939183e-13
-8.48536626093347e-14
3.423927059482284e-13
-2.989978168797645e-14
-2.93712017090167e-14
-1.2138625770438935e-14
7.140960916743211e-14
3.1599719982618374e-13
-3.0244776504362262e-12
3.9252022515911966e-12
-1.2167218009811575e-12
-5.2553560580836736e-14
-1.0483732839359386e-12
1.43706849789602e-13
9.572199947271707e-13
-2.468667675546735e-13
1.0689116229019433e-13
-1.3140275190236066e-13
2.7137835716683905e-13
-1.5646886855703396e-13
-1.5834586691089994e-13
-1.494482349046691e-13
4.64262970372603e-13
-7.831378561651874e-14
-2.0278989849891478e-13
-9.54872335464613e-14
3.7659091766189403e-13
-1.1805208751413323e-15
-1.0413930244639952e-15
-1.2103177998310596e-15
3.4322316994363867e-15
0.0
0.0
0.0
0.0
-1.2938781972221568e-13
-7.621136510391662e-14
-8.52442902890525e-14
2.9084347511518453e-13
-5.5038729298875315e-14
-6.242705158235975e-14
-4.325451939625159e-14
1.607203002774865e-13
-1.422311748556662e-12
-1.6725950108283127e-12
-5.173154181284157e-13
3.612222177513382e-12
-5.005559539203042e-14
4.485007669044265e-14
-4.102729694384056e-14
4.62328156454283e-14
-1.1870776648852572e-13
-1.8250868114029042e-14
-3.241873608461716e-14
1.6937737068717167e-13
-1.0335341916217662e-14
-6.432400884648324e-14
-5.929773043956419e-14
1.339570812022651e-13
-1.5744127838513443e-13
-1.5014341313510892e-13
-6.871771198438328e-14
3.7630240350462597e-13
-9.521261203775549e-14
8.661208539501569e-14
-9.843917227902326e-14
1.0703969892176309e-13
-9.633677154224492e-13
2.4996013007855452e-12
-1.5260081586121914e-12
-1.0225426750902103e-14
-1.3735458157640055e-14
-1.5864467962183963e-14
-1.828969364830724e-14
4.788961976813126e-14
-9.602434132933836e-16
-4.426114534332403e-16
-8.282070168221e-16
2.231061883548724e-15
-1.752200063156802e-08
5.5334453535712744e-08
9.449004678371843e-09
-4.726145758251353e-08
-6.4079041314424e-10
-1.315481293639277e-09
3.3463263000515073e-09
-1.3900545932679924e-09
-5.766619699388359e-13
1.6124986076982679e-12
-5.726355221145842e-13
-4.632011156448486e-13
0.0
0.0
0.0
0.0
-8.920545800514037e-14
-6.627152156935953e-13
-1.9853657057021643e-14
7.717743307557577e-13
-5.6059880790903833e-14
-1.0964507359291575e-13
-7.8952987953239e-14
2.446579423370591e-13
-3.7393800550269126e-14
-7.23064541230977e-14
-7.084862042235453e-14
1.8054887509572112e-13
3.8509860869981736e-14
1.9268699273438184e-13
6.864909614243128e-13
-9.176878150286744e-13
-3.2628520770690044e-15
-3.2065047948310266e-15
-3.2610955125437626e-15
9.730452384443794e-15
1.9844514618727825e-14
-1.85837456158089e-14
7.615568636797005e-15
-8.876337639715933e-15
-2.4779030537632938e-14
2.166467589797486e-14
-2.6615235524073855e-14
2.972959016373199e-14
4.605924464166077e-13
-6.93882309019091e-13
7.474010135195827e-13
-5.14111150917098e-13
6.796984338574752e-13
-1.5511936205179608e-13
-2.2329487226353307e-13
-3.0128419954214534e-13
5.262381456405602e-13
-1.009878663150686e-13
-1.5406449703726366e-13
-2.7118578228822826e-13
-9.977260527985536e-15
-1.4146137450740492e-14
3.636418631833709e-15
2.0486979346892335e-14
2.0816722058388302e-13
-4.584233769224137e-13
-3.1859724450411493e-13
5.688534008426477e-13
2.270818215204677e-15
-2.5967772891549454e-15
-1.3811973675131542e-15
1.7071564414634227e-15
3.539547419242262e-15
-9.0927712689268e-15
1.2110227457206043e-16
5.432121575112477e-15
-8.389651028013698e-14
-1.951000750735905e-14
-5.0842257564576414e-14
1.5424877535207246e-13
-1.4183134243731255e-14
-2.116808016799903e-14
-1.5229485954198316e-14
5.058070036592863e-14
-1.1870776648852572e-13
-1.8250868114029042e-14
-3.241873608461716e-14
1.6937737068717167e-13
-1.381100561293411e-14
-1.7783038843303696e-14
-2.5608488844255306e-15
3.4154893340663335e-14
-2.3870102049294723e-14
-3.0197370485131667e-14
-1.736690630792844e-14
7.143437884235479e-14
-1.7418877535785394e-14
3.556723534766301e-15
-4.234279606158319e-14
5.6204950062602236e-14
0.0
0.0
0.0
0.0
-1.1805208751413323e-15
-1.0413930244639952e-15
-1.2103177998310596e-15
3.4322316994363867e-15
1.222710240463025e-13
-3.722184543624876e-13
3.220830148843445e-13
-7.21355845681588e-14
-2.7007280934527237e-14
-4.1974442063053676e-14
-1.259924981652182e-14
8.158097281410273e-14
-1.972179083254527e-14
-1.8257305258240258e-14
-1.9940734451340458e-14
5.791983054212593e-14
-1.2060957938633405e-13
-1.4766875773259004e-14
2.355861718147519e-14
1.1181783797811804e-13
-4.8344812528434485e-14
-5.5696616317796777e-14
-3.648790510851598e-14
1.4052933395474704e-13
-2.344649309948495e-14
-4.788420384029666e-13
-2.2356919758353724e-13
7.258577290859881e-13
6.38099562683061e-15
-1.2704763548996195e-14
-6.02516582468693e-15
1.2348933746852518e-14
0.0
0.0
0.0
0.0
-8.589050106070965e-15
-1.6470428110359684e-14
-5.1865210628745306e-15
3.024599927930518e-14
-2.4829592279491547e-15
-2.4685427221819088e-15
-2.592229785824031e-15
7.543731735955091e-15
1.1791342935159362e-14
-1.3338080038328017e-14
-1.290563234053648e-14
1.4452369443705122e-14
0.0
0.0
0.0
0.0
-5.728227049407653e-14
-1.289747562849954e-13
-9.445958220384618e-14
2.8071660898291806e-13
-2.10315151224422e-14
-7.381514221391908e-14
-1.0276513426152208e-15
9.587430867897658e-14
-3.405144600112135e-13
-1.469468958214203e-13
7.65830873408307e-13
-2.78369517575672e-13
2.1374492895185646e-13
-3.174760620336445e-13
-1.8981981778405612e-13
2.9355095086584463e-13
-9.363459192758333e-14
4.297087539002325e-14
-7.484593757189881e-14
1.2550965410945877e-13
-1.1263304130767249e-13
-1.6941065134191074e-13
1.5719481267845072e-13
1.2484887997113276e-13
-2.8799575965741855e-14
-1.106798614171432e-13
1.3453871527584594e-13
4.9407221070392835e-15
-1.7920225285272646e-13
1.828210752506345e-14
-1.7229552529427442e-13
3.3321567062193804e-13
-4.969751942417849e-14
4.5214312114691853e-14
-4.06430513912052e-14
4.512625870069181e-14
-3.580759678519296e-16
-3.6423542424920036e-16
-3.842455526353531e-16
1.1065569447364831e-15
-1.892300709386836e-14
-3.4567327419941835e-14
-2.736551597196249e-14
8.08558504857727e-14
-4.0611477669645616e-15
-7.679972683669059e-14
-1.7560061993005542e-16
8.103647522358513e-14
-1.5744127838513443e-13
-1.5014341313510892e-13
-6.871771198438328e-14
3.7630240350462597e-13
-7.290250272680041e-14
-5.709686647397142e-13
1.3990444458469206e-13
5.039667228818208e-13
-8.232439924255162e-14
-2.128994746596318e-13
-6.319341392991039e-14
3.5841728783209363e-13
-7.508918465093435e-15
-8.263683699430539e-15
-7.664550840079484e-15
2.3437153004603458e-14
-6.283263589059643e-14
6.393705217398058e-14
-5.920789605795347e-14
5.810347977456941e-14
5.883293852162393e-13
-1.6164565184111321e-13
-1.0742189699155273e-13
-3.1926183638357436e-13
-8.781469008231562e-15
-6.272776655047936e-14
-5.793183192751224e-14
1.2944106748622316e-13
-1.55387290798611e-15
-1.5962422960038473e-15
-1.365898512051983e-15
4.516013716041941e-15
0.0
0.0
0.0
0.0
1.7272410816643138e-14
-1.4317147572846182e-14
1.2116535891899476e-15
-4.166916832986901e-15
-2.255424570831654e-13
7.828273430890331e-13
-5.528064287398972e-13
-4.478457265972436e-15
-1.1621182109960424e-13
-2.2053485694013005e-13
-1.505302683552932e-13
4.872769463950279e-13
-1.9368965240485517e-13
-3.52219205853358e-13
8.322628312050751e-14
4.62682575137706e-13
1.404476694360253e-13
-1.437059683221582e-14
-6.189159627775405e-14
-6.418547632605551e-14
0.0
0.0
0.0
0.0
3.787551784300749e-13
6.036158610307365e-14
2.9659634467162607e-15
-4.4208272797986427e-13
1.413236518046489e-13
2.1129919104896236e-13
-1.3291773783484458e-13
-2.197051050187674e-13
1.7927537978938574e-13
-3.0019660926710754e-13
-7.521283223995172e-14
1.9613406171767393e-13
-8.978790532336419e-14
-1.130268133691118e-13
-2.85495147961448e-14
2.3136423348862075e-13
1.4658446169072128e-15
-8.11043773943284e-14
-5.919980200930279e-14
1.3883833478672376e-13
1.6081118455990477e-12
-3.8295829047240955e-13
-5.911220380877397e-13
-6.340315170389003e-13
5.288491046241449e-14
-2.4459401200012225e-14
-1.2885602518919608e-14
-1.553990674348265e-14
0.0
0.0
0.0
0.0
7.071095058627775e-14
-7.598352824656707e-13
3.7049276129336785e-13
3.1863157058602534e-13
-1.6447435731324672e-14
-1.6237946772261365e-14
-1.6595262335504314e-14
4.9280644839090364e-14
1.8597008577550166e-13
-1.1149447806656314e-13
3.811303081143563e-13
-4.556059158232952e-13
-1.7395498825487233e-15
-1.6387084815680285e-15
7.694614732416227e-16
2.608796890875129e-15
-2.582566767601302e-14
-1.3958349750653462e-13
-4.201124413429063e-14
2.074204093168383e-13
1.1497142918633751e-14
-2.9382285717479064e-13
3.292232646995462e-13
-4.689755044338904e-14
6.473500672344725e-13
-1.1559374990012733e-12
4.541268398108864e-13
5.446059195591458e-14
3.7946140643306287e-13
-2.400124382557947e-13
-1.2391390798371413e-13
-1.5535060193553708e-14
5.251799915193963e-14
-9.321838747530773e-13
4.687204279069443e-13
4.1094544769419383e-13
-1.449413387649588e-15
-1.461376647084676e-15
-1.4335447181953373e-15
4.3443347529296015e-15
-1.1578524358808125e-13
-1.3140595563487548e-13
-7.724583919656248e-14
3.2443703841951953e-13
-1.4112288927690511e-14
-1.8240303411995336e-14
-9.370575576468012e-15
4.172316791615384e-14
-2.4627915309777565e-15
-2.9296331355073457e-15
-2.4128046958263354e-15
7.805229362311438e-15
-1.533099190568031e-14
-1.5140830667566408e-14
-1.279546099419213e-14
4.3267283567438856e-14
-2.0946769938389203e-13
-2.1504038553850305e-13
-2.0283566568310575e-13
6.273437506054998e-13
3.1899196119747373e-13
-3.3104763250154934e-13
8.033321612426906e-14
-6.827754482019278e-14
-1.2885830534665523e-13
-2.6317657047142953e-13
-9.816328738094418e-14
4.901981631990263e-13
8.911940783230234e-14
-1.433236668987953e-13
2.900852239103378e-13
-2.358809648438452e-13
-9.940263012913972e-15
-1.5306306582922348e-13
-7.072435824306758e-14
2.3372768708520546e-13
-5.77778061809667e-14
-2.7969647759937665e-13
-1.9074883281700721e-13
5.282231165973516e-13
4.29785449828824e-14
5.691729290179106e-13
2.6905424172861436e-13
-8.812057157294081e-13
3.0499192252450495e-13
3.172006965331463e-13
6.077079318960786e-13
-1.2299005509537301e-12
4.3408435918207436e-13
2.114403985001861e-13
-1.2902809061411878e-14
-6.326219486208485e-13
7.796735359614788e-14
-3.774063854073205e-14
-1.8921284555067397e-14
-2.13054305003484e-14
4.408329625409385e-14
2.164587624490464e-13
-1.4877168580983292e-13
-1.1177037289330751e-13
-1.6454236831212151e-13
3.1979063694982574e-13
-6.820933797245038e-14
-8.703893066525414e-14
3.018591959409917e-14
2.0615271523411252e-13
-2.2429098500194524e-14
-2.139095363280166e-13
4.021315231404745e-13
-1.9089794711259084e-13
-1.8538598077068863e-13
-2.584759525719405e-14
-9.716184226171438e-13
1.6748250823762278e-12
-3.3361406550648553e-13
-3.6959259425260615e-13
-7.274310199118644e-14
-1.474206076416657e-13
2.7604738800456617e-13
-5.5883678371713465e-14
3.582530967627493e-13
-8.82349831124025e-14
1.213209928355639e-13
-3.913391064859104e-13
8.779382985701973e-14
-3.8337817431055444e-13
4.826886315614589e-14
2.473154812973892e-13
6.679325647915617e-15
3.695367640959576e-13
-2.9478271216907407e-13
-8.1433377574799e-14
2.7906341395705038e-14
-8.275965193695505e-14
-3.1936220376892736e-14
8.678953091814276e-14
-3.991833137561883e-13
-5.881369967587628e-14
4.78279893706945e-13
-2.0282880274880935e-14
-1.8017278648113e-13
-2.44302462232372e-13
-1.1451591671181247e-13
5.38991165425313e-13
-7.306322158637375e-13
6.530754460798841e-13
-3.1271913425103656e-13
3.902759040348892e-13
-7.745286986253884e-15
-8.286977798237182e-14
-1.6141641697757772e-15
9.222922913840151e-14
3.445093953184764e-13
-2.3320158110783965e-13
-7.568251878732417e-14
-3.562529542331318e-14
-2.99438041430497e-14
-3.198217832779449e-14
-2.4453362326575007e-14
8.63793447974192e-14
3.7099258851272554e-13
3.7318945596699496e-13
-3.942713011637662e-13
-3.499107433159545e-13
-3.902587801445538e-14
2.787543591869991e-13
-1.3761825367434042e-13
-1.02110227498203e-13
-4.434016454655316e-13
-5.781701963132654e-13
1.3474091147774075e-12
-3.2583727299861515e-13
5.1993083794246334e-14
-5.693687718547681e-14
-3.918132136474803e-14
4.412511475597845e-14
-1.1458184276918065e-14
-7.647896104335117e-15
1.1426908551286938e-14
7.679171829966242e-15
-1.075597586782337e-13
-1.2442806837118614e-13
3.9956711908446903e-13
-1.6757929203504883e-13
0.0
0.0
0.0
0.0
-9.145160037385265e-13
1.9480243093185156e-12
-2.2211393927275054e-13
-8.11394366307237e-13
-1.5347478600206712e-12
2.3454227871479716e-12
-6.121954026867635e-13
-1.9847952444053687e-13
6.713643586069814e-15
-6.233327100555336e-14
4.5748550919283534e-14
9.871076500199954e-15
-9.943896858038569e-14
-1.053662320040224e-13
3.5319597594641685e-13
-1.483907753620083e-13
-1.221849595225545e-13
-1.3843246366968393e-14
-3.320919100609719e-14
1.692373968956202e-13
-9.521261203775549e-14
8.661208539501569e-14
-9.843917227902326e-14
1.0703969892176309e-13
6.2735705838081114e-15
-4.571701962420943e-14
-3.109754340499798e-14
7.054099244539924e-14
-1.766963651499303e-14
-2.3829898686399313e-14
-1.7989960109716127e-14
5.948949531110848e-14
5.480491485020198e-14
6.2038331474807616e-15
1.0349996483850173e-13
-1.6450871283618433e-13
-1.9150496063755645e-14
-1.014537481435047e-12
4.773402124972642e-13
5.563477650015389e-13
-1.256814027291827e-13
6.403200290269337e-14
-6.229391767927804e-14
1.239433175057677e-13
-1.301944134074993e-13
-1.8467012357431449e-13
1.1178369105873435e-14
3.0368616787594045e-13
0.0
0.0
0.0
0.0
-6.760763965397093e-14
-7.840362574072509e-14
-6.207798634431549e-14
2.0808925173901198e-13
-6.005845383769846e-14
-5.995063468604466e-14
-5.0044324319818314e-14
1.7005341284356126e-13
-1.1705225958251788e-13
1.8611563016999694e-13
-9.578801591046428e-14
2.6724645322985187e-14
-3.9731530778729426e-14
-1.422931574887581e-13
-8.983191744374169e-14
2.718566057112296e-13
-6.892353902726914e-14
-8.108480150351495e-14
-1.4611432333624168e-13
2.961226638670266e-13
-2.959292459232084e-14
-1.388152386129745e-13
3.1279379342649306e-14
1.3712878386264625e-13
-3.95390695314885e-14
-1.181406973475784e-13
-4.753552237348781e-14
2.0521528925255493e-13
-2.989978168797645e-14
-2.93712017090167e-14
-1.2138625770438935e-14
7.140960916743211e-14
2.0425781406285559e-13
-2.561917373225544e-13
2.6382396103473673e-13
-2.11890037775038e-13
0.0
0.0
0.0
0.0
5.4400314242020974e-14
-4.0059694876882177e-13
1.924174930613391e-13
1.5377914146546163e-13
-1.6354666383889657e-15
-1.2546655383016386e-15
-1.4583686572847496e-15
4.3485008339753535e-15
2.322402539832105e-14
3.60346622443052e-14
-3.152486406220305e-13
2.5598995297940437e-13
-4.12065783356575e-14
-4.634352625087266e-14
-1.6286765544667833e-14
1.0383687013119799e-13
-6.013765324971652e-14
-1.158004906752455e-13
-4.726637153835176e-14
2.2320451546331384e-13
8.598624134590098e-13
5.253139106297785e-14
-6.839151758669244e-13
-2.284786286550639e-13
8.792595454617313e-15
-6.122046162562642e-15
-7.320477870897368e-15
4.649928578842702e-15
4.565411111876934e-13
-2.916794523526843e-13
-2.3321678492446613e-13
6.835512608945696e-14
1.689546415513619e-13
-1.7270820477893999e-13
-8.627691108587341e-14
9.003047431345211e-14
-8.341366187480095e-14
-1.3181022178025212e-13
-7.200399482206024e-15
2.2242428313725904e-13
-1.5646886855703396e-13
-1.5834586691089994e-13
-1.494482349046691e-13
4.64262970372603e-13
0.0
0.0
0.0
0.0
7.483200435608227e-14
-2.2116397202978876e-13
-3.077005989544543e-14
1.7710202756915167e-13
-2.0991746202740066e-15
-1.3145045562010759e-14
-1.1452693206267564e-14
2.6696913388552312e-14
-9.602434132933836e-16
-4.426114534332403e-16
-8.282070168221e-16
2.231061883548724e-15
-2.288320668636252e-13
-3.059865181714718e-14
2.30900458875443e-14
2.363406727932274e-13
-4.778487541379309e-14
2.7892114417680054e-14
-4.001918646319304e-14
5.991194745930597e-14
-8.050728153092271e-14
-1.506387662012719e-13
-5.811915663957638e-14
2.8926520437177115e-13
-1.1773680914372127e-13
-1.4957540283603248e-13
1.077406063544684e-13
1.5957160562528566e-13
7.231830552391869e-14
-1.7611591034585778e-13
1.679008572014363e-13
-6.410325237949716e-14
-2.77276307848458e-13
5.902175722244518e-13
-1.6209325649468598e-13
-1.5084800788130833e-13
-1.4615330286950936e-13
-2.208676662662225e-13
-1.2518583894152248e-13
4.922068080772553e-13
-1.0205794392221871e-13
-3.8139862377557946e-13
-1.829751706157965e-13
6.664317383135967e-13
-6.693916770440831e-15
-6.7304352645629535e-15
-6.766614287735611e-15
2.0190966322739398e-14
-4.000596880498623e-14
-9.884609151477573e-14
-4.487047519221609e-14
1.8372253551197815e-13
0.0
0.0
0.0
0.0
-2.263815240385561e-13
4.524441142429205e-14
-3.55531758452014e-13
5.366688710662776e-13
0.0
0.0
0.0
0.0
2.2247968153992527e-14
-4.0003831782404216e-14
3.184446856724699e-14
-1.4088604938835346e-14
-3.9180040766892785e-14
-3.798057705553546e-14
-1.9403749990039216e-14
9.656436781246742e-14
-2.6243916617422038e-15
-2.4701612746763403e-15
-2.5951134096091725e-15
7.689666346027716e-15
-5.044365817111251e-14
-5.489214766345524e-13
-1.694830212943e-14
6.163134369350938e-13
-5.651021665174521e-14
-9.885485853256195e-14
-3.176234114230729e-14
1.8712741632661446e-13
-8.370083200598686e-15
-2.7579941617957808e-14
-2.824594253448403e-14
6.41959673530405e-14
-3.463364411920758e-14
-8.19496878467588e-14
1.906483254892005e-14
9.751849941704614e-14
-4.726861028144962e-13
9.592268589327852e-14
-3.543750038878208e-13
7.311384208090398e-13
-5.586761681581924e-13
1.3712511606483688e-12
-1.04015147794983e-12
2.2757648545965377e-13
-1.600717251010216e-14
-8.666426734992866e-14
-3.325533107955008e-14
1.3592677093958104e-13
-2.0543460138230225e-13
3.52826032967591e-13
-3.553970791983068e-13
2.0800564761301762e-13
-2.0824991333472132e-14
4.038042776865515e-14
-1.850039670933873e-14
-1.0550397258442667e-15
-1.1660756777445563e-13
-6.638839795065403e-14
-5.790736319258592e-14
2.4090332891769587e-13
0.0
0.0
0.0
0.0
-6.07412556387996e-14
-7.43751810319445e-14
-5.930752487987708e-14
1.9442396155062128e-13
-9.205062620161732e-14
3.7512154354437224e-14
-1.0777287549333758e-13
1.623113473405176e-13
-2.2847972224385525e-14
-3.4362327515928274e-14
-2.9646854674789394e-14
8.685715441510323e-14
-1.831673017081816e-13
-5.103938551655144e-14
-1.6100707155305215e-13
3.952137587777857e-13
-2.297742789252322e-15
3.366289027085329e-14
-2.8011712249313206e-14
-3.353435232287739e-15
-8.992635630484841e-14
9.427172376503545e-14
-5.0128659634801885e-14
4.578329217461497e-14
-3.8332164658121674e-16
-3.721701844037452e-16
-3.4785755318155447e-16
1.1033493841665166e-15
-3.966743625116951e-13
8.427775606228462e-13
-7.483349404088805e-13
3.022317422977269e-13
1.003035097901316e-12
-3.930726590744437e-13
-3.483530701139944e-13
-2.616093687128775e-13
-3.6007789743487447e-13
-2.293478922055079e-13
1.5007911105763904e-13
4.3934667858274364e-13
7.100380085704658e-15
-6.317187731304421e-13
3.067754174029405e-13
3.1784297564179596e-13
0.0
0.0
0.0
0.0
-1.4546150443740273e-12
3.602606751072875e-12
-1.295115323660405e-12
-8.528763830384452e-13
0.0
0.0
0.0
0.0
9.879115795441165e-14
-4.028462796758965e-14
1.7301723348053397e-13
-2.3152376346735583e-13
-1.3995318517326145e-13
3.255016042288221e-13
1.255863775109141e-13
-3.1113479656647486e-13
-1.3735458157640055e-14
-1.5864467962183963e-14
-1.828969364830724e-14
4.788961976813126e-14
-8.261842251474811e-14
6.491128371208991e-13
3.0430927858583843e-13
-8.708036931919889e-13
-6.402731560737564e-13
1.2919009321149366e-12
-3.535194675173367e-13
-2.9810830852384545e-13
2.889158450089992e-12
-2.678787589338285e-12
-3.4071088418442457e-12
3.1967379810925293e-12
-2.837454413035464e-12
-2.9009850562106854e-12
-4.280467710162246e-12
1.0018907179408436e-11
-8.353176927520156e-14
3.692299158681441e-14
-5.616106351864711e-14
1.0276984120703427e-13
-3.0239807452800854e-13
-8.559791886598184e-13
1.7651990061730694e-13
9.818573625705183e-13
3.452071524997279e-12
-1.8533813224405999e-13
2.1840050170654243e-12
-5.450738409818649e-12
-7.067453183677654e-13
1.2658825890545898e-12
-8.219659743731709e-13
2.6282870368634874e-13
-3.945555498454599e-13
1.0422621916510555e-12
-3.4562947293207034e-13
-3.0207716887352415e-13
-3.097740217190036e-13
4.752370075476445e-13
-1.0321620197404094e-13
-6.224678385459998e-14
-2.289392807676773e-13
5.470210256724793e-13
-1.9262117233898114e-13
-1.254605725658221e-13
-5.953917368524274e-13
1.9370117582327273e-13
-3.1724602709233267e-13
7.189365881214887e-13
-6.636721688771505e-14
-5.555841689978821e-13
1.982037466715438e-13
4.2374763921405286e-13
-3.402465661616217e-13
1.592091468275457e-13
2.2634350615222048e-13
-4.5306086818144365e-14
4.607087448671446e-12
-9.65487343423999e-13
-1.5705933869064777e-12
-2.071006718340967e-12
-2.334205654202165e-12
-1.0920689093793963e-12
3.5638130027178223e-12
-1.3753843913627523e-13
2.2952455358625554e-12
-1.5540818118182176e-12
8.618314119601983e-13
-1.602995136004542e-12
5.962452350798645e-13
-1.5434383806681869e-12
8.496815187388873e-14
8.622249937144307e-13
3.699083863955351e-13
-4.0636259493671825e-13
8.086659884341308e-14
-4.441239030223089e-14
-1.9423004502912877e-12
-1.757588401894313e-12
-6.230678010562071e-13
4.322956653241817e-12
-1.410191426616246e-13
-1.5004624474563657e-13
1.3421145375269912e-13
1.568539336545622e-13
-2.459375137791849e-13
-3.4913737420136375e-13
-2.7368058514917384e-13
8.687554731297226e-13
-2.4813574430671705e-13
-2.7615710345639676e-13
-1.3374667532171276e-13
6.580395230848263e-13
-1.0711657686948587e-13
-1.8689901596880308e-13
-6.710045330654e-14
3.6111604614482804e-13
1.6731365528049417e-13
-1.7587084147440962e-13
-2.0336210096617733e-14
2.8893396290533e-14
-2.96942133635078e-14
-2.113482635351656e-13
-3.6694050563851915e-14
2.7773652746252496e-13
-1.79502112088702e-13
-1.5463460987476876e-13
-9.626963969085683e-14
4.304063616543273e-13
-6.647362774213169e-13
2.941479499175054e-13
-2.7065863481841006e-13
6.412469623222247e-13
-1.0312039067182946e-13
-1.2029073764262056e-13
7.674557529685465e-14
1.4666555301759564e-13
-1.3958226836564745e-13
2.530330017496182e-14
-1.2011054183280753e-13
2.343895100234932e-13
-2.7198801757697823e-13
-2.7437220591481755e-13
-1.530901160773529e-13
6.994503395691496e-13
-5.774222304153753e-13
1.1588643525371997e-12
-5.178898980121388e-13
-6.355222410968776e-14
-7.015625262813759e-13
1.650446861620829e-13
-6.320207732949961e-13
1.1685386134142906e-12
-3.4185916589292013e-13
8.687976087830892e-14
-2.6129812228536876e-13
5.162775272999778e-13
1.8758485278896345e-13
3.5673736316624475e-13
-6.370364881405674e-13
9.27142721853595e-14
-2.0123136129650335e-13
-1.9986309000108462e-13
-3.2924273197695555e-14
4.3401872449528374e-13
-2.683068280731364e-13
-2.374138650048714e-13
-2.1869873905857194e-14
5.275905669838644e-13
-6.39782923901384e-14
-1.0956977508665612e-13
1.1083797856297732e-13
6.271008891381716e-14
-4.901135057094206e-13
1.982150223030414e-13
-3.264824205790352e-13
6.183809039854129e-13
-1.376719424518355e-13
-1.598243471428529e-13
-1.3160514661127171e-13
4.291014362059605e-13
-1.705266391561551e-13
-1.3557965215002153e-13
-1.1845236326734362e-13
4.2455865457352067e-13
-1.630459476147039e-14
-5.6604544431592846e-14
-9.830332322660053e-14
1.7121246241966386e-13
-5.180180206522478e-13
-3.762888472870903e-13
-4.298276151181888e-13
1.3241344830575279e-12
-2.1252185237163092e-13
-1.9508265901727511e-13
-1.7492400103673278e-13
5.825285124256403e-13
1.0247167985152456e-12
-1.2533365690971008e-12
-4.786645502508049e-13
7.072843208326541e-13
8.012014962964162e-14
-1.287666609037323e-13
-7.554841159581722e-14
1.2419492286990783e-13
-5.282705799405197e-13
3.895333772391846e-13
-5.074071963960679e-13
6.461443990974026e-13
-4.710942066074689e-13
1.6963611574885462e-13
-4.3918796537948897e-13
7.40646056238105e-13
-3.530008304478691e-17
1.9883485836196155e-12
-1.4587089970076638e-12
-5.296042865289117e-13
-1.7321877780616246e-13
-1.9884635854641032e-13
-1.3791569121509067e-13
5.099808275676641e-13
-2.5106658984713075e-13
-1.281675417975765e-13
-1.6699777799550756e-13
5.462319096402137e-13
-5.758451221146262e-15
-5.472295069637387e-14
-3.211071790698356e-14
9.259211982450366e-14
-1.1899145513684156e-12
7.161597124432104e-13
-5.365656403608602e-13
1.010320479286071e-12
-1.4118709957264569e-12
-2.7336664129674822e-12
-1.7469822000735857e-12
5.892519608767529e-12
9.956231043931008e-08
-1.4240006412197523e-07
-1.1448655446210504e-07
1.573243081447705e-07
7.428023693514439e-12
-6.757095358950404e-12
-2.2221281252353277e-11
2.1550352917789236e-11
-9.422491865146427e-12
9.088492845490571e-13
1.4394833061497051e-11
-5.881190480899671e-12
-6.257046543980763e-13
9.342652853819349e-13
3.93341395451663e-12
-4.2419745855004954e-12
3.260841306769734e-11
-2.105076370366892e-11
-6.005322922271084e-11
4.8495579858682346e-11
3.862724510594315e-12
-4.402305309588722e-12
-4.90339172218161e-12
5.442972521176038e-12
-2.784779072208462e-12
1.976304161047541e-12
1.835978197458905e-12
-1.0275032862979897e-12
-3.309168954262339e-14
3.1353637399301203e-14
-5.9322857678714316e-15
7.670337911193631e-15
3.2349655924427474e-15
-8.173054622668873e-14
-5.105768745800833e-14
1.2955326809225442e-13
-7.825279686773774e-13
-4.929271149638339e-13
-2.6886654069118734e-13
1.544321624332396e-12
-6.611485511706737e-15
6.352386353120087e-15
-1.5122101433425128e-14
1.5381200592011788e-14
1.628699495235182e-13
-9.88963937803437e-14
-1.7919311980877206e-14
-4.60542437622972e-14
-3.2270567478793007e-15
-2.964561000023185e-15
1.9764764631868785e-15
4.2151412847156084e-15
-1.6331328948405716e-13
-3.2219635981525946e-13
-3.9463925671807537e-13
8.80148906017391e-13
-6.5622966731224305e-15
7.287028116198468e-15
-4.886175562644428e-14
4.813702418336822e-14
2.4327681604717836e-15
-7.974095558600236e-15
2.4009517261008113e-16
5.301232225518374e-15
-4.5599920508622245e-12
5.858199507865578e-13
1.4463333971698098e-13
3.82953876035868e-12
-6.571340426023916e-13
-4.985862122054343e-13
-1.3959038841665087e-12
2.55162413897433e-12
-2.1874458140482645e-14
-2.4659396232023465e-14
-2.0131609037535355e-14
6.666546341004149e-14
-8.820482758182838e-14
5.5085215790137994e-14
-1.0538407076983089e-13
1.3850368256152156e-13
-4.942378154436208e-14
1.9668021692740624e-14
-6.914957130559331e-14
9.890533115721471e-14
2.8978166097157455e-13
-3.26104561889759e-13
-2.783370916893268e-13
3.14659992607511e-13
8.826791870461903e-13
-2.9162519491144573e-13
-4.255704673730101e-13
-1.6548352476173524e-13
2.1704501612776005e-14
-2.6847162343581738e-14
1.0440709099368969e-14
-5.298048368563257e-15
7.0625708446388995e-15
-1.166715641685286e-14
-1.7973634846338204e-14
2.2578220418552174e-14
5.122117705492415e-14
-7.48081898457544e-14
-5.918842724813712e-15
2.950585551564403e-14
1.0648287008687794e-13
-1.7997666513034493e-13
-9.669715654698698e-14
1.7019095159045425e-13
2.847372596150417e-13
-6.136091583277283e-13
-2.218608588570398e-12
2.547480487283085e-12
1.4305463724146253e-15
-1.482556686069485e-14
6.568100920589645e-15
6.826919567690576e-15
1.5038340302976818e-14
-7.275972850854978e-14
2.8860955765125003e-14
2.886043244044798e-14
1.3440634334544711e-14
-4.440148083791962e-14
-2.9044035738276867e-14
6.000488224165175e-14
5.318920696442588e-13
-2.2781550817163625e-13
-1.253992301978697e-13
-1.7867733127475153e-13
-3.546193968740994e-14
-1.786866899814585e-14
1.06271919036208e-14
4.2703416781935e-14
-3.934864465845377e-14
9.989593039039255e-14
-3.8474589225445e-14
-2.2072696506493762e-14
4.450800082879843e-15
4.139573139553439e-14
-2.832509529024662e-14
-1.7521436188167605e-14
-7.1990052754035105e-16
-7.895015181006707e-16
-7.034977911164199e-16
2.212899836757442e-15
2.9823560422113137e-15
-5.3565970606010545e-15
-5.045455761645347e-15
7.41969678003509e-15
1.158835169101982e-14
-3.9351588298300067e-14
6.568480999311402e-15
2.1194755607968866e-14
-1.7508857793492563e-15
-6.83852391867047e-16
8.068389409722121e-16
1.6278992302440906e-15
-2.0848631849920347e-13
3.4743279508922956e-14
-1.7331264856508575e-13
3.470556875553666e-13
-1.5928953391146914e-14
2.6842293784910573e-14
-3.9830369715185035e-15
-6.930303422245134e-15
5.770338342126989e-14
-4.734915944447973e-14
-6.5153581459513195e-15
-3.8388658308388155e-15
1.4026264260741474e-14
-7.203695118777516e-14
5.4558154975649706e-15
5.255487142946872e-14
2.3538114455236577e-15
-1.9296365616614883e-15
5.72766468308942e-16
-9.969413521711118e-16
2.3470879949344526e-13
-1.5386828810492053e-13
1.4459594347202467e-15
-8.228647082324498e-14
-6.317830580587912e-14
-3.035700000442633e-13
-9.36293656471938e-14
4.603776714973364e-13
-1.0032364110909837e-15
-1.021330182675401e-15
1.4685028118116346e-15
5.560637819547503e-16
-2.87081378522912e-13
-2.281589662907665e-13
2.320658161769097e-13
2.831745286367685e-13
1.0363760225426089e-13
-1.4110733703515607e-14
1.5123139510365291e-15
-9.103918250178188e-14
9.582488318471202e-14
-2.003623314184897e-14
-9.022851771795316e-14
1.443986767509013e-14
1.54679560184154e-14
-1.6592408818560108e-14
-1.7050399034396191e-15
2.8294927035843387e-15
-5.61240371996656e-15
-2.020226173426438e-14
3.109295055559919e-15
2.2705370398671015e-14
2.4966945422283857e-14
-1.3427587387613837e-13
-1.9269278932715873e-14
1.2857820738657024e-13
-1.5743093123271458e-13
-1.1088105145967891e-13
-2.614943177853183e-13
5.298063004777118e-13
1.583071085596036e-14
-3.7210975751755004e-14
-1.0335756059716082e-14
3.1716020955510744e-14
5.27559657348568e-13
-5.135600214628021e-13
-3.0099786862659864e-13
2.8699823274083067e-13
3.2057102267265167e-13
-3.6488634876313293e-13
-1.554130152656653e-13
1.9972834135614562e-13
-1.5958328240182107e-14
-6.532623126974731e-14
2.7346860853474554e-14
5.3937698656454855e-14
1.1529353393491092e-14
-2.1362675812276138e-14
9.221170894730582e-15
6.121515240544684e-16
-9.616077122477681e-14
2.2107251954567723e-14
-7.03323425990961e-14
1.4438586186930511e-13
-4.427379870502361e-15
-6.935774063699073e-14
6.059554927869896e-14
1.3189571228794218e-14
6.507782064008945e-14
-1.8420646402530185e-14
-5.47298166714613e-14
8.07264243390196e-15
-9.692219518536192e-15
4.858874294286821e-14
-1.1699881672161158e-13
7.810229329727957e-14
3.366529691457753e-14
-3.5952351878242027e-14
-5.673647194497088e-15
7.960702158161553e-15
1.2077458942616681e-15
-1.591953841380825e-14
-1.7563271876870754e-15
1.646811970723366e-14
-3.603085921819325e-14
-2.8423415015025065e-14
-2.958510481408322e-14
9.403937904730153e-14
-1.7484423471972475e-16
-1.961390248388648e-14
-4.4762326924282e-15
2.4264979411034408e-14
6.363026933070524e-14
-6.105840704185135e-14
-3.6915265216740495e-14
3.4343402927886604e-14
-8.054803084765541e-15
-1.3180684426320422e-14
1.8751843755756858e-14
2.483643755329115e-15
-1.2677681136797776e-14
5.0084523919712393e-14
-3.6089019990615396e-14
-1.3178227922991658e-15
-3.762815373354858e-16
-2.8618196812824255e-16
-3.8845919127543574e-16
1.0509226967391642e-15
-1.3730154642135851e-14
2.552371359145678e-14
-6.625624422673253e-15
-5.1679345266476815e-15
7.789627090115174e-15
1.0590524735706543e-14
-8.59268394720458e-15
-9.787467878617146e-15
7.25435356390942e-16
-2.6036450980660952e-14
-3.2733108854308224e-15
2.8584326509700834e-14
-4.6425472652352535e-15
-1.640094202293187e-14
9.32130906561374e-15
1.1722180222553382e-14
-4.232154984338901e-15
-6.225861875961637e-14
3.704450376832854e-14
2.944626997562674e-14
5.687004297246689e-15
-2.229545291100686e-14
1.4704546040209807e-14
1.9039025735503572e-15
1.3182413451980722e-14
-2.875520261283307e-14
6.62877548876242e-15
8.944013672089906e-15
-1.1401950345594062e-15
6.295398979990321e-14
-6.669639932436901e-14
4.8826045590251676e-15
-2.2684890280446827e-14
7.936290865431359e-15
9.39167102131542e-15
5.3569283937000215e-15
-1.634627874669905e-14
4.000433008992066e-14
-1.9947209952694157e-14
-3.710841390527448e-15
1.52882595386942e-14
2.0058070106528053e-14
-9.432342431013404e-15
-2.5913987214208844e-14
3.682456136762872e-14
-3.580605565397296e-14
-4.554590848503887e-14
4.452740277138302e-14
-2.054696158069642e-13
-5.2673689824680564e-14
2.0975622354316205e-13
4.838708208848281e-14
-3.8909466140885215e-14
-1.7032980000216497e-13
-2.5657931070517078e-15
2.1180505925010177e-13
-8.846778608738511e-14
1.4061796927280993e-13
-8.838915802834027e-14
3.6238974842915555e-14
2.6586987673844228e-14
-7.285626189351002e-14
-9.783717032255217e-14
1.4410644454221786e-13
1.7002192173135496e-14
-1.317803926969379e-13
-1.2522907004513647e-13
2.4000727056893876e-13
7.876924970592807e-15
-5.2706827919521035e-14
1.3802301218619472e-14
3.102760173030872e-14
-1.1799916351802423e-14
9.943416417640195e-15
-1.0261932187183966e-14
1.2118432121346218e-14
1.3892712893734286e-14
-7.567855223113941e-14
7.082420856866126e-15
5.470341848053898e-14
-1.9766064108066136e-13
-1.7800178189194604e-13
1.145361737980553e-13
2.6112624917455223e-13
-9.57885767487238e-15
-6.030967302993596e-14
2.8054079717017805e-14
4.1834450987790576e-14
-1.1012606818642817e-13
-1.7632188994490755e-13
1.5641621586351185e-13
1.3003174226782447e-13
8.352095385197527e-14
-1.354692366349188e-13
2.994837320037898e-14
2.199990958256465e-14
-6.202544632822443e-14
-1.1437816601230065e-13
-7.396360133414632e-14
2.503672136746712e-13
3.038074880067607e-14
-6.414143942248779e-14
4.129411162114271e-15
2.963127945969742e-14
-3.075707514094487e-14
8.102455572049982e-14
-2.671175466953379e-14
-2.3555725910021186e-14
-2.3316774548446692e-14
2.291632061601866e-15
-2.978319011889427e-15
2.4003461498734248e-14
9.33719148254582e-16
-6.057419055411505e-14
-2.02679567053354e-14
7.99084281111958e-14
1.1811345694305106e-15
-3.853669892298084e-15
2.0722400626412916e-15
6.002952602262819e-16
-1.186824930377258e-15
-5.84246840912968e-15
4.3005118180853815e-15
2.728781521421555e-15
4.382986747017287e-15
-2.9607531823396026e-14
2.0989079101575995e-14
4.235465974802745e-15
-6.682250669182376e-16
-1.6311822315851446e-16
1.4778355612493541e-15
-6.464922711726024e-16
0.0
0.0
0.0
0.0
-7.947347055720082e-15
1.2028960984677853e-14
-1.0980861136466312e-15
-2.9835278153111384e-15
4.660576445644259e-14
-4.484810220587587e-14
1.2157757677703489e-14
-1.3915419928270216e-14
0.0
0.0
0.0
0.0
5.330852211222106e-13
-3.158205491164198e-13
-1.945697788235564e-13
-2.269489318223267e-14
-3.738010751155388e-14
8.949468417197927e-14
-2.6747739080352217e-14
-2.536683758007315e-14
1.7918177526493424e-14
-1.5572026271513736e-14
-5.499012474009057e-15
3.1528612190293677e-15
-6.918905913648727e-14
-7.250560080401114e-14
2.8937211160504896e-13
-1.4767745166454975e-13
-1.7314473260382974e-15
-1.4431923389144125e-15
3.1809927837455616e-15
-6.353118792851196e-18
1.1155819032580584e-13
-1.4883630728001406e-13
9.791469610216156e-15
2.7486647343991743e-14
-2.551287278463791e-15
-5.597084545726607e-15
-1.8790282457335937e-15
1.002740006992399e-14
-1.6629882004265462e-14
-4.115646152467957e-14
2.7249919716358583e-14
3.053642381258646e-14
3.173478826337282e-15
-1.4477951444477406e-15
-1.0352279485540432e-15
-6.904557333354975e-16
2.6091142650013606e-14
1.664324596683835e-14
-2.8802480093490786e-14
-1.3931908523361143e-14
-1.5261964408063988e-14
-1.4687506907525166e-15
4.223755074207344e-14
-2.550683564325697e-14
-4.2206285819120084e-16
-2.089035001908056e-16
-4.853493544904231e-16
1.1163157128724295e-15
5.849148707425181e-15
-1.7441298005800232e-15
-2.25204964308918e-15
-1.8529692637559785e-15
4.879968037581053e-15
-2.1935030653978984e-15
-1.3258735878595239e-15
-1.360591384323632e-15
4.146906233905422e-15
-3.0003580991512946e-15
-3.759439896015556e-15
2.612891761261429e-15
4.372906183081363e-15
-9.424599856679125e-15
-4.7954790810426246e-15
9.847172754640394e-15
-9.41511122597435e-15
3.431962583178756e-14
-1.3934603099984866e-14
-1.0969911505828366e-14
0.0
0.0
0.0
0.0
1.4792497313105831e-15
-6.8402167313867145e-15
6.275639016171647e-15
-9.146720160955161e-16
0.0
0.0
0.0
0.0
1.455447300944273e-14
-9.038337605547743e-15
-5.13216242269766e-15
-3.8397298119733403e-16
-3.525273414516458e-16
-4.1158240360491964e-16
-3.3358620528778273e-16
1.097695950344348e-15
9.533777543303014e-16
-3.311654129984697e-15
1.5837340650334791e-15
7.745423106209173e-16
0.0
0.0
0.0
0.0
1.1232795862286661e-14
-8.187541922207533e-15
3.457075876069523e-17
-3.0798246988398222e-15
-1.1418777653086728e-14
2.6720539041187882e-14
-1.504954911926394e-14
-2.522122688372124e-16
-5.305010781455256e-14
-8.41673714539111e-14
1.837039412198863e-14
1.1884708514647461e-13
0.0
0.0
0.0
0.0
-4.338316908516946e-15
-7.397658543793514e-15
8.857628210534851e-15
2.8783472417756115e-15
-1.3082095992211918e-15
-6.774989497649814e-15
4.133859445834192e-15
3.949339651036811e-15
1.2938551237210208e-14
-7.661374234363918e-14
-7.345803048151893e-14
1.3713322158794802e-13
0.0
0.0
0.0
0.0
0.0
0.0
0.0
0.0
2.2613709476414137e-15
-2.051726550088662e-15
9.377749855234734e-16
-1.1474193830762244e-15
-1.4575017306178192e-14
4.3748936933127906e-14
-1.4683834671973862e-14
-1.4490084954975868e-14
0.0
0.0
0.0
0.0
-4.680249266611566e-16
-2.577418806165046e-16
-3.6102287251723003e-16
1.086789679794891e-15
-2.4548029810493304e-15
-9.575096068963944e-15
4.91882228435893e-15
7.111076765654345e-15
8.174239270001333e-15
-1.641831575405007e-14
7.89998076013746e-15
3.4409572391127723e-16
3.593613083539084e-14
6.097900864518039e-14
-1.4053278612680405e-13
4.361764664623308e-14
4.602218156702314e-13
-2.0836496267443416e-13
-6.03846252237894e-14
-1.914722277720083e-13
-5.056586476308775e-14
-1.7554880746017706e-14
-6.925578895862656e-14
1.3737653446773196e-13
-1.5230092195898543e-14
-6.206636960009804e-14
2.5081018193458764e-14
5.221544360253782e-14
-1.616517118263518e-13
3.001483443919051e-13
-1.412051540005546e-13
2.7085214350020844e-15
-8.924601722640945e-15
-2.841068060378004e-14
1.2754285002936103e-14
2.4580997323484892e-14
7.587530591646825e-15
-4.569646449538209e-15
-5.157591985339358e-15
2.1397078432307438e-15
9.094394720845515e-15
-2.0515127343563554e-14
-6.185639472477977e-15
1.7606372095195998e-14
-3.8963580631758844e-16
-2.8656423415704127e-16
-3.742163636460557e-16
1.0504164041206852e-15
-2.5450082267175796e-15
-2.2299687702669955e-15
-4.1243106882621775e-16
5.187408065810793e-15
-1.8753386169491557e-14
-2.0481523043710286e-14
2.1760553002260404e-15
3.705885391297581e-14
1.592237008915797e-14
-3.170976120374979e-14
1.934557279040715e-14
-3.5581816758153574e-15
-9.90650080033055e-16
-4.379268783931076e-16
-7.873443410052812e-16
2.215921299431444e-15
0.0
0.0
0.0
0.0
1.2300779221028426e-14
-2.3480035947848672e-14
1.0670006614147975e-14
5.092501126722834e-16
1.4390062748912917e-14
-3.0476313658190414e-14
1.3021020998458452e-14
3.065229910819048e-15
1.046712562848586e-14
1.9452052180546938e-14
-1.5117715189847317e-14
-1.480146261918548e-14
4.898804366369044e-15
-2.4258219256370868e-14
1.244177118311527e-14
6.917643706886537e-15
-8.523375882300387e-15
-2.864980172779362e-14
1.0697914122541085e-14
2.6475263487552903e-14
-1.8494913266526042e-14
3.659786789276633e-14
-9.214533315410412e-16
-1.7181501294699246e-14
-3.3270712736811577e-14
8.076096770738438e-14
-2.7837115351605876e-14
-1.9653139618966908e-14
1.7928532914517696e-15
-8.332316732853476e-15
4.044056697802054e-15
2.495406743599654e-15
0.0
0.0
0.0
0.0
4.6503303891716007e-14
-6.721972646830887e-14
1.5920157388953918e-14
4.79626518763892e-15
6.567687211451103e-15
-3.3142645982919314e-14
-1.9179611985116714e-15
2.849291996997986e-14
-2.8435828691425995e-15
-1.3274997585346249e-14
2.6315535202387548e-14
-1.0196954747898696e-14
-1.7289812639695193e-13
-4.631810533172138e-13
-5.915955541717536e-13
1.2276747338859207e-12
3.570591388794675e-15
-1.0598762075542419e-14
6.872589276986586e-15
1.5558140976115606e-16
7.28800365877697e-15
-4.5421427789853336e-15
-1.7351513054931994e-15
-1.0107095742984379e-15
1.3883553761138659e-15
-1.4251727005816308e-15
3.311138729177752e-16
-2.9429654845001e-16
0.0
0.0
0.0
0.0
-8.64943252713778e-15
1.126180615941018e-14
-6.527170797320234e-16
-1.95965655254038e-15
-7.020686984659289e-15
1.3483083777368775e-14
-9.208035979799635e-15
2.7456391870901508e-15
3.4294870427076848e-15
-9.39824322689239e-15
-5.15960640927772e-15
1.1128362593462418e-14
2.259753800646208e-14
-1.6478792822464044e-14
-2.6740726934987906e-15
-3.444672490499245e-15
0.0
0.0
0.0
0.0
-2.1932906836597187e-14
-4.2935215358642574e-13
-3.940998816695836e-13
8.453849420926061e-13
3.477980908832437e-14
-2.6687045740887042e-14
-8.389987002935827e-15
2.972236554985059e-16
-7.077780111353005e-14
8.81356958567816e-14
-5.487860614971825e-14
3.7520711406466677e-14
5.9264134899196e-15
-2.5078121099651645e-14
-3.520083562246021e-14
5.435254323219228e-14
-5.694912387509567e-14
-2.0896927269092104e-14
-2.766320276814048e-14
1.0550925391232823e-13
1.3048577070863728e-14
-1.0515809962614523e-13
-1.181444764757788e-13
2.1025399903106048e-13
-3.536616810039316e-13
-1.1717138912563503e-14
-2.678126787443588e-13
6.331914986608528e-13
-6.3904177392303934e-15
-3.769163447793744e-15
2.122230285853052e-14
-1.1062721671506374e-14
-1.4778859962820374e-13
9.07257703984991e-14
-3.3226965460906234e-15
6.038552577579548e-14
9.461920108789281e-15
-1.9228828409627776e-14
-3.789711092311934e-15
1.3556619393150437e-14
-3.6009453666349507e-14
1.17810793829463e-13
-7.259883261305246e-14
-9.202507550061163e-15
-5.3431596726531796e-14
1.1947104378749742e-13
-2.6523878194710214e-14
-3.951556886625535e-14
1.826860398228735e-14
-4.2064502506311487e-14
1.8916750703607124e-14
4.879147820417026e-15
9.719226195887407e-15
2.0498239197287574e-14
-3.739905844760657e-15
-2.6477559548414346e-14
1.0079644016590268e-14
-1.3050833517245438e-14
3.67310083639189e-15
-7.019113357367142e-16
0.0
0.0
0.0
0.0
-1.1550923176551354e-14
3.22458921724486e-14
-6.3401544985457415e-15
-1.4354814497351505e-14
2.4149663233026807e-15
-8.609283151692754e-16
-1.572603362899326e-14
1.4171995620859857e-14
-1.4846924642813884e-15
-3.8503253338147385e-15
2.378255534137431e-15
2.9567622639586976e-15
-7.0740623278422114e-15
4.674988873018922e-14
-1.522686844772218e-14
-2.444895795462483e-14
-6.344393189942551e-15
5.583915620479121e-14
-5.590983335432014e-14
6.415070339471458e-15
-1.0654617974434567e-15
-1.1529889243271692e-14
5.8304176094806726e-15
6.7649334312344816e-15
4.685762812664575e-14
6.76650688543357e-14
-7.531124326428929e-14
-3.921145371669194e-14
1.1406022017799687e-14
-1.0256720944293886e-14
-5.703333147757771e-15
4.554032074251969e-15
-1.1043265174561803e-14
2.6209981106899324e-14
-1.1493971632906272e-14
-3.672744299431239e-15
1.325797951463508e-15
-5.504004386209022e-15
3.6305418048036625e-15
5.476646299418497e-16
-1.3341629218277323e-14
1.7759711442657047e-14
-1.6479175444216468e-14
1.2061093219836736e-14
3.096237828749615e-15
-6.696547304233797e-15
3.0662935553702043e-15
5.340159201139788e-16
0.0
0.0
0.0
0.0
3.248583097510537e-14
-4.858704946753196e-14
-2.8405829050445576e-15
1.8941801397471193e-14
3.5251726822056834e-14
-2.4851277211527978e-14
-9.204596126414454e-15
-1.1958534841144041e-15
-2.095904151049934e-14
4.50255316499364e-14
-1.1732659988045947e-14
-1.2333830151391115e-14
1.822443037269647e-14
-3.95511526485361e-16
-1.0839792003796725e-13
9.056900119175613e-14
-1.0825369832979447e-13
1.518259243418853e-13
-1.1571239972907913e-13
7.214017371698784e-14
-7.707763853042596e-14
-4.1515247944662076e-14
-1.3758927455144802e-13
2.561821610265355e-13
5.0396010734494723e-14
-7.816950341085565e-14
1.5467557718255797e-14
1.2305934958105058e-14
3.074315889377746e-14
-5.5394336476063906e-14
-1.3695326730529357e-13
1.6160444488757948e-13
-4.1310948116982152e-16
-3.1282698546893496e-16
-3.7667615360163374e-16
1.10261262024039e-15
-1.7450029151037431e-15
-4.9785194547339144e-15
-5.615152376771425e-15
1.2338674746609081e-14
-4.092508261009475e-15
-3.4030954887028275e-15
1.0711648268594974e-15
6.4244389228528036e-15
4.024681092494155e-15
-5.9711470414528236e-15
4.194395661820027e-16
1.5270263827766663e-15
-6.0682477936904826e-15
2.5729923299961184e-14
-1.2952393708914812e-14
-6.7092817973559044e-15
-2.3727948647679975e-15
-2.2728621589207304e-14
-9.337630204923156e-15
3.443904665889845e-14
2.3339111766767427e-15
-1.7407219870597056e-15
8.295643740828003e-16
-1.4227535636998376e-15
-2.474167628222909e-14
8.403251800215096e-14
-3.562978950790963e-14
-2.36610522120123e-14
-1.1183549506536888e-15
-1.0447627239000478e-15
1.59990400875304e-15
5.632136658006963e-16
2.3202219450405318e-15
-1.825848213610164e-15
-1.9549074909497074e-15
1.4605337595193394e-15
0.0
0.0
0.0
0.0
-1.0779183931755857e-15
-2.276286798738887e-15
1.4533810257135373e-15
1.900824166200936e-15
-5.726877971694113e-16
-1.28890511375263e-16
-4.3663042284255356e-16
1.138208731387228e-15
-1.101822976439636e-15
-8.272058005221245e-16
1.3328379621909706e-15
5.961908147707902e-16
0.0
0.0
0.0
0.0
2.1517171331811707e-15
-2.3626708002367396e-15
-2.4569526985116172e-15
2.6679063655671865e-15
0.0
0.0
0.0
0.0
-1.86492895539936e-15
-1.0214267157471758e-15
2.8827414678919496e-15
3.61420325458631e-18
0.0
0.0
0.0
0.0
0.0
0.0
0.0
0.0
0.0
0.0
0.0
0.0
-7.476512880019551e-16
-3.0926483494966913e-16
1.7589253255094547e-15
-7.020092025578306e-16
0.0
0.0
0.0
0.0
3.3222147371660333e-15
-1.9620377746588e-15
-8.114041400350502e-16
-5.487728224721831e-16
6.252554626528432e-15
-2.944594621526717e-15
-1.6619748464769882e-15
-1.6459851585247268e-15
0.0
0.0
0.0
0.0
0.0
0.0
0.0
0.0
0.0
0.0
0.0
0.0
-3.058083087521119e-16
-4.307640568815996e-16
-4.2449454441461106e-16
1.1610669100483228e-15
-3.03342708208902e-16
-4.699478697962442e-16
-3.3693160742900848e-16
1.1102221854341547e-15
-3.62467322795697e-15
-2.0560622810491236e-15
1.3342832820371119e-15
4.346452226968982e-15
-1.0917806101823358e-15
-1.251545899961097e-15
1.6310738591805863e-15
7.12252650962847e-16
1.1475686207125456e-14
-6.76090809807774e-15
-4.249043345651011e-15
-4.657347633967037e-16
0.0
0.0
0.0
0.0
0.0
0.0
0.0
0.0
0.0
0.0
0.0
0.0
-7.579602998850781e-14
4.110087695831942e-14
8.525923168440633e-15
2.61692298617477e-14
-2.948519337414169e-15
-1.6650731233236503e-14
1.3842791152957108e-14
5.756459417693565e-15
-3.171646702821201e-14
8.280570652859718e-14
-3.164588843910809e-14
-1.9443351061277065e-14
-9.697445006904811e-16
-1.7638744238489723e-14
8.363346209128186e-15
1.0245142530052025e-14
-3.3074095785475326e-15
-2.376144119848511e-15
6.804336227325697e-15
-1.1207825289296532e-15
-1.303512499311436e-15
-1.5444387922912718e-14
2.1082938257701816e-14
-4.335037835477667e-15
-2.157564122561887e-15
-1.1198827892285193e-14
9.702702707427277e-15
3.653689307419806e-15
-5.83537250632148e-16
-3.377902733182782e-14
1.5403419485735116e-14
1.8959145096724828e-14
-3.0393590424296876e-16
-6.130237500881231e-16
-2.887536881076123e-16
1.2057133424387041e-15
1.6343144593162316e-15
-8.878525062766202e-15
2.3099138818703456e-15
4.934296721579624e-15
6.750174100673379e-13
7.15041361171829e-13
-6.446128322701884e-13
-7.454459389689807e-13
3.066627671946277e-14
-2.1839569360198056e-13
6.112329321502199e-14
1.2660612366749616e-13
1.0641429772749833e-13
-1.2964410192293258e-13
-8.898735860690936e-15
3.212854005612551e-14
3.009968606628369e-14
-4.276692908028647e-14
3.0488277565175375e-14
-1.7821034551172583e-14
-1.8471903298036286e-14
2.7362329018343705e-14
-1.1602010282559866e-14
2.7115845622524347e-15
-3.937753737143682e-15
-2.9480699487608224e-15
1.249664453123864e-15
5.63615923278064e-15
8.756840549108246e-15
-1.9125394390542264e-14
1.3046327126869693e-14
-2.6777732854357107e-15
8.392582024923052e-15
-1.56012570067509e-14
6.8270201194616034e-15
3.8165486236624214e-16
-1.6673630762564438e-14
2.3486001200058003e-14
-3.0575045589386378e-15
-3.754865878554901e-15
-6.116102263484825e-15
-4.760978299994386e-15
1.273821403354234e-15
9.603259160124984e-15
-1.035589798910515e-15
-1.1138353206131023e-15
-1.154824843535357e-15
3.3042499630589746e-15
-2.3607917506723246e-14
3.074209914523139e-14
-3.847163631018755e-14
3.13374546716794e-14
-9.488078873072345e-15
-2.4896248391915905e-14
1.7930417322088067e-14
1.6453909942900186e-14
1.0077897012362466e-14
-1.9537784388737656e-14
1.182154286393963e-14
-2.3616554875644356e-15
5.661605947787317e-13
-4.0531265340236373e-13
-3.9943560138434244e-13
2.3858766000797377e-13
1.0964708217799226e-13
-1.2798389013285111e-13
-1.7010753905255004e-13
1.8844434700740876e-13
1.6443596346031835e-14
-1.064272647470333e-14
-2.5514075156409134e-15
-3.2494623556875946e-15
-1.662466771374326e-14
-3.5607761021035025e-14
-5.88469102381528e-15
5.811711975859355e-14
7.568132211406809e-14
3.2573092240813296e-14
-7.37602143438542e-14
-3.4494200011027235e-14
1.4404929957407907e-14
-6.4744998357897624e-15
-5.221294480733408e-15
-2.7091356408847403e-15
0.0
0.0
0.0
0.0
0.0
0.0
0.0
0.0
-2.1465004444007835e-14
7.681986423689704e-14
-3.0102223806038815e-14
-2.525263598685044e-14
-2.4377845232513193e-15
-1.448194674053224e-15
3.3596045133253665e-16
3.550018745972006e-15
0.0
0.0
0.0
0.0
-2.0843632349151318e-14
1.307983865058488e-14
-1.4795482002781953e-14
2.2559275701348392e-14
2.941690553345411e-14
-9.310835395906611e-14
3.0237203089084213e-15
6.06677281167036e-14
-3.2040884848271157e-16
-1.0506703348466048e-14
5.2123795441686895e-15
5.61473265278007e-15
0.0
0.0
0.0
0.0
0.0
0.0
0.0
0.0
-1.840753215083185e-13
-7.329170269917713e-14
-3.6830526733130727e-13
6.256722915388042e-13
2.889672861671695e-14
-3.187703856895391e-14
-2.521878703661344e-15
5.502188655898325e-15
-3.3337742510268275e-16
-1.2529780034323972e-15
2.086579625286696e-15
-5.002241967516157e-16
1.4131198549776005e-14
-2.647174589015347e-14
-9.964130742489623e-15
2.2304678082867068e-14
1.0544009448386791e-14
-1.8618206602640474e-14
4.345088845049001e-15
3.7291083092046845e-15
-1.544898630691857e-13
-2.8321966099837243e-13
-1.2328211087842395e-13
5.609916349459821e-13
2.501631620545465e-15
-1.0958890136463284e-15
-1.7394049460307222e-15
3.336623391315854e-16
-2.0018846919986803e-14
-4.336493090240626e-14
-1.6615540346181865e-14
7.999931816857489e-14
-3.367804061793149e-14
4.836946394871051e-14
-1.738086280251961e-14
2.689439471740546e-15
1.4085347737773967e-15
-4.046979451445709e-15
-3.945354900344631e-16
3.0329801677027765e-15
-7.154666806360747e-15
-1.9771022778583666e-14
1.1025956618106728e-14
1.5899732966837677e-14
0.0
0.0
0.0
0.0
-1.5425808163185825e-14
3.8055425716968894e-14
-1.1136955850064514e-14
-1.1492661703718543e-14
0.0
0.0
0.0
0.0
0.0
0.0
0.0
0.0
-5.608955885285149e-15
-4.537676771376853e-15
6.106542034137215e-15
4.040090622524788e-15
-3.580198668289851e-14
5.5762864476572534e-14
-4.705774962815608e-14
2.7096871834482102e-14
7.38521218271955e-15
-1.9903399260778447e-14
-1.630118387467284e-16
1.2681198916805616e-14
1.7222936152935387e-14
2.7940946992509525e-14
-1.087928441120787e-14
-3.428459873423703e-14
4.95781180599733e-15
-3.5358295271039106e-14
1.9741396714900056e-14
1.0659086750141743e-14
4.991341199116557e-14
-5.0420410620171214e-14
-1.518611868244912e-14
1.569311731145475e-14
-5.171395200113511e-16
-3.524225741441316e-16
-2.9328586588378694e-16
1.1628479600392696e-15
1.6623947906576745e-14
-1.805431746239407e-14
2.9954806635799066e-15
-1.565111107762573e-15
-5.6103605986243495e-15
-2.6307734223350413e-14
1.2784741259634316e-15
3.0639620696011334e-14
1.28302070643511e-14
-2.4534174783575206e-14
1.0350356004973224e-14
1.3536117142508752e-15
4.372301632844058e-15
-3.0982364996185395e-15
-4.142743043711129e-15
2.868677910485609e-15
-1.608191215147893e-14
4.722152642373775e-14
-2.057511718383717e-14
-1.0564497088421648e-14
2.3901041221008947e-14
5.082529165245633e-14
-4.210914469810316e-14
-3.2617188175362144e-14
3.5293052104053106e-15
-5.000878459510444e-15
7.545321697461217e-16
7.17041079359011e-16
0.0
0.0
0.0
0.0
0.0
0.0
0.0
0.0
6.5048336386965215e-15
-4.039836671096133e-14
-1.2397378291481777e-14
4.6290911363746645e-14
1.3295779287295943e-14
-1.101847890738558e-14
-8.963305216505026e-15
6.686004836594662e-15
-1.6363998325080335e-15
-1.2229911822977826e-15
1.2678724730217189e-15
1.5915185417840966e-15
-1.2286603802395901e-14
-3.2455403291320806e-14
2.1557917199533655e-14
2.3184089894183013e-14
-4.1303368167812917e-16
-3.640875397707223e-15
-2.3015067995473473e-15
6.3554158789327e-15
3.3937251584075692e-15
-4.584397731256846e-15
2.2002188015777766e-16
9.706506926914964e-16
2.5645888635926752e-15
-7.491342084696958e-15
6.138262875666132e-15
-1.2115096545618516e-15
3.829165052277282e-17
-4.4709613743901105e-15
5.312787266087325e-15
-8.801175422199883e-16
1.8604349360651177e-15
-2.7870416902017e-15
-1.1027726039293636e-16
1.0368840145295187e-15
1.5353510921820958e-15
-1.1601416337800425e-14
4.65943246713542e-15
5.406632778482905e-15
-2.019879830458108e-15
-6.023771988869474e-15
-6.243887114336726e-16
8.668040530761253e-15
4.296999496061328e-15
-5.1816564650406245e-15
-4.538415291122506e-15
5.423072260101804e-15
-9.422330868812001e-16
-1.6010687308891303e-15
1.817670495008004e-15
7.256313227623267e-16
9.048878738041015e-15
-3.420727983899969e-14
-4.003044600534686e-16
2.5558705561012146e-14
1.4468224603253715e-14
-6.729830735824924e-14
2.630808959516061e-14
2.6521993159834896e-14
5.574121551059012e-15
-1.0243019788205557e-14
-3.1831720148877875e-16
4.98721543863533e-15
-2.9171830813902994e-14
-1.4270409898223896e-13
-2.0184257380867115e-14
1.920601871770091e-13
7.959794461587493e-15
-1.0686763424696291e-14
-4.475050053358909e-15
7.20201901646771e-15
-1.5509155875733205e-14
-3.819207302190162e-14
2.7198812154612278e-14
2.6502416743022553e-14
1.963907005297039e-15
-1.4280898912253742e-14
4.563641132412006e-15
7.753350774544701e-15
5.853160081828113e-15
-5.851234856088496e-15
-9.116774244191855e-16
9.097521986795678e-16
-3.1920998185828342e-15
-4.60279255671833e-15
4.5520969134438036e-15
3.2427954618573617e-15
-1.0546943823081964e-14
-2.143194204281176e-14
1.097605267638708e-14
2.1002833189506648e-14
-2.5124226706623473e-13
3.015310794195758e-13
-1.50277602864797e-13
9.998879051145595e-14
-1.6127820618803205e-15
-1.381889829066451e-14
4.273758210796317e-15
1.115792214174852e-14
-1.6252383734987431e-15
-1.508489926995047e-14
-1.773974084872472e-15
1.848411172832168e-14
-2.7607007311913294e-15
-2.3268052576087296e-15
-2.7665512591080702e-15
7.85405724790813e-15
-7.835067535036564e-16
-8.920471975581101e-16
-6.718328661436437e-16
2.3473868172054104e-15
-2.3615865303245586e-14
4.274962903750904e-14
-1.6140494457100523e-14
-2.9932692771629394e-15
-2.0153715058875357e-14
5.222143840826857e-14
-2.093090604590118e-14
-1.1136817303492032e-14
8.751994740050755e-15
-2.2743080945378536e-14
1.081152737176682e-14
3.1795588335609723e-15
-9.478801343085305e-15
5.730182178312902e-14
-2.621983931640223e-14
-2.1603181123641596e-14
1.7636063057455163e-14
-8.618656028889987e-15
-5.549955555411855e-15
-3.467451473153322e-15
-1.3218856236022857e-14
3.509082550370822e-14
-1.713725545079582e-14
-4.734713816889533e-15
3.1662816991802737e-15
-4.0463574051229743e-14
1.3223107919080607e-15
3.59749815601414e-14
-4.266173742621947e-15
-3.7631521770924914e-15
-1.374556520483492e-15
9.403882440197933e-15
1.2360190035112105e-14
-2.5880388153132077e-15
-6.528557100575917e-15
-3.2435941192229905e-15
3.324086172877188e-19
-4.946656661016052e-15
1.1497734720444645e-15
3.7965507803543e-15
0.0
0.0
0.0
0.0
-8.45530853437777e-16
-5.1595798962546195e-15
7.184308105206471e-16
5.286679939171752e-15
-5.51623123723968e-14
1.4006442194700648e-13
-8.346262043380229e-14
-1.4394891408075047e-15
-2.324466344818352e-15
-1.3433580920157776e-15
7.580282509266393e-16
2.9097961859074898e-15
1.0950820240620159e-15
-3.366134315603108e-15
2.6964478448468354e-15
-4.253955533057438e-16
0.0
0.0
0.0
0.0
-2.4315592367367922e-14
3.275595846513679e-14
-5.730745947174506e-14
4.886709337397618e-14
-8.806029823326189e-15
-8.202601930823389e-15
3.866642206101113e-15
1.3141989548048467e-14
-1.5300056244467513e-16
-7.541634116641312e-14
4.4501256998087134e-15
7.11192160290491e-14
0.0
0.0
0.0
0.0
1.0183857757014343e-15
-3.177877351021268e-15
-2.7638036900775776e-15
4.923295265397411e-15
-3.0278715432860615e-14
-1.5689639363017345e-14
-2.0154886653689402e-14
6.612324144956729e-14
2.3340106014435718e-15
-4.037942890059897e-15
-7.734699383727646e-16
2.4774022269890922e-15
-2.9158681704089114e-14
3.4461117136450407e-15
2.703052345034838e-14
-1.3179534599043136e-15
-5.627925062444307e-14
6.112429783959315e-14
-5.39123291797953e-14
4.906728196464519e-14
-3.930877254974596e-14
9.710300047940762e-14
-3.499631421496429e-14
-2.2797913714697376e-14
-4.499154858861231e-16
-1.790286618784148e-16
-4.449002270272603e-16
1.0738443747917982e-15
0.0
0.0
0.0
0.0
0.0
0.0
0.0
0.0
-3.294054490637132e-15
-5.030521209216595e-15
3.8854372708592636e-15
4.439138428994463e-15
4.3899926976898844e-15
-1.5969373339457383e-14
1.1813321102147372e-14
-2.339404603798671e-16
-3.95786919341773e-14
-1.8856420021636494e-14
-1.258308606182168e-15
5.969342056199597e-14
-4.13112630334443e-14
6.883993578837716e-14
-5.362609223293075e-15
-2.2166063531639776e-14
-3.1885190641493034e-14
3.746189522306815e-14
-8.05062337777014e-15
2.4739187961950016e-15
-1.441371565805313e-15
-7.315712284775388e-15
-2.310284580115258e-15
1.1067368430695956e-14
-2.535244438372653e-15
-4.620465047545569e-15
4.434068388363627e-15
2.7216410975545967e-15
0.0
0.0
0.0
0.0
1.916067703030002e-16
-3.856556329694064e-15
3.505540400326696e-15
1.5940915906436826e-16
2.893817072756971e-14
-2.6482375369244417e-14
-1.8618746903963198e-14
1.6162951545637916e-14
2.9385115493655525e-15
-3.515806550573771e-14
-2.421050724295171e-15
3.464060468066735e-14
-1.8344962378072562e-15
-5.713391917841774e-15
-4.474047749650759e-16
7.99529293061411e-15
2.3950851973239603e-15
-2.5068980605726182e-14
7.201883582668673e-15
1.5472011825733558e-14
2.265696384435446e-15
-6.799853656055052e-15
3.8801456571041174e-15
6.540116145154894e-16
-5.859215429269163e-14
5.966094007631249e-14
-1.3404236181391412e-13
1.3297357603029276e-13
1.0762319737273715e-15
-3.1278351355335998e-15
-1.0462440115444006e-15
3.0978471733506293e-15
1.9447547704302215e-14
-3.1385704092503297e-14
-1.5845201635767592e-15
1.3522676551777856e-14
1.9565471232309722e-13
-7.396898088182847e-14
-7.67947779402937e-14
-4.489095350097478e-14
2.3490682418812717e-14
-2.0463877091223375e-14
-1.5870426172773114e-14
1.2843620845183772e-14
5.294229223567807e-15
-2.1009580652033145e-14
8.100574162433452e-15
7.614777266031892e-15
-5.916558256403496e-15
2.0518076630940658e-14
-1.2588350031456807e-14
-2.013168343080335e-15
0.0
0.0
0.0
0.0
-4.6141950455790946e-14
5.961956529830926e-14
-3.251147559669887e-14
1.9033860754180517e-14
1.5676506449936344e-14
-2.4349103603473322e-14
4.707478657080628e-15
3.965118496456344e-15
-1.6538479426106683e-15
4.511211251285212e-15
-9.73972264280232e-15
6.882359334127788e-15
-1.6804855973954522e-14
4.84802236245577e-14
-2.4663155126036416e-14
-7.012212524566754e-15
2.5236956143287755e-14
-2.9640407858319006e-14
6.9800021968963256e-15
-2.576550481865079e-15
1.0104594665708107e-13
3.22171147529308e-13
-2.509147998158047e-13
-1.7230229437058452e-13
-4.0357484577382307e-14
1.395274494951424e-13
-5.5247205878706794e-14
-4.3922759039053417e-14
4.729746942384221e-14
-8.733277079980017e-14
2.787128242101068e-14
1.2164018954947273e-14
2.621610204177111e-14
-5.790911444007247e-14
1.38365610817181e-14
1.7856451316583103e-14
3.07550866434705e-15
-5.098828260018955e-15
3.4518258109074047e-16
1.6781370145811642e-15
-2.7022412888413334e-15
-1.492970088282592e-14
-2.244525011205671e-15
1.987646718287292e-14
-2.6370465529482538e-14
6.908304084016393e-14
-3.324310244629935e-14
-9.46947286438203e-15
2.3274928027927258e-14
-2.0172179059825453e-14
-1.0905112845639485e-15
-2.0122376835378666e-15
-3.6848152950915495e-15
-3.27383537933492e-14
2.0268622331776053e-14
1.6154546756664764e-14
-1.408557753403425e-14
2.9506965795387135e-14
-1.183622458927448e-14
-3.585163672078404e-15
-2.576685549679887e-14
7.765692675812698e-14
-3.503034116469114e-14
-1.6859730096637e-14
-7.329845412150907e-14
1.2326748817064855e-13
-9.109914471035306e-14
4.1130110661213186e-14
-3.4876609911130194e-15
-9.898722162190953e-15
-3.8881460527661374e-15
1.7274529206070105e-14
0.0
0.0
0.0
0.0
-2.751163322589817e-12
1.954050149358545e-12
1.8152358565646543e-12
-1.0181226833333895e-12
-5.808937096913668e-15
-1.054938856694601e-14
7.698278111981023e-15
8.66004755187866e-15
2.4369072752666276e-15
-1.0355294817409103e-15
-1.6040357779282644e-15
2.0265798440254692e-16
1.4203750272069787e-15
-2.5242464873518553e-15
-2.4373239718294852e-15
3.541195431974362e-15
-5.57811712297064e-15
-8.79676422766399e-15
1.2988960483588484e-14
1.385920867046144e-15
-1.2014261086032136e-14
-1.2697947083085749e-14
2.3285385195825956e-14
1.4268229732919091e-15
-6.31090550057135e-14
3.820511947893327e-14
3.111470699651896e-14
-6.210771469738811e-15
2.469869325032966e-15
-3.452165595915196e-15
9.041233797594461e-16
7.817289112278367e-17
-3.290687600564945e-15
-2.0096522783095555e-14
2.2565797713851092e-14
8.21412669809425e-16
-1.3219973728904813e-15
-1.2566107017821028e-15
3.772177107066047e-15
-1.1935690323934623e-15
0.0
0.0
0.0
0.0
-3.301198880390829e-15
-8.295188856503286e-15
1.0497229935210688e-14
1.099157801683426e-15
-2.460139554913398e-14
3.014620461413044e-14
-6.575153152642552e-15
1.0303440876460717e-15
0.0
0.0
0.0
0.0
0.0
0.0
0.0
0.0
0.0
0.0
0.0
0.0
0.0
0.0
0.0
0.0
0.0
0.0
0.0
0.0
0.0
0.0
0.0
0.0
0.0
0.0
0.0
0.0
0.0
0.0
0.0
0.0
3.987725872397676e-15
-7.50989585770117e-15
5.0781738108757495e-15
-1.556003825572256e-15
-3.0815485286394974e-14
-1.7504554538676678e-14
7.916426836831278e-14
-3.0844228543241187e-14
8.432624470652236e-15
1.6818066122820726e-14
-2.289157156973683e-14
-2.3591190237361156e-15
-9.47576980067826e-14
7.692796569765242e-14
2.9440675107621255e-14
-1.1610942798491029e-14
-3.1791973908845045e-15
-8.049914842117925e-14
6.704111855165851e-14
1.6637227260405155e-14
2.7072445112374523e-15
-4.0302729595533793e-16
-1.5326807303507427e-15
-7.715364849313712e-16
-4.832794853333056e-13
3.7623559975602994e-13
1.5395309811836985e-13
-4.690921254109487e-14
-2.1634267461277352e-14
8.196963380409482e-14
-2.420984364007755e-14
-3.6125522702739804e-14
7.203465646763434e-15
-7.264211705518795e-14
3.8582205537188546e-14
2.6856445871235993e-14
-2.1383940314214639e-13
2.9384689449134586e-13
7.685831730910129e-14
-1.5686580865830134e-13
-3.791159535129482e-14
1.9899252228325646e-13
-1.4240448345324776e-13
-1.8676443478713348e-14
-1.612166816616354e-14
3.3622670826813747e-14
1.3451694650866069e-15
-1.8846172125736834e-14
-4.041198853919977e-13
2.6864029532287406e-13
-7.030027065664386e-14
2.0577986072576734e-13
-6.843126161187188e-13
6.706914495184064e-13
-2.2981244084757917e-14
3.6602410685071585e-14
-4.816288846608436e-13
3.689032978320684e-13
1.9704280948438858e-14
9.302130588033762e-14
0.0
0.0
0.0
0.0
-2.9414572640226356e-13
1.1023082593661174e-13
5.629461306616611e-14
1.2762028739948625e-13
1.8348221628351308e-14
-4.9644610753687624e-14
2.3416649781641077e-14
7.879739343695234e-15
6.63295891553057e-14
-2.334761788752257e-14
2.770321522074099e-14
-7.068518648852412e-14
-2.3548911108773706e-13
-4.220283642575469e-14
7.268898530439151e-14
2.0500296220910003e-13
1.7640256190143207e-14
-1.47909990670834e-14
6.544226363021233e-16
-3.5036797593619257e-15
-7.038889855562899e-14
1.411012095086429e-14
-6.735338229228498e-14
1.2363215989704965e-13
7.313168403906727e-14
-1.0199225430886915e-13
1.3851139679464885e-14
1.500943059033716e-14
-3.1811389853435766e-15
-3.2589851537755654e-14
3.052621732086914e-14
5.244773202230117e-15
-7.614088110577052e-14
5.694402555774464e-14
7.307901455304519e-14
-5.388215900501922e-14
3.789033466026996e-14
-1.5621781945900546e-14
-2.0548205405642327e-14
-1.7203473087270841e-15
1.763884154053817e-14
-3.850728998698489e-14
6.6861857615731266e-15
1.4182262684873553e-14
1.6107352969224908e-13
-1.2883680562980632e-13
-1.367309970456439e-13
1.0449427298320135e-13
2.671322484000519e-13
-2.2481550371029645e-13
1.442593363799144e-13
-1.8657608106966946e-13
-6.303615367665347e-15
-8.18369831513838e-14
-5.92919793757216e-14
1.4743257789477059e-13
-6.587804295283498e-14
1.1798570428443214e-13
-8.508600142932062e-14
3.297834009772336e-14
6.20111613899507e-14
-2.4728559319312946e-13
-9.541093928077374e-14
2.8068537108395214e-13
-1.1113310481178485e-15
-5.00200925825425e-15
2.3150131936518576e-15
3.79832711272024e-15
1.7270860917619336e-14
-1.1755899837633695e-14
-2.2356796979752504e-14
1.6841835899766884e-14
3.973208905965127e-15
-4.320495066748323e-15
-1.0408256951094527e-15
1.38811185589265e-15
5.509455512790849e-15
-7.151088028774287e-14
3.0982796505222495e-14
3.501862826972949e-14
-4.126152122011991e-14
4.497565548380678e-14
-1.6020126237891826e-14
1.230599197420493e-14
8.067342774690828e-14
-1.1187351683800477e-13
-9.853484453137712e-14
1.2973493362247339e-13
4.09725788052087e-14
-3.383835302271969e-14
-2.5751286673146986e-16
-6.876712915757563e-15
2.6319763804467237e-14
-2.940672760235113e-14
-1.9063590320220954e-14
2.2150554118104863e-14
1.0964639801421173e-14
1.9445098349266762e-14
-2.220403261034446e-14
-8.205705540343477e-15
-4.368077546792274e-16
-3.355078408508255e-15
1.1219810352525102e-15
2.669905127934973e-15
2.3883175754559205e-14
-3.212815979331098e-14
-3.998435721753353e-15
1.224341976050512e-14
-3.5702224699586737e-16
-1.5051084529433716e-14
1.9399384942034774e-14
-3.99127816560519e-15
5.916703181608732e-14
4.80712324390536e-15
-5.262919718519759e-14
-1.1344957874794985e-14
-1.5703118168295114e-14
1.4949401121943282e-14
-2.994873811977872e-15
3.7485908583297064e-15
2.215464443203747e-15
-4.84453701901574e-15
-9.5110572286111e-16
3.580178298673104e-15
-1.76386348792181e-14
7.445679065457746e-14
-3.471595942246112e-14
-2.2102196352898217e-14
4.501230118034831e-15
-2.2046775221747615e-14
1.200456558270243e-14
5.540979521010348e-15
1.4896442984093407e-14
-7.32025457809022e-15
-8.140284888634955e-15
5.64096482631747e-16
1.214213520574364e-14
1.6318357959432464e-14
-3.789424400887998e-14
9.433750843703922e-15
1.9057705640118785e-15
-1.1650143815224562e-15
-1.9541189644055634e-15
1.2133627819161415e-15
-2.7361561594830777e-14
7.083398720666911e-14
-3.76557479983285e-14
-5.816677613509791e-15
-1.8882741792891135e-14
4.6197402014222236e-14
-2.0889852820144574e-14
-6.4248074011865226e-15
5.736642664846782e-14
-5.54461125331053e-14
-6.710785652441321e-15
4.7904715370787846e-15
1.3382666153917744e-14
-4.496259189031414e-14
1.2789245362804756e-14
1.8790680373591633e-14
-2.0895927811055584e-16
-7.490052266449061e-15
2.5840310865564842e-15
5.114980458003132e-15
-5.577790766522136e-15
7.436708125473832e-14
-3.2423778506385526e-14
-3.636551198183067e-14
2.977874408541883e-14
-6.063125289411499e-14
1.3157661902038338e-14
1.769484690665787e-14
-1.7940967945460047e-14
-2.8082648256031952e-14
7.539708961877624e-15
3.848390723961436e-14
0.0
0.0
0.0
0.0
-4.501496392755798e-15
-1.6311281880162614e-14
8.030072865316146e-16
2.0009770986386793e-14
-2.3619302773388627e-14
2.8683042328745904e-14
-2.5673601024026615e-14
2.060986146866929e-14
5.989171086304896e-16
-9.260579926070985e-15
-8.961766318702773e-15
1.762342913614328e-14
2.038583639992917e-14
-6.503817533590789e-14
-6.878123223975622e-15
5.153046215995431e-14
-1.2175135483143776e-14
-1.7611070815778452e-14
-3.4728947648816746e-14
6.451515394773899e-14
1.1985257424894107e-13
-1.0805753226831624e-13
1.8707819060281704e-14
-3.0502861040906646e-14
-2.3677017248082688e-14
7.676897921912134e-14
-3.5814718309361324e-14
-1.7277243661677283e-14
-5.136718711381936e-16
-2.7314970373563647e-15
3.730639291736527e-15
-4.854703832419687e-16
-1.4517101418337719e-12
9.054018448264729e-13
1.2844311860677179e-12
-7.381228890604147e-13
-1.966281380672498e-14
5.399989426345035e-14
-3.7645714244970326e-14
3.30863378824498e-15
-8.498096926666961e-14
-2.1056657122268275e-14
-9.062966001303038e-15
1.1510059239024078e-13
-6.92360668631941e-14
1.9384124395502765e-13
-8.030231046232263e-14
-4.4302866629510825e-14
3.3197916285352285e-14
-5.525394090941488e-15
-2.665687129681869e-14
-1.0156508975921181e-15
2.995449574110194e-14
9.481249760266623e-14
-3.34718298988912e-14
-9.129516344487734e-14
8.258235823483087e-14
-1.231546206851589e-13
-2.8275912186780405e-16
4.085502157219563e-14
1.3429388357994715e-13
1.2222687412352536e-13
-6.633195980448309e-14
-1.9018879789898925e-13
3.393590877611113e-14
-4.4826627296999326e-14
-1.951510495150711e-15
1.2842229016038938e-14
-1.4399977295824917e-13
-3.285002571881926e-13
-3.4332665214262735e-13
8.158266822890716e-13
5.537569677241497e-16
-1.1493717174977987e-14
9.403545923095472e-15
1.5364142841583606e-15
6.419599631001607e-13
1.687780009438549e-13
-5.519939357203378e-15
-8.052180246868097e-13
3.033807247719795e-14
-3.6427153914499926e-14
-3.970697472045618e-15
1.0059778909347584e-14
-1.064931416068696e-16
-4.082214990468304e-15
4.140947929936072e-15
4.7760202139099475e-17
-3.49197449653058e-14
-5.1554871143988385e-15
-5.2543272854497326e-14
9.261850493420194e-14
-1.3598764851564937e-13
-1.5550124203723667e-13
7.489190976107238e-14
2.1659698079181424e-13
-1.6973316774001094e-13
-3.8222809692567546e-13
1.364829019816658e-13
4.1547836268402095e-13
1.7185099292031524e-16
-5.866416950451607e-15
4.119125373009461e-15
1.5754405845218297e-15
-9.878207352053451e-14
1.3394127963353128e-14
-8.125917913118053e-14
1.6664712468836193e-13
3.267362455707642e-14
-6.465806020313753e-14
-1.6053713444283457e-14
4.803814909034463e-14
6.186795754424748e-14
-5.871243691961955e-14
-6.239229875203609e-14
5.923677812740809e-14
-3.774601953232569e-14
-8.311599178414617e-14
-2.0336081748603e-14
1.4119809306507497e-13
6.997892027982446e-16
-2.7953359945557485e-14
-1.1546553198155175e-14
3.880012394091433e-14
-2.5732304580232294e-14
-6.049517857270171e-14
-1.0678461688844401e-15
8.729532932181832e-14
1.9523436630826587e-14
-4.5242730812625806e-14
-1.1336099219550627e-15
2.685290410375426e-14
-2.596690928123744e-14
4.8134278573040444e-14
-5.603622691231744e-15
-1.6563746600571288e-14
-1.8450527208437242e-14
2.04213205616379e-14
-7.41850192202041e-14
7.221422586700349e-14
2.603617039337315e-14
-8.663730974330216e-16
-1.60989863644476e-14
-9.070810931492555e-15
-1.594854840125235e-14
3.514589944125161e-14
-1.3058697864433324e-14
-6.1386531755659184e-15
-4.363407406982133e-15
-4.9976271789808436e-14
-1.586996760860503e-14
7.020964680539567e-14
9.171433621973045e-15
-1.3873298461298674e-14
6.595315073067167e-15
-1.8934502337415357e-15
-3.2761818105961695e-14
6.025473133343003e-14
-1.669803360658583e-14
-1.0794879620882526e-14
-2.082919584566299e-14
7.572689216274283e-14
-3.1644737271727623e-14
-2.3252959045352118e-14
-4.9497229527733996e-14
1.585575325971295e-13
-6.036392212451515e-14
-4.86963809448804e-14
-1.0106165769589328e-13
1.0897333786267077e-13
-9.543942587997013e-14
8.752774571319255e-14
-1.5942685054303035e-13
-5.685650211453989e-14
-1.0577844289664315e-13
3.2206179555421346e-13
6.061952295395376e-14
-2.510688924398232e-13
-2.4909690064624257e-13
4.3954627013211303e-13
1.4480217749370333e-14
2.952846258971227e-14
-6.12541657603403e-14
1.7245485421257736e-14
5.513088840173192e-14
-2.42518450149507e-13
-9.77228708907557e-14
2.8511043263853013e-13
-5.124951924004233e-15
1.6945475999969336e-14
-7.524422799706398e-15
-4.296101276258697e-15
-2.0735658402880457e-14
1.4154053711273678e-14
-1.2411733299450302e-14
1.8993337991057118e-14
3.120430296339624e-14
-4.446127764675391e-15
-1.8353569444185762e-14
-8.404605754535092e-15
0.0
0.0
0.0
0.0
6.010841614407904e-15
-1.2486963648605117e-14
-1.62825501970495e-15
8.104377053902161e-15
-1.51419514093206e-14
1.1236077837560227e-13
-1.0729395400375583e-13
1.0075127037474228e-14
-9.520593488815e-15
-8.908914821551487e-15
-5.455467386502454e-17
1.8484062984231505e-14
-1.429380274233077e-14
-1.0311564962647398e-14
-1.5975059051195258e-15
2.6202873610097705e-14
6.007750939323256e-15
-3.76900748253075e-14
1.1859247381845167e-14
1.9823076504139067e-14
-3.795773980926334e-14
7.60054943929974e-14
-2.2904008767604742e-14
-1.514374581612933e-14
-3.220887180112719e-14
-4.720795399323174e-14
-1.4627015260869793e-14
9.404384105522867e-14
-1.9549598756961733e-14
-5.705194817208503e-14
7.568977134597829e-15
6.903256979444889e-14
1.4195662799681452e-14
-1.8992712730935332e-14
1.3497351791078843e-15
3.4473147521459966e-15
-7.324829115013767e-15
-4.1473131256109925e-14
3.94678806737558e-15
4.485117230374815e-14
4.4988916383298905e-15
-1.8923761823821565e-14
-5.2940657129237785e-15
1.9718935898415455e-14
-2.5295320433633454e-14
2.2167927870571417e-14
-2.63733990259911e-14
2.950079158905316e-14
8.332034332779266e-16
-3.257046520523391e-15
-5.613782098591962e-16
2.9852212971046606e-15
-2.225516679111248e-14
1.3173863371777576e-14
1.5020241564372659e-15
7.579279262897612e-15
-1.0061680062368104e-16
-4.75271329546001e-15
1.8292764593516195e-17
4.835037331490176e-15
-7.671790572888703e-15
-1.507298663672353e-14
3.969750962083473e-14
-1.695273241122249e-14
1.515175569351188e-14
-1.1507669681211198e-14
5.165800667103905e-15
-8.809886679404586e-15
-2.3732126974219987e-14
7.733271662616864e-14
-4.4387070153860906e-14
-9.213519498087727e-15
3.5453827881571577e-15
-2.932646359593328e-14
2.386606488086759e-14
1.9150159269085177e-15
-4.901583994118925e-16
-1.5978028243464608e-15
-3.584737374502682e-16
2.4464349612086218e-15
-5.2938139220079555e-15
-9.619942181542747e-15
3.7207503112418835e-15
1.1193005792308823e-14
3.604297255968644e-14
-2.893753756553017e-14
-1.5569394129282648e-14
8.463959135126398e-15
-1.6601048808446515e-15
-2.3729315366412225e-14
1.0309409474240141e-14
1.508001077301674e-14
-5.394839754868019e-13
9.379860750962618e-13
-2.6336547707531026e-13
-1.3513662253414934e-13
-2.1551355470139782e-15
-5.582378725519499e-15
6.612056672012447e-15
1.1254576005210288e-15
5.150258975539709e-15
-3.271510333456767e-14
1.8144659697331406e-14
9.420184661696564e-15
2.790306999401533e-15
-3.168824452311196e-14
2.405918832359394e-14
4.838749200116493e-15
1.0497193801936218e-14
-1.1603433427655585e-14
-1.6112672131221426e-15
2.71750683884151e-15
-7.399253768644476e-15
-8.970636494211133e-15
4.253086226987779e-15
1.2116804035867829e-14
7.258571883960402e-15
-8.407938594716974e-15
8.499258994408194e-17
1.06437412081249e-15
5.9014376605839925e-15
-9.59573932971643e-15
-8.399310676110975e-16
4.534232736743535e-15
-5.478383280398027e-15
-1.0616642059044311e-14
6.249830993613743e-15
9.845194345828594e-15
1.6137782019579756e-16
-3.013204815007877e-14
1.8239196431218823e-14
1.1731473898664167e-14
-4.917160891891824e-15
-1.5325048780586573e-14
1.454374529259978e-14
5.698464379878623e-15
2.112596229506673e-14
-2.5543719783291024e-14
6.555209510776377e-15
-2.137452022552096e-15
5.331234845663753e-15
-1.9235199907837843e-14
6.79780293501526e-15
7.10616212715883e-15
7.933121921207005e-13
-4.5358490796109774e-13
-1.1427820290114888e-13
-2.2544908125845484e-13
1.7711862811182334e-14
-1.907243075881415e-14
1.871654565452768e-15
-5.110866178209439e-16
7.0297277669367414e-15
-1.782240608940998e-13
-1.0504102451047606e-13
2.7623535763763924e-13
1.2577979276635402e-13
-1.8903654828786712e-13
-2.685089752778856e-13
3.317657307993994e-13
1.3954005028397364e-14
-3.557732207890608e-14
-1.194205486546749e-14
3.356537191597624e-14
-2.7158712277115208e-14
-1.1068099980610513e-13
-6.957750035218871e-15
1.44797462118439e-13
-1.326025217037894e-16
-5.817201150103536e-15
9.802460354431736e-16
4.969557636364153e-15
-1.1676151836017674e-15
-8.787366870499708e-16
-1.175221950742951e-15
3.2215738213946892e-15
9.461531352901481e-15
-2.857303502074033e-14
1.3734410269510077e-15
1.7738062640887838e-14
-1.1636060030783371e-15
-1.2234322607568284e-15
8.07535770792654e-16
1.5795024930425108e-15
0.0
0.0
0.0
0.0
6.000076487592852e-15
-1.1992506156596074e-14
4.485035130776737e-15
1.5073945382264817e-15
-1.161758548056371e-13
-7.215324890221357e-14
1.5392023307498532e-13
3.440887063286542e-14
-1.748340658888583e-14
-2.0627022953854536e-14
2.1697486821994385e-14
1.6412942720745988e-14
6.012206386686259e-15
-2.283797838417944e-15
-2.2857061519835084e-15
-1.4427023962848054e-15
8.644044997752594e-16
-3.1881480782156873e-15
4.644500779905692e-15
-2.3207572014652653e-15
1.4887709101507355e-14
-1.9649082489937314e-14
-5.162359160090953e-15
9.923732548520915e-15
-1.0299851878091125e-14
4.0985404342798684e-14
-2.613796573545767e-14
-4.5475867292498935e-15
4.2249614821121116e-14
6.36069975099192e-15
-2.3540500433018447e-14
-2.5069814139094608e-14
-4.7504493942948896e-14
1.1836553388612182e-13
-5.88785576402252e-14
-1.1982482302947722e-14
4.078409623062485e-15
-2.0196574861008678e-14
1.3188235219960013e-14
2.9299300179861658e-15
-2.561277236268283e-16
-3.525795141182856e-16
-5.013777290550832e-16
1.1100849668001971e-15
-5.650263059949991e-16
-2.2007001387830338e-15
3.0621490850609218e-15
-2.964226402828885e-16
-1.909954575200586e-15
3.253005015362994e-14
-1.4348596071619615e-14
-1.6271499506809742e-14
-1.2568237218902566e-15
-1.399574397724056e-14
6.8451215623616184e-15
8.407446136769198e-15
5.746930423349223e-15
-1.0449240062267597e-14
4.1253722323525534e-15
5.769374065658239e-16
3.197828520280125e-15
2.4335794895501224e-14
-1.1795619275770747e-14
-1.5738004140010612e-14
1.1372475339243847e-13
-4.961629278098154e-14
-1.324354611386142e-14
-5.0864914497595614e-14
-3.9623297617627995e-15
-2.7655643106173e-15
-1.7810887583516477e-15
8.508982830731747e-15
2.6778802126110385e-15
-3.094608082264427e-15
1.4167311236448808e-15
-1.0000032539914915e-15
-1.1348511227843493e-15
-2.0416792831754537e-15
1.334240307204877e-15
1.8422900987549256e-15
5.231529886698785e-14
-3.08859669835952e-14
-1.2696106479859091e-14
-8.733225403533552e-15
3.9660578060243334e-14
-1.2632213505236907e-13
-1.7182271238495315e-13
2.58484269377079e-13
-3.929122718545288e-14
2.2661336067590853e-14
-5.35187465003649e-14
7.014863761822707e-14
5.0249579038430754e-15
-2.2687826692186903e-14
-6.885702489429885e-16
1.83514390372868e-14
-7.158796874346835e-14
-3.4467664966307353e-15
-1.3687843206507342e-13
2.1191316730517246e-13
-9.988395470401157e-15
8.958134412950799e-15
-1.640159124915824e-14
1.743185230660858e-14
-3.030090244936888e-14
-2.1359516496219372e-13
1.2631247444553256e-14
2.3126481996701025e-13
5.953829962804596e-14
-8.740593144601885e-14
-4.14206755691821e-14
6.928830738715507e-14
-1.9033822401891884e-13
-5.360038366985587e-14
2.0400304821045112e-13
3.993555947832403e-14
-8.42224157002386e-14
-2.79275991626811e-13
-3.051322410558835e-14
3.9401163143263853e-13
-5.323549057990203e-14
-5.333348464020337e-14
2.8067419814794256e-13
-1.741052229278375e-13
-1.3213404881719002e-13
2.0678108495601463e-13
-1.1951208766079033e-13
4.4865051521965674e-14
-1.1381381684719852e-15
-1.2127919059122086e-15
-1.0540398408417025e-15
3.4049699152258964e-15
-3.272771118896172e-15
-3.0204571462773926e-14
-4.266679802806219e-15
3.774402238447629e-14
5.079990238746113e-15
-4.457164315659897e-15
-4.0008650708877935e-15
3.3780391478015734e-15
5.5790483056132795e-15
-1.3391790791643352e-14
3.800415164618669e-15
4.012327321411401e-15
2.0333758404281504e-14
-7.239272973326804e-14
2.817144270775004e-15
4.924182705821149e-14
1.6297056608510563e-14
9.600679358718348e-15
-4.6208264627162945e-14
2.031052865993402e-14
-2.714666146595561e-14
-2.598223819542425e-14
3.632160647687599e-15
4.949673901369225e-14
-7.066706378531293e-14
-1.4045560741270218e-14
7.657482239394825e-14
8.137802132634958e-15
-1.737160439885641e-14
-2.399646277329125e-14
2.302985169886436e-14
1.8338215473283263e-14
-1.2791238288318625e-14
2.826993305214058e-14
-2.985714296620571e-14
1.4378448202383748e-14
-1.5248358512454842e-14
5.0037878502227675e-14
-8.549056939194813e-14
5.070104940217526e-14
-4.3784721052618064e-16
-3.1843225093093615e-16
-3.557590974571723e-16
1.1120385589142892e-15
1.742859155519391e-14
-3.8297025832808943e-14
2.8007981551020194e-16
2.0588354462104855e-14
5.752104836070335e-14
-9.667483333138689e-14
1.0358147603653567e-14
2.879563736702999e-14
5.754496907400152e-16
-7.164974035438447e-15
-1.5655660541378703e-14
2.224518488607713e-14
-4.347512145910428e-14
-1.207194945829233e-14
5.395160855224363e-15
5.01519100621722e-14
-7.736217318243992e-15
-9.589267683816119e-15
-1.7737220468052855e-15
1.9099207048865392e-14
1.4929653018082336e-15
-1.365451001389464e-14
-7.919420932370813e-17
1.2240738921410123e-14
-7.530507769784604e-16
-1.3369426397359335e-14
1.3647661603789942e-14
4.748155705478521e-16
-5.032427533292368e-15
-7.644839766960205e-14
-1.897805412421082e-14
1.0045887932710542e-13
-1.4715296204881062e-14
-1.1936691283405617e-14
1.2973130304035396e-15
2.5354674457883153e-14
5.453936475292358e-15
-1.320028025150726e-13
3.0673426977929938e-15
1.2348152334198734e-13
1.149737078934213e-15
-8.749033616487363e-15
1.9892011347007593e-15
5.610095402852398e-15
-9.03574551743176e-15
-1.049630275468936e-14
7.346126708424768e-15
1.2185921563696364e-14
-5.561118419256468e-15
3.4418797589242905e-14
-2.423324594592999e-14
-4.6244332240564674e-15
3.163772500232609e-14
-4.4986340583978635e-14
-2.859949584650545e-15
1.6208565166303154e-14
1.8106778301102382e-15
-2.051216281077684e-14
-4.230391680976524e-15
2.2931876661643137e-14
-4.300477506904042e-16
-3.428511726949623e-16
-3.7219325116215654e-16
1.1450921745475228e-15
-3.285998271050514e-14
-3.0105649683004028e-15
9.132715648525923e-15
2.673783203027962e-14
1.515688045777425e-14
-1.0850961127447583e-14
-2.198490596062478e-15
-2.1074287342641922e-15
-7.436321027070602e-15
-3.039249405798419e-14
8.286761424500091e-15
2.954205366055472e-14
-2.4338720145889134e-14
1.5684647778942403e-15
4.127117974804584e-15
1.8643137393190294e-14
-3.919523833924143e-14
1.4791902861484167e-14
-1.301199732818274e-14
3.741533280594001e-14
-1.441947500860009e-13
-2.042151002725658e-13
1.885289071231253e-13
1.5988094323544063e-13
-5.582071342085283e-14
2.9593507838337336e-14
-1.437326123170262e-14
4.060046681421811e-14
-4.6129705406673445e-14
-4.58853469896323e-15
-1.6915066086640928e-14
6.763330619227762e-14
1.0402348239941077e-14
-1.4749538285975812e-14
-3.698187344116434e-15
8.04537739015118e-15
-3.9183051489785835e-14
1.246952759875049e-14
-2.3229655085215628e-14
4.994317897625101e-14
-2.7059519344453317e-14
2.5907903558439074e-14
-4.711259383818095e-16
1.6227417243960663e-15
-2.0058695132259903e-15
-3.3176585987303053e-15
5.481443193782015e-15
-1.579150818257178e-16
1.3025335002105397e-14
-1.2185869293968163e-14
2.890758451719923e-15
-3.730224159857159e-15
-7.456801925114527e-17
-4.1722806331567665e-14
-3.647336026159005e-14
7.827073461240894e-14
4.105858530605237e-15
-1.2661883616054484e-14
-1.6524563326836755e-14
2.5080588412285963e-14
2.656837941480787e-15
-1.2010811924060579e-14
1.4512388427757334e-15
7.902735139804053e-15
-3.424875214781679e-14
5.6202423397599606e-14
-3.507801403563214e-14
1.3124342785849359e-14
6.996123042287684e-14
-5.688288076293213e-14
-1.1305421468564516e-14
-1.7729281913803403e-15
1.4831750486348862e-13
-2.9512643378780206e-14
-2.908698872839045e-14
-8.971787275631807e-14
1.727729540912814e-13
-1.95415744237639e-13
8.434185385849362e-15
1.4208604760508161e-14
2.5891537976129854e-13
-2.192234355614398e-13
-9.358771543534057e-14
5.38957712354819e-14
2.878934322525764e-14
1.3903591454489216e-14
-1.615656487471278e-14
-2.6536369805034066e-14
0.0
0.0
0.0
0.0
2.267298953245912e-14
-8.122588789511274e-14
1.8653149828624338e-14
3.989974853402929e-14
-1.2108809702725064e-14
-1.2585568739511256e-14
1.0026213461519499e-14
1.4668164980716817e-14
-2.947567879876186e-15
-2.872484625154835e-14
7.36185116612214e-15
2.4310562965302384e-14
-1.7575727543452098e-14
3.504649106398276e-14
-1.8778312359808017e-14
1.307548839277372e-15
-2.5676672535087274e-15
-1.2679670976195423e-14
7.635964966673298e-15
7.611373263030847e-15
-7.234899047724991e-16
-5.562248099207018e-16
-1.0124088990367993e-15
2.2921236137300002e-15
-2.6186377436854126e-14
-3.005884849151491e-14
1.6015867432436294e-14
4.022935849593278e-14
2.6140569690349126e-15
-8.940343724533518e-15
1.1490483430488366e-14
-5.164196674989762e-15
2.0946276252795714e-15
-7.765831660871455e-16
-1.5636934261601718e-15
2.456489669677466e-16
-2.2758067803820005e-14
3.049219161788962e-14
1.8759761571347583e-15
-9.61009997120438e-15
-1.5772694770041912e-14
3.742351723923115e-14
-1.4595160294300404e-14
-7.055662174888814e-15
-1.2395590073446977e-15
-6.874601428939043e-16
-1.155998730735467e-15
3.083017880974069e-15
4.143526387179043e-14
-2.4616869265923006e-14
-4.871217506095601e-15
-1.1947177099771848e-14
2.3297877491933663e-14
-1.469906250319865e-13
-9.216673212965282e-14
2.1585947966970595e-13
4.7627288557154014e-14
1.1678117882996463e-14
-6.907704260571384e-14
9.771636165563436e-15
1.5692319420472467e-13
-8.62209203554803e-14
-1.2220796651485582e-14
-5.848147719775847e-14
-3.502571265492347e-14
8.064011586411881e-14
1.5781771936672278e-14
-6.139617514586765e-14
8.74170403298565e-15
-1.2926137240459887e-14
-5.304223693842328e-15
9.488656901316572e-15
6.050320084266506e-14
-1.4991446908244057e-13
-3.8223489252450387e-14
1.27634757492226e-13
1.442134398938433e-14
1.7800891101869958e-13
-1.8687271454619272e-13
-5.557540461891334e-15
3.8662608080464655e-16
-4.057377306706697e-15
3.739018882844228e-15
-6.826765694217673e-17
2.5696380613553514e-15
-7.309755955722776e-15
-2.5193096652318845e-15
7.259427559599305e-15
-7.131326861886005e-15
-9.750283409388307e-15
-3.917873548287758e-17
1.6920789006757198e-14
1.789211225261835e-14
-1.233226571585179e-14
1.0774309150219454e-15
-6.6372774517885166e-15
3.8623898790713366e-13
4.0670868095031786e-13
-3.294764330583913e-13
-4.634712357990626e-13
2.7695448985949373e-13
1.0589082782442545e-14
-1.2687893934627746e-13
-1.6066463329565816e-13
-8.583703253676147e-15
-1.9076558297071815e-14
-5.544943073006897e-15
3.3205204623754864e-14
3.1666940581937628e-15
-1.6281045848674743e-15
-8.104388456112351e-16
-7.281506277150535e-16
1.5743679449175039e-13
-1.315382775976982e-13
-7.59026295360608e-15
-1.8308253940446096e-14
-4.182449545452194e-13
-6.005570285704059e-15
4.117535849355913e-13
1.2496939895331787e-14
1.3773964330165131e-14
-1.8269235246712818e-14
4.3496756845829e-15
1.4559523196478525e-16
-5.834260533031811e-14
1.3805054337217262e-13
-8.300562775298048e-14
3.297689711126047e-15
-1.0679871637633437e-14
-1.265943210134938e-14
-1.20025930118029e-14
3.534189675078571e-14
-2.5732382715733794e-15
-1.1978494761303414e-14
3.613787243621579e-15
1.093794578925521e-14
9.834051719324443e-15
2.1594559785576243e-16
3.115733528670073e-15
-1.3165730845850275e-14
4.136445423418214e-14
-6.054391475491516e-14
-1.896624643516588e-14
3.8145706955898886e-14
3.02743967418159e-14
-4.890500320637424e-14
-9.817617493002874e-15
2.844822395756125e-14
-1.080450003281019e-14
8.227812635743401e-14
-7.052721778681593e-14
-9.46408537807976e-16
-1.506287603842476e-14
-2.9960140165040606e-14
2.103702018504718e-15
4.291931418496063e-14
3.942892014984631e-14
-3.397982687093609e-14
-6.9697306348213006e-15
1.5206373559111007e-15
-5.957481763442979e-14
-7.155409535451772e-14
-1.9299571300708889e-13
3.2412462599603616e-13
-2.761710713333024e-13
-3.050518295395725e-14
-3.71174024298951e-13
6.778502785862122e-13
-2.93963910283155e-14
-7.198696923261137e-14
-3.7026544204700297e-14
1.3840990446562709e-13
-2.5710819464693293e-14
2.159945219523289e-14
-2.9063507391824855e-14
3.317487466128528e-14
-2.192796684910375e-13
-9.889062997221489e-14
-2.1214242248922942e-13
5.303127209524809e-13
-2.972849876632435e-14
-3.688419305722118e-14
-2.7148103880791846e-14
9.376079570433728e-14
-4.609130417136246e-14
5.5755757945689654e-14
-4.296700900194655e-14
3.3302555227619385e-14
-8.740446976781612e-14
-3.323477287777e-13
-1.119812167850705e-13
5.317334153305846e-13
-3.4208754519775046e-14
5.327493696418961e-14
-2.6859202476276075e-14
7.793020031861533e-15
-1.9557488588907617e-14
-5.5741926805055776e-14
1.2192265091383893e-14
6.310715030257951e-14
-1.0040893586397981e-14
-5.4765098480406114e-14
1.4066084405415393e-14
5.073990766138871e-14
1.430080162880788e-15
-2.863538273170823e-14
4.8960855885113195e-15
2.2309216980316122e-14
5.2771374475131476e-14
-1.0276700880180091e-13
-1.96595014193972e-14
6.965513574606663e-14
-1.484063446903342e-14
1.343364866603077e-14
-6.376349285784899e-14
6.517047866085149e-14
3.539774825406713e-14
-3.841608497191272e-14
-6.555643871308795e-14
6.857477543093344e-14
-9.634825629270342e-14
8.744419446913488e-14
7.79085213004948e-15
1.1132096935191677e-15
-3.8705760896302954e-15
1.750417035403807e-14
-7.828686929847691e-15
-5.804907334560083e-15
2.5187862152916683e-14
-4.7594630307350125e-14
-2.328418746852698e-14
4.569095562296047e-14
3.327919054432827e-14
-6.25890627803481e-14
-1.5022265825914757e-14
4.433213806193455e-14
2.2142383364930858e-14
-3.4178273077461194e-14
2.8012537948022515e-15
9.234635917728094e-15
1.3589558115358432e-15
-1.1189742870751536e-14
1.987879073395145e-15
7.842907985820556e-15
5.183311030328783e-14
-1.6871576057644564e-14
-8.894935342054247e-14
5.398781917489919e-14
1.820227279793674e-14
-4.268064472576541e-14
-3.7882985609720746e-15
2.8266670488800815e-14
-2.0070233756992833e-14
2.6742181644843653e-14
-9.59055407595693e-15
2.918606188106107e-15
4.706902921645097e-15
-5.490718428538572e-15
7.30668189969493e-16
5.314731692398216e-17
1.396079406325524e-14
-3.958472392778095e-15
-5.943653068774394e-15
-4.058668601702751e-15
0.0
0.0
0.0
0.0
1.5216180031372874e-15
-3.726770579252599e-15
2.7800592398483314e-15
-5.749066637330197e-16
0.0
0.0
0.0
0.0
-4.453917848461022e-15
-4.4782782920174946e-15
6.191291984597791e-16
8.313066942018739e-15
1.4710326796044599e-15
-3.641793551122283e-15
-1.2833545643037818e-16
2.2990963279482017e-15
0.0
0.0
0.0
0.0
2.9484460872101636e-13
-4.865315993197135e-13
-3.267423270970668e-14
2.243612233084035e-13
0.0
0.0
0.0
0.0
1.443177961935843e-13
-2.230995222616379e-14
-1.2962238744012033e-14
-1.0904560522340857e-13
-1.761745149805596e-12
8.371002349462174e-13
2.9913698323260127e-13
6.255079316267754e-13
-1.0525009461811967e-12
1.0641589412674698e-12
1.0483274317163509e-13
-1.164907382579052e-13
-1.5239135849656877e-13
1.7319047747037615e-13
-7.365841468749517e-15
-1.3433277505057674e-14
-8.135620254657502e-16
-1.1195265336048535e-14
9.777849477690098e-15
2.2309778838241928e-15
2.3571989212618287e-15
-1.3368958136754991e-14
7.558792702152219e-15
3.4529665133409447e-15
0.0
0.0
0.0
0.0
0.0
0.0
0.0
0.0
8.093941791679482e-15
-3.3044882717521043e-15
-2.7107301649329623e-15
-2.078723354994415e-15
2.378272791542261e-15
-4.9096101039421533e-14
9.860517806943554e-15
3.685731044093573e-14
-1.0455746738628975e-14
1.1309489953950847e-14
1.2544621168320611e-17
-8.662878364902039e-16
-1.2277705379026022e-14
-6.64756021549141e-14
6.2359695650592745e-15
7.251733796888097e-14
6.76834398938986e-15
-6.702905134597799e-15
-1.285795760313424e-15
1.2203569055213638e-15
-1.5971839980271422e-14
4.1852577365631636e-14
-1.7130451509815168e-14
-8.750285875545046e-15
-7.47771302162412e-16
-5.962114412151011e-16
-8.289437583575727e-16
2.172926501735085e-15
4.304637813763356e-15
-3.613326351708295e-15
-8.571300163660398e-16
1.658185543109773e-16
5.362193707218183e-16
-1.4283590907327987e-15
1.655664219348601e-15
-7.635244993376204e-16
-2.4505375768550674e-15
-2.2722106657525844e-14
-4.81345475468769e-16
2.565398970984968e-14
-3.0547329413889755e-15
-4.217259926706032e-15
-4.1130608792663554e-16
7.683298956021641e-15
-2.011418687679909e-15
-2.364803455884499e-15
2.9929545496553164e-16
4.076926688598876e-15
2.667724740503447e-15
-3.448344823646409e-15
-1.7543103445946695e-15
2.534930427737632e-15
-2.3937441394647642e-14
-3.4252227607002217e-15
-1.0772241837128284e-14
3.813490599247609e-14
-5.756577098574025e-14
2.7681358402517877e-14
-2.1804796698821676e-14
5.168920928204405e-14
-5.585980392519136e-14
6.582031053822108e-14
-3.716463434391939e-14
2.720412773088976e-14
-1.812929713749738e-14
2.9930671196512425e-14
-1.1771819077096488e-14
-2.9554981918562006e-17
-2.8001138858587335e-13
3.080764383249724e-13
-2.339197617566899e-13
2.058547120175907e-13
-2.1298421878411012e-14
3.3034591903493034e-14
-1.622418567971866e-14
4.488015654636643e-15
8.793179077836386e-15
1.0261595601699126e-13
-1.4883997718774773e-13
3.743084209292035e-14
-1.881239138054974e-13
1.9530215114564794e-13
-1.0122242101147961e-13
9.404418367132956e-14
1.7227687020321787e-15
-1.483727059109258e-14
5.340859537923977e-16
1.2580415935268011e-14
5.452022130983997e-14
-9.684502957078767e-14
3.700620968330745e-15
3.862418729261694e-14
-2.525314417823887e-14
2.097503358139417e-15
5.193559620053882e-16
2.2636284858094066e-14
-4.9656919265050015e-15
2.2406001924618752e-14
-2.1818042462841828e-14
4.3777324647280944e-15
-4.597697686038274e-15
-3.3820709317336536e-15
1.763983180375824e-16
7.803370299734346e-15
-4.6306183871424356e-15
-2.377274207599606e-14
1.0617056782857374e-14
1.7786303680281098e-14
1.2707153911032849e-14
-2.946572046957403e-14
6.566758752574134e-15
1.0191807805967027e-14
-2.881169730617801e-14
3.226308168210503e-13
-2.4692815461317985e-13
-4.6890964901692854e-14
9.861629030635917e-15
-6.206757670011466e-15
4.54043768054719e-16
-4.108915128679173e-15
-8.49424007967726e-15
4.5595568760202686e-14
-1.9743973324332194e-14
-1.7357355356193223e-14
-3.133828361969165e-14
5.837301886305502e-14
-3.4440226512294564e-14
7.405491268931197e-15
3.441057439788362e-14
-6.073206628121267e-14
1.8896814625683398e-14
7.42467725764564e-15
-1.412231704749226e-14
3.365737577391631e-14
-7.760282644725756e-15
-1.1774776081698298e-14
4.265632302427863e-15
-3.415212234613271e-14
1.1324822122787788e-14
1.8561667920917046e-14
-1.8338193822966386e-14
-2.3482512714782758e-14
-7.485955468991877e-15
4.9306662006741064e-14
-1.0409147924008902e-13
1.783552144646029e-13
-7.485675439095896e-14
5.9301916644504455e-16
1.6864790820266e-14
7.487750569301735e-16
-2.5541916236691953e-14
7.928350359495824e-15
-1.000162966360808e-14
1.8380371179231595e-14
-1.2820547993220881e-14
4.441806477597356e-15
6.167586544470695e-15
-3.2540633979887605e-14
-4.7731908244738286e-15
3.1146238259890743e-14
-3.653867904027226e-15
-6.400571259339024e-15
-5.7139590490749206e-15
1.5768398212441173e-14
4.945169617526636e-13
-4.909279328435877e-13
-4.0195123425806085e-13
3.983622053489854e-13
3.5670572720673825e-14
-8.820032017111535e-14
-4.2834592884397494e-14
9.536434033483904e-14
2.1586046012161924e-14
-1.5238869985062576e-14
4.7354979148157585e-15
-1.1082673941915129e-14
2.5112928053709335e-13
-1.3319617655263847e-13
-2.0935268739938353e-13
9.14195834149294e-14
-2.0038628210557546e-14
2.7946279475124172e-14
-1.7562723674455064e-14
9.655072409888421e-15
5.273463490235318e-14
-6.15835994165653e-14
7.913472500242558e-15
9.354920139695457e-16
-1.4095513641236186e-13
4.303151075591052e-14
-6.95631198583918e-14
1.6748674551484307e-13
-6.489235125268019e-14
1.1066910311300424e-14
-1.695189679532321e-14
7.077733773670296e-14
-3.449460025830228e-14
1.6773777635870303e-14
-4.1603385516337745e-14
5.932420813876978e-14
-6.76045466397333e-14
3.7668467555967517e-14
-7.819521476686293e-14
1.0813129385062865e-13
-2.3510725969629058e-14
7.56042383823799e-14
-3.022425311882962e-14
-2.1869259293921208e-14
-5.0663875502227436e-14
-2.0905494159134088e-15
-3.437695811161224e-14
8.713138302975307e-14
-8.28137704906269e-15
-2.2034158137092907e-14
-3.5333946662842814e-14
6.564948184899845e-14
-1.2651563771211059e-15
-7.630772772033771e-15
-6.397768601212593e-15
1.5293697750367466e-14
4.285701829802272e-14
-2.967033644744191e-14
-4.445894125055229e-15
-8.740787725525517e-15
-1.767648828947323e-14
3.5279681632203274e-14
-2.359327938557681e-14
5.990086042846801e-15
-1.9313574596757556e-09
6.440138107183521e-10
-1.6640818866800075e-09
2.9514255356374106e-09
-4.78959102561107e-11
1.354921919741686e-11
-4.211788227462341e-11
7.646457333331761e-11
1.2958399959745614e-12
-2.1094560941634285e-12
-2.109050296029024e-12
2.9226663942178985e-12
-3.877233019535335e-12
-1.8654780997599245e-13
1.1432368770060587e-12
2.9205439525052876e-12
-8.107531439443118e-13
1.2346151928288654e-12
-2.5488035430774036e-12
2.1249414941928545e-12
6.817617242503145e-13
-6.520762044658498e-13
-2.617198695040713e-12
2.587513175256243e-12
-4.485154408890888e-12
7.565878039761061e-13
8.120995745768774e-13
2.9164670303379135e-12
2.1633974848021198e-13
-1.0591481849786506e-12
-1.711011113351003e-12
2.5538195498494267e-12
0.0
0.0
0.0
0.0
-3.62664568900615e-12
-1.5560646893110589e-12
-1.5326789022578637e-12
6.715389280575069e-12
2.513778797406131e-14
-2.4760793862161405e-14
8.39790611278998e-16
-1.2167847231789083e-15
-6.808466653548674e-14
-2.7987874653095355e-13
-1.318714535685051e-13
4.798348666349462e-13
-5.549117882012113e-14
-2.7235318454609226e-13
1.0012747977077959e-14
3.178316153891345e-13
2.7284123904246585e-12
-1.7415454794363817e-12
5.511418304370716e-12
