-4.145997350059027e-12
-2.147740870921947e-12
-5.660357788809587e-12
1.1954096009790604e-11
-1.883160714100521e-12
-1.1554398844814546e-13
-1.857958579635414e-12
3.8566632821840924e-12
-1.4930400606979803e-12
2.7576366344154306e-12
-2.990707773305821e-12
1.7261111995883673e-12
-2.6225399199621754e-12
3.261909819616565e-12
-2.429536429523186e-12
1.7901665298688037e-12
-7.859207596323845e-13
-5.519953156205894e-12
-5.994904212814457e-13
6.905364337119699e-12
4.297386827537086e-12
1.3807236252181554e-13
5.316771180822861e-12
-9.752230370881772e-12
-2.9324662863951236e-13
-2.7746780963330686e-13
-3.196970508519145e-13
8.904114891247326e-13
2.367222123400243e-13
-2.5651592952338164e-12
-1.5014021429839327e-12
3.829839225877732e-12
-1.7319213097225386e-14
-1.7112554512915915e-14
-1.4454979344797335e-14
4.888674695493864e-14
3.0822878352888296e-12
4.490571967311943e-13
1.601521452205092e-12
-5.1328664842251315e-12
-2.776436700785572e-13
-2.573709429377282e-13
-3.1680839698429873e-13
8.518230100005846e-13
-7.637581602962074e-14
-8.863820973328182e-14
-7.011603058185606e-14
2.35130056344759e-13
-4.224158027322574e-14
-8.174132153958734e-14
-8.002536410922838e-14
2.0400826592204116e-13
-7.989298118085195e-14
-1.0010070801243276e-13
-6.285877530146043e-14
2.4285246449474527e-13
-6.333075607970495e-14
-1.2395551722100036e-13
-8.917688575308744e-14
2.764631590537929e-13
-1.5602958560955038e-14
-2.0096866695578078e-14
-2.8886538676155025e-15
3.85884791241486e-14
-1.317450572183312e-13
-7.516382537299764e-14
-6.533781651417757e-14
2.7224669910550644e-13
-3.0501657015308705e-14
-4.747094719043346e-14
-1.4208557707405704e-14
9.218116191314788e-14
-7.09276854998754e-14
7.202145702838439e-14
-6.679577680940867e-14
6.57020052808998e-14
-4.444647200516119e-15
-4.446766407748916e-15
-4.543358433310999e-15
1.3434772041576035e-14
-5.600966403085799e-13
-3.5989300292165575e-13
1.9360678220168397e-14
9.006289650100678e-13
4.811028206819336e-13
-2.3221424528300775e-12
-1.1568009557337874e-12
2.9978405878819486e-12
0.0
0.0
0.0
0.0
-6.748551749882671e-13
1.866682888160247e-12
-6.68096333267167e-13
-5.237313799048149e-13
-3.3810146167539777e-14
-3.623542013474849e-14
-2.7587540436697163e-14
9.763310673898543e-14
-1.0432303231263538e-13
1.44206710609954e-13
-8.795073630522821e-14
4.806705800790999e-14
-1.9618725893206e-15
-1.8593764182282864e-15
8.672154229611594e-16
2.954033584587726e-15
-1.1208934613076814e-13
-1.744402590188526e-13
-2.6968657766970674e-14
3.13498262916591e-13
4.892886022184871e-12
-1.8901129539060983e-12
-8.354315286348563e-13
-2.167341539643904e-12
-1.8585210139645792e-14
-1.8360160631634363e-14
-1.8744078720499288e-14
5.5689449491779465e-14
-1.99444273557506e-14
-2.6973836506624375e-14
-2.0337863855172387e-14
6.72561277175474e-14
-9.006137389727683e-14
-8.866268316220808e-14
-7.897864080191361e-14
2.5770269786139874e-13
-3.975480695020774e-12
6.171490814104565e-12
-3.854974773931333e-14
-2.1574603713444924e-12
-1.0918805509523364e-12
2.8686739484542502e-12
-2.5566177334030483e-12
7.79824335901125e-13
-4.7231954318541e-14
-4.5675461563375136e-14
-2.4867292521235666e-14
1.177747084031518e-13
8.23176273730683e-13
-3.63258805295086e-12
-1.4677245790116852e-14
2.82408902501031e-12
5.1839459879595516e-14
-1.6013828780916856e-13
-8.584108235784557e-14
1.941399102874188e-13
-3.0648259211740523e-13
-4.135661539093893e-13
2.8109220480297376e-13
4.3895654122381894e-13
-8.281748823329463e-13
4.879448594836666e-13
-1.6271732331166022e-12
1.9674032559658828e-12
-1.4660986195112743e-13
1.3609345212185059e-14
-1.6366098799078126e-13
2.9666150472972335e-13
-5.979907654779929e-13
7.423058977898806e-13
-4.5241433933382965e-13
3.0809920702194406e-13
-2.788678717173544e-15
-3.2938332703365962e-15
-2.738373556490538e-15
8.820885544000679e-15
-1.3234650786671569e-13
2.1065775469252809e-13
-1.0865088181194912e-13
3.033963498613665e-14
-1.3497069099608042e-13
-1.5620330563759975e-13
-9.583468079894742e-14
3.870086774326283e-13
-3.376153326220698e-14
-3.322635837135853e-14
-1.3727618441159455e-14
8.071551007472502e-14
3.578661737397478e-13
-3.408891019078027e-12
4.427331086591833e-12
-1.3763062412535678e-12
-6.017250865556883e-14
-1.1834716753298322e-12
1.6189991840008655e-13
1.081744265585307e-12
-2.781796994578456e-13
1.1908945960531903e-13
-1.4796959241645981e-13
3.0705983226898626e-13
-1.7657501681122273e-13
-1.7905060035683637e-13
-1.6899920564739916e-13
5.246248228154582e-13
-8.832509522580818e-14
-2.297480013542499e-13
-1.0763066946208112e-13
4.2570376604213823e-13
-1.3341258831682644e-15
-1.1792942221145011e-15
-1.3668428752094824e-15
3.8802629804922476e-15
0.0
0.0
0.0
0.0
-1.4631498680413803e-13
-8.659718154895373e-14
-9.594235260687074e-14
3.288545209599624e-13
-6.229239088553579e-14
-7.031429878950252e-14
-4.899159115486799e-14
1.8159828082990627e-13
-1.6090970333630648e-12
-1.8873651032550242e-12
-5.848131754913263e-13
4.081275312109411e-12
-5.6509285886109355e-14
5.0141948675369144e-14
-4.601830320017055e-14
5.2385640410910755e-14
-1.3397467644921473e-13
-2.0940923423869474e-14
-3.663901411791301e-14
1.9155461399099703e-13
-1.1390316824211264e-14
-7.325102372546815e-14
-6.680494918783365e-14
1.5144628973751313e-13
-1.7752901248843226e-13
-1.7006189670882383e-13
-7.756163278099945e-14
4.2515254197825477e-13
-1.0791182898102719e-13
9.712373374822964e-14
-1.1099765814059706e-13
1.2178575337339468e-13
-1.08461167874523e-12
2.8167428985644834e-12
-1.7219623051639106e-12
-1.0168914655340991e-14
-1.5520346883997256e-14
-1.7939959675545676e-14
-2.064120980246513e-14
5.410151636200809e-14
-1.0702444924996985e-15
-5.267404821092314e-16
-9.250530082679776e-16
2.5220379828769073e-15
-9.867515179495503e-09
4.3144131830733517e-08
1.1330676425696386e-08
-4.4607293076931795e-08
-7.222838143117673e-10
-1.4769069424848903e-09
3.7710214243243185e-09
-1.571830667527672e-09
-6.513315843171577e-13
1.821026593818878e-12
-6.471359684171542e-13
-5.225590410845677e-13
0.0
0.0
0.0
0.0
-1.0087572859035944e-13
-7.486828071659309e-13
-2.2302641606098133e-14
8.718611773623888e-13
-6.333075607970495e-14
-1.2395551722100036e-13
-8.917688575308744e-14
2.764631590537929e-13
-4.224158027322574e-14
-8.174132153958734e-14
-8.002536410922838e-14
2.0400826592204116e-13
4.0528096034004595e-14
2.2157476366196087e-13
7.756695250617234e-13
-1.0377723847576855e-12
-3.683086017661315e-15
-3.626124101222299e-15
-3.686321612385983e-15
1.0995531731269598e-14
2.2486607567259397e-14
-2.099180780201288e-14
8.568804960281805e-15
-1.0063604725528324e-14
-2.8233444615237828e-14
2.466623933563935e-14
-3.001932232866667e-14
3.358652760826521e-14
5.209647730258776e-13
-7.843403585056094e-13
8.43942702160946e-13
-5.805671166812116e-13
7.681625824909403e-13
-1.769713892261743e-13
-2.5100631583877686e-13
-3.4018487742598837e-13
5.951896607926861e-13
-1.1425077978740085e-13
-1.7421270537920676e-13
-3.067261756260778e-13
-1.1283071980265653e-14
-1.597271773673253e-14
4.1081299910647334e-15
2.3147659725933442e-14
2.352266798420744e-13
-5.183169381188346e-13
-3.597715323868305e-13
6.428617906635922e-13
2.5429259907615237e-15
-2.8549251386263357e-15
-1.5986787733336376e-15
1.91067792119845e-15
3.9064845653793635e-15
-1.0135741963462744e-14
1.6114833879668786e-16
6.068109059286693e-15
-9.485772009928765e-14
-2.2508340664329918e-14
-5.710332288318255e-14
1.744693836468001e-13
-1.6057990028099145e-14
-2.3926306117801215e-14
-1.7194056589020033e-14
5.717835273492044e-14
-1.3397467644921473e-13
-2.0940923423869474e-14
-3.663901411791301e-14
1.9155461399099703e-13
-1.5602958560955038e-14
-2.0096866695578078e-14
-2.8886538676155025e-15
3.85884791241486e-14
-2.6973458791220527e-14
-3.417955673917445e-14
-1.9616497500928804e-14
8.076951303132367e-14
-1.980546701030895e-14
4.665550295967564e-15
-4.822550142006823e-14
6.336541813440956e-14
0.0
0.0
0.0
0.0
-1.3341258831682644e-15
-1.1792942221145011e-15
-1.3668428752094824e-15
3.8802629804922476e-15
1.3882351356510512e-13
-4.2174313981010156e-13
3.641691673908655e-13
-8.124954114586862e-14
-3.0501657015308705e-14
-4.747094719043346e-14
-1.4208557707405704e-14
9.218116191314788e-14
-2.225898317812472e-14
-2.0682376677595632e-14
-2.2513359604042437e-14
6.545471945976273e-14
-1.38202612947279e-13
-1.5065501756728816e-14
2.7349437666557067e-14
1.2591867703745086e-13
-5.472660704054333e-14
-6.272090141237116e-14
-4.133710735034706e-14
1.5878461580326153e-13
-2.6363015756409156e-14
-5.41751921722423e-13
-2.5237914530690173e-13
8.204940827857333e-13
7.208626418602097e-15
-1.433231865723403e-14
-6.846300102310124e-15
1.3969992340942055e-14
0.0
0.0
0.0
0.0
-9.746697280252244e-15
-1.8494046448444307e-14
-5.8878359123256264e-15
3.4128579641022173e-14
-2.80699782043118e-15
-2.7954196902078716e-15
-2.9241228687565652e-15
8.526540379395613e-15
1.3265612001639087e-14
-1.499380654423293e-14
-1.4592063386408414e-14
1.6320257929002254e-14
0.0
0.0
0.0
0.0
-6.460098447754945e-14
-1.4615164662431096e-13
-1.0651814242119966e-13
3.172707735230604e-13
-2.3724110748258793e-14
-8.359635472993847e-14
-1.1125270408814727e-15
1.0843299251907878e-13
-3.835702762402773e-13
-1.668537083148535e-13
8.652637825373559e-13
-3.148397979822243e-13
2.4162337412248164e-13
-3.59078965275882e-13
-2.1431256789605162e-13
3.3176815904945304e-13
-1.0547297237106519e-13
4.8073193885755936e-14
-8.452323217930697e-14
1.4192301066461614e-13
-1.2705074731758005e-13
-1.919995451819733e-13
1.7782498681233174e-13
1.41225305687222e-13
-3.12259304873689e-14
-1.2606746814072235e-13
1.5159334807834847e-13
5.700050549743033e-15
-2.0227682270406417e-13
2.014206017527456e-14
-1.945831846077542e-13
3.7671794713654443e-13
-5.6105187181288865e-14
5.055542324419155e-14
-4.558389665825802e-14
5.113366059535534e-14
-4.040987048204827e-16
-4.1347456882240146e-16
-4.344065419125234e-16
1.2519798155554075e-15
-2.1331422569753506e-14
-3.9129398969538446e-14
-3.0912254391406076e-14
9.137307593069806e-14
-4.5601268563287526e-15
-8.692984192542975e-14
-1.2493982148921945e-16
9.161490860324758e-14
-1.7752901248843226e-13
-1.7006189670882383e-13
-7.756163278099945e-14
4.2515254197825477e-13
-8.229732414750927e-14
-6.452785289627112e-13
1.5815444186952797e-13
5.694214112406905e-13
-9.332840855472311e-14
-2.4034249235243397e-13
-7.133067406425773e-14
4.0500157497141455e-13
-8.500499585411509e-15
-9.315861281956499e-15
-8.669273523192813e-15
2.648563439056082e-14
-7.09276854998754e-14
7.202145702838439e-14
-6.679577680940867e-14
6.57020052808998e-14
6.642197300581084e-13
-1.8022197402931584e-13
-1.2264010046336678e-13
-3.613576555654271e-13
-9.63050910484011e-15
-7.146634813886864e-14
-6.52518024211188e-14
1.463486596648276e-13
-1.7598077193711622e-15
-1.7846755865994767e-15
-1.5531467667148907e-15
5.097630072685531e-15
0.0
0.0
0.0
0.0
1.9446661000061768e-14
-1.6049072762814465e-14
1.3300764922684744e-15
-4.727664729515766e-15
-2.5487213795890144e-13
8.83609839640804e-13
-6.247261786601408e-13
-4.011523021764675e-15
-1.3200563304526447e-13
-2.474094047049185e-13
-1.7060266347432488e-13
5.500177012245094e-13
-2.1873081487277605e-13
-3.9787162762126743e-13
9.376858006855648e-14
5.228338624254868e-13
1.5815754763714894e-13
-1.378294438822528e-14
-7.105474885997658e-14
-7.33198543889472e-14
0.0
0.0
0.0
0.0
4.281972158872082e-13
6.793520006246451e-14
4.525246361486698e-15
-5.006576623111584e-13
1.5847244516992436e-13
2.4322056623274856e-13
-1.5273891387785434e-13
-2.4895409752481914e-13
2.0255464678427745e-13
-3.3932277188065586e-13
-8.490960680942397e-14
2.2167773190580254e-13
-1.014817856896351e-13
-1.2768852975928326e-13
-3.232894222747646e-14
2.6149925767639514e-13
1.6476412405775527e-15
-9.16362280334536e-14
-6.691451876128768e-14
1.5690310555416348e-13
1.8162675311801348e-12
-4.3201147416836687e-13
-6.677226581774698e-13
-7.165333988343001e-13
5.972454899270578e-14
-2.7573402739272792e-14
-1.4606637522585592e-14
-1.7544508730847395e-14
0.0
0.0
0.0
0.0
7.933240702296083e-14
-8.578665167730408e-13
4.1846122000584966e-13
3.6007288974423067e-13
-1.8585210139645792e-14
-1.8360160631634363e-14
-1.8744078720499288e-14
5.5689449491779465e-14
2.1145058312402645e-13
-1.283150962254927e-13
4.312151395626026e-13
-5.143506264611375e-13
-1.9618725893206e-15
-1.8593764182282864e-15
8.672154229611594e-16
2.954033584587726e-15
-2.919832781214191e-14
-1.5806990647555113e-13
-4.7057176157767026e-14
2.3432541044545996e-13
1.3245667988908e-14
-3.3259164362635527e-13
3.721516350426635e-13
-5.2805659405215964e-14
7.309413708101472e-13
-1.3054448665041139e-12
5.125998244043718e-13
6.190367128959453e-14
4.289076071905395e-13
-2.71353486505557e-13
-1.4011132075565997e-13
-1.7442799929322553e-14
5.894776234929505e-14
-1.052456644920395e-12
5.293365432368919e-13
4.641723393342074e-13
-1.63764938008494e-15
-1.6513467175410473e-15
-1.6192355645544329e-15
4.90823166218042e-15
-1.3079635371028824e-13
-1.4867277149204019e-13
-8.725016001105251e-14
3.667192852133817e-13
-1.5983308328218352e-14
-2.059342286349287e-14
-1.0553258699566551e-14
4.7129989891277725e-14
-2.788678717173544e-15
-3.2938332703365962e-15
-2.738373556490538e-15
8.820885544000679e-15
-1.7319213097225386e-14
-1.7112554512915915e-14
-1.4454979344797335e-14
4.888674695493864e-14
-2.3814122320341085e-13
-2.3911409599648806e-13
-2.3089307616964035e-13
7.08148395369538e-13
3.6051937566868733e-13
-3.747071151330716e-13
9.111588363964803e-14
-7.692814417526331e-14
-1.454539147872442e-13
-2.9775021634923055e-13
-1.1078828942788258e-13
5.539924205643551e-13
1.0063824316117964e-13
-1.606633892665836e-13
3.2694102324340877e-13
-2.669158771380051e-13
-1.1146107741651689e-14
-1.7297218568889196e-13
-7.994362538790512e-14
2.64061918818449e-13
-6.518913271265036e-14
-3.1634587417613816e-13
-2.154398305247126e-13
5.969748374135022e-13
4.8347100998348234e-14
6.455455593493841e-13
3.021958511511534e-13
-9.960885114988901e-13
3.470061259810531e-13
3.510719949772635e-13
6.903226428320556e-13
-1.3884007637903707e-12
4.902342515805346e-13
2.372646846520257e-13
-1.307747557429628e-14
-7.144214606582637e-13
8.81224571063802e-14
-4.261792332893665e-14
-2.1378720934494694e-14
-2.4125812842948854e-14
4.987310033430666e-14
2.4485251263663783e-13
-1.6808421693746448e-13
-1.266413960334801e-13
-1.848512909031228e-13
3.5943195195775216e-13
-7.663891835220198e-14
-9.794174270242791e-14
3.367358751750543e-14
2.322067781131544e-13
-2.39403420581226e-14
-2.419400235725368e-13
4.5351969843101695e-13
-2.1342620993943625e-13
-2.1031963759607528e-13
-2.9773850895504004e-14
-1.0959197674490152e-12
1.8931264837253847e-12
-3.779880406058373e-13
-4.1921867567053727e-13
-8.234828896531157e-14
-1.6577476872263913e-13
3.114797959233032e-13
-6.335673823535259e-14
4.050888653412799e-13
-1.0202756911670196e-13
1.386271324087473e-13
-4.416884286333253e-13
9.924026735725785e-14
-4.3330087974803654e-13
5.4480732823034517e-14
2.795798795677452e-13
9.474026098209906e-15
4.140438885983734e-13
-3.3263708567507485e-13
-9.088082902150809e-14
3.149603938977185e-14
-9.3522774889963e-14
-3.6085801289224327e-14
9.811253678941544e-14
-4.5068422542671854e-13
-6.656654971981944e-14
5.399918006075871e-13
-2.27410254610494e-14
-2.0374718000198063e-13
-2.75470820694713e-13
-1.3014103201656043e-13
6.093590327132518e-13
-8.298763407370915e-13
7.446446214839202e-13
-3.5498019307794244e-13
4.402119123311158e-13
-8.7521280640308e-15
-9.350508840167746e-14
-1.7149782833443182e-15
1.0397219474905272e-13
3.898485534018592e-13
-2.654517836748026e-13
-8.490409297250099e-14
-3.9492676754554886e-14
-3.3810146167539777e-14
-3.623542013474849e-14
-2.7587540436697163e-14
9.763310673898543e-14
4.222841436069739e-13
4.145365243598844e-13
-4.430176028816428e-13
-3.93803065085217e-13
-4.2114097322103176e-14
3.1284337579931016e-13
-1.549885410189941e-13
-1.1574073745821265e-13
-5.018247499049259e-13
-6.466035160940764e-13
1.518235860402887e-12
-3.69807594403887e-13
5.862019042702972e-14
-6.409924846359628e-14
-4.433682003671113e-14
4.9815878073277605e-14
-1.283018999056218e-14
-8.804022564146072e-15
1.2931495955608344e-14
8.702716599099911e-15
-1.2142592762600755e-13
-1.389444569892196e-13
4.500430821378281e-13
-1.8967269752260026e-13
0.0
0.0
0.0
0.0
-1.031201479948289e-12
2.1977439943907216e-12
-2.5016768292563276e-13
-9.163748315168011e-13
-1.7345961054278248e-12
2.6469110694394616e-12
-6.888506876116578e-13
-2.2346427639997775e-13
7.736777407173112e-15
-7.06887927577213e-14
5.168713568623774e-14
1.1264879664310411e-14
-1.1338681848232705e-13
-1.1566114825505784e-13
3.9774938321252507e-13
-1.6870141647513946e-13
-1.3797690940239401e-13
-1.7037572217193688e-14
-3.698437474280696e-14
1.9199885636239494e-13
-1.0791182898102719e-13
9.712373374822964e-14
-1.1099765814059706e-13
1.2178575337339468e-13
7.077808488184511e-15
-5.162170637497273e-14
-3.516321768221273e-14
7.97071155690009e-14
-1.99444273557506e-14
-2.6973836506624375e-14
-2.0337863855172387e-14
6.72561277175474e-14
6.19058924822683e-14
7.213373472958523e-15
1.1701397248986593e-13
-1.8613323844509279e-13
-2.1032437169771815e-14
-1.1486635435574922e-12
5.401299533156285e-13
6.29566027411636e-13
-1.4205746269016763e-13
7.237192070154038e-14
-7.039315586497808e-14
1.400786978536055e-13
-1.4721226898871957e-13
-2.086183910012669e-13
1.2552978137132127e-14
3.432776818528543e-13
0.0
0.0
0.0
0.0
-7.637581602962074e-14
-8.863820973328182e-14
-7.011603058185606e-14
2.35130056344759e-13
-6.780239071915204e-14
-6.798030648461251e-14
-5.6465281197871176e-14
1.922479784016356e-13
-1.3234650786671569e-13
2.1065775469252809e-13
-1.0865088181194912e-13
3.033963498613665e-14
-4.489656011814305e-14
-1.607782737441022e-13
-1.0147789763424325e-13
3.071527314964891e-13
-7.766372562106897e-14
-9.246024689272771e-14
-1.6468233746938545e-13
3.3480630998318304e-13
-3.358303003483618e-14
-1.5649686517872058e-13
3.5225137927888486e-14
1.5485475728566838e-13
-4.4662887373696386e-14
-1.3364925435772289e-13
-5.360398511917055e-14
2.319161268505899e-13
-3.376153326220698e-14
-3.322635837135853e-14
-1.3727618441159455e-14
8.071551007472502e-14
2.3069913965765673e-13
-2.8947028158514693e-13
2.9802237941737084e-13
-2.392512374898814e-13
0.0
0.0
0.0
0.0
6.122351115790227e-14
-4.5251218356432514e-13
2.1753517199172396e-13
1.737535004146986e-13
-1.8354293938340234e-15
-1.4276855195882471e-15
-1.6510072302021561e-15
4.914122143624427e-15
2.6228110257838475e-14
3.981485613767722e-14
-3.55729307738717e-13
2.896863413432014e-13
-4.6528622074723834e-14
-5.2355838720782053e-14
-1.8460015824556497e-14
1.1734447662006243e-13
-6.792311130523065e-14
-1.3100166004192747e-13
-5.3336726622242065e-14
2.5226149796940037e-13
9.702754076441351e-13
6.281758091166648e-14
-7.74777775117515e-13
-2.583152134382887e-13
9.91702468284371e-15
-6.92056093573238e-15
-8.24917996547851e-15
5.252716218367186e-15
5.154645101509812e-13
-3.2840214005913775e-13
-2.6406002258352977e-13
7.699765249168706e-14
1.9089586072540038e-13
-1.9475502601268407e-13
-9.772492920052006e-14
1.0158409448780421e-13
-9.419592670883494e-14
-1.4908626738146332e-13
-8.123593947748451e-15
2.5140578803804643e-13
-1.7657501681122273e-13
-1.7905060035683637e-13
-1.6899920564739916e-13
5.246248228154582e-13
0.0
0.0
0.0
0.0
8.464619168408519e-14
-2.5015176196929937e-13
-3.4720448473083915e-14
2.0022601875829783e-13
-2.346468168776374e-15
-1.491191288343982e-14
-1.2921113219887682e-14
3.017949427210386e-14
-1.0702444924996985e-15
-5.267404821092314e-16
-9.250530082679776e-16
2.5220379828769073e-15
-2.59852451546698e-13
-3.261551788474022e-14
2.5661166583179368e-14
2.668068028482585e-13
-5.3685598735736065e-14
3.0994444457125984e-14
-4.5000500269792975e-14
6.769165454840293e-14
-9.097627083029074e-14
-1.702139997675365e-13
-6.558112287225328e-14
3.2677139347008047e-13
-1.3290322272510063e-13
-1.6921077000663294e-13
1.2172723381519842e-13
1.8038675891653555e-13
8.191958478728267e-14
-1.995364593132944e-13
1.8979173514530577e-13
-7.217486061929427e-14
-3.13794899422955e-13
6.665031538218383e-13
-1.8281133212761668e-13
-1.6989692227126798e-13
-1.6495586479598377e-13
-2.5004142094698476e-13
-1.4129014691934106e-13
5.56287432662311e-13
-1.152930311375375e-13
-4.314851517964751e-13
-2.064450367931055e-13
7.532232197271204e-13
-7.565783844992409e-15
-7.59339737713137e-15
-7.65448380452092e-15
2.2813665026644707e-14
-4.5223816960432444e-14
-1.1166801757043297e-13
-5.072760759267938e-14
2.0761944212354517e-13
0.0
0.0
0.0
0.0
-2.5604545361121504e-13
5.035248194292702e-14
-4.0117327510709305e-13
6.068662467753807e-13
0.0
0.0
0.0
0.0
2.513628610664197e-14
-4.512240380847562e-14
3.592163898933839e-14
-1.5935521287504807e-14
-4.426795311427493e-14
-4.2893201656701156e-14
-2.192862117632379e-14
1.0908977594729985e-13
-2.964001204266066e-15
-2.7822599066739585e-15
-2.938671344911888e-15
8.684932455851911e-15
-5.750594477876877e-14
-6.19521267492203e-13
-1.9516829910796803e-14
6.965440421817683e-13
-6.38900750347024e-14
-1.1143822427329988e-13
-3.611842368084078e-14
2.1144672298884292e-13
-9.383049441383915e-15
-3.130470647740406e-14
-3.1903030936636204e-14
7.259078685542416e-14
-3.916505731205039e-14
-9.254977156332786e-14
2.1558235191161988e-14
1.1015659368421604e-13
-5.35392361293527e-13
1.1072915309650988e-13
-4.011128426208943e-13
8.257760508179141e-13
-6.309202033972129e-13
1.5471604586769614e-12
-1.1742230018034057e-12
2.579827465236568e-13
-1.8086353029307112e-14
-9.793389118660912e-14
-3.7583328370032016e-14
1.536035725859485e-13
-2.318824037704626e-13
3.9850598212810315e-13
-4.015452899734914e-13
2.3492171161584985e-13
-2.3523590671109538e-14
4.565629434136943e-14
-2.096036485001251e-14
-1.1723388202473543e-15
-1.317450572183312e-13
-7.516382537299764e-14
-6.533781651417757e-14
2.7224669910550644e-13
0.0
0.0
0.0
0.0
-6.860990920058631e-14
-8.412799027570025e-14
-6.696690529252516e-14
2.1970480476881183e-13
-1.042404450864414e-13
4.2213033568183694e-14
-1.2162498455555243e-13
1.8365239607381017e-13
-2.5810838978374637e-14
-3.883569733093752e-14
-3.349290667668804e-14
9.813944298600036e-14
-2.0693627098203848e-13
-5.775697186268783e-14
-1.8183759267336833e-13
4.465308355180951e-13
-2.6020294191076e-15
3.780489407707321e-14
-3.154250882479863e-14
-3.660355833166985e-15
-1.0172100289352784e-13
1.0640181653288076e-13
-5.640822748042965e-14
5.172741384107693e-14
-4.3391608359642616e-16
-4.171881292919768e-16
-3.9395522729260913e-16
1.2450594401810123e-15
-4.4873459429748035e-13
9.514635843522091e-13
-8.451495280447423e-13
3.424205379900117e-13
1.1330877159612727e-12
-4.4440534507568796e-13
-3.9327610805517027e-13
-2.9540626283041454e-13
-4.0689306987676085e-13
-2.59292737934304e-13
1.6969745947305225e-13
4.964883483380142e-13
7.884159870648332e-15
-7.139234842055723e-13
3.468368286359522e-13
3.5920249569897046e-13
0.0
0.0
0.0
0.0
-1.641242156948811e-12
4.06462197743597e-12
-1.4612848441174523e-12
-9.620949763697237e-13
0.0
0.0
0.0
0.0
1.1222010682700182e-13
-4.6436700704344787e-14
1.9612887876687418e-13
-2.619122848895313e-13
-1.5695155412811022e-13
3.652516377620935e-13
1.429137242081805e-13
-3.512138078421639e-13
-1.5520346883997256e-14
-1.7939959675545676e-14
-2.064120980246513e-14
5.410151636200809e-14
-9.079894592323476e-14
7.291878778626277e-13
3.413636739452964e-13
-9.797526058846893e-13
-7.287502291210709e-13
1.463424854702716e-12
-3.9530239946479517e-13
-3.393722261168511e-13
3.265613146700413e-12
-3.028601551928336e-12
-3.8498392806261676e-12
3.6128276858540798e-12
-3.20589594972728e-12
-3.2844483881424395e-12
-4.831577291861351e-12
1.1321921629731098e-11
-9.485764370490412e-14
4.1885087048955654e-14
-6.33298581510455e-14
1.163024148069939e-13
-3.431902938419897e-13
-9.635698255223533e-13
1.9779039548932456e-13
1.1089697238750173e-12
3.897181820117452e-12
-2.025848823721595e-13
2.4675334136066833e-12
-6.1621303513519725e-12
-7.941194428828075e-13
1.4233031218031747e-12
-9.271655416921823e-13
2.979818627718155e-13
-4.440383474088124e-13
1.1727822974543814e-12
-3.889664351685916e-13
-3.397775148769749e-13
-3.482751669327818e-13
5.333468637592905e-13
-1.157062897605489e-13
-6.936540706595974e-14
-2.5834831900741487e-13
6.197549306363529e-13
-2.1873382767703016e-13
-1.4267278395190952e-13
-6.719525342498014e-13
2.1874020791495e-13
-3.588922635286567e-13
8.121045898635069e-13
-7.520589106349778e-14
-6.275444231014161e-13
2.239301075046199e-13
4.788202066602928e-13
-3.857652833661735e-13
1.8051983180886274e-13
2.563105163192109e-13
-5.106506476190043e-14
5.205154756405773e-12
-1.0947489030904687e-12
-1.768388821225463e-12
-2.3420170320898434e-12
-2.6367461906526033e-12
-1.2296667572432806e-12
4.023090170308071e-12
-1.5667722241220032e-13
2.5912150599310863e-12
-1.7508615281261718e-12
9.706842336499725e-13
-1.8110377654548946e-12
6.741325813010924e-13
-1.7468845479661904e-12
9.71804754488503e-14
9.755714912162443e-13
4.182621172888865e-13
-4.594923121027533e-13
9.096862932222806e-14
-4.9738434508362846e-14
-2.198379806022945e-12
-1.977735850588339e-12
-7.075939735206173e-13
4.883709630131899e-12
-1.592135529776548e-13
-1.6986407415766589e-13
1.5170645635976518e-13
1.7737117077555514e-13
-2.792034363134068e-13
-3.920098383438064e-13
-3.0950221377952886e-13
9.807154884367436e-13
-2.804173088137152e-13
-3.1208855257111297e-13
-1.5094536379777542e-13
7.434512251826036e-13
-1.2102128269816331e-13
-2.1125740856245683e-13
-7.576517666599082e-14
4.0804386792661007e-13
1.8898138465723304e-13
-1.9862170692332945e-13
-2.298435647163702e-14
3.2624678737733146e-14
-3.341377912910001e-14
-2.3916165449094844e-13
-4.127508568232272e-14
3.138505193023702e-13
-2.0249258014709696e-13
-1.7527792762942557e-13
-1.0866628100814767e-13
4.864367887846703e-13
-7.506905258774647e-13
3.2839875307056944e-13
-3.0343872703091156e-13
7.257304998378095e-13
-1.1668128726180442e-13
-1.3554624377123055e-13
8.659509491447151e-14
1.6563243611856396e-13
-1.5766000611885187e-13
2.785471612786065e-14
-1.3522086316879249e-13
2.650261531597834e-13
-3.068701186988013e-13
-3.104010458096524e-13
-1.7301185143285824e-13
7.902830159413127e-13
-6.523778315774216e-13
1.3087874909522499e-12
-5.851642881863214e-13
-7.124537118850569e-14
-7.922538559135019e-13
1.8525364758073226e-13
-7.138456904994892e-13
1.3208458988322611e-12
-3.8638653170590107e-13
9.739562271960046e-14
-2.948530118456401e-13
5.838439208319392e-13
2.1116939726582012e-13
4.022017265966617e-13
-7.190955813591199e-13
1.0572445749663814e-13
-2.2732539798071406e-13
-2.2594330262157076e-13
-3.722681823995641e-14
4.904955188422406e-13
-3.0298620688545276e-13
-2.6886729279172403e-13
-2.458422034288352e-14
5.964377200200593e-13
-7.213867416572485e-14
-1.2417144503033646e-13
1.2524703027347216e-13
7.106308892258928e-14
-5.538417542490427e-13
2.2332749225807719e-13
-3.688929732789769e-13
6.994072352699407e-13
-1.5552853219403596e-13
-1.8068619212969448e-13
-1.4863137609791743e-13
4.848461004216496e-13
-1.9266194572421801e-13
-1.5339618878223908e-13
-1.3369313581317133e-13
4.797512703196299e-13
-1.8426070604258995e-14
-6.389622913321355e-14
-1.1107521535823439e-13
1.933975150957069e-13
-5.849367436152258e-13
-4.2675131589663394e-13
-4.848103849151519e-13
1.4964984444270088e-12
-2.4014427621626713e-13
-2.2054777751609817e-13
-1.975489758810574e-13
6.582410296134245e-13
1.1581379042217428e-12
-1.4173412803368764e-12
-5.404161627231057e-13
7.996195388382368e-13
9.042746921899132e-14
-1.4532313656509744e-13
-8.541385851237326e-14
1.4030952585847937e-13
-5.972362794416262e-13
4.3923161154389903e-13
-5.730802214005578e-13
7.310848892982839e-13
-5.321113186124154e-13
1.90399887700162e-13
-4.958271846639431e-13
8.375386155761975e-13
2.6382915152630134e-16
2.2449522464522394e-12
-1.6479969390126553e-12
-5.972191365911216e-13
-1.956852955944438e-13
-2.249164978911918e-13
-1.5571200385102958e-13
5.763137973366654e-13
-2.838314213051278e-13
-1.4508288152343875e-13
-1.8866551455343326e-13
6.175798173819989e-13
-6.444698460331973e-15
-6.198020941985737e-14
-3.623835555844239e-14
1.0466326343863162e-13
-1.3449111932711633e-12
8.113731220883467e-13
-6.077833147486856e-13
1.1413213859315117e-12
-1.5948813429289709e-12
-3.0964599594612396e-12
-1.968393265679535e-12
6.659734568069743e-12
1.105487367014936e-07
-1.5886534333773434e-07
-1.2785607702131986e-07
1.7617268365756045e-07
8.389451897677315e-12
-7.637708666931881e-12
-2.5107173270188893e-11
2.435543003944338e-11
-1.0641004242017615e-11
1.0198809803504096e-12
1.6264910638239786e-11
-6.6437873765725814e-12
-7.071356933261171e-13
1.0508235829841058e-12
4.4485708443570995e-12
-4.792258734015089e-12
3.661871442658118e-11
-2.353526368020536e-11
-6.770870132569828e-11
5.4625250579322205e-11
4.368015198239619e-12
-4.970238910038342e-12
-5.5445703078327875e-12
6.146794019631545e-12
-3.1438506652791897e-12
2.2196044181403536e-12
2.07835922984202e-12
-1.1541129827031971e-12
-3.746380985453473e-14
3.5403775249447033e-14
-6.703742692819037e-15
8.763777297906758e-15
3.783286376086692e-15
-9.320262497401056e-14
-5.69886563255447e-14
1.4640799492346865e-13
-8.846020330495576e-13
-5.620900673408792e-13
-3.008641728304339e-13
1.7475562732208639e-12
-7.4573667755692e-15
6.7854129560403066e-15
-1.6726832764148847e-14
1.7398786583677727e-14
1.843647892990175e-13
-1.1223924483203264e-13
-2.0205398502849796e-14
-5.192014596413493e-14
-3.6457682660753906e-15
-3.3450220426796553e-15
2.2223299763007275e-15
4.76846033245432e-15
-1.8403558777247964e-13
-3.6359852974524234e-13
-4.460542539949267e-13
9.936883715126482e-13
-7.232178630998005e-15
6.868333785234772e-15
-5.445263294337801e-14
5.481647778914127e-14
2.7959961115427504e-15
-9.109325483463372e-15
3.103210832035172e-16
6.003008288717105e-15
-5.1488929555149565e-12
6.467947541584688e-13
1.644290337416196e-13
4.337669167614876e-12
-7.356586826178557e-13
-5.780317984747654e-13
-1.572147466571708e-12
2.8858379476643236e-12
-2.467458002157638e-14
-2.7923118346880567e-14
-2.2725210605193275e-14
7.532290897365025e-14
-9.993017869649154e-14
6.24852077639892e-14
-1.1857045147261191e-13
1.560154224051143e-13
-5.719845733481359e-14
2.4246177154857543e-14
-7.844728739001996e-14
1.1139956756997585e-13
3.263563271960071e-13
-3.6961819438373603e-13
-3.1261801514079445e-13
3.5587988232852495e-13
9.978005744667114e-13
-3.314924878361001e-13
-4.802045495299638e-13
-1.8610353710064757e-13
2.4332940595709022e-14
-3.0051258918301976e-14
1.1746635304777639e-14
-6.0283169821847004e-15
8.413729753223471e-15
-1.3465668428309795e-14
-2.0455673931905086e-14
2.5507612606991432e-14
5.763728128294142e-14
-8.334296536164007e-14
-7.123989149201124e-15
3.2829673227899826e-14
1.2031962898328897e-13
-2.0162645655837897e-13
-1.1080897193958117e-13
1.9211579951467166e-13
3.170881242514481e-13
-6.835552190184311e-13
-2.50813182172014e-12
2.874598916487118e-12
1.5992370179593855e-15
-1.6661269840681406e-14
7.346003881070262e-15
7.716028941651757e-15
1.7134431188487827e-14
-8.239131693212344e-14
3.257407486813768e-14
3.2682810875497994e-14
1.5330947344267535e-14
-5.0545583494862755e-14
-3.275695447755069e-14
6.797159062814597e-14
6.011925202251935e-13
-2.578938784483223e-13
-1.415539369708948e-13
-2.0174470480597491e-13
-3.938654195354679e-14
-1.9939503210892105e-14
1.1293446888563946e-14
4.803259827587504e-14
-4.479669260308055e-14
1.1395472224799016e-13
-4.419568697362124e-14
-2.4962342671288315e-14
5.412386207718702e-15
4.649481728923452e-14
-3.2180670199431926e-14
-1.9726533297521274e-14
-8.141684093641141e-16
-8.857338523423074e-16
-7.975498967994814e-16
2.4974521585059034e-15
3.370295457501296e-15
-6.0243516830139116e-15
-5.723556487406818e-15
8.377612712919433e-15
1.3246224114767019e-14
-4.468277898317742e-14
7.502874881876715e-15
2.3933679986533695e-14
-1.9644928382272706e-15
-8.083040506536273e-16
9.291344420078817e-16
1.843662446873015e-15
-2.3605469084829824e-13
3.882227542789759e-14
-1.9456395723120733e-13
3.917963726516091e-13
-1.8238835391672836e-14
3.0587797636671093e-14
-4.562768028124698e-15
-7.786194216873537e-15
6.520332744643844e-14
-5.351380581366444e-14
-7.404923796474587e-15
-4.2845978362993926e-15
1.5736134829682608e-14
-8.146068416383662e-14
6.321184225467052e-15
5.940336510868697e-14
2.649453649750947e-15
-2.160068137557497e-15
6.558551642619361e-16
-1.1452406764553864e-15
2.6512461953041686e-13
-1.737932991382705e-13
1.7058363050619084e-15
-9.303715669720775e-14
-7.158609010714473e-14
-3.451128002629844e-13
-1.0456174840064333e-13
5.212606387707737e-13
-1.1296430452990942e-15
-1.1744707999573597e-15
1.6673771318903253e-15
6.367367133661286e-16
-3.250708238758556e-13
-2.563041067709058e-13
2.616758688259596e-13
3.1969906182080243e-13
1.1732826898820863e-13
-1.723872879841172e-14
2.5441339411708253e-15
-1.0263367413096777e-13
1.0788762258192248e-13
-2.1518865555478898e-14
-1.0225917573984086e-13
1.5890418713397303e-14
1.7528179549409424e-14
-1.8873455350727406e-14
-1.8976521150770153e-15
3.2429279163950193e-15
-6.4133674935472684e-15
-2.2739839338461e-14
3.5393220671920982e-15
2.5613884764816165e-14
2.804075836512385e-14
-1.515997637763872e-13
-2.1706756883708217e-14
1.4526576229497144e-13
-1.7809948582593273e-13
-1.2678170961830383e-13
-2.942280262288705e-13
5.991092216731074e-13
1.7926901982546956e-14
-4.2140879289339435e-14
-1.1651558251776237e-14
3.586553555856876e-14
5.961328270108062e-13
-5.811764814260789e-13
-3.3967100760509015e-13
3.2471466202035965e-13
3.6060039184276034e-13
-4.1170428906916223e-13
-1.7495588977666466e-13
2.260597870030661e-13
-1.7407019645135347e-14
-7.427059552432892e-14
3.081361975900441e-14
6.086399541045984e-14
1.3015033545910038e-14
-2.4125346174895384e-14
1.0394148090713299e-14
7.161645382720546e-16
-1.0866250107173727e-13
2.3711705159840473e-14
-7.859959691590267e-14
1.6355039282779923e-13
-4.918077834386963e-15
-7.825775037999556e-14
6.825814386816843e-14
1.4917684346214256e-14
7.344454953111985e-14
-2.0783016397938025e-14
-6.174996842629262e-14
9.088435293110614e-15
-1.0807791226793344e-14
5.49799412201509e-14
-1.3224152004707844e-13
8.806937005372102e-14
3.8057914696586975e-14
-4.087998754623763e-14
-6.260085865738115e-15
9.082158715388739e-15
1.3270997959870124e-15
-1.7843400315341404e-14
-2.0731221344627223e-15
1.8589422653817122e-14
-4.0799792748407506e-14
-3.1947875606494354e-14
-3.3527092231694806e-14
1.062747605865965e-13
-2.8075137755249073e-16
-2.1999839790133724e-14
-5.1092537600039136e-15
2.738984492769013e-14
7.05438084170025e-14
-6.53920958758314e-14
-4.3038857637829127e-14
3.788714509665801e-14
-9.019577439374076e-15
-1.5110657484508034e-14
2.131951160668991e-14
2.8107233171921942e-15
-1.4041639657385978e-14
5.703721502550354e-14
-4.135620397803476e-14
-1.639371390082733e-15
-4.2466648946630365e-16
-3.27437637496517e-16
-4.3735633975622333e-16
1.189460466719044e-15
-1.5748322880243488e-14
2.931196033926975e-14
-7.634327705155632e-15
-5.929309753870642e-15
8.754539682015747e-15
1.2364025717253368e-14
-9.79219060092911e-15
-1.132637479834001e-14
7.827254653935486e-16
-2.946386538201914e-14
-3.658677347483364e-15
3.233981726410897e-14
-5.130839702699743e-15
-1.8657176906279194e-14
1.0511068080842416e-14
1.3276948528136529e-14
-5.109637272012227e-15
-6.9520576398591e-14
4.14870010438724e-14
3.314321262673084e-14
6.392610122897591e-15
-2.5094679156337584e-14
1.6582522051474295e-14
2.1195469819656813e-15
1.4940203611164097e-14
-3.2731187764441316e-14
7.667883273577635e-15
1.0123100879699568e-14
-1.9905000902826704e-15
7.193659907072502e-14
-7.59026246145652e-14
5.9565256341226665e-15
-2.5287008657796895e-14
8.41281705847549e-15
1.0685613881207054e-14
6.1885777181143255e-15
-1.8366977391390533e-14
4.499590968370424e-14
-2.245010228538123e-14
-4.17883000693247e-15
1.7192666645708646e-14
2.1987605842426948e-14
-9.836780654179127e-15
-2.9343491833956486e-14
4.136462090064806e-14
-4.1435272175366705e-14
-5.0250822113240185e-14
5.032147338795883e-14
-2.328203975027789e-13
-5.960531730892001e-14
2.373426647961103e-13
5.508305001558905e-14
-4.3644022000962075e-14
-1.926410776138626e-13
-2.773187595912407e-15
2.390582872107369e-13
-1.0065238588506114e-13
1.5955830160346683e-13
-9.965496234378037e-14
4.0749046625374895e-14
3.0556177545334083e-14
-8.397524552805968e-14
-1.0966529087178642e-13
1.630843588545122e-13
1.9132764086855136e-14
-1.497039509530687e-13
-1.4090636162755563e-13
2.7147754849376875e-13
8.935107943029281e-15
-5.976469804836597e-14
1.5764789404290747e-14
3.506480070104593e-14
-1.2942420383735953e-14
1.0425242162604563e-14
-1.1244401126721014e-14
1.3761579347852426e-14
1.571600650811547e-14
-8.541535095097562e-14
7.955682339517695e-15
6.17436621033425e-14
-2.2173378084817058e-13
-2.02816830938323e-13
1.2964265109724365e-13
2.9490796068925053e-13
-1.0803014178828728e-14
-6.819503397619893e-14
3.175567257717384e-14
4.724237557785388e-14
-1.2434570127108818e-13
-1.9978680178379063e-13
1.7711313030332496e-13
1.4701937275155445e-13
9.506839166578898e-14
-1.5353895586788012e-13
3.375877899571542e-14
2.4711785206375984e-14
-7.004544798831382e-14
-1.2939722523511246e-13
-8.337499210021338e-14
2.8281766532363935e-13
3.441167580223144e-14
-7.26099679629527e-14
4.749836048570972e-15
3.344845611215034e-14
-3.469020334616652e-14
9.166200402465491e-14
-3.033862165490111e-14
-2.6633179023587308e-14
-2.5167933728933416e-14
9.520854377443306e-16
-3.3017289338100947e-15
2.7517577224999198e-14
1.013666939927584e-15
-6.876294264366562e-14
-2.2551776584786623e-14
9.03010522885246e-14
1.3094737094248294e-15
-4.28678258791757e-15
2.317271519665519e-15
6.600373588272223e-16
-1.3706716522556885e-15
-6.576620861900763e-15
4.847748306686877e-15
3.0995442074695735e-15
5.087463784835437e-15
-3.3648600502169055e-14
2.3766433610492037e-14
4.7947031068415735e-15
-7.606289834832299e-16
-1.9897673706966452e-16
1.6787703078288083e-15
-7.191645872759141e-16
0.0
0.0
0.0
0.0
-9.867333149442031e-15
1.6020919760816076e-14
-2.083653254735803e-15
-4.069933356638243e-15
5.2784833167731623e-14
-5.093592606075928e-14
1.3818840850507736e-14
-1.566774795748005e-14
0.0
0.0
0.0
0.0
6.035422961615927e-13
-3.597614041005937e-13
-2.18913774889832e-13
-2.486711717116673e-14
-4.174855853451806e-14
1.0029086196908615e-13
-3.005566573212811e-14
-2.848663770243997e-14
2.0231421750921643e-14
-1.767325917230351e-14
-6.168566460961737e-15
3.610403882343611e-15
-8.055862069051954e-14
-7.7414975185709e-14
3.261016987217495e-13
-1.6812810284552075e-13
-1.95565110496729e-15
-1.6462202481997369e-15
3.5987414450520975e-15
3.129908114929604e-18
1.2727083117303428e-13
-1.6985888956191293e-13
1.1375486110678417e-14
3.121257227819979e-14
-2.878380323081187e-15
-6.3540021399772255e-15
-2.12191974346855e-15
1.135430220652696e-14
-1.865120056266257e-14
-4.69753498464664e-14
3.097449133172637e-14
3.4652059077402613e-14
3.57642645049422e-15
-1.6303619247250275e-15
-1.1675347147909444e-15
-7.785298109782478e-16
2.9635155169212976e-14
1.881133218825977e-14
-3.2546151512053706e-14
-1.5900335845419014e-14
-1.726401110088894e-14
-2.0317733477033045e-15
4.802892967249103e-14
-2.873314522389882e-14
-4.696311568268825e-16
-2.5787643399777974e-16
-5.407778224257877e-16
1.2682854132504499e-15
6.627996845056566e-15
-2.0496728122650756e-15
-2.51374386415351e-15
-2.0645801686379816e-15
5.4948959438541095e-15
-2.4920260349124667e-15
-1.4754877112938442e-15
-1.5273821976477992e-15
4.684286160503559e-15
-3.4341975777449355e-15
-4.223411168778267e-15
2.973322586019644e-15
4.996353589321309e-15
-1.07890819519778e-14
-5.3356289997759545e-15
1.1128357362432454e-14
-1.048915237298929e-14
3.873973197853233e-14
-1.596347031156209e-14
-1.228710929398098e-14
0.0
0.0
0.0
0.0
1.6621372493454254e-15
-7.688039198716684e-15
7.066706959333873e-15
-1.0408050099626158e-15
0.0
0.0
0.0
0.0
1.6434700210168034e-14
-1.0232317563997206e-14
-5.762680787701273e-15
-4.3970185846955836e-16
-3.9903377124402887e-16
-4.599692392066149e-16
-3.8155004969772955e-16
1.2405530601483732e-15
1.049158500646974e-15
-3.6897525178448975e-15
1.78644757158764e-15
8.541464456102851e-16
0.0
0.0
0.0
0.0
1.2566892161774787e-14
-9.056817716045278e-15
-2.924603268714794e-17
-3.4808284130423593e-15
-1.2785604163507124e-14
2.96392253446155e-14
-1.6587778426965116e-14
-2.6584275414326707e-16
-5.99862954645516e-14
-9.504096880324028e-14
2.0910347273998242e-14
1.3411691699379315e-13
0.0
0.0
0.0
0.0
-4.907695563664545e-15
-8.407776361673783e-15
1.003031533374425e-14
3.285156591594078e-15
-1.5147950803761052e-15
-7.603455062634511e-15
4.655227170274817e-15
4.463022972735801e-15
1.442199581408458e-14
-8.798723143586529e-14
-8.190524030405158e-14
1.554704759258323e-13
0.0
0.0
0.0
0.0
0.0
0.0
0.0
0.0
2.5539916707938165e-15
-2.265116522002123e-15
1.0204631807286044e-15
-1.3093383295202974e-15
-1.639801778865156e-14
4.952116955224626e-14
-1.670550339510445e-14
-1.6417648368490265e-14
0.0
0.0
0.0
0.0
-5.264375392038993e-16
-2.931268847139208e-16
-4.0909836903172134e-16
1.228662792949541e-15
-2.725024436866404e-15
-1.0896828849230166e-14
5.5725694944219636e-15
8.049283791674607e-15
9.167494125879103e-15
-1.834846394113816e-14
8.844389593688575e-15
3.365802215704801e-16
4.062007939748312e-14
6.859839728718508e-14
-1.586336243889306e-13
4.941514770426271e-14
5.180343831279233e-13
-2.322946786207264e-13
-6.880271611107529e-14
-2.169369883961212e-13
-5.6458773177009854e-14
-1.9316371588900598e-14
-7.890812684437385e-14
1.5468327161028388e-13
-1.7079229971188526e-14
-7.039849095848197e-14
2.841870897048284e-14
5.905901195918769e-14
-1.8257605649255235e-13
3.3913728342489835e-13
-1.6014650876158798e-13
3.5852818292430495e-15
-1.0119472981953957e-14
-3.216283572661561e-14
1.4470944116793833e-14
2.7811364591775738e-14
8.53093586050391e-15
-5.136558063336805e-15
-5.79847068776566e-15
2.4040928905985556e-15
1.0253560051645201e-14
-2.2995067206561746e-14
-7.094416963081258e-15
1.983592411799778e-14
-4.4108631949923066e-16
-3.280560018896914e-16
-4.221172829619778e-16
1.1912596043508996e-15
-2.8718984182927846e-15
-2.5592177499162042e-15
-4.3759534561863518e-16
5.868711513827624e-15
-2.0772545743365958e-14
-2.350463691391343e-14
2.5373640115911387e-15
4.173981864568827e-14
1.7991043722528008e-14
-3.578252182136048e-14
2.178917267921173e-14
-3.997694580379296e-15
-1.102208650771112e-15
-5.170621975674137e-16
-8.858212585247006e-16
2.5050921068632266e-15
0.0
0.0
0.0
0.0
1.3803527560949244e-14
-2.629275442104972e-14
1.1963559804393098e-14
5.256670557073926e-16
1.627370895526299e-14
-3.44664594770074e-14
1.4732118636424334e-14
3.4606318853200666e-15
1.1608680597116057e-14
2.15661697551416e-14
-1.6438118307702178e-14
-1.6736732044555484e-14
5.537756776667434e-15
-2.750098247032615e-14
1.4142283852671464e-14
7.820941840987245e-15
-9.569341808924452e-15
-3.227632367224142e-14
1.1935120868516109e-14
2.9910544612649724e-14
-2.0953191488041498e-14
4.135194581188738e-14
-1.0995886711334928e-15
-1.9299165652712382e-14
-3.7367182518305835e-14
9.044481138519318e-14
-3.076097481054429e-14
-2.2316654056342998e-14
2.006740581737967e-15
-9.309718623810118e-15
4.517956878237363e-15
2.7850211638347884e-15
0.0
0.0
0.0
0.0
5.2410071981083886e-14
-7.580335051238355e-14
1.800924126938349e-14
5.3840372619161995e-15
7.447521979023477e-15
-3.757901783888961e-14
-2.106720365202608e-15
3.223821622506874e-14
-3.240078452711151e-15
-1.4897900241657265e-14
2.9669369054218885e-14
-1.153139035985047e-14
-1.974843651913078e-13
-5.180442011506466e-13
-6.694859133570741e-13
1.3850144796990258e-12
3.968589941112001e-15
-1.183900398820378e-14
7.700073686934628e-15
1.7034036015714965e-16
8.21868771826909e-15
-5.0854448020215444e-15
-2.005300627266303e-15
-1.1279422889812452e-15
1.6053695115807701e-15
-1.6522316075568863e-15
3.6951308506466046e-16
-3.2265098908854404e-16
0.0
0.0
0.0
0.0
-9.741440149868976e-15
1.2250497845314745e-14
-4.1472904770165554e-16
-2.094328647744117e-15
-8.502311728697608e-15
1.6768845618019833e-14
-1.0811766447810464e-14
2.5452325584882436e-15
3.8669983498296244e-15
-1.0704130288911958e-14
-5.777738673518774e-15
1.2614870612601101e-14
2.562464695718223e-14
-1.8649238212683264e-14
-3.066869637391564e-15
-3.9085391071074076e-15
0.0
0.0
0.0
0.0
-2.3974582339321355e-14
-4.865285390763809e-13
-4.4400142249281086e-13
9.545045439085115e-13
3.9417119377989656e-14
-2.9806005847611713e-14
-9.928633863916025e-15
3.1752033353809463e-16
-8.044067979584465e-14
1.0109685938752647e-13
-6.227008625412554e-14
4.1613906662443556e-14
7.134039661757598e-15
-2.8573821135571627e-14
-4.001412118630704e-14
6.145390266012107e-14
-6.381620867416433e-14
-2.4794558344351865e-14
-3.0718750781258405e-14
1.1932951779977474e-13
1.452383704411491e-14
-1.200464303590549e-13
-1.3215967309941522e-13
2.3768226641435527e-13
-4.000570447379636e-13
-1.2612862730581575e-14
-3.022452519448519e-13
7.149151594133956e-13
-7.279295921960757e-15
-3.782300871890025e-15
2.3751456902150766e-14
-1.2689860108299983e-14
-1.6688291584249615e-13
1.0218861613586722e-13
-3.6930823829457194e-15
6.838738208957491e-14
1.0826848785891454e-14
-2.1947086139187512e-14
-4.246051909810219e-15
1.5366289263106283e-14
-4.132396581202297e-14
1.345751238471372e-13
-8.233687527739648e-14
-1.0914282757717732e-14
-6.139107761289365e-14
1.3705998273246302e-13
-3.0455470180825706e-14
-4.521343493874362e-14
2.0808637730911045e-14
-4.7845475847187987e-14
2.1408762031626023e-14
5.628076084650937e-15
1.1020556292198842e-14
2.313469301013028e-14
-4.290628298676506e-15
-2.986462100365262e-14
1.140901867711392e-14
-1.4844251945413016e-14
4.198221128405507e-15
-7.629878601064027e-16
0.0
0.0
0.0
0.0
-1.295996034597519e-14
3.636292239482658e-14
-7.172414741107485e-15
-1.623054730774391e-14
2.4613600871751287e-15
-3.591467022141299e-16
-1.807588226785977e-14
1.5973668882898767e-14
-1.6463330220485926e-15
-4.421480151492757e-15
2.711386762042921e-15
3.3564264114984305e-15
-8.073614115506306e-15
5.3237026061763967e-14
-1.7524544311450395e-14
-2.7638867634807296e-14
-6.42707962294514e-15
6.144128160943711e-14
-6.259648931334395e-14
7.582287326851922e-15
-1.2316628062038322e-15
-1.2985994808247274e-14
6.597399176835225e-15
7.620258437615886e-15
5.320481838983445e-14
7.566467791309056e-14
-8.449034074833975e-14
-4.437915555458515e-14
1.2920452037353238e-14
-1.1724833162321399e-14
-6.35822493932504e-15
5.162606064293201e-15
-1.2521513190303922e-14
2.951695533877557e-14
-1.2921471013161562e-14
-4.0739711353100705e-15
1.4918771774671554e-15
-6.182746039692371e-15
4.063759046920933e-15
6.271098153042798e-16
-1.5244217305228843e-14
1.9913478811969515e-14
-1.8411199802070005e-14
1.3741938295329326e-14
3.4473330802477423e-15
-7.416254327723006e-15
3.3908757545528712e-15
5.780454929223917e-16
0.0
0.0
0.0
0.0
3.663574442144968e-14
-5.4686532865058505e-14
-3.3056847462429182e-15
2.1356473189851804e-14
3.9790031038584803e-14
-2.793177838784741e-14
-1.0466643808707104e-14
-1.3916088420303003e-15
-2.358507622354579e-14
5.0720465419134694e-14
-1.335122105037255e-14
-1.3784168145216357e-14
2.079255175842556e-14
-3.0627826024009e-16
-1.2229435114183642e-13
1.0180807764365106e-13
-1.2135652749779973e-13
1.6980574755051535e-13
-1.3041701137218852e-13
8.196779131947267e-14
-8.804257955035036e-14
-4.4962888855774494e-14
-1.5616896624395994e-13
2.891744346500844e-13
5.6795460024636705e-14
-8.828775499096476e-14
1.7680864214678662e-14
1.3811430751649293e-14
3.3806816285701453e-14
-6.167321257509954e-14
-1.544327836670309e-13
1.8229917995642866e-13
-4.653073427825226e-16
-3.51783762857164e-16
-4.2675151827139193e-16
1.2438426239110783e-15
-1.9526033076630974e-15
-5.646507948189227e-15
-6.342623390021163e-15
1.3941734645873488e-14
-4.613801579255272e-15
-3.874990356686801e-15
1.2002219519872176e-15
7.288569983954855e-15
4.613836316277737e-15
-6.7905524868255324e-15
4.687013374696126e-16
1.7080148330781834e-15
-7.0331009481760255e-15
2.892002244722113e-14
-1.436947818603341e-14
-7.517443313011709e-15
-2.7076748068334595e-15
-2.55879008845899e-14
-1.0627211069180082e-14
3.8922786760603444e-14
2.6414711368218215e-15
-1.932977558720109e-15
9.02632952518733e-16
-1.6111265306204459e-15
-2.7762620555742188e-14
9.417234574072924e-14
-4.006032388162537e-14
-2.6349401303361753e-14
-1.2562734399555143e-15
-1.1813692875319383e-15
1.803204200245876e-15
6.344385272415762e-16
2.6274132165384074e-15
-2.0972991021113485e-15
-2.1893806336194693e-15
1.6592665191924094e-15
0.0
0.0
0.0
0.0
-1.2407063503751971e-15
-2.510795303180792e-15
1.6203262392002614e-15
2.131175414355728e-15
-6.379962694658817e-16
-1.5568421112862365e-16
-4.91538563027061e-16
1.2852190436215663e-15
-1.2393575330957601e-15
-9.444542846991251e-16
1.5045747561655123e-15
6.792370616293733e-16
0.0
0.0
0.0
0.0
2.405616381493177e-15
-2.6613569835234335e-15
-2.7563438867951514e-15
3.012084488825408e-15
0.0
0.0
0.0
0.0
-2.0956827040740557e-15
-1.1832104130116839e-15
3.2753212393906333e-15
3.571877695106388e-18
0.0
0.0
0.0
0.0
0.0
0.0
0.0
0.0
0.0
0.0
0.0
0.0
-8.366625560487598e-16
-3.8288827932822125e-16
1.9975077311997628e-15
-7.77956895822782e-16
0.0
0.0
0.0
0.0
3.728288835269034e-15
-2.164428510602486e-15
-9.337890487174602e-16
-6.300712759490876e-16
7.038273928892212e-15
-3.2477273277284692e-15
-1.9089570851270523e-15
-1.8815895160366902e-15
0.0
0.0
0.0
0.0
0.0
0.0
0.0
0.0
0.0
0.0
0.0
0.0
-3.424357769885552e-16
-4.999027154534121e-16
-4.710331278698583e-16
1.3133716203118259e-15
-3.459965285816746e-16
-5.232191720161832e-16
-3.8281136311405357e-16
1.2520270637119113e-15
-4.0548884657203114e-15
-2.406007603184511e-15
1.5333327676594358e-15
4.927563301245386e-15
-1.2237337739789607e-15
-1.4054770186696648e-15
1.828527615487969e-15
8.006831771606568e-16
1.2928547143383462e-14
-7.495402542924601e-15
-4.873458512485364e-15
-5.596860879734948e-16
0.0
0.0
0.0
0.0
0.0
0.0
0.0
0.0
0.0
0.0
0.0
0.0
-8.575768748081646e-14
4.710090945578819e-14
9.297795940766878e-15
2.935898208426142e-14
-3.3365762250964226e-15
-1.876019435980309e-14
1.5649843561019837e-14
6.446927023879677e-15
-3.558246686593533e-14
9.294009847092683e-14
-3.5722584606641306e-14
-2.1635046998350137e-14
-1.1332121617689014e-15
-1.9837176001940965e-14
9.39134047347608e-15
1.1579047690233799e-14
-3.715625525998604e-15
-2.742938842826316e-15
7.700746744011177e-15
-1.2421823751862571e-15
-1.449631147369927e-15
-1.7288000300030915e-14
2.368228334401406e-14
-4.944651896613212e-15
-2.4608086723200045e-15
-1.2607009533737547e-14
1.0971324900349637e-14
4.0964933057079205e-15
-6.019427242858519e-16
-3.820526233736348e-14
1.7436241414737724e-14
2.1370963646911606e-14
-3.5607456226332457e-16
-6.659359578221736e-16
-3.3357872229513403e-16
1.355589242380632e-15
1.903595917029377e-15
-1.0133780963828509e-14
2.6504215098915576e-15
5.57976353690757e-15
7.620987028484216e-13
8.096374299571343e-13
-7.295123134787991e-13
-8.422238193267572e-13
3.420018937276619e-14
-2.451515493659441e-13
6.816855348814505e-14
1.4278280650503353e-13
1.2053697026687345e-13
-1.4690948571219472e-13
-1.0145616996363258e-14
3.651813244168485e-14
3.414523111232997e-14
-4.858670148003583e-14
3.462647295807496e-14
-2.018500259036912e-14
-2.0877088699083847e-14
3.088372996128407e-14
-1.3026577228564677e-14
3.0199359663644405e-15
-4.42050451369388e-15
-3.3682583257882885e-15
1.4134297537767795e-15
6.375333085705388e-15
9.416116189395926e-15
-2.060107445795617e-14
1.4377070222075728e-14
-3.1921119535155146e-15
9.437070725124342e-15
-1.752872747672252e-14
7.701250659277476e-15
3.9040609232070225e-16
-1.8926151375590207e-14
2.661842617263035e-14
-3.470219105043619e-15
-4.2220556919964995e-15
-6.914744653363067e-15
-5.4174641087487636e-15
1.4636739201980247e-15
1.0868534841913813e-14
-1.1766643326850394e-15
-1.258646095496826e-15
-1.3009518017133272e-15
3.7362622298951936e-15
-2.6674912253195296e-14
3.489481989294602e-14
-4.357291039953621e-14
3.5353002759785535e-14
-1.0600082545328959e-14
-2.8149055877008742e-14
2.0175276766924192e-14
1.8573861655413505e-14
1.1327141076897755e-14
-2.19190499817906e-14
1.3309442892151085e-14
-2.7175339872582412e-15
6.3920878706308e-13
-4.559249105827292e-13
-4.523609635391635e-13
2.6907708705881267e-13
1.236870017482199e-13
-1.4444436331757325e-13
-1.9228884418902207e-13
2.1304620575837514e-13
1.8524320185553213e-14
-1.2047931455608714e-14
-2.8186803741102905e-15
-3.657708355834214e-15
-1.8827893340589782e-14
-4.00498769139789e-14
-6.723583768238937e-15
6.56013540228076e-14
8.593383711554431e-14
3.590583519141552e-14
-8.28504837501403e-14
-3.8989188556819585e-14
1.6280732578079293e-14
-7.298614096554699e-15
-5.9200153817900236e-15
-3.0621030997345748e-15
0.0
0.0
0.0
0.0
0.0
0.0
0.0
0.0
-2.3396608176620528e-14
8.57619676354068e-14
-3.381258863279756e-14
-2.8552770825988734e-14
-2.735428983399024e-15
-1.6725754392431472e-15
3.760120056321956e-16
4.031992417009974e-15
0.0
0.0
0.0
0.0
-2.3480480847308866e-14
1.4313710621641508e-14
-1.6469587425715307e-14
2.5636357651382677e-14
3.3134997528940346e-14
-1.0488829353962678e-13
3.2794624566092114e-15
6.847383355407729e-14
-3.305644874948188e-16
-1.1979159816227588e-14
5.912444471911398e-15
6.3972798318110074e-15
0.0
0.0
0.0
0.0
0.0
0.0
0.0
0.0
-2.0752698391566096e-13
-8.55567183559703e-14
-4.145098061506752e-13
7.07593508422308e-13
3.272022601044771e-14
-3.601260333820839e-14
-2.908288510193387e-15
6.2006658379540685e-15
-4.040213480421788e-16
-1.3808594456551849e-15
2.346099023481822e-15
-5.612182297844582e-16
1.580130505068412e-14
-2.951812969982055e-14
-1.1418464434911095e-14
2.5135289084047513e-14
1.1869378576388565e-14
-2.09429050345984e-14
4.902919303639319e-15
4.170607154570516e-15
-1.7363845196214506e-13
-3.2155097223287263e-13
-1.3950068852241698e-13
6.346901127174343e-13
2.846144511657457e-15
-1.2975440259066552e-15
-1.929025912748233e-15
3.804254269974308e-16
-2.258834373837684e-14
-4.9034423347648634e-14
-1.8774782774875022e-14
9.039754986090043e-14
-3.793695324008617e-14
5.4968679610489694e-14
-1.9996633020933677e-14
2.9649066505301426e-15
1.5439714295517446e-15
-4.509116421650244e-15
-4.616388630420744e-16
3.426783855140575e-15
-8.146708830085518e-15
-2.2203798710747943e-14
1.2404521386366823e-14
1.7945986154466625e-14
0.0
0.0
0.0
0.0
-1.774094317198564e-14
4.381612866975603e-14
-1.2889002618080274e-14
-1.3186182879690103e-14
0.0
0.0
0.0
0.0
0.0
0.0
0.0
0.0
-6.364038727040686e-15
-5.155687011141168e-15
6.9572170842869364e-15
4.562508653894919e-15
-4.069839531381524e-14
6.326883495580729e-14
-5.325513795594963e-14
3.0684698313957586e-14
8.366662815847841e-15
-2.2391184542013202e-14
-2.463197208453073e-16
1.427084144701067e-14
1.9665428749268266e-14
3.205107089707264e-14
-1.2976567069799225e-14
-3.873993257654164e-14
5.510692785073197e-15
-3.964863227396476e-14
2.219893676958979e-14
1.19390027193018e-14
5.624898562244034e-14
-5.690594955114089e-14
-1.70371898393818e-14
1.7694153768082326e-14
-5.683199102890064e-16
-4.10709966036116e-16
-3.3605174686485105e-16
1.3150816231899734e-15
1.8881189499883815e-14
-2.0534421691554238e-14
3.352392354907014e-15
-1.6991601632365848e-15
-6.223841512450576e-15
-2.993535401883302e-14
1.5450306846105359e-15
3.4614164846673036e-14
1.4331149214821054e-14
-2.7434979921367622e-14
1.1637198727009617e-14
1.4666319795369528e-15
4.894720658044642e-15
-3.4821609195183535e-15
-4.649962772693503e-15
3.2374030341672133e-15
-1.8287305930334626e-14
5.356967637025997e-14
-2.3328413397435166e-14
-1.1953957042490175e-14
2.6649626914150833e-14
5.86635892999721e-14
-4.8402904578085856e-14
-3.69103116360371e-14
3.974711626704e-15
-5.571334182472221e-15
8.045614541779182e-16
7.920611015903024e-16
0.0
0.0
0.0
0.0
0.0
0.0
0.0
0.0
7.295394041226862e-15
-4.543293695029941e-14
-1.4134361303025773e-14
5.2271904212098355e-14
1.4982820820171883e-14
-1.240850822010098e-14
-1.0137456947374057e-14
7.563144347303156e-15
-1.8468860065397167e-15
-1.3961809340917966e-15
1.4280530795686006e-15
1.815013861062912e-15
-1.3966868786022486e-14
-3.650574423088459e-14
2.431829560706663e-14
2.61543174098404e-14
-4.549844905683578e-16
-4.174871279685504e-15
-2.566751758747026e-15
7.196607529000889e-15
3.863515585799293e-15
-5.219812981134761e-15
2.6813095407624813e-16
1.0881664412592162e-15
2.8541722205343767e-15
-8.47457418418313e-15
7.006574646312268e-15
-1.386172682663516e-15
7.688121086137468e-18
-5.0513172705341155e-15
6.030067831967108e-15
-9.86438682519132e-16
2.068698391391201e-15
-3.1042963509707855e-15
-1.28302852866373e-16
1.1639008124459576e-15
1.676510546167955e-15
-1.2954972669169644e-14
5.183236386673271e-15
6.095225736328411e-15
-2.2617402963373743e-15
-6.8211443108647874e-15
-7.090611385611718e-16
9.79194574576333e-15
4.798975237082845e-15
-5.752231840143815e-15
-5.14557889886043e-15
6.098835501921401e-15
-1.0664829901669882e-15
-1.7988411084308966e-15
2.0447807841698595e-15
8.205433144280255e-16
1.011992355874801e-14
-3.835825411515369e-14
-5.32344411670613e-16
2.877067496807631e-14
1.62203563573759e-14
-7.598956779904074e-14
2.980696113540093e-14
2.996225030626388e-14
6.2584309154137726e-15
-1.149375921475589e-14
-3.7259455471357247e-16
5.607922854055693e-15
-3.339492724245033e-14
-1.6087429627917538e-13
-2.2819434271204635e-14
2.1708865779283035e-13
9.005470451428804e-15
-1.1982173353843936e-14
-5.1218248514329224e-15
8.098527753848052e-15
-1.7444657924359252e-14
-4.3500533896763884e-14
3.0939961021648154e-14
3.0005230799474956e-14
2.264968860042444e-15
-1.6161946628445287e-14
5.153229031191811e-15
8.74374873721104e-15
6.608676168181572e-15
-6.588587297814436e-15
-1.054152478595852e-15
1.0340636082287156e-15
-3.62117820397859e-15
-5.124543124374908e-15
5.10216669257272e-15
3.643554635780778e-15
-1.1916304482574243e-14
-2.4083798870978856e-14
1.2306298425880522e-14
2.369380492767258e-14
-2.8303604366333674e-13
3.3985066679609155e-13
-1.6943815740072446e-13
1.1262353426796948e-13
-1.8083089059668624e-15
-1.561486950354206e-14
4.842393938966786e-15
1.2580784470542139e-14
-1.8972952345493525e-15
-1.696362934797489e-14
-2.0151125951251524e-15
2.0876037177649392e-14
-3.113882516693999e-15
-2.638979068596351e-15
-3.117846464673452e-15
8.870708049963804e-15
-8.800918091899918e-16
-9.998170495515064e-16
-7.717252156052049e-16
2.6516340743467034e-15
-2.6812994362316546e-14
4.8271126330375835e-14
-1.8195753546416445e-14
-3.2623784216428575e-15
-2.2480528113950543e-14
5.870521458777082e-14
-2.3687571524384545e-14
-1.2537114949435721e-14
9.834943936530331e-15
-2.5690825510927663e-14
1.2258134223045526e-14
3.5977473513518215e-15
-1.069663353743653e-14
6.431049857454392e-14
-2.9575185185542907e-14
-2.403867985156463e-14
1.9983837157753312e-14
-9.884996555082534e-15
-6.217885899538759e-15
-3.880954703132018e-15
-1.513718126711849e-14
3.934040236417642e-14
-1.881953129865658e-14
-5.383689798401326e-15
3.6469312214613254e-15
-4.562167179125924e-14
1.3708416604485933e-15
4.0603898909349296e-14
-4.828362220506071e-15
-4.2223394344315595e-15
-1.5808969246187495e-15
1.0631598579556385e-14
1.4103946174428115e-14
-2.7891803941050985e-15
-7.670896801930571e-15
-3.643868978392455e-15
-2.7077270719052316e-17
-5.519755459860226e-15
1.2711566152592415e-15
4.2756761153200385e-15
0.0
0.0
0.0
0.0
-9.642047425225627e-16
-5.703086862652036e-15
7.422111499053059e-16
5.925080455269295e-15
-6.193948349032388e-14
1.578464487324304e-13
-9.418719060896582e-14
-1.71977463314095e-15
-2.578408387152692e-15
-1.5793759208485293e-15
8.62334746530728e-16
3.295449561470493e-15
1.2352274014402114e-15
-3.77925973094465e-15
3.032272353898507e-15
-4.882400243940689e-16
0.0
0.0
0.0
0.0
-2.7191058953819313e-14
3.664963980164945e-14
-6.472157651326505e-14
5.526299566543491e-14
-9.939080403617834e-15
-9.284392268367639e-15
4.3838276720117654e-15
1.4839644999973706e-14
-2.605260590715417e-16
-8.529450233375116e-14
5.1257145579496694e-15
8.042931383487304e-14
0.0
0.0
0.0
0.0
1.1460622279011444e-15
-3.5572861575632116e-15
-3.1409992889837137e-15
5.55222321864578e-15
-3.430242634290205e-14
-1.774371597571841e-14
-2.2535741744325966e-14
7.458188406294639e-14
2.6523981714247777e-15
-4.627509234632504e-15
-8.346932598410702e-16
2.809804323048799e-15
-3.315499375966864e-14
4.835693432819838e-15
2.990068923145782e-14
-1.5813889046090388e-15
-6.299176613562825e-14
6.999817568885874e-14
-6.202096932079576e-14
5.501455976756524e-14
-4.38442289404995e-14
1.0847687910755768e-13
-3.949531170383793e-14
-2.513733846322025e-14
-5.018564236458343e-16
-2.1866988494022757e-16
-4.975808244314594e-16
1.2181071330175213e-15
0.0
0.0
0.0
0.0
0.0
0.0
0.0
0.0
-3.758952347922317e-15
-5.633505229196788e-15
4.389649234265475e-15
5.002808342853632e-15
4.911930975021476e-15
-1.778474178130702e-14
1.322382796326183e-14
-3.510171569762809e-16
-4.43476990395548e-14
-2.191754296338331e-14
-1.1082770031255114e-15
6.737351900606371e-14
-4.6570461727271805e-14
7.78044283510351e-14
-6.2459820452389746e-15
-2.4987984578524366e-14
-3.6263691483393225e-14
4.34263292950315e-14
-9.697217723442603e-15
2.5345799118042786e-15
-1.6147507556785244e-15
-8.30782585793042e-15
-2.589309104959871e-15
1.2511885718568812e-14
-2.863469448246948e-15
-5.35912662332019e-15
5.098317120880963e-15
3.1242789506861762e-15
0.0
0.0
0.0
0.0
2.139189196564474e-16
-4.357792267509512e-15
3.990801821716176e-15
1.5307152613688756e-16
3.2089495029908785e-14
-2.933765218466749e-14
-2.0915120643089907e-14
1.816327779784865e-14
3.2496765718416366e-15
-3.936459135572657e-14
-2.916380717518181e-15
3.90312955014031e-14
-2.0553276342193336e-15
-6.438641013941938e-15
-5.216024215595188e-16
9.015571069720795e-15
2.776251044848058e-15
-2.8179919622379802e-14
7.981734524212793e-15
1.742193405331897e-14
2.4817399903390236e-15
-7.538397220507668e-15
4.3397436872771085e-15
7.169135428915345e-16
-6.827906856829848e-14
7.144678853528015e-14
-1.5235205712901688e-13
1.4918433716203473e-13
1.1934245528340654e-15
-3.516237119024825e-15
-1.1611210667583203e-15
3.4839336329490803e-15
2.1546474928087863e-14
-3.4234227031503854e-14
-2.2912055846068546e-15
1.497895768802285e-14
2.2233298823129436e-13
-8.554014739076001e-14
-8.631132075331424e-14
-5.048152008722011e-14
2.664277749203331e-14
-2.3123654657591597e-14
-1.787973250478923e-14
1.436060967034752e-14
6.075223866100908e-15
-2.3847645134226244e-14
9.176294231958125e-15
8.59612703616721e-15
-6.415248027874978e-15
2.3277747133520238e-14
-1.4435748988260804e-14
-2.4267501173844337e-15
0.0
0.0
0.0
0.0
-5.211565448832191e-14
6.657190662543595e-14
-3.620531304754559e-14
2.1749060910431506e-14
1.7573404859016928e-14
-2.735137060720064e-14
5.334247579293444e-15
4.443718168890273e-15
-2.680760357190266e-15
6.7115964639848365e-15
-1.1473864920336346e-14
7.443028813541784e-15
-1.9155756723467884e-14
5.49287777034998e-14
-2.771582911893919e-14
-8.057191861092717e-15
2.8527450406302517e-14
-3.357189952237385e-14
7.920801302007492e-15
-2.876352185936185e-15
1.1265798887904794e-13
3.6686722917168634e-13
-2.8486624023911083e-13
-1.946589778116239e-13
-4.5436749522712317e-14
1.5720582508863382e-13
-6.255024516134286e-14
-4.9218830404578694e-14
5.333368191718539e-14
-9.848847785025e-14
3.148218446168542e-14
1.367261147137918e-14
2.9454859167443943e-14
-6.43551008736409e-14
1.4944966569093814e-14
1.995527513710304e-14
3.4710227733874256e-15
-5.682059402124213e-15
3.3682523339071085e-16
1.8742113953460763e-15
-3.042336014803429e-15
-1.6947558486448765e-14
-2.520173767452438e-15
2.2510068268704617e-14
-2.977304088162115e-14
7.828289093488944e-14
-3.7801762473623295e-14
-1.070808757964497e-14
2.6175755352887008e-14
-2.2762469658766385e-14
-1.1708581401588212e-15
-2.2424275539618043e-15
-4.280787940415847e-15
-3.6938745228628775e-14
2.295124548119139e-14
1.826828768785329e-14
-1.5870268799658437e-14
3.245569058717813e-14
-1.232791072152724e-14
-4.25751106599246e-15
-2.905895705407319e-14
8.702325489274118e-14
-3.9267860612287386e-14
-1.8696437226380644e-14
-8.113278072945758e-14
1.3683957613564752e-13
-1.0237929099332898e-13
4.66724955871384e-14
-3.864339330500633e-15
-1.1296337148673855e-14
-4.333986280807045e-15
1.9494662759981532e-14
0.0
0.0
0.0
0.0
-3.1058947416851693e-12
2.1947423249355826e-12
2.0547577669440637e-12
-1.1436053501944898e-12
-6.602098682742011e-15
-1.1831162527634721e-14
8.673554967279727e-15
9.759706243097011e-15
2.7592642173856982e-15
-1.1890637275763643e-15
-1.8075355099147303e-15
2.3733502010539614e-16
1.6116482243588712e-15
-2.8497025402361543e-15
-2.759087435752927e-15
3.99714175163021e-15
-6.2949703269860604e-15
-9.996414937319047e-15
1.4721454405563088e-14
1.5699308587420176e-15
-1.3571341714487303e-14
-1.4350503705030447e-14
2.6312562265929447e-14
1.6092831535882887e-15
-7.116173937508103e-14
4.267765903101489e-14
3.546617991183265e-14
-6.98209956776663e-15
2.740859972866507e-15
-3.762051082822798e-15
9.69791617217757e-16
5.1399492738533776e-17
-3.60696236587069e-15
-2.2842178722071248e-14
2.5498926261639183e-14
9.502148263027802e-16
-1.4929925344162476e-15
-1.4225860556665976e-15
4.263517426849473e-15
-1.3479388367666277e-15
0.0
0.0
0.0
0.0
-3.734493242375176e-15
-9.341935957614969e-15
1.1845926903111301e-14
1.2305022968788414e-15
-2.7825080923312094e-14
3.42397219540915e-14
-7.537582454584656e-15
1.1229414238052317e-15
0.0
0.0
0.0
0.0
0.0
0.0
0.0
0.0
0.0
0.0
0.0
0.0
0.0
0.0
0.0
0.0
0.0
0.0
0.0
0.0
0.0
0.0
0.0
0.0
0.0
0.0
0.0
0.0
0.0
0.0
0.0
0.0
4.524232270547783e-15
-8.529635341923778e-15
5.754242323908277e-15
-1.7488392525322786e-15
-3.4692132127173506e-14
-2.0897652978534035e-14
9.006012424735554e-14
-3.447033914164822e-14
9.671343447492881e-15
1.847375556636129e-14
-2.554683253864529e-14
-2.5982664752088653e-15
-1.0767270917090179e-13
8.710214657385803e-14
3.359190496036097e-14
-1.3021342363317132e-14
-2.852138495081991e-15
-9.221685187586903e-14
7.578355439528727e-14
1.928543597566365e-14
3.0722120602695083e-15
-4.933482858550577e-16
-1.7103598500983073e-15
-8.68503924316143e-16
-5.452277070348701e-13
4.216270905430799e-13
1.750297006555995e-13
-5.1429084163809494e-14
-2.323385221385791e-14
9.150809992083014e-14
-2.754820630426875e-14
-4.0726041402703363e-14
7.159522426152268e-15
-7.950301066234407e-14
4.26071007721041e-14
2.9736387464087705e-14
-2.4203953810028794e-13
3.3377895388647193e-13
8.613389250437626e-14
-1.7787330829056066e-13
-4.2861358085631635e-14
2.246601141955657e-13
-1.6107694069909656e-13
-2.0721815410836882e-14
-1.8008896826152333e-14
3.762232271749517e-14
1.558496746177181e-15
-2.1171922637520043e-14
-4.561778540488024e-13
3.0188862305443495e-13
-7.943245415123516e-14
2.337216851456013e-13
-7.72082392920835e-13
7.549311587882578e-13
-2.6266629499262165e-14
4.341786363184035e-14
-5.441154479789341e-13
4.180107461896356e-13
2.08567974563403e-14
1.0524790433295958e-13
0.0
0.0
0.0
0.0
-3.3086969160822155e-13
1.2206522437744097e-13
6.42252046418604e-14
1.4457926258892018e-13
2.0860402754443357e-14
-5.639498512235035e-14
2.661206801155455e-14
8.922514356352455e-15
7.494203330951196e-14
-2.7536199139777757e-14
3.163951900920408e-14
-7.904535317893825e-14
-2.6691715916812676e-13
-4.547747014325636e-14
8.133801083639399e-14
2.3105661847498895e-13
1.997731150033025e-14
-1.6752661416667058e-14
7.700187792298227e-16
-3.9946688628930055e-15
-7.848646000224527e-14
1.4422805403448363e-14
-7.627057067489739e-14
1.4033422527369438e-13
8.27724060133546e-14
-1.1533075205443727e-13
1.547115871572927e-14
1.7087187325353587e-14
-3.42630371319587e-15
-3.7261908258522777e-14
3.465476986108609e-14
6.033442110632563e-15
-8.652138668906405e-14
6.626587674219806e-14
8.178898067459678e-14
-6.153347072773076e-14
4.269976879302553e-14
-1.691675186401174e-14
-2.3547609807254516e-14
-2.235407121759256e-15
1.9944445726336922e-14
-4.348017684521995e-14
7.539675302687373e-15
1.599605581619562e-14
1.822183180350684e-13
-1.4675859921174145e-13
-1.5396189388585378e-13
1.185021750625272e-13
3.0223182665471076e-13
-2.549712209354106e-13
1.6343934277930227e-13
-2.1069994849860236e-13
-6.8096624883357155e-15
-9.272542462343781e-14
-6.691330092031339e-14
1.6644838803208675e-13
-7.391340265299638e-14
1.323401806742999e-13
-9.616720245556726e-14
3.774042443426354e-14
7.000600225852371e-14
-2.7860516328308906e-13
-1.0846651329481996e-13
3.1706567431938485e-13
-1.2809716535043618e-15
-5.666568416778152e-15
2.6178374382171156e-15
4.329702632065397e-15
1.9238584519861168e-14
-1.2955563890966537e-14
-2.5323873085433525e-14
1.904085245653892e-14
4.482598317229455e-15
-4.813844848291949e-15
-1.2130760024316418e-15
1.5443225334941359e-15
6.155736463807485e-15
-8.067560520300354e-14
3.498751757643212e-14
3.953235116276396e-14
-4.6256443520032204e-14
5.017971310659441e-14
-1.822464053385751e-14
1.4301370947295243e-14
9.114225022507579e-14
-1.2841140720261993e-13
-1.1034576360728762e-13
1.4761492058483198e-13
4.6376814856731783e-14
-3.837673296524166e-14
-2.4634543587651546e-16
-7.753736455613598e-15
2.960248181606205e-14
-3.30461312119484e-14
-2.157699031238894e-14
2.5020639708275317e-14
1.2291235531406557e-14
2.256773190154647e-14
-2.546096896455388e-14
-9.397998468399132e-15
-4.835227365285e-16
-3.7580632964737905e-15
1.2389485200847675e-15
3.0026375129175234e-15
2.6934710020864812e-14
-3.6184227601580454e-14
-4.5665350579698305e-15
1.3816052638685458e-14
-4.3682262145011374e-16
-1.7089144684859395e-14
2.2038020987092254e-14
-4.512053680782735e-15
6.737561622936212e-14
5.336446230745152e-15
-5.972895336108723e-14
-1.2983109099019997e-14
-1.7733012538902493e-14
1.715485037443831e-14
-3.564006642715768e-15
4.142168807179965e-15
2.4859757544903673e-15
-5.4662386551255185e-15
-1.069308130528134e-15
4.0495710311632865e-15
-1.9596200311559055e-14
8.310705492726829e-14
-3.8422669358857364e-14
-2.5088185256851866e-14
5.119217062429295e-15
-2.4789583314534283e-14
1.3442915802066075e-14
6.227450450038911e-15
1.7332043881105044e-14
-8.901069744530326e-15
-9.142237893095437e-15
7.11263756520694e-16
1.2877144993369076e-14
2.0131883709454984e-14
-4.345079057242823e-14
1.0441761869604223e-14
2.1662479329051807e-15
-1.321021395708582e-15
-2.2238360871572488e-15
1.3786095499606503e-15
-3.0808337760834684e-14
8.050502430599112e-14
-4.2913409650819286e-14
-6.783276894337072e-15
-2.1235979585103126e-14
5.173444271873448e-14
-2.3385525064776026e-14
-7.112938068855317e-15
6.469766345474523e-14
-6.234930569537538e-14
-7.750653557678484e-15
5.402295798308619e-15
1.4891579620193782e-14
-5.0464742800774256e-14
1.4377069230907133e-14
2.1196093949673322e-14
-1.9287980239250624e-16
-8.488452298579413e-15
2.8781916323174446e-15
5.803140468654473e-15
-5.773343450388961e-15
8.313258473929974e-14
-3.6417006824280236e-14
-4.094223446463051e-14
3.3690380870595346e-14
-6.861926609115849e-14
1.4936436746444522e-14
1.9992448474118644e-14
-2.058934897031157e-14
-3.093440156918608e-14
8.310261421084758e-15
4.3213489118412846e-14
0.0
0.0
0.0
0.0
-5.0779581457283566e-15
-1.8581917795091524e-14
9.98941228224085e-16
2.2660934712595796e-14
-2.690647903572463e-14
3.2787098614597704e-14
-2.876646269267699e-14
2.2885843113803843e-14
7.009845044203706e-16
-1.0516481230196068e-14
-1.0107164198877703e-14
1.9922660924653417e-14
2.2618393643363398e-14
-7.203947907263181e-14
-8.419822918007365e-15
5.784090834727578e-14
-1.4049979257153012e-14
-1.9373757822857032e-14
-3.9290195315245174e-14
7.271393239525526e-14
1.3624979351055732e-13
-1.2221841385885764e-13
2.0663372828113765e-14
-3.469475247981386e-14
-2.6750775764020034e-14
8.662086467891558e-14
-4.0380045139811136e-14
-1.9490043775084405e-14
-5.5182674388816e-16
-3.121612314642616e-15
4.20598566940602e-15
-5.325466108752438e-16
-1.6406455839648744e-12
1.0228593132864482e-12
1.449805666616134e-12
-8.320193959377029e-13
-2.269469336363327e-14
6.166640116027824e-14
-4.231356669584294e-14
3.34185889919795e-15
-9.650800107800935e-14
-2.2181026345700683e-14
-1.1161206457983792e-14
1.2985023388169373e-13
-7.817166987178613e-14
2.1789195832631519e-13
-8.975073767500925e-14
-4.996955077951957e-14
3.9109181310030514e-14
-7.281237837181297e-15
-3.076894014034726e-14
-1.0590033325019333e-15
3.449865992468293e-14
1.033170381055886e-13
-3.620236634742778e-14
-1.0161333168284417e-13
9.362328255076605e-14
-1.3979808414995278e-13
-4.1504231150087326e-16
4.6589843910687525e-14
1.507827334735253e-13
1.414725882540525e-13
-7.717590477598662e-14
-2.1507941695159118e-13
3.8414321793052605e-14
-5.069330555679903e-14
-2.2393060407831334e-15
1.4518289804529585e-14
-1.6245494870414658e-13
-3.710231796824639e-13
-3.8825196020023863e-13
9.217300885868505e-13
6.455070235948546e-16
-1.2946810920762265e-14
1.0572162816081013e-14
1.7291410810863955e-15
7.243209549618925e-13
1.9630759654228836e-13
-8.15260687957009e-15
-9.124759446246088e-13
3.427096861168633e-14
-4.1105111325413906e-14
-4.511273935336637e-15
1.1345416649064186e-14
-7.840375844402471e-17
-4.679102793639993e-15
4.6898691338174225e-15
6.763741826659353e-17
-3.9234021307838355e-14
-5.73115714948712e-15
-5.956608297164351e-14
1.0453126142896887e-13
-1.5334005235028597e-13
-1.7597557974695517e-13
8.459134361112566e-14
2.447242884861165e-13
-1.9258937503194726e-13
-4.306198918837351e-13
1.5376833493618316e-13
4.694409319794997e-13
1.9475307156715524e-16
-6.5484192262853504e-15
4.609902950870906e-15
1.7437632038472892e-15
-1.1176831060595578e-13
1.4041034952866439e-14
-9.097146116584938e-14
1.8869873681893876e-13
3.6909327185338514e-14
-7.297723109002238e-14
-1.815301596231137e-14
5.422091986699534e-14
6.9794360145261e-14
-6.880449847734533e-14
-6.824749897803975e-14
6.72576373101238e-14
-4.277115967519736e-14
-9.38724722003684e-14
-2.291813888208842e-14
1.5956177075765415e-13
4.982022811112028e-16
-3.1445450343258245e-14
-1.2807513752966618e-14
4.3754761815113556e-14
-2.914709254959515e-14
-6.823419512438439e-14
-1.3689115129870115e-15
9.875019918696634e-14
2.1917383881391832e-14
-5.098761961650407e-14
-1.273490455296809e-15
3.034372619040904e-14
-2.947000077728773e-14
5.403358082457491e-14
-6.174220080307221e-15
-1.8389359966979995e-14
-2.0636331158811028e-14
2.2337846082748087e-14
-8.326777321698923e-14
8.156625829305225e-14
2.9474319143632176e-14
-1.3897505598407722e-15
-1.7883952740161316e-14
-1.0200615843630109e-14
-1.8013071426355192e-14
3.989344331405164e-14
-1.4888304210216988e-14
-6.9920676774794345e-15
-4.978077517676547e-15
-5.6479508816093276e-14
-1.7892989865634387e-14
7.935057619940424e-14
1.0231613612268083e-14
-1.5518311242334452e-14
7.509346934539275e-15
-2.2226493044729128e-15
-3.75517718934053e-14
6.816315959277252e-14
-1.862579593942902e-14
-1.1985591759938192e-14
-2.3304391225410466e-14
8.452164034085035e-14
-3.542266067968856e-14
-2.579458843575121e-14
-5.5722367396140215e-14
1.7886589953548097e-13
-6.839624840761923e-14
-5.4747283731721536e-14
-1.1508964370333242e-13
1.2385800171371077e-13
-1.0746806537267308e-13
9.869970736229469e-14
-1.8038803659083827e-13
-6.359421095266478e-14
-1.1946297852535123e-13
3.6344522606885453e-13
6.780792144058193e-14
-2.83126207586387e-13
-2.812703935883319e-13
4.965886797341386e-13
1.603882067058292e-14
3.448425575886617e-14
-6.96159368175894e-14
1.9092860388140246e-14
6.196705783466782e-14
-2.7414351482906766e-13
-1.1005730864206556e-13
3.2223376563646464e-13
-5.897058762828014e-15
1.929481300439458e-14
-8.438591743387428e-15
-4.959162498179128e-15
-2.3410034446854218e-14
1.604687793652913e-14
-1.408660438207376e-14
2.144976089239892e-14
3.5865457011641296e-14
-5.5566128222549775e-15
-2.0767624540139494e-14
-9.541219649246822e-15
0.0
0.0
0.0
0.0
6.795498824457956e-15
-1.4231923838971973e-14
-1.7651034868104324e-15
9.201528501324449e-15
-1.6460361144906148e-14
1.2668165464384223e-13
-1.2178301834173887e-13
1.156172484280279e-14
-1.0747497827591216e-14
-1.0134793513796698e-14
-2.2754066837279015e-17
2.0905045408225183e-14
-1.5884842143895916e-14
-1.2019108480367955e-14
-1.8682616473632863e-15
2.977221227162716e-14
6.748905706466492e-15
-4.247890616801146e-14
1.3416133506082342e-14
2.231386695546259e-14
-4.2359988669586844e-14
8.534164215751831e-14
-2.568537544020159e-14
-1.7296278047729897e-14
-3.6452172817612076e-14
-5.29807331652167e-14
-1.644573757092311e-14
1.058786435537517e-13
-2.208572140476729e-14
-6.449338756044595e-14
8.581963232232025e-15
7.799714573298123e-14
1.5911129637065037e-14
-2.139637667216314e-14
1.5348702012072992e-15
3.95037683389081e-15
-8.313886474319186e-15
-4.6755428845818616e-14
4.44696678774695e-15
5.062234853239094e-14
5.024801923739451e-15
-2.1324239696822526e-14
-5.9856057088665495e-15
2.228504348194962e-14
-2.883375204079279e-14
2.5020416328953708e-14
-2.953420260757375e-14
3.334753831941283e-14
9.609109482796952e-16
-3.743325439152497e-15
-6.242524782189679e-16
3.4066669690917698e-15
-2.5236447723459465e-14
1.4907660597399755e-14
1.8179147470248998e-15
8.5108723790348e-15
-1.4620549829739735e-16
-5.343477192790162e-15
2.3702443827869322e-17
5.465980247259691e-15
-8.704986555105762e-15
-1.6430702402192218e-14
4.4302537968961026e-14
-1.9166849011663045e-14
1.7097431326159987e-14
-1.2906235548055292e-14
5.7826311640347605e-15
-9.973826942139458e-15
-2.6845298576182028e-14
8.764191202583458e-14
-5.019693176395083e-14
-1.0599681685701758e-14
3.873421070436026e-15
-3.281041134918408e-14
2.6836184434197847e-14
2.1008058445501886e-15
-5.671087794271084e-16
-1.7644810282430169e-15
-4.247323820915469e-16
2.7563221897616723e-15
-6.0937715287083635e-15
-1.0871304036628494e-14
4.296833564465787e-15
1.2668242000871067e-14
4.064604022320745e-14
-3.2776443134424445e-14
-1.747286876121797e-14
9.603271672435017e-15
-1.9107248919523944e-15
-2.6765095794421853e-14
1.1648842336777523e-14
1.702697834959672e-14
-6.082411118026307e-13
1.053660569480964e-12
-2.939106418504336e-13
-1.5150881582790096e-13
-2.3951331837792265e-15
-6.3915720831380235e-15
7.499063836633848e-15
1.2876414302834003e-15
5.888431808717718e-15
-3.727932465096204e-14
2.0671930525873613e-14
1.0718962316370711e-14
3.2457674031969357e-15
-3.601855508370488e-14
2.7187261017587313e-14
5.585526662920616e-15
1.1799221036534868e-14
-1.2952297973092335e-14
-1.872750137735852e-15
3.025827074293315e-15
-8.393429686208394e-15
-1.011175205855477e-14
4.830622058311151e-15
1.3674559686452011e-14
8.22037952042995e-15
-9.598686391277644e-15
1.9209800640956844e-16
1.1862088644381242e-15
6.6060660773627745e-15
-1.0829859756785824e-14
-8.993038022116664e-16
5.123097481634713e-15
-6.150936572262872e-15
-1.200864596100879e-14
7.0441470612571244e-15
1.1115435472014538e-14
1.755825851420643e-16
-3.3952738096259006e-14
2.0560917793225895e-14
1.3216237717891053e-14
-5.593002048187923e-15
-1.7353586489519526e-14
1.647022786658063e-14
6.476360671126814e-15
2.3754184533534503e-14
-2.856383301619168e-14
7.289056033731688e-15
-2.4794075510745345e-15
6.001381077564492e-15
-2.1582131881508787e-14
7.600518690576545e-15
7.98023211336775e-15
8.974309027063232e-13
-5.149098341882649e-13
-1.2757740830725628e-13
-2.549436602108038e-13
2.0052159934564773e-14
-2.1681570537296066e-14
2.251603585952246e-15
-6.221929832209408e-16
8.450599734929329e-15
-2.015650437938916e-13
-1.1849314161763459e-13
3.116075856765973e-13
1.434532264323146e-13
-2.1873525282745572e-13
-3.008515083747672e-13
3.7613353476990963e-13
1.578679845727159e-14
-4.0150007748496436e-14
-1.3531693576056817e-14
3.789490286728166e-14
-3.075409135558568e-14
-1.2527210761619e-13
-7.717990274102569e-15
1.637441892458782e-13
-1.601211869831762e-16
-6.507813284364853e-15
1.071003647202058e-15
5.596930824145972e-15
-1.3127155362979584e-15
-1.0130057561756225e-15
-1.3213418896597585e-15
3.647063182133339e-15
1.0666741121210764e-14
-3.2282979326255657e-14
1.6025570000043903e-15
2.001368120504052e-14
-1.3270319588841713e-15
-1.3931299745532651e-15
9.284798689777878e-16
1.791682064459648e-15
0.0
0.0
0.0
0.0
6.7326265814502124e-15
-1.3478534414811742e-14
5.059153588266417e-15
1.686754245095107e-15
-1.307524353781077e-13
-8.3655459806299e-14
1.7468297404997625e-13
3.972492113443051e-14
-1.9682120392756257e-14
-2.3464115502266207e-14
2.4570347630632043e-14
1.8575888264390437e-14
6.796372031961994e-15
-2.5977797410571437e-15
-2.5680910227235037e-15
-1.6305012681813454e-15
9.832156095158524e-16
-3.601709515037208e-15
5.23681659788954e-15
-2.618322692368185e-15
1.691358077776141e-14
-2.233001053870451e-14
-5.882604891138038e-15
1.1299034652081143e-14
-1.173582128197213e-14
4.626026667092259e-14
-2.915758017207293e-14
-5.3668652168775565e-15
4.8729344298926265e-14
6.638111043960197e-15
-2.7479056586061597e-14
-2.788839875682487e-14
-5.403691517101025e-14
1.3346791369748166e-13
-6.579359237721986e-14
-1.3637406149251567e-14
4.641330590575291e-15
-2.2934119693195424e-14
1.4928754647363713e-14
3.3640344552564054e-15
-2.9661618059791705e-16
-4.0266461632657303e-16
-5.553542569018528e-16
1.254635053826343e-15
-6.081802823880853e-16
-2.561089190369455e-15
3.4998425437355325e-15
-3.305730709779923e-16
-1.867076217196717e-15
3.64885566748136e-14
-1.6316130346374437e-14
-1.830535011124245e-14
-1.3555950845124298e-15
-1.5775252760475175e-14
7.614303452420309e-15
9.516544392567295e-15
6.470025308720495e-15
-1.1757832445602961e-14
4.644774236072157e-15
6.430329008103118e-16
3.558588503248904e-15
2.7986657352432336e-14
-1.3623848226188265e-14
-1.792139762949299e-14
1.2875947955851594e-13
-5.703983543446617e-14
-1.4304551639784203e-14
-5.741509248426571e-14
-4.4495635730335305e-15
-3.2018502796101052e-15
-1.954905885781698e-15
9.606319738425335e-15
2.986668293328101e-15
-3.376427475509058e-15
1.5498981491113608e-15
-1.160138966930403e-15
-1.2987045347940414e-15
-2.260793217671583e-15
1.4873279544685371e-15
2.072169797997087e-15
5.906882871120107e-14
-3.454152979617689e-14
-1.4573908751305e-14
-9.953390163719133e-15
4.5007800870977874e-14
-1.447733134119417e-13
-1.9231399891677422e-13
2.9207951145773867e-13
-4.494863615514322e-14
2.620109404469876e-14
-6.038341940543115e-14
7.913096151587578e-14
5.627299936668727e-15
-2.5500586071513406e-14
-8.46737439902239e-16
2.07200235747469e-14
-8.062744287088916e-14
-4.338190526306884e-15
-1.5486518130022645e-13
2.3983081469742227e-13
-1.1099823919389472e-14
9.684031938774444e-15
-1.8419595783466797e-14
1.9835387764081813e-14
-3.3507674306896234e-14
-2.418075736428681e-13
1.370164476995132e-14
2.6161360317981323e-13
6.722875481363999e-14
-9.916899804520757e-14
-4.6125651977578946e-14
7.806589520914648e-14
-2.158155372516793e-13
-6.007795106712208e-14
2.305497919067447e-13
4.534369641205706e-14
-9.51577289973708e-14
-3.1536736568559476e-13
-3.4611881315592166e-14
4.45136975998559e-13
-6.185910454950648e-14
-5.788862283426191e-14
3.1708259668231087e-13
-1.9733486929854248e-13
-1.4905560510211483e-13
2.326495294996849e-13
-1.3437029007307634e-13
5.0776365675506355e-14
-1.2871281443996997e-15
-1.3717243397305929e-15
-1.1864868145944607e-15
3.845339298724754e-15
-3.7961640007715216e-15
-3.4052881454502245e-14
-4.828374841569351e-15
4.2677420296843056e-14
5.7779922519205326e-15
-5.0850356884742526e-15
-4.513982109739872e-15
3.8210255462935896e-15
6.3781731849015954e-15
-1.5204024068653364e-14
4.298075303700391e-15
4.5277755800513805e-15
2.2908666037273136e-14
-8.169314733454012e-14
3.1667871256302707e-15
5.5617694171636676e-14
1.83117766791245e-14
9.057980055143418e-15
-5.0702610638648193e-14
2.3332853904380236e-14
-3.053965106632857e-14
-2.962394084189681e-14
4.137618750740907e-15
5.602597315748449e-14
-8.030135902863851e-14
-1.4892705150988778e-14
8.617187815268172e-14
9.022186026945622e-15
-1.962781402733516e-14
-2.7084278648675573e-14
2.5989634860720625e-14
2.0722457815290092e-14
-1.4409542654001008e-14
3.216893155217132e-14
-3.402823537073638e-14
1.626884647256604e-14
-1.7074897881717645e-14
5.556891943483324e-14
-9.588991790615724e-14
5.739589635304165e-14
-4.92821505503429e-16
-3.6485259604456946e-16
-3.9643619950543705e-16
1.2541103010534355e-15
1.968842266192019e-14
-4.327338608279486e-14
3.4400821310924583e-16
2.3240955207765464e-14
6.499824183384893e-14
-1.0940317866071468e-13
1.1826036296231674e-14
3.2578900530634105e-14
7.21620527356813e-16
-8.211736786201037e-15
-1.7608324796704116e-14
2.509844105554833e-14
-4.912361875577757e-14
-1.353416040879826e-14
6.221392500153139e-15
5.64363866644226e-14
-8.708722398746896e-15
-1.0892686665503364e-14
-1.971546029447968e-15
2.1572955093698217e-14
1.6869663481280764e-15
-1.5419276799218352e-14
-9.098796002071473e-17
1.3823298411110998e-14
-8.649803107462423e-16
-1.5082237307100513e-14
1.5445324567458187e-14
5.018930503885669e-16
-5.496646267478797e-15
-8.630053391072854e-14
-2.1570876893430495e-14
1.1336805707163809e-13
-1.6750171087196733e-14
-1.3676988725445415e-14
1.5677071517472828e-15
2.8859452660894875e-14
6.3157943620692145e-15
-1.4932051486792909e-13
3.4045085051499416e-15
1.3960021200071e-13
1.3407450419120322e-15
-9.981012027184418e-15
2.28973557978608e-15
6.350531405486311e-15
-1.0250849945319479e-14
-1.1836937208207466e-14
8.331271279633662e-15
1.3756515873893299e-14
-6.1708705943753286e-15
3.863579157196354e-14
-2.751524313234111e-14
-4.949677845247116e-15
3.577008350390348e-14
-5.076955909377514e-14
-3.3006431501079226e-15
1.8300118739979618e-14
2.0352207000381732e-15
-2.3099946167431806e-14
-4.808038897887556e-15
2.587276436528119e-14
-4.838988590869862e-16
-3.854276956545621e-16
-4.2353122819944527e-16
1.2928577829409934e-15
-3.777956306375153e-14
-1.2104289465141757e-15
9.229996654495439e-15
2.975999535577031e-14
1.705077245777242e-14
-1.2141987872231507e-14
-2.501171059044087e-15
-2.4076135264968255e-15
-8.258543328104796e-15
-3.4574562491923175e-14
9.421819538866563e-15
3.3411286281161464e-14
-2.7865061900369494e-14
2.279424467176335e-15
4.6707638040956825e-15
2.0914873629097474e-14
-4.361400745475088e-14
1.630813533543209e-14
-1.505457515330217e-14
4.236044727262094e-14
-1.6228167561033706e-13
-2.32277154997568e-13
2.138212655893168e-13
1.8073756501858743e-13
-6.314694348291901e-14
3.370382890302414e-14
-1.648459462441333e-14
4.592770920430816e-14
-5.149489347411684e-14
-5.76918325604389e-15
-1.9129122753567726e-14
7.639319948372845e-14
1.1887023015630786e-14
-1.6875615851191573e-14
-4.180235366054797e-15
9.168828201615585e-15
-4.3680325915191654e-14
1.3295667677931689e-14
-2.6060937589165746e-14
5.644559582642578e-14
-3.065382964795137e-14
2.903705003137102e-14
-2.4175071687318493e-16
1.8585303334535516e-15
-2.2915120189379243e-15
-3.664428132969743e-15
6.158304891800123e-15
-2.0236473989245325e-16
1.4624795324967813e-14
-1.3677364559313976e-14
3.274521750673944e-15
-4.221952516327787e-15
1.8701923015953775e-16
-4.805434408592468e-14
-4.0600834407089556e-14
8.846815926285472e-14
4.66946240721987e-15
-1.4112874703246436e-14
-1.8847923845481916e-14
2.8291336141508464e-14
2.9996414328366343e-15
-1.3548131606862975e-14
1.6025964482344558e-15
8.94589372579188e-15
-3.8860356321582244e-14
6.357473444545533e-14
-3.9608075730103605e-14
1.489369760623059e-14
7.88715268447934e-14
-6.377960302808732e-14
-1.2948737144362997e-14
-2.143186672343257e-15
1.668590397715873e-13
-3.175180911142521e-14
-3.3651168980115144e-14
-1.01456061680047e-13
1.9542302350802762e-13
-2.2134889025261012e-13
9.814810395455528e-15
1.6111056349126887e-14
2.910660649037156e-13
-2.439320135764034e-13
-1.0709154374433648e-13
5.995749241702498e-14
3.2973025198774503e-14
1.5416105308233578e-14
-1.8490340075333576e-14
-2.98987904316745e-14
0.0
0.0
0.0
0.0
2.4936860970926976e-14
-9.004410987705376e-14
2.0295817897422783e-14
4.481143100870397e-14
-1.3676861411093794e-14
-1.4216409975585592e-14
1.1319849740073998e-14
1.6573421646605396e-14
-3.5082581210001623e-15
-3.22197805936182e-14
8.280756913887615e-15
2.7447281800730728e-14
-1.9503929426478424e-14
3.879630488793115e-14
-2.106427096755846e-14
1.7718955061057575e-15
-2.958883904973719e-15
-1.4145316433022108e-14
8.56510382152656e-15
8.539096516469257e-15
-8.101102725395412e-16
-6.612048811607389e-16
-1.1231465955605136e-15
2.594461749260794e-15
-2.952218488233945e-14
-3.3226367616421735e-14
1.7495018457990063e-14
4.525353404077116e-14
2.9884304807067336e-15
-1.0137739245420743e-14
1.297676647992006e-14
-5.827457715206051e-15
2.3851318141255613e-15
-8.827385613718548e-16
-1.77409539340713e-15
2.7170214065342435e-16
-2.546753373148659e-14
3.4502546376483407e-14
1.8712594864693706e-15
-1.0906272131466197e-14
-1.7927089979759737e-14
4.232835787337918e-14
-1.6455136713658756e-14
-7.946131179960665e-15
-1.4043910800598118e-15
-7.766468474449348e-16
-1.3005524896989326e-15
3.481590417203679e-15
4.627610026123034e-14
-2.649138444621079e-14
-6.0537342591872925e-15
-1.3730981555832246e-14
2.684864232915562e-14
-1.6866649210308989e-13
-1.0286811840384019e-13
2.4468596817777467e-13
5.425060135147319e-14
1.122289211351117e-14
-7.724823300419159e-14
1.177473953920724e-14
1.770808153856822e-13
-9.674570244046317e-14
-1.403962852613415e-14
-6.629548441908475e-14
-3.917407691326386e-14
9.012711479542585e-14
1.796391225411787e-14
-6.891695013627999e-14
9.879650494443489e-15
-1.4636287327207207e-14
-5.955562471175704e-15
1.0712199303939427e-14
6.90016959940761e-14
-1.7007192745904807e-13
-4.309894991464911e-14
1.4416918137962112e-13
1.725997975233297e-14
2.0094321779171223e-13
-2.1214769131575684e-13
-6.0555062282883315e-15
3.912076034851452e-16
-4.501988806631016e-15
4.206285793890007e-15
-9.550459074413551e-17
2.8918900617391252e-15
-8.151506922434734e-15
-2.8944324306966264e-15
8.15404929139223e-15
-8.099879306909757e-15
-1.0899585208337034e-14
-9.113345504855302e-17
1.9090597970295358e-14
2.0246995194136135e-14
-1.3972201186093535e-14
1.1878919820423269e-15
-7.46268599008494e-15
4.368067069732863e-13
4.586972588467677e-13
-3.722937967180238e-13
-5.232101691020338e-13
3.118623173734622e-13
1.57021457246398e-14
-1.4538676222840806e-13
-1.8217770086969327e-13
-9.675405912980185e-15
-2.1688312695692606e-14
-6.1758954278872625e-15
3.753961403656005e-14
3.564401306009363e-15
-1.792822386557704e-15
-9.33851562127153e-16
-8.377273573245065e-16
1.7811265153232475e-13
-1.489145537935384e-13
-8.613499471725427e-15
-2.0584598267060877e-14
-4.706453006738791e-13
-1.1394792129872617e-14
4.653438848380617e-13
1.669620796568991e-14
1.5519801572305205e-14
-2.0537683838955987e-14
4.846876739988502e-15
1.710055266622868e-16
-6.552801487065759e-14
1.5562724365115705e-13
-9.370024748438592e-14
3.601018703886449e-15
-1.2169387884280372e-14
-1.4478176823809623e-14
-1.3219436661582843e-14
3.986700136967282e-14
-2.8685350990646488e-15
-1.3592369069312332e-14
4.094790035806205e-15
1.2366114132570776e-14
1.0835707238771061e-14
1.0116990426247994e-15
3.288173437777719e-15
-1.513557971917358e-14
4.621359094645594e-14
-6.651569461018295e-14
-2.2410759667235004e-14
4.2712863330962e-14
3.426346792218187e-14
-5.521561779498661e-14
-1.1079047487669771e-14
3.203119736047457e-14
-1.2632024187329342e-14
9.419366238210818e-14
-8.026393391440781e-14
-1.2977042803710778e-15
-1.6825969716492436e-14
-3.4329966974246087e-14
2.601550104446794e-15
4.8554386586291716e-14
4.486278002972507e-14
-3.948384459642143e-14
-7.280346172017017e-15
1.901410738713389e-15
-6.878978210335412e-14
-7.949065380838254e-14
-2.176329969014876e-13
3.659134328132236e-13
-3.117406130455287e-13
-3.518965714612048e-14
-4.187148232049459e-13
7.65645093396598e-13
-3.325434205069453e-14
-8.116940130105678e-14
-4.191463767630952e-14
1.5633838102806086e-13
-2.848769308992416e-14
2.3230237319429553e-14
-3.233476563644861e-14
3.7592221406943255e-14
-2.479929068404119e-13
-1.1122196598120156e-13
-2.399073346787096e-13
5.99122207500322e-13
-3.3993999054099395e-14
-4.1866635622142034e-14
-3.0400614307779256e-14
1.0626124898402056e-13
-5.196975653193921e-14
6.3755505730753e-14
-4.8896072468173806e-14
3.7110323269359993e-14
-9.828801304139882e-14
-3.759003607058424e-13
-1.267630197301011e-13
6.009513934773392e-13
-3.86699383790695e-14
6.052027063787235e-14
-3.050687492549702e-14
8.656542666694153e-15
-2.2121221272285855e-14
-6.286597623565386e-14
1.372706013962522e-14
7.126013736831461e-14
-1.1274914795595289e-14
-6.204115678814964e-14
1.595000639749864e-14
5.736606518624629e-14
1.598830553549086e-15
-3.235866341883519e-14
5.560322241771542e-15
2.5199510623514523e-14
5.925305959382847e-14
-1.153345282514936e-13
-2.2560254486090103e-14
7.864172314375521e-14
-1.6604671561887752e-14
1.4646214701838105e-14
-7.176486554774127e-14
7.37233224077907e-14
3.95895058273512e-14
-4.109183721566804e-14
-7.516690970698977e-14
7.666924109530638e-14
-1.0824591807367225e-13
9.909378073955965e-14
8.220512734574711e-15
9.316245995380015e-16
-4.307209110401376e-15
1.9476034818761397e-14
-8.72603159283585e-15
-6.442794115524172e-15
2.7915539073550214e-14
-5.1200718058001246e-14
-2.7299929514680908e-14
5.058510849913208e-14
3.7505128339734614e-14
-7.053234825207442e-14
-1.6966859876183977e-14
4.999407978852372e-14
2.5150132657366852e-14
-3.867957771948891e-14
3.1016487592780405e-15
1.0427796302844014e-14
1.5150506713991138e-15
-1.26144373702377e-14
2.2333136055998105e-15
8.866073093238786e-15
5.719669303363394e-14
-1.722124800928349e-14
-1.005890374485925e-13
6.061359242424215e-14
2.051108860398941e-14
-4.810147620398794e-14
-4.331664365699301e-15
3.1922051965697924e-14
-2.2441754645807168e-14
2.966423874733244e-14
-1.0706844690685195e-14
3.4843605891599e-15
5.4049243668980004e-15
-6.361764295766611e-15
8.504293703844038e-16
1.0641055848420823e-16
1.5770349828620696e-14
-4.461744096822938e-15
-6.706455120905163e-15
-4.602150610892595e-15
0.0
0.0
0.0
0.0
1.6841993307967538e-15
-4.0914705365492425e-15
3.075416334236141e-15
-6.681451284836519e-16
0.0
0.0
0.0
0.0
-5.0312284141637575e-15
-5.059411001637872e-15
7.155271294235965e-16
9.375112286378035e-15
1.6470724572623966e-15
-4.085024446066153e-15
-1.478526418491427e-16
2.585804630652899e-15
0.0
0.0
0.0
0.0
3.3236194626134505e-13
-5.485426767909975e-13
-3.697348441240706e-14
2.5315421494205794e-13
0.0
0.0
0.0
0.0
1.621945617769857e-13
-2.5548234003739688e-14
-1.3987001850047654e-14
-1.226593259231988e-13
-1.988590712454884e-12
9.396038213061304e-13
3.376245196465776e-13
7.113623715021718e-13
-1.1885366120852674e-12
1.2005259718775673e-12
1.193330644398666e-13
-1.3132242423216437e-13
-1.7271097564720308e-13
1.9705418451895732e-13
-9.247957703937833e-15
-1.5095251167816207e-14
-8.90242955315469e-16
-1.2717674393092023e-14
1.1080729935301562e-14
2.5271874131059336e-15
2.729254183146007e-15
-1.5281922972742022e-14
8.59633223053363e-15
3.956336559062384e-15
0.0
0.0
0.0
0.0
0.0
0.0
0.0
0.0
9.16111483649075e-15
-3.841084286901701e-15
-2.995306960303558e-15
-2.3247235892854906e-15
2.740323681395397e-15
-5.543610566188055e-14
1.1082914546093327e-14
4.161286743439184e-14
-1.2077191740831458e-14
1.3455456928408252e-14
-2.7889420515764953e-16
-1.0993709824191504e-15
-1.3882459083688395e-14
-7.511949454193643e-14
7.005023375585071e-15
8.199693025003992e-14
7.737939499205966e-15
-7.728468240027986e-15
-1.4243892500710906e-15
1.4149179908931105e-15
-1.8145746977173832e-14
4.7067655854696454e-14
-1.9063084325030345e-14
-9.858824552492277e-15
-8.399270715044075e-16
-6.968118556808269e-16
-9.2906776001491e-16
2.4658066872001436e-15
4.856152437826006e-15
-4.0330711189836234e-15
-1.0087341089907516e-15
1.8565279014836747e-16
6.422647007850462e-16
-1.6910832990680313e-15
1.9051599516172315e-15
-8.56341353334246e-16
-2.7084190328724604e-15
-2.569936014629277e-14
-6.044882033261165e-16
2.901226738249134e-14
-3.4584071916981113e-15
-4.701974484012709e-15
-5.090330493221675e-16
8.669414725032987e-15
-2.2853707331477465e-15
-2.6581620241457246e-15
3.4716135407450115e-16
4.59637140321897e-15
3.087236015860908e-15
-3.9746396621957055e-15
-1.974288433542471e-15
2.8616920798772696e-15
-2.6774110233399598e-14
-3.840892276362546e-15
-1.2438640889912137e-14
4.3053643399674236e-14
-6.453677698586324e-14
3.0311922184610315e-14
-2.4265341653253466e-14
5.849019645450641e-14
-6.31556460528488e-14
7.40056637588574e-14
-4.188456856045122e-14
3.103455085444274e-14
-2.046758382102e-14
3.358664803192557e-14
-1.3237303723556336e-14
1.1823951265077438e-16
-3.1736495968913073e-13
3.5039777979501357e-13
-2.6563918370886036e-13
2.3260636360297767e-13
-2.3934082852584867e-14
3.701050445130923e-14
-1.8230804511338237e-14
5.154382912613882e-15
1.0010854765780175e-14
1.1658314984784246e-13
-1.6880644684328873e-13
4.2212442229666086e-14
-2.1318370355533203e-13
2.2165061583804288e-13
-1.142442425788289e-13
1.0577733029611836e-13
1.9335143788310625e-15
-1.6734143194421536e-14
5.614618785884081e-16
1.423916693700208e-14
6.144416863163393e-14
-1.0894494232620063e-13
4.085302412021801e-15
4.341547128254497e-14
-2.842386709429833e-14
2.431060743316703e-15
4.684817795630176e-16
2.5524324571418606e-14
-5.512593427682124e-15
2.5077239485399734e-14
-2.4353190603323233e-14
4.7885445456056396e-15
-5.220715809645695e-15
-3.862404268832885e-15
2.674963369477166e-16
8.815623741530863e-15
-5.26487655538568e-15
-2.6718713801823035e-14
1.1905473186740183e-14
2.0078117170468502e-14
1.4199936124062803e-14
-3.297551715737606e-14
7.3286646309502e-15
1.144691640236303e-14
-3.35759281373075e-14
3.636802722427709e-13
-2.7805028732392637e-13
-5.20540567815382e-14
1.1236506888632663e-14
-7.15966653918009e-15
5.322949681703325e-16
-4.609135317622907e-15
-9.603804883382779e-15
5.150787668871989e-14
-2.2313284844675128e-14
-1.959078696066198e-14
-3.5125782696674083e-14
6.551013178820985e-14
-3.9013091521316553e-14
8.62874242978074e-15
3.90576847667716e-14
-6.910499103181842e-14
2.1543357372190113e-14
8.503948892856644e-15
-1.5435734862336385e-14
3.682383775954099e-14
-8.161995771627436e-15
-1.3226107125577131e-14
4.806376928502084e-15
-3.863821842290876e-14
1.283096915634839e-14
2.100087233805823e-14
-2.0759477251584063e-14
-2.6800116775274544e-14
-8.27633897829237e-15
5.5835933005151046e-14
-1.182276775504547e-13
2.03941375099504e-13
-8.573206807911257e-14
1.837053006314264e-17
1.8699058652825803e-14
9.983862160960732e-16
-2.8710134973855205e-14
9.012690104933373e-15
-1.1160838728414836e-14
2.1045547502900165e-14
-1.4841634500666236e-14
4.956925726180899e-15
6.865508736568152e-15
-3.6480380546013244e-14
-5.500677762151917e-15
3.5115549571597025e-14
-4.09698026591023e-15
-7.31800382844719e-15
-6.389269933409398e-15
1.780425402776681e-14
5.581257949907395e-13
-5.535583664150759e-13
-4.545113195087515e-13
4.499438909330888e-13
4.028581517239204e-14
-9.966818278163535e-14
-4.839151359031864e-14
1.0777388119956211e-13
2.4454100506684794e-14
-1.7466976250700073e-14
5.427211371723148e-15
-1.2414335627707903e-14
2.834676597400276e-13
-1.4985656024677368e-13
-2.36959434257815e-13
1.0334833476456184e-13
-2.198559043722105e-14
3.088430969528921e-14
-1.9604310776008787e-14
1.0705591517940642e-14
5.934838813927244e-14
-6.912295426147799e-14
8.8450127529912e-15
9.295533692143727e-16
-1.586883966698308e-13
4.702559771776461e-14
-7.823848795299069e-14
1.899012869050565e-13
-7.326016610494136e-14
1.2842534915606406e-14
-1.946466100855868e-14
7.988229219789365e-14
-3.8135662536279067e-14
1.8063129749802012e-14
-4.717140417554712e-14
6.724393696202432e-14
-7.574320039942837e-14
4.01152377713472e-14
-8.692360266175758e-14
1.22551565289839e-13
-2.683254469113753e-14
8.534503254032261e-14
-3.4077983962407056e-14
-2.4434503886778013e-14
-5.6771704769458685e-14
-3.2141344000099775e-15
-3.875852228380121e-14
9.874436145326983e-14
-9.513143514117637e-15
-2.4616641579250644e-14
-4.002034907035114e-14
7.415013416371947e-14
-1.407568579306125e-15
-8.686490938694196e-15
-7.215478354228646e-15
1.7309537872228965e-14
4.794995734751748e-14
-3.295658270755205e-14
-4.840973104204748e-15
-1.0152401535760609e-14
-1.988757228548424e-14
3.983011381724099e-14
-2.6793612985430832e-14
6.8510714536741095e-15
-2.1796901713337333e-09
7.194709473174509e-10
-1.880588972224979e-09
3.340808196241262e-09
-5.4081215426144484e-11
1.516154076440525e-11
-4.7608341579205555e-11
8.652801624094506e-11
1.4605152671265732e-12
-2.3756478118384795e-12
-2.385106295989435e-12
3.300238840701346e-12
-4.371973553189294e-12
-2.3624338869330375e-13
1.2983394324367852e-12
3.3098775094458337e-12
-9.189221121486335e-13
1.403448368902829e-12
-2.8873269858329587e-12
2.4028007290787656e-12
7.685299574115967e-13
-7.339129597565882e-13
-2.9574505924695174e-12
2.9228335948145033e-12
-5.067830332884859e-12
8.575459102886855e-13
9.087761012759948e-13
3.3015083213201788e-12
2.472599609738116e-13
-1.2111552003692617e-12
-1.9259738340804425e-12
2.8898690734758926e-12
0.0
0.0
0.0
0.0
-4.102193361575527e-12
-1.7589695243780378e-12
-1.7245918736437478e-12
7.585754759597302e-12
2.8406716934643527e-14
-2.7988087216260436e-14
9.362565302112743e-16
-1.354886248594373e-15
-7.68897204558471e-14
-3.1642754570251797e-13
-1.4914884475944428e-13
5.424661109178105e-13
-6.29907764385601e-14
-3.0636277496592823e-13
1.0703302968742956e-14
3.586502484357449e-13
3.0851051835837647e-12
-1.967519452528613e-12
