-7.101595631245158e-12
-3.978851641700129e-12
-9.671399298873709e-12
2.07518465718191e-11
-3.2475114828686814e-12
-2.947583448084203e-13
-3.1684402820291324e-12
6.7107101097062284e-12
-2.562352471317605e-12
4.664057057960976e-12
-5.137266554155673e-12
3.035561967512302e-12
-4.430056656096385e-12
5.386183794949109e-12
-4.105567959041812e-12
3.1494408201890833e-12
-1.3640512872964703e-12
-9.590302325607401e-12
-1.007106907190068e-12
1.1961460520093962e-11
7.335389202261137e-12
5.527369428699079e-13
9.064252428070652e-12
-1.6952378573201755e-11
-5.049295228552918e-13
-4.804810339602542e-13
-5.498560635250587e-13
1.5352666203406052e-12
4.157825514819022e-13
-4.469126276513011e-12
-2.5695324050365105e-12
6.6228761300675685e-12
-2.980911007769891e-14
-2.9610668543110026e-14
-2.488432575606781e-14
8.430410437687668e-14
5.348899766484719e-12
7.201925793101312e-13
2.7920858655927036e-12
-8.861178211387541e-12
-4.780763267433408e-13
-4.4576057308720384e-13
-5.449203669753344e-13
1.4687572668058828e-12
-1.3149109283631677e-13
-1.5371790929826858e-13
-1.2050111138093035e-13
4.0571011351551486e-13
-7.26704705000454e-14
-1.4166213396905917e-13
-1.376053473991566e-13
3.5193795186826157e-13
-1.3750072157480186e-13
-1.7419748234898837e-13
-1.0763513831696233e-13
4.19333342240752e-13
-1.088762819351002e-13
-2.151123698023051e-13
-1.5330073459788868e-13
4.77289386335292e-13
-2.6853196111949156e-14
-3.47204608730498e-14
-4.9356965497235034e-15
6.650935353472233e-14
-2.2691507687754625e-13
-1.324121278940291e-13
-1.1112735516639306e-13
4.704545599379697e-13
-5.23602027042315e-14
-8.251771407455906e-14
-2.4152992005652896e-14
1.5903090878444338e-13
-1.2036856128567786e-13
1.1859614244132377e-13
-1.1277569112282914e-13
1.1454810996718306e-13
-7.698457627181389e-15
-7.750112418231704e-15
-7.75179581961227e-15
2.3200365865025368e-14
-9.656428203231833e-13
-6.248519383869493e-13
3.546853214517877e-14
1.5550262265649501e-12
8.40557287132191e-13
-4.043264665258597e-12
-1.9822447676657633e-12
5.184952145792172e-12
0.0
0.0
0.0
0.0
-1.158695646726164e-12
3.203537934933101e-12
-1.1546241867064945e-12
-8.902181015004452e-13
-5.791600397446641e-14
-6.435028878382346e-14
-4.67437109641708e-14
1.6901000372246054e-13
-1.8175419582984125e-13
2.4326206423955643e-13
-1.458458195558805e-13
8.433795114616514e-14
-3.3842171677232316e-15
-3.230749470342593e-15
1.44004789921593e-15
5.1749187388498955e-15
-1.9288267542832876e-13
-3.0361347153598665e-13
-4.602030721789659e-14
5.42516454182212e-13
8.477891458475067e-12
-3.329990644480388e-12
-1.3910218593704742e-12
-3.7568789546242044e-12
-3.208440722127861e-14
-3.187164151987453e-14
-3.2187692661040105e-14
9.614374140219327e-14
-3.3896245741430113e-14
-4.7617804438465174e-14
-3.519791684548122e-14
1.1671196702537645e-13
-1.5388633531773068e-13
-1.5838413161390794e-13
-1.3419944497811951e-13
4.4646991190975914e-13
-6.993197984889654e-12
1.090075252960067e-11
-1.183427795762641e-13
-3.789211765134809e-12
-1.8673368795114695e-12
4.8650129427061695e-12
-4.3854644533453594e-12
1.3877883901506409e-12
-8.121293635525402e-14
-7.875995181813186e-14
-4.286077742881718e-14
2.0283366560220338e-13
1.4486722630890356e-12
-6.375465995502687e-12
1.07962639292865e-15
4.925714106020766e-12
8.726409623591676e-14
-2.74487972708086e-13
-1.4852046060647755e-13
3.35744337078647e-13
-5.210303010402832e-13
-7.282930522318525e-13
4.875231385864892e-13
7.618002146856405e-13
-1.4394370959892582e-12
7.87115278631977e-13
-2.7794558304342515e-12
3.4317776477915336e-12
-2.4813069019588533e-13
2.3202471268997146e-14
-2.8709604742082303e-13
5.120242663477097e-13
-1.0284695394336101e-12
1.246262774350577e-12
-7.625529554552493e-13
5.447597205382806e-13
-4.942558890624044e-15
-5.311990870080069e-15
-4.941686781832986e-15
1.519623654253709e-14
-2.2935884237523025e-13
3.7050606148963357e-13
-1.9583231139289938e-13
5.468509227849531e-14
-2.321604654804913e-13
-2.7324308319417233e-13
-1.6458058031325514e-13
6.699841289879204e-13
-5.810774864222877e-14
-5.766484493265488e-14
-2.388767689596885e-14
1.396602704708526e-13
6.197131749874484e-13
-5.722481080213326e-12
7.513230894893165e-12
-2.4104629896672422e-12
-1.1791721279645574e-13
-2.0157364413472098e-12
2.683003065315825e-13
1.8653533476120825e-12
-4.657375441548966e-13
1.7168616946998043e-13
-2.445050056272355e-13
5.385563803121536e-13
-3.0042363334254114e-13
-3.12434306702907e-13
-2.9293822610658186e-13
9.057961661520315e-13
-1.4960395050600295e-13
-4.0547351663525127e-13
-1.8219717316468245e-13
7.37274640305936e-13
-2.292532872059985e-15
-2.073788931807484e-15
-2.3439801099526848e-15
6.710301913820154e-15
0.0
0.0
0.0
0.0
-2.546096369222934e-13
-1.6062794440659013e-13
-1.5667333979359403e-13
5.719109211224759e-13
-1.0967221374508984e-13
-1.1708897188920628e-13
-8.625474264742474e-14
3.1301592828172214e-13
-2.812723550385494e-12
-3.21483633010473e-12
-1.0081865335829975e-12
7.035746414073224e-12
-9.741252024313652e-14
7.946204119589827e-14
-7.42942809780683e-14
9.224476002530636e-14
-2.277989396208323e-13
-4.3292702623741776e-14
-6.265350351505523e-14
3.3374514575962933e-13
-1.5015832939515858e-14
-1.3500855191501825e-13
-1.1222485331688034e-13
2.622492381714144e-13
-3.0008647309314504e-13
-3.0142664429725953e-13
-1.3147277180589268e-13
7.329858891962971e-13
-1.929088780428972e-13
1.5714771529275606e-13
-1.8856881403356937e-13
2.2432997678371104e-13
-1.7996706503598178e-12
4.706298145167278e-12
-2.9235717189135857e-12
1.6944224106126024e-14
-2.654115267692193e-14
-3.179765172539034e-14
-3.495909497260108e-14
9.329789937491334e-14
-1.5312821457309616e-15
-1.4869251769763582e-15
-1.3838452651510742e-15
4.402052587858395e-15
4.1534948827806356e-09
1.799484276716595e-08
1.679361121901179e-08
-3.894194886895889e-08
-1.2680910878268084e-09
-2.298946003601834e-09
6.336441090145912e-09
-2.7694039987173138e-09
-1.1183929661780462e-12
3.124694356393928e-12
-1.1177490354312774e-12
-8.885523547846058e-13
0.0
0.0
0.0
0.0
-1.7450058499474137e-13
-1.2902578567740187e-12
-3.7088006374629655e-14
1.5018464481433896e-12
-1.088762819351002e-13
-2.151123698023051e-13
-1.5330073459788868e-13
4.77289386335292e-13
-7.26704705000454e-14
-1.4166213396905917e-13
-1.376053473991566e-13
3.5193795186826157e-13
3.4079095038469815e-14
4.126365700010284e-13
1.3460528355372597e-12
-1.7927685005767492e-12
-6.3119302717635656e-15
-6.309907768707979e-15
-6.368967360360964e-15
1.899080540083249e-14
4.003504945369516e-14
-3.5925099331390416e-14
1.374358434294928e-14
-1.7853534465254027e-14
-5.2397010222599645e-14
4.485648273599027e-14
-5.061872154480138e-14
5.815924903141072e-14
9.085730094976679e-13
-1.3556200077956098e-12
1.4448828617743021e-12
-9.978358634763718e-13
1.3291718443525358e-12
-3.3260637214466185e-13
-4.1397033907226127e-13
-5.825951331356152e-13
1.0316886492453799e-12
-1.808588397872494e-13
-3.0992094636706046e-13
-5.409088630910679e-13
-1.960199098203351e-14
-2.7388544320258523e-14
7.0703909003982966e-15
3.9920144401893684e-14
4.062687244461073e-13
-9.000249608236676e-13
-6.173411274398326e-13
1.1110973638173918e-12
3.987801999117853e-15
-3.426121647806686e-15
-3.5228645080749555e-15
2.961184156763788e-15
5.3246674976160855e-15
-1.5617062460236273e-14
1.0016415550599707e-15
9.290753407560209e-15
-1.649621647945113e-13
-4.919550677468745e-14
-9.070263382649003e-14
3.0486030539568697e-13
-2.8099470813786508e-14
-4.167715964447843e-14
-2.93320668255932e-14
9.910869728385815e-14
-2.277989396208323e-13
-4.3292702623741776e-14
-6.265350351505523e-14
3.3374514575962933e-13
-2.6853196111949156e-14
-3.47204608730498e-14
-4.9356965497235034e-15
6.650935353472233e-14
-4.644509312996722e-14
-6.038525456043354e-14
-3.338476613056659e-14
1.4021511382096731e-13
-3.642947694935771e-14
1.9422781813219692e-14
-8.958481326078554e-14
1.065915083969235e-13
0.0
0.0
0.0
0.0
-2.292532872059985e-15
-2.073788931807484e-15
-2.3439801099526848e-15
6.710301913820154e-15
2.474524184124021e-13
-7.430525274469368e-13
6.328679724706717e-13
-1.3726786343613738e-13
-5.23602027042315e-14
-8.251771407455906e-14
-2.4152992005652896e-14
1.5903090878444338e-13
-3.789288215755991e-14
-3.684846179130088e-14
-3.8379708130092256e-14
1.1312105207895309e-13
-2.694769929606006e-13
9.65008700304378e-15
5.137594535911319e-14
2.084509605984453e-13
-9.64620185330533e-14
-1.0436149359556497e-13
-7.288512281823708e-14
2.7370863494685597e-13
-4.2636819850800023e-14
-9.497063325840346e-13
-4.293642167107231e-13
1.4217073691455546e-12
1.2504310438868717e-14
-2.4782350108311504e-14
-1.2164217397773768e-14
2.444225706721659e-14
0.0
0.0
0.0
0.0
-1.769604089702731e-14
-3.002536313143802e-14
-1.0493455845668345e-14
5.821485987413372e-14
-4.878631026887237e-15
-4.905500876598759e-15
-4.964144666640243e-15
1.474827657012625e-14
2.181477694803422e-14
-2.4421669917191697e-14
-2.5374224211884338e-14
2.7981117181041847e-14
0.0
0.0
0.0
0.0
-1.0959965941097302e-13
-2.5783142649388903e-13
-1.8083052361291929e-13
5.482616095177798e-13
-4.000429109502984e-14
-1.476420901413614e-13
-1.366649551763063e-15
1.8901303078815405e-13
-6.3448890608446e-13
-3.0534281052791524e-13
1.4892383202361773e-12
-5.494066036238078e-13
4.195762191250996e-13
-6.270295604874735e-13
-3.6685742703911875e-13
5.743107684014949e-13
-1.7544649829473395e-13
7.203283230999903e-14
-1.4424999573390514e-13
2.476636617186391e-13
-2.1485902813173624e-13
-3.420331849530004e-13
3.105424765207378e-13
2.463497365639989e-13
-2.973749156112236e-14
-2.437597629561634e-13
2.6292809802954954e-13
1.0569156487733396e-14
-3.4218726657598943e-13
1.9627408965529505e-14
-3.3122982986112634e-13
6.537896874715874e-13
-9.672327398314074e-14
8.018539730176593e-14
-7.352802689648066e-14
9.006590357785526e-14
-6.892462599957694e-16
-7.233561058676972e-16
-7.662540815876376e-16
2.1788564474511043e-15
-3.6254714951793764e-14
-6.825314285422163e-14
-5.3261238426132175e-14
1.5776909623214743e-13
-7.383426217910056e-15
-1.527519255337786e-13
1.0788428062774694e-15
1.5905650894541115e-13
-3.0008647309314504e-13
-3.0142664429725953e-13
-1.3147277180589268e-13
7.329858891962971e-13
-1.419526373173712e-13
-1.1143330975219413e-12
2.7499434193248266e-13
9.812913929068371e-13
-1.6716035785533686e-13
-4.109337622485178e-13
-1.2122487780285165e-13
6.993189979067073e-13
-1.5040054963383495e-14
-1.54042996332607e-14
-1.5251676815484083e-14
4.569603141212827e-14
-1.2036856128567786e-13
1.1859614244132377e-13
-1.1277569112282914e-13
1.1454810996718306e-13
1.1356876612439344e-12
-2.7078881819094256e-13
-2.3130608416240036e-13
-6.335927588905858e-13
-1.1982877696347565e-14
-1.3214619322553288e-13
-1.0938952126604976e-13
2.5351859218793026e-13
-3.0329552431682815e-15
-2.8623586894853886e-15
-2.8353320508306136e-15
8.73064598348429e-15
0.0
0.0
0.0
0.0
3.270988917284795e-14
-2.631998920033168e-14
1.7367587956870456e-15
-8.1266587682033e-15
-4.375310444920785e-13
1.5071672268864748e-12
-1.0806858765664631e-12
1.1049694172074222e-14
-2.408428429671244e-13
-3.93512025638048e-13
-3.0388311750800956e-13
9.382379861131862e-13
-3.752854313134286e-13
-6.849573487929871e-13
1.5802015684521962e-13
9.022226232611923e-13
2.6229179652628204e-13
2.0741720833565493e-14
-1.4161852734998805e-13
-1.4141499000985927e-13
0.0
0.0
0.0
0.0
7.439279830150884e-13
1.1069441598596184e-13
2.853278397884121e-14
-8.83155182979883e-13
2.43418804307966e-13
5.091978167219205e-13
-3.097794213311563e-13
-4.428371996987264e-13
3.4940886758062443e-13
-5.87882163675759e-13
-1.4530979952412735e-13
3.837830956192626e-13
-1.7525844414738257e-13
-2.2069650010082716e-13
-5.647872334837472e-14
4.52433667596585e-13
2.7604114320416027e-15
-1.583558308523481e-13
-1.1568135968584974e-13
2.712767791061564e-13
3.1185607792694245e-12
-7.262256010175428e-13
-1.1504775102544033e-12
-1.2418576679974662e-12
1.0260887765457816e-13
-4.6074914340413207e-14
-2.6146445943471187e-14
-3.038751737069382e-14
0.0
0.0
0.0
0.0
1.279217710939665e-13
-1.46995678769594e-12
7.200816121674507e-13
6.219534044345287e-13
-3.208440722127861e-14
-3.187164151987453e-14
-3.2187692661040105e-14
9.614374140219327e-14
3.8687315608759013e-13
-2.5443023805186603e-13
7.504533264940221e-13
-8.828962445297485e-13
-3.3842171677232316e-15
-3.230749470342593e-15
1.44004789921593e-15
5.1749187388498955e-15
-5.0969073097674604e-14
-2.7770222965920995e-13
-7.455523813069466e-14
4.0322654088757846e-13
2.611787659941893e-14
-5.812724247071466e-13
6.448702047888421e-13
-8.971565668111839e-14
1.2490592549808799e-12
-2.239116332005541e-12
8.79202520946981e-13
1.1085455607768032e-13
7.40773758021471e-13
-4.70102236524985e-13
-2.4241549699985527e-13
-2.825602449663038e-14
9.77522724363161e-14
-1.8028288775937699e-12
9.078770228957703e-13
7.971995822616854e-13
-2.8198266002941573e-15
-2.8446115416329476e-15
-2.7876511529720252e-15
8.45208929489913e-15
-2.2530729892197819e-13
-2.597021695828135e-13
-1.5000970373184004e-13
6.350191722366332e-13
-2.8162324034430375e-14
-3.564288343820818e-14
-1.7334263021052712e-14
8.113947049369116e-14
-4.942558890624044e-15
-5.311990870080069e-15
-4.941686781832986e-15
1.519623654253709e-14
-2.980911007769891e-14
-2.9610668543110026e-14
-2.488432575606781e-14
8.430410437687668e-14
-4.391483677169396e-13
-3.3689312550893163e-13
-4.3194972230096806e-13
1.2079912155268446e-12
6.235795474916443e-13
-6.580027728191461e-13
1.6330242796015087e-13
-1.2887920263265093e-13
-2.4829364709590557e-13
-5.2002535394725e-13
-1.8916655190133486e-13
9.574855529444948e-13
1.7391140255585308e-13
-2.5748570024275776e-13
5.508444089272634e-13
-4.67270111240361e-13
-1.803323652645499e-14
-2.991018139790036e-13
-1.3764391990488474e-13
4.547789704103443e-13
-1.1041258543171661e-13
-5.51764914581453e-13
-3.6999346407469466e-13
1.0321709640878679e-12
7.853442934643773e-14
1.1576472427687496e-12
4.904655660925479e-13
-1.7266472382077194e-12
6.338787287932506e-13
5.00374143952488e-13
1.2441893656464783e-12
-2.3784422383922195e-12
8.355635047690106e-13
3.9581508507552586e-13
-1.2084059958162744e-15
-1.2301701838487183e-12
1.529522558310826e-13
-7.440893593048804e-14
-3.644713839552558e-14
-4.2096181505068805e-14
9.123702283870315e-14
4.2066600711568195e-13
-2.886018176434e-13
-2.233012123109849e-13
-2.9857718629956163e-13
5.82619931718498e-13
-1.232801278243846e-13
-1.6076261759455327e-13
4.3752681086384434e-14
4.028230853118411e-13
-2.1503833317478543e-14
-4.2507193308074636e-13
7.668005708969163e-13
-3.258911239567942e-13
-3.7914498593336106e-13
-6.176446100676504e-14
-1.8786539730262697e-12
3.3094823852607364e-12
-6.783369773917697e-13
-7.524914348427027e-13
-1.45427428214748e-13
-2.7331602505680386e-13
5.319050444680724e-13
-1.131615911965223e-13
6.972749759380755e-13
-2.099083076188758e-13
2.6779025126711883e-13
-7.551569195863228e-13
1.7330914479848337e-13
-7.52155822521907e-13
9.361919020470441e-14
4.852274875187117e-13
5.715036227583173e-14
6.482328990572696e-13
-5.666803965538649e-13
-1.3870286477924058e-13
5.388265463134784e-14
-1.6218698173855339e-13
-6.194067973037359e-14
1.7024500683757854e-13
-7.646907712532737e-13
-1.4217890621108548e-13
9.396004764953986e-13
-3.2730799031038973e-14
-3.515017682815544e-13
-4.726488451816029e-13
-2.354190096282727e-13
1.059569623091435e-12
-1.4940767128312105e-12
1.3556413778557856e-12
-6.250787826460594e-13
7.635141176214889e-13
-1.4698265860774724e-14
-1.6151786214232913e-13
7.754278657208164e-16
1.7544070013738323e-13
6.845652800987031e-13
-4.964361985943262e-13
-1.348869831878582e-13
-5.324209831651904e-14
-5.791600397446641e-14
-6.435028878382346e-14
-4.67437109641708e-14
1.6901000372246054e-13
7.814163881779314e-13
5.988637695192293e-13
-7.251542572252209e-13
-6.551259004719399e-13
-4.1111470579257e-14
5.024399705929664e-13
-2.561484725892308e-13
-2.0518002742447771e-13
-8.842106754289508e-13
-9.936585345717584e-13
2.544326401938047e-12
-6.664571919373317e-13
9.91375440345262e-14
-1.0623761120729576e-13
-7.81489824955472e-14
8.524904966831688e-14
-1.9926178030702766e-14
-1.872067413337733e-14
2.3052306793119976e-14
1.559454537096013e-14
-2.1167436360196986e-13
-2.0532419528563375e-13
7.526498889852511e-13
-3.3565133009765057e-13
0.0
0.0
0.0
0.0
-1.7475250368088004e-12
3.768154121205496e-12
-4.390311081142507e-13
-1.5815979762824669e-12
-3.0140354019589496e-12
4.516014657382707e-12
-1.1349009950176104e-12
-3.670782604061477e-13
1.61170720808588e-14
-1.2820171565651554e-13
8.990683844367006e-14
2.2177805131987048e-14
-2.1740863959520192e-13
-1.317797176855586e-13
6.618382029429352e-13
-3.1264984566217137e-13
-2.3421141449430254e-13
-6.396184385288206e-14
-4.789348241947111e-14
3.460667407666551e-13
-1.929088780428972e-13
1.5714771529275606e-13
-1.8856881403356937e-13
2.2432997678371104e-13
1.1566664656534718e-14
-8.787932105234091e-14
-6.120555666421914e-14
1.3751821306002577e-13
-3.3896245741430113e-14
-4.7617804438465174e-14
-3.519791684548122e-14
1.1671196702537645e-13
1.1174951587757737e-13
1.3647584628829768e-15
2.0806431210324935e-13
-3.211785864437101e-13
-2.616724394819291e-14
-2.0199190077864377e-12
9.44117828760466e-13
1.1019684229741675e-12
-2.455681425579333e-13
1.2467896371273388e-13
-1.2180149314437725e-13
2.4269067198957616e-13
-2.5537364684549634e-13
-3.6162774083447905e-13
2.178373043584921e-14
5.952176572441281e-13
0.0
0.0
0.0
0.0
-1.3149109283631677e-13
-1.5371790929826858e-13
-1.2050111138093035e-13
4.0571011351551486e-13
-1.1599345316017168e-13
-1.2153566982260698e-13
-9.581973684802723e-14
3.3334885983080584e-13
-2.2935884237523025e-13
3.7050606148963357e-13
-1.9583231139289938e-13
5.468509227849531e-14
-7.73308176554248e-14
-2.7745071612731533e-13
-1.7476061584438702e-13
5.295421496271305e-13
-1.2890209203797295e-13
-1.7699166643677802e-13
-2.756412154580442e-13
5.815349739327935e-13
-6.079029392438425e-14
-2.6249538802837985e-13
5.802443830196232e-14
2.652612436508017e-13
-7.666797064924889e-14
-2.341378421543648e-13
-9.046658047704642e-14
4.01272393280659e-13
-5.810774864222877e-14
-5.766484493265488e-14
-2.388767689596885e-14
1.396602704708526e-13
3.973907898766545e-13
-5.014221596481066e-13
5.140930265378623e-13
-4.100616567664138e-13
0.0
0.0
0.0
0.0
1.0103449095298191e-13
-7.755271826411944e-13
3.7602893704573023e-13
2.9846375464248295e-13
-2.9485852953046077e-15
-2.6302798021207597e-15
-2.8988701896087255e-15
8.477735287034096e-15
4.853685990182741e-14
4.733145146740161e-14
-6.039904164654443e-13
5.081221050962132e-13
-7.947522787221308e-14
-9.082662206476343e-14
-3.2627918186567805e-14
2.029297681235448e-13
-1.1652783965182903e-13
-2.28876326573342e-13
-9.066674167119706e-14
4.3607090789636563e-13
1.6444747716004893e-12
1.7996424137224116e-13
-1.3742955860559737e-12
-4.501434269167499e-13
1.6959332503323952e-14
-1.2020849835538386e-14
-1.3919879686783093e-14
8.981397018997534e-15
8.809037987451921e-13
-5.430367781094551e-13
-4.657398690943225e-13
1.2787284845858747e-13
3.297037519587269e-13
-3.312159419595618e-13
-1.7192339479190222e-13
1.7343558479273665e-13
-1.6183461931923748e-13
-2.593060320893886e-13
-1.3789370202694842e-14
4.3493002161131953e-13
-3.0042363334254114e-13
-3.12434306702907e-13
-2.9293822610658186e-13
9.057961661520315e-13
0.0
0.0
0.0
0.0
1.477838725956642e-13
-4.3645064748480497e-13
-5.881231705400702e-14
3.474790919431485e-13
-3.694805596131403e-15
-2.6544999063793088e-14
-2.2047011915241035e-14
5.228681657516558e-14
-1.5312821457309616e-15
-1.4869251769763582e-15
-1.3838452651510742e-15
4.402052587858395e-15
-4.719864808956666e-13
-2.194403878579664e-14
3.829201255243048e-14
4.55638507129031e-13
-8.62794716022028e-14
4.339149237808421e-14
-7.376537205157962e-14
1.1665335127569827e-13
-1.5774236268873955e-13
-2.935396508064342e-13
-1.1103490516290817e-13
5.623169186580814e-13
-2.2669604503633353e-13
-2.9543324521408453e-13
2.0960858025231708e-13
3.12520709998101e-13
1.459084137671043e-13
-3.5475083760260933e-13
3.292697032542335e-13
-1.204272794187288e-13
-5.47605791032827e-13
1.1383873902709723e-12
-3.0693903199773957e-13
-2.8384256724041174e-13
-2.813458117474541e-13
-4.4032063541473084e-13
-2.402352473908383e-13
9.619016945530227e-13
-1.978201842752646e-13
-7.544397678080213e-13
-3.5059684083693806e-13
1.302856792920221e-12
-1.3210195212036657e-14
-1.2727478293641314e-14
-1.3369619829187579e-14
3.930729333486555e-14
-7.837007530084777e-14
-1.9196391476533118e-13
-8.805400810769143e-14
3.583879981738696e-13
0.0
0.0
0.0
0.0
-4.460376010465378e-13
7.489666398441224e-14
-6.831051518635036e-13
1.054246088925633e-12
0.0
0.0
0.0
0.0
4.32450691795551e-14
-7.707408304110134e-14
6.11406343767898e-14
-2.731162051524368e-14
-7.612902072544219e-14
-7.408809253651293e-14
-3.7700675420769595e-14
1.8791778868272477e-13
-5.083915629811961e-15
-4.67185928161885e-15
-5.16010200804764e-15
1.4915876919478458e-14
-1.0888038658679342e-13
-1.0507798041288458e-12
-4.202646461528849e-14
1.2016866553309323e-12
-1.1007131716264382e-13
-1.8942945457716486e-13
-6.570216589885997e-14
3.6520293763866956e-13
-1.5078957357773347e-14
-5.6160780877067106e-14
-5.4723693800691424e-14
1.2596343203553177e-13
-6.865201622350369e-14
-1.5757573888457255e-13
3.6861883155777873e-14
1.8936587195229842e-13
-9.455502435585387e-13
2.293853571756418e-13
-7.036859047773562e-13
1.4198507911602541e-12
-1.0799940084899593e-12
2.624470809408032e-12
-2.0075379884238636e-12
4.630611875057926e-13
-3.1414680315950227e-14
-1.688951442250878e-13
-6.489072054716513e-14
2.6520054508820297e-13
-3.975944506817304e-13
6.867274146618242e-13
-6.925566580003484e-13
4.034236940202607e-13
-4.0302680548117615e-14
7.884357853917445e-14
-3.687515127521832e-14
-1.6657467158385354e-15
-2.2691507687754625e-13
-1.324121278940291e-13
-1.1112735516639306e-13
4.704545599379697e-13
0.0
0.0
0.0
0.0
-1.1789873059276833e-13
-1.4680893802872957e-13
-1.1470552921736055e-13
3.7941319783885825e-13
-1.85171621391053e-13
7.119149390771875e-14
-2.0769054829999716e-13
3.2167067578333036e-13
-4.4405994301707753e-14
-6.717505573102393e-14
-5.769264912765104e-14
1.6927369916038278e-13
-3.5633951478620897e-13
-1.0113480122886532e-13
-3.124671020032958e-13
7.699414180183714e-13
-4.680614421414887e-15
6.234882064754058e-14
-5.30668542497287e-14
-4.601351976396983e-15
-1.770735814084264e-13
1.809132435920161e-13
-9.277896530615158e-14
8.893930312256212e-14
-7.542357495325728e-16
-6.839597175398287e-16
-6.935138892361857e-16
2.1317093563085875e-15
-7.780953641397338e-13
1.6155158034321836e-12
-1.4471316961622447e-12
6.097112568697887e-13
1.950109970507842e-12
-7.693012344517136e-13
-6.739452181863371e-13
-5.06863517869794e-13
-7.020414412387904e-13
-4.504290881206815e-13
2.949139451944415e-13
8.575565841650315e-13
1.3219427773542782e-14
-1.237671671108912e-12
6.031763128745415e-13
6.212759304608253e-13
0.0
0.0
0.0
0.0
-2.7925566048810397e-12
6.910832215147346e-12
-2.4906732030687195e-12
-1.6276024071975635e-12
0.0
0.0
0.0
0.0
2.0905941751323108e-13
-1.0168457409371373e-13
3.504494975080447e-13
-4.578243409275626e-13
-2.4052668992513997e-13
5.780679546158251e-13
2.617252757069239e-13
-5.992665403976087e-13
-2.654115267692193e-14
-3.179765172539034e-14
-3.495909497260108e-14
9.329789937491334e-14
-1.2739913336762904e-13
1.211802608858976e-12
5.448867768652365e-13
-1.6292902523565792e-12
-1.3492416099964067e-12
2.581614680899676e-12
-6.168809966147171e-13
-6.154920742885278e-13
5.661195494499724e-12
-5.27635856663337e-12
-6.627959394841732e-12
6.243122466975397e-12
-5.523230487772942e-12
-5.763625577557198e-12
-8.268507658190211e-12
1.9555363723520348e-11
-1.7236276661276873e-13
7.654872331346713e-14
-1.0671901655237699e-13
2.0253305985167855e-13
-6.228101447300033e-13
-1.5916288822529736e-12
3.1078591273609236e-13
1.9036531142468864e-12
6.661871563997909e-12
-1.88541927830318e-13
4.232145728584825e-12
-1.0705475364752464e-11
-1.3010440507940015e-12
2.3410525603846187e-12
-1.5677758519761232e-12
5.277673423854869e-13
-7.339394477827911e-13
1.9335723518807873e-12
-6.434473754543703e-13
-5.561855286436256e-13
-5.754616350102515e-13
8.565970892207349e-13
-1.8140208230092232e-13
-9.97333719095611e-14
-4.439395105275606e-13
1.1068297723427896e-12
-4.020545247289165e-13
-2.6083573708631977e-13
-1.1441824408755018e-12
3.6373093156141486e-13
-6.20187416479937e-13
1.4006389257940247e-12
-1.3439894210913295e-13
-1.078896411757791e-12
3.8740532384721677e-13
8.25890030019712e-13
-6.908649687939154e-13
3.172532563909959e-13
4.581796375909097e-13
-8.456792518798466e-14
8.986885285809576e-12
-1.9440274321828704e-12
-2.962513564983582e-12
-4.0803442886431434e-12
-4.5369241619578065e-12
-2.062239344461389e-12
6.8903850364714805e-12
-2.912215300523257e-13
4.4145471659813245e-12
-2.9047968620495215e-12
1.6156837968421625e-12
-3.1254341007740043e-12
1.1759028832403156e-12
-3.0776069018766592e-12
1.9418780860237034e-13
1.7075162100339506e-12
7.275015655600112e-13
-8.031768282642113e-13
1.5268064355799207e-13
-7.700538085378737e-14
-3.863431076915106e-12
-3.2738509835997852e-12
-1.2743359111689257e-12
8.411617971683816e-12
-2.7171491784666184e-13
-2.993625059011399e-13
2.628719467816965e-13
3.082054769661069e-13
-5.013618761996952e-13
-6.372272836692088e-13
-5.387986495667531e-13
1.6773878094356657e-12
-4.833152908581032e-13
-5.413379739314677e-13
-2.578840269065862e-13
1.2825372916961495e-12
-2.0844515076775426e-13
-3.65798857582332e-13
-1.298869935304911e-13
7.041310018805802e-13
3.250206678740969e-13
-3.410790832007999e-13
-3.989414532104543e-14
5.595256064774941e-14
-5.542999587702717e-14
-4.1688381503959697e-13
-6.930876616629985e-14
5.416225770829196e-13
-3.441979246051636e-13
-3.1059571918811326e-13
-1.859729574837658e-13
8.407666012770415e-13
-1.27990149392045e-12
4.881516990811031e-13
-4.794716641249664e-13
1.2712214589642992e-12
-2.042922125364895e-13
-2.275234218020234e-13
1.478299556620016e-13
2.839856786765101e-13
-2.6845493517836984e-13
3.38232329608273e-14
-2.247696515800668e-13
4.594013537976086e-13
-5.21591518169755e-13
-5.438655097986618e-13
-2.9752548735192393e-13
1.3629825153203435e-12
-1.1232583708444202e-12
2.24629623150396e-12
-1.0084259695541343e-12
-1.1461189110541383e-13
-1.3558859609592379e-12
2.8425294773103577e-13
-1.2196184694184546e-12
2.291251482646659e-12
-6.663734685722292e-13
1.5314817219535867e-13
-5.028063866207515e-13
1.016031682997623e-12
3.519503191763625e-13
6.760525665006398e-13
-1.2272472720968682e-12
1.9924438641985282e-13
-3.91552696385364e-13
-3.910267504734573e-13
-6.490953543689596e-14
8.474889822957166e-13
-5.193296199278678e-13
-4.749939172219479e-13
-4.000947839999304e-14
1.0343330155498054e-12
-1.2176165888149783e-13
-2.1871488453182022e-13
2.1521714056394394e-13
1.252594028493738e-13
-9.55086761941242e-13
3.6969338457677204e-13
-6.343982940003889e-13
1.2197916713648649e-12
-2.673837261848615e-13
-3.1349425408575275e-13
-2.554774576842696e-13
8.363554379548857e-13
-3.3195912883380456e-13
-2.6782395843067324e-13
-2.2855172954254893e-13
8.283348168070272e-13
-3.209816026631553e-14
-1.0853507064046169e-13
-1.9192957796430212e-13
3.3256280887107924e-13
-1.0013988733023702e-12
-7.660538144798658e-13
-8.204460639251151e-13
2.5878987517073327e-12
-4.140305807858855e-13
-3.834465134790627e-13
-3.3879564163976723e-13
1.1362727359047139e-12
2.003509013028394e-12
-2.466401246795422e-12
-9.251772591767253e-13
1.3880694929437708e-12
1.5398465901283184e-13
-2.473354215516764e-13
-1.4841762542419485e-13
2.417683879630386e-13
-1.0316227175959768e-12
7.408136976447619e-13
-9.859051109661818e-13
1.2767141309173935e-12
-9.145498026564114e-13
3.006222225731481e-13
-8.447402333592613e-13
1.4586678134425283e-12
5.645319417788031e-15
3.84516049209937e-12
-2.842848234862488e-12
-1.0079575766546616e-12
-3.367331840747155e-13
-3.924304026219971e-13
-2.6645330936749644e-13
9.956168960642076e-13
-4.905182184278041e-13
-2.588031128876292e-13
-3.232861857935338e-13
1.0726075171089661e-12
-9.931195339775769e-15
-1.0958381533710096e-13
-6.173624664344042e-14
1.812512573203169e-13
-2.323077586651953e-12
1.425138581203684e-12
-1.0730933342325265e-12
1.9710323396807935e-12
-2.6935412893531045e-12
-5.592571975160973e-12
-3.2597009747451788e-12
1.15458142392593e-11
1.6891975572437214e-07
-2.518768105356627e-07
-2.047535416305823e-07
2.8771059644187027e-07
1.4411898772652268e-11
-1.323947365167036e-11
-4.3275189261310427e-11
4.2102764140328355e-11
-1.826510986486103e-11
1.6344751228819915e-12
2.8066204585981524e-11
-1.1435569844002536e-11
-1.219759019062205e-12
1.7606496204295823e-12
7.720920860473482e-12
-8.261811461840846e-12
6.127317167633376e-11
-3.8892550574831026e-11
-1.153305523946328e-10
9.294993129313036e-11
7.597278194225401e-12
-8.481935285132046e-12
-9.645792150870132e-12
1.0530449241776751e-11
-5.3780636882483835e-12
3.587525494487272e-12
3.669045180260218e-12
-1.8785069864991463e-12
-6.524780565911638e-14
5.940480000293394e-14
-1.1242904090466224e-14
1.7085909746648574e-14
9.48160969079265e-15
-1.7646347699261483e-13
-8.62432470347121e-14
2.532251143365334e-13
-1.5319987599539254e-12
-1.055211251902479e-12
-4.750496832390695e-13
3.0622596950954767e-12
-1.2459224645504358e-14
5.131789589222076e-15
-2.288527993911857e-14
3.0212714995400854e-14
3.235570691374921e-13
-2.0252261704947663e-13
-3.367980736439164e-14
-8.735464472362444e-14
-6.2612903866611805e-15
-5.775865642607363e-15
3.693845835427005e-15
8.343310193841544e-15
-3.058444395337852e-13
-6.095831494347855e-13
-7.846008957526942e-13
1.7000284847212773e-12
-1.0690880420668134e-14
-5.668750968456897e-15
-8.408421480386036e-14
1.0044384619298528e-13
5.752357050906371e-15
-1.7952556051933767e-14
1.4447805234547083e-15
1.0755418477572689e-14
-8.828507159466327e-12
8.512866068654252e-13
3.3399799038829204e-13
7.643222562212644e-12
-1.170716319370134e-12
-1.2138854890522121e-12
-2.635441948324852e-12
5.020043756747176e-12
-4.1725937773648684e-14
-4.886477224895278e-14
-3.908297468860643e-14
1.2967368471120833e-13
-1.7788387253148942e-13
1.1067457478404654e-13
-1.9583782759595636e-13
2.630471253433987e-13
-1.2447471364796257e-13
7.582334887441575e-14
-1.3999008634505373e-13
1.8864145111859918e-13
5.476985346329579e-13
-6.587713938365441e-13
-5.112395947646861e-13
6.223124539682702e-13
1.7298625898483197e-12
-6.107272412326172e-13
-8.158717554590153e-13
-3.0326359315669553e-13
3.79403998368841e-14
-4.462042100824001e-14
1.8210145395078187e-14
-1.1530124223722209e-14
2.247849193429799e-14
-3.107501676872274e-14
-3.583902205100828e-14
4.443554688543313e-14
9.560972735840443e-14
-1.237762739680944e-13
-2.0536297804681846e-14
4.870284441437194e-14
2.042814151694365e-13
-3.127809484891013e-13
-2.1738250863811083e-13
3.258820419577768e-13
4.94243120137601e-13
-1.0556836225145202e-12
-4.345899154504309e-12
4.907339656881217e-12
2.6851710165718e-15
-2.7981998094691857e-14
1.1669111052143434e-14
1.362771602597659e-14
3.182183387157359e-14
-1.4559446066201838e-13
5.619289531047484e-14
5.75797314799701e-14
2.7188607055575652e-14
-8.996135479727098e-14
-5.660306454916647e-14
1.1937581229086154e-13
1.0402062257460577e-12
-4.51805361160522e-13
-2.4282464826472853e-13
-3.455762163208033e-13
-5.547446435093658e-14
-3.2345260946120564e-14
8.136415207826132e-15
7.96833100892308e-14
-8.205367896283493e-14
2.100307547456285e-13
-8.649211374414023e-14
-4.148496203865356e-14
1.6968719574163798e-14
7.295672614208262e-14
-5.72180446141233e-14
-3.270740110212312e-14
-1.4155221371457318e-15
-1.4059011430195115e-15
-1.4325971646992846e-15
4.2540204448645285e-15
5.852979002650224e-15
-1.0037040643319844e-14
-1.0157714688866206e-14
1.4341776329535818e-14
2.5149010660261454e-14
-8.061055319571698e-14
1.427426494535171e-14
4.1187277590103687e-14
-3.0639224670557733e-15
-2.1418725809035334e-15
1.8984027405295313e-15
3.307392307429776e-15
-4.154332683214834e-13
5.80428501778044e-14
-3.1467234707018807e-13
6.720627652138631e-13
-3.58188839960557e-14
5.825837457004836e-14
-9.843846168943708e-15
-1.2595644405048937e-14
1.1339562051253469e-13
-9.391760713605093e-14
-1.3291489326586715e-14
-6.186524049896755e-15
2.4798931745789307e-14
-1.412071313685162e-13
1.3417411140709052e-14
1.0299078848201805e-13
4.4042680011807296e-15
-3.419127973386917e-15
1.3663376648164692e-15
-2.3514776926102805e-15
4.5178055879300144e-13
-2.9006084223703815e-13
1.6607773834486394e-15
-1.6338049393941054e-13
-1.2812029884120815e-13
-6.332459398964371e-13
-1.5698486586385275e-13
9.183511046014955e-13
-1.927561707785878e-15
-2.3115756300579667e-15
3.0173209781714237e-15
1.2218163596724204e-15
-5.743776180759193e-13
-4.0164491055616923e-13
4.3495870077272094e-13
5.410638278593684e-13
2.0528216748380055e-13
-5.237453824436378e-14
2.0844126414324765e-14
-1.7375175565376254e-13
1.8065140574098564e-13
-2.4129548427279722e-14
-1.7834590919484702e-13
2.1824051881141404e-14
3.102696698550522e-14
-3.5485368733907255e-14
-1.9955943327843218e-15
6.453996081186405e-15
-1.265872321899642e-14
-3.725596776649601e-14
6.3341130194891535e-15
4.358057796600326e-14
4.570182736124168e-14
-2.597027727881387e-13
-3.6257586340981984e-14
2.5025853176787933e-13
-3.102739862691991e-13
-2.3902328812119215e-13
-4.916520530178638e-13
1.040949327408249e-12
3.114815352048525e-14
-7.36256625800996e-14
-1.9667210197954557e-14
6.214471925756881e-14
1.0323120984644744e-12
-1.0349523677233276e-12
-5.684308469081773e-13
5.710711161670206e-13
5.963760488849047e-13
-7.025223396709269e-13
-2.900654059816255e-13
3.9621169676764924e-13
-2.1265974173110868e-14
-1.3430870816389722e-13
5.270769845768743e-14
1.0286698387932055e-13
2.2875213133895315e-14
-4.205351353059184e-14
1.7390048722843067e-14
1.788251673853486e-15
-1.8817160572625097e-13
2.1401665625115285e-14
-1.2101827476918014e-13
2.87788214870316e-13
-6.639287279214148e-15
-1.341150454090027e-13
1.146950340800391e-13
2.6059298608178012e-14
1.251856538859416e-13
-3.708088242273898e-14
-1.037183941644326e-13
1.5613622701230424e-14
-1.66357227121652e-14
9.893337775060146e-14
-2.3070392820520205e-13
1.4840627316676626e-13
6.619274065501337e-14
-7.532654164523097e-14
-8.214647969908255e-15
1.7348448960125837e-14
1.5828955591792138e-15
-2.8360595841805263e-14
-5.003673768269579e-15
3.17813740508956e-14
-7.393871428268726e-14
-5.019418691512541e-14
-5.951736939532782e-14
1.8365027059313997e-13
-2.128163702617132e-15
-3.4782497288262734e-14
-9.763792065375181e-15
4.6674453056255045e-14
9.705029375567758e-14
-4.885243988340787e-14
-9.833055894613451e-14
5.0132705073864665e-14
-1.4105501099788074e-14
-2.968661306760674e-14
3.888745198578205e-14
4.9046621816128205e-15
-1.9583511217001327e-14
1.0620588705272226e-13
-8.118746900989487e-14
-5.434906825826016e-15
-7.212722342475498e-16
-6.390686828787146e-16
-7.287663205104216e-16
2.089107237636686e-15
-3.232162931266304e-14
6.116344235445262e-14
-1.652723520391953e-14
-1.2314577837870072e-14
1.5648996519207424e-14
2.7285069244367293e-14
-1.8616349106689182e-14
-2.431771665688556e-14
8.354125926629364e-16
-5.2383899370369985e-14
-5.173004319617699e-15
5.672149109732464e-14
-6.873748879534833e-15
-3.383593119689742e-14
1.7457175708540163e-14
2.3252504367892016e-14
-1.6003155777637388e-14
-1.007483219577783e-13
6.337018464874371e-14
5.3381293086671923e-14
1.0425075227415974e-14
-4.0699665445767094e-14
2.7499427078944512e-14
2.775163139406563e-15
2.6543376944504583e-14
-6.051797420722513e-14
1.6407893689987582e-14
1.756670357273293e-14
-1.543797308667294e-14
1.3343512327792528e-13
-1.3774144938167894e-13
1.974429919042695e-14
-3.533999086688575e-14
3.67153761132515e-15
1.9077546485406502e-14
1.259090677015412e-14
-3.022564919204196e-14
7.45973064559954e-14
-3.7147926584784425e-14
-7.223730679168938e-15
2.603624606679488e-14
3.507563909694588e-14
-6.652762455065193e-15
-5.44591227086755e-14
6.651610940585325e-14
-8.65606586913619e-14
-6.674121523993878e-14
8.678576452544722e-14
-4.1020127357174685e-13
-1.0354790757669864e-13
4.1381917590706905e-13
9.99300052413756e-14
-7.082529878776587e-14
-3.382446862818431e-13
-3.2068365976004887e-16
4.0939066872936963e-13
-1.8891609883024904e-13
2.943742739302679e-13
-1.7153945009978697e-13
6.608127499976801e-14
6.321110999746785e-14
-1.774015504886867e-13
-1.719248065152359e-13
2.8611524700645313e-13
3.549782188489766e-14
-2.771975336465865e-13
-2.3197416025004107e-13
4.736738720117334e-13
1.630334844295205e-14
-1.0614401602636363e-13
2.959115158221923e-14
6.024951600119252e-14
-1.720005969137746e-14
1.0039429335694671e-14
-1.5711447158076632e-14
2.2872077513759457e-14
2.757537448815711e-14
-1.4602063487536786e-13
1.3122124366847177e-14
1.053231360203634e-13
-3.607562197497526e-13
-3.6881624923992527e-13
2.2606373052707293e-13
5.035087384626045e-13
-1.8835221765421763e-14
-1.170596739900005e-13
5.4988981289211404e-14
8.090591446621054e-14
-2.139101698834525e-13
-3.5083671145390013e-13
3.1042934416829136e-13
2.5431753716906274e-13
1.7404750891482926e-13
-2.695169168636577e-13
5.623624132703084e-14
3.923316662179817e-14
-1.2224453953142743e-13
-2.1761461917958814e-13
-1.4414958693423493e-13
4.840087456452492e-13
6.131865070414597e-14
-1.268219446233533e-13
9.39431049479247e-15
5.6108983424415144e-14
-5.704931677878941e-14
1.5746995750067286e-13
-5.422246946882085e-14
-4.619817125306253e-14
-2.1776541936583936e-14
-2.3082191156088693e-14
-7.517569216105595e-15
5.2376302308778255e-14
2.7197028484210254e-15
-1.2731458260699392e-13
-3.1342997309438275e-14
1.5593787706801068e-13
1.7359490518741147e-15
-6.19597125778233e-15
3.6248834977743244e-15
8.351387081338929e-16
-2.8194438310492217e-15
-1.1186138062416815e-14
8.360798462058209e-15
5.644783431407821e-15
1.1585425509059469e-14
-6.184454055974242e-14
4.1825072579340156e-14
8.434042471342745e-15
-1.405651131176175e-15
-7.509418796324976e-16
3.2293332161831846e-15
-1.0727402053745116e-15
0.0
0.0
0.0
0.0
-3.273126379199269e-14
6.974673090286523e-14
-1.866639716960634e-14
-1.8349069941266155e-14
9.294087528046955e-14
-9.220390862726949e-14
2.5729122526166934e-14
-2.6466089179367078e-14
0.0
0.0
0.0
0.0
1.0664562626088637e-12
-6.673151078311132e-13
-3.672163210286075e-13
-3.1924833749143846e-14
-6.670706365504727e-14
1.6539652047244842e-13
-5.14591588215652e-14
-4.7230297995835977e-14
3.508368827523178e-14
-3.272673083707828e-14
-9.804068542182929e-15
7.447111104029421e-15
-1.7086000081658505e-13
-6.361527836116902e-14
5.448218605487723e-13
-3.103465813710207e-13
-3.351072420292827e-15
-3.218919282280933e-15
6.343386821755281e-15
2.2660488081847744e-16
2.3955230080788893e-13
-3.249180160640503e-13
2.7320885533635125e-14
5.804482972252606e-14
-5.000998483119299e-15
-1.123189084654316e-14
-3.7451339054908145e-15
1.9978023235153276e-14
-2.8651656486887514e-14
-9.086327354903939e-14
5.739155801345641e-14
6.212337202247079e-14
5.9924521162448834e-15
-2.5930925396492725e-15
-2.0513580976513254e-15
-1.3480014789442867e-15
5.5927714762880493e-14
2.932368642454261e-14
-5.527993705453554e-14
-2.997146413288762e-14
-3.33478160389888e-14
-3.117714113979115e-15
8.546506580485321e-14
-4.89995356518851e-14
-6.839379122413575e-16
-8.747225477149077e-16
-7.379568004100961e-16
2.2966172603663615e-15
1.1795371821953063e-14
-5.080908361652508e-15
-3.7277618963313914e-15
-2.9867015639691583e-15
9.188764704737026e-15
-4.8472288182480195e-15
-1.965479985957434e-15
-2.3760559005315717e-15
8.159998886512456e-15
-6.729885249552149e-15
-6.953507597794289e-15
5.523393960833982e-15
9.60307637917313e-15
-2.0938359791500348e-14
-7.846309017281386e-15
1.918159242960864e-14
-1.6085295711074745e-14
6.320345704166761e-14
-2.893032029649021e-14
-1.818784103410267e-14
0.0
0.0
0.0
0.0
2.7328706947700865e-15
-1.2595826947158124e-14
1.173276994191752e-14
-1.8698136895294796e-15
0.0
0.0
0.0
0.0
2.8123025229503258e-14
-1.8202087273090702e-14
-9.205918090196238e-15
-7.150198662163495e-16
-6.957413396298968e-16
-7.145089366991679e-16
-7.415928029358282e-16
2.151843079264893e-15
1.545426200231585e-15
-5.930302349325268e-15
3.235040285466075e-15
1.1498358636276044e-15
0.0
0.0
0.0
0.0
1.937626353927857e-14
-1.181563079045336e-14
-1.4685799683418295e-15
-6.092052780483384e-15
-1.6483331314637563e-14
3.676649664805695e-14
-2.041353616171131e-14
1.3037082829191802e-16
-1.0389677190128662e-13
-1.6541018529559157e-13
4.0681640918703773e-14
2.286253162781744e-13
0.0
0.0
0.0
0.0
-8.706847011745394e-15
-1.5265847667121613e-14
1.7739723847294096e-14
6.2329708315729025e-15
-3.3084534775361102e-15
-1.2110149258000056e-14
7.72327703619738e-15
7.695325699338782e-15
2.2657343087326072e-14
-1.7904446489961467e-13
-1.2279939161687618e-13
2.7918651342916526e-13
0.0
0.0
0.0
0.0
0.0
0.0
0.0
0.0
4.364497979577796e-15
-3.0237301920607898e-15
1.1775515750875347e-15
-2.51831936260454e-15
-2.65637923140561e-14
8.631134294462847e-14
-3.081633546792173e-14
-2.8931215162650666e-14
0.0
0.0
0.0
0.0
-8.384387836398402e-16
-6.175982588586516e-16
-7.152955671821678e-16
2.171332609680659e-15
-3.894618175161224e-15
-2.00690281472077e-14
9.80027411692044e-15
1.4163372205448508e-14
1.4134743063573693e-14
-2.741573328983488e-14
1.3674109320439454e-14
-3.9311909417826044e-16
6.932173337953083e-14
1.2230963450747883e-13
-2.759352174797616e-13
8.430384959275185e-14
8.606977517515705e-13
-3.49665962089203e-13
-1.2849974853232847e-13
-3.825320411300348e-13
-8.761382541777984e-14
-2.3408869442742484e-14
-1.4816326986541705e-13
2.5918596472593967e-13
-2.7209697578974335e-14
-1.269112511827576e-13
5.103217037963388e-14
1.030887783820987e-13
-3.108500799821493e-13
5.687610004226113e-13
-2.7605332021424627e-13
1.814239977378332e-14
-1.8285623887787195e-14
-5.577970424217859e-14
2.5772376392153404e-14
4.829295173781244e-14
1.389504004833575e-14
-8.30123470972359e-15
-9.495945550377222e-15
3.902140211765054e-15
1.727466964075504e-14
-3.661853794531374e-14
-1.4012559451344686e-14
3.335642775590338e-14
-7.588053976901845e-16
-6.613920996833214e-16
-7.105160872670172e-16
2.130713584640523e-15
-4.944214382912886e-15
-4.919486090843921e-15
-2.8300517651051187e-16
1.0146705650267324e-14
-2.6050413820297396e-14
-5.1152788200215616e-14
6.641505180683977e-15
7.056169683982915e-14
3.110958526546454e-14
-6.089582084858529e-14
3.616172232075004e-14
-6.375486737629208e-15
-1.5584617959242116e-15
-1.3975992847888641e-15
-1.435564342843026e-15
4.391625423556103e-15
0.0
0.0
0.0
0.0
2.2213990553131412e-14
-4.110273827547575e-14
1.8876546095432225e-14
1.2201626912117455e-17
2.8167209616964995e-14
-5.948860202446196e-14
2.5651753855911696e-14
5.669638551585256e-15
1.7871275771909646e-14
2.8240186555111605e-14
-1.7319110521079602e-14
-2.879235180594168e-14
9.87463355690824e-15
-4.883601866022843e-14
2.5568762783153412e-14
1.339262232016678e-14
-1.5634514690424232e-14
-5.4104162083543986e-14
1.817741392849648e-14
5.1561262845471795e-14
-3.693709138292073e-14
7.07310022110816e-14
-2.8465567888339398e-15
-3.0947354039326925e-14
-6.100577647728056e-14
1.409543689436496e-13
-4.0601854003917975e-14
-3.9346738462451415e-14
3.1449868331141846e-15
-1.4188939184259903e-14
6.886686613965401e-15
4.157265737180318e-15
0.0
0.0
0.0
0.0
8.726997749744464e-14
-1.2614012404789235e-13
3.0859220862477394e-14
8.010925687970174e-15
1.2817021460551097e-14
-6.640259832650599e-14
-2.520323210361731e-15
5.6105900076316487e-14
-5.959253725889383e-15
-2.446255978127317e-14
5.0162216579038485e-14
-1.97404030718759e-14
-3.897489833026125e-13
-7.719902023284818e-13
-1.1950489682280101e-12
2.3567881538591003e-12
5.786139487960404e-15
-1.819227410743093e-14
1.2191798616070702e-14
2.1433600339982852e-16
1.4051045606817224e-14
-7.99795946882483e-15
-4.315083603023923e-15
-1.7380025349684775e-15
3.422527670927119e-15
-3.6126587077537226e-15
5.63960362757614e-16
-3.738293259310109e-16
0.0
0.0
0.0
0.0
-1.6702663921970105e-14
1.341756610165383e-14
4.593540178312812e-15
-1.3084423579965372e-15
-2.526033937728413e-14
5.4892763270832825e-14
-2.5234966986908196e-14
-4.397456906640431e-15
7.0372103104775564e-15
-2.0829978422031123e-14
-8.898402515698976e-15
2.269117062725255e-14
4.572100995674954e-14
-3.222021552098678e-14
-6.304525358509072e-15
-7.196269077253705e-15
0.0
0.0
0.0
0.0
-2.978824743703344e-14
-8.557610325294258e-13
-7.476905139923246e-13
1.6332397939587772e-12
7.120987989383241e-14
-4.634704142928642e-14
-2.5383432518761762e-14
5.205940542155704e-16
-1.4783722531603913e-13
2.0236030418294816e-13
-1.1222368777995807e-13
5.770060891304885e-14
2.0228651960213165e-14
-5.2929964903492027e-14
-7.379743313147962e-14
1.0649874607475854e-13
-1.0172136248194295e-13
-6.088694525688528e-14
-4.4861164907597374e-14
2.0746947264642705e-13
2.4008436492546887e-14
-2.3226350312152196e-13
-2.0551538805079357e-13
4.1377045467976984e-13
-6.933771575943115e-13
-1.8433535751089135e-14
-5.130597441776678e-13
1.2248704375230662e-12
-1.334539029840775e-14
2.202985542301747e-15
3.654095238533907e-14
-2.5398547629232996e-14
-2.840263989895089e-13
1.6787357505055032e-13
-4.389548441698891e-15
1.2054237238065635e-13
2.0805194509569857e-14
-4.1440194928799284e-14
-6.739817097941496e-15
2.7374817517170916e-14
-7.95306614449729e-14
2.543635525831219e-13
-1.4732138548817926e-13
-2.7511505649970073e-14
-1.2251291844902583e-13
2.693357919910267e-13
-6.002806650982016e-14
-8.67948070321803e-14
3.8923607441388635e-14
-8.840188216812735e-14
3.795614233073855e-14
1.1522132395999917e-14
1.948500375946162e-14
3.931158666432186e-14
-8.480581966586323e-15
-5.031600845719713e-14
1.9876347665582145e-14
-2.670727173968817e-14
7.743777821099835e-15
-9.128537469938199e-16
0.0
0.0
0.0
0.0
-2.0590668264944448e-14
6.162921474639633e-14
-1.2379147777574382e-14
-2.8659398703877534e-14
1.1024410228857637e-15
8.442085233622167e-15
-3.6704413124220297e-14
2.7159886867712367e-14
-2.2388225832703624e-15
-8.962209414494523e-15
5.0886871778137674e-15
6.112344819951124e-15
-1.7189560785939536e-14
1.0215274253755177e-13
-3.657625585000721e-14
-4.8386925901605027e-14
2.6549482155715435e-16
7.808904304803018e-14
-9.750286999265378e-14
1.9148332123066368e-14
-2.71430829332196e-15
-2.114896120364817e-14
1.1291889201839099e-14
1.257138029513102e-14
9.558006156506539e-14
1.1927950052379966e-13
-1.3711220524855514e-13
-7.774735684030998e-14
2.2672207671390507e-14
-2.225291510073638e-14
-9.630431478825224e-15
9.211138908171077e-15
-2.177455890870952e-14
4.8948250173667907e-14
-2.131019279159123e-14
-5.863498473367184e-15
2.5799791464838497e-15
-1.026152120890338e-14
6.425750272414394e-15
1.255791790005135e-15
-2.9219012597151154e-14
3.309122671830402e-14
-2.9211608397091675e-14
2.5339394275938866e-14
5.313193613692482e-15
-1.0623346035058894e-14
4.670134056913272e-15
6.400183644531333e-16
0.0
0.0
0.0
0.0
6.155052791601568e-14
-8.930942282986079e-14
-7.859986015791411e-15
3.561888092963672e-14
6.792690665227472e-14
-4.5046396201323115e-14
-1.95988819753512e-14
-3.281628475600352e-15
-3.785189566977509e-14
8.35484191695055e-14
-2.490278172063022e-14
-2.0793741779100226e-14
4.640453373723778e-14
-8.435280904064569e-15
-2.0546708664194094e-13
1.6749783380876746e-13
-1.9764078923050047e-13
2.7678699018204913e-13
-2.2497692219142378e-13
1.4583072123987512e-13
-1.6670282059412445e-13
-4.2652977929651026e-14
-2.8298778982373737e-13
4.923435883475111e-13
9.542110836554888e-14
-1.5056094971955822e-13
3.296084368028644e-14
2.2178997673722895e-14
4.350593220142264e-14
-8.972798904532881e-14
-2.607836880261577e-13
3.070057448700626e-13
-7.719509052750794e-16
-5.947392970622203e-16
-7.5084440538656155e-16
2.117534607723861e-15
-3.0668372349504793e-15
-1.0050713686306878e-14
-1.091508256572623e-14
2.4032633486983582e-14
-7.748040795888194e-15
-7.286886548442808e-15
1.9464290066873827e-15
1.3088498337643619e-14
9.059111731094652e-15
-1.2474953644697027e-14
7.009242261376791e-16
2.7149176874646945e-15
-1.3979167847416841e-14
4.6383179760048015e-14
-2.0311308769402495e-14
-1.2092703143228635e-14
-5.108986023782106e-15
-4.274434034194682e-14
-1.9585400489983082e-14
6.743872685571193e-14
4.571009024897197e-15
-2.7893193709122516e-15
1.0306030747464631e-15
-2.8122927287314096e-15
-4.4302967421548746e-14
1.4682688991874362e-13
-6.403471223986514e-14
-3.848921025732971e-14
-2.045164570912261e-15
-2.013107424902263e-15
3.0021356398126206e-15
1.0561363560019037e-15
4.631950729781251e-15
-4.144779919638603e-15
-3.431890345937012e-15
2.944719535794363e-15
0.0
0.0
0.0
0.0
-2.5734724082040362e-15
-3.1525858075082067e-15
2.362685132126658e-15
3.3633730835855837e-15
-9.038493700627142e-16
-4.973764483430482e-16
-8.059623181207216e-16
2.2071881365264843e-15
-1.9837808694826736e-15
-1.925667853004723e-15
2.6478240317157068e-15
1.2616246907716909e-15
0.0
0.0
0.0
0.0
3.753868881117985e-15
-4.462912151271195e-15
-4.425282105817244e-15
5.134325375970455e-15
0.0
0.0
0.0
0.0
-3.4474650633215644e-15
-2.655286528762473e-15
6.081440216898888e-15
2.1311375185149766e-17
0.0
0.0
0.0
0.0
0.0
0.0
0.0
0.0
0.0
0.0
0.0
0.0
-1.2796355925824873e-15
-1.3111904379959569e-15
3.625669695186519e-15
-1.0348436646080744e-15
0.0
0.0
0.0
0.0
5.981329015053985e-15
-2.732875574060681e-15
-1.9428439608901344e-15
-1.305609480103169e-15
1.1694632898836229e-14
-4.262604581804186e-15
-3.823924819340187e-15
-3.608103497691857e-15
0.0
0.0
0.0
0.0
0.0
0.0
0.0
0.0
0.0
0.0
0.0
0.0
-6.013615390397687e-16
-9.383311321567082e-16
-7.21502487394266e-16
2.2611951585907432e-15
-6.600132435749463e-16
-7.655800700424515e-16
-7.019378296082709e-16
2.1275311432256687e-15
-6.3314290332844e-15
-5.629947075599491e-15
3.1503684786980567e-15
8.811007630185825e-15
-2.025636821145834e-15
-2.140988055385769e-15
2.892247025958725e-15
1.2743778505728775e-15
2.1516001386330915e-14
-1.0213268395942792e-14
-9.73289428566528e-15
-1.5698387047228437e-15
0.0
0.0
0.0
0.0
0.0
0.0
0.0
0.0
0.0
0.0
0.0
0.0
-1.5009073420407228e-13
9.517695347463819e-14
7.55235981914591e-15
4.7361420910288475e-14
-5.560566527151395e-15
-3.1869688317067356e-14
2.7070368044137318e-14
1.0359886800081448e-14
-5.787289158905458e-14
1.5503826485336367e-13
-6.310910288973204e-14
-3.4056270374577024e-14
-2.714567020408967e-15
-3.255067424888838e-14
1.5221107694743684e-14
2.0044133574553656e-14
-6.097090218859216e-15
-5.727608480580285e-15
1.3533324865123664e-14
-1.7086261656841603e-15
-2.156399329344898e-15
-2.7136914792501806e-14
3.854139925657636e-14
-9.248085134729582e-15
-4.681811031240071e-15
-2.1081121790204484e-14
1.9240100930209144e-14
6.5228318912353996e-15
1.6372348527441477e-16
-6.757853628412364e-14
3.126106358506352e-14
3.6153749213785694e-14
-7.686256356189083e-16
-7.009942069454783e-16
-7.530236310666713e-16
2.222643473631059e-15
4.097191375632083e-15
-1.908504428946457e-14
5.245487253957435e-15
9.742365659875057e-15
1.3126568339903865e-12
1.4022313376106543e-12
-1.2700434500627988e-12
-1.4448447215382344e-12
5.055178238861311e-14
-3.905796863562276e-13
1.0049047215315891e-13
2.395374318144565e-13
2.1124744351376228e-13
-2.5482855046635716e-13
-2.3349371444231683e-14
6.693047839682674e-14
6.16867994370169e-14
-8.895914404458358e-14
6.293748819280356e-14
-3.5665143585236826e-14
-3.6710132318399133e-14
5.387548358580059e-14
-2.147668219172036e-14
4.311330924318891e-15
-7.183916141209426e-15
-6.313624936968958e-15
2.4073900767962515e-15
1.1090151001382133e-14
9.55764067555083e-15
-2.0434509104991423e-14
1.9322333668519372e-14
-8.445465239078765e-15
1.5470315206320362e-14
-2.85817240901664e-14
1.3026485647739633e-14
8.492323610641467e-17
-3.393955485417105e-14
4.654832498631518e-14
-5.6602689907526366e-15
-6.948501141391415e-15
-1.1946044354578106e-14
-9.952864408553508e-15
2.8570827538698437e-15
1.9041826009261757e-14
-2.1390420481605923e-15
-2.1318189051089786e-15
-2.1980574685172686e-15
6.468918421786842e-15
-4.356270704091573e-14
5.923208183701397e-14
-7.591399248367858e-14
6.024461768758024e-14
-1.5956054017843525e-14
-4.939036588207613e-14
3.3387882582612855e-14
3.1958537317306925e-14
1.8499482981141e-14
-3.5201800226298384e-14
2.2229060101804727e-14
-5.526742856647363e-15
1.0931690224930033e-12
-7.571100932840213e-13
-7.90935840982449e-13
4.548769117734665e-13
2.0919357083842325e-13
-2.427582532452189e-13
-3.3544702808179284e-13
3.690117104885909e-13
3.1072732751014345e-14
-2.0982028160251524e-14
-3.819327012472321e-15
-6.271377578290488e-15
-3.331153343701395e-14
-6.574091848719798e-14
-1.2721318881225397e-14
1.1177377080543737e-13
1.5197286095969503e-13
5.690766997160373e-14
-1.383087742235612e-13
-7.057175670773754e-14
2.8224211157573503e-14
-1.2123703631294854e-14
-1.0710651366184753e-14
-5.3898561600938944e-15
0.0
0.0
0.0
0.0
0.0
0.0
0.0
0.0
-2.2811692011715586e-14
1.2741915670503344e-13
-5.4905744550878224e-14
-4.9701720142439696e-14
-4.341020062739721e-15
-3.66564162181055e-15
6.16483672625611e-16
7.39017801192466e-15
0.0
0.0
0.0
0.0
-3.7600370693940385e-14
1.429908749487148e-14
-2.4335047541267506e-14
4.763633074033642e-14
5.5086566780934716e-14
-1.7467001041972836e-13
3.001185000935347e-15
1.1658225863785827e-13
-1.4988437202444875e-16
-2.229685107550068e-14
1.0639369509510125e-14
1.1807365938015002e-14
0.0
0.0
0.0
0.0
0.0
0.0
0.0
0.0
-3.5895526966534433e-13
-1.7818127490581128e-13
-6.909182739893165e-13
1.2280548185604766e-12
5.745686186341908e-14
-6.17815452963628e-14
-6.1009880147505765e-15
1.0425671447694225e-14
-1.218807652708006e-15
-1.58443923487891e-15
3.77533812374686e-15
-9.720912361599436e-16
2.4210102330591012e-14
-4.388607780107383e-14
-2.2504323307753818e-14
4.218029877823667e-14
1.9674125205507857e-14
-3.495683298939859e-14
8.645531129354781e-15
6.637176654535915e-15
-2.7858550583147777e-13
-5.97265284959765e-13
-2.382824416120412e-13
1.1141332324032855e-12
5.0539771418149156e-15
-2.9553940332014596e-15
-2.7888321477105825e-15
6.902490390971267e-16
-3.869455648428207e-14
-8.482913662748722e-14
-3.2471719764396365e-14
1.55995412876166e-13
-6.182837620032227e-14
9.873376906021396e-14
-4.1418351746816293e-14
4.512958886924522e-15
1.7492987372337575e-15
-6.433370673419279e-15
-1.215209111258901e-15
5.899281047444424e-15
-1.4994650578006346e-14
-3.6261554217784376e-14
2.0436409270763605e-14
3.0819795525027165e-14
0.0
0.0
0.0
0.0
-3.5269798056725305e-14
8.753530884342658e-14
-2.6546258130511306e-14
-2.5719252656189952e-14
0.0
0.0
0.0
0.0
0.0
0.0
0.0
0.0
-1.1267363151873584e-14
-9.559549411918652e-15
1.2968476784238015e-14
7.858435779554216e-15
-7.505448977296773e-14
1.1345399720227189e-13
-9.325943262337133e-14
5.485992519406685e-14
1.4989746507745216e-14
-3.7395931370871384e-14
-1.4242859377935612e-15
2.38304708009198e-14
3.835797758805904e-14
5.773436313249175e-14
-2.9548534927667276e-14
-6.65438057928836e-14
7.7791416713919e-15
-6.270797966107681e-14
3.620907515414386e-14
1.8719762835541077e-14
9.501870942202577e-14
-9.866453514679965e-14
-2.652204313716067e-14
3.016786886193438e-14
-7.172386254398034e-16
-8.922620126333572e-16
-6.672813968055836e-16
2.2767820348787437e-15
3.445693370781315e-14
-3.807851052365234e-14
5.341918071325696e-15
-1.7203412554865846e-15
-8.545806513124537e-15
-5.6258504075431236e-14
4.832439495196479e-15
5.997187109335926e-14
2.2008832488561635e-14
-4.227099510195936e-14
1.8874179758963495e-14
1.3879828544342167e-15
7.839465560209923e-15
-5.700138071377884e-15
-7.61146027657796e-15
5.4721327877459194e-15
-3.358270083671405e-14
9.440050326951112e-14
-4.079765023435144e-14
-2.002015219844563e-14
4.094819283979079e-14
1.1787101128684023e-13
-9.401369734904403e-14
-6.480550677758688e-14
6.615089171577643e-15
-8.319642900845683e-15
5.79291639258863e-16
1.1252620900091803e-15
0.0
0.0
0.0
0.0
0.0
0.0
0.0
0.0
1.1426966180667096e-14
-7.417428831224102e-14
-2.66878746326515e-14
8.94351967642256e-14
2.5106916236147313e-14
-2.0953480835488697e-14
-1.7537697066051628e-14
1.338426166539302e-14
-3.0130431244700543e-15
-2.6427519298004555e-15
2.2976320505677746e-15
3.358163003702734e-15
-2.5210615333910903e-14
-6.040632829825235e-14
4.1303638137550066e-14
4.4313305494613296e-14
-6.544600139077121e-16
-8.271005616519487e-15
-3.757823497175413e-15
1.2683289127602613e-14
6.904693620612731e-15
-9.154157563680107e-15
6.179990117845236e-16
1.6314649312828582e-15
3.9694269610960245e-15
-1.3803774481535892e-14
1.2800070556217748e-14
-2.9657230357778838e-15
-5.986476754185648e-16
-8.751760695126842e-15
1.0859933646115761e-14
-1.5095252755703559e-15
3.0129640963985833e-15
-4.753901510782841e-15
-1.922025841001002e-16
1.9331399984843577e-15
2.046707343567842e-15
-2.0280050798374997e-14
7.833494564090851e-15
1.0399848890716285e-14
-3.4129502782207226e-15
-1.2114845698443663e-14
-1.2475541401597153e-15
1.6775350116824103e-14
7.176085223111664e-15
-8.036685649049962e-15
-9.161365858268363e-15
1.0021966284206669e-14
-1.9464789807218805e-15
-2.629097400143371e-15
3.239604888703484e-15
1.3359714921617672e-15
1.5696792952900086e-14
-6.114031049892441e-14
-2.415483250167271e-15
4.785900079619164e-14
2.659299934332096e-14
-1.3105467272590258e-13
5.2974954048660094e-14
5.1486719333921755e-14
1.038990563805463e-14
-1.8871199738681338e-14
-7.604116031477425e-16
9.241705703774451e-15
-6.45660988134877e-14
-2.702690533363523e-13
-3.99970153318844e-14
3.748321674817236e-13
1.5538265452124984e-14
-1.8011156708728813e-14
-1.060095245961938e-14
1.3073843716223217e-14
-2.8655791040723854e-14
-8.116133822718586e-14
5.725762241002428e-14
5.255950685788534e-14
4.5189741387118684e-15
-2.7726760551392753e-14
8.549088037538824e-15
1.4658698375142035e-14
1.1379521131513615e-14
-1.122219719171668e-14
-2.1525761067337765e-15
1.995252166936848e-15
-6.659163381639164e-15
-7.090712478194501e-15
7.929881363932202e-15
5.8199944959014614e-15
-2.0275325527686237e-14
-3.997900506309915e-14
1.9767115359528538e-14
4.048721523125692e-14
-4.729363101161497e-13
5.757335833007605e-13
-2.9067394495399553e-13
1.8787667176938432e-13
-2.828134151266723e-15
-2.6928286603377427e-14
8.473532760854103e-15
2.1282887993790052e-14
-4.357783540022504e-15
-2.7434723365758537e-14
-4.124804591223723e-15
3.5917311497004804e-14
-5.229781922489454e-15
-4.829314448832224e-15
-5.248997258698682e-15
1.5308093630020366e-14
-1.4261415681480183e-15
-1.5767776314693205e-15
-1.5498828665139619e-15
4.5528020661313005e-15
-4.7629158390152985e-14
8.159859324950198e-14
-3.0517849281320176e-14
-3.4515855780288237e-15
-3.3997066286702445e-14
9.629882867300883e-14
-4.118744804430373e-14
-2.1114314342002603e-14
1.596731418514116e-14
-4.397547119113462e-14
2.1768679421939423e-14
6.2394775840540175e-15
-1.4766824794101514e-14
9.50280227354806e-14
-4.87611337118282e-14
-3.15000642295509e-14
3.560721885504523e-14
-1.9797290755943034e-14
-9.712503923963806e-15
-6.097424175138407e-15
-2.8145840791358868e-14
6.12912009551805e-14
-2.3372757836583915e-14
-9.772602327237702e-15
7.572406419907426e-15
-7.714709217162641e-14
3.6654952217436384e-16
6.920813622954447e-14
-8.313915816856762e-15
-7.0784358521252424e-15
-3.1967076863364564e-15
1.8589059355318456e-14
2.6313125505937307e-14
-1.7507735172231021e-15
-1.7527909449219786e-14
-7.0344425394944596e-15
-4.8443896080202e-16
-8.289843842376312e-15
1.6858579971084662e-15
7.088424806069867e-15
0.0
0.0
0.0
0.0
-1.8068616761564216e-15
-7.994864367551701e-15
2.8853335762800566e-16
9.513192686080117e-15
-9.68822700403325e-14
2.5802680739111215e-13
-1.60240393828841e-13
-9.041435219383165e-16
-3.6043626186362516e-15
-3.711410207408929e-15
1.5254955943853261e-15
5.7902772316598545e-15
2.2380721715254465e-15
-6.041332723293394e-15
4.814950359908823e-15
-1.0116898081408774e-15
0.0
0.0
0.0
0.0
-4.0838110849047905e-14
5.845245353183614e-14
-1.1228103731752285e-13
9.466669463473431e-14
-1.6872865123999443e-14
-1.622304514428696e-14
7.683097869858276e-15
2.5412812398428154e-14
-2.024629550352776e-15
-1.4781229985911643e-13
1.0208640348634816e-14
1.396282890608343e-13
0.0
0.0
0.0
0.0
1.947638915612218e-15
-5.557814292815343e-15
-5.748042078755909e-15
9.358217455959038e-15
-6.169066624376772e-14
-2.957632201526521e-14
-3.4453296443047225e-14
1.2572028470208024e-13
4.894108026172768e-15
-9.521759710978196e-15
-5.744631976597295e-16
5.202114882465154e-15
-6.134980820745384e-14
2.5259498407533697e-14
4.039834921172045e-14
-4.3080394118003666e-15
-9.629237656151085e-14
1.300512544507906e-13
-1.21886168931716e-13
8.812729104243602e-14
-6.623866153439169e-14
1.6436003086756974e-13
-6.563117751559173e-14
-3.249019181758628e-14
-7.782321612012784e-16
-6.56724602047814e-16
-7.577237009328018e-16
2.1926804641818943e-15
0.0
0.0
0.0
0.0
0.0
0.0
0.0
0.0
-7.198551769055127e-15
-8.641045445472645e-15
7.474520483154095e-15
8.365076731373673e-15
7.099134835467301e-15
-2.5243647439436837e-14
2.0235289067927768e-14
-2.090776463958199e-15
-6.973635087164029e-14
-5.288418609001573e-14
6.742610630397828e-15
1.1587792633125798e-13
-7.750157650842457e-14
1.3669889159742993e-13
-1.649837639470773e-14
-4.269893869429773e-14
-6.751918829617865e-14
9.897559578348163e-14
-3.0323119595900054e-14
-1.1332878914029007e-15
-2.4427357699534062e-15
-1.5217824184950308e-14
-4.087684437228006e-15
2.174824439213171e-14
-4.88285785441946e-15
-1.1966482170972945e-14
1.0596298774022303e-14
6.253041251370099e-15
0.0
0.0
0.0
0.0
2.4250697555577383e-16
-7.214988329818836e-15
7.189252166296492e-15
-2.1677081203342378e-16
4.513725846692213e-14
-4.022431777589403e-14
-3.480691435914146e-14
2.9893973668113195e-14
4.2582179732563235e-15
-6.20634110976079e-14
-7.880690293951725e-15
6.568588341830322e-14
-3.2995452528746113e-15
-1.0679175507291247e-14
-1.2574221237092177e-15
1.5236142883875068e-14
5.818765680393142e-15
-4.556223192721551e-14
1.074728727247698e-14
2.8996178974345344e-14
3.105691411314985e-15
-1.0864822011430711e-14
6.742613137870418e-15
1.0165174622453124e-15
-1.60054503150401e-13
2.0722587745875505e-13
-2.8536122722406906e-13
2.381898529157161e-13
1.6542258369902862e-15
-5.848997868533962e-15
-1.5768816201189121e-15
5.771653651662588e-15
2.994321897109366e-14
-3.9185995990151396e-14
-1.151891641816751e-14
2.076169343722525e-14
4.0505211355331655e-13
-1.8827107484137598e-13
-1.3583366092411257e-13
-8.094737778782651e-14
4.6977502250375263e-14
-4.0847736023386035e-14
-2.8555031019504654e-14
2.242526479251538e-14
1.159711352407725e-14
-4.2159511103132974e-14
1.6049063047643396e-14
1.4513334531412304e-14
-6.740579195743078e-15
4.2186093528672804e-14
-2.861613808944222e-14
-6.8293762434874275e-15
0.0
0.0
0.0
0.0
-9.295705819161806e-14
1.0717909547059332e-13
-5.506257225399586e-14
4.084053497502055e-14
2.750847325990602e-14
-4.364713604837099e-14
9.16854582927539e-15
6.970116959189509e-15
-1.924959709193284e-14
3.833118336485062e-14
-2.8265750521597138e-14
9.184164248679387e-15
-3.5187696384629396e-14
9.542742869610937e-14
-4.4085988182644506e-14
-1.6153744128835546e-14
4.9570358280362405e-14
-5.941858743703787e-14
1.4138128544540874e-14
-4.289899387865543e-15
1.6425191873755774e-13
6.893939971755995e-13
-5.183278926280513e-13
-3.3531802328510505e-13
-7.153196455199784e-14
2.577564789052223e-13
-1.0780839768060646e-13
-7.841611667261754e-14
8.994618283558859e-14
-1.659927834899e-13
5.38679228284143e-14
2.2178677825896755e-14
4.867997325466317e-14
-9.209083183843926e-14
1.381819829856747e-14
2.9592660285208505e-14
5.839254491692013e-15
-8.685630112747363e-15
-1.2872438267694756e-16
2.9751000037323034e-15
-5.6243808966522715e-15
-2.922865794835374e-14
-4.4847455447921606e-15
3.933778438979818e-14
-5.0833593164555545e-14
1.3798818985398527e-13
-6.919608116213634e-14
-1.7958515527293283e-14
4.3279421990002844e-14
-3.973892830378235e-14
-5.662931255796752e-16
-2.974200560640766e-15
-9.552641301116485e-15
-6.192394438103851e-14
4.010709061376355e-14
3.136949506839144e-14
-2.7381137842460677e-14
4.450175726536105e-14
-5.527721515752043e-15
-1.1592897907148342e-14
-4.630870549495095e-14
1.2867703813749465e-13
-5.909951851313763e-14
-2.3268814129406103e-14
-1.079994669599631e-13
1.8294404386396378e-13
-1.6135257594034776e-13
8.640799903634604e-14
-5.57236657416292e-15
-2.103588238569901e-14
-6.552955109404256e-15
3.31612040692662e-14
0.0
0.0
0.0
0.0
-5.313278257053593e-12
3.5498437739846692e-12
3.625321151877603e-12
-1.861886668808709e-12
-1.1936946533405695e-14
-1.9201869420370967e-14
1.4691902072982634e-14
1.6446913880794032e-14
4.900183397370657e-15
-2.44955058346359e-15
-3.00376887453282e-15
5.531360606257511e-16
2.8917407771898986e-15
-4.92184654943365e-15
-4.802009138724818e-15
6.832114910968565e-15
-1.0663120168007234e-14
-1.8251724806258245e-14
2.6084699458691618e-14
2.83014551557385e-15
-2.349579156783942e-14
-2.4374218486592582e-14
4.529353928302242e-14
2.576470771409588e-15
-1.1938026170277726e-13
6.40046234426857e-14
6.694529859549368e-14
-1.1569660335401991e-14
3.895319352071328e-15
-4.224747501802717e-15
8.139721178864321e-16
-4.845439681550465e-16
-4.537047963623168e-15
-4.134639924318736e-14
4.411396369043757e-14
1.769483516372869e-15
-2.5331095574477975e-15
-2.50474138344298e-15
7.360252442476304e-15
-2.3224015015855273e-15
0.0
0.0
0.0
0.0
-6.90278446776327e-15
-1.4709436808509908e-14
1.989992035593811e-14
1.7123009203350658e-15
-4.895004757329282e-14
6.184392394341371e-14
-1.456019926976485e-14
1.6663228996439682e-15
0.0
0.0
0.0
0.0
0.0
0.0
0.0
0.0
0.0
0.0
0.0
0.0
0.0
0.0
0.0
0.0
0.0
0.0
0.0
0.0
0.0
0.0
0.0
0.0
0.0
0.0
0.0
0.0
0.0
0.0
0.0
0.0
8.342199593762926e-15
-1.567820278534749e-14
1.0119778765976992e-14
-2.783775574392422e-15
-5.2689868531244744e-14
-6.37496570705703e-14
1.6774801308347753e-13
-5.1308487481662874e-14
1.924900493744954e-14
2.0758917644813257e-14
-3.772540379200237e-14
-2.2825187902604985e-15
-1.9397997523315887e-13
1.4791118677692058e-13
6.652846202634786e-14
-2.0459673570108824e-14
1.0700601582591219e-14
-1.9344536311604124e-13
1.3565536912841087e-13
4.7089392405038486e-14
5.605659515833695e-15
-1.8074859214563536e-15
-2.379304955263042e-15
-1.418868639114298e-15
-9.21355448143876e-13
6.490383705337761e-13
3.2927947854172413e-13
-5.696240093162196e-14
-2.1841619595418356e-14
1.4114952628596077e-13
-5.0219231081593845e-14
-6.908867560894861e-14
-5.6577103425330435e-15
-9.232021335725064e-14
5.674857780806931e-14
4.1229345891714265e-14
-4.2116729725891734e-13
6.1231072911892e-13
1.2695441909104172e-13
-3.18097850951042e-13
-7.637933467064037e-14
3.7975266206592677e-13
-2.7676782577436813e-13
-2.6605501620919242e-14
-2.7387015410732104e-14
5.551751049228004e-14
6.57322060616411e-15
-3.470371568771201e-14
-7.852639975321969e-13
4.986800728906053e-13
-1.3496643184804377e-13
4.215503564896379e-13
-1.333209966727855e-12
1.2816523945309868e-12
-5.0922828946941204e-14
1.0248040114379134e-13
-9.388155910561814e-13
7.471535946377789e-13
7.605819698896286e-15
1.8405617671951103e-13
0.0
0.0
0.0
0.0
-5.505003029954261e-13
1.8198028053031877e-13
1.1512343659052389e-13
2.533965858745846e-13
3.825209657188081e-14
-1.0247226077932504e-13
4.857215812627833e-14
1.564800608116589e-14
1.284503028908448e-13
-7.007653714189692e-14
6.548021823221632e-14
-1.238539839811648e-13
-4.694653587496345e-13
-4.849947126803612e-14
1.287757300690038e-13
3.891890999486684e-13
3.498704810720456e-14
-2.88887105194288e-14
1.6203578231572676e-15
-7.718695410932983e-15
-1.2009654172467837e-13
-6.488186265723197e-15
-1.2832962385263943e-13
2.549143518430396e-13
1.446950238460571e-13
-2.014943554366304e-13
2.4374216488380722e-14
3.242511510219233e-14
-2.883386600701561e-15
-7.18397009025515e-14
6.256836014839204e-14
1.2154727354861046e-14
-1.6121395853946975e-13
1.54726989578822e-13
1.25156430543908e-13
-1.186694615832613e-13
7.137107989001025e-14
-1.6109404470453237e-14
-4.623465312284665e-14
-9.027022296710466e-15
3.4367062873388937e-14
-7.397722893563578e-14
1.2786929777412745e-14
2.6823236284834235e-14
3.128264311241718e-13
-2.647069384601999e-13
-2.5700646704941997e-13
2.0888697438544936e-13
5.248558580331544e-13
-4.5346595418347607e-13
2.917779098872902e-13
-3.631678137369708e-13
-4.849753586423206e-15
-1.6466124974530172e-13
-1.1455016121366651e-13
2.8406116454539124e-13
-1.1526638799466893e-13
2.0754253701339908e-13
-1.656804064716602e-13
7.340425745293084e-14
1.2278377089618935e-13
-4.737601040927919e-13
-1.9529619974086075e-13
5.462725329374637e-13
-2.5950946601977032e-15
-1.0002232952015967e-14
4.482539223011939e-15
8.114788389201722e-15
3.2426877029716726e-14
-2.0532452133036594e-14
-4.4910826655942056e-14
3.3016401759262004e-14
7.606643704318624e-15
-6.97353033333876e-15
-2.7852315018725722e-15
2.152118130892709e-15
9.908088698853413e-15
-1.3765442009280284e-13
5.977485025908497e-14
6.79714811348648e-14
-7.462077042737243e-14
7.915261654117725e-14
-3.4698472431579696e-14
3.016662631777491e-14
1.5294830730304212e-13
-2.474544658433659e-13
-1.760943108376389e-13
2.706004693779622e-13
8.198380065306225e-14
-6.934695668649138e-14
5.604205820017559e-16
-1.3197264548572577e-14
4.92266473708505e-14
-5.5401066011710205e-14
-3.7251755916968974e-14
4.3426174557828485e-14
2.184833409491264e-14
4.8508618120190875e-14
-5.109358017557296e-14
-1.9263372039530656e-14
-5.055218629886105e-16
-6.325819069185897e-15
1.8082719419109013e-15
5.0230689902636065e-15
4.581272264470325e-14
-6.055239598290226e-14
-8.633630609122297e-15
2.3373303947321457e-14
-1.257845133237976e-15
-3.091540476807782e-14
4.0075188720252946e-14
-7.901938818937098e-15
1.2219632744688285e-13
1.0385694798524396e-14
-1.0603522068788913e-13
-2.6546801557517704e-14
-3.038092856392091e-14
3.360278093314993e-14
-9.116660155234144e-15
5.894807786005043e-15
4.17419520282493e-15
-9.693428379281902e-15
-1.6516287109303954e-15
7.17086188738737e-15
-2.939814550507494e-14
1.2758384536077205e-13
-5.257745640166993e-14
-4.560824345402708e-14
8.80675638421534e-15
-3.970071320127369e-14
2.0975183159517614e-14
9.918773657540734e-15
3.7940820857521375e-14
-2.3328200157697866e-14
-1.58726478621353e-14
1.260027162311828e-15
8.594630302184208e-15
5.949306380036133e-14
-8.533213617600148e-14
1.7244442073455897e-14
4.0189660151643685e-15
-2.5689621847888166e-15
-3.979804160436533e-15
2.5298003300609822e-15
-5.1000362900074934e-14
1.4436375417912617e-13
-8.021762695360491e-14
-1.3145764325446715e-14
-3.49211044339967e-14
8.165799058177416e-14
-3.6292487966994163e-14
-1.0444398180783384e-14
1.097479879864781e-13
-1.025696037399428e-13
-1.611208343915911e-14
8.933699192624142e-15
2.212772971465385e-14
-8.220973851028093e-14
2.3987544983472604e-14
3.609446381215449e-14
2.1696660063087147e-16
-1.487079521811811e-14
4.27483259307668e-15
1.0378996024410551e-14
-6.062809471101526e-16
1.2666913504462554e-13
-5.855880581143666e-14
-6.750404828607863e-14
5.931428066586117e-14
-1.2150996324002722e-13
2.7458016171677926e-14
3.473766640248793e-14
-4.2471427466229413e-14
-3.6810920887115823e-14
9.674195073370147e-15
6.960815327997516e-14
0.0
0.0
0.0
0.0
-8.419181855258961e-15
-3.535773211728275e-14
3.521410302850772e-15
4.025550366969097e-14
-5.1592225133826606e-14
6.663576644650023e-14
-4.628722268917161e-14
3.1243681376497935e-14
1.7450710575372746e-15
-1.9523472338464124e-14
-1.6911497573487785e-14
3.468989885441462e-14
3.245074879509696e-14
-1.0101269745883825e-13
-2.5646130337813602e-14
9.420807900155564e-14
-3.013710102566164e-14
-2.3872936465754177e-14
-6.808640405054288e-14
1.2209644154195868e-13
2.4904361977629e-13
-2.1528368719424385e-13
2.9235226938663923e-14
-6.29951595207102e-14
-4.7325561869942714e-14
1.4974635405715653e-13
-6.891162132528736e-14
-3.350917086192646e-14
-2.740145467399147e-16
-6.297206110810152e-15
7.15218044809549e-15
-5.809597905454228e-16
-2.847890771724296e-12
1.769543764319037e-12
2.486069239482797e-12
-1.4077222320775347e-12
-4.640926243239907e-14
1.1237997057936485e-13
-6.698227135694498e-14
1.0115632099793262e-15
-1.7574710559208948e-13
-8.967864631201708e-15
-3.5434579086633875e-14
2.201495493099259e-13
-1.328287727956391e-13
3.542182638667504e-13
-1.369859130191841e-13
-8.440357805192715e-14
9.66657301816699e-14
-3.3896323542941235e-14
-6.408353175721057e-14
1.314125118481947e-15
5.769409278990739e-14
1.478470085187607e-13
-4.7950691714870734e-14
-1.5759040959379755e-13
1.6805788529099798e-13
-2.5837713599582524e-13
2.0360208127928517e-15
8.828322989203516e-14
2.380204723505567e-13
3.103930607500145e-13
-1.7200865749775253e-13
-3.7640487560281663e-13
6.730951536158052e-14
-8.720832307598417e-14
-4.86250092998281e-15
2.4761308644386427e-14
-2.815403341475975e-13
-6.302170164978799e-13
-6.758801020115985e-13
1.5876374526570734e-12
1.6323604359148194e-15
-2.2152095973031992e-14
1.760200153435807e-14
2.917734002759105e-15
1.2241181838269592e-12
4.363687270114838e-13
-3.9043369130828153e-14
-1.621443541707623e-12
5.911428916565597e-14
-6.993334115127002e-14
-8.44318439716207e-15
1.9262236382776178e-14
4.39594698050738e-16
-8.804735195157784e-15
8.093163900190216e-15
2.7197659691683335e-16
-6.761646693114874e-14
3.0677266572983025e-15
-1.1020719097609846e-13
1.7475593124994889e-13
-2.586657968560945e-13
-3.071095676691382e-13
1.445578744078028e-13
4.212174901174284e-13
-3.492075098014402e-13
-7.122014022559021e-13
2.531554423575794e-13
8.082534696997666e-13
2.8030459965789607e-16
-9.836250424556475e-15
7.176541222352986e-15
2.3794046025455914e-15
-1.953707573633396e-13
6.510684663624153e-15
-1.4241057328326737e-13
3.312706459829829e-13
6.30293444086036e-14
-1.2374593564906542e-13
-3.1683625650449145e-14
9.240021689091049e-14
1.217731442183567e-13
-1.6650473498088501e-13
-7.879902670466285e-14
1.235306174671902e-13
-7.585670593522173e-14
-1.6039490071804928e-13
-3.9332751268802515e-14
2.755843579220728e-13
-5.755539449203456e-15
-4.735104527433597e-14
-1.95433249563809e-14
7.264990967992023e-14
-5.3279949323841485e-14
-1.1332950900506474e-13
-5.421059493799888e-15
1.7203051782270577e-13
3.5606130836615265e-14
-8.634582501656894e-14
-1.8681425956774697e-15
5.2607836775631046e-14
-5.0885518780932914e-14
8.358627990667793e-14
-8.142331372511252e-15
-2.4558429753233738e-14
-3.272271125554605e-14
2.541735752818038e-14
-1.3298881772312307e-13
1.4029417145048887e-13
5.08202828380216e-14
-6.36498075882729e-15
-2.711387951469453e-14
-1.7341422564499695e-14
-3.061441446289917e-14
7.123856745418953e-14
-2.7878724071240573e-14
-1.2745428920049777e-14
-9.308925297265792e-15
-9.832076372589957e-14
-2.975197832835468e-14
1.3738166735151978e-13
1.535153478705233e-14
-2.342153088286939e-14
1.3171899707912943e-14
-5.101903612095908e-15
-7.404413618428232e-14
1.210685362220735e-13
-3.0074591077868774e-14
-1.6949808959922423e-14
-3.5730117415151955e-14
1.264882118139394e-13
-5.366467592130606e-14
-3.7093418477481343e-14
-8.693444091352613e-14
2.98083824902354e-13
-1.2149520506052182e-13
-8.96541789283054e-14
-2.1474963834849767e-13
2.2660487431495127e-13
-1.8037499231955375e-13
1.6851975635310044e-13
-3.1200174035046704e-13
-1.0556155926016606e-13
-2.0376792811121423e-13
6.213312277218435e-13
1.0653759344045172e-13
-4.750608423211268e-13
-4.871550644118789e-13
8.556783132925569e-13
2.114522558358469e-14
8.45176892339208e-14
-1.299564073001928e-13
2.4293492482687594e-14
1.0318593787915143e-13
-4.790373797643216e-13
-1.8309039460701564e-13
5.589418364921853e-13
-1.1218854538286944e-14
3.381615558860777e-14
-1.2665339717003132e-14
-9.931961333317705e-15
-4.034374859784886e-14
2.7777792167833937e-14
-2.4541156832650687e-14
3.710711326266555e-14
7.362651790282077e-14
-2.116076681219337e-14
-3.522677410984271e-14
-1.7238976980784512e-14
0.0
0.0
0.0
0.0
1.1782486788466667e-14
-2.641727063958599e-14
-1.9598470797552407e-15
1.659463093087457e-14
-1.84492302177316e-14
2.0782045963271604e-13
-2.1482254236546848e-13
2.5451312950483417e-14
-1.8459822046340032e-14
-1.848305312983639e-14
6.116756630126366e-16
3.633119951316381e-14
-2.393624276516697e-14
-2.456638282254836e-14
-4.95279772850073e-15
5.3455423316216065e-14
1.0988269213886815e-14
-7.142442915840456e-14
2.32363362316103e-14
3.719982371290744e-14
-6.158299852537959e-14
1.3415816995430703e-13
-4.0301134839217456e-14
-3.227403658971013e-14
-6.383566277059178e-14
-8.531180614472042e-14
-2.7274510829085985e-14
1.7642197974439823e-13
-3.784737730049004e-14
-1.1139053558398074e-13
1.4961294066953024e-14
1.3427661881751814e-13
2.529591757650063e-14
-3.5936386538915543e-14
2.6097809920340966e-15
8.030687970380808e-15
-1.521564707802578e-14
-7.789024869849265e-14
6.871036785639361e-15
8.623485899087902e-14
7.703148739483204e-15
-3.6072288711692186e-14
-1.0152429155443088e-14
3.85215691276521e-14
-5.587973398021771e-14
4.552427640337076e-14
-4.7165283706972006e-14
5.752074128381913e-14
1.931305964508597e-15
-7.390656272044828e-15
-9.634004163549638e-16
6.422750723891193e-15
-4.604342872254576e-14
3.057429738388992e-14
2.8970215730676402e-15
1.257210976558823e-14
-8.034462249599149e-16
-8.960832488649706e-15
2.8350665924888215e-16
9.480772054360745e-15
-1.6346481258939812e-14
-1.710862067687992e-14
6.699204040595432e-14
-3.3536938470134534e-14
2.9520152524945124e-14
-2.1413938727428635e-14
9.102573796747855e-15
-1.72087875942643e-14
-4.653091522648265e-14
1.530014847154706e-13
-8.498250148621763e-14
-2.1488068002770403e-14
4.710021662793037e-15
-5.096663998299359e-14
4.380725413900266e-14
2.4493641811979185e-15
-1.2440861846685883e-15
-2.2634079981025215e-15
-1.0869860545563855e-15
4.594480237327494e-15
-1.1108486350948297e-14
-2.1474692713493112e-14
9.843627180979974e-15
2.2739551883461488e-14
6.856090647141492e-14
-5.80104671106815e-14
-2.7982903376890237e-14
1.743246401615672e-14
-4.192993069644441e-15
-4.480776264665691e-14
2.001710879249578e-14
2.898364692380555e-14
-1.0294613226233803e-12
1.7216225887964578e-12
-4.4550024564581775e-13
-2.466610205272603e-13
-3.654926516290981e-15
-1.1888394333911796e-14
1.3211678861802754e-14
2.331641988400029e-15
1.1738791445408628e-14
-6.990949153174473e-14
3.845535664452384e-14
1.971534344181239e-14
7.317974077163584e-15
-6.648436133866489e-14
4.748684072738669e-14
1.1679546534114602e-14
1.9335200123246966e-14
-1.9646734944823917e-14
-4.176485761994842e-15
4.48802058357179e-15
-1.5035525601773456e-14
-1.7049151929873628e-14
8.752470641954274e-15
2.3332206889692826e-14
1.436991283988987e-14
-1.7806940570424425e-14
1.891474416200474e-15
1.5455533143340827e-15
1.0422451426424046e-14
-1.8612344408180153e-14
-6.042103831575059e-16
8.794103364913628e-15
-1.016324118132329e-14
-2.0327467264611534e-14
1.1527680929501035e-14
1.8963027516433793e-14
4.828780843318103e-16
-5.766432986366729e-14
3.482071518837699e-14
2.2360736590958564e-14
-1.0217154461178767e-14
-3.1055015732120984e-14
2.929511414542787e-14
1.1977056047871879e-14
3.8884282620383736e-14
-4.3546990182613045e-14
1.0242161908004142e-14
-5.5794543457748874e-15
1.0180187373542451e-14
-3.513553775745487e-14
1.1786474034754839e-14
1.316887634915748e-14
1.5641293574719402e-12
-9.336849812543283e-13
-1.9174486162360793e-13
-4.3869951459399874e-13
3.527062044238442e-14
-3.9947827012556384e-14
6.357976214891387e-15
-1.6807696447193591e-15
2.3421548353795693e-14
-3.4918559052756614e-13
-2.035602966976972e-13
5.293243388714665e-13
2.643566969022192e-13
-4.514037670644111e-13
-4.808609974766085e-13
6.679080676388071e-13
2.6958761903883494e-14
-6.744674030487287e-14
-2.4139663369254717e-14
6.46276417702443e-14
-5.3597441550097076e-14
-2.210411850270423e-13
-1.0435920846230304e-14
2.850745474233699e-13
-6.4095220583631e-16
-9.77923954416348e-15
1.1589471821236068e-15
9.261244567876189e-15
-2.168769959215477e-15
-2.0636688086476227e-15
-2.176352443666911e-15
6.4087912115300095e-15
1.8241551805726046e-14
-5.6431904698124726e-14
3.9628675626720716e-15
3.422748532972661e-14
-2.561564586751662e-15
-2.6187869352872494e-15
1.9247645986430903e-15
3.255586923395821e-15
0.0
0.0
0.0
0.0
1.0409677485647564e-14
-2.1084650838429907e-14
8.304802025406334e-15
2.3701713273760094e-15
-2.1467248257300017e-13
-1.8505853453404025e-13
3.163557030557981e-13
8.337531405124167e-14
-3.266659134315049e-14
-4.3350646699836996e-14
4.3434355249554774e-14
3.258288279343279e-14
1.1501309886599147e-14
-4.12084655885485e-15
-4.408097820403736e-15
-2.9723655073405655e-15
1.8384127454645138e-15
-6.269559211922421e-15
8.838389948812131e-15
-4.407243482354217e-15
3.081101157376064e-14
-4.1240226652779256e-14
-1.0630294870451577e-14
2.1059509949470238e-14
-2.1422909512631536e-14
7.80892491642276e-14
-4.3524813813805967e-14
-1.3141525837790028e-14
9.930353116802025e-14
2.683390357452726e-15
-6.037498109979555e-14
-4.1611940425677324e-14
-9.878927959728742e-14
2.2125822619225872e-13
-1.0020842485928308e-13
-2.226052173568846e-14
8.344117326570636e-15
-4.129082987896375e-14
2.621304637121504e-14
6.733666181178126e-15
-6.83331096220082e-16
-6.490128735336276e-16
-8.199909264307059e-16
2.1523348961844154e-15
-2.9428347157003233e-16
-5.8708377686223674e-15
6.6229815657706034e-15
-4.578603255782012e-16
1.947145125335615e-15
5.922842336303475e-14
-3.059320245686296e-14
-3.058236603150747e-14
-8.737866934582391e-16
-2.77226092171643e-14
1.1646882128984529e-14
1.694951378163797e-14
1.0712844294291078e-14
-1.953002094506711e-14
7.912320386865256e-15
9.048562639107812e-16
6.39018794210216e-15
5.588032592296364e-14
-2.9401918441401586e-14
-3.286859542366422e-14
2.264513930557027e-13
-1.1694301788501087e-13
-1.1817071392809603e-14
-9.769130377788226e-14
-7.253573074100323e-15
-6.630813267348956e-15
-2.496104828950936e-15
1.6380491170400208e-14
4.4729240963489925e-15
-3.744333725598237e-15
1.7580329990929115e-15
-2.486623369843666e-15
-2.518485404824195e-15
-3.1024550687506376e-15
2.1872591885896115e-15
3.4336812849852234e-15
1.0193209496402745e-13
-5.466677973218832e-14
-2.89653955055087e-14
-1.8299919726330546e-14
7.449874790891478e-14
-2.694225407519269e-13
-3.03605546921972e-13
4.985293397649845e-13
-8.709342691573752e-14
5.974729893510782e-14
-1.0543091139272208e-13
1.3277703937335176e-13
8.927427466575301e-15
-4.203003407107523e-14
-2.4845708397960963e-15
3.558717744429603e-14
-1.3220560953221007e-13
-1.2122489669302232e-14
-2.7371882914838983e-13
4.1804692834990423e-13
-1.3559390801345052e-14
6.972425300349704e-15
-3.000072453946426e-14
3.6587690040459645e-14
-4.586372147852601e-14
-4.2756373992569097e-13
1.6712029992106708e-14
4.567154314121136e-13
1.140363849442711e-13
-1.7504002178670858e-13
-6.952201581184745e-14
1.3052565265428454e-13
-3.829928251809561e-13
-9.273920034521363e-14
3.963195337610129e-13
7.941249176515548e-14
-1.6282096998763417e-13
-5.437424938777216e-13
-6.074613433917034e-14
7.673095982045279e-13
-1.3246914089952463e-13
-5.741290441932965e-14
5.408327389200032e-13
-3.509506936011491e-13
-2.514410608766854e-13
3.8051243141064454e-13
-2.1918029902734009e-13
9.010892849338045e-14
-2.2373222838469846e-15
-2.3305704673566378e-15
-2.0234287462813105e-15
6.591321497484934e-15
-7.66485977220928e-15
-5.835261784367641e-14
-8.40646867968173e-15
7.442394629556757e-14
1.0807579907529875e-14
-1.0120075260288158e-14
-7.531538288646601e-15
6.844033641404894e-15
1.1865629222979907e-14
-2.656173700220695e-14
7.118463264146925e-15
7.57764451508012e-15
3.861906437427751e-14
-1.4079283002431565e-13
6.159793646730157e-15
9.601397200330827e-14
3.381977195407388e-14
-2.2571730783160394e-14
-5.92402623282119e-14
4.799222115729877e-14
-5.0689499563906665e-14
-5.493162014343763e-14
6.894354957242041e-15
9.872676475010216e-14
-1.4586159296049375e-13
-9.69339831058386e-15
1.4294004423675873e-13
1.2614947034318566e-14
-3.373318533869316e-14
-4.6266922632096914e-14
4.418254885045496e-14
3.581755912033512e-14
-2.4839128897756672e-14
6.118763693815334e-14
-6.499122910618633e-14
2.864272106578962e-14
-2.6423623035424885e-14
7.930329277888983e-14
-1.5352741563125432e-13
1.006477458877889e-13
-8.222895969146871e-16
-6.621193721492948e-16
-6.500650355070942e-16
2.134474004571076e-15
3.4630490582395244e-14
-7.62844271098886e-14
1.527536457496548e-15
4.012640006999677e-14
1.1081201982930036e-13
-1.8935681014676397e-13
2.2234324156820292e-14
5.631046616064247e-14
7.918317722724265e-16
-1.192934493101289e-14
-3.11701018021436e-14
4.230761496088412e-14
-8.462298755796318e-14
-1.9229243904011403e-14
1.1033050389418675e-14
9.281918107255614e-14
-1.43782447475604e-14
-1.996782319154128e-14
-2.8217268801827877e-15
3.7167794819284456e-14
2.883157734134209e-15
-2.689834669725536e-14
6.5781666132405e-17
2.3949407296988745e-14
-2.109507702438713e-15
-2.5176869818138344e-14
2.710076218283755e-14
1.8561533773949758e-16
-5.329889803318427e-15
-1.5377606395352787e-13
-3.551316460838336e-14
1.9461911836522968e-13
-3.0719765848922394e-14
-2.5825038043242738e-14
3.560270775544532e-15
5.2984533116620535e-14
1.2946585671667521e-14
-2.599673199306857e-13
5.254629967472399e-15
2.4176610429154586e-13
3.3033466634393225e-15
-1.9217503908815852e-14
4.6502206948325634e-15
1.1263936550543978e-14
-1.8549672358058938e-14
-1.9767476391932636e-14
1.4843233561265735e-14
2.347391518872585e-14
-8.367145870724762e-15
6.030028292387977e-14
-4.885903148976851e-14
-3.0741055633865603e-15
6.172111204738254e-14
-8.528485694843503e-14
-7.360662059466984e-15
3.0924406960519276e-14
3.7331871819464235e-15
-3.9119052101619404e-14
-8.703575677794105e-15
4.408944059746699e-14
-8.057327936281371e-16
-5.991581717607267e-16
-7.845329074020623e-16
2.189423872790927e-15
-7.64059026533203e-14
3.573870648236054e-14
-2.0181135098112742e-15
4.26853096807713e-14
2.8106157347266785e-14
-1.9073685254158548e-14
-4.5760163848655785e-15
-4.456455708242665e-15
-1.162095403272766e-14
-6.392160597189294e-14
1.7385303584470764e-14
5.815725642014967e-14
-5.509256820571505e-14
1.5995934896204892e-14
6.4987518918643566e-15
3.25978814176458e-14
-6.262379004356576e-14
1.8606957146147405e-14
-3.117127855641572e-14
7.51881114538341e-14
-2.7034658540668093e-13
-4.202508831491232e-13
3.7966883391799263e-13
3.1092863463780947e-13
-1.1011231399907708e-13
6.023484693778406e-14
-3.1225175944814996e-14
8.110264300610821e-14
-7.707342580603698e-14
-2.3502395078386015e-14
-3.1260780112544724e-14
1.318366009969674e-13
2.265302452620922e-14
-3.237440330806396e-14
-7.185687740365753e-15
1.690706652222044e-14
-6.305201397313918e-14
5.542979322129316e-15
-3.937920961459622e-14
9.688824426560632e-14
-5.4439978618061845e-14
4.6526307761567044e-14
3.943861078217809e-15
3.9698097782771575e-15
-4.4373448839005294e-15
-4.87017316048062e-15
1.006549975866328e-14
-7.57981714282138e-16
2.3730768261325637e-14
-2.20886157288214e-14
5.812994898097298e-15
-7.455147430601526e-15
3.2619913963662362e-15
-9.596340259731503e-14
-5.91651072727122e-14
1.518665184736616e-13
9.628414768448063e-15
-2.2579745125553056e-14
-3.524657995777804e-14
4.819791031488295e-14
5.173504129446091e-15
-2.3192675010198234e-14
2.3165263578639055e-15
1.5702644522888243e-14
-6.99089786094815e-14
1.0970141797716489e-13
-6.600571453315416e-14
2.621327516547106e-14
1.331165150480446e-13
-1.0182722139146711e-13
-2.487098398462646e-14
-6.4183096719510266e-15
2.7819069228012393e-13
-3.230425056940551e-14
-7.096921732717963e-14
-1.749172243835364e-13
3.4149137498775024e-13
-3.942516645512028e-13
2.3611945369194215e-14
2.9148344194258616e-14
4.763711263605588e-13
-3.4971155495947594e-13
-2.0985848534333015e-13
8.319891394224836e-14
6.58243421501229e-14
1.927829642459933e-14
-3.580621347678168e-14
-4.929642509794069e-14
0.0
0.0
0.0
0.0
3.220583363069226e-14
-1.2844625721402393e-13
2.3674582323689755e-14
7.256584125964209e-14
-2.3554664160800474e-14
-2.4656722996625176e-14
1.9587211114427123e-14
2.862417604299851e-14
-8.44992732670834e-15
-5.2135732587079264e-14
1.3759180114409077e-14
4.6826479799378444e-14
-2.785757567582946e-14
5.3412759152242025e-14
-3.307499433998018e-14
7.519810863567562e-15
-5.88354999564575e-15
-2.1343799009439908e-14
1.3566084587520342e-14
1.3661264417565316e-14
-1.3158775683284316e-15
-1.6440020819917881e-15
-1.5664319524918443e-15
4.526311602812065e-15
-4.877048081067233e-14
-4.4846930914452354e-14
1.9633418477578885e-14
7.398399324754562e-14
5.723319319320851e-15
-1.7850062904206373e-14
2.2154727117340728e-14
-1.0027983532455242e-14
4.438876477238092e-15
-1.6831818471860394e-15
-3.186467521626784e-15
4.307728915747328e-16
-4.140837887520203e-14
6.180402419875427e-14
-4.765376411392742e-16
-1.9919107682413042e-14
-3.255498348245762e-14
7.377431802483087e-14
-2.796651749799088e-14
-1.3252817044382313e-14
-2.4239540636673263e-15
-1.4757089984904344e-15
-2.1882860876026586e-15
6.0879491497604174e-15
6.966372992773626e-14
-2.1445102073221127e-14
-2.0794362871301217e-14
-2.7424264983213766e-14
5.734967799734765e-14
-3.386857427585847e-13
-1.5267242458567988e-13
4.340084893469179e-13
1.011747929582087e-13
-1.2510742416588112e-14
-1.1968098122246667e-13
3.1016930680845823e-14
3.0191336640161495e-13
-1.5901895802465794e-13
-2.6061580676805903e-14
-1.168328277001518e-13
-6.001210941605748e-14
1.3657888507894882e-13
3.34690326401522e-14
-1.100358083030433e-13
1.750268609092269e-14
-2.656922314224239e-14
-9.420506133445512e-15
1.8487043184765188e-14
1.2904286187293332e-13
-3.066043926203886e-13
-7.03594133199611e-14
2.4792094406741795e-13
3.8218803447327257e-14
3.619589406224121e-13
-3.8962941084347575e-13
-1.0548333226262418e-14
7.059027391796145e-17
-6.646367965123228e-15
6.9671590626662335e-15
-3.913813714609623e-16
4.60453374329137e-15
-1.1938684189907004e-14
-5.910162886332424e-15
1.3244313332948063e-14
-1.4940485324918388e-14
-1.6363415633965668e-14
-1.0687085571555883e-15
3.237260951603964e-14
3.554746848663707e-14
-2.5557735638436387e-14
2.022955296060038e-15
-1.201268814426069e-14
7.658249746252815e-13
7.725178046122037e-13
-6.456557703026335e-13
-8.926870089348459e-13
5.176314490941304e-13
8.197251233776427e-14
-2.7715239519363727e-13
-3.224515662382598e-13
-1.6069209292394284e-14
-4.043290169536834e-14
-8.846720343202004e-15
6.534883133096462e-14
5.87680198358407e-15
-2.2459751375933486e-15
-1.9285461071818414e-15
-1.7022807388088808e-15
3.107360833216855e-13
-2.614236904534362e-13
-1.4955343040273917e-14
-3.4357049827975866e-14
-7.734067552889928e-13
-1.1622878273891955e-13
8.128548157999241e-13
7.678072222798517e-14
2.591060308548183e-14
-3.295287664452786e-14
6.824410171710227e-15
2.1786338733575466e-16
-1.0318791083872313e-13
2.5548443160279376e-13
-1.5995966270935537e-13
7.663141945284347e-15
-2.386500426672396e-14
-2.6833180646050638e-14
-1.633047868716445e-14
6.702866359993931e-14
-4.154354035216353e-15
-2.4622731212796192e-14
7.290698689506779e-15
2.1486386558505726e-14
1.373197579317767e-14
1.711666362870498e-14
3.3483187459272163e-16
-3.118347129647537e-14
7.201777473038854e-14
-8.36625353614263e-14
-5.473327754620902e-14
6.637803817724685e-14
6.239381181849153e-14
-9.767168350909104e-14
-1.8428297410039818e-14
5.370616910063918e-14
-2.993203036940503e-14
1.9004114673401167e-13
-1.5274109576470952e-13
-7.368020599897114e-15
-2.5952950226691293e-14
-6.819973733534592e-14
9.569661329036828e-15
8.458302623300041e-14
8.17883228380849e-14
-8.199561761030758e-14
-5.4552035465470084e-15
5.662498318769792e-15
-1.5288662721047435e-13
-9.456291531666773e-14
-3.7262398815814073e-13
6.200735306852818e-13
-5.297001440410555e-13
-7.743240689171995e-14
-7.120236417635927e-13
1.3191561926963644e-12
-5.844384169318621e-14
-1.3646717398477921e-13
-7.376182160325023e-14
2.6867283728121666e-13
-4.055113069513864e-14
2.2660364968334175e-14
-4.85461323040797e-14
6.643689803088414e-14
-4.2804146689458184e-13
-1.9005696940474076e-13
-4.146714655783127e-13
1.032769901877627e-12
-6.42692650694648e-14
-7.940272906556274e-14
-4.5406703719087123e-14
1.8907869785411506e-13
-8.617807134888115e-14
1.2105213144845198e-13
-9.147329424542462e-14
5.6599234145853924e-14
-1.5998113712306766e-13
-6.623511534119573e-13
-2.20551673797795e-13
1.0428839643328151e-12
-6.686204315464699e-14
1.0838602317930539e-13
-5.45545701845848e-14
1.3030590159926163e-14
-3.8231562981707055e-14
-1.0711208254641763e-13
2.3291814714015297e-14
1.2205183081410918e-13
-1.7907535983109906e-14
-1.1179004662851124e-13
2.9523782743037797e-14
1.0017379986858322e-13
3.034222186823891e-15
-5.664671368631629e-14
1.002333470739695e-14
4.358915679209534e-14
1.0016050129308436e-13
-1.8910676343948193e-13
-4.5588826509181335e-14
1.3453508865557886e-13
-2.4238110005298838e-14
1.5135234711581057e-14
-1.197930897287362e-13
1.288959650224545e-13
6.565826830416268e-14
-3.5555107646723795e-14
-1.4974459221521633e-13
1.1964143155777687e-13
-1.8116030841319636e-13
1.866064919964406e-13
5.568680681171877e-17
-5.50187039005643e-15
-5.2236437115833045e-15
2.7083840802483766e-14
-1.2599616678778349e-14
-9.260580412122141e-15
3.894378357425103e-14
-4.727949693751318e-14
-6.302302108462843e-14
7.135873444789072e-14
6.333850581751017e-14
-1.1818160907801667e-13
-2.998988449815514e-14
8.483298775866137e-14
4.534040500093154e-14
-6.683798107519091e-14
3.800013067005287e-15
1.7697563007254115e-14
2.2777217420009113e-15
-2.1060831384888845e-14
3.4893727849682693e-15
1.5293736857919666e-14
7.706020071791361e-14
3.3365388912574977e-15
-1.7745253266441507e-13
9.705579305524339e-14
3.445543728972132e-14
-8.033997604904572e-14
-8.654967977475432e-15
5.453950673679984e-14
-3.3685469144834826e-14
4.182820312072339e-14
-1.7700121256887783e-14
9.557387280999128e-15
1.0503581852559771e-14
-1.293077883057317e-14
1.6914774841122054e-15
7.357194939011974e-16
2.7524576466251153e-14
-8.204734030651661e-15
-1.1207568069717833e-14
-8.112274365881654e-15
0.0
0.0
0.0
0.0
2.2858696644626578e-15
-5.0587380463763645e-15
4.227621551319466e-15
-1.4547531694057586e-15
0.0
0.0
0.0
0.0
-8.634073147591035e-15
-8.619250124922844e-15
1.4818166235879308e-15
1.577150664892595e-14
2.4334066784725235e-15
-6.174570136391673e-15
-4.689897170584259e-16
4.210153174977578e-15
0.0
0.0
0.0
0.0
5.662876924842555e-13
-9.460695362888434e-13
-5.839194960698257e-14
4.381737934115723e-13
0.0
0.0
0.0
0.0
2.656735056494463e-13
-5.868684642010268e-14
-5.8279197065081146e-15
-2.0115873952283616e-13
-3.4067282632265e-12
1.5200282057509244e-12
5.822092584426423e-13
1.3044907990329524e-12
-2.0361937615259017e-12
2.028832661474894e-12
2.2548126932790263e-13
-2.1812016927689654e-13
-3.061817582449225e-13
3.616619439333909e-13
-3.217952661088322e-14
-2.3300659077588027e-14
-8.323533348419186e-16
-2.372360401540652e-14
1.9984474498605817e-14
4.571482851642638e-15
6.166340770787278e-15
-2.9668321463261906e-14
1.602271726599097e-14
7.479263426483686e-15
0.0
0.0
0.0
0.0
0.0
0.0
0.0
0.0
1.5735135945136658e-14
-8.081944487050011e-15
-4.022854536516719e-15
-3.630336921569928e-15
6.095145314183936e-15
-9.597742976226175e-14
1.835874378887937e-14
7.152354065919852e-14
-2.6250962077449646e-14
3.5002610503483234e-14
-5.327617999478233e-15
-3.4240304265553407e-15
-2.3830472619348307e-14
-1.3220498679989136e-13
1.2882101367660757e-14
1.4315335805157902e-13
1.47853219860726e-14
-1.58845651196858e-14
-1.976339411144941e-15
3.075582544758129e-15
-3.347917221254716e-14
7.876908452964576e-14
-2.873796564491811e-14
-1.6551946672180438e-14
-1.3852269397866459e-15
-1.527042389690417e-15
-1.4921896057860876e-15
4.4044589352631506e-15
8.466181267705363e-15
-6.533841065389845e-15
-2.2974462424309184e-15
3.651060401154014e-16
1.7450858029364561e-15
-4.249263187733649e-15
3.922783889893527e-15
-1.4186065050963347e-15
-3.500220041311845e-15
-4.5340340458169424e-14
-1.7321242946653006e-15
5.057268479414643e-14
-6.096821360665878e-15
-7.082800146850358e-15
-1.5444652347789165e-15
1.472408674229515e-14
-4.135075412607982e-15
-4.387866522809743e-15
7.673891913894269e-16
7.755552744028298e-15
6.7164679256914425e-15
-8.053744788438023e-15
-3.482177332278563e-15
4.8194541950251385e-15
-4.234599425283897e-14
-5.917602227646568e-15
-2.5715839680548228e-14
7.397943616103358e-14
-1.0011832773568995e-13
3.6781232114725696e-14
-3.851359570525944e-14
1.0185069132622362e-13
-1.0693183016193563e-13
1.1739722284394485e-13
-6.956688401031408e-14
5.910149132830485e-14
-3.636219963669819e-14
5.606841405737613e-14
-2.1769893328647725e-14
2.063678907969733e-15
-5.550581142185749e-13
6.366799552655199e-13
-4.828499706559323e-13
4.012281296089865e-13
-3.910456957153347e-14
5.861946030684502e-14
-2.954229593686723e-14
1.0027405201555745e-14
1.9303005020423286e-14
2.1078098005151339e-13
-3.040721852584257e-13
7.398820018648949e-14
-3.7953413500653025e-13
4.014858042477265e-13
-1.96838445135365e-13
1.748867758941673e-13
2.9661758631887095e-15
-2.8687655542687464e-14
5.886242295479743e-16
2.51328554499508e-14
1.0481471348950143e-13
-1.8172896962150842e-13
3.4916440645175032e-15
7.342261206748999e-14
-4.634576836154605e-14
3.523423392372001e-15
-8.026763678413781e-16
4.3625021337015363e-14
-9.564647064973888e-15
4.407813405239695e-14
-3.9155900108570453e-14
4.6424131211474075e-15
-9.275808381877647e-15
-7.46560751181265e-15
1.4464224254696695e-15
1.5294993468220632e-14
-9.535957637016913e-15
-4.4032409341456226e-14
1.9244644716747314e-14
3.432372226172586e-14
2.1518763533917312e-14
-5.063138695764268e-14
1.0857234995084098e-14
1.8255388428641305e-14
-7.279703601895594e-14
6.002438873201691e-13
-4.594138787480913e-13
-6.803297255311998e-14
2.1325461966401148e-14
-1.569289242561343e-14
1.5804096648182694e-15
-7.212979205605994e-15
-1.638103135673152e-14
8.779362936052075e-14
-3.84383942790865e-14
-3.2974203724702764e-14
-5.576628843627287e-14
1.0457000595416393e-13
-6.875552678709967e-14
1.995180926920848e-14
7.051350168682122e-14
-1.2722253849408315e-13
4.028908426396196e-14
1.641995254330007e-14
-1.314841060475581e-14
3.4750635088367804e-14
-2.048362686514278e-15
-1.955386179709767e-14
8.617192808154996e-15
-6.830653663035163e-14
2.2996217908912035e-14
3.6693125913284526e-14
-3.8946555448602486e-14
-4.5786020503514666e-14
-1.2363545426834094e-14
9.709612137895133e-14
-2.169244898095031e-13
4.001149022823364e-13
-1.693519322680629e-13
-1.3838480204770217e-14
2.7422301985431267e-14
3.632331941293073e-15
-4.745805176577324e-14
1.640341783904881e-14
-1.8455520182481138e-14
4.312075368754187e-14
-3.1866166662015256e-14
7.200933156954447e-15
1.0308940869790892e-14
-5.879290279736288e-14
-1.1044833012844843e-14
5.952879494041671e-14
-6.60803057812997e-15
-1.392394011382727e-14
-9.893221337545548e-15
3.042519202950277e-14
9.51380614977598e-13
-9.36666399361706e-13
-7.873056088894588e-13
7.725913932735598e-13
6.860474263450053e-14
-1.7161178734207755e-13
-8.295860461122602e-14
1.8596564931880341e-13
4.389653391137857e-14
-3.596227636432118e-14
1.1543412902567977e-14
-1.9477670449625364e-14
4.842510401191933e-13
-2.4832237592011555e-13
-4.1432419782276005e-13
1.7839553362368122e-13
-2.755465933983241e-14
4.315058573399469e-14
-3.070309896421286e-14
1.5107172570050532e-14
9.836189083546326e-14
-1.1173387765197002e-13
1.3655381696115491e-14
-2.833948796087305e-16
-2.6329985326013636e-13
4.5610673355185745e-14
-1.2345701879917893e-13
3.4114619870413e-13
-1.2486219665159572e-13
2.6891445059042394e-14
-3.755524454894501e-14
1.35525996141498e-13
-4.904336606894167e-14
1.3554632297280734e-14
-8.352553018621574e-14
1.19014263957877e-13
-1.2127419715577243e-13
3.195046367887993e-14
-1.2758082628530995e-13
2.169045597622018e-13
-5.1344004269344355e-14
1.4979895529094735e-13
-6.009703945525186e-14
-3.835791156635111e-14
-8.929374677332625e-14
-2.0599497880821224e-14
-6.50699572597445e-14
1.7496320191389194e-13
-2.0534516227630194e-14
-3.3839968517538126e-14
-7.221164938106477e-14
1.2658613412623344e-13
-1.7211732281558835e-15
-1.6942372673168768e-14
-1.1920240661120723e-14
3.0583786562445394e-14
7.429626768942343e-14
-4.688018574715258e-14
-5.5630605465583395e-15
-2.1853021395712672e-14
-3.181888511328501e-14
6.485535689526136e-14
-4.71526271233749e-14
1.4116155341398553e-14
-3.716155044457704e-09
1.0908316512906703e-09
-3.241377748816526e-09
5.866701141983607e-09
-9.255255321002771e-11
2.3031520863828758e-11
-8.214567977181294e-11
1.5166671211801305e-10
2.490915946672538e-12
-4.012067042476143e-12
-4.138135309685803e-12
5.6592864054894086e-12
-7.41440729090374e-12
-7.942385549781138e-13
2.3532379546094876e-12
5.855407891272346e-12
-1.6487653562203974e-12
2.5566938421659436e-12
-5.0841797008377854e-12
4.176251214892216e-12
1.3363634112855257e-12
-1.2621867312428115e-12
-5.105150325266043e-12
5.0309736452233236e-12
-8.777428187026573e-12
1.5571691590794454e-12
1.4344646744381507e-12
5.785794353508952e-12
4.669083004714555e-13
-2.3325563350779726e-12
-3.1828132252233687e-12
5.048461259829914e-12
0.0
0.0
0.0
0.0
-7.127891846199922e-12
-3.0576682603903502e-12
-2.878617289468063e-12
1.3064177396058272e-11
4.915354127114491e-14
-4.88692335239489e-14
1.5929116098382314e-15
-1.8772193570342532e-15
-1.327648099146522e-13
-5.509399840987529e-13
-2.580400175962046e-13
9.417448116096103e-13
-1.150127536044033e-13
-5.020885172356882e-13
6.648826147958732e-15
6.104524446921294e-13
5.379357672665728e-12
-3.4067463977634827e-12
1.0686329178786308e-11
-1.2658940453688564e-11
-1.2993171473908776e-12
-6.106667406826148e-12
