-8.492512626456639e-13
-4.781709726948681e-13
-1.1609289446384733e-12
2.4883511799790088e-12
-3.8926465490584454e-13
-3.582719559890193e-14
-3.80620071805881e-13
8.057119223106265e-13
-3.0694273906478724e-13
5.590231154883273e-13
-6.170291433683568e-13
3.649487669448183e-13
-5.314884676755704e-13
6.464572789694463e-13
-4.924912554149425e-13
3.775224441210675e-13
-1.6264057401937827e-13
-1.1517963314388388e-12
-1.216599382304328e-13
1.436096843688647e-12
8.798928641493392e-13
6.912934632925263e-14
1.0902062102505099e-12
-2.0392284207291016e-12
-6.045060003590419e-14
-5.786315452611386e-14
-6.615097163785436e-14
1.844647261998724e-13
5.054432441960007e-14
-5.371715352974692e-13
-3.0906913453224244e-13
7.956963454101136e-13
-3.576242140522949e-15
-3.554409279205446e-15
-2.9870480364477844e-15
1.0117699456176181e-14
6.412646715472616e-13
8.771268990664411e-14
3.3619392041870046e-13
-1.0651712818726072e-12
-5.723242911084695e-14
-5.3690823427540964e-14
-6.555383346268864e-14
1.7647708600107651e-13
-1.576922462270735e-14
-1.8459355249169218e-14
-1.447098732912592e-14
4.869956720100245e-14
-8.712427902672877e-15
-1.7010460766252184e-14
-1.652171067682043e-14
4.2244599345745495e-14
-1.6484829276724373e-14
-2.0924992649232315e-14
-1.2933820354770289e-14
5.034364228072698e-14
-1.3036618103951163e-14
-2.5852847585214342e-14
-1.8428599026975424e-14
5.731806471614086e-14
-3.2181709250572502e-15
-4.172331098572903e-15
-5.971381751657332e-16
7.987640198795887e-15
-2.7193985039102678e-14
-1.5937021941589276e-14
-1.3374073324715766e-14
5.650508030540768e-14
-6.26877684846792e-15
-9.922204637480987e-15
-2.9148044555769058e-15
1.910578594152582e-14
-1.4435352129979353e-14
1.4218901059341002e-14
-1.3543530827418953e-14
1.3759981898057316e-14
-9.231878030909064e-16
-9.308811883215101e-16
-9.309338331649194e-16
2.785002824577336e-15
-1.1576188013334808e-13
-7.51188308042265e-14
4.144785168047054e-15
1.86735925769528e-13
1.0148869638000756e-13
-4.860371644598072e-13
-2.3856947955056664e-13
6.231179476303634e-13
0.0
0.0
0.0
0.0
-1.3896229218891796e-13
3.843447356075155e-13
-1.3861275359999935e-13
-1.0676968981859808e-13
-6.948742074645268e-15
-7.722440877996866e-15
-5.609953946440988e-15
2.0281136899083136e-14
-2.1806024289181502e-14
2.9187389267443085e-14
-1.750534512786191e-14
1.0123980149600328e-14
-4.058092549160818e-16
-3.8590785660386376e-16
1.744043555960377e-16
6.173127559239078e-16
-2.3141742604277306e-14
-3.64348000079396e-14
-5.523435221590551e-15
6.509997783380757e-14
1.0174548052985454e-12
-3.9939774629813473e-13
-1.6666715616374684e-13
-4.513899028366636e-13
-3.849491525797183e-15
-3.825274395567481e-15
-3.863159992384725e-15
1.1537925913749396e-14
-4.070843986974432e-15
-5.709561812262865e-15
-4.219957315564139e-15
1.4000363114801441e-14
-1.846914174708243e-14
-1.900035552318613e-14
-1.6099179661502314e-14
5.3568676931770926e-14
-8.375019428935629e-13
1.3071018566056045e-12
-1.5173662792504105e-14
-4.544262509195392e-13
-2.2349556784112212e-13
5.83067801548653e-13
-5.268739662577295e-13
1.6730173255019842e-13
-9.743542321276947e-15
-9.451355622597882e-15
-5.143257247030382e-15
2.4338155190905214e-14
1.746542221585608e-13
-7.659664951069117e-13
-6.443331326539016e-16
5.919566060810069e-13
1.0475369861785923e-14
-3.2936788276260263e-14
-1.7820541089518797e-14
4.0281959503993135e-14
-6.251738603076164e-14
-8.738515683013318e-14
5.851079708687563e-14
9.139174577401908e-14
-1.7223070756560314e-13
9.386955509864176e-14
-3.340539723382633e-13
4.124151248052245e-13
-2.9791770889519256e-14
2.8088404395421645e-15
-3.4431679904601396e-14
6.14146103545785e-14
-1.2333778933414221e-13
1.4948375126627976e-13
-9.156321008726799e-14
6.541724815513042e-14
-5.934052665268273e-16
-6.369872552574498e-16
-5.927001838077499e-16
1.823092705592027e-15
-2.7542954306043372e-14
4.448766837156263e-14
-2.3477638687462123e-14
6.5329246219428354e-15
-2.7847500091120864e-14
-3.2800123812045823e-14
-1.9756749608990506e-14
8.040437351215717e-14
-6.9710690956448804e-15
-6.92201836648446e-15
-2.868218419033599e-15
1.6761305881162943e-14
7.304051436899246e-14
-6.847163063583031e-13
9.033620791931118e-13
-2.916862872038045e-13
-1.4365184171900164e-14
-2.4157114752655923e-13
3.2491029594944935e-14
2.2344530210351412e-13
-5.5853261097383235e-14
2.0610047161970632e-14
-2.9347942213216185e-14
6.459115614862892e-14
-3.606911560187184e-14
-3.74608779190233e-14
-3.5127837070260284e-14
1.0865783059115545e-13
-1.7967612347478457e-14
-4.862594991495784e-14
-2.1838067985997683e-14
8.843163024843398e-14
-2.753427643442763e-16
-2.485655001095698e-16
-2.810105668007385e-16
8.049188312545845e-16
0.0
0.0
0.0
0.0
-3.0585555706324627e-14
-1.9226584495968956e-14
-1.8760279363847584e-14
6.857241956614119e-14
-1.3174790467993126e-14
-1.402781485533986e-14
-1.0330975381495263e-14
3.753358070482826e-14
-3.372947961779389e-13
-3.858298363319238e-13
-1.2101560509777945e-13
8.441402376076413e-13
-1.1697250608158582e-14
9.549788400002603e-15
-8.90807930473146e-15
1.105554151288745e-14
-2.7374086132387146e-14
-5.1347802527958715e-15
-7.462366479061482e-15
3.997123286424446e-14
-1.8074023246136204e-15
-1.6191060506893136e-14
-1.3458216079602802e-14
3.145667891110956e-14
-3.6039257122472295e-14
-3.612512788335993e-14
-1.5737761968108143e-14
8.79021469739405e-14
-2.3189151379333307e-14
1.8914812047225852e-14
-2.257813228902728e-14
2.6852471621134717e-14
-2.1605981508228067e-13
5.650456018187966e-13
-3.5049037447913856e-13
1.5045877426212506e-15
-3.190016226530524e-15
-3.80922739598203e-15
-4.1892128601441465e-15
1.1188456482656698e-14
-1.83996395894403e-16
-1.7811429427713033e-16
-1.6583319296420605e-16
5.279438831357393e-16
4.755513626398277e-09
1.707775458167747e-08
1.6059350104069526e-08
-3.7892618312144344e-08
-1.5268807984995688e-10
-2.7094435580553294e-10
7.649278409056536e-10
-3.412954052501654e-10
-1.341271011394492e-13
3.7488507360221023e-13
-1.3418647614573794e-13
-1.0657149631702317e-13
0.0
0.0
0.0
0.0
-2.0662061310325885e-14
-1.5524268293060554e-13
-4.787436292182584e-15
1.8069218053311412e-13
-1.3036618103951163e-14
-2.5852847585214342e-14
-1.8428599026975424e-14
5.731806471614086e-14
-8.712427902672877e-15
-1.7010460766252184e-14
-1.652171067682043e-14
4.2244599345745495e-14
4.35521821827358e-15
4.9267799073255637e-14
1.6136727102317132e-13
-2.1499028831470037e-13
-7.575288812796351e-16
-7.570484235600166e-16
-7.641518394865496e-16
2.278729144326201e-15
4.855714939998257e-15
-4.371251246727028e-15
1.587583292972702e-15
-2.0720469862439303e-15
-6.281203366205175e-15
5.3830785337385185e-15
-6.0740511248622254e-15
6.97217595732888e-15
1.091800701540709e-13
-1.6281790302145458e-13
1.7327284061504592e-13
-1.1963500774766233e-13
1.5949562091343495e-13
-3.989104643159861e-14
-4.9654406441763474e-14
-6.995016804007292e-14
1.2368357013710744e-13
-2.1543077384740092e-14
-3.705373960088438e-14
-6.508675315148327e-14
-2.3490151099033813e-15
-3.291329161215431e-15
8.446545795210786e-16
4.795689691597731e-15
4.895439166166924e-14
-1.0827738783178038e-13
-7.430971196040065e-14
1.3363270813051225e-13
4.794872244752331e-16
-4.1233603741578923e-16
-4.2357751602466013e-16
3.5642632896521607e-16
6.517139121090505e-16
-1.8879352997692145e-15
1.0603158340096495e-16
1.1301898042591992e-15
-1.9815568027718585e-14
-5.874806101170365e-15
-1.0859525330019402e-14
3.654989945890833e-14
-3.367811207173282e-15
-5.00607887845451e-15
-3.5243119967362098e-15
1.1898202082364002e-14
-2.7374086132387146e-14
-5.1347802527958715e-15
-7.462366479061482e-15
3.997123286424446e-14
-3.2181709250572502e-15
-4.172331098572903e-15
-5.971381751657332e-16
7.987640198795887e-15
-5.5800303344737785e-15
-7.234050239985268e-15
-3.996672615370228e-15
1.6810753189829292e-14
-4.379940385326176e-15
2.3430866828722688e-15
-1.0741305355251973e-14
1.2778159057705874e-14
0.0
0.0
0.0
0.0
-2.753427643442763e-16
-2.485655001095698e-16
-2.810105668007385e-16
8.049188312545845e-16
2.958176630583412e-14
-8.900284098618697e-14
7.61006461875676e-14
-1.6679571507214748e-14
-6.26877684846792e-15
-9.922204637480987e-15
-2.9148044555769058e-15
1.910578594152582e-14
-4.5477090937102314e-15
-4.420967663419323e-15
-4.604801536685919e-15
1.3573478293815473e-14
-3.221253882309081e-14
1.0028292975744337e-15
6.12354456350782e-15
2.508616496200846e-14
-1.158833141038631e-14
-1.250315371611167e-14
-8.729180614670664e-15
3.282066574116865e-14
-5.127904570392275e-15
-1.1392824241749922e-13
-5.149173165305953e-14
1.7054787864095146e-13
1.4993228491306042e-15
-2.9721597581421117e-15
-1.4582487384876434e-15
2.931085647499151e-15
0.0
0.0
0.0
0.0
-2.124641284556946e-15
-3.600724081620428e-15
-1.2571501756038552e-15
6.98251554178123e-15
-5.851438367962778e-16
-5.890690041183197e-16
-5.960309128762293e-16
1.7702437537908266e-15
2.616301659683283e-15
-2.9283670509353074e-15
-3.0431426133017295e-15
3.3552080045537543e-15
0.0
0.0
0.0
0.0
-1.3150582414857863e-14
-3.0931864105764676e-14
-2.169279795819575e-14
6.577524447881832e-14
-4.8170299326205984e-15
-1.7694085809193052e-14
-1.4527002780194601e-16
2.2656385769615576e-14
-7.611867267035233e-14
-3.659133965065696e-14
1.7874720518196286e-13
-6.603719286095327e-14
5.049223800912533e-14
-7.543999344684854e-14
-4.4187471066785854e-14
6.913522650450897e-14
-2.1061085649195257e-14
8.655052116389294e-15
-1.7299542257652362e-14
2.970557579045833e-14
-2.5782495390195018e-14
-4.1034302960071084e-14
3.727368048159012e-14
2.954311786867595e-14
-3.76949141452749e-15
-2.8988353310822895e-14
3.1791562735636314e-14
9.662819897140748e-16
-4.1021308818970675e-14
2.309681432163571e-15
-3.978619517576811e-14
7.849782256257527e-14
-1.1614739053857486e-14
9.636843793335412e-15
-8.815911091341709e-15
1.0793806351863798e-14
-8.251155430109441e-17
-8.705539333280961e-17
-9.216821338975099e-17
2.61735161023655e-16
-4.350744854997834e-15
-8.189298359719395e-15
-6.390832291697046e-15
1.893087550641427e-14
-8.547958778546803e-16
-1.837038688124916e-14
9.83984530373199e-17
1.9126784306066493e-14
-3.6039257122472295e-14
-3.612512788335993e-14
-1.5737761968108143e-14
8.79021469739405e-14
-1.7109793352337625e-14
-1.335584106142217e-13
3.314433977584654e-14
1.1752386419071314e-13
-2.0022483220188055e-14
-4.933186025463462e-14
-1.4565996495906253e-14
8.392033997072899e-14
-1.806984744549236e-15
-1.8455712024763976e-15
-1.827957700137806e-15
5.480513647163438e-15
-1.4435352129979353e-14
1.4218901059341002e-14
-1.3543530827418953e-14
1.3759981898057316e-14
1.3647730920011348e-13
-3.2697857954731396e-14
-2.792037121422053e-14
-7.585908003116164e-14
-1.4461688704811416e-15
-1.5844098384930904e-14
-1.3115274293455355e-14
3.040554154886742e-14
-3.6123345413247805e-16
-3.4696212196222976e-16
-3.429417861474472e-16
1.051137362242155e-15
0.0
0.0
0.0
0.0
3.972637308743659e-15
-3.2187519947640443e-15
1.5799779721717422e-16
-9.118831111967893e-16
-5.252215356480998e-14
1.808938913498387e-13
-1.2965673104863959e-13
1.2849932636108286e-15
-2.884629671937358e-14
-4.7260050807308836e-14
-3.649115579883855e-14
1.125975033255211e-13
-4.5054729354972926e-14
-8.215339057584015e-14
1.8996657685723117e-14
1.0821146224508992e-13
3.1459995626226444e-14
2.5105143757799778e-15
-1.6978316751217745e-14
-1.6992193250788697e-14
0.0
0.0
0.0
0.0
8.941715567307427e-14
1.3151935053890414e-14
3.3076021126959467e-15
-1.0587669283966073e-13
2.8956402904921935e-14
6.145603258434319e-14
-3.6868562118706734e-14
-5.3543873370558356e-14
4.2009652097474716e-14
-7.065738736716232e-14
-1.752674624071761e-14
4.6174481510405326e-14
-2.103027672953335e-14
-2.6477920454254915e-14
-6.7721006633391224e-15
5.4280297847127434e-14
3.5198464974387506e-16
-1.9030721786905523e-14
-1.3904609738447935e-14
3.2583346875609606e-14
3.7482661186635076e-13
-8.784004548876637e-14
-1.3860938924026369e-13
-1.4837717713732086e-13
1.2307759605226938e-14
-5.52311167991798e-15
-3.13257083939733e-15
-3.652077085911628e-15
0.0
0.0
0.0
0.0
1.5225181603433007e-14
-1.7620058262244933e-13
8.657755616322e-14
7.439784485579627e-14
-3.849491525797183e-15
-3.825274395567481e-15
-3.863159992384725e-15
1.1537925913749396e-14
4.6457007134559066e-14
-3.0524490559776896e-14
9.005920306389125e-14
-1.0599171963867353e-13
-4.058092549160818e-16
-3.8590785660386376e-16
1.744043555960377e-16
6.173127559239078e-16
-6.106283717417636e-15
-3.332750810656358e-14
-8.947453740160547e-15
4.83812455641418e-14
3.0308618975507795e-15
-6.961425679189472e-14
7.7505202605702e-14
-1.0921807711358e-14
1.4965904171604286e-13
-2.6836098331717326e-13
1.0580100427733594e-13
1.2900937323794887e-14
8.885971588295892e-14
-5.636938595982397e-14
-2.905151375539183e-14
-3.4388161677429645e-15
1.1598653499853294e-14
-2.161140320619724e-13
1.0914557787616371e-13
9.536980068595612e-14
-3.380439662946286e-16
-3.4181218420319046e-16
-3.3490292028869e-16
1.014759070786509e-15
-2.7024413434231097e-14
-3.117708200490919e-14
-1.800989012739426e-14
7.621138556653454e-14
-3.382972599583015e-15
-4.272156952336932e-15
-2.076123718320133e-15
9.73125327024008e-15
-5.934052665268273e-16
-6.369872552574498e-16
-5.927001838077499e-16
1.823092705592027e-15
-3.576242140522949e-15
-3.554409279205446e-15
-2.9870480364477844e-15
1.0117699456176181e-14
-5.239010636928387e-14
-4.076958093256926e-14
-5.2118302908333605e-14
1.4527799021018736e-13
7.485655894839888e-14
-7.897743908299426e-14
1.958446363696553e-14
-1.546358350237016e-14
-2.9737662407585686e-14
-6.248127124980393e-14
-2.2764540528020073e-14
1.149834741854097e-13
2.097437526564821e-14
-3.10058800642198e-14
6.601638627611316e-14
-5.598488147754165e-14
-2.159589869560767e-15
-3.588078511968438e-14
-1.650436982334272e-14
5.454474481258795e-14
-1.32036361967594e-14
-6.627473048010945e-14
-4.445073411399907e-14
1.2392910079086776e-13
9.15507246443061e-15
1.394318174558394e-13
5.934185393430116e-14
-2.0792874385457093e-13
7.593056254350599e-14
6.032974603749825e-14
1.4953819564324856e-13
-2.8579850422425174e-13
1.0003666340426741e-13
4.7840530010344996e-14
1.4754459667037765e-16
-1.480247380112827e-13
1.8343202468713147e-14
-8.915559624259039e-15
-4.361449063566741e-15
-5.066193780887369e-15
1.0911673989036242e-14
5.0536315848891433e-14
-3.4574658672380776e-14
-2.6873331165546904e-14
-3.5830777877195305e-14
6.994190741660518e-14
-1.4781945717309922e-14
-1.9329183822100023e-14
5.1544214222981e-15
4.8538222229999906e-14
-2.4081119610556206e-15
-5.1284531691242475e-14
9.194555925700529e-14
-3.899814520587224e-14
-4.541162504660995e-14
-7.535789004523079e-15
-2.2512932668091018e-13
3.970041442230718e-13
-8.155177929241258e-14
-9.032303824974912e-14
-1.758052499399177e-14
-3.26199553394243e-14
6.398423187317248e-14
-1.3783751539756452e-14
8.357598790787432e-14
-2.5027904021490326e-14
3.2281959831830604e-14
-9.083004371821465e-14
2.0849785869045238e-14
-9.031134609071904e-14
1.1190996861216614e-14
5.827056336045727e-14
6.549256172654259e-15
7.821978805551144e-14
-6.763226604868589e-14
-1.713677817947975e-14
6.474731791019128e-15
-1.947129627418521e-14
-7.440246098733496e-15
2.0436810581899592e-14
-9.183417911479345e-14
-1.6926122378578016e-14
1.1286270244626454e-13
-4.102400952893054e-15
-4.19950729622172e-14
-5.690352160230793e-14
-2.8413307273072687e-14
1.2731190183759794e-13
-1.7894418401336434e-13
1.6237763422687245e-13
-7.528899441559383e-14
9.18555442020859e-14
-1.7283279535094377e-15
-1.9417644224203328e-14
5.837870205026198e-17
2.1087593475662448e-14
8.222245973396003e-14
-5.965117635034593e-14
-1.6256081370100916e-14
-6.315202013513309e-15
-6.948742074645268e-15
-7.722440877996866e-15
-5.609953946440988e-15
2.0281136899083136e-14
9.358369391366831e-14
7.215145753203341e-14
-8.679047659728524e-14
-7.894467484841639e-14
-4.9564329705324285e-15
6.034743278722036e-14
-3.067024304022868e-14
-2.4720756776459264e-14
-1.0635172000923455e-13
-1.1884927588741357e-13
3.0567055139237526e-13
-8.046955549572733e-14
1.1893282277557096e-14
-1.274226201432252e-14
-9.371946491941554e-15
1.0220926228706991e-14
-2.3928500520730817e-15
-2.2442559204461642e-15
2.767682544987269e-15
1.869423427531977e-15
-2.5484898169044297e-14
-2.4524998136308818e-14
9.0412112448761e-14
-4.0402216143407954e-14
0.0
0.0
0.0
0.0
-2.089754734724534e-13
4.514270138794721e-13
-5.3504570908885016e-14
-1.889469694981343e-13
-3.616287614909766e-13
5.419455060195783e-13
-1.3614867441799488e-13
-4.4168070110607276e-14
1.9323165422032045e-15
-1.5379722229095414e-14
1.0792628805948477e-14
2.6547768809437122e-15
-2.6141463787054207e-14
-1.571002034204597e-14
7.950836956176956e-14
-3.765688543266929e-14
-2.8190958513311326e-14
-7.55646778536856e-15
-5.63954625832731e-15
4.138697255700722e-14
-2.3189151379333307e-14
1.8914812047225852e-14
-2.257813228902728e-14
2.6852471621134717e-14
1.3843364110835144e-15
-1.0537124951139751e-14
-7.337152377483573e-15
1.6489940917539804e-14
-4.070843986974432e-15
-5.709561812262865e-15
-4.219957315564139e-15
1.4000363114801441e-14
1.340068378917439e-14
1.8654021578361627e-16
2.498917414837215e-14
-3.8576398153330146e-14
-2.803124875809074e-15
-2.428010802185639e-13
1.1294234992248173e-13
1.326618551718913e-13
-2.944726662356327e-14
1.4933777333349727e-14
-1.463969531658712e-14
2.915318460680065e-14
-3.066155126745827e-14
-4.3361039890273607e-14
2.643247292289154e-15
7.137934386544263e-14
0.0
0.0
0.0
0.0
-1.576922462270735e-14
-1.8459355249169218e-14
-1.447098732912592e-14
4.869956720100245e-14
-1.3921432653372203e-14
-1.4579387859766828e-14
-1.1494378124816394e-14
3.999519863795543e-14
-2.7542954306043372e-14
4.448766837156263e-14
-2.3477638687462123e-14
6.5329246219428354e-15
-9.233405735039563e-15
-3.336180600517845e-14
-2.102653626361492e-14
6.362174800383299e-14
-1.5476266151485626e-14
-2.122042224689091e-14
-3.3059366361185545e-14
6.975605475956206e-14
-7.275778805907672e-15
-3.1514226837779646e-14
6.957164125788714e-15
3.1832841517898596e-14
-9.172794890837892e-15
-2.813142119697723e-14
-1.0884700209134543e-14
4.81889162969497e-14
-6.9710690956448804e-15
-6.92201836648446e-15
-2.868218419033599e-15
1.6761305881162943e-14
4.765127463333607e-14
-6.011451078734396e-14
6.174518037971955e-14
-4.928194422571156e-14
0.0
0.0
0.0
0.0
1.2035489604563298e-14
-9.294074423966444e-14
4.524516980467415e-14
3.566008483042706e-14
-3.537634160609102e-16
-3.1569388748625607e-16
-3.4794099626652117e-16
1.0173982998136877e-15
5.971730262495957e-15
5.493740733659428e-15
-7.2629878601053e-14
6.116440760489739e-14
-9.535759039198195e-15
-1.0897603689346101e-14
-3.9141197751665015e-15
2.434748250371079e-14
-1.3944306317756965e-14
-2.7516226833941236e-14
-1.092240631431325e-14
5.238293946601149e-14
1.9703574247207043e-13
2.2002450014288324e-14
-1.6456852527892542e-13
-5.446966720743309e-14
2.035623573770579e-15
-1.4429479095006655e-15
-1.6708733528008722e-15
1.0781976885309586e-15
1.0557354015266674e-13
-6.498439037031389e-14
-5.573454162143154e-14
1.5145391839078544e-14
3.953804960148176e-14
-3.970541919360963e-14
-2.0596040760836532e-14
2.076341035296439e-14
-1.9420167981043126e-14
-3.111302724199886e-14
-1.6511822285878088e-15
5.218437745162988e-14
-3.606911560187184e-14
-3.74608779190233e-14
-3.5127837070260284e-14
1.0865783059115545e-13
0.0
0.0
0.0
0.0
1.7763568972464402e-14
-5.241228829327554e-14
-7.089529317509022e-15
4.173824863832009e-14
-4.400052070882475e-16
-3.1901087464184724e-15
-2.64957843088673e-15
6.279692384393447e-15
-1.83996395894403e-16
-1.7811429427713033e-16
-1.6583319296420605e-16
5.279438831357393e-16
-5.668109326664067e-14
-2.5437783627778656e-15
4.666329675470405e-15
5.4558541953948156e-14
-1.0339669116746518e-14
5.190827092834584e-15
-8.865575576166806e-15
1.4014417600078744e-14
-1.8947651646662587e-14
-3.519467505113239e-14
-1.3297611936784354e-14
6.743993863457933e-14
-2.7199131601368284e-14
-3.54532501807158e-14
2.515123638045184e-14
3.7501145401632286e-14
1.7473394555325887e-14
-4.2511320149931543e-14
3.9568550122049156e-14
-1.4530624527443575e-14
-6.569560803221969e-14
1.366001642075427e-13
-3.683738821047077e-14
-3.406716796485237e-14
-3.3818198308526274e-14
-5.2756197211247254e-14
-2.8756409242655014e-14
1.153308047624286e-13
-2.3640798648244227e-14
-9.065426972096229e-14
-4.217324171962393e-14
1.5646831008883028e-13
-1.5864590576068162e-15
-1.5246611392281923e-15
-1.6017947668245959e-15
4.7129149636596024e-15
-9.395548439546968e-15
-2.304324924930131e-14
-1.057353231163108e-14
4.3012330000479414e-14
0.0
0.0
0.0
0.0
-5.3455310116561676e-14
8.907840018679893e-15
-8.203589153153796e-14
1.2658336162942012e-13
0.0
0.0
0.0
0.0
5.1955518588841376e-15
-9.256023245190565e-15
7.33246167499569e-15
-3.271990288689257e-15
-9.134199012073823e-15
-8.88977333117222e-15
-4.52320650008884e-15
2.2547178843334886e-14
-6.093433092031243e-16
-5.615822914256632e-16
-6.200507469415441e-16
1.7909763475703313e-15
-1.316436697277235e-14
-1.2594277272243167e-13
-4.9115146614393595e-15
1.4401865435664377e-13
-1.3236306803691135e-14
-2.2687630564462242e-14
-7.842625548289969e-15
4.376656291644332e-14
-1.81200387023115e-15
-6.7362000956711905e-15
-6.563760999922232e-15
1.5111964965824578e-14
-8.243672329158407e-15
-1.8898891795126557e-14
4.431931137800212e-15
2.2710632986484738e-14
-1.1301482745097233e-13
2.703755818180325e-14
-8.485816042857271e-14
1.7083542969774178e-13
-1.291935497545285e-13
3.1441460823831344e-13
-2.413454089468496e-13
5.6124350463064725e-14
-3.76398113720504e-15
-2.027272147546622e-14
-7.791658811100165e-15
3.18283614237714e-14
-4.766155401724995e-14
8.234826022189353e-14
-8.315821180323816e-14
4.847150559859461e-14
-4.835191049468814e-15
9.459662005305098e-15
-4.426277454261366e-15
-1.9819350157491448e-16
-2.7193985039102678e-14
-1.5937021941589276e-14
-1.3374073324715766e-14
5.650508030540768e-14
0.0
0.0
0.0
0.0
-1.4135814166820991e-14
-1.763366348801688e-14
-1.3778474934291363e-14
4.554795258912927e-14
-2.2231120716803703e-14
8.5676750307836e-15
-2.4900622639712648e-14
3.856406832573274e-14
-5.320718334888387e-15
-8.072688594846587e-15
-6.932704719629978e-15
2.032611164936493e-14
-4.267830504091892e-14
-1.2256328827515996e-14
-3.759459247944362e-14
9.252922634787861e-14
-5.633799463675054e-16
7.484701918447366e-15
-6.3661065266051705e-15
-5.552154454746939e-16
-2.1242644342813984e-14
2.17026873489957e-14
-1.1139238601256742e-14
1.0679195595075023e-14
-9.004076702970311e-17
-8.269899505206747e-17
-8.373585794903773e-17
2.5647562003080835e-16
-9.291569501097605e-14
1.9329444222481947e-13
-1.7416747777546607e-13
7.378873056162221e-14
2.3405167670825207e-13
-9.233287402347443e-14
-8.088689010843603e-14
-6.083191257634189e-14
-8.41550236402241e-14
-5.417182301789168e-14
3.528885030797696e-14
1.030379963501391e-13
1.927525375293839e-15
-1.4889117977843649e-13
7.205981033038159e-14
7.490384407276106e-14
0.0
0.0
0.0
0.0
-3.352882920271193e-13
8.295400812932409e-13
-2.986159172319427e-13
-1.956358720341791e-13
0.0
0.0
0.0
0.0
2.5159097483522714e-14
-1.2265719615285201e-14
4.19707010318723e-14
-5.4864078900109683e-14
-2.8983485276252876e-14
6.952622481842135e-14
3.154325655226938e-14
-7.208599609443776e-14
-3.190016226530524e-15
-3.80922739598203e-15
-4.1892128601441465e-15
1.1188456482656698e-14
-1.6200278136211742e-14
1.4681942862060778e-13
6.662964686186925e-14
-1.9724879734626513e-13
-1.6265070195767463e-13
3.113838854554933e-13
-7.253918596635177e-14
-7.619399753146787e-14
6.826831014679633e-13
-6.365352209007182e-13
-7.980870819640806e-13
7.519392013968353e-13
-6.598431085677341e-13
-6.945084414295136e-13
-9.947046736664326e-13
2.349056223663669e-12
-2.0721898549546862e-14
9.239173673343512e-15
-1.2774526451572382e-14
2.42572513277757e-14
-7.489547355306247e-14
-1.907198615046408e-13
3.756093906620512e-14
2.280543959914982e-13
7.987833686026898e-13
-2.1249812126145716e-14
5.090851534396601e-13
-1.2866187099162057e-12
-1.5622917581095112e-13
2.811402652202166e-13
-1.8789007510554561e-13
6.297898569628042e-14
-8.81214613468035e-14
2.321088388472058e-13
-7.715259367990385e-14
-6.683478382049846e-14
-6.901341239485288e-14
1.0276902658513383e-13
-2.1733536797635427e-14
-1.2022077392645453e-14
-5.330323937205908e-14
1.3285409839936604e-13
-4.819599306109278e-14
-3.135486596621425e-14
-1.370709867042692e-13
4.346531502033145e-14
-7.463287246723891e-14
1.6823854415117686e-13
-1.6071285776231937e-14
-1.2950407619095836e-13
4.646476689999784e-14
9.911059506719238e-14
-8.304120579091426e-14
3.8284706651405963e-14
5.518001495179038e-14
-1.0423515812282071e-14
1.0785434864092056e-12
-2.3289498374989923e-13
-3.5508832928053683e-13
-4.905601733787732e-13
-5.445945886510488e-13
-2.470912207209382e-13
8.272200232519218e-13
-3.553421387993471e-14
5.294598774128931e-13
-3.4807439746380983e-13
1.9434354806712737e-13
-3.757290280162123e-13
1.414728441415493e-13
-3.697016946361034e-13
2.2969476329564782e-14
2.0525937416498762e-13
8.729227847441302e-14
-9.635349861667537e-14
1.8355574859869098e-14
-9.294354717606698e-15
-4.633652716571085e-13
-3.929150664894402e-13
-1.5296644246537714e-13
1.0092467806119288e-12
-3.2595377193901954e-14
-3.5932918620222736e-14
3.153414491068824e-14
3.699415090343658e-14
-6.002117114694268e-14
-7.661808042231211e-14
-6.475314634016286e-14
2.013923979094175e-13
-5.793449498369069e-14
-6.50454346882372e-14
-3.101589487705655e-14
1.5399582454898423e-13
-2.4955533918147806e-14
-4.39751983586467e-14
-1.5654060744723717e-14
8.458479302151821e-14
3.9072600357357426e-14
-4.1028360756487134e-14
-4.8694547626024066e-15
6.8252151617321526e-15
-6.6303397070152695e-15
-5.0053294553840415e-14
-8.336103333340662e-15
6.501973759419633e-14
-4.123846448290208e-14
-3.7354519693257874e-14
-2.2379831151879665e-14
1.009728153280396e-13
-1.534261935013175e-13
5.839461456687937e-14
-5.766986960810143e-14
1.527014485425398e-13
-2.4478712481860524e-14
-2.733915798356797e-14
1.7709192526977517e-14
3.4108677938450993e-14
-3.2190004448294777e-14
4.036044596353485e-15
-2.6995367715579324e-14
5.514932756752063e-14
-6.260066283637222e-14
-6.524263852753081e-14
-3.5685036260277456e-14
1.635283376241803e-13
-1.3470778363906159e-13
2.6944207479152534e-13
-1.2110033827593982e-13
-1.3633952876523828e-14
-1.624306979279293e-13
3.3789269684611567e-14
-1.4663888223196866e-13
2.752803104752862e-13
-7.990403078835808e-14
1.831287448538168e-14
-6.041267319549124e-14
1.220038294984674e-13
4.231592715956296e-14
8.103483126544409e-14
-1.4734253328912196e-13
2.399177486411457e-14
-4.6960920493023874e-14
-4.694593212837318e-14
-7.807753058610162e-15
1.0171460568000713e-13
-6.227081037271896e-14
-5.70559270871631e-14
-4.849479055609597e-15
1.241762165154921e-13
-1.4595211776150024e-14
-2.6256095853866337e-14
2.5819702199007405e-14
1.5031605431008972e-14
-1.145800971028421e-13
4.4365437050006656e-14
-7.612178472060172e-14
1.463364447734377e-13
-3.2021828912276885e-14
-3.77073943797584e-14
-3.073230595007668e-14
1.0046152924211212e-13
-3.975945806439956e-14
-3.223944390321511e-14
-2.7513241259362352e-14
9.951214322697701e-14
-3.804245335974433e-15
-1.309297490297199e-14
-2.308750915438989e-14
3.998472939333629e-14
-1.200059292261702e-13
-9.213468539742416e-14
-9.863188959355927e-14
3.1077250421715405e-13
-4.962874265782664e-14
-4.608694517012042e-14
-4.071633114031418e-14
1.3643201896826098e-13
2.4080560947010007e-13
-2.9649147979422814e-13
-1.1145413609286541e-13
1.671400064169938e-13
1.849634163156402e-14
-2.970459238610396e-14
-1.783042629892458e-14
2.9038677053464486e-14
-1.2377437370114856e-13
8.888095498990396e-14
-1.1831992090659291e-13
1.5321333961783767e-13
-1.0970885953193657e-13
3.603841304405587e-14
-1.0139811623244404e-13
1.7506856272032472e-13
1.0605080389289581e-15
4.609296364462236e-13
-3.4154869936808884e-13
-1.204414451170633e-13
-4.036008621201341e-14
-4.7154603984352146e-14
-3.202700885208729e-14
1.1954169904845281e-13
-5.88642546209725e-14
-3.104622964275798e-14
-3.878026934305713e-14
1.286907536067876e-13
-1.1788238991990642e-15
-1.3165996616164585e-14
-7.421737275939878e-15
2.176655779130353e-14
-2.781443723410473e-13
1.7035904872223648e-13
-1.2941260643070677e-13
2.3719793004951744e-13
-3.199183783593122e-13
-6.738972234080988e-13
-3.93519851179537e-13
1.3873354529469493e-12
2.425175698452432e-08
-3.5156373934843295e-08
-2.873182431942861e-08
3.9636441269747624e-08
1.7320833472154967e-12
-1.590262458958954e-12
-5.194189217855104e-12
5.052368329598562e-12
-2.192641949955853e-12
1.976807719835177e-13
3.369342386502242e-12
-1.3743812085299092e-12
-1.454601696444434e-13
2.1073280339885704e-13
9.261128915509713e-13
-9.913855253053863e-13
7.90157529884625e-12
-5.326332220653699e-12
-1.440627275807723e-11
1.1831029679884699e-11
9.146558798821596e-13
-1.0196780495851494e-12
-1.1590023228764867e-12
1.2640244925794723e-12
-6.472929971991317e-13
4.3317679696554154e-13
4.425373648555369e-13
-2.2842116462194795e-13
-7.829234825551588e-15
7.127881050967243e-15
-1.3494667606262329e-15
2.050820535210574e-15
1.2332028164176815e-15
-2.129478444672822e-14
-1.0445813496241772e-14
3.0507395126552275e-14
-1.8277198080793168e-13
-1.2778848195082162e-13
-5.791274168465949e-14
3.6847320444341323e-13
-1.412707566414381e-15
5.094219798317883e-16
-2.8278292305307947e-15
3.731114817113381e-15
3.8851562743230845e-14
-2.433440752801859e-14
-4.064512294779954e-15
-1.0452642920432314e-14
-7.4978306734625e-16
-6.955547366515497e-16
4.413088523418391e-16
1.0040289516559605e-15
-3.517275078233807e-14
-7.498833606406173e-14
-9.568055440699864e-14
2.0584164125339905e-13
-1.2579211865895306e-15
-7.0243338305831595e-16
-1.011803418619617e-14
1.2078388755844015e-14
6.913565539930197e-16
-2.155427518045396e-15
1.7210592805288287e-16
1.2919650359994926e-15
-1.0648843141668714e-12
1.1087939320230954e-13
4.782896045969421e-14
9.061759605048693e-13
-1.3865084698275346e-13
-1.475504929307237e-13
-3.178887175082381e-13
6.040900574217149e-13
-4.9995250438631516e-15
-5.871808031818981e-15
-4.6956706008979256e-15
1.5567003676580067e-14
-2.1244481375514197e-14
1.3160447646370927e-14
-2.360660879347631e-14
3.169064252261952e-14
-1.465492450204955e-14
8.765377259683504e-15
-1.709272894315224e-14
2.2982276185518304e-14
6.688521389319425e-14
-8.034406271241774e-14
-6.250960140858443e-14
7.596845022780789e-14
2.0723756948664805e-13
-7.278443873385982e-14
-9.747446534820699e-14
-3.69786654045814e-14
4.554444002813574e-15
-5.354931758061607e-15
2.184136703801501e-15
-1.3836489485534686e-15
2.7979581024305153e-15
-3.8528383626762296e-15
-4.4051604685138104e-15
5.460040728759516e-15
1.1504004025080444e-14
-1.4882315530624538e-14
-2.4890664525403627e-15
5.86737795808444e-15
2.4864724092665704e-14
-3.7962782513070874e-14
-2.6366497382794933e-14
3.9464555803200096e-14
6.251202761137996e-14
-1.303829589268751e-13
-5.247567292783725e-13
5.926276605938677e-13
3.206167528974501e-16
-3.3561484451382035e-15
1.4017871529715725e-15
1.6337445392691803e-15
3.8098584334521676e-15
-1.745899517501598e-14
6.75393798240464e-15
6.8951987591591775e-15
3.25240817124569e-15
-1.0774302837613862e-14
-6.775636120474023e-15
1.4297530786842197e-14
1.2482745828963658e-13
-5.418758342047885e-14
-2.911186902606158e-14
-4.15280058430962e-14
-6.633161498823229e-15
-3.9074010947068476e-15
9.53511474555532e-16
9.587051118974543e-15
-9.851463258552027e-15
2.5208514946802982e-14
-1.0372166641462975e-14
-4.9848850467879995e-15
2.0427735347663595e-15
8.750110215201046e-15
-6.8733910301587954e-15
-3.919492719808613e-15
-1.698096793607241e-16
-1.6873986121493457e-16
-1.7196853087878107e-16
5.105180714544398e-16
7.020555328877755e-16
-1.2040995655834722e-15
-1.2185166942121115e-15
1.7205607269078084e-15
3.0475333376281093e-15
-9.710213369987624e-15
1.684543216705357e-15
4.978136815654162e-15
-3.629222813325671e-16
-2.613608149004486e-16
2.2328551031639233e-16
4.009975859166235e-16
-4.944773452917872e-14
6.483520843787311e-15
-3.8194185663878526e-14
8.11583993492699e-14
-4.251740320961191e-15
6.928356397022024e-15
-1.2283972783273393e-15
-1.4482187977334917e-15
1.3629604933979393e-14
-1.1292682250931272e-14
-1.6242551799596539e-15
-7.126675030884621e-16
2.994359618371031e-15
-1.6955595399031082e-14
1.5988026760945291e-15
1.2362433104565535e-14
5.273816048739894e-16
-4.090196924716892e-16
1.6504183687755656e-16
-2.8340374927985686e-16
5.417932039187736e-14
-3.474373012207334e-14
2.4691171129440827e-16
-1.9682501981098355e-14
-1.5153654790431504e-14
-7.62447309079293e-14
-1.9032165940455233e-14
1.1043055163881609e-13
-2.3105249161794437e-16
-2.777828234303736e-16
3.6168694963126405e-16
1.4714836541705398e-16
-6.884603090378351e-14
-4.827028588313111e-14
5.2140382992418314e-14
6.497593379449624e-14
2.454480341938341e-14
-6.158183422930527e-15
2.621510724525857e-15
-2.100813072097875e-14
2.17577406892482e-14
-2.9883703918609655e-15
-2.1505591063172467e-14
2.7362207657852392e-15
3.7329283844059664e-15
-4.266116158054866e-15
-2.4592836056786067e-16
7.79116134216758e-16
-1.5202821066972241e-15
-4.469097526715588e-15
7.610637636253224e-16
5.228315869787488e-15
5.517545079892784e-15
-3.1194008705669535e-14
-4.375639509192705e-15
3.0052103134969414e-14
-3.7133580533318687e-14
-2.878807121778822e-14
-5.906594665927501e-14
1.2498759841038207e-13
3.766438170800826e-15
-8.86519215852403e-15
-2.383849271722487e-15
7.482603259445704e-15
1.2430022372128075e-13
-1.2461524499353487e-13
-6.856126248341706e-14
6.887628375567166e-14
7.179577027157096e-14
-8.456315547133071e-14
-3.502805312631052e-14
4.779543832607015e-14
-2.321862834552402e-15
-1.6390405235003847e-14
6.103338292217797e-15
1.260892977733845e-14
2.7561533999384758e-15
-5.058395346536938e-15
2.074137141051676e-15
2.2810480554678486e-16
-2.2587220702320652e-14
2.579667506634192e-15
-1.451195926277412e-14
3.4519512458460595e-14
-7.758168925948436e-16
-1.6113823735854324e-14
1.3744865666576227e-14
3.144774961872941e-15
1.510866309576068e-14
-4.5497029823543364e-15
-1.2527411771513914e-14
1.9684516581075944e-15
-1.942895594726524e-15
1.1811291332263619e-14
-2.773466840259632e-14
1.7866272665059204e-14
8.006327348783317e-15
-9.104720536846493e-15
-1.0479869749900578e-15
2.146380163053237e-15
2.015341023506386e-16
-3.4137871359989952e-15
-6.085802273073358e-16
3.820833260955694e-15
-8.709199208571683e-15
-6.231489438830977e-15
-7.285925053658522e-15
2.2226613701061174e-14
-2.497780137289964e-16
-4.1811541087328004e-15
-1.1778308785347483e-15
5.608763000996543e-15
1.1617702414582181e-14
-5.823751736900637e-15
-1.176659683572052e-14
5.972646158038974e-15
-1.6872895986413422e-15
-3.564162801001418e-15
4.665661347621164e-15
5.857910520215954e-16
-2.3572684196781345e-15
1.2755474946611326e-14
-9.735351032497354e-15
-6.628554944358439e-16
-8.637508522444701e-17
-7.681713331043827e-17
-8.761265276511251e-17
2.5080487129999777e-16
-3.886905772150054e-15
7.352391757958187e-15
-1.975969177832325e-15
-1.4895168079758083e-15
1.8866825218696004e-15
3.263539709563201e-15
-2.2378861207535354e-15
-2.9123361106792698e-15
1.1720178870567177e-16
-6.3036965057325845e-15
-6.35378860618812e-16
6.821873577645724e-15
-8.251389286357514e-16
-4.060339717251091e-15
2.094829435929448e-15
2.790649209957396e-15
-1.936660039396821e-15
-1.2051755041148204e-14
7.637781152674622e-15
6.350633927870389e-15
1.2435684017619318e-15
-4.8743929876908394e-15
3.307119471573383e-15
3.2370511435552567e-16
3.1786070636320717e-15
-7.25345876333729e-15
1.9765575069580364e-15
2.098294192747185e-15
-1.862515636553985e-15
1.6045613431389002e-14
-1.650684081396324e-14
2.3237430191281943e-15
-4.236207446636087e-15
4.371650798621374e-16
2.2832402047427366e-15
1.5158021620312098e-15
-3.6186553357806334e-15
8.939928885262981e-15
-4.4670530563789424e-15
-8.542204931034062e-16
3.095252194320575e-15
4.2509065914839855e-15
-7.661303128181175e-16
-6.5800284729864215e-15
7.976014032483832e-15
-1.0377808169965695e-14
-8.001040544035512e-15
1.0402834681517384e-14
-4.9329044374738167e-14
-1.228983957724707e-14
4.9780439731024445e-14
1.1838444220960655e-14
-8.501023715660152e-15
-4.056193991228752e-14
-6.868715225890306e-18
4.906983234317366e-14
-2.2691057133245556e-14
3.535930262247522e-14
-2.0554276904342195e-14
7.886031415112595e-15
7.59256945933965e-15
-2.1285051721655416e-14
-2.0626507513187956e-14
3.431898977550374e-14
4.26881679105997e-15
-3.3256895371129495e-14
-2.78308229687246e-14
5.6818901548794124e-14
1.946780130890991e-15
-1.2721344994543048e-14
3.564134292381945e-15
7.210430571270118e-15
-2.0575231864381705e-15
1.1974411930922515e-15
-1.8916155822583165e-15
2.751697575604237e-15
3.3037555313435038e-15
-1.7514717352418307e-14
1.580994771616017e-15
1.2629967049458774e-14
-4.3393798376644545e-14
-4.410566403423332e-14
2.7261998293348286e-14
6.023746411752954e-14
-2.2083873958195086e-15
-1.4111626416987567e-14
6.54479857270518e-15
9.775215240101886e-15
-2.5579164519807062e-14
-4.2194039581807024e-14
3.7166179070162186e-14
3.0607025031451816e-14
2.0862248164993642e-14
-3.230616921288376e-14
6.780021305830161e-15
4.663899742060014e-15
-1.4711319017903132e-14
-2.60499661781826e-14
-1.7247463110797223e-14
5.8008748306883e-14
7.337905533468768e-15
-1.5191767936518148e-14
1.1505569411656588e-15
6.703305461883716e-15
-6.851457225990447e-15
1.8903762715666668e-14
-6.50192836243124e-15
-5.550377127244986e-15
-2.594924093362578e-15
-2.7511773862988338e-15
-8.702814263835555e-16
6.216382906044964e-15
3.262369661249263e-16
-1.5273246613188117e-14
-3.745610141661077e-15
1.8692619788724248e-14
2.0752867723454291e-16
-7.418696063923835e-16
4.3610373537868966e-16
9.823719377915099e-17
-3.375426892495763e-16
-1.339887401960838e-15
1.006474999549986e-15
6.709550916604281e-16
1.378841424208436e-15
-7.40759993039748e-15
5.0309141905844556e-15
9.978443156045904e-16
-1.6891436895703854e-16
-8.99222908002296e-17
3.878802031116849e-16
-1.290435433544168e-16
0.0
0.0
0.0
0.0
-3.9319040576213334e-15
8.376359804841325e-15
-2.2363612611340444e-15
-2.208094486085946e-15
1.1146538499204025e-14
-1.1053078517348655e-14
3.0935102744889937e-15
-3.186970256344376e-15
0.0
0.0
0.0
0.0
1.2819056270693147e-13
-8.02708534202455e-14
-4.425045637847844e-14
-3.6692529082075854e-15
-8.009306388062713e-15
1.9852524103893775e-14
-6.171404419513977e-15
-5.6718132963170865e-15
4.2143285843409164e-15
-3.932385138647221e-15
-1.1812991771780432e-15
8.993557314843468e-16
-2.0695314127752433e-14
-7.35758167921799e-15
6.561889586933433e-14
-3.7566000062363865e-14
-4.0193997444874315e-16
-3.8646201964898027e-16
7.609393050212252e-16
2.7462689076498198e-17
2.865519021532288e-14
-3.8857712128718976e-14
3.3903483405697326e-15
6.8121735728264434e-15
-5.988601309449276e-16
-1.349176631240124e-15
-4.509454035472403e-16
2.3989821657322923e-15
-3.435384124150752e-15
-1.0904698197479758e-14
6.888400295486462e-15
7.451682026144036e-15
7.184963964183908e-16
-3.103565660609262e-16
-2.456873704707164e-16
-1.624524598867484e-16
6.713119201932918e-15
3.5162463425344434e-15
-6.635593977411024e-15
-3.593771567056345e-15
-3.985365887214583e-15
-3.946454859016572e-16
1.0237860308858982e-14
-5.857848935742736e-15
-8.232203661202596e-17
-1.0463685347136658e-16
-8.837071368679028e-17
2.753296037701828e-16
1.4144230028064676e-15
-6.083304453535773e-16
-4.46275574366193e-16
-3.598169830866971e-16
1.1025800557711978e-15
-5.815835918415669e-16
-2.3575698715788854e-16
-2.852394767717421e-16
9.80814511575602e-16
-8.093119985093432e-16
-8.360957025302792e-16
6.645931894640201e-16
1.1495586759967568e-15
-2.509418849477441e-15
-9.384893001980843e-16
2.2983494736787685e-15
-1.936638369175525e-15
7.59204557937634e-15
-3.4641109235419496e-15
-2.1912962866588725e-15
0.0
0.0
0.0
0.0
3.2584495113123623e-16
-1.5087832027399303e-15
1.4103819326475212e-15
-2.2744368103882714e-16
0.0
0.0
0.0
0.0
3.372875612733439e-15
-2.1809014202833972e-15
-1.1015965069484374e-15
-9.03776855016052e-17
-8.353576370179335e-17
-8.567696481118969e-17
-8.893589385357115e-17
2.581486223665542e-16
1.8452241880012811e-16
-7.104892671695484e-16
3.891682695827292e-16
1.367985787866909e-16
0.0
0.0
0.0
0.0
2.321678393772481e-15
-1.4137413662401275e-15
-1.7256669514331038e-16
-7.353703323890432e-16
-1.975589356372069e-15
4.409046016302727e-15
-2.4526797146717695e-15
1.9223054741109754e-17
-1.2436106355053665e-14
-1.9879785725005042e-14
4.849894599883906e-15
2.7465997480174777e-14
0.0
0.0
0.0
0.0
-1.0425582088368282e-15
-1.8346632109919535e-15
2.126427399581192e-15
7.507940202475893e-16
-3.9646015085572407e-16
-1.4530623759534934e-15
9.270553925036384e-16
9.224671343055793e-16
2.7761532291412726e-15
-2.1545810532289914e-14
-1.4787225835084658e-14
3.3556883138233287e-14
0.0
0.0
0.0
0.0
0.0
0.0
0.0
0.0
5.234308280957188e-16
-3.6236016042680585e-16
1.413825744359017e-16
-3.0245324210481473e-16
-3.1913621639294407e-15
1.0362124818322746e-14
-3.693876572269654e-15
-3.476886082123654e-15
0.0
0.0
0.0
0.0
-1.0059889168493201e-16
-7.412158103134743e-17
-8.584569664948147e-17
2.6056616936576087e-16
-4.682847389394513e-16
-2.406981896256861e-15
1.1769344810572554e-15
1.6983321541390567e-15
1.6952668719592187e-15
-3.2888371890145602e-15
1.6418982573785498e-15
-4.832794032320912e-17
8.410772595807556e-15
1.4583014375188857e-14
-3.320442273938664e-14
1.0210635768390242e-14
1.0351802615510693e-13
-4.2269750968802905e-14
-1.5640828792558747e-14
-4.5607446393745084e-14
-1.0568868585240721e-14
-2.7328030266924695e-15
-1.770586755923476e-14
3.10075391711679e-14
-3.2781336355750524e-15
-1.5214404395472192e-14
6.138430338063087e-15
1.2354107692984177e-14
-3.7367166611200526e-14
6.833265168751134e-14
-3.305185398988756e-14
2.086368913576703e-15
-2.192080893195957e-15
-6.687024503424643e-15
3.0986938136621652e-15
5.780411582958438e-15
1.6673543137569775e-15
-9.962038977218975e-16
-1.1393911037488374e-15
4.682406877137577e-16
2.0709513243887914e-15
-4.391809900051534e-15
-1.679047629053899e-15
3.9999062047166426e-15
-9.109739818542117e-17
-7.931207117338657e-17
-8.521292796499026e-17
2.55622397323798e-16
-5.926430888507513e-16
-5.869592071879318e-16
-3.068439157221023e-17
1.2102866876108933e-15
-3.1522461170830233e-15
-6.104754106772725e-15
8.222875738292447e-16
8.43471265002651e-15
3.7284711090534476e-15
-7.3013535047893e-15
4.343927517660422e-15
-7.710451219245727e-16
-1.8721372411232883e-16
-1.6745771510683788e-16
-1.7204666563199144e-16
5.267181048511581e-16
0.0
0.0
0.0
0.0
2.659232899532778e-15
-4.9243081646925936e-15
2.2716300662800516e-15
-6.554801120236277e-18
3.3716589801122283e-15
-7.127372313025141e-15
3.0867064446519166e-15
6.690068882609954e-16
2.132379437847408e-15
3.4059597551358646e-15
-2.0639193624536496e-15
-3.4744198305296217e-15
1.1802053128521715e-15
-5.854570542956186e-15
3.0732353903351403e-15
1.6011298397688711e-15
-1.8799237120030797e-15
-6.4866763765379354e-15
2.185746583687627e-15
6.180853504853391e-15
-4.437671534973066e-15
8.494728763902141e-15
-3.3591551451007035e-16
-3.7211417144190024e-15
-7.309966275353667e-15
1.690242943293212e-14
-4.885146122807477e-15
-4.707317034770974e-15
3.763345198105549e-16
-1.7013412304470401e-15
8.275808943924182e-16
4.974258162440674e-16
0.0
0.0
0.0
0.0
1.046217816900801e-14
-1.512448460124701e-14
3.713653569179307e-15
9.486528630596988e-16
1.5332000123740544e-15
-7.958183980858716e-15
-2.9461579493356525e-16
6.719599763418229e-15
-7.037073543579236e-16
-2.94717163879866e-15
6.005133145013142e-15
-2.354254151856556e-15
-4.488842065459498e-14
-9.474451981284369e-14
-1.4525461086237396e-13
2.8488755132981225e-13
6.980610453983598e-16
-2.186827167654886e-15
1.4607179546174482e-15
2.8048167639077106e-17
1.6847405707326346e-15
-9.582926073808877e-16
-5.160746032865446e-16
-2.1037336006520255e-16
4.1014137626507345e-16
-4.3286768514607406e-16
6.835915829582528e-17
-4.563284941482477e-17
0.0
0.0
0.0
0.0
-1.910967832377416e-15
1.4623774279275308e-15
4.671965719650089e-16
-1.8606167515124333e-17
-3.0453515620277754e-15
6.609175701456579e-15
-3.0127478844985987e-15
-5.510762549302023e-16
8.491121340460206e-16
-2.5052480098871923e-15
-1.0715042414157274e-15
2.7276401172568978e-15
5.48376403351683e-15
-3.862875455952451e-15
-7.539494587405245e-16
-8.669391188238537e-16
0.0
0.0
0.0
0.0
-3.32111696463011e-15
-1.0290696979833938e-13
-8.990206442394672e-14
1.9613015118691616e-13
8.553504363438361e-15
-5.5747412518924774e-15
-3.048977253550508e-15
7.021414200462499e-17
-1.769935473091639e-14
2.4226992378701147e-14
-1.3502225322652014e-14
6.974587674867236e-15
2.437557903174506e-15
-6.364807102225452e-15
-8.86662085305347e-15
1.2793870052104397e-14
-1.2188616172714489e-14
-7.327429714707176e-15
-5.401148493596735e-15
2.4917194381018407e-14
3.0214607254160195e-15
-2.802714790961158e-14
-2.4806083243125907e-14
4.981177042732157e-14
-8.312211422224544e-14
-2.3087148797898375e-15
-6.164527292315173e-14
1.4707610202518677e-13
-1.586386788227127e-15
2.4465737868412883e-16
4.3713632874704216e-15
-3.029633877927425e-15
-3.3948760719272303e-14
1.9986337514935104e-14
-6.572293947540284e-16
1.461965259909121e-14
2.517993078190193e-15
-5.001359312357613e-15
-8.306344053652833e-16
3.3140006395327018e-15
-9.480902847476635e-15
3.045057188902538e-14
-1.7735768046950818e-14
-3.2339009945979095e-15
-1.470677127779951e-14
3.233678167280999e-14
-7.195234976321704e-15
-1.043477541868879e-14
4.667550695124419e-15
-1.0602462349425897e-14
4.559910655421972e-15
1.3750009988795048e-15
2.3354867371415075e-15
4.722110501442234e-15
-1.0151101582388716e-15
-6.042487080344869e-15
2.402097650428616e-15
-3.2162641924652613e-15
9.143579212401238e-16
-1.001913792034786e-16
0.0
0.0
0.0
0.0
-2.457528961051338e-15
7.37991508112575e-15
-1.4966151245989855e-15
-3.4257709954754274e-15
1.2302298255658266e-16
1.025999061093327e-15
-4.396595855754707e-15
3.247573812104801e-15
-2.6767740036493974e-16
-1.0768998480983337e-15
6.095239322019967e-16
7.350533162612765e-16
-2.024898112183323e-15
1.2206216058217233e-14
-4.4307058164037e-15
-5.750612129630208e-15
1.010721488778521e-17
9.399246886036622e-15
-1.1675011819447587e-14
2.2656577185231733e-15
-3.2506030830536333e-16
-2.5389296375133346e-15
1.3537645553655304e-15
1.510225390453167e-15
1.1506953619292714e-14
1.427323551128629e-14
-1.6481218660901347e-14
-9.298970469677658e-15
2.7227244205381264e-15
-2.6718914008719748e-15
-1.1584457971090104e-15
1.1076127774428574e-15
-2.6130088624951123e-15
5.8771971489611955e-15
-2.55359975224426e-15
-7.105885342218266e-16
3.1172869181474703e-16
-1.2337078509062169e-15
7.68715748219924e-16
1.5326341087154635e-16
-3.500720152248577e-15
3.965269067166418e-15
-3.510839498247637e-15
3.0462905833297956e-15
6.40750797406482e-16
-1.2794321507813174e-15
5.569994675022227e-16
8.168188587261283e-17
0.0
0.0
0.0
0.0
7.396783866456423e-15
-1.0729382563049458e-14
-9.486914624772735e-16
4.28129015907031e-15
8.145556892284614e-15
-5.384830482872634e-15
-2.3350001352012213e-15
-4.257262742107543e-16
-4.5434910918663966e-15
1.0027255092136541e-14
-2.98677183856356e-15
-2.4969921617065838e-15
5.832197220956923e-15
-1.3174644740856032e-15
-2.4908674682776737e-14
2.0393941935905417e-14
-2.3698877137733056e-14
3.3199996878370586e-14
-2.702103039423427e-14
1.7519910653596776e-14
-1.9798143154680447e-14
-5.369168229092844e-15
-3.4139350051742634e-14
5.930666143551592e-14
1.1672857173392573e-14
-1.8339699287554322e-14
3.725724643377412e-15
2.941117470784334e-15
5.427473941606704e-15
-1.0977620010871037e-14
-3.151038428266052e-14
3.706053035192481e-14
-9.26049499068024e-17
-7.140312443573771e-17
-9.013732923487916e-17
2.5414540357741926e-16
-3.6593101257651436e-16
-1.208907414302794e-15
-1.3121281181017488e-15
2.8869665449810566e-15
-9.29212016242527e-16
-8.750596782451132e-16
2.3288201422981817e-16
1.5713896802578222e-15
1.0895014606193773e-15
-1.4948741041255735e-15
8.689719778467407e-17
3.1847544572152195e-16
-1.6707195258107675e-15
5.558209757101546e-15
-2.4445657481481875e-15
-1.4429244831425844e-15
-6.097738433455595e-16
-5.133271907647377e-15
-2.354503691867914e-15
8.097549442860854e-15
5.485783205345186e-16
-3.3481667527480422e-16
1.2361301493888448e-16
-3.373746601985989e-16
-5.2742049686683826e-15
1.7563533809015498e-14
-7.72936987390431e-15
-4.559958966442808e-15
-2.4432039457492937e-16
-2.4305161631122845e-16
3.591234695146961e-16
1.2824854137146168e-16
5.557012747874726e-16
-4.971381683362547e-16
-4.1180322664072475e-16
3.5324012018950695e-16
0.0
0.0
0.0
0.0
-3.0892490831770235e-16
-3.7814882969582875e-16
2.8361034113438566e-16
4.034633968791456e-16
-1.0864496013499118e-16
-5.95149585603902e-17
-9.649358773623183e-17
2.646535064316132e-16
-2.372852821525996e-16
-2.319100856266603e-16
3.1696954036334306e-16
1.5222582741591692e-16
0.0
0.0
0.0
0.0
4.519940054197414e-16
-5.374074086760592e-16
-5.325295625870116e-16
6.179429658433296e-16
0.0
0.0
0.0
0.0
-4.1270273473123916e-16
-3.1741263074435286e-16
7.314687024237985e-16
-1.3533369482064182e-18
0.0
0.0
0.0
0.0
0.0
0.0
0.0
0.0
0.0
0.0
0.0
0.0
-1.5315987946261418e-16
-1.5782557647322653e-16
4.3467925984778153e-16
-1.2369380391194087e-16
0.0
0.0
0.0
0.0
7.182766477359533e-16
-3.286472176698179e-16
-2.33519366558626e-16
-1.5611006350750929e-16
1.4051308239647813e-15
-5.141296055713844e-16
-4.606361721835928e-16
-4.303650462098039e-16
0.0
0.0
0.0
0.0
0.0
0.0
0.0
0.0
0.0
0.0
0.0
0.0
-7.210548987345284e-17
-1.1267638243045597e-16
-8.662379008366681e-17
2.714056623875757e-16
-7.912546269693895e-17
-9.197878012970184e-17
-8.430994824830014e-17
2.554141910749409e-16
-7.583931948246456e-16
-6.769960200072169e-16
3.76327981662666e-16
1.0590612331691969e-15
-2.4289015712375916e-16
-2.5716947041528793e-16
3.4690306305723105e-16
1.5315656448181614e-16
2.5847808712290737e-15
-1.2281470621823833e-15
-1.1719967802012373e-15
-1.8463702884545254e-16
0.0
0.0
0.0
0.0
0.0
0.0
0.0
0.0
0.0
0.0
0.0
0.0
-1.79115454638786e-14
1.1282077125597544e-14
8.132832743868222e-16
5.816185063894228e-15
-6.567586461654898e-16
-3.836622955158646e-15
3.238117944832054e-15
1.2552636564920816e-15
-6.9536194052717836e-15
1.861788603868801e-14
-7.564174899863e-15
-4.100091733553233e-15
-3.1963239397671487e-16
-3.905433976334186e-15
1.8293203725879914e-15
2.395745997722909e-15
-7.326397593920914e-16
-6.861643623796968e-16
1.625063662140928e-15
-2.0625954036913933e-16
-2.6199484430094495e-16
-3.252285196806563e-15
4.6280495800612424e-15
-1.1137695389537344e-15
-5.563637583994611e-16
-2.536479170285189e-15
2.3037683237769712e-15
7.890746049076793e-16
3.171581129670598e-17
-8.12140105497243e-15
3.738010561681439e-15
4.3516746819942916e-15
-9.243444254554527e-17
-8.388646719870009e-17
-9.01599671624393e-17
2.6648087690668463e-16
5.067704661529458e-16
-2.3092554991840883e-15
6.131923524361875e-16
1.1892926805949547e-15
1.579310926692265e-13
1.6783738722556683e-13
-1.5266006198980368e-13
-1.7310841790498985e-13
6.035297534755498e-15
-4.681141296624336e-14
1.2109523405312679e-14
2.866659202617517e-14
2.5335984986348064e-14
-3.05275029158783e-14
-2.7576363592378162e-15
7.949154288768054e-15
7.40401216279145e-15
-1.0676133597337394e-14
7.551412449484017e-15
-4.279291014938064e-15
-4.409904332367934e-15
6.47125932785949e-15
-2.571647787614585e-15
5.102927921230296e-16
-8.62425818747923e-16
-7.571690781672941e-16
2.8929894140229875e-16
1.3302959555129184e-15
1.1306433055598133e-15
-2.431477102044201e-15
2.3360929795708876e-15
-1.0352591830864997e-15
1.8623036272678044e-15
-3.4355632956388617e-15
1.5566588226135168e-15
1.6600845757540708e-17
-4.081834790497252e-15
5.597901601224373e-15
-6.688616149753843e-16
-8.472051957517394e-16
-1.4331865711241723e-15
-1.1947981605275637e-15
3.4232734818664866e-16
2.2856573834650875e-15
-2.568016733476828e-16
-2.556581625681674e-16
-2.6362924514716555e-16
7.760890810630157e-16
-5.225845161486335e-15
7.104207259625023e-15
-9.111216722796956e-15
7.232854624658265e-15
-1.9164519817624437e-15
-5.924412976672638e-15
4.00810575654099e-15
3.8327592018940934e-15
2.220395417955658e-15
-4.221465027789087e-15
2.6711074464368863e-15
-6.700378366034583e-16
1.308222096412933e-13
-9.038800523801728e-14
-9.450996253020221e-14
5.407575812692656e-14
2.498792945486554e-14
-2.8977965499511295e-14
-4.011705498305069e-14
4.410709102769641e-14
3.7243612705216084e-15
-2.5129115480416407e-15
-4.536684480885302e-16
-7.577812743914369e-16
-4.004094246520116e-15
-7.876486726200573e-15
-1.515231655509027e-15
1.3395812628229722e-14
1.8201774382836517e-14
6.877844503736586e-15
-1.6565110827050913e-14
-8.514508059522172e-15
3.3855617944823035e-15
-1.4528085454144069e-15
-1.2846065065225595e-15
-6.48146742545337e-16
0.0
0.0
0.0
0.0
0.0
0.0
0.0
0.0
-2.761674538393271e-15
1.5320566762129407e-14
-6.554912831497794e-15
-6.003979392238335e-15
-5.205664403701217e-16
-4.4032804329427866e-16
7.361405681725024e-17
8.872804268471502e-16
0.0
0.0
0.0
0.0
-4.497256310429296e-15
1.7005566505212493e-15
-2.940435697933399e-15
5.737135357841445e-15
6.653412609991099e-15
-2.099764594228696e-14
3.163655821670114e-16
1.4027867750128884e-14
-1.7918975542732016e-17
-2.6758001760914697e-15
1.2765798796055902e-15
1.4171392720286104e-15
0.0
0.0
0.0
0.0
0.0
0.0
0.0
0.0
-4.309183652996109e-14
-2.128962373490831e-14
-8.283357012804707e-14
1.4721503039291612e-13
6.889632409827044e-15
-7.407098002431801e-15
-7.266541953097426e-16
1.2441197879144948e-15
-1.4602044143004254e-16
-1.904344150763823e-16
4.528310681546667e-16
-1.1637621164824178e-16
2.9001064756042954e-15
-5.259720597472052e-15
-2.694788702419004e-15
5.054402824286759e-15
2.3575135908814267e-15
-4.189752701489046e-15
1.0426609071854538e-15
7.895782034221675e-16
-3.316194305184576e-14
-7.195739864773677e-14
-2.888487452185515e-14
1.3400421622143756e-13
6.0634598940955715e-16
-3.5446192995193144e-16
-3.3457451868671127e-16
8.269045922908555e-17
-4.631825671098732e-15
-1.0194000868863618e-14
-3.908954322572924e-15
1.8734780862535276e-14
-7.392682400344824e-15
1.1814098893424618e-14
-4.9977944048728974e-15
5.763779117930979e-16
2.1026369517370866e-16
-7.724417024264696e-16
-1.4625888867120839e-16
7.084368959239695e-16
-1.7977566810164647e-15
-4.353050242528045e-15
2.451487326431383e-15
3.6993195971131284e-15
0.0
0.0
0.0
0.0
-4.22294739929565e-15
1.0492765957967465e-14
-3.1957480499042e-15
-3.074070508767615e-15
0.0
0.0
0.0
0.0
0.0
0.0
0.0
0.0
-1.352607149882899e-15
-1.1462243471892477e-15
1.5568735775526716e-15
9.41957919519475e-16
-8.923179767729217e-15
1.351140286415664e-14
-1.1276651873198983e-14
6.688428776771569e-15
1.8026872779355185e-15
-4.4921632881645954e-15
-1.7549406651016228e-16
2.8649700767392376e-15
4.609057616611633e-15
6.9235450071556874e-15
-3.555489004980204e-15
-7.977113618787123e-15
9.595209185405828e-16
-7.563715315683956e-15
4.323674283293164e-15
2.2805201138502137e-15
1.1396378689748495e-14
-1.1833022514392356e-14
-3.1760069500288028e-15
3.612650774672664e-15
-8.620380958404569e-17
-1.0689032096710771e-16
-7.99674559019796e-17
2.73061586453133e-16
4.13115201849679e-15
-4.563638277064175e-15
6.47338051815473e-16
-2.1485179324808602e-16
-1.0216932413029892e-15
-6.753256762202582e-15
5.774586719370163e-16
7.197491331568553e-15
2.6435286211044096e-15
-5.076068376227328e-15
2.2626305309615127e-15
1.6990922416140457e-16
9.408394803067101e-16
-6.83752380334775e-16
-9.134141471010815e-16
6.563270471291463e-16
-4.028914705412016e-15
1.132631230700323e-14
-4.896286041990908e-15
-2.401111559600304e-15
4.890770125527356e-15
1.4172726747788404e-14
-1.1256593489642937e-14
-7.806903383672824e-15
7.93126690244058e-16
-9.948289373853478e-16
7.157597732892406e-17
1.3012626981236528e-16
0.0
0.0
0.0
0.0
0.0
0.0
0.0
0.0
1.3885690700802782e-15
-8.913460315496788e-15
-3.212510061480024e-15
1.0737401306896528e-14
3.010430480038912e-15
-2.5096240663063466e-15
-2.100934078969627e-15
1.6001276652370626e-15
-3.6078190617789665e-16
-3.1794827532858126e-16
2.7481777716680705e-16
4.039124043396708e-16
-3.005848116528972e-15
-7.271778774396101e-15
4.935163643286392e-15
5.342463247638681e-15
-7.394608063843547e-17
-9.984691487549949e-16
-4.552846454492432e-16
1.5276998748426735e-15
8.298556678189352e-16
-1.1004394003453038e-15
7.322607435831088e-17
1.9735765816805782e-16
4.812494998823386e-16
-1.6616815152885996e-15
1.53033571921328e-15
-3.4990370380701936e-16
-7.213892030334449e-17
-1.0497597329593205e-15
1.3036503356671755e-15
-1.8175168240451052e-16
3.701893615771897e-16
-5.807977511333818e-16
-3.1134229117264366e-17
2.4174261867345646e-16
2.599028575553792e-16
-2.453136064355156e-15
9.254983488021077e-16
1.2677348579976696e-15
-4.097169485204196e-16
-1.4536002840301262e-15
-1.4946598178894807e-16
2.0127832143394932e-15
8.607017561766399e-16
-9.639658705558136e-16
-1.0988477896672223e-15
1.2021119040463961e-15
-2.3037540712829914e-16
-3.199549602814244e-16
3.863325111039027e-16
1.6399785630582078e-16
1.9008951269739e-15
-7.356827251336327e-15
-3.092968812815933e-16
5.765229005644027e-15
3.213770858661582e-15
-1.575200691259335e-14
6.337361189497832e-15
6.200874864433948e-15
1.2512226061939226e-15
-2.269708647261792e-15
-9.555311099172986e-17
1.1140391520595977e-15
-7.683550381834581e-15
-3.249776600763124e-14
-4.862214954743438e-15
4.5043531344209205e-14
1.872863509068968e-15
-2.1716509364862722e-15
-1.2798541246949486e-15
1.5786415521122532e-15
-3.4286316444494918e-15
-9.750639577155605e-15
6.860639986232778e-15
6.3186312353723144e-15
5.465850482229319e-16
-3.3319106151283907e-15
1.0221125708539487e-15
1.7632129960515097e-15
1.3681433576876702e-15
-1.3497174895349647e-15
-2.6096454406163464e-16
2.42538675908929e-16
-7.992722161557374e-16
-8.506112036089781e-16
9.517310500147614e-16
6.98152369749954e-16
-2.4175842787497834e-15
-4.81513869195967e-15
2.3567242192627e-15
4.8759987514467525e-15
-5.669154022270774e-14
6.905700889220395e-14
-3.491580139264202e-14
2.255033272314573e-14
-3.2914506430209164e-16
-3.238431530555052e-15
1.0107042582213832e-15
2.556872336635761e-15
-5.192533330127569e-16
-3.2965628393292757e-15
-4.971142833951887e-16
4.312930455737223e-15
-6.280912084423997e-16
-5.789805536094433e-16
-6.292859047189935e-16
1.8363576667708367e-15
-1.7144278314162132e-16
-1.8882680910641834e-16
-1.857104480272859e-16
5.459800402753256e-16
-5.708902520215047e-15
9.784885933079012e-15
-3.669752733010903e-15
-4.0623067985306585e-16
-4.0884167809683095e-15
1.156445218531706e-14
-4.9309519795070225e-15
-2.545083424841726e-15
1.914549028346342e-15
-5.275385066340089e-15
2.6139157758695315e-15
7.469202621242142e-16
-1.7806000426180232e-15
1.1416436165866978e-14
-5.839055573217365e-15
-3.7967805500315955e-15
4.2709959417676465e-15
-2.373055471132779e-15
-1.1639040927616546e-15
-7.340363778732119e-16
-3.3852539879236495e-15
7.364102422775296e-15
-2.7970660625746505e-15
-1.1817823722769944e-15
9.140213383473447e-16
-9.261292362036907e-15
4.213359854068049e-17
8.305137425148874e-15
-9.951556774008664e-16
-8.523306616207921e-16
-3.8619889685427327e-16
2.233685235875932e-15
3.146806494946896e-15
-1.9476794627407594e-16
-2.0896544092594363e-15
-8.623841394133806e-16
-5.667765073847505e-17
-9.968922737896847e-16
2.0125700584301622e-16
8.523129186851439e-16
0.0
0.0
0.0
0.0
-2.173741081708695e-16
-9.587453326171004e-16
3.5269799690174796e-17
1.1408496410977949e-15
-1.1650351570057345e-14
3.0997854630408097e-14
-1.91912431808412e-14
-1.5625987950954027e-16
-4.320845553557297e-16
-4.45907397644176e-16
1.8268816427598336e-16
6.953037887239226e-16
2.6744203262172246e-16
-7.236170511171495e-16
5.788555796790099e-16
-1.2268056118358304e-16
0.0
0.0
0.0
0.0
-4.895237376147016e-15
7.0078423264912006e-15
-1.3479850427191494e-14
1.136724547684732e-14
-2.0245958177931322e-15
-1.946935614142746e-15
9.218751007721915e-16
3.0496563311636868e-15
-2.4031952710100566e-16
-1.7741240529837906e-14
1.2235340780118927e-15
1.675802597892701e-14
0.0
0.0
0.0
0.0
2.336855265368012e-16
-6.669005329822876e-16
-6.89767180294129e-16
1.1229821867396154e-15
-7.339333663017573e-15
-3.62451573788947e-15
-4.202826046081471e-15
1.5166675446988508e-14
5.923532780493565e-16
-1.1488974016519064e-15
-7.470524523478014e-17
6.3124936883733e-16
-7.361512984162598e-15
3.0316637717197398e-15
4.846913630215733e-15
-5.170644177728757e-16
-1.1539833085014553e-14
1.5588604420030464e-14
-1.463891098613489e-14
1.0590139651118993e-14
-7.951135882117693e-15
1.9726836253817167e-14
-7.873563901395996e-15
-3.902136470303474e-15
-9.14384750011982e-17
-8.105466688714063e-17
-9.302770558064748e-17
2.6552084746898635e-16
0.0
0.0
0.0
0.0
0.0
0.0
0.0
0.0
-8.588279518423788e-16
-1.0434189911562572e-15
8.922204499905672e-16
1.0100264930080682e-15
8.602744480659144e-16
-3.041069908761606e-15
2.419936127768945e-15
-2.3914066707325387e-16
-8.261610804257234e-15
-6.466089693941138e-15
6.880010667805552e-16
1.4039699431417809e-14
-9.203477162473579e-15
1.628894026117235e-14
-2.0802434419092665e-15
-5.005219656789504e-15
-8.00130779695388e-15
1.1759848119221944e-14
-3.73442847304845e-15
-2.41118492196117e-17
-2.8713475608371993e-16
-1.8330318075265304e-15
-4.974050707269915e-16
2.6175716343372434e-15
-5.840295603135238e-16
-1.4382962823467653e-15
1.2689393442715956e-15
7.533864983886941e-16
0.0
0.0
0.0
0.0
4.058359236647021e-17
-8.797845438401915e-16
8.518001588280313e-16
-1.2599207354310079e-17
5.480231409357974e-15
-4.8997876073043506e-15
-4.232695407261549e-15
3.652251605207923e-15
5.176090092465409e-16
-7.45307863554312e-15
-9.493069518324799e-16
7.884776578129054e-15
-3.947990835999501e-16
-1.282975890312963e-15
-1.5222588227714338e-16
1.8300008561900562e-15
7.234659040068837e-16
-5.495592217753708e-15
1.2697974061523604e-15
3.5023289075944658e-15
3.730747020212477e-16
-1.3039490601696495e-15
8.086105491074928e-16
1.2226380904090872e-16
-1.8937840021484785e-14
2.4543748911031193e-14
-3.448699232665264e-14
2.8881083437106136e-14
1.985581665752081e-16
-7.018977816950076e-16
-1.893896478415947e-16
6.927292629613942e-16
3.6103191778864365e-15
-4.727384160615704e-15
-1.3939290626304126e-15
2.510994045359678e-15
4.8602175352402994e-14
-2.2562737846029784e-14
-1.6281334729767017e-14
-9.75810277660615e-15
5.624767970085654e-15
-4.888155360739443e-15
-3.4120841693722498e-15
2.6754715600260393e-15
1.3983320069399504e-15
-5.066472706499963e-15
1.917860386433562e-15
1.7502803131264489e-15
-7.831112493720758e-16
5.031227290088537e-15
-3.462680613085354e-15
-7.85435427631108e-16
0.0
0.0
0.0
0.0
-1.113493496328533e-14
1.2837002653604601e-14
-6.621949754834714e-15
4.919882064515449e-15
3.3025151006842315e-15
-5.238968314378883e-15
1.0987413299898652e-15
8.377118837047872e-16
-2.3204403433054915e-15
4.613397676801389e-15
-3.3805510869775614e-15
1.0875937534816647e-15
-4.210807285403175e-15
1.1441250082182954e-14
-5.303316149628197e-15
-1.927126647151581e-15
5.959389115271452e-15
-7.142828360198533e-15
1.6843149229484223e-15
-5.008756780213376e-16
1.960443511520225e-14
8.289288077972757e-14
-6.205830374765539e-14
-4.0439012147274484e-14
-8.566026340296374e-15
3.0946910578417066e-14
-1.2893237778003658e-14
-9.487646460117067e-15
1.0810739761363378e-14
-1.9935682316099224e-14
6.450159255030021e-15
2.674783299705821e-15
5.815049197912005e-15
-1.1012324082871924e-14
1.6908462906454737e-15
3.506428594314437e-15
7.071755778713917e-16
-1.0476737574765322e-15
-2.1295947833298218e-17
3.6179412743843883e-16
-6.685443622938732e-16
-3.5045427666744754e-15
-5.350586617783611e-16
4.708145790746712e-15
-6.077124281422679e-15
1.652905181230702e-14
-8.326786353636013e-15
-2.1251411772483335e-15
5.1866134786903736e-15
-4.759162237716349e-15
-5.91016887255145e-17
-3.683495522485122e-16
-1.1486737648533396e-15
-7.427380976674186e-15
4.816286190468599e-15
3.759768551058925e-15
-3.2408091008463914e-15
5.292989592240035e-15
-7.158843771664489e-16
-1.3362961142271934e-15
-5.548900017069441e-15
1.542706152942026e-14
-7.095439029232521e-15
-2.782722483118297e-15
-1.2816147920282206e-14
2.180724468044816e-14
-1.9523158750130916e-14
1.0532061989964935e-14
-6.681683497232685e-16
-2.524629111381829e-15
-7.869162923362392e-16
3.9797137534413365e-15
0.0
0.0
0.0
0.0
-6.39534481332426e-13
4.286736456446575e-13
4.373071872958489e-13
-2.2644635160808162e-13
-1.4247885793857526e-15
-2.314862256575214e-15
1.7541999132315513e-15
1.985450922729416e-15
5.873999954383174e-16
-2.932649125107895e-16
-3.596871160403883e-16
6.555203311286033e-17
3.471954574431794e-16
-5.90890688815936e-16
-5.764217185193755e-16
8.201169498921323e-16
-1.2629354702194723e-15
-2.210415182864929e-15
3.11001414302554e-15
3.633365100588611e-16
-2.814706748519313e-15
-2.932439865681216e-15
5.429398750048106e-15
3.1774786415242253e-16
-1.4363042151275125e-14
7.723965169931522e-15
8.075478974101143e-15
-1.4364019927575322e-15
4.669859039947954e-16
-5.063406303136433e-16
9.808015515267553e-17
-5.872542883382799e-17
-5.458364737413453e-16
-4.958739985880324e-15
5.294658500721086e-15
2.0991795890058634e-16
-3.0396717789726463e-16
-3.006092603987319e-16
8.831956728885251e-16
-2.786192345925284e-16
0.0
0.0
0.0
0.0
-8.149100093343804e-16
-1.7797357492961254e-15
2.3720689880183626e-15
2.225767706121441e-16
-5.872528517364364e-15
7.453894458868576e-15
-1.7213628116745956e-15
1.3999687017038733e-16
0.0
0.0
0.0
0.0
0.0
0.0
0.0
0.0
0.0
0.0
0.0
0.0
0.0
0.0
0.0
0.0
0.0
0.0
0.0
0.0
0.0
0.0
0.0
0.0
0.0
0.0
0.0
0.0
0.0
0.0
0.0
0.0
9.980138352156974e-16
-1.8767485127967177e-15
1.2178108011020845e-15
-3.3907612352106457e-16
-6.4232636310837485e-15
-7.509346190473755e-15
2.026482271444873e-14
-6.3322128928912524e-15
2.29693368718488e-15
2.5099719254893743e-15
-4.5095498978393495e-15
-2.9735571483490714e-16
-2.3432110435143904e-14
1.79623944715132e-14
8.177345208763518e-15
-2.7076292451328228e-15
1.2097213155946207e-15
-2.3117514398764385e-14
1.636477533564044e-14
5.543017747529324e-15
6.720118720830877e-16
-2.1618824315210421e-16
-2.848392507682817e-16
-1.7098437816270183e-16
-1.1085134423310613e-13
7.827842207571327e-14
3.988255442651874e-14
-7.30963226912579e-15
-2.6562537468213045e-15
1.6982766077007647e-14
-5.9928525124114814e-15
-8.33365981777484e-15
-6.991731552707261e-16
-1.1041175988148771e-14
6.843380862956082e-15
4.896968280463396e-15
-5.067154206166896e-14
7.365687061704004e-14
1.53789474095417e-14
-3.836427596491254e-14
-9.423980368020128e-15
4.591001262913609e-14
-3.2907614293215335e-14
-3.578417967900715e-15
-3.2974712541080828e-15
6.6742881584368565e-15
8.011781795835732e-16
-4.177995083912346e-15
-9.451618082779097e-14
6.023946884116995e-14
-1.5862732014770996e-14
5.013944400139192e-14
-1.6055273020066418e-13
1.545741556451448e-13
-5.47184632314367e-15
1.1450420878662543e-14
-1.1290262619260449e-13
8.997759108565964e-14
1.1875509818040732e-15
2.1737484125140785e-14
0.0
0.0
0.0
0.0
-6.61904780797939e-14
2.2006824038166513e-14
1.3957153234978758e-14
3.022650080664868e-14
4.586269853940204e-15
-1.2289905725912025e-14
5.831884664164319e-15
1.8717512078075117e-15
1.5323275710862888e-14
-8.292166908624818e-15
7.969462642719456e-15
-1.500057144495755e-14
-5.6545180975659185e-14
-5.544951783576957e-15
1.5692105381476647e-14
4.639802737775958e-14
4.20102441603595e-15
-3.4707146866480053e-15
1.9339126933982449e-16
-9.237009987277677e-16
-1.4351412898190563e-14
-8.102120149352347e-16
-1.545494710360966e-14
3.061657201673547e-14
1.734713042592994e-14
-2.4148924290085638e-14
2.9491629897010204e-15
3.852630874454698e-15
-3.609791537511228e-16
-8.595456763215414e-15
7.53264219771308e-15
1.4237937192534579e-15
-1.939547779118068e-14
1.863908706279283e-14
1.508583978773496e-14
-1.432944905934717e-14
8.548180337577728e-15
-1.9081383660319194e-15
-5.531599037801401e-15
-1.1084429337444072e-15
4.128863479894228e-15
-8.88118658256072e-15
1.5312647056690013e-15
3.2210583969974856e-15
3.7514323857063005e-14
-3.171147042849402e-14
-3.080786958296735e-14
2.5005016154398305e-14
6.285140377887504e-14
-5.422398741052605e-14
3.5194076006905465e-14
-4.382149237525449e-14
-5.711791927245057e-16
-1.9768037435488533e-14
-1.3751775859960788e-14
3.409099248817385e-14
-1.3795309518985715e-14
2.4871827916591832e-14
-1.9919812536897607e-14
8.843294139291486e-15
1.4985671529401254e-14
-5.712859982451894e-14
-2.370120421019107e-14
6.584413250530879e-14
-3.1105820115628663e-16
-1.2007343392390793e-15
5.376523908223423e-16
9.741401495730238e-16
3.90638494945503e-15
-2.4811840388791835e-15
-5.4075462204806174e-15
3.9823453099047724e-15
9.125027850876728e-16
-8.367184618734828e-16
-3.33695183895751e-16
2.579108606815609e-16
1.2330195546345422e-15
-1.656824307637413e-14
7.121078895299257e-15
8.214144626440327e-15
-8.968508722300089e-15
9.517918274246608e-15
-4.144746025869395e-15
3.595336473922883e-15
1.825172327168411e-14
-2.95418379367343e-14
-2.0989888390142046e-14
3.228000305519221e-14
9.83703229999674e-15
-8.319507595832304e-15
7.017158070558838e-17
-1.5876962848700208e-15
5.915834754988432e-15
-6.6581687022128536e-15
-4.479852711479657e-15
5.222186658704075e-15
2.633891285657961e-15
5.806539469999913e-15
-6.1407859716142824e-15
-2.299644784043595e-15
-6.196832635620418e-17
-7.57440084339066e-16
2.1868462484212787e-16
6.007237858531424e-16
5.492581320209212e-15
-7.260387097126536e-15
-1.0304017991422733e-15
2.798207576059598e-15
-1.4696475454941977e-16
-3.7134411061478625e-15
4.802717189186016e-15
-9.423113284887335e-16
1.4635931808742856e-14
1.4193727914339548e-15
-1.2551397585278753e-14
-3.5039070148980704e-15
-3.650450927846365e-15
4.038602884284944e-15
-1.0877868209949205e-15
6.996348645563439e-16
5.033149900739324e-16
-1.1655329436414668e-15
-2.0092928252587402e-16
8.631472360934084e-16
-3.550573719450547e-15
1.5345947046401414e-14
-6.2750564403791476e-15
-5.520316886571716e-15
1.0568455260901673e-15
-4.754154798461227e-15
2.5266735490383993e-15
1.17063572333266e-15
4.533132412397475e-15
-2.768114949360881e-15
-1.8746648758196504e-15
1.0964741278305285e-16
1.049507280105383e-15
7.118746687551566e-15
-1.025708862064987e-14
2.088834652992923e-15
4.830887155095594e-16
-3.091037080197833e-16
-4.788155620907083e-16
3.0483055460093244e-16
-6.134633078323988e-15
1.7351505990405757e-14
-9.598868518319412e-15
-1.6180043937623822e-15
-4.2029856407095355e-15
9.813004354253214e-15
-4.341072930049883e-15
-1.2689457834937946e-15
1.3162031500641254e-14
-1.2292395918946493e-14
-1.9161419628698007e-15
1.0465063811750324e-15
2.6451440801090623e-15
-9.850010611234438e-15
2.8922360199248903e-15
4.31263051120048e-15
2.5186113828578138e-17
-1.7830173898419135e-15
5.142262099540235e-16
1.2436050660593126e-15
-9.310473395542432e-17
1.52277249549729e-14
-7.003282397412334e-15
-8.131337823605138e-15
7.123109593600387e-15
-1.45883503510078e-14
3.291246232778518e-15
4.17399452462889e-15
-5.109860251385908e-15
-4.4010341290995016e-15
1.1760605819225786e-15
8.334833798562825e-15
0.0
0.0
0.0
0.0
-9.990877420670509e-16
-4.252774908078139e-15
4.132735084446825e-16
4.838589141700507e-15
-6.177474113540975e-15
7.982452210720184e-15
-5.5700982722494336e-15
3.765120175070232e-15
2.1034400871063594e-16
-2.3440116030413547e-15
-2.0306521762993876e-15
4.164319770630105e-15
3.916705000113938e-15
-1.2138257737436382e-14
-3.089157198517519e-15
1.1310709935839972e-14
-3.605451491353359e-15
-2.8707713510666646e-15
-8.174007606336234e-15
1.4650230448756263e-14
2.983459408366754e-14
-2.5757082673078715e-14
3.574861082349962e-15
-7.652372492938776e-15
-5.682372716297391e-15
1.797363117649509e-14
-8.265390515165285e-15
-4.025867945032411e-15
-3.410173980499276e-17
-7.544192302553601e-16
8.596799046772015e-16
-7.115893461684864e-17
-3.431893605288967e-13
2.143250991342101e-13
3.0005183619378803e-13
-1.7118757479910312e-13
-5.397040028918002e-15
1.3293995422679108e-14
-8.219308385066289e-15
3.223529913051818e-16
-2.0991931670774508e-14
-1.1849640001856928e-15
-4.3358563422774194e-15
2.6512752013237593e-14
-1.592037030601416e-14
4.2480768954077106e-14
-1.6457667773237383e-14
-1.0102730874825579e-14
1.1549277255635368e-14
-4.001200878451939e-15
-7.62372806785512e-15
7.565169067168926e-17
6.570899865678282e-15
1.8279657567862874e-14
-5.281738836440413e-15
-1.9568818597100715e-14
2.011020723316121e-14
-3.091315179771893e-14
3.2836182582622845e-16
1.0474582738731509e-14
2.838292912408824e-14
3.751277565865609e-14
-2.0432891792173785e-14
-4.546281299057038e-14
8.07423937135398e-15
-1.0461256731548059e-14
-5.803390306519985e-16
2.967356390846077e-15
-3.3759222313672087e-14
-7.558961181876322e-14
-8.105602674212411e-14
1.9040486087455943e-13
1.920751639461965e-16
-2.6536482791623176e-15
2.1162041502213946e-15
3.453689649947261e-16
1.462068826683144e-13
5.3347320360920346e-14
-3.756996324139012e-15
-1.9579720670509526e-13
7.109983345408694e-15
-8.412610697456211e-15
-1.0287675520231156e-15
2.3313949040706332e-15
5.2703884005121624e-17
-1.0564468511644402e-15
9.713312537817859e-16
3.2411713377532636e-17
-8.056040376883066e-15
4.3329588528153234e-16
-1.314726842786338e-14
2.0770012919464922e-14
-3.080216200635455e-14
-3.714200014475063e-14
1.710291999668864e-14
5.084124215441657e-14
-4.1892454728681545e-14
-8.545939965529044e-14
3.038072112088271e-14
9.697113326308945e-14
3.6363735010466274e-17
-1.1853292964083589e-15
8.603188430675318e-16
2.8864671833036087e-16
-2.340866355926203e-14
7.400092464040341e-16
-1.712476935747356e-14
3.9793423670331534e-14
7.601408373683741e-15
-1.489669971576993e-14
-3.8438439065231585e-15
1.1139135248609349e-14
1.493345190203571e-14
-2.0330976677198248e-14
-9.813613264186717e-15
1.521113803934925e-14
-9.070851805256651e-15
-1.9287285555956055e-14
-4.754603784386368e-15
3.311274114559909e-14
-5.993878764204035e-16
-5.796237364058362e-15
-2.430601862280588e-15
8.826227102759355e-15
-6.205991495899363e-15
-1.383478022729447e-14
-8.122240091220358e-16
2.0852995732315846e-14
4.332364374242403e-15
-1.0428588983981013e-14
-2.8457904293625724e-16
6.3808036526748735e-15
-5.8590487580389705e-15
9.736645510944837e-15
-1.2797177821648544e-15
-2.5978789707410123e-15
-3.832652382012076e-15
2.940247482904164e-15
-1.6061680420320707e-14
1.6954085319428618e-14
6.1397397320748224e-15
-8.160063451039113e-16
-3.292276205951336e-15
-2.0314571810195718e-15
-3.667918304848481e-15
8.542295257544726e-15
-3.351130469588322e-15
-1.5232464831079269e-15
-1.0875487340110028e-15
-1.1822799086459396e-14
-3.593616067031331e-15
1.6503963887501744e-14
1.987506695510442e-15
-3.002121827290157e-15
1.428007220082452e-15
-4.133920883027364e-16
-8.815374070371495e-15
1.4462865164543202e-14
-3.696422873956607e-15
-1.9510682202150954e-15
-4.259166932723745e-15
1.514742504811481e-14
-6.471291109251138e-15
-4.416967006139934e-15
-1.0381502955267306e-14
3.571652080788649e-14
-1.4637306341729067e-14
-1.0697711510890111e-14
-2.5490661887719475e-14
2.6847147601222983e-14
-2.1938724458930284e-14
2.058223874542676e-14
-3.7212745989633577e-14
-1.2938233166196612e-14
-2.469237386971771e-14
7.484335302554775e-14
1.332564556795349e-14
-5.761683387864597e-14
-5.897357139747921e-14
1.0326475970817185e-13
2.660978238499956e-15
1.0035547828230731e-14
-1.567946068164213e-14
2.9829346149114363e-15
1.2573500589897405e-14
-5.769601150147676e-14
-2.215649862826774e-14
6.727900953984724e-14
-1.2160855304468757e-15
3.893976347428279e-15
-1.6638464667467822e-15
-1.0140443502346199e-15
-4.826453189026748e-15
3.315360271073608e-15
-2.9592832783887225e-15
4.470376196341857e-15
8.894847365966043e-15
-2.6042604101337523e-15
-4.282032420825572e-15
-2.0085545350067217e-15
0.0
0.0
0.0
0.0
1.4368042529226863e-15
-3.201857125199282e-15
-2.5547524306994484e-16
2.0205281153465407e-15
-2.155866338943854e-15
2.4885053968060116e-14
-2.5828982586691865e-14
3.099794957575553e-15
-2.211572002472472e-15
-2.2232409455684745e-15
6.911721747329608e-17
4.365695730567653e-15
-2.8052781698634948e-15
-3.02694879766375e-15
-6.641103105775965e-16
6.4963372781048436e-15
1.3952448986098223e-15
-8.657522277801543e-15
2.7084594964290996e-15
4.553817882762619e-15
-7.33595059839491e-15
1.6026277063811464e-14
-4.894401362799854e-15
-3.795925102616708e-15
-7.480947328139276e-15
-1.0428789619814602e-14
-3.4771631756598365e-15
2.1386900123613738e-14
-4.5274221763585645e-15
-1.3384702259227654e-14
1.7799959495491736e-15
1.613212848603705e-14
3.0719549844836937e-15
-4.360973767526886e-15
2.7578090216437316e-16
1.0132378808788183e-15
-1.7914598741993604e-15
-9.388425006832478e-15
7.885540891355611e-16
1.0391330791896279e-14
9.430824825222057e-16
-4.344734834705567e-15
-1.2356653786796778e-15
4.637317730863043e-15
-6.687883442538913e-15
5.443616943031124e-15
-5.673950774369087e-15
6.918217273876877e-15
2.327033675559735e-16
-8.882656792314169e-16
-1.163336576452828e-16
7.718959693207262e-16
-5.4932655236795275e-15
3.632473919189341e-15
3.156833102146881e-16
1.545108294275494e-15
-9.595604333253728e-17
-1.074085068480786e-15
3.5898993483791527e-17
1.134142118329532e-15
-1.9734549126374914e-15
-2.037686422600514e-15
8.052106380085623e-15
-4.040965044847623e-15
3.5449872323360614e-15
-2.5725874965355137e-15
1.0893550181532125e-15
-2.061754753953761e-15
-5.576689129348485e-15
1.8352408510425044e-14
-1.020395448478944e-14
-2.5717648962871174e-15
5.861883493117872e-16
-6.140741214869871e-15
5.233213201693179e-15
3.213396638649062e-16
-1.493976370913348e-16
-2.714451430842636e-16
-1.3034415423958303e-16
5.511869344151814e-16
-1.3404903164798042e-15
-2.565761427821027e-15
1.1917078708064071e-15
2.7145438734944253e-15
8.224511351017494e-15
-6.957936311692711e-15
-3.355185375997487e-15
2.0886103366727044e-15
-5.021857252906897e-16
-5.378626249253819e-15
2.4013654544660447e-15
3.479446520078465e-15
-1.240629009558091e-13
2.0725642440721142e-13
-5.289755989822598e-14
-3.029596355317641e-14
-4.3691123358915526e-16
-1.4281341755990438e-15
1.5858340095388613e-15
2.792113996493377e-16
1.3990215129233668e-15
-8.377315571979909e-15
4.624712112972569e-15
2.3535819460839686e-15
8.654660346930546e-16
-7.954634001447956e-15
5.720538837139215e-15
1.3686291296156834e-15
2.3410616400143158e-15
-2.3837381736393257e-15
-5.207616255231125e-16
5.634381591481223e-16
-1.8030171188746327e-15
-2.047122446446043e-15
1.0483141899182151e-15
2.80182537540246e-15
1.7241566858954333e-15
-2.1368680503257095e-15
2.275747517145559e-16
1.8513661271571994e-16
1.2565404910307752e-15
-2.239160956243167e-15
-7.84637691100415e-17
1.0610842343224333e-15
-1.2198989159425803e-15
-2.43904429801441e-15
1.3837213179262214e-15
2.2752218960307674e-15
6.199818498935384e-17
-6.922767123931357e-15
4.1752889604392285e-15
2.6854799785027795e-15
-1.230188648023927e-15
-3.721010544445283e-15
3.5207655820392924e-15
1.4304336104299172e-15
4.662757687081545e-15
-5.221344119050638e-15
1.232654158234261e-15
-6.74067726265168e-16
1.222739300409491e-15
-4.217772685870188e-15
1.4133001274461282e-15
1.5817332580145684e-15
1.8764775050846925e-13
-1.1193941343653514e-13
-2.2900028425743062e-14
-5.2808308646191037e-14
4.333791400677022e-15
-4.910193730012419e-15
6.525219546158173e-16
-7.611962528042076e-17
3.653325893997011e-15
-4.2863973569753695e-14
-2.5284782720393974e-14
6.449543039615049e-14
3.182774722557331e-14
-5.420491890954669e-14
-5.775535845987247e-14
8.013253014384573e-14
3.2441315193890768e-15
-8.094042382339613e-15
-2.893211629948984e-15
7.743122492899516e-15
-6.435163972459691e-15
-2.6511895611971152e-14
-1.2379440992205912e-15
3.418500368365141e-14
-7.676095264411785e-17
-1.1737235417825342e-15
1.3883579174952787e-16
1.1116487026771238e-15
-2.6030489056481106e-16
-2.4756332784917465e-16
-2.610958656782265e-16
7.689640840922122e-16
2.2771094407431225e-15
-6.88879302645606e-15
3.8959182898356027e-16
4.222091756729375e-15
-3.0646488308746493e-16
-3.153905148007014e-16
2.2991661944491705e-16
3.919387784432492e-16
0.0
0.0
0.0
0.0
1.2627761221581348e-15
-2.544928268094156e-15
9.8500746085687e-16
2.971446850791516e-16
-2.5841737014513504e-14
-2.2106751895900083e-14
3.804851355566885e-14
9.899975354744699e-15
-3.925938017388232e-15
-5.192089825694142e-15
5.222014955902434e-15
3.89601288717994e-15
1.3805614441993884e-15
-4.948362757528923e-16
-5.295397286640169e-16
-3.561854397824792e-16
2.2047266454489404e-16
-7.521081347158003e-16
1.0607802779978152e-15
-5.291448078269089e-16
3.6992391025225365e-15
-4.950884351876329e-15
-1.2770927686735228e-15
2.5287380180273138e-15
-2.564938616056982e-15
9.364603769319652e-15
-5.230003991574499e-15
-1.5696611616881698e-15
1.1862541183882416e-14
4.0029901376044323e-16
-7.182516161179657e-15
-5.0803240364632184e-15
-1.1849475803923024e-14
2.654564603720295e-14
-1.2037789434286248e-14
-2.65838079899367e-15
9.993989368688945e-16
-4.952927074528516e-15
3.147962641986756e-15
8.055654956728657e-16
-8.188123184129858e-17
-7.800733424560143e-17
-9.855490156041967e-17
2.5844346764731966e-16
-3.5940333420694563e-17
-7.030018569916478e-16
7.962734342708223e-16
-5.73312438584801e-17
2.1947038093928177e-16
7.124191715112847e-15
-3.65653340840076e-15
-3.687128687651365e-15
-1.1017378513206728e-16
-3.320551133285184e-15
1.4035725800074076e-15
2.0271523384098436e-15
1.2844521171621772e-15
-2.340448624448509e-15
9.53792662374488e-16
1.0220384491184368e-16
7.507894174180126e-16
6.726064879624462e-15
-3.5131589880866844e-15
-3.96369530895579e-15
2.7146178134274558e-14
-1.399640733775997e-14
-1.3815733606196643e-15
-1.176819743589492e-14
-8.697437293858343e-16
-7.964666514957803e-16
-3.001648710882593e-16
1.966375251969874e-15
5.369243056196495e-16
-4.494560869982778e-16
2.1080989779858907e-16
-2.9827811641996085e-16
-3.0262900721259996e-16
-3.71779012195077e-16
2.628404868717637e-16
4.1156753253591304e-16
1.2215024511877655e-14
-6.5358184079598646e-15
-3.4543640773270017e-15
-2.224842026590795e-15
8.945142123144977e-15
-3.2329137110361606e-14
-3.6420673149411943e-14
5.980466813662859e-14
-1.0452298730822495e-14
7.195763589262138e-15
-1.2621809875949661e-14
1.5878345017510007e-14
1.0774090372993456e-15
-5.051205514617616e-15
-3.0506270689089247e-16
4.278859184209161e-15
-1.583464760780378e-14
-1.4694113824165506e-15
-3.2855892459725296e-14
5.015995144994572e-14
-1.6203289574665932e-15
8.301774014236834e-16
-3.6074225950227666e-15
4.397574151065675e-15
-5.433713341770927e-15
-5.137279485245589e-14
1.946592274457394e-15
5.485991591976952e-14
1.3629380725457258e-14
-2.0926743261619164e-14
-8.278353377319347e-15
1.5575715913481245e-14
-4.604785744820241e-14
-1.1014873663758065e-14
4.766010325309299e-14
9.402627858867339e-15
-1.9406773276120745e-14
-6.53925859560687e-14
-7.42084784545601e-15
9.22202070776454e-14
-1.605352508950161e-14
-6.660532284443603e-15
6.510006401816345e-14
-4.238600664421818e-14
-3.0095443104139193e-14
4.557365616221492e-14
-2.637322167734251e-14
1.0895008619266715e-14
-2.6708592213386107e-16
-2.8145329915413336e-16
-2.4445557467843815e-16
7.929947959664325e-16
-9.138636205342292e-16
-7.006820796894632e-15
-1.0128238587470046e-15
8.933508276175866e-15
1.3025388201738597e-15
-1.221267714154764e-15
-9.099969944815045e-16
8.287258884624089e-16
1.4278410212990744e-15
-3.192610553850225e-15
8.507248036543049e-16
9.140447288968438e-16
4.6393673049780586e-15
-1.689405818023212e-14
7.4309170856328e-16
1.1511599166690781e-14
4.221673895103184e-15
-2.879600540930606e-15
-7.292688386842472e-15
5.950615032669908e-15
-5.990363450535415e-15
-6.708929765081923e-15
7.273150135723282e-16
1.1971978202045028e-14
-1.751330984837327e-14
-1.1166457421194187e-15
1.7197936841400037e-14
1.4320187490926841e-15
-4.0552203321552654e-15
-5.5435323215622625e-15
5.3095305054222836e-15
4.289222148295241e-15
-2.949841936500986e-15
7.311135857174243e-15
-7.827685463117252e-15
3.4663915424439972e-15
-3.151623107726109e-15
9.498563532354954e-15
-1.8440659135723237e-14
1.2093718711094376e-14
-9.005458466472126e-17
-9.046812930082882e-17
-8.675476859288736e-17
2.6727748255843747e-16
4.189314349384282e-15
-9.195482705998893e-15
1.4745940834755272e-16
4.8587089482670554e-15
1.3311961571138037e-14
-2.273291771606457e-14
2.657037897128691e-15
6.763918247797867e-15
9.712795261185008e-17
-1.4279882692907755e-15
-3.735994497451641e-15
5.06685481413057e-15
-1.016381412817394e-14
-2.2903502803950325e-15
1.3339746114335137e-15
1.1120189797135445e-14
-1.723352097109985e-15
-2.3983447702873427e-15
-3.4091029704087984e-16
4.462607164438206e-15
3.448843064187572e-16
-3.2262784452575737e-15
9.127940896221085e-18
2.872266197942595e-15
-2.5617061549688373e-16
-3.0172466286406504e-15
3.254825500613143e-15
1.8591743524391646e-17
-6.180722514248641e-16
-1.847795443153021e-14
-4.275252852074071e-15
2.3371279535029125e-14
-3.695823163657671e-15
-3.085122588618687e-15
4.4399485787059927e-16
6.336950894405757e-15
1.5587031798309395e-15
-3.1194694544884887e-14
6.33974063836062e-16
2.900201730121789e-14
3.991710506686367e-16
-2.3099955753353764e-15
5.55809138679096e-16
1.3550153859876457e-15
-2.2256406660569165e-15
-2.372533066177585e-15
1.7802880313084326e-15
2.8178857009260696e-15
-9.975922040919589e-16
7.228075409802929e-15
-5.867847334486286e-15
-3.626358712246869e-16
7.412274519823671e-15
-1.023411241642728e-14
-8.824568594991486e-16
3.704294756102761e-15
4.558664128169922e-16
-4.7029861341863415e-15
-1.0524703862171193e-15
5.299590107586472e-15
-9.689549761756916e-17
-7.158970958606874e-17
-9.388774741624277e-17
2.623729546198807e-16
-9.148094538440083e-15
4.265494681923555e-15
-2.6162598012382366e-16
5.144225836640345e-15
3.380633747250914e-15
-2.3006985819334728e-15
-5.56694442943115e-16
-5.232407223743273e-16
-1.3876753883507862e-15
-7.676144303032779e-15
2.0816818398462774e-15
6.982137851537289e-15
-6.591812506006288e-15
1.895437315881608e-15
7.60482641014367e-16
3.9358925491103066e-15
-7.48649865457574e-15
2.1987582209284693e-15
-3.769257257175459e-15
9.056997690822723e-15
-3.249649933348161e-14
-5.0327192461118733e-14
4.56458827587711e-14
3.7177809035829055e-14
-1.3211359086836797e-14
7.230945988736226e-15
-3.7443372763314845e-15
9.724750374432065e-15
-9.242843392356725e-15
-2.8278771621029618e-15
-3.755932463638952e-15
1.5826653018098628e-14
2.7204667044118825e-15
-3.887797423936987e-15
-8.639151017403196e-16
2.031245821265423e-15
-7.513429956240433e-15
6.189539527480732e-16
-4.7658017606653655e-15
1.1660277764157737e-14
-6.324640506638721e-15
5.289915803226274e-15
2.672518142726823e-16
7.674728891397627e-16
-5.238736544449112e-16
-5.959470853475499e-16
1.199806762183098e-15
-7.99860223906371e-17
2.8562425451788458e-15
-2.6609661924346395e-15
6.884394106565291e-16
-8.837157634007353e-16
3.837847248093764e-16
-1.1499137654591283e-14
-7.078299401220153e-15
1.81936523310021e-14
1.1876124918805215e-15
-2.746112473297079e-15
-4.264538758285254e-15
5.823038739701813e-15
6.290924903884563e-16
-2.7927976735148238e-15
2.691147423320895e-16
1.894590440794279e-15
-8.402964504420398e-15
1.3182442167777242e-14
-7.906447633277266e-15
3.126969969920417e-15
1.5956370541011556e-14
-1.2197805389461167e-14
-2.9667986767949357e-15
-7.91766474755452e-16
3.329024930592856e-14
-3.767668536963232e-15
-8.40560049986916e-15
-2.1116980269096147e-14
4.0962611389444044e-14
-4.727152408313602e-14
2.8777048647944462e-15
3.431207828897607e-15
5.694209860534131e-14
-4.163174050077233e-14
-2.4901668988989107e-14
9.591310884420062e-15
7.89448813211408e-15
2.324748422697407e-15
-4.2837492083752995e-15
-5.935487346436187e-15
0.0
0.0
0.0
0.0
3.8941648592471814e-15
-1.5451191813825945e-14
2.81755573441535e-15
8.739471220163397e-15
-2.8232195453937373e-15
-2.9625480618223144e-15
2.348067232914104e-15
3.4377003743019506e-15
-1.0078286158500088e-15
-6.2628170946520256e-15
1.6446732720905758e-15
5.625972438411459e-15
-3.3481561530290912e-15
6.4162848266420796e-15
-3.963830255169608e-15
8.957015815566163e-16
-6.949006222779666e-16
-2.572816162958764e-15
1.6176824240539726e-15
1.650034361182757e-15
-1.579737027111069e-16
-1.9716559033991165e-16
-1.878992922296688e-16
5.430385852806874e-16
-5.783702988205197e-15
-5.468400121768818e-15
2.282749056143316e-15
8.969354053830705e-15
6.886831984554497e-16
-2.143807122585955e-15
2.6564011192569113e-15
-1.2012771951264065e-15
5.326224865806812e-16
-2.0193029455320578e-16
-3.823188558339197e-16
5.162666380644419e-17
-4.984752717588808e-15
7.435731358708623e-15
-4.1922812410984724e-17
-2.409055828708831e-15
-3.897568386434401e-15
8.840426802345625e-15
-3.3655997669817055e-15
-1.5772586489295199e-15
-2.7761295703369954e-16
-1.9227003350175e-16
-2.876196306110046e-16
7.575026211464541e-16
8.335524293802553e-15
-2.533659498091288e-15
-2.4657041624454596e-15
-3.3361606332658073e-15
7.020603637306184e-15
-4.0794050419283685e-14
-1.8438831636224335e-14
5.2212278418201803e-14
1.2166697068258427e-14
-1.5373509726381418e-15
-1.4360083319911483e-14
3.73073722429119e-15
3.6219410303073047e-14
-1.9065468148159093e-14
-3.1103926408525665e-15
-1.4043549514061374e-14
-7.21896840891512e-15
1.641156831875e-14
4.038738451565433e-15
-1.3231338361400305e-14
2.1038915503459905e-15
-3.1906469541512062e-15
-1.1327311000552431e-15
2.219486503860458e-15
1.545117084188437e-14
-3.6745305869935114e-14
-8.40135912494292e-15
2.969549415299365e-14
4.4403251270703215e-15
4.368662907131212e-14
-4.659790848482438e-14
-1.5290457135580116e-15
9.598221288931923e-18
-7.98860385490591e-16
8.346895004698628e-16
-4.5427336268203346e-17
5.542797782254588e-16
-1.4349472662169504e-15
-7.106500828953637e-16
1.5913175708868548e-15
-1.7944726204597762e-15
-1.9615360158288252e-15
-1.2652226051577597e-16
3.8825308968043776e-15
4.2602599676102235e-15
-3.0599814934565674e-15
2.4824570127414587e-16
-1.4485241754278018e-15
9.188393578556771e-14
9.28355719837224e-14
-7.736348899027304e-14
-1.0735601877901742e-13
6.213879339218038e-14
9.857418552475552e-15
-3.323265182102015e-14
-3.876356012363587e-14
-1.8847520125656357e-15
-4.904379073504892e-15
-1.1066210330452767e-15
7.895752119115801e-15
7.051937697902324e-16
-2.6944050564703673e-16
-2.3139948941250646e-16
-2.0435377473068917e-16
3.730929089673662e-14
-3.138901856529061e-14
-1.8041448067498052e-15
-4.116127524696272e-15
-9.335490672053641e-14
-1.3245984364848689e-14
9.818080850916e-14
8.420082576225068e-15
3.1047490148627623e-15
-3.948168509457805e-15
8.230509677940795e-16
2.0368526800966617e-17
-1.240892135842469e-14
3.069616056458866e-14
-1.9157311431345907e-14
8.700722251819261e-16
-2.862281926163412e-15
-3.2216589315989313e-15
-1.959868240846698e-15
8.043809098609038e-15
-4.945878983658444e-16
-2.9597812082626277e-15
8.7109477517498e-16
2.583274331453492e-15
1.6477717793332327e-15
2.058837332381868e-15
3.9751010979279936e-17
-3.746360122694382e-15
8.629628255646054e-15
-1.0022931410777095e-14
-6.552424340249194e-15
7.945727495380236e-15
7.523792840541543e-15
-1.1764564304311222e-14
-2.2497966561884803e-15
6.4905681199581805e-15
-3.424079199772161e-15
2.2581864226963145e-14
-1.8428339866860688e-14
-7.294451603303295e-16
-3.105907674595341e-15
-8.188892987170678e-15
1.1344942540731536e-15
1.0160306407692865e-14
9.793553977819599e-15
-9.7939047895086e-15
-6.152557655490443e-16
6.156065772380363e-16
-1.8301057754800262e-14
-1.1376040553120036e-14
-4.472808593516591e-14
7.440518424308617e-14
-6.347950949940964e-14
-9.353852322973182e-15
-8.548930719419335e-14
1.58322669016576e-13
-7.00715842014518e-15
-1.6381220640600762e-14
-8.853619158566442e-15
3.2241998219312385e-14
-4.84319888985196e-15
2.6955215477586468e-15
-5.846234298249892e-15
7.993911640343199e-15
-5.1233540596010964e-14
-2.2962027703686983e-14
-4.989480722174843e-14
1.2409037552144616e-13
-7.557279776839477e-15
-9.708554437471709e-15
-5.600988099038694e-15
2.2866822313349848e-14
-1.0291541919164266e-14
1.4458338396881022e-14
-1.1021264104120266e-14
6.854467626403506e-15
-1.87384178233072e-14
-8.000320919970975e-14
-2.695564224415218e-14
1.2569726926716905e-13
-8.004956037270939e-15
1.2983579397878648e-14
-6.563532719512712e-15
1.5849093589050055e-15
-4.5901642772407346e-15
-1.2849208197062463e-14
2.7981664014520457e-15
1.4641206072851158e-14
-2.1380433924597875e-15
-1.3426595328595785e-14
3.5316400066103975e-15
1.2032998714445177e-14
3.7543786210530837e-16
-6.8115062090679624e-15
1.1910635631097923e-15
5.245004783852861e-15
1.2099464060051139e-14
-2.2781203193589807e-14
-5.5536965295518214e-15
1.6235435663090495e-14
-2.847786756954701e-15
1.7514131985162633e-15
-1.4443288106830343e-14
1.5539661665268793e-14
8.189853844587203e-15
-4.65962231224824e-15
-1.828478990802372e-14
1.4754558375684786e-14
-2.17997577443624e-14
2.247044484880627e-14
7.207635744646055e-17
-7.4276346189033e-16
-6.259164240629369e-16
3.253675861599643e-15
-1.508113102177287e-15
-1.1196463353594193e-15
4.813548974547975e-15
-5.8508286038393165e-15
-7.700555256134278e-15
8.737834885425641e-15
7.65937091792435e-15
-1.4251053113399584e-14
-3.655549208370529e-15
1.0247231403845765e-14
5.477355852745824e-15
-8.064655813398893e-15
4.1657839037796865e-16
2.1707215702751e-15
2.761151995118397e-16
-2.5308688963921717e-15
4.160914711012002e-16
1.8386622257791317e-15
9.269495406319799e-15
4.013424951116718e-16
-2.1306018485989433e-14
1.1635180584557942e-14
4.157796318486259e-15
-9.665996105301784e-15
-1.0591164361553939e-15
6.567316222970919e-15
-4.026797187107226e-15
5.002690651044138e-15
-2.134988980274606e-15
1.1590955163377019e-15
1.2611452789973413e-15
-1.552428655433918e-15
2.025209961464303e-16
8.876238029014621e-17
3.301676582009285e-15
-9.833028945042606e-16
-1.3434360964880584e-15
-9.749375910169656e-16
0.0
0.0
0.0
0.0
2.7390701703646143e-16
-6.065837983272956e-16
5.078512271136131e-16
-1.7517444582277888e-16
0.0
0.0
0.0
0.0
-1.03630737934822e-15
-1.0341536942097714e-15
1.7799485466741138e-16
1.8924662188905804e-15
2.9300325696558335e-16
-7.421649467441709e-16
-5.728731651799018e-17
5.064490062965776e-16
0.0
0.0
0.0
0.0
6.780053873148095e-14
-1.1324372492754516e-13
-6.7775110954161665e-15
5.222069729148025e-14
0.0
0.0
0.0
0.0
3.1781946492097574e-14
-6.903658974839609e-15
-5.605786548329456e-16
-2.4317708862425028e-14
-4.103141547496678e-13
1.844160794452951e-13
7.159322264899054e-14
1.5430485265538278e-13
-2.4497979831760235e-13
2.443494706120441e-13
2.784934575402744e-14
-2.7219018048468993e-14
-3.6876502144672724e-14
4.3576593967102023e-14
-3.713652380600877e-15
-2.98643944182845e-15
-1.053820940504339e-16
-2.8400169495337447e-15
2.403527789449738e-15
5.418712541344416e-16
7.37284398974882e-16
-3.557103418820198e-15
1.9255762590481635e-15
8.942427607971528e-16
0.0
0.0
0.0
0.0
0.0
0.0
0.0
0.0
1.8875896343223543e-15
-9.690192324884231e-16
-4.819085363036689e-16
-4.366618655302622e-16
7.28508876556685e-16
-1.1507776078219266e-14
2.213593655352213e-15
8.565673546310376e-15
-3.160890301774022e-15
4.216684648620475e-15
-6.297383025807942e-16
-4.2605604426566106e-16
-2.857393495229663e-15
-1.5865672419313782e-14
1.54348232638037e-15
1.7179583588163065e-14
1.7794918473728373e-15
-1.9118245744288232e-15
-2.4412930934524073e-16
3.76462036401226e-16
-4.012231740548463e-15
9.44550707020469e-15
-3.4537843214386286e-15
-1.979491008217597e-15
-1.6641114719017652e-16
-1.8300320597969593e-16
-1.7885932908701618e-16
5.282736822568887e-16
1.0159493629169964e-15
-7.8400680806396995e-16
-2.757922903542259e-16
4.384973550119942e-17
2.0960349712852895e-16
-5.100291906673794e-16
4.704620178882384e-16
-1.7003632434938787e-16
-4.041446833389055e-16
-5.458108651774519e-15
-2.255020960270716e-16
6.0877554311405e-15
-7.32550379090227e-16
-8.487122060901203e-16
-1.843862267233421e-16
1.765648811903689e-15
-4.951844590313234e-16
-5.279386791725122e-16
9.110849980962653e-17
9.32014638394209e-16
8.071808584201235e-16
-9.680988631787678e-16
-4.1873572320643925e-16
5.796537279650836e-16
-5.047458535194387e-15
-7.08657670064372e-16
-3.0992749565071273e-15
8.855391161765887e-15
-1.1994884373157953e-14
4.3891109824606684e-15
-4.6418454433737336e-15
1.2247618834071017e-14
-1.2828211917044447e-14
1.4084825128853267e-14
-8.350461947833697e-15
7.093848736024879e-15
-4.347577116922142e-15
6.710027745851539e-15
-2.6296927910973665e-15
2.6724216216796956e-16
-6.640857524106582e-14
7.617580707602746e-14
-5.813500862493693e-14
4.836777678997523e-14
-4.6898186762094945e-15
7.0314558864763075e-15
-3.5481607913261244e-15
1.2065235810593117e-15
2.775016225520458e-15
2.471603334323121e-14
-3.6936569861670316e-14
9.445520292918502e-15
-4.5512554254077394e-14
4.8144359638642315e-14
-2.3654624929696734e-14
2.102281954513194e-14
3.5545058906802585e-16
-3.442424512995224e-15
7.118408859148189e-17
3.0157898353357152e-15
1.3399522574864439e-14
-2.281650250737738e-14
-4.716332626295367e-16
9.888613195142474e-15
-5.5408526774114086e-15
3.9963267489577225e-16
-1.1557390907356955e-16
5.256793911589212e-15
-1.1362912334366967e-15
5.2758150119882276e-15
-4.7107429757598016e-15
5.712191972082709e-16
-1.0791835845798476e-15
-9.339551539034666e-16
1.3493786304881827e-16
1.878200875434496e-15
-1.1291864117911856e-15
-5.3028554925886624e-15
2.292472560381251e-15
4.139569343998598e-15
2.591825345132749e-15
-6.087234550585314e-15
1.2937673262507342e-15
2.2016418792018318e-15
-8.478645118902002e-15
7.17245149425775e-14
-5.539099788924702e-14
-7.854871934428573e-15
2.5610987143568535e-15
-1.8848625466268102e-15
1.8701213561405427e-16
-8.632483033440979e-16
-1.9574745064625282e-15
1.0525165612433003e-14
-4.622297386033852e-15
-3.945393719936622e-15
-6.7033057987677034e-15
1.2562595960422645e-14
-8.234017942445143e-15
2.374727780790212e-15
8.446903022244641e-15
-1.524554410085907e-14
4.852881939316258e-15
1.945759139298183e-15
-1.5902433752654639e-15
4.18878859359365e-15
-2.3102925243871415e-16
-2.367515965889473e-15
1.0319611246111242e-15
-8.192582263001622e-15
2.7630613179809363e-15
4.397559820409555e-15
-4.702846878883934e-15
-5.45410429358711e-15
-1.4525844173443203e-15
1.1609535589815357e-14
-2.6070562128855086e-14
4.807903012972868e-14
-2.027301248363685e-14
-1.7354555172367323e-15
3.3159443620490106e-15
4.0495220184295154e-16
-5.721123958668541e-15
2.000227394776578e-15
-2.177359649746619e-15
5.128795331109671e-15
-3.868147808192069e-15
9.167121268290196e-16
1.2428936930565507e-15
-7.063399497987628e-15
-1.3305038903769883e-15
7.151009695308061e-15
-7.945518550242661e-16
-1.6689647149685222e-15
-1.185566537979959e-15
3.649083107972747e-15
1.1380747664105058e-13
-1.1193140730076026e-13
-9.406520561494457e-14
9.218913627465428e-14
8.198804937797896e-15
-2.0551864077951988e-14
-9.918501507689272e-15
2.2271560647843388e-14
5.259179356092739e-15
-4.303565142269804e-15
1.3960502217277423e-15
-2.3516644355506806e-15
5.80473081642033e-14
-2.971212650822003e-14
-4.9645437900127984e-14
2.1310256244144752e-14
-3.292899532534234e-15
5.164572163066e-15
-3.699220277427014e-15
1.8275476468952497e-15
1.1832452901748698e-14
-1.344220684092549e-14
1.6074417774458593e-15
2.3121617309428312e-18
-3.161264158210778e-14
5.5018655456828084e-15
-1.478979192170925e-14
4.090056795813416e-14
-1.4997968885708023e-14
3.243918518021064e-15
-4.490817477539049e-15
1.6244867845226033e-14
-5.880159915642685e-15
1.6249861715519575e-15
-1.0024135419467288e-14
1.427930916355801e-14
-1.4588829563756587e-14
3.889049526854342e-15
-1.5278366627016053e-14
2.597814666391825e-14
-6.1686938304044046e-15
1.798761183501323e-14
-7.201960631880637e-15
-4.616957372728191e-15
-1.0714881650861273e-14
-2.4722990865386004e-15
-7.808096737824146e-15
2.0995277475224047e-14
-2.4377770227939052e-15
-4.087831828696181e-15
-8.678795834064877e-15
1.520440468555496e-14
-2.0413345816904572e-16
-2.0362589657126667e-15
-1.4329236722056312e-15
3.6733160960873424e-15
9.162959847038666e-15
-5.946408178268202e-15
-9.25341180685856e-16
-2.2912104880846078e-15
-3.8264704903750015e-15
7.793930621717823e-15
-5.643955558055402e-15
1.6764954267125772e-15
-4.4652710379474634e-10
1.327532184539151e-10
-3.8725803491068497e-10
7.010319202515158e-10
-1.1100796054190636e-11
2.7857558242505474e-12
-9.836163184905605e-12
1.815120341484564e-11
3.0144618039535825e-13
-4.838210757534922e-13
-4.986364528080592e-13
6.810113481661929e-13
-8.947066500618354e-13
-8.829469624517064e-14
2.8858123038595116e-13
6.944201159210555e-13
-2.0052985865321575e-13
3.108660462403797e-13
-6.063387651920208e-13
4.960025776048584e-13
1.6381718644857256e-13
-1.550961259679065e-13
-6.159238830712889e-13
6.072028225906245e-13
-1.0604175285310563e-12
1.9704484876976923e-13
1.8119849660165073e-13
6.821741831596392e-13
5.597649458249106e-14
-2.792688897833096e-13
-3.8126619564431406e-13
6.045585908451321e-13
0.0
0.0
0.0
0.0
-8.486324303226665e-13
-3.744064691496193e-13
-3.5181948058469926e-13
1.5748583800569847e-12
5.901946196368673e-15
-5.86941551257124e-15
1.8654070851267368e-16
-2.1907139231010469e-16
-1.5883847669020002e-14
-6.61668149763205e-14
-3.1008803170601665e-14
1.130594658159421e-13
-1.3709612644626837e-14
-6.038248461435505e-14
6.876477377895171e-16
7.340444952119227e-14
6.448817086074977e-13
-4.0688309470133873e-13
1.2841180472274744e-12
-1.5221166611336364e-12
-1.5158374851036552e-13
-7.371556092506946e-13
-1.6516292813557267e-12
