-1.4163211831784846e-12
-7.982542812231768e-13
-1.9361437897103304e-12
4.1507192541119914e-12
-6.488616299407711e-13
-5.96853980644805e-14
-6.343406504825641e-13
1.342887678487814e-12
-5.116703724961199e-13
9.3178553777718e-13
-1.028312912788754e-12
6.081977475076981e-13
-8.858689754058847e-13
1.077282307174232e-12
-8.209589022175491e-13
6.295455704492039e-13
-2.7129528284648016e-13
-1.9196697250595597e-12
-2.0278855056973787e-13
2.393753558475773e-12
1.4662647795814888e-12
1.137584332929129e-13
1.8156496660419571e-12
-3.3956728789163454e-12
-1.0077506236231907e-13
-9.640522350155002e-14
-1.1022406186524197e-13
3.0740434772911085e-13
8.412486760626717e-14
-8.95160701265275e-13
-5.150098838959176e-13
1.3260457175549275e-12
-5.960564241401814e-15
-5.923884505123429e-15
-4.978307462957995e-15
1.686275620948323e-14
1.0688106266033062e-12
1.457361347950997e-13
5.599006540524462e-13
-1.774447415450852e-12
-9.541070981847553e-14
-8.94522214306512e-14
-1.0922960406234332e-13
2.940925353114702e-13
-2.6283798322508143e-14
-3.076382344018717e-14
-2.411683261981909e-14
8.116445438251436e-14
-1.4522151058768558e-14
-2.8349227048516092e-14
-2.75349056548163e-14
7.040628376210093e-14
-2.7477394275122166e-14
-3.4871821840751205e-14
-2.155369967583536e-14
8.390291579170876e-14
-2.173274711261802e-14
-4.308234219542027e-14
-3.070952417166123e-14
9.552461347969945e-14
-5.364352543843572e-15
-6.953002070898846e-15
-9.944578028987325e-16
1.3311812417641146e-14
-4.532992177444459e-14
-2.655558444642515e-14
-2.2285251455719122e-14
9.417075767658886e-14
-1.0450469780885075e-14
-1.653391217337975e-14
-4.85549198514378e-15
3.1839873939408595e-14
-2.4060417190637027e-14
2.3700269602781364e-14
-2.2570806121822012e-14
2.2930953709677653e-14
-1.5387523360850314e-15
-1.5513346226710588e-15
-1.5514371769705857e-15
4.6415241357266756e-15
-1.929591289121452e-13
-1.2518567432272255e-13
6.916412003123448e-15
3.112283912317456e-13
1.690381940876052e-13
-8.099372640749292e-13
-3.97511187037735e-13
1.0384102570250577e-12
0.0
0.0
0.0
0.0
-2.316218979911144e-13
6.405733384346714e-13
-2.310256269976164e-13
-1.7792581344593993e-13
-1.1581553046123082e-14
-1.2871197053998878e-14
-9.350041780343534e-15
3.3802791880465504e-14
-3.634431372255196e-14
4.864562026630462e-14
-2.917541101985318e-14
1.6874104476100576e-14
-6.766413724176818e-16
-6.444265803078783e-16
2.8954395076643176e-16
1.0315240019591285e-15
-3.85707694223142e-14
-6.072625579853275e-14
-9.207052920660977e-15
1.0850407814150792e-13
1.6957017672252025e-12
-6.658424016345722e-13
-2.7795250776159737e-13
-7.519068578290384e-13
-6.4159323875862e-15
-6.375390303019252e-15
-6.438503969261543e-15
1.9229826659867008e-14
-6.784181035244432e-15
-9.516697862917712e-15
-7.0338933959146075e-15
2.3334772294076764e-14
-3.0781631642677626e-14
-3.166897541220064e-14
-2.683334736177268e-14
8.928395441665089e-14
-1.3962456055372043e-12
2.178264949597731e-12
-2.5518683077398348e-14
-7.565006609831248e-13
-3.7259755305930336e-13
9.71879060503232e-13
-8.780383488144361e-13
2.787568413705105e-13
-1.6239877566667044e-14
-1.5753261214628244e-14
-8.573078908208582e-15
4.0566217689503834e-14
2.909327352340929e-13
-1.276535017502099e-12
-1.0093693930556237e-15
9.866116516610646e-13
1.7457588486607134e-14
-5.489782318483274e-14
-2.970346915834625e-14
6.714370385657182e-14
-1.0419856155178093e-13
-1.4565085174969983e-13
9.751082818856216e-14
1.523385851129182e-13
-2.8714429116438353e-13
1.5651723653238596e-13
-5.566948266278982e-13
6.873218812598954e-13
-4.9650442502288095e-14
4.676110906705887e-15
-5.739008120479527e-14
1.0236441280037745e-13
-2.0557988224385453e-13
2.491369937955463e-13
-1.526081440078784e-13
1.0905103245618621e-13
-9.889583672410888e-16
-1.0617218799079722e-15
-9.878842711772769e-16
3.0385645183263367e-15
-4.5901587117032933e-14
7.41414985561895e-14
-3.913317053127422e-14
1.0893259092117557e-14
-4.6415060500260787e-14
-5.466713707131742e-14
-3.292856536585952e-14
1.340107629374375e-13
-1.1618758240437015e-14
-1.153637423306814e-14
-4.780082256105397e-15
2.7935214729610575e-14
1.219112733532257e-13
-1.1417014063366967e-12
1.5051438708456687e-12
-4.853537378621995e-13
-2.39132820630461e-14
-4.026988431286435e-13
5.4076331982828227e-14
3.7253579320886155e-13
-9.310011596968594e-14
3.4329250201092635e-14
-4.892739771419115e-14
1.0769826348278442e-13
-6.011279182004165e-14
-6.244296400449745e-14
-5.855258380850647e-14
1.811083396330455e-13
-2.994456772901946e-14
-8.105307010646753e-14
-3.64049311599676e-14
1.4740256899545467e-13
-4.588644346757377e-16
-4.1432432362782493e-16
-4.683955714129625e-16
1.3415843297165246e-15
0.0
0.0
0.0
0.0
-5.0971122156570906e-14
-3.205507126095261e-14
-3.127619150509638e-14
1.1430238492261968e-13
-2.1956224469283454e-14
-2.338543881672992e-14
-1.72235292447058e-14
6.256519253071916e-14
-5.622280180805749e-13
-6.431347075574605e-13
-2.01779181176683e-13
1.4071419068147122e-12
-1.9494272801738086e-14
1.5913194417969306e-14
-1.4848356932971155e-14
1.842943531673993e-14
-4.561852487660252e-14
-8.574204602608718e-15
-1.2452217929287439e-14
6.664494740849868e-14
-3.011716940281203e-15
-2.6988100090626823e-14
-2.2432873301134185e-14
5.243269033204215e-14
-6.006172397580508e-14
-6.022041472559248e-14
-2.6239896872999696e-14
1.465220355743972e-13
-3.8642604669203547e-14
3.1511755067732704e-14
-3.764110930088708e-14
4.4771958902357854e-14
-3.6010510029774475e-13
9.416130174060425e-13
-5.842784600083944e-13
2.7705429000973866e-15
-5.315886039120076e-15
-6.349982605847892e-15
-6.983092650194364e-15
1.8648961295162332e-14
-3.0661964817962813e-16
-2.9690982542279977e-16
-2.764266563543836e-16
8.799561299568116e-16
4.690799096710307e-09
1.7173750515846088e-08
1.6136465330542735e-08
-3.800101494309842e-08
-2.549337766001229e-10
-4.5429753263352524e-10
1.2723197787507727e-09
-5.630884695171238e-10
-2.2356305768505856e-13
6.248069931038534e-13
-2.236487077176148e-13
-1.7759522770117966e-13
0.0
0.0
0.0
0.0
-3.4484026359539503e-14
-2.586696502687044e-13
-7.923192849765434e-15
3.010768694780102e-13
-2.173274711261802e-14
-4.308234219542027e-14
-3.070952417166123e-14
9.552461347969945e-14
-1.4522151058768558e-14
-2.8349227048516092e-14
-2.75349056548163e-14
7.040628376210093e-14
7.203660132168106e-15
8.211903486975838e-14
2.689364342166001e-13
-3.5825912921852563e-13
-1.2625315012773012e-15
-1.2617707825436152e-15
-1.2736070405508802e-15
3.7979093243717965e-15
8.083766190290961e-15
-7.275215751377536e-15
2.6562552307861985e-15
-3.464805669699619e-15
-1.0470734906781797e-14
8.968193181624844e-15
-1.0126789691034742e-14
1.1629331416191694e-14
1.8193654466086278e-13
-2.713551355699326e-13
2.887919786966063e-13
-1.9937338778753695e-13
2.658252809602507e-13
-6.649559439091927e-14
-8.276756533312681e-14
-1.1656212123620434e-13
2.0615747598896645e-13
-3.5939976010534045e-14
-6.178601875498852e-14
-1.0843148122344411e-13
-3.915569966184078e-15
-5.484766026921902e-15
1.4083905141572233e-15
7.991945478948752e-15
8.15552268750322e-14
-1.804211783438867e-13
-1.2381514499146395e-13
2.2268109646031937e-13
7.989851800774039e-16
-6.870270905936744e-16
-7.058231389173925e-16
5.938650494336628e-16
1.084030098156375e-15
-3.144244982207858e-15
1.7907907126431818e-16
1.881135812787164e-15
-3.30228440112293e-14
-9.797154389452674e-15
-1.8104332150563197e-14
6.092433055124512e-14
-5.61377920537442e-15
-8.342990716250289e-15
-5.8732528946413365e-15
1.9830022816266045e-14
-4.561852487660252e-14
-8.574204602608718e-15
-1.2452217929287439e-14
6.664494740849868e-14
-5.364352543843572e-15
-6.953002070898846e-15
-9.944578028987325e-16
1.3311812417641146e-14
-9.299267660965383e-15
-1.206020952425066e-14
-6.663933567348453e-15
2.802341075256451e-14
-7.298486811122266e-15
3.90287406149941e-15
-1.7903671913759435e-14
2.129928466338228e-14
0.0
0.0
0.0
0.0
-4.588644346757377e-16
-4.1432432362782493e-16
-4.683955714129625e-16
1.3415843297165246e-15
4.9317689552184835e-14
-1.4838128876831636e-13
1.2679305133127245e-13
-2.7729452115140995e-14
-1.0450469780885075e-14
-1.653391217337975e-14
-4.85549198514378e-15
3.1839873939408595e-14
-7.57941830680418e-15
-7.36842545514881e-15
-7.674796058743048e-15
2.2622639820696028e-14
-5.3711606723531194e-14
1.685151271076474e-15
1.0202225980833771e-14
4.182422947162076e-14
-1.931218337205588e-14
-2.0843456146005632e-14
-1.455293864967522e-14
5.4708578167736755e-14
-8.546988714863255e-15
-1.8989567032313206e-13
-8.58317941641105e-14
2.842744532021066e-13
2.4990723079263168e-15
-4.953932790884157e-15
-2.430660592828403e-15
4.885521075786243e-15
0.0
0.0
0.0
0.0
-3.541010716044111e-15
-6.002064126878963e-15
-2.095856489398043e-15
1.1638931332321111e-14
-9.752887250437723e-16
-9.817136971471514e-16
-9.933290568022443e-16
2.9503314789931682e-15
4.360736020485856e-15
-4.881115730485228e-15
-5.07222966030959e-15
5.592609370308965e-15
0.0
0.0
0.0
0.0
-2.191882552585047e-14
-5.155849700390631e-14
-3.615920713122033e-14
1.0963652966097707e-13
-8.025742203168968e-15
-2.949457310256118e-14
-2.4572402874720382e-16
3.7766039334477364e-14
-1.2687610367204405e-13
-6.102360002963842e-14
2.9787851621070187e-13
-1.0997881250901966e-13
8.4128920173049e-14
-1.2570303038755558e-13
-7.361988694001035e-14
1.1519399715451661e-13
-3.5100698462458937e-14
1.442252855667457e-14
-2.883481172189011e-14
4.9512981627674536e-14
-4.297200140341067e-14
-6.839642253604425e-14
6.211780407357423e-14
4.925061986588052e-14
-6.25197907994098e-15
-4.837031805741755e-14
5.293355825522688e-14
1.6887388821316541e-15
-6.837655877485024e-14
3.853546046489114e-15
-6.630651107558546e-14
1.3082952380394678e-13
-1.9356720218945867e-14
1.605824472089706e-14
-1.469477965353631e-14
1.799325515158511e-14
-1.375525827922152e-16
-1.4505030292776067e-16
-1.5357727943484715e-16
4.36180165154823e-16
-7.251257228706902e-15
-1.3649291711468083e-14
-1.0651597569145591e-14
3.155214650932058e-14
-1.4302516137461634e-15
-3.061196991459204e-14
1.6804205810572797e-16
3.187417947023245e-14
-6.006172397580508e-14
-6.022041472559248e-14
-2.6239896872999696e-14
1.465220355743972e-13
-2.8511775125958316e-14
-2.2265172201094565e-13
5.518918658826922e-14
1.9597431054863556e-13
-3.338022068708974e-14
-8.222724982395997e-14
-2.4283285505241186e-14
1.398907560162911e-13
-3.0112727681436943e-15
-3.0764425051630614e-15
-3.0469701914128115e-15
9.134685464719562e-15
-2.4060417190637027e-14
2.3700269602781364e-14
-2.2570806121822012e-14
2.2930953709677653e-14
2.2742541456018954e-13
-5.447926076938169e-14
-4.6522090183820554e-14
-1.2642406360698753e-13
-2.4092016713459342e-15
-2.6410408974929136e-14
-2.1861754322571637e-14
5.0681364968846676e-14
-6.025152689352668e-16
-5.776911156976809e-16
-5.71118978562552e-16
1.7513253631955e-15
0.0
0.0
0.0
0.0
6.612691680941236e-15
-5.354376433012318e-15
2.7168437370828317e-16
-1.5299996216371996e-15
-8.753442013303982e-14
3.014815714904405e-13
-2.1610080336630684e-13
2.153652008905488e-15
-4.8089449759132396e-14
-7.877244190929695e-14
-6.082572166663592e-14
1.8768761333506555e-13
-7.508937607039604e-14
-1.3693522627370602e-13
3.165020021523403e-14
1.8037440212886836e-13
5.2435622651228174e-14
4.179432300505466e-15
-2.830037851700178e-14
-2.8314676434731866e-14
0.0
0.0
0.0
0.0
1.4899848423403172e-13
2.19236651953002e-14
5.514563935919503e-15
-1.764367133652515e-13
4.829811076995742e-14
1.0234781192401893e-13
-6.15154212511361e-14
-8.913050144283999e-14
7.000138867018544e-14
-1.1774667506067588e-13
-2.919870936263567e-14
7.694399575312613e-14
-3.5051230276529655e-14
-4.4133772256800415e-14
-1.1290147256570407e-14
9.047514978990052e-14
5.830094484833947e-16
-3.1713765874430745e-14
-2.3170936904105698e-14
5.4301693330053083e-14
6.246051616948442e-13
-1.4630195895705247e-13
-2.309397051594124e-13
-2.473634975783786e-13
2.051383302039906e-14
-9.206169750758819e-15
-5.221792255479628e-15
-6.08587101416061e-15
0.0
0.0
0.0
0.0
2.539164907045467e-14
-2.937177869419303e-13
1.4425090362758448e-13
1.2407523424389037e-13
-6.4159323875862e-15
-6.375390303019252e-15
-6.438503969261543e-15
1.9229826659867008e-14
7.741805122413558e-14
-5.089246105789204e-14
1.5007999088327142e-13
-1.7660558104951497e-13
-6.766413724176818e-16
-6.444265803078783e-16
2.8954395076643176e-16
1.0315240019591285e-15
-1.0179964185043013e-14
-5.554916813397018e-14
-1.4915946608937452e-14
8.064507892795082e-14
5.067255094901485e-15
-1.1605331543812114e-13
1.2914999234010117e-13
-1.8163931996881438e-14
2.494636448148449e-13
-4.473506696413497e-13
1.762604196435558e-13
2.1626605182949227e-14
1.4810470018520342e-13
-9.395777698966215e-14
-4.8426516659297656e-14
-5.720406536243574e-15
1.934519365160993e-14
-3.6025575316395766e-13
1.818472461915674e-13
1.5906331332078084e-13
-5.634636110412587e-16
-5.696209255239067e-16
-5.581081201683414e-16
1.691192656733507e-15
-4.5043248104587354e-14
-5.1961360944079324e-14
-3.0016478037419956e-14
1.2702108708608647e-13
-5.637737716232454e-15
-7.121264842086217e-15
-3.460955595771913e-15
1.6219958154090584e-14
-9.889583672410888e-16
-1.0617218799079722e-15
-9.878842711772769e-16
3.0385645183263367e-15
-5.960564241401814e-15
-5.923884505123429e-15
-4.978307462957995e-15
1.686275620948323e-14
-8.737180819814146e-14
-6.790336108305933e-14
-8.682563421571096e-14
2.421008034969119e-13
1.2475428312504843e-13
-1.316344053490611e-13
3.2635488545068906e-14
-2.5755366321056215e-14
-4.957285481634288e-14
-1.0412389474527625e-13
-3.793107461331742e-14
1.9162782417493668e-13
3.493717443736996e-14
-5.16662100998296e-14
1.1003354485261505e-13
-9.330450919015544e-14
-3.6023587630551785e-15
-5.981010710168308e-14
-2.7517049564193866e-14
9.092951542893221e-14
-2.2014042975870487e-14
-1.104484019955832e-13
-7.407652025179242e-14
2.0653896522324602e-13
1.5278896488661322e-14
2.3221370207949247e-13
9.873140029004383e-14
-3.462239988581978e-13
1.2656084306293583e-13
1.0045359649719857e-13
2.4914607531610877e-13
-4.76160514876243e-13
1.6675992078448105e-13
7.965108399024004e-14
1.715457821641869e-16
-2.465825505568849e-13
3.0573830194803515e-14
-1.4861642103663852e-14
-7.271212521473526e-15
-8.440975569666134e-15
1.819074609638492e-14
8.421211413191684e-14
-5.763896106794916e-14
-4.476389916035273e-14
-5.971989528259619e-14
1.1655650002505246e-13
-2.4644112208949924e-14
-3.219249253350652e-14
8.593989543671295e-15
8.083292127589602e-14
-4.081575581412705e-15
-8.534533523815447e-14
1.5325233198998713e-13
-6.502196336270695e-14
-7.570764288263838e-14
-1.2522725744641579e-14
-3.752949183313643e-13
6.616079816698225e-13
-1.359851276050666e-13
-1.5032793573339063e-13
-2.928157533611939e-14
-5.4406545839416194e-14
1.06605842645253e-13
-2.2917721469717787e-14
1.393043256693732e-13
-4.176049294520133e-14
5.3760040948280305e-14
-1.5130387367245184e-13
3.4738687179869016e-14
-1.5051758922662711e-13
1.8652565567126904e-14
9.712633647963093e-14
1.0960674865248828e-14
1.3026857142285428e-13
-1.1280411714695361e-13
-2.842512914114961e-14
1.0789420552578915e-14
-3.2451898476093216e-14
-1.2400066823757395e-14
3.4062544747271696e-14
-1.5304997341000922e-13
-2.825153868168054e-14
1.8806967160641514e-13
-6.768159514725204e-15
-7.002925012814783e-14
-9.483267405579521e-14
-4.7351312406135e-14
2.1221323659007814e-13
-2.983100247049485e-13
2.706425237757439e-13
-1.254695620187924e-13
1.5313706294799818e-13
-2.886960776802165e-15
-3.2358102942238545e-14
1.0189909329928621e-16
3.5143164625741346e-14
1.370225857705234e-13
-9.941376304586663e-14
-2.7088380499806788e-14
-1.0520442224850278e-14
-1.1581553046123082e-14
-1.2871197053998878e-14
-9.350041780343534e-15
3.3802791880465504e-14
1.5599795961997216e-13
1.201819562574068e-13
-1.4470922254104544e-13
-1.3147069333633325e-13
-8.260277941932785e-15
1.0055729515812306e-13
-5.11396438413654e-14
-4.115737337482508e-14
-1.7722243571813744e-13
-1.981882033929106e-13
5.093520522614982e-13
-1.3394141315045185e-13
1.9822437399799722e-14
-2.1239237267974173e-14
-1.562196826357222e-14
1.703876813174667e-14
-3.9877930469501836e-15
-3.740797169886064e-15
4.612571363458919e-15
3.116018853377329e-15
-4.246226139100482e-14
-4.0899966803411805e-14
1.5066539322737732e-13
-6.730316503296071e-14
0.0
0.0
0.0
0.0
-3.484267096372713e-13
7.524757826358945e-13
-8.90600621160276e-14
-3.149890108825986e-13
-6.027390703022195e-13
9.031899568840651e-13
-2.2696398127462844e-13
-7.348690530721684e-14
3.220707133902591e-15
-2.5634660977010704e-14
1.7986687104040158e-14
4.427266739067912e-15
-4.356517863273868e-14
-2.6216961712183656e-14
1.3248257351812462e-13
-6.270043317320215e-14
-4.6972131686021945e-14
-1.2620599978145964e-14
-9.423241521888597e-15
6.901597318605647e-14
-3.8642604669203547e-14
3.1511755067732704e-14
-3.764110930088708e-14
4.4771958902357854e-14
2.3074319135423883e-15
-1.756480897825434e-14
-1.2231172674279249e-14
2.748854973899119e-14
-6.784181035244432e-15
-9.516697862917712e-15
-7.0338933959146075e-15
2.3334772294076764e-14
2.2334461338340564e-14
3.0108369413410143e-16
4.164163806295105e-14
-6.427718309542556e-14
-4.733452662633046e-15
-4.046170446745583e-13
1.882827100079616e-13
2.2106778732922946e-13
-4.9082482854587835e-14
2.4893565405969705e-14
-2.439607181946467e-14
4.8584989268082726e-14
-5.110124485278288e-14
-7.227952621409261e-14
4.396033856984999e-15
1.189847372098902e-13
0.0
0.0
0.0
0.0
-2.6283798322508143e-14
-3.076382344018717e-14
-2.411683261981909e-14
8.116445438251436e-14
-2.3202213335873422e-14
-2.430054995705185e-14
-1.91585513030296e-14
6.666131459595487e-14
-4.5901587117032933e-14
7.41414985561895e-14
-3.913317053127422e-14
1.0893259092117557e-14
-1.539690211583222e-14
-5.559195691602249e-14
-3.5035139537032327e-14
1.060239985688872e-13
-2.5793515496473648e-14
-3.537400033897534e-14
-5.5104990578997535e-14
1.1627250641444648e-13
-1.2130855063645031e-14
-5.252564724276569e-14
1.1591940064591371e-14
5.306456224181941e-14
-1.5292794643823548e-14
-4.688058855046889e-14
-1.8136829484070805e-14
8.031021267836345e-14
-1.1618758240437015e-14
-1.153637423306814e-14
-4.780082256105397e-15
2.7935214729610575e-14
7.942330575162236e-14
-1.0020635441910079e-13
1.0289422381480111e-13
-8.211117514732258e-14
0.0
0.0
0.0
0.0
2.0071281050512063e-14
-1.5493054042501236e-13
7.537907675409337e-14
5.948018262040701e-14
-5.896174252045919e-16
-5.261565441480236e-16
-5.79889887121875e-16
1.6956638564744908e-15
9.92632977614294e-15
9.180839314576396e-15
-1.210296306140653e-13
1.0192246152334619e-13
-1.589351988983299e-14
-1.8164268172548515e-14
-6.524731541194661e-15
4.058251960357616e-14
-2.3247569060898182e-14
-4.5853569988834857e-14
-1.819835769084875e-14
8.729949674058204e-14
3.2843939471170254e-13
3.658484494876625e-14
-2.7435561798588237e-13
-9.066862167458529e-14
3.392622653344293e-15
-2.4048393680327067e-15
-2.7847068505154524e-15
1.796923565203865e-15
1.7597729565123142e-13
-1.0834312688048917e-13
-9.292156471674017e-14
2.528739594599757e-14
6.590040505565243e-14
-6.618559276068277e-14
-3.433510494715914e-14
3.4620292652189516e-14
-3.2367372791735216e-14
-5.185710853813447e-14
-2.7539101388977596e-15
8.697839146876743e-14
-6.011279182004165e-14
-6.244296400449745e-14
-5.855258380850647e-14
1.811083396330455e-13
0.0
0.0
0.0
0.0
2.9600558102579656e-14
-8.734891223825005e-14
-1.1811642593412319e-14
6.955999672908274e-14
-7.339108273353819e-16
-5.316064657892826e-15
-4.415306649597197e-15
1.0465282134825398e-14
-3.0661964817962813e-16
-2.9690982542279977e-16
-2.764266563543836e-16
8.799561299568116e-16
-9.446462527111304e-14
-4.266341279195135e-15
7.754871555436561e-15
9.097609499487154e-14
-1.7235333837547222e-14
8.65340477241451e-15
-1.477427000885711e-14
2.335619907398984e-14
-3.157708449659115e-14
-5.866545901427645e-14
-2.2169569530826574e-14
1.1241211304169409e-13
-4.5333040258537054e-14
-5.90901610411069e-14
4.191775565618235e-14
6.250544564346177e-14
2.912645168180513e-14
-7.087002136717405e-14
6.593062734703035e-14
-2.4187057661661516e-14
-1.0949725472467458e-13
2.276618497950178e-13
-6.140057323240133e-14
-5.676402183794181e-14
-5.6355431199537173e-14
-8.794513834810869e-14
-4.794325827755258e-14
1.9224382782519826e-13
-3.941912505007566e-14
-1.5107452270118083e-13
-7.027544736711269e-14
2.6076909511836917e-13
-2.6440410972275737e-15
-2.5419826707242925e-15
-2.6705905950305654e-15
7.856614362982426e-15
-1.5661200928770535e-14
-3.840573943862642e-14
-1.7622637763357392e-14
7.168957813075447e-14
0.0
0.0
0.0
0.0
-8.910567069435394e-14
1.4853091488999287e-14
-1.3672163514118645e-13
2.1097421434654116e-13
0.0
0.0
0.0
0.0
8.65806837344183e-15
-1.5426190686952346e-14
1.2221161054221897e-14
-5.453038740711385e-15
-1.522418302910049e-14
-1.481745021345624e-14
-7.539801103063066e-15
3.758143434561979e-14
-1.0156945375665575e-15
-9.358110011719938e-16
-1.0332778051455157e-15
2.9847833438840676e-15
-2.1927344406473575e-14
-2.0994347436028487e-13
-8.219497051012155e-15
2.400903158177713e-13
-2.205721870708455e-14
-3.782482834334576e-14
-1.3083247720253035e-14
7.296529477068323e-14
-3.0195734544689775e-15
-1.122751629101408e-14
-1.0940113124321046e-14
2.5187202869804127e-14
-1.3738850332499787e-14
-3.1500880959493574e-14
7.38430493984092e-15
3.785542635215243e-14
-1.8844659217196199e-13
4.511451734902826e-14
-1.4139371909825732e-13
2.847257939211912e-13
-2.1539421870785152e-13
5.241004717630053e-13
-4.0217770333095883e-13
9.347145027580571e-14
-6.274536505202816e-15
-3.378784486293395e-14
-1.2986043144173683e-14
5.3048424512310397e-14
-7.944509695973587e-14
1.3725390572229873e-13
-1.385907375269247e-13
8.078192876436172e-14
-8.058840306055862e-15
1.576634533081779e-14
-7.37691928000157e-15
-3.3058574476035213e-16
-4.532992177444459e-14
-2.655558444642515e-14
-2.2285251455719122e-14
9.417075767658886e-14
0.0
0.0
0.0
0.0
-2.356182430893809e-14
-2.938705581382933e-14
-2.2962090189992577e-14
7.591097031276008e-14
-3.705123061295947e-14
1.427093987626644e-14
-4.150848277139309e-14
6.428877350808606e-14
-8.869221234266104e-15
-1.3452561155469026e-14
-1.1552917326653452e-14
3.3874699716388574e-14
-7.11445864683772e-14
-2.0407703359159776e-14
-6.264154719865744e-14
1.5419383702619453e-13
-9.386935747631248e-16
1.2473968259955636e-14
-1.0610526007325743e-14
-9.24748677866774e-16
-3.5405620147788866e-14
3.6171652006348934e-14
-1.8564885012527436e-14
1.7798853153967346e-14
-1.5014703481933562e-16
-1.3772778709150473e-16
-1.3947397618067757e-16
4.27348798091518e-16
-1.5493947345013373e-13
3.22242808281137e-13
-2.9020225395837993e-13
1.2289891912737684e-13
3.90077127697016e-13
-1.5389857404701919e-13
-1.348194663758228e-13
-1.0135908727417432e-13
-1.4027428729450233e-13
-9.026913262700874e-14
5.882953338678208e-14
1.7171388653472933e-13
3.148109648155945e-15
-2.481117136209897e-13
1.20132684368359e-13
1.2483091960447503e-13
0.0
0.0
0.0
0.0
-5.587861417505705e-13
1.3825123637002052e-12
-4.977487862202878e-13
-3.2597743572934823e-13
0.0
0.0
0.0
0.0
4.19184733168913e-14
-2.043582959174821e-14
6.996144024156133e-14
-9.144408396670441e-14
-4.828653581229621e-14
1.1584468085138398e-13
5.2546491440031455e-14
-1.2010463647911886e-13
-5.315886039120076e-15
-6.349982605847892e-15
-6.983092650194364e-15
1.8648961295162332e-14
-2.6880961009270225e-14
2.4432647438935124e-13
1.1072176550002678e-13
-3.2816727888010907e-13
-2.7105525545659985e-13
5.183737877365329e-13
-1.2145722151237865e-13
-1.2586131076755592e-13
1.137127451398563e-12
-1.0607118817149505e-12
-1.3300560008178035e-12
1.2536404311341932e-12
-1.1003270926292902e-12
-1.1573763834207606e-12
-1.6577309877096311e-12
3.915434463759676e-12
-3.453000965446261e-14
1.538955967536819e-14
-2.1296202543208468e-14
4.043665252230281e-14
-1.2481028634600354e-13
-3.1795130025961134e-13
6.251830964129428e-14
3.8024327696432113e-13
1.3313413611170314e-12
-3.590051379095292e-14
8.480175293872713e-13
-2.1434583767133513e-12
-2.603768345760033e-13
4.684821853491235e-13
-3.1322974046845225e-13
1.0512438969533215e-13
-1.4686163916572062e-13
3.8682935073026543e-13
-1.286006617944445e-13
-1.1136704977010043e-13
-1.1503483107860234e-13
1.7126575298895111e-13
-3.624725521294063e-14
-1.998366669740854e-14
-8.883411241114738e-14
2.2141604663340383e-13
-8.03367169120278e-14
-5.2245217310228457e-14
-2.284999609525667e-13
7.244095845954506e-14
-1.243796163541154e-13
2.8043861884713745e-13
-2.6799903079864128e-14
-2.1585247060753938e-13
7.74281151400383e-14
1.652242585473645e-13
-1.383853926199709e-13
6.374853840548239e-14
9.191079998992231e-14
-1.7273945775433876e-14
1.7974900668437537e-12
-3.8845212175873e-13
-5.920882950206214e-13
-8.169496500644027e-13
-9.07655771399345e-13
-4.119734596018698e-13
1.3785518119107193e-12
-5.892258090950651e-14
8.824620705241638e-13
-5.802858736381304e-13
3.2376245778826764e-13
-6.259386546743027e-13
2.357152760257451e-13
-6.161443474763531e-13
3.830254693798739e-14
3.421265245126182e-13
1.4548558488298196e-13
-1.6060516153974844e-13
3.0576077984404384e-14
-1.545650132763813e-14
-7.723483837446199e-13
-6.549513449129049e-13
-2.5503544471157993e-13
1.6823351733691073e-12
-5.432793702298204e-14
-5.988842313399734e-14
5.2557407895772603e-14
6.165895226120691e-14
-1.0006505966496752e-13
-1.2768961670464414e-13
-1.0792260519740055e-13
3.3567728156701287e-13
-9.656912311382844e-14
-1.0839877584473757e-13
-5.1684323221445864e-14
2.5665222218001224e-13
-4.1602745060194945e-14
-7.328037990496854e-14
-2.6079907866603528e-14
1.4096303283176708e-13
6.510880891123956e-14
-6.836526416187773e-14
-8.103094827303498e-15
1.1359550077941648e-14
-1.1054979655788974e-14
-8.342070169885027e-14
-1.389305887070108e-14
1.0836874022534031e-13
-6.874273512477875e-14
-6.224767547706834e-14
-3.729270140419592e-14
1.6828311200604311e-13
-2.557416058526286e-13
9.733954895944381e-14
-9.610719390788662e-14
2.5450925080107127e-13
-4.080575983728408e-14
-4.556449394115444e-14
2.951479784852377e-14
5.685545592991483e-14
-5.365476472282661e-14
6.728093981323773e-15
-4.499020883562546e-14
9.191687957712829e-14
-1.0433436360300894e-13
-1.0874706198049454e-13
-5.948296953410325e-14
2.7256439511760704e-13
-2.2452781269399193e-13
4.490864100410118e-13
-2.0182120086827956e-13
-2.2737396478739947e-14
-2.707692079746878e-13
5.6352849053403623e-14
-2.443650233747037e-13
4.58781382295988e-13
-1.3318461615247633e-13
3.052885901505123e-14
-1.0067777138557616e-13
2.033335285230007e-13
7.051070321462289e-14
1.350652612494897e-13
-2.455650783756891e-13
3.998911391157634e-14
-7.827370640497681e-14
-7.824398490359348e-14
-1.301375367517298e-14
1.6953144498374295e-13
-1.0379405470999288e-13
-9.508777618058389e-14
-8.077529593148948e-15
2.069593604837258e-13
-2.4329261920520985e-14
-4.3762897238063514e-14
4.3029802573803953e-14
2.5062356584780634e-14
-1.909776245703634e-13
7.392252742842318e-14
-1.2688864091396346e-13
2.439437380559041e-13
-5.3380857946371575e-14
-6.283197938134307e-14
-5.1208810231879355e-14
1.6742164755959424e-13
-6.627931806459829e-14
-5.3716993015971154e-14
-4.584232802223949e-14
1.6583863910280867e-13
-6.348576509411427e-15
-2.181064340049226e-14
-3.847016914697784e-14
6.662938905688155e-14
-2.0003899716197283e-13
-1.5352976078923832e-13
-1.6436198677796713e-13
5.179307447291785e-13
-8.272430484719078e-14
-7.680128322473268e-14
-6.785155028642554e-14
2.2737713835834877e-13
4.0127463782292887e-13
-4.940755473854453e-13
-1.85692627730641e-13
2.784935372931588e-13
3.082406620252819e-14
-4.950419689621152e-14
-2.971420033826756e-14
4.839433103195088e-14
-2.0629555639380947e-13
1.481314752870182e-13
-1.9720255040232965e-13
2.5536663150912076e-13
-1.82856310936993e-13
6.006297395939824e-14
-1.689980335144833e-13
2.9179137049207816e-13
1.6997803553669514e-15
7.682860439096621e-13
-5.691887093266522e-13
-2.0079711493837773e-13
-6.727552013950262e-14
-7.858278921484229e-14
-5.3371406463784355e-14
1.9922971581812914e-13
-9.810824981607968e-14
-5.175177045427202e-14
-6.464162530701994e-14
2.1450164557737156e-13
-1.967237785590858e-15
-2.194173173744754e-14
-1.2368271712311133e-14
3.627724123534956e-14
-4.636921456508932e-13
2.8400758763967426e-13
-2.1561507863519215e-13
3.9529963664641083e-13
-5.33934629940067e-13
-1.1233074533553018e-12
-6.560480279409545e-13
2.313290111236325e-12
3.971368185038527e-08
-5.781347838940089e-08
-4.724282420383295e-08
6.534262074284859e-08
2.8861064569619245e-12
-2.651082665722524e-12
-8.65761163365485e-12
8.422587842415427e-12
-3.654334831553565e-12
3.2895284532335963e-13
5.615106340224946e-12
-2.2897243539947288e-12
-2.426643980470792e-13
3.5106363125506057e-13
1.5433385979739279e-12
-1.6517378311819078e-12
1.307214015673984e-11
-8.777986023616342e-12
-2.3926980951843196e-11
1.9632826818719754e-11
1.5236800351359376e-12
-1.700026559298549e-12
-1.9322199686651863e-12
2.1085664928278006e-12
-1.0785437798750715e-12
7.21367830765284e-13
7.370353947167062e-13
-3.7985944560692146e-13
-1.304882252655205e-14
1.1879843059973305e-14
-2.2490876116893398e-15
3.4180670782680753e-15
2.038618177788566e-15
-3.5474087223575905e-14
-1.7395942511309456e-14
5.08314115570967e-14
-3.048304626829576e-13
-2.128849556139607e-13
-9.645687222567664e-14
6.141722905225952e-13
-2.3689747105224514e-15
8.661341782781647e-16
-4.700445274670253e-15
6.2032858069145345e-15
6.474797200917915e-14
-4.0553438142422343e-14
-6.771594640209641e-15
-1.742293922654724e-14
-1.249905032876255e-15
-1.1588498818022025e-15
7.358401846540696e-16
1.6729147300243874e-15
-5.889253264569501e-14
-1.2471667814710623e-13
-1.592494529971608e-13
3.428586637899626e-13
-2.101397071593384e-15
-1.168899619524388e-15
-1.6860715163694148e-14
2.0131011854811936e-14
1.152079812446589e-15
-3.592193098351836e-15
2.870560780523473e-16
2.1530572078528997e-15
-1.7741596404115214e-12
1.8237107339625514e-13
7.75120429255989e-14
1.5142765240896672e-12
-2.3144285383604944e-13
-2.4578039831609627e-13
-5.297045359694726e-13
1.0069277881216185e-12
-8.334068049221455e-15
-9.786125391667288e-15
-7.826150236654304e-15
2.5946343677543053e-14
-3.542497896597653e-14
2.1951962248652962e-14
-3.932808367596035e-14
5.280110039328378e-14
-2.447407748363709e-14
1.465914888527302e-14
-2.844367020738498e-14
3.8258598805749e-14
1.1126019378794932e-13
-1.3374704455808606e-13
-1.0404507639251854e-13
1.2653192716265588e-13
3.4544575109367255e-13
-1.2142684791060528e-13
-1.6256199948303358e-13
-6.145690370003237e-14
7.590357424937565e-15
-8.925294738004634e-15
3.640148995925744e-15
-2.305211682858677e-15
4.645255010809823e-15
-6.403533449547359e-15
-7.327484273118492e-15
9.085762711856019e-15
1.9167194769554405e-14
-2.480214642962232e-14
-4.147687530296284e-15
9.782639190364192e-15
4.137586789492236e-14
-6.321749651201753e-14
-4.391427015685863e-14
6.575589877395354e-14
1.036161576133864e-13
-2.16786927304468e-13
-8.741409652979173e-13
9.873117349889969e-13
5.346362619338297e-16
-5.593864098550441e-15
2.3360634211730122e-15
2.7231644154436004e-15
6.350999489297052e-15
-2.910151667258907e-14
1.1254122384509271e-14
1.1496394798782736e-14
5.421481444052661e-15
-1.7964367756544353e-14
-1.1298473042742117e-14
2.3841359355233795e-14
2.08041582108727e-13
-9.033157923211378e-14
-4.853874390942217e-14
-6.917125896719101e-14
-1.1059899721608957e-14
-6.5096267739596185e-15
1.5913638052626063e-15
1.597816269030598e-14
-1.641828574807471e-14
4.20130616146644e-14
-1.7288170271964877e-14
-8.306605594624816e-15
3.4033252655903875e-15
1.4583748344420742e-14
-1.1455172404010606e-14
-6.5319012060005266e-15
-2.8302616502200255e-16
-2.812470033160273e-16
-2.8660690081785835e-16
8.508800691558883e-16
1.170143519941964e-15
-2.0069032771184218e-15
-2.030930016142693e-15
2.867689773319151e-15
5.074233369280206e-15
-1.6177549172594527e-14
2.8123055618624727e-15
8.291010241451846e-15
-6.058044788495792e-16
-4.35241428599554e-16
3.726464156499521e-16
6.683994917991815e-16
-8.248268691535492e-14
1.0881151464075586e-14
-6.358938510965182e-14
1.3519092056093103e-13
-7.0941923483676375e-15
1.1557394272699214e-14
-2.039757892864972e-15
-2.4234440314666067e-15
2.271215721027984e-14
-1.8817336481229675e-14
-2.7022118685072837e-15
-1.192608860542881e-15
4.9863119383634426e-15
-2.826226023358725e-14
2.66214566282198e-15
2.0613802632401812e-14
8.791603863895072e-16
-6.819120319504372e-16
2.748894153714907e-16
-4.721377698105609e-16
9.03024322592779e-14
-5.79250280472963e-14
3.9672937822504083e-16
-3.2774133590206635e-14
-2.529671221223994e-14
-1.2704732413988788e-13
-3.169981197634705e-14
1.840438483284749e-13
-3.8513066695454483e-16
-4.629058631347853e-16
6.028769676753521e-16
2.451595624139781e-16
-1.1476063244229684e-13
-8.045251628405035e-14
8.689828160794567e-14
1.0831486711840163e-13
4.0920322536012566e-14
-1.029459803925427e-14
4.339993620400757e-15
-3.4965718117159106e-14
3.624894343248714e-14
-4.966596143625453e-15
-3.582669354624415e-14
4.544346257382523e-15
6.2193440051321925e-15
-7.109945818677021e-15
-4.1040460180055587e-16
1.3010064153453823e-15
-2.5335920732460532e-15
-7.448766277102254e-15
1.2682789317411245e-15
8.714079418607172e-15
9.188772707844829e-15
-5.199029846447017e-14
-7.294151468611318e-15
5.009567722523666e-14
-6.190970272292583e-14
-4.797816759231263e-14
-9.844532979990917e-14
2.0833320011514793e-13
6.271556510934128e-15
-1.4772949247433312e-14
-3.972214954529584e-15
1.2473607691028782e-14
2.0707839493562368e-13
-2.076687218377981e-13
-1.1425767680749627e-13
1.1484800370967159e-13
1.1961666107722185e-13
-1.4090919324137254e-13
-5.835585829088556e-14
7.964839045503634e-14
-3.910344218645931e-15
-2.7278789465484087e-14
1.0203211370437191e-14
2.0985922313692792e-14
4.591712269776496e-15
-8.428665756716627e-15
3.4590130319441363e-15
3.7794045499599643e-16
-3.76445533496227e-14
4.2963045106311006e-15
-2.4189263733902388e-14
5.7537512572894e-14
-1.2971451257914437e-15
-2.685513598692434e-14
2.2909284239647123e-14
5.242996873068664e-15
2.5165273521128835e-14
-7.569437942770385e-15
-2.08690883333178e-14
3.2732527549593508e-15
-3.248081576019986e-15
1.9692291027321608e-14
-4.6219032840999457e-14
2.977482338969782e-14
1.3331939343793341e-14
-1.5167885701685795e-14
-1.7407786930434907e-15
3.5767250509359655e-15
3.334848856350655e-16
-5.689660052815409e-15
-1.014628355057125e-15
6.3708035222374685e-15
-1.454402182552039e-14
-1.0356212489630149e-14
-1.212360514207291e-14
3.702383945722351e-14
-4.17240098926217e-16
-6.967407433268419e-15
-1.9620211465176343e-15
9.34666867871227e-15
1.9367365890506183e-14
-9.71415512527916e-15
-1.961717980999142e-14
9.963969044764375e-15
-2.813588463013329e-15
-5.9419483805730236e-15
7.774010557043196e-15
9.815262865431581e-16
-3.9275731080786325e-15
2.1257099233596896e-14
-1.6226855831111083e-14
-1.1026702944072166e-15
-1.4400087860731263e-16
-1.2805473238177392e-16
-1.4601642781037585e-16
4.180720387994624e-16
-6.476860996742813e-15
1.2251505653192045e-14
-3.2948371615713796e-15
-2.479807494877854e-15
3.142894266997041e-15
5.440524656714851e-15
-3.729303810632392e-15
-4.854115113079498e-15
1.917402337864782e-16
-1.0505877101987713e-14
-1.0591438071781818e-15
1.1373280675379418e-14
-1.375175071379528e-15
-6.767231674228443e-15
3.4913890293908798e-15
4.651017716217092e-15
-3.2269746849632833e-15
-2.0100656041324835e-14
1.2716088596076656e-14
1.061154213021147e-14
2.073859855403969e-15
-8.12563235728432e-15
5.510643533195587e-15
5.411289686847606e-16
5.298671945504581e-15
-1.2090851309841272e-14
3.292753982321675e-15
3.499425382015021e-15
-3.10425852222274e-15
2.6730832127018406e-14
-2.7521328835371586e-14
3.8947552305759066e-15
-7.061249694311425e-15
7.285127605797511e-16
3.806054052603493e-15
2.526682881128176e-15
-6.032525049471715e-15
1.4901790628117102e-14
-7.443556316689384e-15
-1.4257092619560078e-15
5.1633082378939885e-15
7.076331936938263e-15
-1.2833746857864919e-15
-1.0956265489045726e-14
1.3294081936766203e-14
-1.7298956548330943e-14
-1.3337251852317183e-14
1.734212646388191e-14
-8.219886399846323e-14
-2.0511502909877782e-14
8.29424814717231e-14
1.9767885436617667e-14
-1.4171266189668109e-14
-6.76204857716e-14
-2.86413904595926e-17
8.182039335172769e-14
-3.781595066088179e-14
5.892236725781807e-14
-3.4266080735128826e-14
1.3159664138192607e-14
1.2651559089128681e-14
-3.548183845373898e-14
-3.438373770515451e-14
5.721401706976458e-14
7.110368120434734e-15
-5.543799048330741e-14
-4.6393801833067984e-14
9.472142419594049e-14
3.245756560894674e-15
-2.1206524424677598e-14
5.936410791275452e-15
1.20243570725075e-14
-3.430592152213494e-15
1.996110510142673e-15
-3.1524508846459892e-15
4.5869325267168044e-15
5.506979071702995e-15
-2.919302914558408e-14
2.6333984010501486e-15
2.1052651672830903e-14
-7.230882037649374e-14
-7.355066340741277e-14
4.540333061418017e-14
1.0045615316972624e-13
-3.689717283622565e-15
-2.3509519184577274e-14
1.0916134608702022e-14
1.628310185949783e-14
-4.2649123146949565e-14
-7.03150141067577e-14
6.195198587560013e-14
5.1012151378106926e-14
3.4773226210303564e-14
-5.385378999713058e-14
1.1291484325898699e-14
7.789079460928329e-15
-2.4512785717979284e-14
-4.343157117069117e-14
-2.8757676341814955e-14
9.670203323048543e-14
1.2233047710572498e-14
-2.5325211101389852e-14
1.9130179821361955e-15
1.1179145408681157e-14
-1.1418180793455128e-14
3.150496575292194e-14
-1.0837381859374843e-14
-9.249403100091966e-15
-4.334409440598173e-15
-4.608899153217476e-15
-1.476590961493361e-15
1.0419899555308998e-14
5.423610726868303e-16
-2.5460485751649157e-14
-6.250070374127286e-15
3.1168195053089624e-14
3.4594712461622657e-16
-1.2369981695147883e-15
7.265053309910991e-16
1.6454571390746276e-16
-5.631784263459343e-16
-2.2350010652077864e-15
1.6750538518443883e-15
1.1231256397093331e-15
2.2999862759678223e-15
-1.2348438917647693e-14
8.382847031833524e-15
1.6656056098463538e-15
-2.814839496884237e-16
-1.4990222985700895e-16
6.464069636222947e-16
-2.1502078407686212e-16
0.0
0.0
0.0
0.0
-6.552474426436356e-15
1.3959468713467338e-14
-3.7278687483284974e-15
-3.6791255387024835e-15
1.857831186507216e-14
-1.842491140170322e-14
5.15385993090342e-15
-5.30726039427236e-15
0.0
0.0
0.0
0.0
2.1360757324811058e-13
-1.3378188479250148e-13
-7.374325397694295e-14
-6.0824344786663404e-15
-1.3348081815175692e-14
3.308669957029698e-14
-1.0286289178461458e-14
-9.452328576659831e-15
7.023158456393336e-15
-6.553113829107409e-15
-1.9680278317397946e-15
1.4979832044538644e-15
-3.446510389680971e-14
-1.2326307603013062e-14
1.0930762751297422e-13
-6.251621601315128e-14
-6.699313424343891e-16
-6.440716397791271e-16
1.2682769843666829e-15
4.572599784683327e-17
4.777105292126476e-14
-6.479546411245362e-14
5.621446714392024e-15
1.140296447679697e-14
-9.98311398308952e-16
-2.248403607837326e-15
-7.513197706826673e-16
3.998034776828945e-15
-5.7265012503153945e-15
-1.8175923047452243e-14
1.1478916208350899e-14
1.2423508089416726e-14
1.197597003413473e-15
-5.173980000114499e-16
-4.095576387961462e-16
-2.70641364605877e-16
1.1188221408424426e-14
5.860621483979046e-15
-1.1059020772067554e-14
-5.98982212033594e-15
-6.6450303927508784e-15
-6.543869725423812e-16
1.7066091280268633e-14
-9.76667391497536e-15
-1.3716200956951286e-16
-1.7445076988790623e-16
-1.4731586268356779e-16
4.589286421409868e-16
2.35754522675005e-15
-1.0141136900612288e-15
-7.439683619263265e-16
-5.994631747624945e-16
1.837646218150155e-15
-9.693200542205026e-16
-3.9294464704780687e-16
-4.753815168818455e-16
1.6344178767077279e-15
-1.3485659567505033e-15
-1.3932149008663368e-15
1.107362980909112e-15
1.9164074896962917e-15
-4.182902428413899e-15
-1.5646604759889787e-15
3.831155414706585e-15
-3.2266422322315316e-15
1.2652138304645745e-14
-5.774769377192593e-15
-3.65072669522163e-15
0.0
0.0
0.0
0.0
5.434240360520319e-16
-2.5152535188258328e-15
2.3502115657163154e-15
-3.783820829425147e-16
0.0
0.0
0.0
0.0
5.621621510418656e-15
-3.635846157600282e-15
-1.8370363818556405e-15
-1.4873897096273498e-16
-1.3921834292243598e-16
-1.4280560116616805e-16
-1.48235677559521e-16
4.3025962164812507e-16
3.0769487421618523e-16
-1.1843398535150217e-15
6.484534927422542e-16
2.28191486556582e-16
0.0
0.0
0.0
0.0
3.8700531822705e-15
-2.3569255366667186e-15
-2.8822222212663516e-16
-1.2249054234771455e-15
-3.293047126624115e-15
7.348881254182486e-15
-4.0872845754057455e-15
3.1450447847372765e-17
-2.0733087065742134e-14
-3.3131108753319953e-14
8.085381491266348e-15
4.5778814327795656e-14
0.0
0.0
0.0
0.0
-1.7379771746385364e-15
-3.0573924982062716e-15
3.5444318220276206e-15
1.2509378508171873e-15
-6.609688263410905e-16
-2.4221785484654404e-15
1.5446826421677752e-15
1.5384647326387556e-15
4.615922349291648e-15
-3.5904893513559954e-14
-2.4641425044164758e-14
5.5930396208433023e-14
0.0
0.0
0.0
0.0
0.0
0.0
0.0
0.0
8.724374509895937e-16
-6.040151484826519e-16
2.3562483559089654e-16
-5.040471380978384e-16
-5.318311399165008e-15
1.7269417252200898e-14
-6.15713960002548e-15
-5.793966253010414e-15
0.0
0.0
0.0
0.0
-1.6766705610112677e-16
-1.2353432903431996e-16
-1.430743792808583e-16
4.3427576441630505e-16
-7.803144497308582e-16
-4.011853859918907e-15
1.9614083568900484e-15
2.8307599527597154e-15
2.825601015682081e-15
-5.4815713096427085e-15
2.7363310029884085e-15
-8.036070902778252e-17
1.3999749351798476e-14
2.4311211859195493e-14
-5.533391635069089e-14
1.70229551396969e-14
1.724895750467057e-13
-7.040137688889016e-14
-2.6033206730995917e-14
-7.605499142681899e-14
-1.760638670063591e-14
-4.5716539258635496e-15
-2.952529875407915e-14
5.170333938057859e-14
-5.461348122240973e-15
-2.5359848827255596e-14
1.0228290942715571e-14
2.059290600678101e-14
-6.226794832352565e-14
1.13872642408523e-13
-5.5100128320762136e-14
3.495434235764803e-15
-3.654747927140349e-15
-1.1150683450908684e-14
5.159248450740847e-15
9.6461829273082e-15
2.7789339345785787e-15
-1.660331171549454e-15
-1.899005188524483e-15
7.804024254953587e-16
3.4519308695428657e-15
-7.320086974042203e-15
-2.798821269651662e-15
6.666977374151003e-15
-1.5182209067258248e-16
-1.3219593380787636e-16
-1.4202971093624472e-16
4.2604773541670355e-16
-9.883139144401604e-16
-9.807480285838846e-16
-5.359146516284515e-17
2.02265340818689e-15
-5.249383196896748e-15
-1.0180524147503354e-14
1.3661515855198318e-15
1.4063755758880283e-14
6.214890121428381e-15
-1.2170094518124687e-14
7.239066399260159e-15
-1.2838620025638586e-15
-3.1198898167482763e-16
-2.7913862209318545e-16
-2.867811475807436e-16
8.779087513487566e-16
0.0
0.0
0.0
0.0
4.433152216898613e-15
-8.208519543897873e-15
3.784976367795328e-15
-9.60904079607368e-18
5.620788123771965e-15
-1.1881133731679726e-14
5.1429614537876186e-15
1.1173841541201387e-15
3.555680194716411e-15
5.672379586350341e-15
-3.443303015530548e-15
-5.784756765536205e-15
1.9678180202144716e-15
-9.75857845515109e-15
5.1212294833765865e-15
2.6695309515600285e-15
-3.1326923033649895e-15
-1.0812408935978484e-14
3.641927268424831e-15
1.0303173970918648e-14
-7.395227593897048e-15
1.4156711117188047e-14
-5.608039316893186e-16
-6.200679591601672e-15
-1.2185078459841512e-14
2.817272599035186e-14
-8.139752829317175e-15
-7.847894701193174e-15
6.274062797518824e-16
-2.8357912889166096e-15
1.3791058803642407e-15
8.292791288004866e-16
0.0
0.0
0.0
0.0
1.743869449539252e-14
-2.5209760098739e-14
6.187649439008403e-15
1.583416164338055e-15
2.555669234540028e-15
-1.3267119578894165e-14
-4.936382734928278e-16
1.1205088617846958e-14
-1.1748601994852609e-15
-4.910355382731164e-15
1.0010822302353985e-14
-3.925606720137561e-15
-7.515829125873787e-14
-1.5764823077014945e-13
-2.418672179063515e-13
4.746737399352383e-13
1.1627240175870066e-15
-3.644759032880494e-15
2.434657335564634e-15
4.737767972885357e-17
2.8081365955551977e-15
-1.5973983398165092e-15
-8.604134276658966e-16
-3.5032482807279275e-16
6.836640970822568e-16
-7.215544686523307e-16
1.138181383255522e-16
-7.592776675547825e-17
0.0
0.0
0.0
0.0
-3.2008029399455806e-15
2.4614806489440073e-15
7.922440723176455e-16
-5.2921781316073293e-17
-5.073295179759825e-15
1.1011153133616797e-14
-5.024177734698063e-15
-9.136802191589025e-16
1.4143141141459501e-15
-4.174717378316957e-15
-1.785463513267722e-15
4.545866777438729e-15
9.140075436935275e-15
-6.4387180579523965e-15
-1.2570137173033457e-15
-1.444343661679534e-15
0.0
0.0
0.0
0.0
-5.590601677145672e-15
-1.7152033827795706e-13
-1.4985011454571787e-13
3.2696105450082174e-13
1.4254312753138127e-14
-9.289647368928021e-15
-5.0816390238131056e-15
1.1697363960300687e-16
-2.9506051713156104e-14
4.038667616405109e-14
-2.249846602554086e-14
1.1617841574645819e-14
4.060881040652874e-15
-1.0606000707470449e-14
-1.4775912797278653e-14
2.1321032464096206e-14
-2.0317949954936272e-14
-1.2210934674533705e-14
-9.000622831806317e-15
4.152950746127633e-14
5.0104044240663716e-15
-4.6691702635926086e-14
-4.1323808787368516e-14
8.300510699922843e-14
-1.3855159850392998e-13
-3.835293356820885e-15
-1.0273172843141701e-13
2.451186202921676e-13
-2.6467356416852247e-15
4.104851255970728e-16
7.287469542470492e-15
-5.051219026382333e-15
-5.660542699973023e-14
3.333190390165358e-14
-1.0790074572153366e-15
2.4352530555292025e-14
4.193047361495931e-15
-8.330849736968899e-15
-1.3807440341239501e-15
5.518546409596926e-15
-1.581305341052975e-14
5.075962525637693e-14
-2.95533330786129e-14
-5.393238767234229e-15
-2.4511179313542113e-14
5.3888357871181725e-14
-1.1996310506025362e-14
-1.73808680516142e-14
7.779580142280178e-15
-1.767284480322401e-14
7.598296366547928e-15
2.2949682943958925e-15
3.8928664323897795e-15
7.868925068135586e-15
-1.6924615229498763e-15
-1.0069329977575486e-14
3.9996959309790385e-15
-5.361058391554893e-15
1.5234654726951783e-15
-1.6210301211932323e-16
0.0
0.0
0.0
0.0
-4.098698512528467e-15
1.230143611310582e-14
-2.4940986909342273e-15
-5.708638909643128e-15
2.0660960073135698e-16
1.707813966517394e-15
-7.32898434667424e-15
5.414560779425486e-15
-4.462939657337499e-16
-1.7945958083381966e-15
1.0160592478967561e-15
1.2248305261751905e-15
-3.3812674911822385e-15
2.0352257622741756e-14
-7.377624174560949e-15
-9.593365956998555e-15
2.034731647245015e-17
1.5659560167942608e-14
-1.946293486108436e-14
3.783027376669296e-15
-5.418781012933844e-16
-4.231374327805819e-15
2.256484784678641e-15
2.516767644420561e-15
1.9170995705130116e-14
2.3791901121318793e-14
-2.7467440394771183e-14
-1.5495456431677676e-14
4.537526637993442e-15
-4.452895458259534e-15
-1.9302745367291457e-15
1.845643356995234e-15
-4.355458002845029e-15
9.793234988885677e-15
-4.257947649679521e-15
-1.1798293363611272e-15
5.191878233003295e-16
-2.0557923269408327e-15
1.2815893110871778e-15
2.5501519255332643e-16
-5.835560842574964e-15
6.609435010897862e-15
-5.8507570945679765e-15
5.0768829262450695e-15
1.0673803251969497e-15
-2.1316159384950037e-15
9.289002708183005e-16
1.353353424797534e-16
0.0
0.0
0.0
0.0
1.2325672836761175e-14
-1.78820942317619e-14
-1.581675858032877e-15
7.13809725303362e-15
1.3575600629472067e-14
-8.984765118395604e-15
-3.89983542435419e-15
-6.910000867222727e-16
-7.572269407125484e-15
1.6711851176226607e-14
-4.978212135993326e-15
-4.161369633107794e-15
9.672713542458339e-15
-2.153809504870291e-15
-4.1482380083760914e-14
3.3963476046172906e-14
-3.950162118293418e-14
5.533399613468362e-14
-4.5032685056010406e-14
2.920031010426089e-14
-3.303334231422033e-14
-8.912807090959873e-15
-5.68742097232429e-14
9.88203591284231e-14
1.9414529018447208e-14
-3.052276728112962e-14
6.244474263766596e-15
4.86376399891578e-15
9.007341952007558e-15
-1.827492773741536e-14
-5.249380162452225e-14
6.176138740993006e-14
-1.5434644446607378e-16
-1.189994997818159e-16
-1.5022286214615615e-16
4.235688063940458e-16
-6.102372124178974e-16
-2.0143763504700495e-15
-2.186493167662998e-15
4.811106730550945e-15
-1.5487793190875708e-15
-1.4583276162109242e-15
3.8825213003160493e-16
2.6188548052668904e-15
1.81472172901491e-15
-2.4939644875545485e-15
1.4196059432689609e-16
5.372821642127425e-16
-2.7856724299430345e-15
9.264940014809313e-15
-4.073085174977975e-15
-2.406182409888293e-15
-1.0168438111577779e-15
-8.554797602064002e-15
-3.923461278679974e-15
1.3495102691901761e-14
9.142879321382569e-16
-5.58011545665401e-16
2.060318370719072e-16
-5.623082235447629e-16
-8.797438888461609e-15
2.9281817817549975e-14
-1.2874733561700692e-14
-7.609645367387691e-15
-4.0738639416208073e-16
-4.048398717443324e-16
5.987281414018879e-16
2.1349812450452515e-16
9.261913615619374e-16
-8.286028657666246e-16
-6.863425725375385e-16
5.887540767422259e-16
0.0
0.0
0.0
0.0
-5.1485646336699205e-16
-6.302749589293795e-16
4.726692866136291e-16
6.724621356827427e-16
-1.8104398767864137e-16
-9.921993745427553e-17
-1.6085968560047138e-16
4.4112361073338825e-16
-3.956045608930588e-16
-3.8637875926324e-16
5.284111189940161e-16
2.5357220116228285e-16
0.0
0.0
0.0
0.0
7.53066141162452e-16
-8.953702789624897e-16
-8.872998289152464e-16
1.0296039667152842e-15
0.0
0.0
0.0
0.0
-6.883568286545374e-16
-5.301987672276822e-16
1.2175409267696598e-15
1.014669112559881e-18
0.0
0.0
0.0
0.0
0.0
0.0
0.0
0.0
0.0
0.0
0.0
0.0
-2.5533315718387935e-16
-2.6296209024246464e-16
7.245328069368123e-16
-2.0623755951046842e-16
0.0
0.0
0.0
0.0
1.1970409017196261e-15
-5.47628559452985e-16
-3.8913561567454855e-16
-2.602767265920925e-16
2.3415852003594338e-15
-8.564473522210934e-16
-7.674325552472299e-16
-7.177052928911108e-16
0.0
0.0
0.0
0.0
0.0
0.0
0.0
0.0
0.0
0.0
0.0
0.0
-1.2018547019609508e-16
-1.8778122579583191e-16
-1.443656394488796e-16
4.523323354408066e-16
-1.318885528752488e-16
-1.5327980311924283e-16
-1.4050362241541294e-16
4.256719784099045e-16
-1.2642206807425537e-15
-1.128093234432146e-15
6.27500488898919e-16
1.764813426275781e-15
-4.0484809674981686e-16
-4.285741258282672e-16
5.78199727467622e-16
2.5522249511046215e-16
4.307483056789151e-15
-2.0464860437434883e-15
-1.9526522497288853e-15
-3.083447633167772e-16
0.0
0.0
0.0
0.0
0.0
0.0
0.0
0.0
0.0
0.0
0.0
0.0
-2.987091715025233e-14
1.882600196741275e-14
1.3695084099687092e-15
9.675406772870871e-15
-1.0964891833636563e-15
-6.3927367969986095e-15
5.398282426068637e-15
2.0909435542936297e-15
-1.1587873916059462e-14
3.102670938326249e-14
-1.2608491267759946e-14
-6.830344199443086e-15
-5.349242844811745e-16
-6.512771176312215e-15
3.044497142924078e-15
4.003198317869309e-15
-1.2208975722412452e-15
-1.1437990622388925e-15
2.708262445570221e-15
-3.4356581109008295e-16
-4.3611256890037945e-16
-5.421219162309042e-15
7.712898482576033e-15
-1.8555667513666097e-15
-9.281980467960224e-16
-4.226348737391292e-15
3.8404510542509286e-15
1.3140957299363892e-15
5.0781815212806054e-17
-1.3534041715033939e-14
6.23210317381518e-15
7.251156726005966e-15
-1.540236624115794e-16
-1.3984957922815273e-16
-1.5030045306023185e-16
4.44173694699964e-16
8.420066639330333e-16
-3.845565544566925e-15
1.0246777424205317e-15
1.9788811382133584e-15
2.63135657488079e-13
2.79751837551687e-13
-2.544334485648019e-13
-2.884540464749655e-13
1.0061587365714502e-14
-7.803750217222965e-14
2.016602349096866e-14
4.780989131554652e-14
4.222515356224628e-14
-5.090333878210027e-14
-4.616132099610604e-15
1.3294317319464586e-14
1.233964690278064e-14
-1.7793747550147313e-14
1.2585648097948516e-14
-7.131547450581819e-15
-7.349111391290588e-15
1.0784174541181611e-14
-4.287145222241098e-15
8.520820723500782e-16
-1.4373147742931522e-15
-1.2620265693848943e-15
4.820966912895616e-16
2.217244652388485e-15
1.8870957705732824e-15
-4.056310715886997e-15
3.890422184582442e-15
-1.7212072392687338e-15
3.1028322348428853e-15
-5.725095561174941e-15
2.5955114815704856e-15
2.6751844761569803e-17
-6.8015050743034165e-15
9.327738138047093e-15
-1.11649777848981e-15
-1.4097352852538655e-15
-2.38869987490986e-15
-1.991255814305177e-15
5.706332593290077e-16
3.80932242988603e-15
-4.2798295706214883e-16
-4.2612361374331145e-16
-4.3940497481646416e-16
1.2935115456219242e-15
-8.71000821588164e-15
1.1840924103654199e-14
-1.518510247967048e-14
1.2054186591897917e-14
-3.1937861557237717e-15
-9.874433191872912e-15
6.67991979522088e-15
6.388299552375808e-15
3.700110597929908e-15
-7.0377593993527415e-15
4.449363015543869e-15
-1.111714214121041e-15
2.180943120352472e-13
-1.507371923884617e-13
-1.5759442318570728e-13
9.023730353892198e-14
4.166437140510216e-14
-4.832851474327814e-14
-6.688984649493503e-14
7.355398983311099e-14
6.208008732422714e-15
-4.1890084165383286e-15
-7.568900536652488e-16
-1.2621102622191368e-15
-6.672842665215284e-15
-1.3131344285158045e-14
-2.5291648276658913e-15
2.233335177803924e-14
3.034197983698958e-14
1.1453872398051082e-14
-2.7614544777845234e-14
-1.4181307457195426e-14
5.642830436576992e-15
-2.4216867539228076e-15
-2.1411220853695687e-15
-1.080021597284617e-15
0.0
0.0
0.0
0.0
0.0
0.0
0.0
0.0
-4.599507059864117e-15
2.5527275714423338e-14
-1.093307514683877e-14
-9.994693507720444e-15
-8.676703679333146e-16
-7.3380499383374715e-16
1.227512143394715e-16
1.4787241474275906e-15
0.0
0.0
0.0
0.0
-7.497921733835304e-15
2.8368122010687097e-15
-4.897344906211844e-15
9.558454438978425e-15
1.1080480872014161e-14
-3.499441377646226e-14
5.300848351029148e-16
2.3383848069345186e-14
-2.9872350044899295e-17
-4.459657067480728e-15
2.12765850583379e-15
2.3618709116918354e-15
0.0
0.0
0.0
0.0
0.0
0.0
0.0
0.0
-7.182464761147983e-14
-3.552791786413547e-14
-1.380970307168717e-13
2.454495961924869e-13
1.1483534306902492e-14
-1.2346485523398362e-14
-1.2121390927090945e-15
2.075090309204959e-15
-2.4340714061140494e-16
-3.173405306370284e-16
7.547534952953813e-16
-1.9400582404694784e-16
4.834369240621882e-15
-8.767517238259138e-15
-4.4922947899782655e-15
8.425442787615515e-15
3.9295627376250705e-15
-6.984164413398669e-15
1.7363288204410468e-15
1.318272855332551e-15
-5.531834230263603e-14
-1.1989350840868602e-13
-4.8103617722958945e-14
2.2331546843428124e-13
1.0105989528832135e-15
-5.908007751239116e-16
-5.576383275900536e-16
1.3784014983075173e-16
-7.721646101839054e-15
-1.6987668305073097e-14
-6.512862532312484e-15
3.1222176939224626e-14
-1.2325641030461001e-14
1.9695751667090792e-14
-8.325053457649423e-15
9.549428210196376e-16
3.5038140141102833e-16
-1.2873303486277162e-15
-2.436920463948638e-16
1.1806409936115524e-15
-2.9965589112226225e-15
-7.254924484703729e-15
4.0858992231505706e-15
6.165584172775786e-15
0.0
0.0
0.0
0.0
-7.039827822790442e-15
1.74898488962033e-14
-5.324541352309784e-15
-5.125479721103076e-15
0.0
0.0
0.0
0.0
0.0
0.0
0.0
0.0
-2.254269028497947e-15
-1.9106651579785724e-15
2.594657332772002e-15
1.5702768537045166e-15
-1.4886088683007842e-14
2.2535913791512988e-14
-1.8780308934838254e-14
1.1130483826333105e-14
3.003801456779018e-15
-7.486268308564535e-15
-2.917720079052921e-16
4.7742388596908054e-15
7.680711860529363e-15
1.1539772052571471e-14
-5.924269331126314e-15
-1.3296214581974527e-14
1.5947799497722066e-15
-1.2599907130759095e-14
7.209566602525618e-15
3.795560578461272e-15
1.8994968993628296e-14
-1.972285549557812e-14
-5.294449679924144e-15
6.022336181873963e-15
-1.4365020692116763e-16
-1.7818068321440762e-16
-1.3329681939692885e-16
4.55127709532504e-16
6.885635835880894e-15
-7.608047740957186e-15
1.0771298345674493e-15
-3.5471792949115055e-16
-1.7036642602770008e-15
-1.1255965337312613e-14
9.620832194385518e-16
1.199754637815106e-14
4.405469875636394e-15
-8.459531518169758e-15
3.771431554252657e-15
2.826300882807049e-16
1.5680406063663126e-15
-1.1398214876145223e-15
-1.52237327498525e-15
1.0941541562334594e-15
-6.715097393864343e-15
1.887730661591153e-14
-8.160515229145691e-15
-4.00169399290149e-15
8.15511583067037e-15
2.3616101755974026e-14
-1.876545061347453e-14
-1.3005766973169851e-14
1.321816116778278e-15
-1.6600243976661788e-15
1.1840747140031843e-16
2.198008094875817e-16
0.0
0.0
0.0
0.0
0.0
0.0
0.0
0.0
2.3102015820364808e-15
-1.485781103126281e-14
-5.356509574365221e-15
1.7904119023591562e-14
5.0176024688750485e-15
-4.184307853751457e-15
-3.5025723246528105e-15
2.669277709529219e-15
-6.014352563666649e-16
-5.297775586776503e-16
4.581797725905273e-16
6.730330424537877e-16
-5.013032674167157e-15
-1.2115891681690918e-14
8.22881140975523e-15
8.900112946102857e-15
-1.2402089036877226e-16
-1.6631741465838286e-15
-7.580918143749892e-16
2.5452868513275904e-15
1.3828765876404306e-15
-1.8337431941920655e-15
1.2219994600197868e-16
3.2866666054965647e-16
8.012533934990075e-16
-2.7685994308972494e-15
2.5515063489747153e-15
-5.841603115764734e-16
-1.2017992831444068e-16
-1.7497378767230029e-15
2.172670817968629e-15
-3.0275301293118584e-16
6.155191833226935e-16
-9.662807828470351e-16
-5.05593090004205e-17
4.013209085247625e-16
4.3075300894874705e-16
-4.085318255248357e-15
1.5449055149682802e-15
2.1096597313313307e-15
-6.828319978605997e-16
-2.422703649241991e-15
-2.491492444935951e-16
3.354684891596184e-15
1.43457531054452e-15
-1.6067286553659457e-15
-1.8315029164298606e-15
2.0036562612512866e-15
-3.844993131562777e-16
-5.325158613225907e-16
6.442899003284073e-16
2.7272527415046106e-16
3.1652403429231573e-15
-1.2258098456480962e-14
-5.122570130501826e-16
9.605115126608e-15
5.352088140401407e-15
-2.6250704589648773e-14
1.0564428057719125e-14
1.033418839152825e-14
2.084584731324005e-15
-3.782113384386871e-15
-1.5860794534140323e-16
1.856136598404268e-15
-1.2817971676607762e-14
-5.4158321732701575e-14
-8.097145182826663e-15
7.507343859213609e-14
3.1200446226018357e-15
-3.617702062111285e-15
-2.1317987487421387e-15
2.6294561882515875e-15
-5.7160723964836495e-15
-1.624927547813099e-14
1.1436113344518504e-14
1.0529234530096128e-14
9.101665097112377e-16
-5.552622635236792e-15
1.703940164972452e-15
2.9385159605531025e-15
2.2798011850603158e-15
-2.2490214985020373e-15
-4.344975270127603e-16
4.037178404544812e-16
-1.3320893145436904e-15
-1.4177318557499883e-15
1.5861945458340954e-15
1.1636266244595833e-15
-4.032091279036852e-15
-8.022959557713235e-15
3.930046875615972e-15
8.125003961134112e-15
-9.450116814336347e-14
1.1508056881460652e-13
-5.820162478424756e-14
3.762222411300464e-14
-5.510113555105388e-16
-5.398368645825135e-15
1.6831252215225817e-15
4.266254779813088e-15
-8.661522240096347e-16
-5.493945996279121e-15
-8.285251908410728e-16
7.188623411129831e-15
-1.0467313297478553e-15
-9.650572456445024e-16
-1.0489089274536214e-15
3.0606975028459785e-15
-2.856863816667741e-16
-3.147757027322511e-16
-3.0956337130829567e-16
9.100254557073208e-16
-9.515945358479606e-15
1.6309297013414465e-14
-6.1149832997801074e-15
-6.783683551547556e-16
-6.8125094050670785e-15
1.9272642824670925e-14
-8.220189792212202e-15
-4.239943627391643e-15
3.1911810397557155e-15
-8.792589864160737e-15
4.3562496960809925e-15
1.2451591283240355e-15
-2.96651517856568e-15
1.9023757988440003e-14
-9.734506177113477e-15
-6.322736632760829e-15
7.11864433519198e-15
-3.955528780768167e-15
-1.9401050907221043e-15
-1.2230104637017068e-15
-5.640803715879247e-15
1.2271827507861594e-14
-4.66310140666971e-15
-1.9679223853126305e-15
1.522056348133669e-15
-1.5436423746943227e-14
6.915032316715228e-17
1.38452170756424e-14
-1.6590166262792875e-15
-1.4200652236636532e-15
-6.432313542488269e-16
3.7223132041917676e-15
5.246068566838583e-15
-3.2848908028416624e-16
-3.4865002504175623e-15
-1.4310792361368546e-15
-9.470725740455535e-17
-1.6611361108433717e-15
3.3560303245258647e-16
1.4202403357953411e-15
0.0
0.0
0.0
0.0
-3.6219685432580606e-16
-1.5980316711876999e-15
5.867366638427457e-17
1.9015548591292307e-15
-1.9414023031116083e-14
5.1653389066558014e-14
-3.1995301653973765e-14
-2.4406438146818243e-16
-7.202143747063722e-16
-7.430895737126654e-16
3.045425807711663e-16
1.1587613676478717e-15
4.459261540686899e-16
-1.2062628813565963e-15
9.645807413245585e-16
-2.0424401403665222e-16
0.0
0.0
0.0
0.0
-8.159807332043734e-15
1.1680146177760393e-14
-2.2465834330380753e-14
1.8945495484664135e-14
-3.374351617980241e-15
-3.2448952504339804e-15
1.5364720322172984e-15
5.082774836196925e-15
-4.0108880508142395e-16
-2.956863695006599e-14
2.0392267615695914e-15
2.7930498993577807e-14
0.0
0.0
0.0
0.0
3.894825534362327e-16
-1.1115075360078702e-15
-1.149611653003123e-15
1.87163663557476e-15
-1.2242969224221728e-14
-6.028472121036006e-15
-6.9933483233648935e-15
2.526478966862264e-14
9.864002421385634e-16
-1.913783306425088e-15
-1.235466232949707e-16
1.0509296875814952e-15
-1.2269338087549418e-14
5.05243487744119e-15
8.078186369247779e-15
-8.61283159139554e-16
-1.9235827085594746e-14
2.5983067751014748e-14
-2.439683095482608e-14
1.764959028940608e-14
-1.3251460056011135e-14
3.2877454156749e-14
-1.3122962158327866e-14
-6.503031942409987e-15
-1.527285245723206e-16
-1.3471633653205248e-16
-1.5469680381499702e-16
4.421416649193701e-16
0.0
0.0
0.0
0.0
0.0
0.0
0.0
0.0
-1.4322227141847946e-15
-1.7379513980656213e-15
1.4878213260233716e-15
1.6823527862270437e-15
1.4323761034339568e-15
-5.066480988977925e-15
4.03461114363658e-15
-4.005062580926122e-16
-1.3787973523277865e-14
-1.0758435128338623e-14
1.165340910850863e-15
2.3381067740765628e-14
-1.5355696901676252e-14
2.7166620063516914e-14
-3.450976507781233e-15
-8.359946654059425e-15
-1.3353442267864724e-14
1.9615842632443404e-14
-6.2113135900501255e-15
-5.1086774528552395e-17
-4.79571286444908e-16
-3.0539108553972583e-15
-8.278605531479686e-16
4.361342694990137e-15
-9.737058217438009e-16
-2.3967745828198895e-15
2.11533559262935e-15
1.2551448119343408e-15
0.0
0.0
0.0
0.0
6.569416516514064e-17
-1.4639806651547846e-15
1.4214754337523496e-15
-2.3188933762705654e-17
9.121872277894005e-15
-8.157305673277633e-15
-7.04866075804587e-15
6.084094153429498e-15
8.611721434082483e-16
-1.2422116054370357e-14
-1.5829270658448266e-15
1.314387097680694e-14
-6.581911008002324e-16
-2.138048060444122e-15
-2.5348658766407703e-16
3.0497257489084314e-15
1.20082810148772e-15
-9.156462986879271e-15
2.1177791846094105e-15
5.837855700782139e-15
6.216984030739763e-16
-2.1733235576309167e-15
1.3477242486299783e-15
2.0390090592696183e-16
-3.161082490122189e-14
4.0951428843550915e-14
-5.744587374636808e-14
4.8105269804039115e-14
3.309232495738206e-16
-1.1698273483807894e-15
-3.156216793323004e-16
1.1545257781392692e-15
6.014330616842548e-15
-7.874802462060666e-15
-2.321254412054786e-15
4.181726257272897e-15
8.100117559867234e-14
-3.7619628628354026e-14
-2.7148674641560517e-14
-1.6232872328757616e-14
9.376626523653401e-15
-8.149607905293703e-15
-5.689477720959791e-15
4.462459102600089e-15
2.3294278732996277e-15
-8.44295742633737e-15
3.1977757263995292e-15
2.915753826638214e-15
-1.3095752991446994e-15
8.3905718333755e-15
-5.766352328628673e-15
-1.3146442056021309e-15
0.0
0.0
0.0
0.0
-1.8561820300350768e-14
2.1398255048774535e-14
-1.1035217531971956e-14
8.198782783548179e-15
5.503870374328488e-15
-8.731569086416905e-15
1.831347721265765e-15
1.396350990822657e-15
-3.865691021618963e-15
7.686468268609724e-15
-5.636258700097701e-15
1.8154814531069423e-15
-7.020072511089473e-15
1.9070056431908645e-14
-8.836944972257795e-15
-3.213038948561377e-15
9.930471323341194e-15
-1.1902645092116923e-14
2.8092374382791204e-15
-8.370636695033893e-16
3.268723687779845e-14
1.3810930166356995e-13
-1.0347120100908742e-13
-6.732533753228098e-14
-1.428849367754207e-14
5.155941943404544e-14
-2.1521001570706403e-14
-1.5749924185797e-14
1.8014338758190894e-14
-3.322573659045958e-14
1.0750254488356911e-14
4.461143343911798e-15
9.695347922971097e-15
-1.8362755413471232e-14
2.809536240940801e-15
5.857871249559327e-15
1.1772048280835808e-15
-1.7463504013825835e-15
-3.5612346122649553e-17
6.047579194216524e-16
-1.1164063193230735e-15
-5.846624315944277e-15
-8.971589604337869e-16
7.860189595701132e-15
-1.0132525559186425e-14
2.7552930249975814e-14
-1.3874309031053778e-14
-3.5460956597356213e-15
8.645373372223906e-15
-7.933970871991486e-15
-1.0049699561895866e-16
-6.109055046134641e-16
-1.914156610900725e-15
-1.2379850971487692e-14
8.0263191449794e-15
6.267688437409029e-15
-5.409882329763204e-15
8.82848954946799e-15
-1.1861058586179928e-15
-2.232501361086793e-15
-9.249519219802307e-15
2.57141271241243e-14
-1.1825142807875892e-14
-4.639465096446095e-15
-2.1386009285172996e-14
3.636505676739863e-14
-3.2516670706913047e-14
1.7537623224687363e-14
-1.1136990651448736e-15
-4.2076817044405314e-15
-1.3114347510996763e-15
6.6328155206850795e-15
0.0
0.0
0.0
0.0
-1.065610154843397e-12
7.138596304099704e-13
7.28315853808351e-13
-3.765653293749287e-13
-2.3759452191032884e-15
-3.856330882780088e-15
2.92513848231944e-15
3.3071376195639378e-15
9.791052143680557e-16
-4.88888181220988e-16
-5.996060134390507e-16
1.093889802919829e-16
5.786277265862879e-16
-9.847729667622828e-16
-9.60672435445252e-16
1.3668176756212471e-15
-2.1077366590251076e-15
-3.680694011422826e-15
5.186693570793641e-15
6.017370996542892e-16
-4.69201100139671e-15
-4.886137520678197e-15
9.049964498851548e-15
5.281840232233608e-16
-2.3932089018815984e-14
1.286591098602129e-14
1.34521124765147e-14
-2.3859344437199916e-15
7.783864385342455e-16
-8.440058325919385e-16
1.6339979014567864e-16
-9.778039608798593e-17
-9.095621172103537e-16
-8.2652798160119e-15
8.824044371537209e-15
3.5079756168504865e-16
-5.066129213485346e-16
-5.010087461372609e-16
1.4719986960744166e-15
-4.643770285886211e-16
0.0
0.0
0.0
0.0
-1.3605081575482675e-15
-2.963771943288574e-15
3.956091554868888e-15
3.681885459679562e-16
-9.791822098405747e-15
1.2401216964541357e-14
-2.8848866515250804e-15
2.7549178538947447e-16
0.0
0.0
0.0
0.0
0.0
0.0
0.0
0.0
0.0
0.0
0.0
0.0
0.0
0.0
0.0
0.0
0.0
0.0
0.0
0.0
0.0
0.0
0.0
0.0
0.0
0.0
0.0
0.0
0.0
0.0
0.0
0.0
1.6637844773634525e-15
-3.1290510529627774e-15
2.0288547052876224e-15
-5.635881296882992e-16
-1.0692080507027704e-14
-1.2551664342838894e-14
3.373948125451336e-14
-1.049573640464672e-14
3.8300559657877885e-15
4.178406012949605e-15
-7.519797168726636e-15
-4.886648100107634e-16
-3.9030460563767364e-14
2.9888605679401473e-14
1.3586602752714481e-14
-4.444747868348605e-15
2.0280374570414673e-15
-3.8547740367377655e-14
2.7258053604798914e-14
9.261649305537273e-15
1.120130573650008e-15
-3.6043372269649494e-16
-4.748468102689929e-16
-2.8485004068452e-16
-1.8470996648719797e-13
1.3037524005440537e-13
6.638705438929722e-14
-1.205232795650467e-14
-4.4210932482618795e-15
2.829701674652359e-14
-9.993663628445655e-15
-1.3882259869816033e-14
-1.163442204213543e-15
-1.8413973161325023e-14
1.139423203737171e-14
8.183183328166832e-15
-8.443192059474771e-14
1.227259804551338e-13
2.5602798965553717e-14
-6.389685882593955e-14
-1.5666410654374204e-14
7.644503902925025e-14
-5.490911750890558e-14
-5.869510865970354e-15
-5.493917690469629e-15
1.1121780865024784e-14
1.3332320877573562e-15
-6.961095262312512e-15
-1.5748396664436656e-13
1.0031384101583154e-13
-2.6509542435677928e-14
8.367966806421334e-14
-2.6749884506566107e-13
2.574677795120118e-13
-9.250291810559395e-15
1.9281357364209532e-14
-1.8813158521521038e-13
1.499017208466349e-13
1.927446971234743e-15
3.630241739734048e-14
0.0
0.0
0.0
0.0
-1.1029632130503157e-13
3.664697178568097e-14
2.3235663364334578e-14
5.041368615501599e-14
7.64412930287388e-15
-2.048503621715297e-14
9.718739043501662e-15
3.122167870777427e-15
2.5552772239698407e-14
-1.3844257867287678e-14
1.3259153164781369e-14
-2.4967667537192132e-14
-9.42085152492254e-14
-9.296256431698988e-15
2.6106914762822878e-14
7.739785691810161e-14
7.001276660638001e-15
-5.783852106672088e-15
3.2248882107407885e-16
-1.5399133750399917e-15
-2.393302291517131e-14
-1.3582460862171057e-15
-2.5762027439141776e-14
5.1053296440530267e-14
2.891347926744254e-14
-4.0257245080759876e-14
4.9075315349148685e-15
6.4362342784025244e-15
-6.002057105445064e-16
-1.4333411527834466e-14
1.2546541601281573e-14
2.3870756370974132e-15
-3.2319097228415805e-14
3.1047986102004783e-14
2.512620485237444e-14
-2.3855093725963525e-14
1.424942983969204e-14
-3.18595078954328e-15
-9.222836556531233e-15
-1.84064249361753e-15
6.880428882053872e-15
-1.480187603354805e-14
2.5519083934698556e-15
5.369538758024321e-15
6.252500871142871e-14
-5.2870730266858626e-14
-5.135972548810239e-14
4.170544704353231e-14
1.047692941615183e-13
-9.042173688498161e-14
5.860871272946237e-14
-7.29562700059991e-14
-9.54582938488385e-16
-3.2948443652570786e-14
-2.2921189036623933e-14
5.682421562768322e-14
-2.2998819672106943e-14
4.1457395131301155e-14
-3.319454777853844e-14
1.4735972319344174e-14
2.4930314868237018e-14
-9.518015975769414e-14
-3.9467778600069815e-14
1.0971762348952712e-13
-5.184887200037704e-16
-2.0011465078323065e-15
8.961302167529724e-16
1.6235050110831048e-15
6.5080616022926475e-15
-4.132414162523744e-15
-9.009520908535396e-15
6.633873468766488e-15
1.5208884304240721e-15
-1.3945485399985933e-15
-5.5624739515431075e-16
4.299075047288314e-16
2.0474686553413125e-15
-2.76054936421229e-14
1.187709625811224e-14
1.3680928728669346e-14
-1.4945662065991573e-14
1.5858407862273627e-14
-6.912524728099047e-15
5.999778931816996e-15
3.043333195314163e-14
-4.927597856192248e-14
-3.502014850140807e-14
5.386279511018894e-14
1.6394999493499808e-14
-1.3867146475689394e-14
1.155434730796415e-16
-2.6433964908900534e-15
9.858263537407734e-15
-1.1095276955425192e-14
-7.46481480740329e-15
8.701828225420723e-15
4.387791994274334e-15
9.679905901390043e-15
-1.0233045903336856e-14
-3.83465199232753e-15
-1.030874337924177e-16
-1.2627792088259712e-15
3.64147598178258e-16
1.0017190444401306e-15
9.155144295975259e-15
-1.2101675850365913e-14
-1.7182784671510762e-15
4.664810021541734e-15
-2.4562055301904063e-16
-6.188468419243412e-15
8.005576908517287e-15
-1.5714879362548345e-15
2.4378734510460804e-14
2.2772698560196643e-15
-2.10125788686275e-14
-5.643425497852974e-15
-6.083371799046557e-15
6.729562210834831e-15
-1.814265037813616e-15
1.1680746260253488e-15
8.383599947175315e-16
-1.942415678295482e-15
-3.3466959758532033e-16
1.4387252811632707e-15
-5.9147722364594535e-15
2.5565698124485447e-14
-1.0468579791854434e-14
-9.182346096171565e-15
1.7603806091063156e-15
-7.930042617644315e-15
4.205059065075113e-15
1.96460294346289e-15
7.55756125367636e-15
-4.622757364636137e-15
-3.1334060128719776e-15
1.9860212383174776e-16
1.7460690572063453e-15
1.1867714439473548e-14
-1.7092382170126472e-14
3.4785986734465775e-15
8.050106316812851e-16
-5.150349977277698e-16
-7.978189838956491e-16
5.078433499421341e-16
-1.0223282048227353e-14
2.8909775106049326e-14
-1.600684551185303e-14
-2.67964754596895e-15
-7.002868792360163e-15
1.6352667272357734e-14
-7.237458824682621e-15
-2.112339655314947e-15
2.1936921104008147e-14
-2.049342011145264e-14
-3.200243773966804e-15
1.7567427814113066e-15
4.409959581224799e-15
-1.6420586074257767e-14
4.8168532502788185e-15
7.193773242754145e-15
4.2107316734827735e-17
-2.972009120962436e-15
8.568112220126691e-16
2.0730905822149406e-15
-1.5207090727234915e-16
2.5374301167469518e-14
-1.1677110623977828e-14
-1.3545119636219335e-14
1.1870829729044317e-14
-2.4313027766697716e-14
5.48580552740777e-15
6.956392510245624e-15
-8.514379246023755e-15
-7.338460976812872e-15
1.9571573876362912e-15
1.389568283520032e-14
0.0
0.0
0.0
0.0
-1.6674870073223128e-15
-7.08804857853059e-15
6.889863461850756e-16
8.066549239667828e-15
-1.0298338579717877e-14
1.3305316579324962e-14
-9.281486897150263e-15
6.274508897543174e-15
3.504204847933214e-16
-3.9064894911665275e-15
-3.384206689895344e-15
6.940275696268547e-15
6.522319304046601e-15
-2.0233593326622316e-14
-5.152237342079793e-15
1.8863511364655523e-14
-6.012035380243766e-15
-4.787654809053893e-15
-1.362688929156833e-14
2.4426579480865987e-14
4.973102829039855e-14
-4.2947293681768914e-14
5.9412720349075045e-15
-1.272500664353722e-14
-9.470054595881235e-15
2.99553717857514e-14
-1.3776316051047536e-14
-6.709001138822632e-15
-5.663058232689757e-17
-1.2575727201195759e-15
1.4325632428652968e-15
-1.1835994041882322e-16
-5.717699709750395e-13
3.567785423920031e-13
4.996934881216115e-13
-2.847020595385768e-13
-9.025433352013238e-15
2.2184160970434584e-14
-1.367328482598051e-14
5.145572075591945e-16
-3.500523160361424e-14
-1.9639105236825513e-15
-7.219651678057232e-15
4.418879380535385e-14
-2.6537151193599247e-14
7.080543102649873e-14
-2.742621399760876e-14
-1.6842065835290735e-14
1.9256115831765545e-14
-6.684217349577986e-15
-1.2721793992492708e-14
1.4989551030515832e-16
1.0997176587896992e-14
3.0322322597375676e-14
-8.928526304138339e-15
-3.23909728811344e-14
3.352372904321687e-14
-5.15477832624071e-14
5.235002501025956e-16
1.7500553969087595e-14
4.733093156423219e-14
6.245901748256129e-14
-3.4105583598699016e-14
-7.568436544809429e-14
1.3457568866565835e-14
-1.7436089891822368e-14
-9.677554484547444e-16
4.946276473711275e-15
-5.6278920953201413e-14
-1.2602175555405606e-13
-1.3513396289207042e-13
3.1743463939932876e-13
3.207728132368761e-16
-4.423514909103185e-15
3.526346268726e-15
5.763958271403075e-16
2.437698650153343e-13
8.867236111440212e-14
-6.4952736129186746e-15
-3.25946952516817e-13
1.184707777733367e-14
-1.4018244396674507e-14
-1.7122253068484733e-15
3.883391926189315e-15
8.784901622851194e-17
-1.7607651054894847e-15
1.6188607650962336e-15
5.4055324164739154e-17
-1.3454866161187624e-14
6.540092995662324e-16
-2.198773989419503e-14
3.478859675581645e-14
-5.137835046769644e-14
-6.18589036721779e-14
2.854190427852815e-14
8.469534986134629e-14
-6.982525215028782e-14
-1.424421498345962e-13
5.0627062420027373e-14
1.6164033956485682e-13
6.015329705453156e-17
-1.974727463891863e-15
1.4340087966172714e-15
4.805653702200603e-16
-3.902121896179276e-14
1.2379382280816008e-15
-2.853766492551117e-14
6.632094565922236e-14
1.2662555223357159e-14
-2.4820256772612762e-14
-6.399591813650027e-15
1.8557293362905602e-14
2.4832285321573372e-14
-3.3836161290639936e-14
-1.6305733864023705e-14
2.5309609833090243e-14
-1.5123577221967245e-14
-3.213927508226564e-14
-7.918736740850882e-15
5.518158904508375e-14
-1.0148484838163217e-15
-9.643626091522655e-15
-4.038541613320838e-15
1.4697016188659803e-14
-1.0376678788699892e-14
-2.3025886373885425e-14
-1.332945350587543e-15
3.473551051317283e-14
7.20963873605419e-15
-1.737184359856454e-14
-4.667819009167574e-16
1.0628986763427107e-14
-9.808730842749787e-15
1.627726955066507e-14
-2.0826986667758797e-15
-4.3858400411393994e-15
-6.4039227866577246e-15
4.9173736819910934e-15
-2.6753265460278665e-14
2.8239814564945322e-14
1.0225771363377343e-14
-1.3519400492258107e-15
-5.481134756109509e-15
-3.3926965580420203e-15
-6.114347575086293e-15
1.4237869826996205e-14
-5.58474067480945e-15
-2.5387815771004628e-15
-1.8186562903265444e-15
-1.9705063272686673e-14
-5.989713112329948e-15
2.7513432675343176e-14
3.286766121085916e-15
-4.972264453136105e-15
2.404784976444966e-15
-7.1928664439477705e-16
-1.470413778385715e-14
2.4115668284696814e-14
-6.146105345487041e-15
-3.26542515535261e-15
-7.103481570655486e-15
2.5250861919361176e-14
-1.0780272768268137e-14
-7.36710758043757e-15
-1.731130303476478e-14
5.953586394746964e-14
-2.4386383959399322e-14
-1.7838176953305534e-14
-4.2532571737854775e-14
4.480009366960109e-14
-3.6518365960036536e-14
3.425084402829014e-14
-6.206076110282033e-14
-2.152233831122419e-14
-4.111780621192657e-14
1.2470090562597112e-13
2.2109872091470922e-14
-9.595952106154664e-14
-9.823026836544728e-14
1.7207991733552326e-13
4.406568118332488e-15
1.672647183318641e-14
-2.6138964300982618e-14
5.005924349463713e-15
2.0920194457174657e-14
-9.61359728436053e-14
-3.6908015606844133e-14
1.1212379399327486e-13
-2.0491278893762487e-15
6.51711303319689e-15
-2.7491996218471634e-15
-1.7187855219734768e-15
-8.04672799898488e-15
5.5282700034702656e-15
-4.930143440172724e-15
7.448601435687324e-15
1.4813830235207907e-14
-4.331780941373632e-15
-7.130118400994671e-15
-3.3519308928395792e-15
0.0
0.0
0.0
0.0
2.390733674877164e-15
-5.331300626971753e-15
-4.2249582594731503e-16
3.3630627780419034e-15
-3.604355192480241e-15
4.147859231887995e-14
-4.304456600374606e-14
5.1703288773462995e-15
-3.686563064302989e-15
-3.704546429510625e-15
1.1590796765287236e-16
7.275201526160743e-15
-4.686982358974769e-15
-5.032382146344581e-15
-1.0958201723539673e-15
1.0815184677673323e-14
2.311703163412836e-15
-1.4417401885345998e-14
4.524876139060794e-15
7.580822582872373e-15
-1.2235715676048346e-14
2.6722506055594715e-14
-8.147630109104011e-15
-6.339160270442378e-15
-1.249958455188216e-14
-1.7353376531463674e-14
-5.764145915262546e-15
3.5617106998608425e-14
-7.548133604920302e-15
-2.230516486740839e-14
2.9691652567233473e-15
2.688413321560536e-14
5.1137560525237676e-15
-7.260202664851959e-15
4.65854088180629e-16
1.6805925241475596e-15
-2.9917558038187107e-15
-1.564092580045869e-14
1.3199259245836925e-15
1.7312755679693692e-14
1.5680631902011801e-15
-7.239744692062612e-15
-2.058297122624328e-15
7.729978624485761e-15
-1.1149843201107018e-14
9.074458250674405e-15
-9.4555196464171e-15
1.1530904596849692e-14
3.8768049694918283e-16
-1.480212167945887e-15
-1.9376775433902674e-16
1.2862994253357308e-15
-9.160845568373506e-15
6.0601927893585384e-15
5.314657283157568e-16
2.569187050699204e-15
-1.6035957889724151e-16
-1.790990271715341e-15
5.850574465130803e-17
1.8928441059612746e-15
-3.2872179522530216e-15
-3.3991741315888396e-15
1.3417722124110539e-14
-6.731330040268686e-15
5.90782254517919e-15
-4.287376101189777e-15
1.8159879374132223e-15
-3.4364343814026374e-15
-9.295857637974136e-15
3.058820601352794e-14
-1.7006209612064232e-14
-4.2861387634895555e-15
9.733751164133764e-16
-1.0230426075985654e-14
8.725954620744417e-15
5.310963388278539e-16
-2.489778789115476e-16
-4.524358066527648e-16
-2.1725590668439565e-16
9.186695922487082e-16
-2.233144918514794e-15
-4.2796705691720876e-15
1.983582029382175e-15
4.529233458304707e-15
1.3707997230972654e-14
-1.1597115236298361e-14
-5.592434410284949e-15
3.4815524156106504e-15
-8.371411117432317e-16
-8.96412643912465e-15
4.002383341960689e-15
5.798884208907196e-15
-2.0668589115117737e-13
3.453053650881932e-13
-8.826791301573643e-14
-5.035156092128049e-14
-7.28581474962202e-16
-2.3803804117992755e-15
2.6426223302558965e-15
4.6633955650558135e-16
2.3333176512361654e-15
-1.3964347283463574e-14
7.70613618995513e-15
3.924893442272272e-15
1.4434130434368727e-15
-1.3265348581360254e-14
9.526608928607163e-15
2.2953266093162225e-15
3.89824072659079e-15
-3.96855372548437e-15
-8.646900578871107e-16
9.3500305678069e-16
-3.005236609156123e-15
-3.411668093810728e-15
1.7475211859014797e-15
4.669383517065371e-15
2.8736361474842703e-15
-3.561441382018936e-15
3.7919251313196465e-16
3.086127214027011e-16
2.0930419410478426e-15
-3.731537307694099e-15
-1.305092488695041e-16
1.7690046155157597e-15
-2.0331091786170154e-15
-4.065116977975778e-15
2.3061372101087446e-15
3.792088946484045e-15
1.0248832480890521e-16
-1.1538135305254335e-14
6.958889539431659e-15
4.476757441013782e-15
-2.049694748453932e-15
-6.202851601488254e-15
5.8668975267205936e-15
2.3856488232215954e-15
7.771836125237685e-15
-8.703005514455728e-15
2.0538264769254646e-15
-1.1226570877074208e-15
2.037711619226892e-15
-7.029371410774203e-15
2.3556797684720866e-15
2.6359800230752207e-15
3.127479458491541e-13
-1.866072253724777e-13
-3.820756941478828e-14
-8.793315106188817e-14
7.204820558475182e-15
-8.167315551900373e-15
1.102569755197583e-15
-1.4007476177239462e-16
5.9389713786051015e-15
-7.130554602882266e-14
-4.2022616619483914e-14
1.073891912697017e-13
5.3017793745562e-14
-9.037504867106648e-14
-9.628653983340774e-14
1.336437947589117e-13
5.404049694714045e-15
-1.3495800687988803e-14
-4.828134267296407e-15
1.2919885260571166e-14
-1.0726010053169649e-14
-4.4192573625374585e-14
-2.0699906299505903e-15
5.698857430849483e-14
-1.2796015154453252e-16
-1.9561703567725743e-15
2.3143305616118643e-16
1.85269745215592e-15
-4.338325081153088e-16
-4.126183388790885e-16
-4.35170759575743e-16
1.28162160657014e-15
3.7794646406908915e-15
-1.1462238837164873e-14
6.62830166802666e-16
7.019944029671317e-15
-5.109301780705885e-16
-5.254618499877465e-16
3.833707208388334e-16
6.530213072195015e-16
0.0
0.0
0.0
0.0
2.102011490390846e-15
-4.24021297174047e-15
1.6426054563109118e-15
4.955960250387123e-16
-4.3056058078851985e-14
-3.686221865111723e-14
6.339945551287997e-14
1.651882121708925e-14
-6.542579804569067e-15
-8.656489174729722e-15
8.700269081742127e-15
6.498799897556668e-15
2.3008678078252665e-15
-8.246716136106397e-16
-8.824712832632988e-16
-5.93724910951328e-16
3.674781865944994e-16
-1.2535533211905526e-15
1.7679387537327515e-15
-8.818636191366986e-16
6.165075105857948e-15
-8.251152123153342e-15
-2.128249888617672e-15
4.214326905913067e-15
-4.275877167168753e-15
1.560852358355763e-14
-8.715515396115694e-15
-2.6171310202731772e-15
1.977872201995434e-14
6.501284771604067e-16
-1.1985148992227274e-14
-8.443701504887483e-15
-1.975000846289725e-14
4.424361355563829e-14
-2.006084519013982e-14
-4.432759902601227e-15
1.6659646464853769e-15
-8.25529528247707e-15
5.2461615253460005e-15
1.3431691106456908e-15
-1.3648859840604423e-16
-1.2999139302858455e-16
-1.6423210495487622e-16
4.30712096389505e-16
-5.991923088214294e-17
-1.1722839958588475e-15
1.3266215564161814e-15
-9.4418329675191e-17
3.681833644116338e-16
1.1870858167430746e-14
-6.096666143383894e-15
-6.142375388458485e-15
-1.8272064084290377e-16
-5.535279140894412e-15
2.3382961894196386e-15
3.379703592317676e-15
2.1405886451254563e-15
-3.902247338846984e-15
1.587645067322039e-15
1.7401362639948764e-16
1.25402338320743e-15
1.1206679779951283e-14
-5.85778297098691e-15
-6.602920192171799e-15
4.5247817581287164e-14
-2.3335789862745475e-14
-2.3109928014663627e-15
-1.9601034917075244e-14
-1.449688129359778e-15
-1.3273387835533674e-15
-5.00170367611013e-16
3.277197280524158e-15
8.948455993442597e-16
-7.490712055851685e-16
3.513759014348756e-16
-4.971502951939669e-16
-5.043117917308541e-16
-6.197178453224799e-16
4.3800608552730323e-16
6.860235515260305e-16
2.0360716970434126e-14
-1.0898974589225087e-14
-5.762630902288377e-15
-3.699111478920685e-15
1.4906136385053296e-14
-5.388912323154983e-14
-6.070881225865892e-14
9.969179910515563e-14
-1.7423844920066446e-14
1.1976828494997706e-14
-2.1053470318958233e-14
2.650048674402697e-14
1.7946504430484342e-15
-8.417417729105652e-15
-5.072869872071533e-16
7.13005427326437e-15
-2.6398852231335182e-14
-2.455369946757947e-15
-5.4766675792302985e-14
8.362089797039634e-14
-2.7018969686217083e-15
1.3838492450042803e-15
-6.011877761042405e-15
7.329925484659833e-15
-9.070140500920657e-15
-8.561857452148973e-14
3.2473220227179778e-15
9.144139299969269e-14
2.2723890045591027e-14
-3.489565603989782e-14
-1.3812049345408211e-14
2.598381533971501e-14
-7.673263057404912e-14
-1.8381561729009643e-14
7.941344624238473e-14
1.5700746060673687e-14
-3.23689926193414e-14
-1.0897098993551925e-13
-1.2353168799761336e-14
1.536931513546217e-13
-2.67341012723022e-14
-1.1154515071349351e-14
1.0845134500575929e-13
-7.05627286621077e-14
-5.0173791867247074e-14
7.596463674813516e-14
-4.3949300820117794e-14
1.8158455939229645e-14
-4.453795587223941e-16
-4.687914258780359e-16
-4.071521587262997e-16
1.32132314332673e-15
-1.5244966067556352e-15
-1.1678515703404338e-14
-1.6882905896919362e-15
1.4891302899851908e-14
2.1699420013971736e-15
-2.0343503525197404e-15
-1.51563275920848e-15
1.3800411103310483e-15
2.379067569102591e-15
-5.320152308866924e-15
1.4184582021126793e-15
1.5226265376516515e-15
7.730358763244478e-15
-2.8160434129762918e-14
1.234457482679861e-15
1.919561788383856e-14
7.007383831781453e-15
-4.776340268760882e-15
-1.2128719430822188e-14
9.89767586780164e-15
-9.999797325742676e-15
-1.1162747259933877e-14
1.228346993071753e-15
1.993419759260482e-14
-2.9191906714347746e-14
-1.8848919375167552e-15
2.864078790941796e-14
2.4360107424465817e-15
-6.757472316479565e-15
-9.24063801878461e-15
8.84794627287034e-15
7.150164062393832e-15
-4.9224560623309466e-15
1.218778163202674e-14
-1.3044080988772756e-14
5.7787554190769894e-15
-5.256462450650213e-15
1.582984064756903e-14
-3.073341939174062e-14
2.016004119482177e-14
-1.5160375097675343e-16
-1.4892493463481754e-16
-1.4315504247592419e-16
4.4368372808749515e-16
6.976437647720076e-15
-1.531906612306682e-14
2.516399818491657e-16
8.090988493497578e-15
2.2183312855702768e-14
-3.7889182812111374e-14
4.427435827394681e-15
1.1278434129013911e-14
1.606881815845154e-16
-2.3830140593950242e-15
-6.230107229474277e-15
8.45243310728479e-15
-1.6938625290414532e-14
-3.821985658694905e-15
2.220310204785002e-15
1.8540300744324424e-14
-2.872637951581675e-15
-3.997005558197092e-15
-5.679086467033212e-16
7.437552156482089e-15
5.749956949991641e-16
-5.3774046637629645e-15
1.5009265892916822e-17
4.787399702870882e-15
-4.2643519712312196e-16
-5.029408732738431e-15
5.424254398712028e-15
3.1589531149523634e-17
-1.0345038505044308e-15
-3.0795241526591384e-14
-7.125613656102635e-15
3.8955359033198386e-14
-6.158704745812879e-15
-5.147057311150168e-15
7.348950645802356e-16
1.057086699238281e-14
2.5958685191759957e-15
-5.1995216368718146e-14
1.0519005929379723e-15
4.834744725660421e-14
6.64789505118014e-16
-3.849503801150006e-15
9.266519608122897e-16
2.258062335219703e-15
-3.709452566612676e-15
-3.954150669771102e-15
2.9672981183081626e-15
4.6963051180756165e-15
-1.6638579671936476e-15
1.2047739173969956e-14
-9.779289389074252e-15
-6.045918177020691e-16
1.2351999689151822e-14
-1.7060404205753742e-14
-1.4742265188214053e-15
6.1826310354233216e-15
7.583706741678767e-16
-7.837166091780772e-15
-1.7530148472924564e-15
8.831810264905357e-15
-1.6145939697538494e-16
-1.1941847845476896e-16
-1.5652743311672184e-16
4.3740530854687576e-16
-1.5250579044614872e-14
7.111882046029437e-15
-4.3380014808040637e-16
8.572497146665838e-15
5.633052265585415e-15
-3.832524953897401e-15
-9.265660828028363e-16
-8.7396122888518e-16
-2.314351978425625e-15
-1.2794034662437081e-14
3.4688538538013405e-15
1.1639532787061364e-14
-1.0989586022750371e-14
3.1630281327333545e-15
1.2707138299832109e-15
6.555844060033799e-15
-1.2482274314717286e-14
3.670183597855305e-15
-6.277312380361204e-15
1.5089403097223193e-14
-5.41551183398296e-14
-8.391341265604531e-14
7.604960537992636e-14
6.20189256159484e-14
-2.202016095611902e-14
1.2048073570875774e-14
-6.243523121926083e-15
1.6215610507169314e-14
-1.5405781293797616e-14
-4.712431501281715e-15
-6.25925046579589e-15
2.637746326087522e-14
4.533757048915734e-15
-6.4792379402683945e-15
-1.4395907430550645e-15
3.3850716344077218e-15
-1.2532697570115046e-14
1.0326973019572636e-15
-7.94221602974482e-15
1.944221629790264e-14
-1.0577311096252354e-14
8.864435976377686e-15
4.78394345563078e-16
1.2344807743115883e-15
-8.745767800262066e-16
-9.91330049233669e-16
2.0010144972421976e-15
-1.3510766798232252e-16
4.7589635471313796e-15
-4.433225807871642e-15
1.1489208192126221e-15
-1.4746585584723603e-15
6.396972752618198e-16
-1.9172402324632142e-14
-1.1805545184668045e-14
3.033825023403839e-14
1.9735801331194455e-15
-4.572283973218641e-15
-7.102775252894213e-15
9.701479092993424e-15
1.0470777015430294e-15
-4.6531059879237216e-15
4.499841339774628e-16
3.156044152403229e-15
-1.4002643446451138e-14
2.1967542636610732e-14
-1.3179903422261643e-14
5.215004232102037e-15
2.659693970477154e-14
-2.0333280025223303e-14
-4.947618016852514e-15
-1.3160416626957082e-15
5.549875318278625e-14
-6.30012865148181e-15
-1.4030149231847689e-14
-3.516847529945674e-14
6.827079347983281e-14
-7.880262254055918e-14
4.7774246698801075e-15
5.754404390846389e-15
9.493374843100018e-14
-6.946965798886333e-14
-4.157587866133482e-14
1.611178821919828e-14
1.3157191466845247e-14
3.870040561752406e-15
-7.145164386764324e-15
-9.882067641833333e-15
0.0
0.0
0.0
0.0
6.485139269681653e-15
-2.574632843798948e-14
4.699117416855925e-15
1.456207175145188e-14
-4.706017423273302e-15
-4.937205880952759e-15
3.913681272037028e-15
5.7295420321890386e-15
-1.680750181861308e-15
-1.0437035826585642e-14
2.742191610782714e-15
9.375594397664238e-15
-5.579363372245453e-15
1.0692681691854916e-14
-6.60724063047689e-15
1.4939223108674244e-15
-1.160214494896246e-15
-4.286952103554673e-15
2.6974411652381734e-15
2.7497254332127436e-15
-2.6327816154223766e-16
-3.286408739884485e-16
-3.131782553516115e-16
9.050972908822977e-16
-9.651149591543676e-15
-9.099563688643948e-15
3.816760797588052e-15
1.4933952482599585e-14
1.147484030300369e-15
-3.5728521099179546e-15
4.4276831114397954e-15
-2.0023150318222094e-15
8.877119708555636e-16
-3.3655930163440696e-16
-6.372076527850829e-16
8.605498356392623e-17
-8.305265169282705e-15
1.2389662693491857e-14
-7.241866585562156e-17
-4.011978858353537e-15
-6.497463767077801e-15
1.4736072444413708e-14
-5.6077239826818956e-15
-2.630884694654013e-15
-4.654006778692991e-16
-3.1781255615006667e-16
-4.750851895358994e-16
1.2582984235552652e-15
1.389590260614724e-14
-4.2325087856849774e-15
-4.1174410181089875e-15
-5.545952802353267e-15
1.1674883155852435e-14
-6.797769642966434e-14
-3.0718862038264806e-14
8.702167531207664e-14
2.0272086246604162e-14
-2.561362860599486e-15
-2.3938527280436594e-14
6.227803894431906e-15
6.036670868024699e-14
-3.178066371919128e-14
-5.188790173442412e-15
-2.339725478761321e-14
-1.2028678556359236e-14
2.734854818969834e-14
6.7273929292961595e-15
-2.2047262562635236e-14
3.505707663321305e-15
-5.318121618118087e-15
-1.888172981924798e-15
3.7005869367215795e-15
2.5756737842422143e-14
-6.125326878087118e-14
-1.4012034607575666e-14
4.950856554602478e-14
7.419714711126859e-15
7.275043477889582e-14
-7.770730312263821e-14
-2.462846367384443e-15
1.5808226731010664e-17
-1.3312190328703301e-15
1.3913781933346133e-15
-7.596738719529385e-17
9.234751776809569e-16
-2.391340080699412e-15
-1.1842469678064825e-15
2.652111870824938e-15
-2.990512991733289e-15
-3.2695727071492053e-15
-2.1115703337031215e-16
6.471242732252808e-15
7.101355703586261e-15
-5.101126809989086e-15
4.128286701055031e-16
-2.41305756370268e-15
1.531295144031949e-13
1.546539932164988e-13
-1.2900220166838729e-13
-1.78781305951307e-13
1.0355465701472523e-13
1.6404089885324862e-14
-5.541037684063266e-14
-6.454837005941788e-14
-3.1486707810914764e-15
-8.165388994852675e-15
-1.836955097457615e-15
1.3151014873401767e-14
1.1753264262673663e-15
-4.490991859650346e-16
-3.8567105728112637e-16
-3.4055618302120543e-16
6.217743971797666e-14
-5.231519785162839e-14
-3.009237966328866e-15
-6.853003900019541e-15
-1.5550536847791676e-13
-2.2214068737884846e-14
1.6351030786319327e-13
1.4209129352608205e-14
5.175335969797898e-15
-6.581354384623894e-15
1.3710360987930564e-15
3.498231603294314e-17
-2.0677998241643965e-14
5.1149944328362436e-14
-3.1938794119141634e-14
1.4668480324231144e-15
-4.770761710923012e-15
-5.369346388532355e-15
-3.2664860529107617e-15
1.3406594152366134e-14
-8.249780099713759e-16
-4.932127560927239e-15
1.452455007849167e-15
4.304650563049447e-15
2.7460371135304883e-15
3.4297693586305267e-15
6.526601395756987e-17
-6.2410724861185825e-15
1.4384594995565744e-14
-1.6709267494946502e-14
-1.0924020237928056e-14
1.324869273730882e-14
1.2533189066158206e-14
-1.9601522943905303e-14
-3.744167554905086e-15
1.0812501432652192e-14
-5.7367366934700224e-15
3.7667778756004686e-14
-3.070337107838638e-14
-1.2276709841483802e-15
-5.178279244842241e-15
-1.3648511695447675e-14
1.891989048320173e-15
1.6934801891969756e-14
1.632409920208592e-14
-1.6339306732279142e-14
-1.0395599709966572e-15
1.054767501189868e-15
-3.05126830252545e-14
-1.8967982790784294e-14
-7.455538090822313e-14
1.240360467242619e-13
-1.0581834981043826e-13
-1.5598838118072935e-14
-1.4249292093666338e-13
2.639101088651742e-13
-1.1680156426883145e-14
-2.730250671140142e-14
-1.4757237419473426e-14
5.373990055775792e-14
-8.076898282783887e-15
4.493052334447e-15
-9.743624350693392e-15
1.3327470299030281e-14
-8.541239938289078e-14
-3.824784890073165e-14
-8.313848347764085e-14
2.0679873176126278e-13
-1.2622689279703094e-14
-1.6154805409392833e-14
-9.312698814234938e-15
3.809019350333083e-14
-1.7161073191741812e-14
2.4108020997884616e-14
-1.8361820786127724e-14
1.141487297998489e-14
-3.131176214325899e-14
-1.3326511425704176e-13
-4.4856150664230465e-14
2.0943302706453083e-13
-1.3345060515611891e-14
2.1642180817181515e-14
-1.0937252033871533e-14
2.640131732301918e-15
-7.650074872268434e-15
-2.1416670767111822e-14
4.66269242928691e-15
2.4404053210093322e-14
-3.565385375841795e-15
-2.2376431472441798e-14
5.887568984789144e-15
2.005424786349442e-14
6.238059079498052e-16
-1.1350230027591713e-14
1.9870508340942102e-15
8.739373285547693e-15
2.0151579777607285e-14
-3.795617448481101e-14
-9.244483823933705e-15
2.7049078531137467e-14
-4.7569695500623805e-15
2.9283562388507756e-15
-2.4061601566568112e-14
2.5890214877779726e-14
1.3596045530556586e-14
-7.703251530902793e-15
-3.042422322167833e-14
2.4531429222024544e-14
-3.6323082475820827e-14
3.7436392603278293e-14
1.0815023722064347e-16
-1.2214603646781186e-15
-1.0439616313583406e-15
5.420064739767727e-15
-2.516018598642659e-15
-1.8600845097667275e-15
7.99851196336872e-15
-9.724126968906953e-15
-1.2812541405608608e-14
1.4538156411146874e-14
1.2755306837942278e-14
-2.3741719735124923e-14
-6.084477341539229e-15
1.7070890238721888e-14
9.122719584220962e-15
-1.3433848226907349e-14
7.008178313473082e-16
3.610310811339077e-15
4.597075067183753e-16
-4.217606633966768e-15
6.93900905404894e-16
3.063998221843498e-15
1.5442841530171372e-14
6.59757954681364e-16
-3.551707597461335e-14
1.94144764897606e-14
6.925303245448436e-15
-1.6107382505908314e-14
-1.7633215055810155e-15
1.0945400766040882e-14
-6.714627436288988e-15
8.33906650837164e-15
-3.558498761937105e-15
1.9340596898544616e-15
2.101787216005175e-15
-2.5873277787662888e-15
3.376061823375905e-16
1.4793438042352268e-16
5.503010802512639e-15
-1.6390492117043273e-15
-2.2393054170595156e-15
-1.6246561737487942e-15
0.0
0.0
0.0
0.0
4.565801724303229e-16
-1.0110692355860107e-15
8.463294603187435e-16
-2.9184039716305567e-16
0.0
0.0
0.0
0.0
-1.7271412956288504e-15
-1.72361599129063e-15
2.966289504920265e-16
3.1541283364274546e-15
4.881716389949638e-16
-1.2367392676518421e-15
-9.531015324476637e-17
8.438777819016445e-16
0.0
0.0
0.0
0.0
1.1301646160295502e-13
-1.8882256304173851e-13
-1.1368737275389774e-14
8.717483871417324e-14
0.0
0.0
0.0
0.0
5.2983146791671844e-14
-1.154132523923605e-14
-9.693422685052254e-16
-4.0472479283930634e-14
-6.836199328831458e-13
3.0695566651714636e-13
1.1897445503530193e-13
2.5768981133069723e-13
-4.0820658941426556e-13
4.0704572632228075e-13
4.62354628582884e-14
-4.50745997663036e-14
-6.14392080210124e-14
7.259281540294418e-14
-6.218279878742448e-15
-4.935327503189377e-15
-1.747036253105586e-16
-4.734497757507258e-15
4.0049811833931775e-15
9.042201994246397e-16
1.2292625023087512e-15
-5.9290218669739445e-15
3.208819041655512e-15
1.4909403230096839e-15
0.0
0.0
0.0
0.0
0.0
0.0
0.0
0.0
3.146089216718939e-15
-1.6151675582272402e-15
-8.033194777981516e-16
-7.276021806935474e-16
1.2138000400186961e-15
-1.9183598769644773e-14
3.685054450259392e-15
1.4284744279366688e-14
-5.266327688642921e-15
7.0250786202180526e-15
-1.0511596408591245e-15
-7.075912907160087e-16
-4.762828932684625e-15
-2.64431338322066e-14
2.5724319153827103e-15
2.863353084950853e-14
2.964927446383555e-15
-3.1854272536839014e-15
-4.0571835666268905e-16
6.262181639630359e-16
-6.688023409179051e-15
1.5743419839798642e-14
-5.7556456077749456e-15
-3.2997508228446374e-15
-2.7732072799798063e-16
-3.0504563182399664e-16
-2.9813277916004104e-16
8.804991389820185e-16
1.693246799416803e-15
-1.306688956745351e-15
-4.596380950166309e-16
7.308025234517914e-17
3.493078734422093e-16
-8.500296504861424e-16
7.841486908721888e-16
-2.834269138282559e-16
-6.7625907871611205e-16
-9.093972007483745e-15
-3.7289047806206837e-16
1.014312156426193e-14
-1.2207592777675385e-15
-1.4147240745397875e-15
-3.074681725422319e-16
2.942951524849558e-15
-8.254799047101131e-16
-8.796656799862032e-16
1.52011074464362e-16
1.5531345102319543e-15
1.3450998830882748e-15
-1.6132240983605386e-15
-6.977466703717819e-16
9.658708856440453e-16
-8.422562013630054e-15
-1.198917904675184e-15
-5.175806528092709e-15
1.479728644639795e-14
-1.9994860746738305e-14
7.318909711420891e-15
-7.733291888556449e-15
2.040924292387382e-14
-2.138107325468708e-14
2.3474561942260237e-14
-1.3917296759021535e-14
1.1823808071448354e-14
-7.248654372546779e-15
1.1186410433934507e-14
-4.3799397168892745e-15
4.421836555015596e-16
-1.1071590576286512e-13
1.2699082866804407e-13
-9.686400049722484e-14
8.05890775920462e-14
-7.81682155687765e-15
1.1719572319124267e-14
-5.91308182300709e-15
2.010331060760475e-15
4.544625263913187e-15
4.128157383348319e-14
-6.14944582981365e-14
1.5668259200739834e-14
-7.586015019331187e-14
8.024419428267465e-14
-3.942049153760075e-14
3.5036447448238204e-14
5.925010773619005e-16
-5.737398050715784e-15
1.1854802413942738e-16
5.026348949214455e-15
2.2189054246562238e-14
-3.786521788071861e-14
-6.448394799550648e-16
1.6321003114111484e-14
-9.238589153862334e-15
6.685649213814017e-16
-1.9046877700852695e-16
8.760493009489462e-15
-1.8957455300894853e-15
8.795279322297205e-15
-7.849226821670711e-15
9.496930294629963e-16
-1.8044788478828952e-15
-1.550209289750954e-15
2.3133122231956294e-16
3.1233569153142866e-15
-1.8845405704719514e-15
-8.834934079846807e-15
3.823599367907734e-15
6.895875282411026e-15
4.3180951233158796e-15
-1.0143483269217105e-14
2.157797345216312e-15
3.667590800684915e-15
-1.4176220330343563e-14
1.19587165384497e-13
-9.227907146419813e-14
-1.3131873589955663e-14
4.268153825725182e-15
-3.141152656136052e-15
3.1212814305355774e-16
-1.4391293126426885e-15
-3.2639284345438527e-15
1.754332986191818e-14
-7.702336055230156e-15
-6.577065372144167e-15
-1.1170502177891164e-14
2.0934021066614278e-14
-1.3727219706502834e-14
3.96370081777973e-15
1.4080295330276058e-14
-2.5414246468782857e-14
8.083768831341643e-15
3.250182307165164e-15
-2.6486151402879627e-15
6.976761705105856e-15
-3.8821179446020844e-16
-3.9399347703576814e-15
1.7201422515010532e-15
-1.3655789611981077e-14
4.60401771017631e-15
7.3316296503037e-15
-7.833512566153926e-15
-9.09809959218998e-15
-2.427522277251628e-15
1.9359134435595522e-14
-4.344561622380097e-14
8.011375456069394e-14
-3.380268328262678e-14
-2.8654550542661092e-15
5.522194811459624e-15
6.796271521256272e-16
-9.531211340857258e-15
3.329389377272016e-15
-3.635355295010306e-15
8.555343081906277e-15
-6.4397065427403794e-15
1.5197187558444129e-15
2.0705158916017335e-15
-1.1770979568964936e-14
-2.216647881903497e-15
1.1917111559266698e-14
-1.323984037343309e-15
-2.7819333352404204e-15
-1.9762171690905125e-15
6.0821345416742445e-15
1.897355033341674e-13
-1.8664712247779929e-13
-1.568588351754696e-13
1.5377045431910195e-13
1.3670389855945054e-14
-3.4260298807562236e-14
-1.6536952649131464e-14
3.7126861600748685e-14
8.766373732108773e-15
-7.175480729656393e-15
2.3240914532025004e-15
-3.9149844556548795e-15
9.67554504433002e-14
-4.9537858318334857e-14
-8.275657123837444e-14
3.553897911340906e-14
-5.490570601922877e-15
8.609425633015648e-15
-6.163113020596806e-15
3.0442579895040335e-15
1.9715660639003112e-14
-2.239874406589694e-14
2.683580358558864e-15
-4.969316650153525e-19
-5.268562605254508e-14
9.161851571788228e-15
-2.465628413524061e-14
6.818005861599752e-14
-2.4994134213366478e-14
5.403699253894796e-15
-7.48732493269207e-15
2.7077759892163752e-14
-9.802025183981553e-15
2.705523581039172e-15
-1.670954786332441e-14
2.3806049466266783e-14
-2.4309102326609553e-14
6.4711929220609445e-15
-2.5470624445556063e-14
4.330853385010459e-14
-1.0280059999010283e-14
2.997606940427253e-14
-1.2005433347424127e-14
-7.690576057838119e-15
-1.7858297143113037e-14
-4.12101873875257e-15
-1.3013787981135172e-14
3.4993103863000805e-14
-4.06843230253093e-15
-6.813612462129182e-15
-1.4467006263293646e-14
2.5349051027953776e-14
-3.406281629242751e-16
-3.3932375060669466e-15
-2.387789306847306e-15
6.121654975838526e-15
1.52284750727917e-14
-9.85701599274864e-15
-1.4995859564634065e-15
-3.871873123579674e-15
-6.37659471933602e-15
1.2985878017148589e-14
-9.411031895985684e-15
2.8017485981731027e-15
-7.442668467416144e-10
2.2038643004767109e-10
-6.462265336105182e-10
1.1701069503044642e-09
-1.8506229054948374e-11
4.625107435506698e-12
-1.641016608814867e-11
3.029128770759026e-11
5.018896618483656e-13
-8.063039644815288e-13
-8.310260539216799e-13
1.1354403565548466e-12
-1.4904633743966976e-12
-1.4876712544023887e-13
4.795221469659586e-13
1.159708352870974e-12
-3.338728838486603e-13
5.170137559736787e-13
-1.0115585481674748e-12
8.28417676042456e-13
2.7237291441502474e-13
-2.5813171057092793e-13
-1.026218643405115e-12
1.0119774395610203e-12
-1.7663568037222489e-12
3.259944198225138e-13
2.9983394209291757e-13
1.1405284418068244e-12
9.322619488618823e-14
-4.65835938094447e-13
-6.358252873811649e-13
1.0084350305894222e-12
0.0
0.0
0.0
0.0
-1.4156484543076065e-12
-6.231863748688915e-13
-5.856938933608886e-13
2.6245287225373795e-12
9.835984448065684e-15
-9.781513045787032e-15
3.1167073841239786e-16
-3.661421406910513e-16
-2.648280981105164e-14
-1.102747973249529e-13
-5.1679236900178234e-14
1.8843684403618245e-13
-2.2865420011827258e-14
-1.006175792928454e-13
1.1630867538058519e-15
1.2231991255086666e-13
1.0747585472216598e-12
-6.790011493307915e-13
2.1394025739372355e-12
-2.5351599718281055e-12
-2.535036098932491e-13
-1.2283434880380458e-12
