-1.0126309364322064e-15
-5.494096237827052e-16
-1.445417807399769e-15
3.007458367614545e-15
-1.1765741515452605e-15
-1.118679385996801e-16
-1.127787425463007e-15
2.4162295156079225e-15
-9.166961544235651e-16
1.7820886741085544e-15
-1.8854836400842473e-15
1.0200911203993358e-15
-1.5024626762634813e-15
2.0808790076138616e-15
-1.322827676701072e-15
7.444113453508354e-16
-3.577253906141756e-16
-3.5881153081341314e-15
-1.672626538111579e-16
4.113103352559445e-15
3.969760651652074e-15
1.0687395977555282e-15
5.0291022259133305e-15
-1.0067602475320263e-14
-1.9083010423990798e-16
-1.8319317311886493e-16
-2.0879322325467187e-16
5.82816500613446e-16
1.8099148071846899e-16
-1.7000399875873258e-15
-9.534718424288603e-16
2.4725203492976986e-15
-1.1307043362952749e-17
-1.1302763161629926e-17
-9.438653664202503e-18
3.2048460188785155e-17
2.2782260106859795e-15
4.220448026309645e-16
1.3940796875750828e-15
-4.094350500891964e-15
-1.8068200394026614e-16
-1.7011421428198886e-16
-2.0691364101333937e-16
5.57709859235594e-16
-4.982287662253996e-17
-5.863024277660919e-17
-4.55989440226447e-17
1.5405206342179356e-16
-2.7420091395409374e-17
-5.3914534595540303e-17
-5.21281647014196e-17
1.334627906923691e-16
-5.191197602427153e-17
-6.658936460944747e-17
-4.050488143309417e-17
1.5900622206681287e-16
-4.0853201311261216e-17
-8.204087705321964e-17
-5.78843239157235e-17
1.8077840228020367e-16
-1.0148100299641879e-17
-1.3078958836876283e-17
-1.879582241332985e-18
2.510664137785114e-17
-8.547470584110053e-17
-5.103163400637462e-17
-4.1234569393976564e-17
1.7774090924145111e-16
-1.960973161916834e-17
-3.1352649295122044e-17
-8.985372825227408e-18
5.994775373951782e-17
-4.4898716828141795e-17
4.4425095579807943e-17
-4.231092719210577e-17
4.278454844043954e-17
-2.919523410124838e-18
-2.9135461614861835e-18
-2.924993714010389e-18
8.758063285621411e-18
-3.581890216185262e-16
-2.3785444423245303e-16
2.412826990251122e-17
5.719151959484704e-16
3.3820318902543e-16
-1.5395375768176685e-15
-7.357434049494516e-16
1.9370777927417116e-15
0.0
0.0
0.0
0.0
-4.355990168351515e-16
1.2219678977160426e-15
-4.3401983821500995e-16
-3.5234904266588046e-16
-2.1748265720329754e-17
-2.4626971682950742e-17
-1.7272233232733202e-17
6.364747063601371e-17
-6.772776879008623e-17
9.332604338669875e-17
-5.4124475277537623e-17
2.8526200680924875e-17
-1.2710607093252272e-18
-1.2665362449894126e-18
5.970717830568495e-19
1.9405251712577905e-18
-7.154713218774883e-17
-1.1535228201099245e-16
-1.506832497882704e-17
2.0196773917756692e-16
3.4377146542388726e-15
-1.062649223262409e-15
-2.6252535825784255e-16
-2.1125400727187777e-15
-1.1999028675646618e-17
-1.1950345157229702e-17
-1.2043810443199777e-17
3.5993184276076054e-17
-1.2481189565547906e-17
-1.830109440458289e-17
-1.2833503628556125e-17
4.361578759868688e-17
-5.746813687393285e-17
-6.015326384514065e-17
-4.9425969269881765e-17
1.6704736998895482e-16
-2.1514254227825108e-15
4.529608691921329e-15
6.476769306097225e-16
-3.025860199747832e-15
-6.62313675972592e-16
1.8610285771870325e-15
-1.6120735501327266e-15
4.133586489183397e-16
-3.022156624274762e-17
-3.0079732818884934e-17
-1.5373905764884437e-17
7.567520482651707e-17
6.34253909406619e-16
-2.3993648597819394e-15
1.0349515824334044e-16
1.6616157921320137e-15
3.485538639932055e-17
-1.0319743786982107e-16
-5.3686918781760394e-17
1.2202897025226053e-16
-1.9097056518035808e-16
-2.779340049073283e-16
1.947414255205634e-16
2.741631445671187e-16
-5.084370616808141e-16
2.9704743079083393e-16
-1.007150797473201e-15
1.2185404283632164e-15
-8.908768568838959e-17
5.723246370967855e-18
-1.0407070451744555e-16
1.8743514383486613e-16
-3.7271453665123474e-16
4.761304376718116e-16
-2.6434489308643065e-16
1.6092899206585601e-16
-1.8749422437189382e-18
-1.863530911110477e-18
-1.8854903915010165e-18
5.623963546330431e-18
-8.543797674363418e-17
1.4262527615691037e-16
-7.20446210296694e-17
1.4857321616392886e-17
-8.584875710897524e-17
-1.028761840806679e-16
-5.922224975234234e-17
2.479471909419839e-16
-2.1562610199405268e-17
-2.1419353714269776e-17
-8.589152846474683e-18
5.157111676014969e-17
4.1366441926137415e-16
-2.0713207834633346e-15
3.101073443294238e-15
-1.4434170790923235e-15
-8.419009752310399e-18
-7.48943890070649e-16
1.487975226917109e-16
6.085653771312479e-16
-1.6203877930007507e-16
6.513435928394149e-17
-7.554525779986174e-17
1.7244967781599227e-16
-1.1013330571345805e-16
-1.1807750763459458e-16
-1.0671062593421651e-16
3.349214392822661e-16
-5.2415520217898465e-17
-1.5149148385402063e-16
-6.390397860569847e-17
2.6781098267761526e-16
-8.067716567576004e-19
-8.003509424965215e-19
-8.127328455457421e-19
2.419855444799864e-18
0.0
0.0
0.0
0.0
-9.469513315309358e-17
-5.960531054171185e-17
-5.480132801150898e-17
2.091017717063133e-16
-4.0713673501649064e-17
-4.329404419445447e-17
-3.089891741414741e-17
1.1490663511025104e-16
-9.919793000207566e-16
-1.188750448352224e-15
-2.707578120545058e-16
2.4514875604274865e-15
-3.652226842860567e-17
3.5528951908595563e-17
-2.768004003628789e-17
2.867335655629806e-17
-8.242924811717847e-17
-1.578946382428664e-17
-1.8151979666827257e-17
1.1637069160829227e-16
-3.8660427215410644e-18
-5.0572592152498e-17
-4.025532152164963e-17
9.469395639568885e-17
-1.0948151128641225e-16
-1.1428674121413387e-16
-4.337754285976172e-17
2.67145795360306e-16
-7.070621826182507e-17
5.950777571965753e-17
-6.717690170250618e-17
7.837534424467375e-17
-5.475694173441355e-16
1.8139316488487044e-15
-9.30541281312907e-16
-3.358209501916301e-16
-9.422487662699107e-18
-1.2245114827739335e-17
-1.2489073908680383e-17
3.41566763991188e-17
-5.405101223096447e-19
-5.3490951685328e-19
-5.457387731442658e-19
1.6211584123071905e-18
1.0511820929583366e-08
6.546167061923068e-09
1.4055125116396941e-08
-3.1113113107905163e-08
1.712684251974191e-12
5.117316035087744e-13
5.356207243300371e-12
-7.580623098783653e-12
-4.2007441919608983e-16
1.1913579830047314e-15
-4.203289596241891e-16
-3.5095460418445176e-16
0.0
0.0
0.0
0.0
-6.483591606355096e-17
-4.923315918455732e-16
-1.505552842612128e-17
5.722230363352504e-16
-4.0853201311261216e-17
-8.204087705321964e-17
-5.78843239157235e-17
1.8077840228020367e-16
-2.7420091395409374e-17
-5.3914534595540303e-17
-5.21281647014196e-17
1.334627906923691e-16
7.000940508551282e-17
1.7333127607859415e-16
5.826123264078526e-16
-8.259530075719638e-16
-2.3905617779827768e-18
-2.3848745272211944e-18
-2.395773185294836e-18
7.171209490498807e-18
1.6081532051734218e-17
-1.327140386772632e-17
5.190236277057504e-18
-8.000364461065407e-18
-1.8783339006200794e-17
1.5695399333755175e-17
-1.764033178198251e-17
2.072827145442812e-17
3.6850450293420063e-16
-5.012678014868616e-16
5.7673295042969e-16
-4.4396965187704676e-16
5.170740218682404e-16
-1.1473134845292844e-16
-1.4317747575267152e-16
-2.591651976626423e-16
3.998046781744772e-16
-3.6440289103249366e-17
-1.1058753242782624e-16
-2.5277685664340366e-16
-7.428652081236665e-18
-1.0367098634846185e-17
2.7190972696258816e-18
1.507665344645697e-17
1.5846044877091791e-16
-3.420376515979686e-16
-2.312347475670843e-16
4.148119503941333e-16
1.6500547525989212e-18
-1.2833332685819513e-18
-1.3132163309807221e-18
9.46494846963752e-19
2.4863992405074358e-18
-6.284475597490218e-18
1.0583416391752262e-18
2.739734717807556e-18
-6.161144806870545e-17
-1.7986204059434064e-17
-3.1305676037450044e-17
1.1090332816558951e-16
-1.0329311913913828e-17
-1.6166196079704735e-17
-1.066591259942296e-17
3.71614205930415e-17
-8.242924811717847e-17
-1.578946382428664e-17
-1.8151979666827257e-17
1.1637069160829227e-16
-1.0148100299641879e-17
-1.3078958836876283e-17
-1.879582241332985e-18
2.510664137785114e-17
-1.6992570878539506e-17
-2.272054275632624e-17
-1.1813791376907056e-17
5.1526905011772774e-17
-1.3479967088082716e-17
9.23483383805856e-18
-3.352259718754554e-17
3.776773043756975e-17
0.0
0.0
0.0
0.0
-8.067716567576004e-19
-8.003509424965215e-19
-8.127328455457421e-19
2.419855444799864e-18
1.0531537616708842e-16
-2.694272333738243e-16
2.575402009319739e-16
-9.342834372523815e-17
-1.960973161916834e-17
-3.1352649295122044e-17
-8.985372825227408e-18
5.994775373951782e-17
-1.4143011702031665e-17
-1.408083178502886e-17
-1.420025834579193e-17
4.242410183285243e-17
-8.217043198376242e-17
2.1335405303372938e-17
3.884125394515603e-17
2.1993772735233188e-17
-3.586816467307234e-17
-3.848943208569706e-17
-2.6015397219691027e-17
1.003729939784606e-16
-7.898934427545668e-18
-3.5975307380759786e-16
-1.520385310646809e-16
5.196905392998252e-16
5.0399882939486175e-18
-9.650347583117626e-18
-4.136866508715707e-18
8.747225797884717e-18
0.0
0.0
0.0
0.0
-6.149770197321601e-18
-1.190424481414616e-17
-2.8200664350219832e-18
2.0874081446489745e-17
-1.8578863534880107e-18
-1.854079467514462e-18
-1.8613707309453402e-18
5.573336551947813e-18
8.403880410702314e-18
-9.240725168858056e-18
-9.333597525697059e-18
1.0170442283852794e-17
0.0
0.0
0.0
0.0
-3.8796144994643044e-17
-9.70143514617374e-17
-6.477478745169012e-17
2.0058528390806947e-16
-1.361937522325547e-17
-5.447713239228283e-17
8.708088459916955e-19
6.722569876954666e-17
-2.2020106255106224e-16
-1.0764210277326101e-16
5.931911827931902e-16
-2.653480174688713e-16
1.6318981672682436e-16
-2.4023570428337713e-16
-1.3646523492590882e-16
2.1351112248245878e-16
-6.211685400663863e-17
2.1630130323682073e-17
-5.0745465816855387e-17
9.12321894998119e-17
-7.83015305634145e-17
-1.3067447513650444e-16
1.225999144745612e-16
8.637609122535706e-17
7.894750531986292e-18
-9.390723909762115e-17
1.2304089145580184e-16
-3.7028402890168606e-17
-1.2160057422882133e-16
8.295684299436227e-18
-1.1574399637574327e-16
2.2904888630512535e-16
-3.6252822564100706e-17
3.579600217626157e-17
-2.74083661702129e-17
2.786518655805211e-17
-2.694458645049654e-19
-2.6705026766600286e-19
-2.7167386607499076e-19
8.08169998245959e-19
-1.3490864593668101e-17
-2.5141717790772745e-17
-1.9802641513044395e-17
5.843522389748525e-17
-1.871424341468532e-18
-5.761740718272865e-17
1.7548803338293797e-18
5.773395119036777e-17
-1.0948151128641225e-16
-1.1428674121413387e-16
-4.337754285976172e-17
2.67145795360306e-16
-4.067494199070579e-17
-4.1740893382374997e-16
1.241012855183633e-16
3.3398259029608793e-16
-5.802555163668376e-17
-1.5494885322357886e-16
-3.725216978799372e-17
2.5022657464825476e-16
-5.641351136751534e-18
-5.599318377754561e-18
-5.6803304744990715e-18
1.692099998900517e-17
-4.4898716828141795e-17
4.4425095579807943e-17
-4.231092719210577e-17
4.278454844043954e-17
4.450653029125853e-16
-9.899809807106258e-17
-6.565216727179888e-17
-2.8041503756972597e-16
-2.787353082300374e-18
-4.950393639829767e-17
-3.916729747886116e-17
9.145858695945936e-17
-1.078689639240691e-18
-1.0686557542003268e-18
-1.0880240427884705e-18
3.2353694362294886e-18
0.0
0.0
0.0
0.0
1.3299642842673735e-17
-1.01685195133257e-17
8.283379775246681e-19
-3.959461306872704e-18
-1.5471494469608256e-16
5.744020128368888e-16
-4.000943665347036e-16
-1.9592701606100615e-17
-8.360243052356809e-17
-1.361127800014297e-16
-1.062994718331028e-16
3.2601468235809673e-16
-1.3415640150551373e-16
-2.5576230867342627e-16
7.130134894856857e-17
3.1861736123036803e-16
1.0109060541606405e-16
1.7247416325315743e-17
-5.234286688023977e-17
-6.599515486113994e-17
0.0
0.0
0.0
0.0
3.1214338034813966e-16
4.9927541256516044e-17
5.5074651833795787e-17
-4.171455734384576e-16
1.1281365006839322e-16
2.2487641115182806e-16
-9.614827775407838e-17
-2.415417834661466e-16
1.3544224832882615e-16
-2.2378961418933666e-16
-5.254288230844822e-17
1.4089024816895736e-16
-6.348272211597502e-17
-8.339318658558338e-17
-1.7401995288857304e-17
1.6427790399041518e-16
1.7503170600338325e-18
-6.003399725128931e-17
-4.345328779251113e-17
1.0173696798376665e-16
1.2142692695741327e-15
-2.5835894250268973e-16
-4.039222693755333e-16
-5.519880576959225e-16
3.945893745376745e-17
-1.6371771366896457e-17
-9.263880017492924e-18
-1.3823286069378093e-17
0.0
0.0
0.0
0.0
7.064268386983464e-17
-5.450039345380753e-16
3.072999994043307e-16
1.6706125126390995e-16
-1.1999028675646618e-17
-1.1950345157229702e-17
-1.2043810443199777e-17
3.5993184276076054e-17
1.6720146275735228e-16
-8.959567767918207e-17
3.136096894019425e-16
-3.912154744801155e-16
-1.2710607093252272e-18
-1.2665362449894126e-18
5.970717830568495e-19
1.9405251712577905e-18
-1.6490684083872686e-17
-1.0404757796535261e-16
-2.3418408999605103e-17
1.4395667104882995e-16
1.7275117076832424e-17
-2.1311837107099696e-16
2.574787291668368e-16
-6.163547517267231e-17
5.082302860305059e-16
-8.294042729941194e-16
3.8511381148694686e-16
-6.393982452332813e-17
2.8843739373963327e-16
-1.7245297975021186e-16
-8.285580607779502e-17
-3.312860791162727e-17
6.91887877423102e-17
-6.664346412520012e-16
3.848919705273129e-16
2.1235388298237886e-16
-1.0616370566368272e-18
-1.0594666939717209e-18
-1.0636229830650486e-18
3.184726733673597e-18
-8.349301442562656e-17
-9.760551606426664e-17
-5.388633614485245e-17
2.3498486663474436e-16
-1.0449763069096913e-17
-1.3299245348196885e-17
-6.001530122652732e-18
2.9750538539946517e-17
-1.8749422437189382e-18
-1.863530911110477e-18
-1.8854903915010165e-18
5.623963546330431e-18
-1.1307043362952749e-17
-1.1302763161629926e-17
-9.438653664202503e-18
3.2048460188785155e-17
-1.5008099120787018e-16
-1.1411366828049595e-16
-1.4175073217635e-16
4.059453916647086e-16
2.4236080003766477e-16
-2.4887257265042983e-16
6.894577108833658e-17
-6.243399847557277e-17
-9.217836966794878e-17
-1.9787250762019695e-16
-6.95721635446847e-17
3.5962304083282635e-16
7.710069265167918e-17
-8.618497587315933e-17
2.2117258931975004e-16
-2.1208830609827098e-16
-2.1012311880661334e-18
-1.1300557814523063e-16
-4.5955125692670844e-17
1.6106193502596693e-16
-3.958531809230153e-17
-2.1012481723486286e-16
-1.380481351424096e-16
3.8775827046957057e-16
8.401220370216876e-17
4.58417826460954e-16
2.603144439288371e-16
-8.027444740919645e-16
3.037647064765545e-16
2.456488472173501e-16
5.470340073420777e-16
-1.096447561035983e-15
3.450809377678949e-16
1.7068782831688525e-16
4.0536140211327597e-17
-5.563049062961169e-16
5.965324796205141e-17
-2.852358769670383e-17
-1.2229111202625356e-17
-1.8900549062722242e-17
5.093646490137648e-17
1.564245285309721e-16
-1.0037337706845512e-16
-1.069876163638945e-16
-1.0401322766339079e-16
2.200832125075202e-16
-3.829308801186683e-17
-7.777689683226288e-17
3.220591920847146e-17
1.841609900710552e-16
1.6435118198005557e-17
-2.328020274775365e-16
2.94478267796392e-16
-1.0635093267508501e-16
-1.3762988736357676e-16
-5.049744775773095e-17
-6.546269271128692e-16
1.3839198241470452e-15
-1.80529462156368e-16
-5.487634348777716e-16
-4.450945232044204e-17
-9.854068024657657e-17
2.2163530171274008e-16
-7.858516914572159e-17
2.8874524747221324e-16
-5.902013976069958e-17
1.3750725203387362e-16
-3.6723235974539467e-16
7.274779195678586e-17
-2.855887432193242e-16
4.307893556912653e-17
1.6976201569341042e-16
7.210391461945463e-17
2.4214284552149184e-16
-1.5962537159317588e-16
-1.5462138854777786e-16
2.1511692134519917e-17
-6.0735611733755e-17
-2.203196760581723e-17
6.125588720505235e-17
-2.7138382181282577e-16
-2.496589950417757e-17
3.96311890619022e-16
-9.996216930201895e-17
-1.0999212314292727e-16
-1.6863396733795694e-16
-5.741756894506494e-17
3.3604365942593977e-16
-5.041862405447273e-16
5.044783530523322e-16
-1.452175868078494e-16
1.449254743002454e-16
9.446548054426455e-19
-6.369755714512587e-17
9.351590950340138e-18
5.3401311389342906e-17
2.7251203670226194e-16
-1.9170843047003676e-16
-3.8364191911463905e-17
-4.2439414320761375e-17
-2.1748265720329754e-17
-2.4626971682950742e-17
-1.7272233232733202e-17
6.364747063601371e-17
3.3851981864885685e-16
2.6779167061489386e-16
-2.299393952858975e-16
-3.7637209397786115e-16
2.2415097945492042e-18
1.9574015700175727e-16
-6.845187657596193e-17
-1.2952979022034477e-16
-2.9756969690362325e-16
-3.6924301515621744e-16
1.020911486234603e-15
-3.540987741747776e-16
3.9562141769136e-17
-3.9580043954379666e-17
-2.7395768436001038e-17
2.7413670621244748e-17
-7.305435366451474e-18
-7.218623308014453e-18
9.463852937767993e-18
5.060205736697931e-18
-7.028237292983628e-17
-5.8046308935459e-17
3.035456244727278e-16
-1.7521694260743243e-16
0.0
0.0
0.0
0.0
-5.826123264821855e-16
1.4847453533551855e-15
-7.699725685247327e-17
-8.251357700204944e-16
-1.0871356399427139e-15
1.7755955030525518e-15
-3.2636115943154045e-16
-3.6209870367827553e-16
7.625752588894648e-18
-4.782662754550703e-17
3.718473902745128e-17
3.016135929161167e-18
-7.556075194285672e-17
-2.829660311643339e-17
2.647135134651863e-16
-1.608561584058954e-16
-8.1226332627714e-17
-2.741770968517139e-17
-2.4742483202712466e-18
1.1111829063315683e-16
-7.070621826182507e-17
5.950777571965753e-17
-6.717690170250618e-17
7.837534424467375e-17
4.939813854098274e-18
-3.32211009672077e-17
-2.2321353650245988e-17
5.060264076335543e-17
-1.2481189565547906e-17
-1.830109440458289e-17
-1.2833503628556125e-17
4.361578759868688e-17
5.2174650715015494e-17
-3.0059564860710815e-18
9.472162131298287e-17
-1.4389031554192737e-16
7.923606959586346e-18
-7.646731084471747e-16
3.797536261434775e-16
3.769958753441099e-16
-9.191985741455679e-17
4.656081133116601e-17
-4.5298769697359674e-17
9.065781578075011e-17
-9.247410790008858e-17
-1.35337044015677e-16
1.554411800048902e-17
2.1226703391527502e-16
0.0
0.0
0.0
0.0
-4.982287662253996e-17
-5.863024277660919e-17
-4.55989440226447e-17
1.5405206342179356e-16
-4.3325125171901095e-17
-4.6072432060111655e-17
-3.522571092408985e-17
1.246232681561026e-16
-8.543797674363418e-17
1.4262527615691037e-16
-7.20446210296694e-17
1.4857321616392886e-17
-2.9048328625348974e-17
-1.0566470191043442e-16
-6.644765821677501e-17
2.0116068875255712e-16
-4.341796409456823e-17
-7.002656612668323e-17
-9.749124805223804e-17
2.1093577827348833e-16
-2.0165201135674504e-17
-9.586247037048195e-17
2.5830035789130392e-17
9.01976357170261e-17
-2.7461340238096746e-17
-8.894415004417174e-17
-3.1753265406856696e-17
1.4815875568912476e-16
-2.1562610199405268e-17
-2.1419353714269776e-17
-8.589152846474683e-18
5.157111676014969e-17
1.6156357752893089e-16
-1.8470968338446176e-16
2.0755403686157835e-16
-1.844079310060483e-16
0.0
0.0
0.0
0.0
5.0810550266719295e-17
-2.877905280462485e-16
1.6047084634979206e-16
7.650913142973534e-17
-1.0657516412231441e-18
-1.0617923854092572e-18
-1.0693905586172616e-18
3.1969345852496628e-18
3.103349691617737e-17
1.7455284554781042e-17
-2.1642393282169388e-16
1.6793515135073215e-16
-2.9301857645761263e-17
-3.501045493916027e-17
-1.1034155037780168e-17
7.534646762270177e-17
-4.321745759313444e-17
-8.724541576341473e-17
-3.3340404720437634e-17
1.6380327807698632e-16
6.428577667442418e-16
9.751667062888621e-17
-4.950021585247585e-16
-2.4537227884837033e-16
6.8897063035395506e-18
-4.856540694151299e-18
-4.951298507949305e-18
2.9181328985610537e-18
3.429239078104687e-16
-2.0350226997583274e-16
-1.6628238834035821e-16
2.6860750505720978e-17
1.3079842918250863e-16
-1.244920805717633e-16
-5.951862381437335e-17
5.321227520362746e-17
-6.015206863261171e-17
-9.812429354587829e-17
-3.3330218207867536e-18
1.61609383999276e-16
-1.1013330571345805e-16
-1.1807750763459458e-16
-1.0671062593421651e-16
3.349214392822661e-16
0.0
0.0
0.0
0.0
5.801686424008106e-17
-1.6570540739865166e-16
-2.0410134855745945e-17
1.2809867801431566e-16
-1.284798969896459e-18
-1.0107586951395872e-17
-8.280640906945831e-18
1.967302682823816e-17
-5.405101223096447e-19
-5.3490951685328e-19
-5.457387731442658e-19
1.6211584123071905e-18
-1.653898592079234e-16
6.902558800400975e-18
3.250567347788185e-17
1.259816269296399e-16
-3.0838639771117275e-17
1.54366219344864e-17
-2.7262927444919258e-17
4.2664945281550136e-17
-5.620702775900494e-17
-1.1125747165411862e-16
-3.6379384554073927e-17
2.0384388396719647e-16
-8.33671769711818e-17
-1.1224907483166388e-16
8.317566608378238e-17
1.1244058571906257e-16
6.134891473160092e-17
-1.316896935065903e-16
1.3298096824198257e-16
-6.264018946699371e-17
-2.0149198364509748e-16
4.367027321041321e-16
-1.0369763748378742e-16
-1.3151311097524835e-16
-1.0161851898257557e-16
-1.6504539126708158e-16
-8.358533373670106e-17
3.502492439863546e-16
-6.965829401737695e-17
-2.8351145342038954e-16
-1.270774751943624e-16
4.802472226321285e-16
-4.84550882857673e-18
-4.804612108757415e-18
-4.88352019445639e-18
1.453364113179054e-17
-2.840265604812112e-17
-7.227548649676282e-17
-3.177588678957871e-17
1.3245402933446249e-16
0.0
0.0
0.0
0.0
-1.6119980013528962e-16
2.955156711662437e-17
-2.4920746473122555e-16
3.8085569774988725e-16
0.0
0.0
0.0
0.0
1.773003535853187e-17
-2.915670598876875e-17
2.4570816102507905e-17
-1.3144145472271036e-17
-2.8352378380271147e-17
-2.8219318651760266e-17
-1.3496637481387176e-17
7.006833451341864e-17
-1.8691878624764845e-18
-1.8604141671246727e-18
-1.8772682834972636e-18
5.60687031309842e-18
-2.118446146109715e-17
-3.885952480398947e-16
8.278873988553666e-18
4.0150083551243494e-16
-3.804509855793239e-17
-7.255811398450965e-17
-1.9952197646631087e-17
1.3055541018907298e-16
-5.443697461864581e-18
-2.001262486638758e-17
-2.0350681281622193e-17
4.580700360987434e-17
-2.4180352140874478e-17
-5.904820034511817e-17
1.671603257914038e-17
6.651251990685237e-17
-3.409171306779113e-16
9.034925415481927e-17
-2.367551006653653e-16
4.873229771884575e-16
-3.9439717619976556e-16
1.0101984110569423e-15
-7.421668088968569e-16
1.2636557403969214e-16
-1.0838923300174296e-17
-6.360146377428168e-17
-2.3018748403582062e-17
9.745913547803799e-17
-1.4396807214112208e-16
2.59238615920692e-16
-2.531203281078952e-16
1.3784978432832542e-16
-1.552459763906168e-17
3.060991471131127e-17
-1.3690878590820845e-17
-1.3944384814287243e-18
-8.547470584110053e-17
-5.103163400637462e-17
-4.1234569393976564e-17
1.7774090924145111e-16
0.0
0.0
0.0
0.0
-4.4483323943034846e-17
-5.62222659746012e-17
-4.322397870272005e-17
1.4392956862035597e-16
-6.703570884659181e-17
2.890370223125104e-17
-7.265762395960484e-17
1.107896305749451e-16
-1.6782107901192887e-17
-2.5615656794966558e-17
-2.1895733616361715e-17
6.429349831252118e-17
-1.3485156741372364e-16
-3.883385557658775e-17
-1.1857024918020256e-16
2.922556721705103e-16
-1.421033664582428e-18
2.409601147544593e-17
-2.0251355012592555e-17
-2.4236227982709415e-18
-6.630673512550378e-17
6.923003191125283e-17
-3.387312026494501e-17
3.094982347919582e-17
-2.6697985181100585e-19
-2.657471822878695e-19
-2.681137715961638e-19
8.008408056950392e-19
-2.773426065653508e-16
6.079955828336693e-16
-5.2911031120899e-16
1.984573349406757e-16
7.540337984996769e-16
-2.8349041785554387e-16
-2.414129769515433e-16
-2.291304036925913e-16
-2.6416793301590486e-16
-1.714096774183885e-16
1.1538216529254107e-16
3.2019544514174883e-16
2.6664610808307942e-17
-4.698493207440571e-16
2.548401411078635e-16
1.8834456882788509e-16
0.0
0.0
0.0
0.0
-1.0152489724426236e-15
2.6418627244717876e-15
-8.794204437874208e-16
-7.47193308241737e-16
0.0
0.0
0.0
0.0
9.51809955716853e-17
-3.679646710845356e-17
1.4965474150720202e-16
-2.0803926997043478e-16
-7.304246923183316e-17
2.1578037153795381e-16
1.24760053965242e-16
-2.6749795627136485e-16
-9.422487662699107e-18
-1.2245114827739335e-17
-1.2489073908680383e-17
3.41566763991188e-17
1.1419308273395521e-16
5.797168756334384e-16
4.3063075263379773e-16
-1.1245407110011546e-15
-1.4729921611106916e-16
1.2234312466664186e-15
2.7356338919316237e-16
-1.349695419748465e-15
2.6262620612317485e-15
-1.7806021248129968e-15
-1.9036410871893534e-15
1.057981150770752e-15
-1.6769825079929602e-15
-1.958131688367392e-15
-2.6279608175276666e-15
6.2630750138883405e-15
-6.734439799354032e-17
5.372199535495594e-17
-4.1947563694380595e-17
5.556996633296444e-17
-1.8977264643704902e-16
-5.885803633368904e-16
1.809166291421581e-16
5.974363806317803e-16
2.8273089438284808e-15
1.3890360947814853e-16
2.0034914165579663e-15
-4.969703969864452e-15
-4.332988194572198e-16
8.995630609755019e-16
-4.985101583254836e-16
3.224591680721761e-17
-2.648770376310932e-16
7.295604133206903e-16
-2.1577114937896952e-16
-2.489122263106307e-16
-1.8180287852022404e-16
3.401465294172526e-16
-3.1619956514189515e-17
-1.2672369438284164e-16
-1.5501584869212e-16
4.3465591889434497e-16
-1.4070115535670982e-16
-1.389389148455162e-16
-4.0159544380864036e-16
1.427940340196051e-16
-1.8878103452634957e-16
4.47582444315377e-16
-3.9294574005674955e-17
-3.9935077411471853e-16
1.6519181312276022e-16
2.7345353499762887e-16
-2.401455233631206e-16
1.2766559337327804e-16
2.134249977595982e-16
-1.0094506776975693e-16
3.716387287030834e-15
-4.961029508135576e-16
-7.235934241728379e-16
-2.4966909120446685e-15
-1.6248292551123734e-15
-7.301916662399482e-16
2.7692044156433793e-15
-4.14183494291058e-16
1.7564752526189028e-15
-1.019862846845839e-15
7.185890950041688e-16
-1.4552015007772108e-15
4.934909597959088e-16
-1.1492317649941873e-15
1.297244404632889e-16
5.260163647350043e-16
2.9111185766480475e-16
-3.0196914461306413e-16
7.73367439921185e-17
-6.647945704386147e-17
-1.3849701016419016e-15
-1.1903290921878354e-15
-3.5417312828678016e-16
2.9294723221165338e-15
-9.961274597021103e-17
-1.1357178509906968e-16
1.0397206729750742e-16
1.0921246377177261e-16
-1.738002065812704e-16
-2.369905179411406e-16
-1.8344136959694824e-16
5.942320941193583e-16
-1.7949772674170363e-16
-2.0608044376741256e-16
-9.317074732834639e-17
4.787489178374603e-16
-7.739305293233047e-17
-1.3896310023986014e-16
-4.790511291603003e-17
2.6426126608821823e-16
1.241729132464437e-16
-1.2932219551495087e-16
-1.5311411324754057e-17
2.0460693593260803e-17
-1.8255750997855847e-17
-1.560186694836687e-16
-2.2817073670146578e-17
1.970914941516696e-16
-1.2629326552561958e-16
-1.1550306351046909e-16
-6.578335316741553e-17
3.0757968220350043e-16
-4.65245589329679e-16
1.862947255683825e-16
-1.5287671341658792e-16
4.318275771778808e-16
-7.303477337249305e-17
-8.60537351054625e-17
6.144750763054553e-17
9.76410008474094e-17
-9.711805761808828e-17
1.775811881482467e-17
-8.107870749868525e-17
1.604386463019478e-16
-1.9137726765030972e-16
-2.075492595085731e-16
-1.0376441636841722e-16
5.026909435272986e-16
-4.216744135486168e-16
8.552960782542645e-16
-3.7753831154649576e-16
-5.608335315914752e-17
-5.002794383587148e-16
1.047629534790752e-16
-4.441685510565908e-16
8.396850359362485e-16
-2.4552000146625926e-16
5.501828397411895e-17
-1.8248150025683325e-16
3.7298321774897043e-16
1.5056197445949518e-16
2.584481370275046e-16
-4.437325374736252e-16
3.472242598662866e-17
-1.4592630615387544e-16
-1.4811889253743212e-16
-2.0385013900916796e-17
3.144302125922215e-16
-1.9268468368588311e-16
-1.8080011102541813e-16
-8.22739877717792e-18
3.817121934884753e-16
-4.273429295450122e-17
-8.147360971161773e-17
8.455980239154821e-17
3.9648100274570407e-17
-3.5508980616578974e-16
1.4097991824903883e-16
-2.304966907001423e-16
4.446065786168933e-16
-1.0043583665231746e-16
-1.1895488080025435e-16
-9.62771161621813e-17
3.1566783361474956e-16
-1.247249460152942e-16
-1.0183850135656273e-16
-8.501259136256173e-17
3.1157603873441576e-16
-1.1828084910668708e-17
-4.0416528899377957e-17
-7.293419906163594e-17
1.2517881287168213e-16
-3.7380003492012396e-16
-2.942588367377448e-16
-3.033096035468005e-16
9.713684752046807e-16
-1.5458386146764582e-16
-1.462985744463491e-16
-1.2600000645523072e-16
4.2688244236922195e-16
7.732964951121454e-16
-9.377090174212612e-16
-3.410309644985307e-16
5.054434868076731e-16
5.969798089757307e-17
-9.328007605335314e-17
-5.4654379038140837e-17
8.823647419392059e-17
-3.772607580008981e-16
2.7413138581634687e-16
-3.5932724148618137e-16
4.624566136707376e-16
-3.387108685561162e-16
1.1640756649724624e-16
-3.0813340794117566e-16
5.30436710000052e-16
2.7916814917721345e-17
1.4818174600107993e-15
-1.0497004937279647e-15
-4.600337812005334e-16
-1.2674961850563957e-16
-1.5011271499450715e-16
-9.999668036326467e-17
3.7685901386340734e-16
-1.7971357305997778e-16
-9.897178556405791e-17
-1.1458354343832277e-16
3.932689020623543e-16
-3.350304387787197e-18
-4.1591233866563136e-17
-2.3048457724159193e-17
6.798999597850962e-17
-8.093673430307469e-16
5.636365195273096e-16
-3.2427413809428687e-16
5.700049615977479e-16
-2.5067099508988065e-16
-1.8130016737494825e-15
-2.289118755225445e-16
2.292584544362407e-15
1.289199228070225e-10
-8.406179836406173e-11
-2.5508013984839154e-11
-1.9350110458122636e-11
6.529989507881967e-15
-4.466994511039538e-15
-1.5066119984984964e-14
1.30031249881409e-14
-6.590725298546246e-15
8.127833371637742e-16
1.114087178052953e-14
-5.362929819146665e-15
-2.1305069742082164e-16
8.233413239266728e-16
3.2806148702792136e-15
-3.890905496784943e-15
3.64959703548704e-14
-1.1846979592097083e-14
-3.1394048966559337e-14
6.745058203785555e-15
3.9380548258355765e-15
-2.5983329049816093e-15
-2.3095125224094962e-15
9.697906015565821e-16
-1.873496995459236e-15
1.4569594272797524e-15
1.655532584692997e-15
-1.2389950165133807e-15
-2.4068834197173683e-17
2.2140197836518173e-17
-3.581544683895002e-18
5.5101810445505285e-18
7.589112139765341e-18
-6.41756470508881e-17
-2.7588628567638275e-17
8.41751634787613e-17
-4.51877545186495e-16
-3.660173630305442e-16
-1.5579056500761967e-17
8.334739647178031e-16
-2.746350657142355e-18
2.4925422382944765e-18
-6.985431090402102e-18
7.239239509249983e-18
1.2552433963182678e-16
-7.73485876834089e-17
-9.22540511619098e-18
-3.8950346832226935e-17
-2.2783089381191875e-18
-2.2687746689283775e-18
1.4574414789202209e-18
3.0896421281273445e-18
-6.013866748292333e-17
-1.972530688678669e-16
-2.521186582747782e-16
5.095103946255594e-16
-4.572749671678419e-18
1.1082905018486726e-17
-3.0339095252969813e-17
2.3828939906161584e-17
2.251605009525063e-18
-6.5337392558446495e-18
8.372512200535702e-19
3.4448830262660162e-18
-2.2262525849020154e-15
9.285072655302166e-16
1.7022224494694118e-15
-4.044771300976329e-16
-2.3594519913267317e-16
-2.7097004304243105e-16
-7.335378032063445e-16
1.2404530453814625e-15
-1.5330071177988743e-17
-1.817754636558494e-17
-1.462811843853923e-17
4.813573598211288e-17
-5.7485109205023e-17
4.731728769986867e-17
-6.504104830891313e-17
7.520886981406605e-17
-4.427322234642881e-17
3.47612843760806e-17
-4.399597465298881e-17
5.350791262333653e-17
2.4316772359751268e-16
-2.516195652955764e-16
-1.5511179061589585e-16
1.6356363231395522e-16
7.002499641138717e-16
-2.1621151156344916e-16
-2.4628055398408173e-16
-2.3775789856634507e-16
1.428284167991704e-17
-1.5035391877243296e-17
7.102975601030262e-18
-6.3504254037040085e-18
1.0122315101215588e-17
-8.112064122369815e-18
-1.2200497235654131e-17
1.0190246256808357e-17
3.966453037984621e-17
-4.3800829302076265e-17
-1.781589704331712e-18
5.917888626561852e-18
1.0238593019441984e-16
-9.984299492801875e-17
-5.640100000194253e-17
5.385806473553962e-17
3.546097210027502e-16
-3.474800556139062e-16
-1.4761656154611836e-15
1.4690359500724127e-15
1.469522348896491e-18
-1.0235231545598547e-17
4.568079355991163e-18
4.1976298407108925e-18
1.3684123472960772e-17
-5.3613181167421145e-17
2.4006447849790176e-17
1.592260984467025e-17
9.10980008282646e-18
-2.3829989006347573e-17
-2.2375155015371457e-17
3.70953439388926e-17
4.0310682113872603e-16
-1.6717328785198378e-16
-8.451459826098101e-17
-1.5141893502576244e-16
-1.5842562521290736e-17
-1.6328011277594847e-17
7.55976063689984e-18
2.4610813161985752e-17
-2.6916897865268045e-17
7.371596356102955e-17
-2.657943401582078e-17
-2.0219631679940697e-17
8.964223907992639e-18
2.2891090368666408e-17
-1.8110059922393123e-17
-1.3745254354265917e-17
-5.325165782286953e-19
-5.3068863711053e-19
-5.341968547735086e-19
1.5974020701127338e-18
2.240528056329394e-18
-3.625360516622259e-18
-3.686736639623881e-18
5.071569099916746e-18
1.0882323263330815e-17
-3.008802343035833e-17
6.752028418625649e-18
1.2453671748401872e-17
-1.0211548050925803e-18
-1.0097086380024094e-18
8.404412430940579e-19
1.190422200000932e-18
-1.4596103965715708e-16
1.7924358018518607e-17
-1.0774417556475069e-16
2.357808572033863e-16
-1.3631445286795757e-17
2.3777668591230174e-17
-3.906469861766034e-18
-6.2397534426683844e-18
4.442671161408682e-17
-3.4859386634634736e-17
-3.672511521768389e-18
-5.8948134576836945e-18
1.1253098969037215e-17
-5.31222613672703e-17
7.698907999587938e-18
3.417025439864513e-17
1.7117875736423106e-18
-1.2223358246593084e-18
6.2148970179e-19
-1.1109414507730024e-18
1.709622083723087e-16
-8.88869892738399e-17
2.6273938201011147e-18
-8.470261291856972e-17
-3.0424479292543886e-17
-2.263998768066598e-16
-3.399810808383311e-17
2.9082246418303273e-16
-7.459983309984796e-19
-7.396684035089411e-19
1.1203762026418041e-18
3.652905318656164e-19
-1.9389685756614818e-16
-1.45814827320036e-16
1.9444247914742088e-16
1.4526920573875994e-16
8.649449426700597e-17
-2.1854043473971843e-17
2.3625238792614333e-17
-8.826568958564835e-17
7.47481243120684e-17
-4.428679379552281e-18
-5.943883088071367e-17
-1.0880614051802707e-17
1.2399359348753963e-17
-1.3989611448472208e-17
6.976591263604868e-19
8.92592973357759e-19
-4.94393245851709e-18
-1.3684244288058467e-17
2.9613303823821567e-18
1.5666846364193404e-17
2.054147849052011e-17
-9.658562897667598e-17
-1.0183828244465614e-17
8.62279787306215e-17
-9.748450214253699e-17
-7.222291933961298e-17
-1.6303066780338943e-16
3.327380892855311e-16
1.293120664023696e-17
-2.8111972393873314e-17
-6.1087951897417764e-18
2.128956094337815e-17
4.3628285709527214e-16
-3.9901273256890774e-16
-1.6135263288232338e-16
1.2408250835595834e-16
2.459701693667519e-16
-2.577527746981251e-16
-8.492923420715236e-17
9.671183953852491e-17
-4.926787495157183e-18
-3.600891932927464e-17
2.2814669205001644e-17
1.8121037619430266e-17
9.99746169125497e-18
-1.636329799304391e-17
7.630854219519114e-18
-1.2650179177301747e-18
-6.758566927371337e-17
9.816105795026527e-18
-4.0619127189685716e-17
9.83886906683728e-17
-7.199362571377752e-19
-5.0376179776939646e-17
4.6066787122141365e-17
5.029328911936112e-18
5.3841437622499945e-17
-9.874737167716723e-18
-3.4924065443955144e-17
-9.042635010828088e-18
-3.571604535513407e-18
4.3236664910098555e-17
-8.508807257298706e-17
4.5423012198401485e-17
2.670298697873265e-17
-2.90319200062914e-17
-1.513675691638386e-18
3.842608719197142e-18
1.0263799550738429e-18
-1.067954859988103e-17
-1.49068415918146e-18
1.114385280398865e-17
-2.9254486680280015e-17
-4.052533298988614e-18
-2.484135649427265e-17
5.81483764735413e-17
-8.385622246758748e-19
-1.2537475676750262e-17
-3.3621222957459414e-18
1.6738160197172086e-17
3.7899457829804967e-17
-1.3358353498218245e-17
-3.268213430163128e-17
8.141029970044626e-18
-5.008769795190587e-18
-1.0797396049989782e-17
1.5203775894159517e-17
6.023899510208517e-19
-1.7561089135841833e-18
4.017505878696805e-17
-2.6949576529006816e-17
-1.1469373344377016e-17
-2.6559117794625664e-19
-2.6497052540713706e-19
-2.6615927255821655e-19
7.967209759116103e-19
-1.4403820421585433e-17
2.894080669930093e-17
-6.307127994301293e-18
-8.229858283414201e-18
6.926726679749743e-18
1.5046216805914624e-17
-7.406813537506797e-18
-1.456612994815755e-17
9.008019450265806e-19
-1.9561959089195348e-17
-1.18513911606364e-18
1.9846296260232416e-17
-1.5830806674816002e-18
-1.3258692591150778e-17
7.105127166798894e-18
7.736646091833484e-18
-7.230411986193632e-19
-3.6986481618905604e-17
3.1203267635478735e-17
6.506255182046287e-18
3.9777015012720506e-18
-1.3576398574277763e-17
1.0494681519357586e-17
-8.959844463518794e-19
1.0288270821808803e-17
-2.193031730845567e-17
7.6036375958763e-18
4.038408890770567e-18
-7.085849703883372e-19
5.146217817788857e-17
-4.3518042116398615e-17
-7.235551091101777e-18
-1.1249566391952413e-17
2.8230077496194944e-18
8.347842039905639e-18
7.871660242727404e-20
-1.1385796463511543e-17
2.888843216818325e-17
-1.361240697005091e-17
-3.890228734620791e-18
7.186901888522681e-18
3.672882519499455e-17
-2.5535908079469333e-18
-4.136213627557024e-17
2.5105119460787884e-17
-2.838444256351628e-17
-2.1491207619181577e-17
2.4770530721910024e-17
-1.4113315323911333e-16
-4.127860591027764e-17
1.7591834538116266e-16
6.4934137682271954e-18
-1.784446945757254e-17
-1.2994623125007051e-16
1.340022107005762e-17
1.3439047963758472e-16
-7.030787049771391e-17
1.2219538812049993e-16
-5.983304658601283e-17
7.945528963226208e-18
3.3044910612082575e-17
-6.691240121469009e-17
-4.628062679669616e-17
8.014811739930368e-17
2.5126391579421702e-17
-1.0353141078759468e-16
-7.554125923636143e-17
1.5394627844453257e-16
7.73132655912472e-18
-3.907714944490372e-17
1.2626162896245876e-17
1.8719659989533142e-17
-6.684534781680956e-18
1.0291713731742512e-17
-6.564060739879815e-18
2.9568817898182573e-18
1.2482132017016182e-17
-5.4849035102317085e-17
7.858008921663714e-18
3.4508894163637195e-17
-1.171616679075822e-16
-1.2765426605656594e-16
1.1024168040343264e-16
1.3457425356071269e-16
-5.897671440843442e-18
-4.3823820902144085e-17
2.2788828609903327e-17
2.6932663733084273e-17
-7.549950851743258e-17
-1.3096449726194124e-16
1.2680489151977888e-16
7.965911425959397e-17
7.373853804465952e-17
-9.467723290521304e-17
2.675525921672839e-17
-5.816564356175126e-18
-4.006555500140819e-17
-6.189218450348273e-17
-4.116280912976104e-17
1.4312054863465211e-16
2.399956924930087e-17
-4.1076096883835766e-17
6.601869547673657e-18
1.0474658086861278e-17
-2.0414303327520443e-17
6.317188191323222e-17
-2.20027091585103e-17
-2.0754869427201487e-17
8.827427459081606e-19
-7.533963167474118e-18
4.880339835827791e-18
1.7708805857382048e-18
7.426158021394091e-18
-4.9483594975871024e-17
-3.750735455884246e-18
4.580817241036126e-17
7.002756350240546e-19
-2.2270723723863806e-18
1.4759753397573563e-18
5.0821397604969485e-20
-1.074772712102688e-18
-3.980588856767855e-18
3.4253465833411966e-18
1.6300149855293476e-18
5.730097251598614e-18
-2.3509026492558515e-17
1.7199320966072332e-17
5.796082748875691e-19
-4.804081433858467e-19
-4.7469889718505785e-19
1.3865331442971364e-18
-4.314261037262319e-19
0.0
0.0
0.0
0.0
-1.2946973970883256e-17
2.7458710526287297e-17
-5.9359224222482775e-18
-8.575814133155767e-18
3.634570334869923e-17
-3.405499334348984e-17
1.2034161685480541e-17
-1.4324871690689948e-17
0.0
0.0
0.0
0.0
4.340556283176022e-16
-2.2412188193709296e-16
-1.0373334138785129e-16
-1.0620040499266253e-16
-2.5036837198516253e-17
6.44455624024573e-17
-1.8854114041902394e-17
-2.0554611162038667e-17
1.391594830098144e-17
-1.2525672986245751e-17
-3.3531937535993812e-18
1.9629184388636874e-18
-3.679192447983641e-17
-1.6889806649116154e-17
2.410370270425777e-16
-1.8735529591362795e-16
-1.2318846177262227e-18
-1.2172450699287367e-18
2.4989828937816904e-18
-4.985320612673071e-20
1.0323583982555074e-16
-1.1624070943666911e-16
2.4804010619349694e-17
-1.179914100823162e-17
-1.7285857568075886e-18
-4.632232902336914e-18
-9.750156459803279e-19
7.335834305124831e-18
-8.783729305837432e-18
-3.4970816021332475e-17
2.4260895647166025e-17
1.949364968000391e-17
2.1921887919179225e-18
-7.47640038476438e-19
-7.650535820081251e-19
-6.794951714333594e-19
2.5575196635557592e-17
7.218656196616011e-18
-1.7229109427932498e-17
-1.5564743404241066e-17
-7.890498995688669e-18
-3.1411043986360686e-18
3.935912666985089e-17
-2.832752327552611e-17
-2.7106834481867016e-19
-2.6784840692753786e-19
-2.740850992220696e-19
8.130018509682776e-19
4.387085932566319e-18
-1.4939652956757786e-18
-1.5260632711633953e-18
-1.3670573657271458e-18
3.643765696326203e-18
-2.232262607750038e-18
-4.017702818448462e-19
-1.0097328067313186e-18
3.307530001652734e-18
-2.562878056906014e-18
-2.615571299679571e-18
1.870919354932851e-18
3.8605239330556175e-18
-7.86705586030512e-18
-2.3811169338630247e-18
6.3876488611125256e-18
-6.439643729961978e-18
2.2208628145307475e-17
-7.514717973461125e-18
-8.25426644188437e-18
0.0
0.0
0.0
0.0
1.1812707665763533e-18
-4.6658082675043656e-18
4.597718138491089e-18
-1.1131806375630762e-18
0.0
0.0
0.0
0.0
1.0863869468170969e-17
-6.760694051414784e-18
-3.148364243315195e-18
-9.548111734409896e-19
-2.6717783231758e-19
-2.6585625768785714e-19
-2.683962616963499e-19
8.014303517017871e-19
6.892423432448045e-19
-2.232731097895664e-18
1.4598529889969678e-18
8.363576565389148e-20
0.0
0.0
0.0
0.0
7.547743249237855e-18
-4.202239849467594e-18
-5.453352927532851e-19
-2.8001681070169753e-18
-4.470893379565568e-18
1.5399165682517e-17
-6.966647107019776e-18
-3.961625195931656e-18
-3.286129394393241e-17
-5.780373860485562e-17
2.4890188911267173e-17
6.577484363752103e-17
0.0
0.0
0.0
0.0
-3.036603975100295e-18
-5.928863625405644e-18
7.067706607253481e-18
1.897760993252459e-18
-1.3392671758912913e-18
-4.245085039893235e-18
3.1608903809139667e-18
2.4234618348705593e-18
1.6398467351221912e-17
-6.758109821223441e-17
-3.71914947095421e-17
8.837412557055497e-17
0.0
0.0
0.0
0.0
0.0
0.0
0.0
0.0
1.7117861906229473e-18
-1.2223352260479382e-18
6.214895020814542e-19
-1.1109404666564637e-18
-9.934133129182834e-18
3.3276868366595757e-17
-1.1072954609871426e-17
-1.2269780627541494e-17
0.0
0.0
0.0
0.0
-2.710704441343608e-19
-2.678491572635383e-19
-2.7408788400493447e-19
8.130074854028335e-19
-1.4291168131807022e-18
-7.26368607956873e-18
3.848131306473552e-18
4.8446715862758785e-18
5.260223945599616e-18
-9.389988383255042e-18
5.4066578012491716e-18
-1.2768933635937466e-18
3.877746284619946e-17
6.62911187525676e-17
-9.105248835299001e-17
-1.4016093245777176e-17
3.408696935784964e-16
-1.191780883361245e-16
-2.7665858508629546e-17
-1.9402574673374533e-16
-1.518186162174166e-17
-1.4114339716318742e-17
-3.27518265957152e-17
6.204802793377568e-17
-8.383290053397553e-18
-4.920209242885307e-17
2.2918635092063418e-17
3.466674739018727e-17
-1.1131928786704422e-16
2.1905662588711942e-16
-9.062025649004741e-17
-1.7117081530028516e-17
-6.2745335292945075e-18
-2.083860270874645e-17
1.0642296153697572e-17
1.647084008434338e-17
5.5074139064961834e-18
-3.306555436394229e-18
-3.369402279659056e-18
1.1685438095571019e-18
6.79048394499291e-18
-1.3725342806114911e-17
-4.607385887674524e-18
1.1542244748796521e-17
-2.6713454068039494e-19
-2.6583261082045453e-19
-2.6833462978120635e-19
8.013017812820558e-19
-1.823829778721017e-18
-1.807715927339326e-18
3.340178976125334e-20
3.59814391629909e-18
-7.062668958757005e-18
-1.6341039163743717e-17
3.697931701865572e-18
1.970577642063515e-17
1.2698107389029885e-17
-2.2449058129079915e-17
1.4534739563970073e-17
-4.783788823920056e-18
-5.421388012765396e-19
-5.356975730046126e-19
-5.481730055826406e-19
1.6260093798637927e-18
0.0
0.0
0.0
0.0
8.84030825250711e-18
-1.4598732449043267e-17
7.575590442228708e-18
-1.8171662456925546e-18
1.1148741420235957e-17
-2.107355079534514e-17
1.0339867864970141e-17
-4.1505848986096545e-19
8.646443810524011e-18
1.0885337193271354e-17
-4.1114008355785665e-18
-1.5420380168216806e-17
4.756392979264228e-18
-1.8636751094721382e-17
1.0937807911799563e-17
2.9425502036575873e-18
-5.388995353805021e-18
-1.9928700744238336e-17
7.76022534163803e-18
1.7557470756405323e-17
-1.3428635930152173e-17
2.6912237364408582e-17
-7.390944548100797e-19
-1.2744506979446334e-17
-2.1980055650333348e-17
5.295338905143806e-17
-1.2001840455077591e-17
-1.8971492946027126e-17
1.1211680063332354e-18
-4.726236072164025e-18
2.6656949287158116e-18
9.393731371149776e-19
0.0
0.0
0.0
0.0
3.3767925257602537e-17
-4.542431650692913e-17
1.3665161717851473e-17
-2.0087704685248534e-18
5.248369836971398e-18
-2.4019807270298857e-17
-1.0548998704611214e-19
1.8876927420373566e-17
-1.3344131157070078e-18
-1.0081793484227946e-17
1.9683184636274195e-17
-8.266978036339233e-18
-4.114411653277376e-17
-2.3497539288955417e-16
-3.220829719478861e-16
5.982024813701848e-16
2.365131364192458e-18
-6.416860496632686e-18
4.692174766572693e-18
-6.404456341324632e-19
5.568030166941571e-18
-3.2461488507044098e-18
-1.4363044537410686e-18
-8.855768624960934e-19
1.4407164091795225e-18
-1.490184747764199e-18
3.4740159605949745e-19
-2.9793325747482104e-19
0.0
0.0
0.0
0.0
-7.488516834452988e-18
9.510276050310128e-18
1.97259199737845e-18
-3.994351213235587e-18
-1.0762021687088763e-17
2.613891944001957e-17
-5.700052059631049e-18
-9.676845693299733e-18
3.3114185839770966e-18
-8.40657778383591e-18
-2.9391550896210127e-18
8.034314289479824e-18
1.7937762214313737e-17
-1.1433780072856749e-17
-2.2981327329211864e-18
-4.205849408535804e-18
0.0
0.0
0.0
0.0
2.889933807909746e-17
-2.982593372292622e-16
-2.3193293280117627e-16
5.012929319513341e-16
3.0330279444399055e-17
-1.726487545390511e-17
-6.621989560473602e-18
-6.443414430020327e-18
-5.5420048067255616e-17
8.558202120471239e-17
-4.054529536201095e-17
1.0383322224554154e-17
1.1796454495236009e-17
-2.1123012082646943e-17
-2.532486869916317e-17
3.4651426286574126e-17
-3.255556928998467e-17
-2.2646104742314275e-17
-1.0063456521199829e-17
6.526513055349889e-17
1.9980868858000257e-17
-8.583068515939081e-17
-6.340809235239582e-17
1.2925790865378607e-16
-2.4748945166131553e-16
-8.223001524535602e-18
-1.772406464732776e-16
4.329530996591263e-16
-5.237906515586368e-18
5.7382326906474234e-18
1.3422414872347369e-17
-1.3922741047408433e-17
-9.820650087560146e-17
7.0326176934974e-17
5.600353907112076e-18
2.2279970033515083e-17
8.328948048903175e-18
-1.5135796628413886e-17
-2.2728583235375408e-18
9.079706903048253e-18
-2.7444333965945938e-17
1.0081342325490464e-16
-5.295242547180441e-17
-2.0416663817154312e-17
-4.3311920797774054e-17
1.006381837827044e-16
-1.612817277667778e-17
-4.1198090208252594e-17
1.6138722944361697e-17
-3.3702872185908515e-17
1.6291503315041956e-17
1.2726459265048847e-18
7.884120318576818e-18
1.5855165547047352e-17
-2.5647078769689515e-18
-2.117457798865522e-17
7.931943534335725e-18
-9.663621159229634e-18
3.2541271481835453e-18
-1.5224495232896378e-18
0.0
0.0
0.0
0.0
-7.579692231696081e-18
2.391246261546213e-17
-3.734588460943424e-18
-1.259818192282262e-17
9.824922232368015e-19
9.134273191613849e-18
-1.5253272393813684e-17
5.13650697896305e-18
-5.798311566883226e-19
-3.49841631511493e-18
2.060031664698862e-18
2.0182158071043916e-18
-6.8244782138351475e-18
4.442238017992549e-17
-1.4728035867402375e-17
-2.286986609868796e-17
2.7049931137394924e-18
2.769480881853415e-17
-3.200323585754424e-17
1.6034339252706468e-18
-1.1459557860924594e-18
-6.989408218277225e-18
4.139632945176199e-18
3.995731059193486e-18
4.7815705835355975e-17
4.130269720104151e-17
-4.1139264417578186e-17
-4.797913861881922e-17
9.030244840151228e-18
-8.573367703845501e-18
-3.129332160675643e-18
2.672455024369913e-18
-7.111728636621364e-18
1.8507034659394453e-17
-7.31461126883883e-18
-4.0806947539342635e-18
1.3970677146454926e-18
-4.455919252579286e-18
2.9468621659429205e-18
1.1198937199087332e-19
-1.0522346550981367e-17
1.5207667357654862e-17
-1.082930120486742e-17
6.143980398193923e-18
2.1454071338572832e-18
-3.7149743632548694e-18
1.829823397013702e-18
-2.6025616761611535e-19
0.0
0.0
0.0
0.0
2.4076774067534088e-17
-3.1637798342125795e-17
-2.286695972523851e-18
9.847720247115581e-18
2.6805216634806137e-17
-1.724771688233184e-17
-6.361009371986558e-18
-3.1964903804877434e-18
-1.2998443681138684e-17
3.024658735760451e-17
-8.552075446947093e-18
-8.696068229518733e-18
3.2976785821580546e-17
1.3010066521900173e-18
-5.980394864933992e-17
2.5526156175568503e-17
-6.940626196018175e-17
1.188054282074372e-16
-8.025586169281521e-17
3.0856695445559204e-17
-5.338995384331316e-17
-9.425993453435211e-18
-1.0002643785435158e-16
1.6284238515109833e-16
4.18499001953996e-17
-5.548016207230254e-17
1.618456690595726e-17
-2.5543050290542635e-18
3.073546683709931e-17
-8.804385326284371e-18
-8.338447249620676e-17
6.145339098539084e-17
-2.675288724499688e-19
-2.6604667458153774e-19
-2.688970090109185e-19
8.024725560424249e-19
-1.0123229692536377e-18
-3.936683495273335e-18
-3.983881739429309e-18
8.932888203956282e-18
-2.837513213655886e-18
-2.813549222397095e-18
8.846975251281415e-19
4.7663649109248415e-18
3.799522883674016e-18
-4.996029304610206e-18
5.223089109516089e-19
6.741975099845802e-19
-3.489865444219643e-18
1.6289057221742312e-17
-5.8994816049538426e-18
-6.899710172568817e-18
-1.3760141487586316e-18
-1.5973677129151516e-17
-6.895318190253019e-18
2.4245009468163177e-17
1.7187536540008774e-18
-1.2187648231796104e-18
6.316742974677653e-19
-1.1316631282890327e-18
-1.58822534945372e-17
5.590558835403706e-17
-2.3644924312836628e-17
-1.6378410546663234e-17
-7.410573364688682e-19
-7.372208771319827e-19
1.127697372729648e-18
3.505808408712029e-19
1.6571306473451404e-18
-1.279733204950882e-18
-1.302847633915109e-18
9.254501915208506e-19
0.0
0.0
0.0
0.0
-1.01346853285406e-18
-1.005697560050661e-18
8.51577541647913e-19
1.1675885512568077e-18
-2.710702172623778e-19
-2.6784929848560193e-19
-2.7408791559004015e-19
8.130074313380198e-19
-7.473334098754722e-19
-7.404155162202123e-19
1.1184979079642173e-18
3.6925101813146714e-19
0.0
0.0
0.0
0.0
1.3846510149012244e-18
-1.548312457091184e-18
-1.57898033321113e-18
1.74264177540109e-18
0.0
0.0
0.0
0.0
-1.2221720554679215e-18
-1.2121423900355438e-18
2.5130374223126905e-18
-7.872297680922536e-20
0.0
0.0
0.0
0.0
0.0
0.0
0.0
0.0
0.0
0.0
0.0
0.0
-4.804075030798879e-19
-4.746976731490761e-19
1.3865354829412717e-18
-4.314303067123075e-19
0.0
0.0
0.0
0.0
2.192184962442707e-18
-7.476406327550908e-19
-7.65057504557065e-19
-6.794868251305516e-19
4.413383580880598e-18
-1.4799904957415667e-18
-1.4881840823212932e-18
-1.445209002817738e-18
0.0
0.0
0.0
0.0
0.0
0.0
0.0
0.0
0.0
0.0
0.0
0.0
-2.710705023081526e-19
-2.678491616240942e-19
-2.740879366088616e-19
8.130076005411084e-19
-2.6697930371624557e-19
-2.6574742782409947e-19
-2.6811371903673643e-19
8.008404505770816e-19
-2.316167356279097e-18
-2.288640382276952e-18
1.4026325656883219e-18
3.2021751728677267e-18
-7.479359617503193e-19
-7.40744556939088e-19
1.117638495504322e-18
3.7104202318508543e-19
8.232938326729416e-18
-3.522885984347422e-18
-3.5992763036483635e-18
-1.1107760387336327e-18
0.0
0.0
0.0
0.0
0.0
0.0
0.0
0.0
0.0
0.0
0.0
0.0
-5.3389346157645574e-17
4.1675725576703383e-17
4.400359369018096e-18
7.313261211924079e-18
-1.2029996573820488e-18
-1.2876228652995101e-17
1.1227518382813425e-17
2.8517099275637196e-18
-2.1677845463301687e-17
6.20085062329535e-17
-2.3360952988556547e-17
-1.696970778109526e-17
-5.633501385680427e-19
-1.2248871335672308e-17
6.261669699423564e-18
6.550551774816789e-18
-2.19097472635315e-18
-2.1658057170878143e-18
5.274625494998631e-18
-9.178450515576671e-19
-6.955179202471545e-19
-9.455200911293674e-18
1.4716641180091556e-17
-4.56592234855073e-18
-1.5911763574747912e-18
-7.416887444774093e-18
7.422290411751887e-18
1.5857733904969982e-18
1.0176250627272024e-18
-2.5242533066905804e-17
1.3535086357140673e-17
1.068982164703793e-17
-2.710683890788436e-19
-2.678483853721118e-19
-2.7408510146419164e-19
8.130018759151471e-19
1.766548781199601e-18
-7.010839174808887e-18
2.217058204181167e-18
3.027232189428121e-18
5.483577518746561e-16
5.381141193368612e-16
-4.255723839137043e-16
-6.608994872978215e-16
2.897335110225723e-17
-1.3941042389815264e-16
5.1714146759142106e-17
5.872292603675236e-17
8.99704935099482e-17
-9.06610678999799e-17
2.3490445937724438e-19
4.556699306541566e-19
2.5279472972726802e-17
-3.3325846891914287e-17
2.5869124083526088e-17
-1.7822750164338592e-17
-1.3639513185320156e-17
2.087072413257865e-17
-6.910428109249929e-18
-3.207828380085643e-19
-2.587237501899832e-18
-2.556491875606018e-18
1.1285414229352581e-18
4.015187954570591e-18
6.507468204541925e-18
-8.745438182336306e-18
1.1442400265424578e-17
-9.20443028763019e-18
6.452689180213708e-18
-1.1136784766480095e-17
5.51387399968193e-18
-8.297784134155484e-19
-1.2551818078218731e-17
1.902977218246768e-17
-1.3012589324776896e-18
-5.176695171771244e-18
-4.14290372622469e-18
-4.097903692731698e-18
1.4318486790382103e-18
6.8089587399181776e-18
-8.032453739822022e-19
-7.984627421500578e-19
-8.076713501016053e-19
2.4093794662338656e-18
-1.201113736605889e-17
1.8873479698327468e-17
-2.39672980624573e-17
1.710495573018879e-17
-4.734214375254432e-18
-1.9246840929241754e-17
1.4006085567735084e-17
9.974969736761105e-18
7.4434563681905e-18
-1.3056595036414184e-17
9.136672005607897e-18
-3.5235333373842126e-18
4.4372259455240482e-16
-2.7566052012555977e-16
-2.5262351201485124e-16
8.456143758800757e-17
8.841316620367957e-17
-8.963720531110088e-17
-1.1597925864617686e-16
1.1720329775359683e-16
1.2374482374391528e-17
-8.185911349219158e-18
-8.540767637326957e-19
-3.3344942614396726e-18
-1.2330058731940225e-17
-2.392433327723512e-17
-3.717418740810796e-18
3.997181074998612e-17
5.812059953777324e-17
3.207421280267003e-17
-5.159894519995262e-17
-3.859586714049075e-17
1.0720127809710764e-17
-3.990791281595126e-18
-4.0548443483812576e-18
-2.674492179734382e-18
0.0
0.0
0.0
0.0
0.0
0.0
0.0
0.0
-2.992599478801612e-18
4.5486338858839774e-17
-1.7760927720434272e-17
-2.473281165960388e-17
-1.5504713820854343e-18
-1.53881874296904e-18
3.109780839545736e-19
2.778312041099901e-18
0.0
0.0
0.0
0.0
-1.1372073610722231e-17
2.653100000271986e-18
-6.7078173004956324e-18
1.542679091094587e-17
2.320130914675038e-17
-6.46858205893317e-17
3.4724559673214745e-18
3.801205547525983e-17
2.7900141282110696e-19
-8.487550415760587e-18
4.463861696754027e-18
3.7446873061854534e-18
0.0
0.0
0.0
0.0
0.0
0.0
0.0
0.0
-1.1197425957824633e-16
-4.3307023510376894e-17
-2.2128715952919076e-16
3.765684426178017e-16
2.224448662813253e-17
-2.1758361437398722e-17
-1.6072631452557671e-18
1.1211379545219543e-18
-4.804038929784958e-19
-4.746962788044707e-19
1.386540428402243e-18
-4.3144025661927636e-19
9.797301833613647e-18
-1.657165462889766e-17
-7.539931143647691e-18
1.4314283938931698e-17
7.806340069804564e-18
-1.2700844558773401e-17
3.889383948443669e-18
1.005120540525166e-18
-7.516832980875751e-17
-2.4336596918510687e-16
-5.197429339781635e-17
3.7050859239167514e-16
1.9252602546271047e-18
-1.0133591053797147e-18
-1.0330950672594824e-18
1.211939180120924e-19
-1.4038720234209763e-17
-3.150671470200135e-17
-1.1345543540940274e-17
5.68909784771514e-17
-1.9760394808088226e-17
3.752661012608738e-17
-1.4411255779442244e-17
-3.3549595385568895e-18
6.453297783391798e-19
-2.2846511242408246e-18
-4.487438373287528e-19
2.0880651832303982e-18
-5.107457672323452e-18
-1.3809664647500324e-17
8.378765391033022e-18
1.0538356928790747e-17
0.0
0.0
0.0
0.0
-1.2983068429753037e-17
3.3226223649405334e-17
-9.34721462415173e-18
-1.0895940595500568e-17
0.0
0.0
0.0
0.0
0.0
0.0
0.0
0.0
-4.014936398555006e-18
-3.973580873032246e-18
5.307825882046188e-18
2.6806913895410647e-18
-2.6984037977211066e-17
4.211623507303021e-17
-3.232433568234027e-17
1.7192138586521167e-17
6.1633308283708474e-18
-1.434524795244711e-17
3.75526357336869e-19
7.806390766739394e-18
1.6603948327142706e-17
2.1089256829060934e-17
-5.174046961541133e-18
-3.2519158194662476e-17
3.511718986839402e-18
-2.2832353126583516e-17
1.423591662282512e-17
5.08471751691899e-18
3.7901963215434325e-17
-3.839524428766071e-17
-7.286002216257868e-18
7.77928328848426e-18
-2.7107029571310436e-19
-2.678492245663252e-19
-2.7408786716596044e-19
8.1300738744539e-19
1.418274213871396e-17
-1.5145852247521667e-17
3.2681866111428807e-18
-2.3050765023351747e-18
-1.871073254306246e-18
-2.2283850029210258e-17
3.485207927634879e-18
2.0669715355881637e-17
8.59204251523249e-18
-1.4854433498461334e-17
7.334337914887592e-18
-1.0719469316587519e-18
3.3039895917251554e-18
-2.5646816605885694e-18
-2.620762566119551e-18
1.8814546349829654e-18
-1.2591531943846245e-17
3.362632265324057e-17
-1.2708494772538498e-17
-8.326295936855827e-18
1.8778408674667654e-17
4.3660214290139066e-17
-3.267987982837937e-17
-2.9758743136427334e-17
2.6261397921168975e-18
-3.240165261564745e-18
4.438133310856736e-19
1.7021213836217362e-19
0.0
0.0
0.0
0.0
0.0
0.0
0.0
0.0
4.865668912270841e-18
-2.7334684357168292e-17
-9.069316663499194e-18
3.1538332108396635e-17
9.721783763346895e-18
-7.891133426874991e-18
-6.173621081280871e-18
4.342970744808964e-18
-1.0208162993125318e-18
-1.0095423077392614e-18
8.409317156975379e-19
1.1894268913542554e-18
-9.409863424482022e-18
-2.1001387410107043e-17
1.6050163061279657e-17
1.4361087773309417e-17
-1.717540758350028e-19
-3.090109284374953e-18
-1.2767376252332213e-18
4.538600985443177e-18
2.6144971824412672e-18
-3.2460893100538293e-18
4.2675497092441385e-19
2.0483715668814831e-19
1.4402026439099349e-18
-4.404460414230633e-18
4.854406715135094e-18
-1.8901489448143957e-18
-2.560628224350861e-19
-3.173899886168618e-18
4.255277059648731e-18
-8.253143510450268e-19
1.1737771447890728e-18
-1.7558979756471565e-18
7.936036129809002e-20
5.027604695599937e-19
1.0435483050419253e-18
-7.737998471457553e-18
3.370218271165889e-18
3.32423189524974e-18
-1.1991671987902696e-18
-4.1030857539185046e-18
-4.454052103964189e-19
5.747658163105194e-18
2.774700863832964e-18
-3.0938245158462855e-18
-3.1501179523732635e-18
3.4692416043865853e-18
-7.514815315352607e-19
-7.425451476114252e-19
1.1124472774234519e-18
3.8157940172323397e-19
6.8105102127153984e-18
-2.247466469362282e-17
-3.997257839700619e-19
1.606388026487749e-17
1.2293196938632634e-17
-4.9123119163659267e-17
2.2911276055866586e-17
1.3918646169160095e-17
4.4499509617047176e-18
-7.278173620855853e-18
8.114675295564208e-20
2.7470759061954936e-18
-1.7277458704004777e-17
-1.0026491181588023e-16
-6.745346564471774e-18
1.242877170843568e-16
5.864556818387086e-18
-5.867641534614248e-18
-4.11743697143976e-18
4.120521687666922e-18
-9.854448559093106e-18
-3.018930784692761e-17
2.351337375111502e-17
1.653038265490572e-17
1.9562191432047285e-18
-9.756744315327798e-18
3.1901101297056045e-18
4.6104150424174655e-18
4.5461465622572875e-18
-4.256193528582136e-18
-5.969745628252441e-19
3.0702152915009244e-19
-2.51505887757314e-18
-2.490154495193499e-18
3.078537651440464e-18
1.926675721326174e-18
-6.903528592810263e-18
-1.5602811944509754e-17
8.452394462159922e-18
1.405394607516009e-17
-1.71144250245879e-16
2.376480986881294e-16
-1.0244782961105306e-16
3.594398116880176e-17
-8.046422004942987e-19
-9.558949735837453e-18
3.3688502819169154e-18
6.994741654414834e-18
-1.4837696744712698e-18
-1.0223673201826184e-17
-1.068414897455013e-18
1.2775857773752463e-17
-1.883070184135061e-18
-1.8674814359593693e-18
-1.897616572720145e-18
5.648168192814575e-18
-5.421431433618846e-19
-5.356998399039965e-19
-5.481798366046684e-19
1.6260228198705497e-18
-1.6573661176049908e-17
2.961237728694422e-17
-1.1043444499121485e-17
-1.9952716117728162e-18
-1.0442943722609837e-17
3.285741464086637e-17
-1.3538557502282902e-17
-8.875913415973628e-18
6.796598707996995e-18
-1.661866841244505e-17
9.254181768878143e-18
5.67887935569899e-19
1.9388717639382505e-18
3.222590215319162e-17
-1.2723891469661282e-17
-2.1440882447468598e-17
1.3591339962977983e-17
-6.976170084888944e-18
-3.3752435735079095e-18
-3.239926304581128e-18
-8.927210828245385e-18
2.2675064692412743e-17
-7.058260754508022e-18
-6.6895931096593216e-18
3.852403657958128e-18
-2.8322674638010376e-17
1.1273584282883597e-18
2.3342912551763903e-17
-2.920045183626398e-18
-2.8853391894966023e-18
-1.0802570458317891e-18
6.885641418954791e-18
1.1984459961224087e-17
2.5207426306514964e-18
-5.166061590116618e-18
-9.33914100175897e-18
-9.09839056391677e-20
-3.0192595581896887e-18
6.856800897053094e-19
2.4245633741235464e-18
0.0
0.0
0.0
0.0
-3.8768748633151755e-19
-3.3004300055445776e-18
3.743299431421333e-19
3.313787548733962e-18
-3.03541232138266e-17
9.83131015592937e-17
-5.437629552576175e-17
-1.358268281970583e-17
-1.2936188201192007e-18
-1.2782451574576866e-18
5.642718242619166e-19
2.0075921533149706e-18
9.60304046305843e-19
-1.964885724691487e-18
1.7339282883267618e-18
-7.293466099411182e-19
0.0
0.0
0.0
0.0
-1.1914008014047578e-17
2.783566258852338e-17
-4.312688772911663e-17
2.7205233154640916e-17
-6.156782735633608e-18
-6.102853722294958e-18
3.154373488291151e-18
9.105262969637417e-18
8.999545052833794e-19
-5.4619885551284926e-17
6.18379222514585e-18
4.753613882085562e-17
0.0
0.0
0.0
0.0
8.485233579332138e-19
-2.080828750237887e-18
-2.118485249949955e-18
3.3507906422546283e-18
-2.075204675694487e-17
-1.2393539005800278e-17
-9.096392202262238e-18
4.2241977965007346e-17
2.0897795864263676e-18
-3.773056948540224e-18
-9.571222701818736e-20
1.7789895891320437e-18
-2.245994950056521e-17
1.2208640571398667e-17
1.5949088594169486e-17
-5.697779665002935e-18
-3.046627270886616e-17
4.6847289617409475e-17
-3.899426077840939e-17
2.2613243869866096e-17
-2.4574506142100123e-17
6.498091149162188e-17
-2.4077807650490054e-17
-1.63285976990317e-17
-2.7107303509172956e-19
-2.6784793770744276e-19
-2.740881116973281e-19
8.1300908449650035e-19
0.0
0.0
0.0
0.0
0.0
0.0
0.0
0.0
-2.7948630336925566e-18
-2.7625033711079327e-18
2.7917293259844493e-18
2.7656370788160396e-18
2.8475326567308e-18
-8.854703768948983e-18
7.815801920543973e-18
-1.8086308083257924e-18
-2.320298946858791e-17
-2.3592279297587725e-17
7.59855127484405e-18
3.9196717491331565e-17
-2.7391895998117487e-17
5.3364769216822706e-17
-5.828311741980594e-18
-2.0144561476724643e-17
-2.2037401317598523e-17
3.828979342670095e-17
-1.0081292746012025e-17
-6.171099363090406e-18
-5.521070716593444e-19
-6.38667767937451e-18
-8.917963636178e-19
7.830581114651655e-18
-1.8062996327005317e-18
-4.712899834142544e-18
4.5669484612191705e-18
1.9522510056239065e-18
0.0
0.0
0.0
0.0
2.1684864379248876e-19
-2.7033004916554007e-18
2.858118004648143e-18
-3.716661567852312e-19
1.9696790806741526e-17
-1.324658465885928e-17
-1.1785958687781332e-17
5.3357525398990845e-18
2.65367399215194e-18
-2.3636856475769458e-17
-1.650942540640609e-18
2.263412502425814e-17
-1.154600107829362e-18
-4.0796253139251376e-18
-3.809707200444173e-19
5.615196141798918e-18
3.135851858850776e-18
-1.7327207397153843e-17
4.794681145610406e-18
9.39667439269267e-18
1.4028781745713265e-18
-4.4526993720257104e-18
2.955071195696995e-18
9.475000175738856e-20
-5.396875274027862e-17
1.0622782897952342e-16
-9.790137153393931e-17
4.564229529469294e-17
6.480622164693151e-19
-2.2831156941290564e-18
-4.4490514056296065e-19
2.079958618222702e-18
1.041173870819312e-17
-4.8751247982986416e-18
-5.216836032240016e-18
-3.197778776544648e-19
1.707998852650048e-16
-6.862737290696763e-17
-2.849385568069975e-17
-7.367865667733704e-17
2.1676106186940678e-17
-1.7117221630570462e-17
-6.387693802223725e-18
1.828809245853555e-18
5.042374953226381e-18
-1.5447141059412617e-17
6.725869238912377e-18
3.6788968672738565e-18
-1.8889753259163835e-18
1.7923809613269053e-17
-9.947642228098227e-18
-6.087192059254438e-18
0.0
0.0
0.0
0.0
-3.4557350890314825e-17
4.635240363326837e-17
-2.0627392865801248e-17
8.832340122847684e-18
1.0456300627570668e-17
-1.5928448286911044e-17
4.367629017741286e-18
1.1045186415990898e-18
-7.294736104163662e-18
1.5537060923408508e-17
-8.726509076465413e-18
4.841842572205666e-19
-1.0714725262651271e-17
3.258933053626584e-17
-1.3813766422307114e-17
-8.060838851307454e-18
1.9483904800948195e-17
-2.157144407295566e-17
6.0714309138422314e-18
-3.983891641834773e-18
8.072100803762198e-17
2.975162262199386e-16
-1.7225287751208985e-16
-2.0598435674547705e-16
-1.974591938836564e-17
9.483089615510325e-17
-3.526458236237427e-17
-3.9820394404363365e-17
3.628595558437305e-17
-6.039471804568931e-17
2.2638519005972226e-17
1.4702434553440564e-18
2.0767899990556933e-17
-2.968401223808892e-17
6.992889363823186e-18
1.923222883708815e-18
2.3666960385769903e-18
-3.502021184461419e-18
1.8670712921680517e-19
9.486180166676227e-19
-1.952018369591668e-18
-1.0720774856190636e-17
-1.5094142246401555e-18
1.418220745042246e-17
-1.7800683983744843e-17
5.120469629129793e-17
-2.30521750946216e-17
-1.0351837212931487e-17
1.6835522145179897e-17
-1.5429068010176528e-17
1.0877595524850488e-18
-2.494213687488417e-18
-3.702276703859844e-18
-2.1174879099794734e-17
1.5844562179114945e-17
9.032593624539645e-18
-1.0400605451822594e-17
1.829156333475698e-17
-2.82752707994386e-19
-7.608205174940002e-18
-1.5711609128930492e-17
4.749162933817567e-17
-1.9461909954980122e-17
-1.2318110254265047e-17
-2.9761477606252145e-17
7.115938770248873e-17
-5.014663587851347e-17
8.748725782276804e-18
-1.8819941344976928e-18
-7.712577750563727e-18
-2.2253719448440622e-18
1.1819943829905485e-17
0.0
0.0
0.0
0.0
-1.8476632944509097e-15
1.4416797881656087e-15
1.6399241196595202e-15
-1.2339406133740845e-15
-4.330117531680427e-18
-7.235992486537305e-18
5.78718499283262e-18
5.7789250253851135e-18
1.9252631267043388e-18
-1.0133581623847203e-18
-1.0330913889349121e-18
1.2118642461529338e-19
1.1375550688956412e-18
-1.8036771201982003e-18
-1.818256620611986e-18
2.484378671914545e-18
-3.9197916844746235e-18
-6.837423840792669e-18
9.953088601780367e-18
8.041269234869226e-19
-8.80567278560616e-18
-8.742304555488099e-18
1.7347318675385477e-17
2.0065866570878062e-19
-4.300962063042896e-17
2.3268361670534756e-17
3.096396558154451e-17
-1.1222706621650276e-17
1.456395752005792e-18
-1.4818724731095667e-18
3.70003839869139e-19
-3.445271187653645e-19
-1.119221374166654e-18
-1.5717162262462265e-17
1.7701250407615128e-17
-8.648667709862074e-19
-9.4278468652214e-19
-9.39899199869608e-19
2.799130717314062e-18
-9.164468309223134e-19
0.0
0.0
0.0
0.0
-2.47709348499275e-18
-5.384406290809386e-18
7.641469270383091e-18
2.2003050541904655e-19
-1.7059386567316005e-17
2.0434626457806114e-17
-1.798042009589357e-18
-1.5771978809007445e-18
0.0
0.0
0.0
0.0
0.0
0.0
0.0
0.0
0.0
0.0
0.0
0.0
0.0
0.0
0.0
0.0
0.0
0.0
0.0
0.0
0.0
0.0
0.0
0.0
0.0
0.0
0.0
0.0
0.0
0.0
0.0
0.0
3.375179378990736e-18
-5.412725368831533e-18
3.835356520468667e-18
-1.7978105306278694e-18
-2.984575928404165e-18
-2.8002132484645726e-17
8.306295576625676e-17
-5.207624735320715e-17
9.330702184005662e-18
5.657143037047468e-18
-1.1181948498044861e-17
-3.805896723008264e-18
-5.768422513443059e-17
5.2504361802306844e-17
5.222338533104212e-17
-4.704352199891927e-17
9.005916763851827e-18
-6.888349668974015e-17
6.223562850980391e-17
-2.3580485839157316e-18
2.192186294307782e-18
-7.476412787474438e-19
-7.650574161295141e-19
-6.794875994308243e-19
-3.1391466976783903e-16
2.347209305421664e-16
1.7487004097433183e-16
-9.567630174866317e-17
-6.482997316450446e-18
6.186393794784153e-17
-1.8128662820566823e-17
-3.725227781082423e-17
-9.282292127635134e-19
-3.0763860475007554e-17
2.4685674368523495e-17
7.006415319247607e-18
-1.393253671236982e-16
2.3556345718704566e-16
6.215820330268887e-17
-1.5839629336603822e-16
-3.7896520749298455e-18
1.5339909156353933e-16
-6.718460068888087e-17
-8.242483879973236e-17
-9.16318669281495e-18
1.9528879350881667e-17
6.571403238736278e-18
-1.6937095896802992e-17
-2.8110171515927694e-16
2.0809271291703243e-16
-1.715382559672634e-17
9.016282783897082e-17
-4.803840646402746e-16
5.652689610287324e-16
2.377247114112781e-17
-1.086573675295905e-16
-3.4132879769035873e-16
3.112580223026028e-16
2.6204541463902705e-17
3.8662339238514454e-18
0.0
0.0
0.0
0.0
-1.9958865995389502e-16
7.935812404751005e-17
5.434387000399397e-17
6.588666590238951e-17
1.55100999168111e-17
-3.7197679062461307e-17
2.012554382111308e-17
1.5620353245371377e-18
5.3938340546460735e-17
-2.5096313820536628e-17
3.757125936551866e-17
-6.64132860914425e-17
-1.584315020956867e-16
-1.529764358398386e-17
7.330970377999615e-17
1.0041944189967161e-16
1.3355491527681391e-17
-1.0139588093765684e-17
9.094563839110007e-19
-4.125359817826712e-18
-2.834639747637048e-17
-1.5587438171836518e-17
-1.9044632860814592e-17
6.297846850902149e-17
5.830681908047427e-17
-7.653865002716182e-17
1.3654758436850766e-17
4.577072509836683e-18
1.0097854270382866e-18
-2.8171894736958856e-17
2.5531130690329407e-17
1.63097861959117e-18
-5.4113689648054817e-17
7.431812476204263e-17
5.1750401810998363e-17
-7.195483692498628e-17
2.825517790020884e-17
-1.8385710761897546e-18
-1.7037127888188435e-17
-9.379478935830647e-18
1.3981654854739146e-17
-2.701051830701978e-17
6.126834451398122e-18
6.902029000882516e-18
1.2445926875038638e-16
-7.841664114336712e-17
-8.830478675975058e-17
4.2262159152730324e-17
2.081176844766154e-16
-1.6348497883596665e-16
1.3013130014210624e-16
-1.7476400578275694e-16
3.7066399903796684e-18
-6.129716342466457e-17
-3.9968865627423516e-17
9.755938906170856e-17
-3.669374580606668e-17
7.793524278107517e-17
-5.787656229133502e-17
1.6635065316326418e-17
6.615372859873599e-17
-1.890984234445883e-16
-4.868593995056519e-17
1.7163063479641553e-16
-8.500359608288245e-19
-3.765690118092433e-18
1.787054234646879e-18
2.8286718442743784e-18
1.4147442317597804e-17
-7.076234076388118e-18
-1.483093318717609e-17
7.759724945966435e-18
3.1073510532955196e-18
-2.7649813018698238e-18
-9.41627196748533e-19
5.992574453228368e-19
6.035140220334207e-18
-5.243376561576235e-17
2.5220703512732567e-17
2.1177921882695638e-17
-2.3655851888890824e-17
2.789718514023887e-17
-9.379978360997257e-18
5.138645109649219e-18
6.896234057513269e-17
-8.51208970177418e-17
-4.4651408311938163e-17
6.080996475454683e-17
3.246699416861942e-17
-2.6271523892397935e-17
1.3525658308212936e-18
-7.548036107042768e-18
1.9485740457517163e-17
-2.1605704765841645e-17
-1.2615562188366517e-17
1.473552649669101e-17
1.1340490643075087e-17
1.936400730732749e-17
-1.9753144286216227e-17
-1.095135366418633e-17
1.5796852401985677e-19
-2.762863570170097e-18
9.27563119632679e-19
1.677331926517561e-18
1.846467852330624e-17
-2.2598201855879454e-17
-2.429713941632343e-18
6.563237274205554e-18
-2.325249762290925e-20
-1.1697174268923428e-17
1.6152325811230694e-17
-4.431899044684358e-18
5.1169884855997815e-17
1.0363047130496788e-17
-2.973899495163445e-17
-3.1793937034860235e-17
-1.0069260386134311e-17
1.271499237330293e-17
-2.0942204239075706e-18
-5.515115632610533e-19
1.8379760661167266e-18
-4.030525970977256e-18
-3.422271912366548e-19
2.534777096097186e-18
-7.612577109107151e-18
4.673233650894281e-17
-1.6453527668150152e-17
-2.266623173168553e-17
3.634073695155482e-18
-1.3910955098283e-17
8.27026414203908e-18
2.0066172610884325e-18
1.8032382200276557e-17
-1.1953778194026679e-17
-1.1482730901628057e-18
-4.9303309160870815e-18
7.674559645596814e-18
2.100045630656419e-17
-2.771885802871182e-17
-9.561579234490946e-19
1.6517792280674507e-18
-1.2824834136361198e-18
-1.3106560721883542e-18
9.413602577570234e-19
-1.5047325836465983e-17
5.040666077017078e-17
-2.407654959748585e-17
-1.1282785336218982e-17
-1.2747359865306997e-17
3.0574958723194535e-17
-1.211894811041999e-17
-5.708650747467552e-18
4.3451182052956696e-17
-3.871869652993457e-17
-3.9135392022535186e-18
-8.189463207685959e-19
9.7116361135732e-18
-3.124437878590545e-17
1.1184610634058184e-17
1.0348132038274075e-17
3.134618494548248e-19
-5.527179522945783e-18
1.8517275339438728e-18
3.361990139547086e-18
1.2429330847662104e-18
4.96024488512803e-17
-2.0901985000579817e-17
-2.9943396935466704e-17
2.4397650181922755e-17
-4.590412799468412e-17
1.3100116843797279e-17
8.406360968964117e-18
-1.4202842310567107e-17
-1.1771337631908169e-17
6.5610715179300524e-18
1.941310842454523e-17
0.0
0.0
0.0
0.0
-2.5130120121383106e-18
-1.418075131142522e-17
2.4233066100140106e-18
1.427045671354952e-17
-2.009860544826064e-17
3.137946066894187e-17
-1.511370406867531e-17
3.832848847994076e-18
1.026182739085399e-18
-7.765121555261432e-18
-5.999332307995325e-18
1.2738271124171361e-17
1.6478647250195397e-17
-3.696585135270074e-17
-7.691648304757994e-18
2.817885240726338e-17
-1.0463964639275003e-17
-8.19200655157737e-18
-2.3250535425905483e-17
4.19065066167579e-17
9.856386235062245e-17
-7.810090970531414e-17
1.7353743460084587e-17
-3.7816696105392916e-17
-1.8486139288301824e-17
5.913101220615957e-17
-2.5904529447997167e-17
-1.4740343469860572e-17
2.32081799636472e-19
-2.695233517192829e-18
2.88004578825204e-18
-4.1689407069568306e-19
-1.0180039021609632e-15
7.514720025168814e-16
1.0725654868542874e-15
-8.06033587210164e-16
-1.3671030761984052e-17
3.7818821725960485e-17
-2.1803343427661906e-17
-2.3444475363144926e-18
-5.914349133487478e-17
7.616932264674988e-18
-4.203537276120141e-18
5.573009634631994e-17
-4.5611638956115184e-17
1.274459908411731e-16
-4.662345808503692e-17
-3.5210893800020994e-17
4.478991289152986e-17
-1.517791441269714e-17
-1.791624503850352e-17
-1.1695753440329157e-17
6.748778219516516e-17
7.688024791599222e-17
5.609904571818894e-17
-2.0046707582935737e-16
7.326907186807265e-17
-1.009755319347019e-16
1.2835721520621001e-17
1.4870738546008213e-17
1.1282937187450414e-16
1.5762099556477062e-16
-3.139033252103838e-17
-2.3906003491824436e-16
2.6843156725892837e-17
-3.180474398026373e-17
-6.113875417328947e-19
5.572974796103809e-18
-9.100830330507342e-17
-2.0526916824860975e-16
-2.259060915536281e-16
5.221835631073067e-16
8.620886013150206e-19
-7.901906368242469e-18
6.916810326309283e-18
1.2300744061816308e-19
5.402674224106111e-16
2.333046927504846e-16
9.115373622498714e-17
-8.647258513860837e-16
2.3606874361251466e-17
-2.62908965375123e-17
-2.3998510540470595e-18
5.083873230307889e-18
2.0979498990783066e-19
-2.7069619470552853e-18
2.8478229065981696e-18
-3.5065594945071484e-19
-1.7184024875515918e-17
4.492434590129497e-18
-3.716819242284505e-17
4.9859782708231515e-17
-9.326960652688013e-17
-1.1365359741221618e-16
6.045463803444953e-17
1.4646856590464545e-16
-1.1545885741038381e-16
-2.563393448215996e-16
1.184232903203693e-16
2.533749119116078e-16
-4.798243332024673e-20
-2.9679882335984415e-18
2.593166299530849e-18
4.228043673878388e-19
-6.927773808247606e-17
2.243409993985962e-18
-4.8224247153886455e-17
1.1525857524237666e-16
2.4904651731917046e-17
-4.5507661282133584e-17
-1.0628418425434836e-17
3.123142797565139e-17
5.860593939262661e-17
-5.968091560060752e-17
-1.299674910707866e-17
1.4071725315058828e-17
-2.741498176014585e-17
-5.942166566076748e-17
-1.3445593174570737e-17
1.0028224059548414e-16
-1.9053598208984974e-18
-9.077043703834184e-18
-5.649045228291797e-18
1.6631448753024532e-17
-2.0375753942981784e-17
-2.7372967119192957e-17
-3.68702527580298e-18
5.143574633797767e-17
1.4446718603369008e-17
-3.2447142398887654e-17
6.987361068275197e-19
1.7301687688691144e-17
-1.728018842419961e-17
2.901037612863746e-17
-2.4865434719298844e-18
-9.243644232507952e-18
-1.0719102817442198e-17
1.1371101117685808e-17
-4.654889911013259e-17
4.5896900809889e-17
1.749356391387566e-17
5.0314547426704005e-18
-1.004809914860885e-17
-1.2476919507937223e-17
-1.06690426763707e-17
2.6697094810272682e-17
-1.0265508161492856e-17
-5.762543972409125e-18
-2.068807657805788e-18
-3.712547547070678e-17
-9.677474792165667e-18
4.8871757920678207e-17
6.269319870914928e-18
-8.38660799161587e-18
4.549303071572477e-18
-2.432014950871534e-18
-2.495501840234332e-17
4.415418383417285e-17
-7.836841016877799e-18
-1.1362324414951724e-17
-1.2521244299445968e-17
4.7670633935901066e-17
-1.728856446982235e-17
-1.786082516663276e-17
-2.838737497157029e-17
1.1532309364733202e-16
-4.591431348955456e-17
-4.1021405186207195e-17
-7.54789134831441e-17
8.55171894900758e-17
-6.321513163225537e-17
5.317685562532382e-17
-1.12089107695151e-16
-3.71522287930119e-17
-7.167408287304862e-17
2.2091541936120976e-16
7.046782229212882e-17
-1.5810938536260352e-16
-1.5233619626103342e-16
2.399777593314969e-16
1.3411251786258841e-17
3.691632996047819e-17
-4.5156610221044406e-17
-5.170971525692511e-18
4.73814906959234e-17
-1.817897127693446e-16
-5.935200621622436e-17
1.9376022828964378e-16
-4.567205934886017e-18
1.528035335955355e-17
-3.296746958913491e-18
-7.416400465754042e-18
-1.4743152124199508e-17
1.0972604861129196e-17
-7.547367161759832e-18
1.131791442483015e-17
3.311930779885274e-17
-1.166145375262301e-17
-1.0118823023533386e-17
-1.133903102269634e-17
0.0
0.0
0.0
0.0
4.8515792650206444e-18
-9.816442700954878e-18
-6.018550342830994e-19
5.566718470217331e-18
3.8875673801540716e-18
7.683624303262714e-17
-5.945730702176184e-17
-2.126650339101948e-17
-6.975240022886957e-18
-6.937413472597011e-18
4.78791523553054e-19
1.3433861971930915e-17
-7.288203545951858e-18
-7.952638727434575e-18
-5.680654409917812e-19
1.580890771437822e-17
5.17930417359368e-18
-2.700991462353708e-17
9.956980520503723e-18
1.1873629929439676e-17
-2.093417522165139e-17
5.097373620389729e-17
-1.3831757219311647e-17
-1.6207803762934244e-17
-1.720668855431919e-17
-3.5793975545338494e-17
-3.14510040454367e-18
5.614576450420136e-17
-1.296592769002538e-17
-4.209584683003402e-17
7.763373452261624e-18
4.7298401067797756e-17
9.993950118023616e-18
-1.3479290065997506e-17
1.2722672199248241e-18
2.213072728049064e-18
-4.853915657277038e-18
-2.8172933952107057e-17
3.1307024977249057e-18
2.989614711165919e-17
3.584460627535961e-18
-1.398330120962714e-17
-2.991549791187722e-18
1.3390390373278896e-17
-2.1364773755298872e-17
1.9119080281916173e-17
-1.6299035305397894e-17
1.854472877878063e-17
6.345801933272327e-19
-2.2901291264907596e-18
-4.6448946127426045e-19
2.1200383944377875e-18
-1.478326909879839e-17
1.394309711169763e-17
9.192925961771339e-19
-7.912060907638076e-20
-3.6694117200009493e-19
-3.289438408716136e-18
4.0424510287783117e-19
3.2521344778384003e-18
-5.075484963475176e-18
-2.6634518137352983e-18
2.693956598023257e-17
-1.9200629203022067e-17
1.1743464005722201e-17
-8.807893678202038e-18
4.1232952052259536e-18
-7.058865532746116e-18
-1.318247570369409e-17
5.290333228843808e-17
-2.702798378778153e-17
-1.2692872796962475e-17
2.249281324353848e-18
-1.8219828602557922e-17
1.7019807020498083e-17
-1.0492597422940117e-18
-5.421407048951191e-19
-5.356984416629086e-19
-5.481758130718807e-19
1.6260149596299084e-18
-1.2375129289459734e-18
-1.0676773993022803e-17
7.802369768330115e-18
4.111917153638663e-18
2.6312614343798154e-17
-2.0660203116155033e-17
-9.829466477640853e-18
4.177055249997724e-18
-1.4106617804206489e-18
-1.6013328688118754e-17
8.052880669575986e-18
9.371109798963407e-18
-3.683380092411481e-16
6.859949049447932e-16
-1.3506841658764325e-16
-1.8258847911600582e-16
-1.282742923437157e-18
-4.1867314148008924e-18
5.087963121459601e-18
3.815112167784498e-19
5.6224205074350636e-18
-2.6565126691434528e-17
1.601489489347287e-17
4.927811290526602e-18
4.192194003653574e-18
-2.5012150037564946e-17
1.9373258601144874e-17
1.4466974327665015e-18
7.645476814969347e-18
-7.025481276985262e-18
-1.5500380489914912e-18
9.300425110074046e-19
-5.87395882630723e-18
-5.827890633914498e-18
3.4444025461491613e-18
8.257446914072568e-18
5.498969286180018e-18
-6.224931525527144e-18
1.126032571060926e-18
-4.000703317138009e-19
4.452450438794588e-18
-7.276395653398372e-18
8.42367147937925e-20
2.7397084998099914e-18
-3.915030265982685e-18
-6.79529909281155e-18
4.305750424131673e-18
6.404578934662562e-18
1.0342540898576703e-18
-2.2359912709266856e-17
1.4706123094290398e-17
6.619535525118779e-18
-3.5659119247322326e-18
-1.2344019994934357e-17
1.1863963511645361e-17
4.0459684080212265e-18
1.4752166239701924e-17
-1.459581721500711e-17
3.855838185646029e-18
-4.012187210340843e-18
4.340941764048575e-18
-1.322059816207697e-17
5.248103409516247e-18
3.631552988512142e-18
6.257133731813506e-16
-3.606991834290548e-16
-2.815789476938489e-17
-2.3685629498291307e-16
1.3970530071285593e-17
-1.5383173465339775e-17
3.0800842093661937e-18
-1.6674408153120229e-18
3.813261725524734e-17
-1.2798081003669713e-16
-4.8982877559188045e-17
1.3883107034063703e-16
1.5594750283638558e-16
-1.3964579062936475e-16
-1.214367696222471e-16
1.0513505741522156e-16
1.052837283817554e-17
-2.4657591898652406e-17
-8.19312480653209e-18
2.2322343867008954e-17
-1.7859491952727236e-17
-8.202943893433229e-17
-1.0096662614263348e-18
1.008985971484858e-16
-3.528226123321904e-19
-3.2821914185462255e-18
4.2486944225511154e-19
3.2101445886233048e-18
-8.013277228368178e-19
-7.974141246564591e-19
-8.049434281362898e-19
2.403685275629567e-18
7.709590935770236e-18
-2.1598124003143382e-17
2.393204880295914e-18
1.1495328187077238e-17
-1.0186567533023624e-18
-1.0084029299206903e-18
8.440511873346414e-19
1.1830084958884114e-18
0.0
0.0
0.0
0.0
4.040430553596768e-18
-7.687376036761387e-18
3.4160236977743282e-18
2.30921785390291e-19
-7.412361194411726e-17
-6.960761156402095e-17
1.3109988290027408e-16
1.263134060786319e-17
-1.1658440545901627e-17
-1.7410799270906294e-17
1.7882035174483186e-17
1.1187204642324736e-17
4.384378270994576e-18
-1.495277973629084e-18
-1.5301034724937217e-18
-1.358996824871771e-18
7.50979037500107e-19
-2.1717280910225923e-18
3.3945704003059256e-18
-1.973821346783441e-18
1.1787677372926029e-17
-1.4619586414615474e-17
-3.641240076598313e-18
6.473149118287755e-18
-7.171789421114053e-18
2.7332834661637707e-17
-1.3544353364302188e-17
-6.616691876221453e-18
4.3748064271642396e-17
1.4010610662549187e-17
-1.4844229831548e-17
-4.2914445102643726e-17
-3.528847365780312e-17
8.29650264284668e-17
-3.4041054227718253e-17
-1.3635498542945413e-17
3.9211448677970275e-18
-1.6576972019655476e-17
1.1229509666613556e-17
1.4263174852448885e-18
-2.710705552378375e-19
-2.678491061923826e-19
-2.7408789561988965e-19
8.130075570501097e-19
2.1370930447800315e-19
-2.7049870942445876e-18
2.853578445055159e-18
-3.623006552885751e-19
2.6857231884532926e-18
2.2501614580817497e-17
-1.0993610718484751e-17
-1.4193727050786032e-17
4.231442287745188e-19
-1.1257812861773313e-17
5.371562737965977e-18
5.463105895032817e-18
4.29069344834757e-18
-7.429434997218926e-18
3.6587879723365376e-18
-5.200464234651824e-19
3.701316915774618e-18
2.3508629565675304e-17
-1.1842348949648071e-17
-1.5367597531801835e-17
9.040880370649205e-17
-4.537362743261143e-17
2.1785321551144572e-18
-4.721370842899508e-17
-2.629095447559321e-18
-2.607217586883934e-18
-7.772156963650923e-19
6.0135287308083475e-18
1.7117891806681913e-18
-1.2223335149668968e-18
6.21494430256821e-19
-1.1109500959581158e-18
-1.0183974917992139e-18
-1.0082628699669396e-18
8.444177591752507e-19
1.182242602590903e-18
4.075109382069319e-17
-1.8636439346678087e-17
-7.99885507075173e-18
-1.411579940326336e-17
3.927483649195607e-17
-8.393329964428552e-17
-9.377253807977839e-17
1.3843100123210558e-16
-2.563198605628348e-17
2.165002418822883e-17
-3.082874768788483e-17
3.4810709555939634e-17
4.08392003778334e-18
-1.641337632285733e-17
1.5806200027026627e-19
1.2171394284803728e-17
-3.810694063112051e-17
6.4915458722499494e-18
-9.129249944714078e-17
1.2290789420601078e-16
-3.4990293612909215e-18
4.66393125287555e-18
-1.0383358169367256e-17
9.218456277782617e-18
-2.121325315861145e-18
-1.625329829485221e-16
2.328021627826964e-17
1.4137409198611248e-16
4.663596450265417e-17
-5.791705078327751e-17
-1.6427868034412814e-17
2.770895431503633e-17
-1.3180021093106632e-16
-3.499091918869406e-17
1.6741462166583474e-16
-6.234915460752902e-19
-5.311940561445836e-17
-2.0544392942471236e-16
-1.2202703923418265e-17
2.707660389625858e-16
-2.5106874172685708e-17
-2.059566241842161e-17
2.370476798388014e-16
-1.9134514324769664e-16
-9.036750620347686e-17
1.4505880293693122e-16
-7.701318359711056e-17
2.2321886863656156e-17
-8.080998931458335e-19
-8.009453341896931e-19
-8.147675248974574e-19
2.4238127522329837e-18
-1.9782517712646295e-18
-2.2425818890006142e-17
-2.206073274033406e-18
2.6610143935304186e-17
4.489489886653257e-18
-4.314360558255884e-18
-2.5245164433933794e-18
2.349387114996008e-18
4.9040909871670894e-18
-9.73089039802953e-18
3.163888030606301e-18
1.662911380256138e-18
1.6670578369427783e-17
-5.36021972401193e-17
5.346351257336103e-18
3.15852676133554e-17
2.1383930152688512e-17
-1.0498918350788201e-17
-9.559165822060959e-18
-1.3258459798393362e-18
-1.7181756649560576e-17
-2.0659695717055506e-17
5.185911584265336e-18
3.2655540782350743e-17
-5.046481563252887e-17
-3.025272080014101e-19
6.156361424846662e-17
-1.0796271407936533e-17
-1.194118761521068e-17
-1.7684080523061443e-17
1.7590244128783093e-17
1.203502400948903e-17
-8.077263577728672e-18
2.5766569029208312e-17
-2.2712004692336974e-17
5.0226992408573465e-18
-6.052466093179211e-18
2.999823968153663e-17
-5.213654962695814e-17
2.8190776038600806e-17
-2.710822471152603e-19
-2.6784348637247994e-19
-2.740887483282732e-19
8.130144818160136e-19
1.4588162451576412e-17
-2.9373047618463775e-17
1.931648061636594e-18
1.2853237105250781e-17
4.304617100314903e-17
-6.840525867000746e-17
1.0935898934620944e-17
1.442318873223749e-17
2.6103412650384604e-18
-3.864672403581785e-18
-9.755876207502452e-18
1.1010207346045781e-17
-3.012427711781517e-17
-1.899568777226599e-18
7.123455286558051e-18
2.490039060848377e-17
-5.067745779336498e-18
-7.960248448422857e-18
-5.798516132785802e-19
1.3607845841037938e-17
1.3360921386405789e-18
-1.0362175524790058e-17
6.839098176654849e-19
8.342173568483997e-18
-5.893393143214841e-19
-9.331317243998562e-18
1.1061600237331331e-17
-1.140943679011285e-18
2.225222454045106e-18
-5.981366065294802e-17
-6.688195053462716e-18
6.427663325236566e-17
-7.810279028510985e-18
-1.1235976255016245e-17
5.145466351655935e-18
1.3900788931871282e-17
8.045895579103138e-18
-9.730416140019117e-17
5.983838261569e-18
8.327442755951889e-17
1.5351755932543666e-18
-7.25770668114645e-18
2.0002226090247685e-18
3.722308478867316e-18
-7.114871753971571e-18
-7.050158211838543e-18
5.9306357737783374e-18
8.234394192031775e-18
-1.0098617203007279e-18
2.174651596150839e-17
-1.7349282128516005e-17
-3.3873721126916503e-18
2.443140642253323e-17
-3.132767599606775e-17
-1.889860508456919e-18
8.786130081991454e-18
2.2856175568819626e-18
-1.5264106384251246e-17
-2.4350777395242776e-18
1.5413566566893563e-17
-2.7005466204272075e-19
-2.673558971872133e-19
-2.7257224128547753e-19
8.099828005154117e-19
-2.6362748571140365e-17
1.6351962923957403e-17
1.5275574238689411e-18
8.483228223314079e-18
1.0678108275823207e-17
-6.955545257481952e-18
-1.4531505964594357e-18
-2.269412421881819e-18
-3.4981205804674376e-18
-2.393183477040822e-17
7.495023245114665e-18
1.9934932105760985e-17
-2.0382940085607973e-17
1.1326116912603838e-17
1.9814375053754934e-18
7.075385667628641e-18
-2.0729852377047272e-17
5.1552803015430536e-18
-8.076665576941703e-18
2.3651237652445927e-17
-8.872942024135983e-17
-1.5008189234446377e-16
1.6445778114874987e-16
7.435353143707101e-17
-3.962223393787039e-17
2.0703248318160207e-17
-7.067157647889052e-18
2.5986143267599273e-17
-2.5558933329120817e-17
-1.1371928879969709e-17
-7.940624282576658e-18
4.4871486491667174e-17
8.943267704669674e-18
-1.1590840933949128e-17
-2.437495783737455e-18
5.0850690130169e-18
-1.683993565636927e-17
1.7552331549862962e-18
-7.8192359083528e-18
2.2903938409735874e-17
-2.2020419134839898e-17
2.140461076727927e-17
9.801433231036703e-19
-3.643349555430206e-19
-1.7087547934241033e-18
-1.6901318778679152e-18
3.890718477408356e-18
-4.918318061163383e-19
9.241049991007053e-18
-8.377376318883576e-18
2.7123911399200878e-18
-3.576064812043563e-18
5.361495534940622e-18
-3.408133713431141e-17
-1.5994994368249646e-17
4.471483596762031e-17
6.451671450964069e-18
-6.8429813264877284e-18
-1.0467012483147382e-17
1.0858322358671029e-17
2.393878578175201e-18
-9.304713609951286e-18
1.7419757634896994e-18
5.168859268286387e-18
-2.5449515076503913e-17
4.353444551947368e-17
-2.3190745193134913e-17
5.105814750165153e-18
5.3005471696900845e-17
-3.579315918188144e-17
-6.582347324833067e-18
-1.0629965190186334e-17
1.1755202768024763e-16
-1.214144432945135e-17
-1.5373601245759986e-17
-9.003698210503614e-17
1.379956713430986e-16
-1.5239895488367882e-16
1.8747073477614544e-17
-4.343789937034728e-18
2.114645965490583e-16
-1.0388497066869391e-16
-4.19710038621631e-17
-6.560862201820332e-17
3.0066154965299774e-17
2.9224040296071445e-18
-1.0406416799014203e-17
-2.2582142195892726e-17
0.0
0.0
0.0
0.0
1.2965855975073522e-17
-4.034796499227661e-17
1.1139781205220155e-17
1.6242327811982954e-17
-8.908136721825326e-18
-8.813249459865896e-18
7.853658610100258e-18
9.867727571590964e-18
-2.1744451697074965e-18
-1.9665215132912443e-17
6.1556329891826546e-18
1.5684027313437285e-17
-1.1035699827345145e-17
2.3506624814327494e-17
-1.1826632183049739e-17
-6.442928039325879e-19
-1.9044672924094253e-18
-7.735441962037815e-18
5.241696064085668e-18
4.3982131903615735e-18
-5.421407982921138e-19
-5.356983922218255e-19
-5.481758129959655e-19
1.626015003509905e-18
-1.555116584563758e-17
-1.6019866785212488e-17
9.707628057895624e-18
2.1863404572954478e-17
2.4622488268788166e-18
-6.308344074588987e-18
8.523055313349374e-18
-4.676960065639204e-18
1.921120257262609e-18
-1.0154877057766026e-18
-1.0391377244663651e-18
1.335051729803588e-19
-1.536171760004356e-17
2.5078976877517186e-17
9.778217766126299e-19
-1.0695081054086257e-17
-1.1847810033246608e-17
2.845035992263315e-17
-1.0352037243773289e-17
-6.2505126456132615e-18
-8.063853434031786e-19
-7.998606902047682e-19
-8.124368940121573e-19
2.4186829276201044e-18
2.5440236840077095e-17
-1.6515126217243974e-18
-7.591930863677917e-18
-1.6196793354674777e-17
4.679253964814022e-17
-1.22416426079842e-16
-2.4412271986665442e-17
1.0003615841836652e-16
3.817254159478048e-17
6.83137414646768e-18
-4.0565800316568714e-17
-4.4381154246796074e-18
1.181870770452479e-16
-5.876360776046164e-17
-3.9447592798316944e-18
-5.547871000495448e-17
-1.9656029008408722e-17
5.178769769662546e-17
1.831548867827106e-17
-5.044715736648771e-17
7.235163488747169e-18
-1.0366538646093796e-17
-3.0536936408318856e-18
6.1850687981785125e-18
5.3220492092832626e-17
-1.1466715711038162e-16
-1.9074996852553272e-17
8.052166187010198e-17
3.586091016948548e-17
1.6925463904297125e-16
-1.1598584466146788e-16
-8.912970455099197e-17
2.215883551647238e-19
-2.7009331589355276e-18
2.8650823683365322e-18
-3.8573756456572853e-19
1.7632924596034256e-18
-4.098526909691538e-18
-2.2954518463417426e-18
4.630686296429855e-18
-5.7558175540070906e-18
-5.698583959668143e-18
-1.9235529531688018e-19
1.1646756808992117e-17
1.3841859535207473e-17
-9.632855273104517e-18
1.3765228087040316e-18
-5.585527070806991e-18
3.235224610074317e-16
3.0472110624144e-16
-2.0449434490051542e-16
-4.237492223483662e-16
2.2811080763623236e-16
2.7244674594762723e-17
-6.19705600223078e-17
-1.933849222086904e-16
-5.021779107319637e-18
-1.665567463038536e-17
-1.989482521681182e-18
2.3666936259386183e-17
2.2030559989297855e-18
-7.420753738739034e-19
-7.491628475666922e-19
-7.118177774891901e-19
1.2168822687387894e-16
-9.548834947810641e-17
-2.0066582815395405e-18
-2.4193219114233003e-17
-2.4146388607345685e-16
-6.405875320080166e-17
3.763441330105308e-16
-7.082149373627216e-17
9.860382136376772e-18
-1.0675216585722598e-17
2.2254526552722222e-18
-1.410618205926396e-18
-3.3339404619381613e-17
9.82675079131171e-17
-5.440411378823362e-17
-1.052398950550229e-17
-7.825220433726485e-18
-8.388302257750845e-18
-3.0730987484961107e-18
1.9286621439973443e-17
-8.523422756057445e-19
-9.583537588460649e-18
3.299275177922041e-18
7.13660468614435e-18
6.317370929695933e-18
8.519483958441475e-18
1.0839276695241797e-18
-1.5920782557661596e-17
3.109716977211674e-17
-3.119561392523545e-17
-1.6897198452658813e-17
1.6995642605777595e-17
2.750789472187179e-17
-3.767720003285453e-17
-2.892696246271727e-18
1.3062001557254488e-17
-7.637690431315375e-18
8.046942506212552e-17
-5.724869172742528e-17
-1.5583042903384997e-17
-9.55948360184026e-18
-1.8850820054175264e-17
4.958373361853731e-18
2.3451930294161802e-17
3.476970617298407e-17
-2.2951815538154126e-17
4.2358842385661494e-18
-1.6053774873396094e-17
-4.368712975699654e-17
-2.26085441226249e-18
-1.1723891557324173e-16
1.6318689974249774e-16
-1.8096669587923687e-16
-3.394595141595843e-17
-2.4345659957547365e-16
4.583692468706674e-16
-2.0222355505173246e-17
-5.216422256887521e-17
-2.5037687707067676e-17
9.742426578111624e-17
-1.1028347935537863e-17
1.0369076510798074e-17
-1.3899983983790144e-17
1.455925540853003e-17
-1.4769512476982084e-16
-7.17708321188591e-17
-1.4411231448645418e-16
3.6357827137512843e-16
-1.8437343015695465e-17
-2.673362179468813e-17
-7.06092231375684e-18
5.223188712414056e-17
-2.746670670307633e-17
4.919218662512161e-17
-2.9284562986418854e-17
7.559083064373511e-18
-3.9205747224053986e-17
-2.5863460696010595e-16
-5.915177953416224e-17
3.569921337183183e-16
-2.437722239810223e-17
4.168606422304467e-17
-1.7604505069602277e-17
2.956632446598667e-19
-1.3508763076831522e-17
-3.9729364477323676e-17
1.0206420993014414e-17
4.303170656114078e-17
-5.310248656786137e-18
-4.328272170692309e-17
1.4058436368902455e-17
3.4534533994806774e-17
2.0253541238268043e-18
-2.138385350430476e-17
4.477694850115774e-18
1.4880804530362184e-17
4.493519716155903e-17
-7.000116016025344e-17
-1.3482266573610577e-17
3.8548229572304913e-17
-3.0873769006620614e-18
1.4773890267672946e-18
-3.991580647813498e-17
4.152579435202974e-17
3.651077976050498e-17
-5.874724446637634e-18
-4.94439625758283e-17
1.8807907261961103e-17
-6.381078395696944e-17
7.461972736848002e-17
3.9273429278645024e-18
-1.473628633937513e-17
3.714147317590713e-19
8.384990192083087e-18
-2.6278928608248424e-18
-6.12851206301732e-18
1.647338326954798e-17
-6.6785697516700846e-18
-1.674754504927473e-17
6.952731531396924e-18
2.5877835987719048e-17
-4.449408508508194e-17
-9.693378617835121e-18
2.8309627715198054e-17
1.8547773192580075e-17
-2.5468665175606105e-17
2.1985236612559202e-18
4.7223683217701e-18
1.0085489273410635e-18
-7.785625216709811e-18
1.4749173080695433e-18
5.302158981299202e-18
3.429478249703848e-17
1.6246390946663465e-17
-6.29538963627887e-17
1.2412722919086886e-17
1.421035371475743e-17
-2.975467048945135e-17
-2.187057610780587e-18
1.773137438547452e-17
-8.659220511471092e-18
1.6425652961463563e-17
-4.137437649333163e-18
-3.628994800659299e-18
4.0851055583901695e-18
-4.721049508217876e-18
8.179555693517286e-19
-1.8201161952402066e-19
1.0960957010614376e-17
-3.738191825375442e-18
-3.825245055427084e-18
-3.3975201298118507e-18
0.0
0.0
0.0
0.0
9.675586394723791e-19
-1.9611445536749882e-18
1.7445071578795072e-18
-7.509212436768984e-19
0.0
0.0
0.0
0.0
-3.1123889078846737e-18
-3.083217911373953e-18
6.048972709682805e-19
5.590709548290347e-18
9.068667952100855e-19
-2.0216181776992734e-18
-1.8866842546313608e-19
1.3034198079523241e-18
0.0
0.0
0.0
0.0
2.6228253726892995e-16
-3.2656475748546017e-16
4.6296376081054184e-17
1.798584413547356e-17
0.0
0.0
0.0
0.0
1.1101965944437838e-16
-3.188461155238977e-17
1.5251023494164207e-17
-9.438607138615273e-17
-1.1900347620428794e-15
6.597722656477573e-16
3.8383573700403025e-16
1.4642675939114758e-16
-6.882139837105562e-16
8.069081978906465e-16
1.9561580160637534e-16
-3.1431001578646525e-16
-1.1037771804844815e-16
1.5078728603712855e-16
-1.3778511803673601e-18
-3.9031716808313774e-17
9.306812778006231e-20
-8.653689298566998e-18
8.003892343293813e-18
5.567288274931214e-19
3.0013487613427336e-18
-1.1649077952235522e-17
6.8928037912832776e-18
1.7549253996095112e-18
0.0
0.0
0.0
0.0
0.0
0.0
0.0
0.0
5.825097315079906e-18
-2.9854624694818834e-18
-1.1826994124087005e-18
-1.656935433189323e-18
3.964140793712052e-18
-3.6967970006340576e-17
9.15986333142395e-18
2.3843965881204594e-17
-1.2166329696445141e-17
1.9457019014372342e-17
-2.827900609610008e-18
-4.462788708317187e-18
-6.944817093260906e-18
-5.0670250120742653e-17
8.262500666025744e-18
4.9352566547977795e-17
5.739732141311063e-18
-6.002077459346152e-18
-4.885205144087085e-19
7.508658324437971e-19
-1.27841543469414e-17
3.0456718562322477e-17
-1.0206291574229506e-17
-7.466272641151565e-18
-5.386812227970066e-19
-5.339944601581307e-19
-5.430400896123846e-19
1.6157157725675219e-18
3.370458054340908e-18
-2.50129079081692e-18
-6.790904614218149e-19
-1.9007680210217339e-19
9.671584615574738e-19
-1.961208626356277e-18
1.7437630595027487e-18
-7.4971289470394565e-19
-2.5137943274802814e-19
-1.7766090822887932e-17
6.12086530146685e-19
1.7405383725489273e-17
-2.3743574392282438e-18
-2.3478400415944967e-18
-5.268886875286534e-19
5.249086168351394e-18
-1.5522055925962272e-18
-1.5397969709132147e-18
3.0854788323823213e-19
2.7834546802712102e-18
2.8227328405210426e-18
-3.039877828331924e-18
-1.2353939539873772e-18
1.4525389417982592e-18
-1.1548457535764262e-17
-9.771815415674268e-19
-5.136728952462691e-18
1.7662368029794404e-17
-3.3939018019196663e-17
1.7688704005266884e-17
-1.4115930811922756e-17
3.036624482585254e-17
-3.7128389445244753e-17
4.077323091520395e-17
-2.2345937854664997e-17
1.870109638470582e-17
-1.4006689745137577e-17
2.3398347796360073e-17
-8.02262873829354e-18
-1.369029312928939e-18
-1.9099642964081166e-16
2.4279965600262745e-16
-1.6637825821876428e-16
1.145750318569482e-16
-1.4560562099426028e-17
2.2827154926424657e-17
-1.043232914200322e-17
2.1657363150045984e-18
1.987198032842856e-17
9.41555723842961e-17
-1.0358206273107391e-16
-1.044548998165135e-17
-1.3925645537976914e-16
1.6371157739653607e-16
-6.857586397156948e-17
4.412074195480148e-17
1.3243850902978308e-18
-1.036758591360663e-17
6.661335255942769e-19
8.377067297714522e-18
4.723553835375997e-17
-7.068440584915441e-17
2.755009599293831e-18
2.0693857896100442e-17
-1.5625423466196488e-17
1.3325549609706402e-18
1.364107174147287e-18
1.2928761331078565e-17
-4.945103696330263e-18
2.0757237876635176e-17
-1.4588311124916864e-17
-1.2238230553880191e-18
-3.129421250504504e-18
-3.0921651113177467e-18
5.803692271678398e-19
5.641217134654411e-18
-2.7242278528605738e-18
-1.7302131427279402e-17
8.588429747357205e-18
1.143792953278277e-17
8.597976252145905e-18
-1.7755217497857598e-17
4.352222727676582e-18
4.805018518035109e-18
-6.822554794747611e-18
2.2923263030415464e-16
-1.5105572758873878e-16
-7.135434792067077e-17
8.497179060442101e-18
-6.172682583254069e-18
1.1727129041147134e-18
-3.4972093813027444e-18
-5.2624111947178705e-18
3.203146621728706e-17
-1.415310031465666e-17
-1.2615954707912525e-17
-1.6263249304215374e-17
3.5230660293061696e-17
-2.2527463948117153e-17
3.56005295927085e-18
2.877254296721713e-17
-4.7444096140714984e-17
1.7210464531924818e-17
1.4610886415730632e-18
1.9828696436499984e-19
1.3628426298630547e-17
2.1531845610456006e-18
-1.5979897824041136e-17
4.162490343037576e-18
-2.5045007044404108e-17
9.985088589598841e-18
1.089742811176769e-17
-1.4783477828663226e-17
-9.371856659916985e-18
-4.206815272968033e-18
2.836214976154824e-17
-7.869855223312687e-17
1.6801606264181063e-16
-6.008675628926925e-17
-2.923075411941486e-17
1.3041849062905294e-17
5.292129685670254e-19
-1.632381904941487e-17
2.7527570179425684e-18
-6.1571002669120905e-18
2.1697847976815575e-17
-1.162454955433451e-17
-3.916198155568954e-18
4.522921198609746e-18
-2.183528217901779e-17
-3.462376313184461e-18
2.0774737293592514e-17
-2.3315922765198376e-18
-5.228397812103512e-18
-3.456744564241508e-18
1.1016734652864862e-17
3.84714386176616e-16
-3.448920659614682e-16
-2.6234130286330595e-16
2.2251898264815764e-16
2.8382550573567084e-17
-6.534564523238831e-17
-2.7253224885347647e-17
6.421631954416894e-17
1.776179336184482e-17
-1.4508723666134606e-17
5.764079746222694e-18
-9.017149441932908e-18
1.934138414150323e-16
-9.482140490695484e-17
-1.448011378749589e-16
4.6208701366880346e-17
-8.041352903206718e-18
1.4768392480214904e-17
-9.452205951694731e-18
2.7251663746865503e-18
3.823570432083448e-17
-4.0990898960843834e-17
6.9314840720374295e-18
-4.176289432028063e-18
-9.235865287692554e-17
2.120851093663866e-17
-3.66908144022286e-17
1.0784095634251541e-16
-4.5849712267310424e-17
1.1632219572410819e-17
-8.852909879063421e-18
4.307040257396312e-17
-1.1467587684552676e-17
4.119388707408566e-18
-2.5935106008520068e-17
3.3283304985664245e-17
-3.8330928023851236e-17
2.036036086777599e-17
-4.0254370671578233e-17
5.822493782765366e-17
-1.808605600847385e-17
5.680624908131332e-17
-2.1175438200327667e-17
-1.754475487251181e-17
-3.218664530077701e-17
-4.013879965117209e-18
-2.1101185275451058e-17
5.730171054134522e-17
-6.535320588952844e-18
-7.105759925917072e-18
-2.7988596125129284e-17
4.162967663999923e-17
-3.9398839300626436e-19
-6.23557838471104e-18
-4.471616461095265e-18
1.110118323881257e-17
2.919234949850904e-17
-1.2558643153015884e-17
-1.811384857958384e-18
-1.4822321487534765e-17
-9.447143713289195e-18
2.2162554097273268e-17
-1.5074386733320295e-17
2.3589763493362383e-18
-6.958299295185911e-13
8.043084435669154e-13
-2.699437844812677e-13
1.6146527043287362e-13
-1.7139163719846604e-14
1.8122186446081698e-14
-7.236889086503455e-15
6.253866360264959e-15
1.370165490744522e-15
-1.2895435165928575e-15
-1.034809650060757e-15
9.541876759093157e-16
-2.352009392271847e-15
3.2517653044493848e-18
1.5625369328613443e-15
7.862206941059308e-16
-4.135518804092685e-17
1.3309363575136494e-15
-1.1271097215721978e-15
-1.624714479000995e-16
8.53932041173775e-16
-3.4325769639634257e-16
-1.5357488995386627e-15
1.0250745547613994e-15
-2.497183718942304e-15
1.109837219748091e-15
1.7492009343067225e-15
-3.6185443511225613e-16
4.876462573587611e-16
-6.609164176510368e-16
-8.050388625356886e-16
9.7830902282798e-16
0.0
0.0
0.0
0.0
-2.192451468574318e-15
-8.965936997216303e-16
-4.734743541331477e-16
3.562519522428842e-15
1.9183128634350876e-17
-1.906587911081721e-17
1.3642342068471109e-18
-1.4814837303807778e-18
-4.4074477600890135e-17
-2.1257644654630217e-16
-8.534854790580202e-17
3.419994720529904e-16
-4.08856807470605e-17
-1.8554990980295344e-16
7.773248522846596e-18
2.1866234202716512e-16
2.669963537345511e-15
-9.38142586549889e-16
