-2.800517488859936e-29
6.188658947754953e-29
-6.220153739800243e-29
-1.133017649674033e-28
-6.875457802460025e-16
-5.67213407530592e-17
-6.508860818552421e-16
1.3951532028542773e-15
-5.32008451690145e-16
1.0794972558583467e-15
-1.106122802975533e-15
5.58633998807405e-16
-8.425648722455167e-16
1.2808421383103697e-15
-7.100074971803615e-16
2.7173023111565254e-16
-1.5797057715942826e-16
-2.121390429012659e-15
-2.0315154897987876e-17
2.2996761610700494e-15
2.8229151573306744e-15
8.78160302549329e-16
3.649744036305548e-15
-7.350819496184856e-15
-1.14211920351162e-16
-1.097475451902974e-16
-1.2488261609123747e-16
3.4884208163269815e-16
1.1524069356309188e-16
-1.0161800989331217e-15
-5.628681796302557e-16
1.4638075850002683e-15
-6.777968036516942e-18
-6.777968036516942e-18
-5.654593959289548e-18
1.9210530032323405e-17
1.454467714998204e-15
3.002467207875895e-16
9.619292918453858e-16
-2.716643727631112e-15
-1.0814903563011222e-16
-1.0191536893084114e-16
-1.237906842951458e-16
3.3385508885609894e-16
-2.983675545322611e-17
-3.5144630068446423e-17
-2.7281011527854535e-17
9.226239704952679e-17
-1.638668757521218e-17
-3.231031142087292e-17
-3.11869373436455e-17
7.988393633973044e-17
-3.105032020043518e-17
-3.9896777892469024e-17
-2.4169540811285345e-17
9.511663890418917e-17
-2.4373084604257245e-17
-4.9143166141951933e-17
-3.453930313799561e-17
1.080555538842041e-16
-6.062884721049772e-18
-7.832176259456517e-18
-1.0919317960921497e-18
1.4986992776598432e-17
-5.107410865513583e-17
-3.049580794244546e-17
-2.4450052491940582e-17
1.0601996908952125e-16
-1.1690362457439207e-17
-1.876752861106616e-17
-5.287039684337461e-18
3.574493075284285e-17
-2.6812943726611973e-17
2.672869846761524e-17
-2.521211303333653e-17
2.5296358292333168e-17
-1.743130968031975e-18
-1.743130968031975e-18
-1.743130968031975e-18
5.2293929040959245e-18
-2.122805154447095e-16
-1.4123625957258346e-16
1.8180536561091923e-17
3.3533623845620358e-16
2.0808319202046887e-16
-9.207248094829972e-16
-4.343038340435633e-16
1.1469454515061128e-15
0.0
0.0
0.0
0.0
-2.596658817673568e-16
7.341616338816499e-16
-2.580650510740813e-16
-2.164307010402111e-16
-1.2949120909481774e-17
-1.4718412447888515e-17
-1.0224916138978947e-17
3.7892449496349266e-17
-4.0246364153972584e-17
5.622117100404152e-17
-3.193321491667865e-17
1.5958408066609534e-17
-7.562428742246594e-19
-7.562428742246594e-19
3.671312030027339e-19
1.1453545454465854e-18
-4.232555637235754e-17
-6.88649294484588e-17
-8.202729278179243e-18
1.1939321509899422e-16
2.144578834840764e-15
-5.935695493923326e-16
-4.003568116476262e-17
-1.510973604283822e-15
-7.130990323767177e-18
-7.130990323767177e-18
-7.130990323767177e-18
2.139297097130149e-17
-7.379647445388122e-18
-1.0918230522201599e-17
-7.548108290519432e-18
2.5845986258109113e-17
-3.411144666120069e-17
-3.588073819960746e-17
-2.914049373624298e-17
9.913267859705069e-17
-1.0963112916539189e-15
2.8222631460584416e-15
6.674945097984217e-16
-2.3934463642022425e-15
-3.8222287816859245e-16
1.1252752320262335e-15
-9.460872331621995e-16
2.030348793046086e-16
-1.7934926866742537e-17
-1.7934926866742537e-17
-8.947934248923413e-18
4.4817787982408564e-17
4.086329006944098e-16
-1.4239159534997266e-15
1.0164563710893973e-16
9.136374156964075e-16
2.166526331494529e-17
-6.149143899017192e-17
-3.1160338905032083e-17
7.098651458025836e-17
-1.125015510774556e-16
-1.6558029722965724e-16
1.197567183860998e-16
1.5832512992100923e-16
-2.9313923992827406e-16
1.8498093859000728e-16
-5.875956351261271e-16
6.957539364644291e-16
-5.239510278843509e-17
4.031924734415179e-18
-6.096049062889792e-17
1.0932366868291669e-16
-2.1770289314819206e-16
2.8902426076724146e-16
-1.5029773252738078e-16
7.897636490833321e-17
-1.109265161474893e-18
-1.109265161474893e-18
-1.109265161474893e-18
3.3277954844246783e-18
-5.050733660530511e-17
8.600070618787319e-17
-4.216626144866524e-17
6.67289186609687e-18
-5.059696222657576e-17
-6.121271145701634e-17
-3.42517336035585e-17
1.46061407287149e-16
-1.2741623346618323e-17
-1.2741623346618323e-17
-4.878004806026578e-18
3.03612514992632e-17
3.128335273233752e-16
-1.2080731382220875e-15
1.95330398367944e-15
-1.0580643727807709e-15
7.346371821585247e-18
-4.4270687668191473e-16
1.0705193214664038e-16
3.2830857271368823e-16
-9.281721702222343e-17
4.154093082021639e-17
-3.9117763341019745e-17
9.039404954302365e-17
-6.48578412655055e-17
-7.016571588072574e-17
-6.230209734013391e-17
1.973256544863621e-16
-2.984853793339364e-17
-9.000445023922366e-17
-3.608249453230832e-17
1.5593548270492338e-16
-4.753993549178113e-19
-4.753993549178113e-19
-4.753993549178113e-19
1.426198064753434e-18
0.0
0.0
0.0
0.0
-5.574181452061803e-17
-3.516351380792777e-17
-3.136450651187774e-17
1.222698348404225e-16
-2.3933504372315598e-17
-2.5702795910722338e-17
-1.783917737013059e-17
6.74754776531686e-17
-5.666034778538015e-16
-6.974744755129666e-16
-1.2196079200693516e-16
1.386038745373699e-15
-2.1234365941656482e-17
2.1691527022130312e-17
-1.5645421474865375e-17
1.518826039439159e-17
-4.813197058099917e-17
-8.744660694025645e-18
-9.010264642517406e-18
6.588689591754209e-17
-1.6880671746224154e-18
-2.999673178913028e-17
-2.3256487325765896e-17
5.494128628951874e-17
-6.423761737401988e-17
-6.77762004508334e-17
-2.3964611438964472e-17
1.5597842926381586e-16
-4.138730140788622e-17
3.6271224575844606e-17
-3.883155748251469e-17
4.3947634314556354e-17
-2.8410019016753836e-16
1.1125600344090845e-15
-4.949926242664224e-16
-3.3346721997509224e-16
-5.4870887666835765e-18
-7.25638030509032e-18
-7.25638030509032e-18
1.999984937686419e-17
-3.1693290327854084e-19
-3.1693290327854084e-19
-3.1693290327854084e-19
9.507987098356225e-19
1.0145563004026075e-08
6.0010481664057385e-09
1.3922605145457725e-08
-3.006921631589131e-08
1.829267649084127e-12
7.397355126737836e-13
4.36056880920613e-12
-6.929571970964354e-12
-2.5041110766016017e-16
7.157609411225294e-16
-2.4993365104411207e-16
-2.1541618241825656e-16
0.0
0.0
0.0
0.0
-3.878035942225835e-17
-2.953276324912329e-16
-8.867242798250564e-18
3.4297523471174754e-16
-2.4373084604257245e-17
-4.9143166141951933e-17
-3.453930313799561e-17
1.080555538842041e-16
-1.638668757521218e-17
-3.231031142087292e-17
-3.11869373436455e-17
7.988393633973044e-17
6.014264008615503e-17
1.1374085846329523e-16
3.7556757047444013e-16
-5.494510690238937e-16
-1.4261980647534338e-18
-1.4261980647534338e-18
-1.4261980647534338e-18
4.2785941942603016e-18
9.827385538424998e-18
-7.865529845642423e-18
3.368210926631514e-18
-5.3300666194140946e-18
-1.1019819963552672e-17
9.558480749137368e-18
-1.0233367576587893e-17
1.1694706791003191e-17
2.2891563097547983e-16
-2.9656395593132377e-16
3.572397570150217e-16
-2.895914320591958e-16
3.1490683529212205e-16
-6.633434491968458e-17
-7.922266766617016e-17
-1.6934982270626914e-16
2.447617148636074e-16
-1.9243327771328065e-17
-5.935823231976226e-17
-1.6616015477251913e-16
-4.4421308206853734e-18
-6.211422359092119e-18
1.652196181499641e-18
9.001356998277849e-18
9.622287932456597e-17
-2.045566822045783e-16
-1.3715423757093632e-16
2.4548804045094714e-16
1.0100357505265158e-18
-7.592557878802264e-19
-7.592557878802264e-19
5.084758252339369e-19
1.5898002710736137e-18
-3.718074344146614e-18
7.754219647629603e-19
1.35285210831004e-18
-3.6313646575859373e-17
-1.042747124794898e-17
-1.786220472417291e-17
6.460332254798124e-17
-6.111915832273961e-18
-9.650498909087435e-18
-6.280376677405264e-18
2.2042791418766634e-17
-4.813197058099917e-17
-8.744660694025645e-18
-9.010264642517406e-18
6.588689591754209e-17
-6.062884721049772e-18
-7.832176259456517e-18
-1.0919317960921497e-18
1.4986992776598432e-17
-9.96530897134063e-18
-1.3503892048154111e-17
-6.763647584789765e-18
3.0232848604284484e-17
-7.793989687862157e-18
5.707144871200949e-18
-1.970157384066127e-17
2.1788418657322532e-17
0.0
0.0
0.0
0.0
-4.753993549178113e-19
-4.753993549178113e-19
-4.753993549178113e-19
1.426198064753434e-18
6.810876779623941e-17
-1.5901374686801548e-16
1.6157675020616155e-16
-7.067177113438565e-17
-1.1690362457439207e-17
-1.876752861106616e-17
-5.287039684337461e-18
3.574493075284285e-17
-8.398721936881336e-18
-8.398721936881336e-18
-8.398721936881336e-18
2.5196165810643973e-17
-4.2449795490927195e-17
1.6482013948213865e-17
3.312797944139371e-17
-7.160197898680621e-18
-2.108110824280874e-17
-2.2850399781215474e-17
-1.498678124062373e-17
5.891828926464809e-17
-1.966170214350891e-18
-2.1428115482315808e-16
-8.733988409646654e-17
3.0358720913397674e-16
3.098383033237142e-18
-5.748074658796571e-18
-2.377952427114389e-18
5.02764405267382e-18
0.0
0.0
0.0
0.0
-3.504273838102241e-18
-7.042856914915731e-18
-1.4259865287787579e-18
1.197311728179673e-17
-1.109265161474893e-18
-1.109265161474893e-18
-1.109265161474893e-18
3.3277954844246783e-18
5.109415793323471e-18
-5.506333437116984e-18
-5.506333437116984e-18
5.90325108091049e-18
0.0
0.0
0.0
0.0
-2.2252550923860734e-17
-5.763838169199594e-17
-3.7417648301902734e-17
1.173085809177583e-16
-7.59598700953294e-18
-3.2366068547227324e-17
1.335153769594469e-18
3.862690178716585e-17
-1.2541148569073906e-16
-6.098149993021237e-17
3.655327226350881e-16
-1.7913973701414075e-16
9.87192265434188e-17
-1.4367371421830464e-16
-8.076476589357135e-17
1.2571925356845418e-16
-3.6706073930009363e-17
1.3296985187404615e-17
-2.965683369572821e-17
5.306592243833292e-17
-4.600257318509458e-17
-7.784982087641607e-17
7.492905362650924e-17
4.8923340435000766e-17
9.79430355933409e-18
-5.3627597487449953e-17
8.107496894722081e-17
-3.724167501910647e-17
-7.038146176969652e-17
6.433564759678391e-18
-6.583030296398335e-17
1.2977819997399835e-16
-2.107589949001721e-17
2.1849993473769585e-17
-1.5486955023226105e-17
1.4712861039473783e-17
-1.5846645163927042e-19
-1.5846645163927042e-19
-1.5846645163927042e-19
4.753993549178113e-19
-7.895039170563404e-18
-1.4972205324190373e-17
-1.16020830925082e-17
3.4469327587261994e-17
-7.304985209250018e-19
-3.4347037750653136e-17
1.6009327206234623e-18
3.347660355095463e-17
-6.423761737401988e-17
-6.77762004508334e-17
-2.3964611438964472e-17
1.5597842926381586e-16
-1.9499247737315207e-17
-2.477378561917844e-16
8.141074843583973e-17
1.8582635549325552e-16
-3.2809519780377467e-17
-9.18493382959914e-17
-1.9524512289069662e-17
1.441833703654368e-16
-3.3277954844246783e-18
-3.3277954844246783e-18
-3.3277954844246783e-18
9.983386453274038e-18
-2.6812943726611973e-17
2.672869846761524e-17
-2.521211303333653e-17
2.5296358292333168e-17
2.721756845926386e-16
-5.66399472151564e-17
-3.202804034876902e-17
-1.8350769702871524e-16
-1.0542013680653345e-18
-2.9362865982573194e-17
-2.2622621519208812e-17
5.303968886984749e-17
-6.338658065570817e-19
-6.338658065570817e-19
-6.338658065570817e-19
1.901597419671245e-18
0.0
0.0
0.0
0.0
8.13835585640301e-18
-6.015976450850928e-18
7.242680125134336e-19
-2.846647418065518e-18
-8.974174102313139e-17
3.4640405306220004e-16
-2.3574972915617663e-16
-2.0912582882889985e-17
-4.6602218133603264e-17
-7.975586132130677e-17
-5.867735780247823e-17
1.8503543725738425e-16
-7.74884394713961e-17
-1.5179868408447856e-16
4.703852758476978e-17
1.822485959711011e-16
6.18224871408773e-17
1.097592856910685e-17
-2.9731142159571066e-17
-4.306727355041302e-17
0.0
0.0
0.0
0.0
1.9728401014779007e-16
3.5326971621949115e-17
4.737711797360266e-17
-2.799880997433478e-16
7.639925647628005e-17
1.396051393701172e-16
-4.520078174151274e-17
-1.708036141048882e-16
8.20155119789953e-17
-1.3383805570662738e-16
-3.0487640601706635e-17
8.231018432933747e-17
-3.711040354380413e-17
-4.9495444312651476e-17
-9.05397753246507e-18
9.565982538892012e-17
1.2518494069754408e-18
-3.5903272899566175e-17
-2.579290620451955e-17
6.044432969711033e-17
7.38337355573295e-16
-1.4976470407719506e-16
-2.283399311998513e-16
-3.602327202962617e-16
2.39305638934294e-17
-9.68597533629869e-18
-5.19247902738912e-18
-9.052109529741608e-18
0.0
0.0
0.0
0.0
5.0882214855279525e-17
-3.2243829974854288e-16
1.9656052393051532e-16
7.499556096274786e-17
-7.130990323767177e-18
-7.130990323767177e-18
-7.130990323767177e-18
2.139297097130149e-17
1.0746457227204327e-16
-4.992008201646361e-17
1.9840654733405094e-16
-2.5595103758963334e-16
-7.562428742246594e-19
-7.562428742246594e-19
3.671312030027339e-19
1.1453545454465854e-18
-8.678406209103305e-18
-6.175715236130583e-17
-1.232869296330016e-17
8.276425153370883e-17
1.3687963291751135e-17
-1.26086068242382e-16
1.592509473733768e-16
-4.685284242274599e-17
3.1787020264525477e-16
-4.906960304066253e-16
2.4960748648622843e-16
-7.678165872485253e-17
1.7575132784025667e-16
-1.0202744368960228e-16
-4.585873982823211e-17
-2.786514432242314e-17
5.2620146881234765e-17
-3.9389451854545586e-16
2.4685759053853066e-16
9.441678112569113e-17
-6.338658065570817e-19
-6.338658065570817e-19
-6.338658065570817e-19
1.901597419671245e-18
-4.9230001202513193e-17
-5.807645889454701e-17
-3.111548104108915e-17
1.38421941138148e-16
-6.135063488993157e-18
-7.904355027399903e-18
-3.4108587184903245e-18
1.745027723488337e-17
-1.109265161474893e-18
-1.109265161474893e-18
-1.109265161474893e-18
3.3277954844246783e-18
-6.777968036516942e-18
-6.777968036516942e-18
-5.654593959289548e-18
1.9210530032323405e-17
-8.323916718221701e-17
-6.481076142026594e-17
-7.528905489641975e-17
2.2333898349889486e-16
1.4711562596021482e-16
-1.483560609537116e-16
4.37409062521734e-17
-4.2500471258677934e-17
-5.464375195416872e-17
-1.183382473368116e-16
-4.0825436008121476e-17
2.1380743529909766e-16
5.0478500348406417e-17
-4.9445325256727686e-17
1.3875031182049038e-16
-1.3978348691217013e-16
2.5851926878189733e-19
-6.697455919067467e-17
-2.540971833326068e-17
9.212575825515277e-17
-2.304686115354372e-17
-1.2566577038113539e-16
-8.185418136926758e-17
2.305668129039433e-16
6.768779754095308e-17
2.8433343178736672e-16
1.809612458670027e-16
-5.329824751953274e-16
2.050108758829887e-16
1.596110607390463e-16
3.608365308631781e-16
-7.254584674852144e-16
2.180376506119775e-16
1.0831585878398263e-16
4.007523775550917e-17
-3.664287471514782e-16
3.617220277891515e-17
-1.6906543373287092e-17
-6.7961766782405585e-18
-1.246948272738752e-17
3.339276497509774e-17
9.540026144902662e-17
-5.619428069341093e-17
-7.259874573071443e-17
-6.000769724184549e-17
1.3339026911620758e-16
-1.9593251051948863e-17
-5.3789320822413496e-17
2.7231200129405588e-17
1.1474426851891189e-16
2.1197251611193025e-17
-1.6317272025951468e-16
1.7978210367872092e-16
-6.214794104097777e-17
-7.81407820706534e-17
-3.949338056709045e-17
-3.6261296779271453e-16
8.465537866063662e-16
-6.507733955297735e-17
-4.1886347926063857e-16
-2.2295148352108622e-17
-5.675518703619358e-17
1.3930406858161673e-16
-6.025373319331463e-17
1.827902940523809e-16
-3.028589738108938e-17
9.618512373188154e-17
-2.486895204031803e-16
4.5624963158410795e-17
-1.7022860452721156e-16
2.8608607142037276e-17
9.599503422676219e-17
5.673322307312608e-17
1.5252184403616893e-16
-7.646359286843858e-17
-1.3279147424086396e-16
1.3350699365860228e-17
-3.61894637095286e-17
-1.2598608087753276e-17
3.543737243142168e-17
-1.5238084365649937e-16
-9.366539828191121e-18
2.5276714068080687e-16
-9.101975719611684e-17
-5.706801815340859e-17
-9.629074278099679e-17
-2.176053316897331e-17
1.7511929410336923e-16
-2.8306988334696313e-16
3.131299322025492e-16
-5.92598660721566e-17
2.9199817216570795e-17
2.2784778853735552e-18
-3.729913370776574e-17
8.064714445697893e-18
2.6955941376694126e-17
1.6674762009909067e-16
-1.13181046381507e-16
-1.849106166265273e-17
-3.5075512054931224e-17
-1.2949120909481774e-17
-1.4718412447888515e-17
-1.0224916138978947e-17
3.7892449496349266e-17
2.1833704383611312e-16
1.6885345694363732e-16
-1.1613740270646235e-16
-2.7105309807329596e-16
8.196102088136258e-18
1.2113244976352927e-16
-3.1258904224383485e-17
-9.806964762728226e-17
-1.6559789582448984e-16
-2.145928702281599e-16
6.311031642588345e-16
-2.5091239820620005e-16
2.4354261919232365e-17
-2.3416609617749653e-17
-1.555299107715791e-17
1.4615338775675236e-17
-4.27072264179361e-18
-4.27072264179361e-18
5.839644053252929e-18
2.7018012303342888e-18
-3.695297406406911e-17
-3.2025702861180406e-17
1.8960555258436904e-16
-1.2062687565911934e-16
0.0
0.0
0.0
0.0
-3.216942148563621e-16
9.058186526749682e-16
-6.2413585487263666e-18
-5.778830792698485e-16
-6.246316704015798e-16
1.0802093090872193e-15
-1.5617924822343098e-16
-2.993983904621861e-16
5.3210786620531565e-18
-2.8295460567674917e-17
2.337974698478518e-17
-4.0536507916335435e-19
-4.058379027570506e-17
-1.4425020611935685e-17
1.656413939762004e-16
-1.1063258308855868e-16
-4.5913309621458844e-17
-1.4909561384493867e-17
2.5332159541608262e-18
5.828965505179204e-17
-4.138730140788622e-17
3.6271224575844606e-17
-3.883155748251469e-17
4.3947634314556354e-17
3.2051481557615353e-18
-1.9795641843526072e-17
-1.3055397380161714e-17
2.964589106792626e-17
-7.379647445388122e-18
-1.0918230522201599e-17
-7.548108290519432e-18
2.5845986258109113e-17
3.422524300076809e-17
-2.347956833166603e-19
6.101957066720627e-17
-9.501001798465782e-17
1.0366703696926244e-17
-4.556101686522371e-16
2.3569377390698273e-16
2.095496910483272e-16
-5.486045136272442e-17
2.8105949236226614e-17
-2.6776099432039328e-17
5.353060155853679e-17
-5.367543684901326e-17
-8.021480992511459e-17
1.1901864407532154e-17
1.2198838236659424e-16
0.0
0.0
0.0
0.0
-2.983675545322611e-17
-3.5144630068446423e-17
-2.7281011527854535e-17
9.226239704952679e-17
-2.571272472431926e-17
-2.7482016262726e-17
-2.0741771799361647e-17
7.393651278640695e-17
-5.050733660530511e-17
8.600070618787319e-17
-4.216626144866524e-17
6.67289186609687e-18
-1.7351799881900756e-17
-6.335337988047645e-17
-3.976252425870109e-17
1.2046770402107695e-16
-2.4685797478887798e-17
-4.1262619072739545e-17
-5.656097108955543e-17
1.225093876411816e-16
-1.0815317602357206e-17
-5.681689760093267e-17
1.7325791496075498e-17
5.0306423707214435e-17
-1.5860893180884854e-17
-5.301601548742671e-17
-1.8191419093377196e-17
8.706832776168837e-17
-1.2741623346618323e-17
-1.2741623346618323e-17
-4.878004806026578e-18
3.03612514992632e-17
1.0053682397823315e-16
-1.0889277530195378e-16
1.296914141346211e-16
-1.213354628109013e-16
0.0
0.0
0.0
0.0
3.497412412525585e-17
-1.7026369432992683e-16
1.0271620643632912e-16
3.2573363768339984e-17
-6.338658065570817e-19
-6.338658065570817e-19
-6.338658065570817e-19
1.901597419671245e-18
2.202482653473202e-17
1.2417162018034593e-17
-1.251047250174308e-16
9.06627364646609e-17
-1.731907296222375e-17
-2.085765603903723e-17
-6.2537930350811546e-18
4.44305220363422e-17
-2.5638014839690542e-17
-5.2177387915791943e-17
-1.9599539676197213e-17
9.741494243167921e-17
3.9425213429522127e-16
6.309630583051788e-17
-2.8476213759496123e-16
-1.7258630253077887e-16
4.198609453745334e-18
-2.878556699881635e-18
-2.878556699881635e-18
1.5585039460179366e-18
2.0846892250021818e-16
-1.2061930364343683e-16
-9.590507394443425e-17
8.05545508765151e-18
8.013974037534925e-17
-7.378862346603751e-17
-3.3347156685851076e-17
2.6996039776538773e-17
-3.557977473352633e-17
-5.858056473281416e-17
-1.2884867942168305e-18
9.544882626055662e-17
-6.48578412655055e-17
-7.016571588072574e-17
-6.230209734013391e-17
1.973256544863621e-16
0.0
0.0
0.0
0.0
3.5365548982450656e-17
-9.910060793646224e-17
-1.1477429912724974e-17
7.521248886673566e-17
-7.369982037912499e-19
-6.04487281901148e-18
-4.921498741784086e-18
1.1703369764586816e-17
-3.1693290327854084e-19
-3.1693290327854084e-19
-3.1693290327854084e-19
9.507987098356225e-19
-9.33561286924615e-17
7.385479920250891e-18
2.7830452709480293e-17
5.814019606272957e-17
-1.825127246666333e-17
9.404194399653682e-18
-1.6004524312208542e-17
2.485160237921819e-17
-3.2415917296312404e-17
-6.603245652604092e-17
-1.997411935971729e-17
1.1842249318206968e-16
-4.91799049301369e-17
-6.687282031420442e-17
5.108145779467179e-17
6.497126744966883e-17
3.8862119501733794e-17
-7.791112203311128e-17
8.27313710104056e-17
-4.368236847902864e-17
-1.1805033894828155e-16
2.6362802085877057e-16
-5.822953767460292e-17
-8.734814423588717e-17
-5.903314541702955e-17
-9.795755926197815e-17
-4.7405725786744874e-17
2.043964304657491e-16
-3.9831100980473664e-17
-1.689893832841648e-16
-7.350258671983841e-17
2.8232307098447673e-16
-2.8523961295068676e-18
-2.8523961295068676e-18
-2.8523961295068676e-18
8.557188388520605e-18
-1.6541119880775432e-17
-4.3080492956876725e-17
-1.8366263257873886e-17
7.798787609552584e-17
0.0
0.0
0.0
0.0
-9.410514505926251e-17
1.9211806028462396e-17
-1.4586322504070175e-16
2.207565640714983e-16
0.0
0.0
0.0
0.0
1.1026972529671778e-17
-1.728169208483608e-17
1.5296156154758326e-17
-9.04143659959403e-18
-1.6825661705267648e-17
-1.6825661705267648e-17
-7.838669087448523e-18
4.148999249798387e-17
-1.109265161474893e-18
-1.109265161474893e-18
-1.109265161474893e-18
3.3277954844246783e-18
-5.93215408452828e-18
-2.295160856719682e-16
1.468497415074359e-17
2.207632656057497e-16
-2.169559821914218e-17
-4.292709668002325e-17
-1.0349248440428678e-17
7.497194333959394e-17
-3.0316102809702147e-18
-1.1878067973003917e-17
-1.1878067973003917e-17
2.6787746226978027e-17
-1.3814602384436185e-17
-3.504610084531712e-17
1.1012236321006053e-17
3.784846690874733e-17
-1.9748977934211746e-16
5.810598519602594e-17
-1.3205120235324794e-16
2.714349964993396e-16
-2.30168402069965e-16
6.098130423673534e-16
-4.36274640012035e-16
5.662999971465901e-17
-6.063089402150233e-18
-3.791033709347164e-17
-1.3196107394468903e-17
5.716953389009077e-17
-8.417909515859982e-17
1.5679944103027062e-16
-1.487996725249357e-16
7.617932665326503e-17
-9.254774107196613e-18
1.8400692759120398e-17
-8.13140002996922e-18
-1.0145186219545553e-18
-5.107410865513583e-17
-3.049580794244546e-17
-2.4450052491940582e-17
1.0601996908952125e-16
0.0
0.0
0.0
0.0
-2.6608189379749767e-17
-3.3685355533376835e-17
-2.5821736992784983e-17
8.611528190591143e-17
-3.866769347981404e-17
1.822223008506116e-17
-4.141891884060647e-17
6.18643822353588e-17
-1.0050429466536524e-17
-1.5358304081756728e-17
-1.3111555927301938e-17
3.8520289475595215e-17
-8.07468062816743e-17
-2.320368496860782e-17
-7.091660410914277e-17
1.748670953594214e-16
-7.583257887575722e-19
1.451210030871225e-17
-1.2019992480377369e-17
-1.733782039577298e-18
-3.9488038365215015e-17
4.170907069532927e-17
-1.9913222436301234e-17
1.7692190106186835e-17
-1.5846645163927042e-19
-1.5846645163927042e-19
-1.5846645163927042e-19
4.753993549178113e-19
-1.6149861420809837e-16
3.675761319584338e-16
-3.105956547212543e-16
1.0451813697092287e-16
4.568394090969489e-16
-1.6772050396063466e-16
-1.3851277795272222e-16
-1.5060612718359351e-16
-1.576785833507686e-16
-1.0236764961813545e-16
7.036635432639125e-17
1.8967987864250935e-16
2.231573801468406e-17
-2.784638235144623e-16
1.61898814758677e-16
9.424927074110086e-17
0.0
0.0
0.0
0.0
-5.927556430110081e-16
1.5940681253023016e-15
-5.043162760228499e-16
-4.969962062684375e-16
0.0
0.0
0.0
0.0
6.127475122148735e-17
-1.9840065209363955e-17
9.576514191244129e-17
-1.3719982792456565e-16
-3.856723515936283e-17
1.3229283724142743e-16
8.239412822969887e-17
-1.7611973031176568e-16
-5.4870887666835765e-18
-7.25638030509032e-18
-7.25638030509032e-18
1.999984937686419e-17
1.3153689402554912e-16
3.820510886801219e-16
3.4830414765087335e-16
-8.61892130356508e-16
4.919557343371189e-17
8.087051126098468e-16
3.605093349375688e-16
-1.2184100209810793e-15
1.7406299190454056e-15
-9.789151875873092e-16
-9.06845080121335e-16
1.4513034866337155e-16
-8.588861021839051e-16
-1.0948653611189829e-15
-1.3666282733016357e-15
3.320379736604866e-15
-3.8370453449121215e-17
3.3327000171198404e-17
-2.2249537509926916e-17
2.729299078784916e-17
-9.826620672923432e-17
-3.447686356862645e-16
1.3090844232854757e-16
3.1212640008694925e-16
1.804131817090146e-15
1.4125493545570673e-16
1.3565149163719809e-15
-3.3019016689176887e-15
-2.3843390547568544e-16
5.514364707677515e-16
-2.683631787413052e-16
-4.4639386550744736e-17
-1.5323643474351386e-16
4.408392023020402e-16
-1.2135945047473503e-16
-1.662433170837937e-16
-9.803610271689533e-17
2.1006750285495754e-16
-3.1906969684652593e-18
-1.0884070316959948e-16
-8.818206877915083e-17
2.634183348749866e-16
-7.753658297125262e-17
-9.769968312458433e-17
-2.297475892083018e-16
9.185715092260983e-17
-9.738130821467246e-17
2.352717465003565e-16
-1.8622178129379787e-17
-2.3689823510159965e-16
1.0615974351712049e-16
1.4936066971385442e-16
-1.354053928093284e-16
8.126595788387182e-17
1.404978154790766e-16
-8.635838055362131e-17
2.345367054077138e-15
-2.3558183428435243e-16
-2.6855373428355856e-16
-1.8412314855094557e-15
-9.373806768316377e-16
-4.1791359518186277e-16
1.7152496838248791e-15
-3.599554118113807e-16
1.0863795932544792e-15
-5.943907920489694e-16
4.776542335915883e-16
-9.696430347970773e-16
3.1187400836384834e-16
-6.808065537587829e-16
1.0016266931335272e-16
2.6876987608159826e-16
1.7945849845961553e-16
-1.7859159004673776e-16
5.3252354926473576e-17
-5.4119263339353737e-17
-7.964238852401684e-16
-6.951628044025105e-16
-1.6350207445767567e-16
1.6550887641003728e-15
-5.870947107592659e-17
-6.755592876796033e-17
6.387883826764452e-17
6.238656157624169e-17
-9.870341245710457e-17
-1.391245235045996e-16
-1.0215550178871277e-16
3.3998343775041613e-16
-1.062832459531039e-16
-1.228600675469551e-16
-5.390536377171631e-17
2.830486772717731e-16
-4.595377588741305e-17
-8.310889819395507e-17
-2.806356840981245e-17
1.5712624249117818e-16
7.464407986837986e-17
-7.751499243460014e-17
-8.989173723728824e-18
1.1860086289948685e-17
-9.830202798936159e-18
-9.298690510405364e-17
-1.2103971543680602e-17
1.1492107944666903e-16
-7.420299244845543e-17
-6.84322217912103e-17
-3.724335157733489e-17
1.7987856581699675e-16
-2.723754856382746e-16
1.1553654086804423e-16
-8.2157702990074e-17
2.3899664776030043e-16
-4.2536154603134844e-17
-5.091971625314341e-17
3.868460597655613e-17
5.477126487972155e-17
-5.654780007419899e-17
1.1611070469307653e-17
-4.6212215366273386e-17
9.114894497116353e-17
-1.1279259321121898e-16
-1.234083424416589e-16
-5.937602003969777e-17
2.9557695569257414e-16
-2.514036754867566e-16
5.141029390780872e-16
-2.2430216270751343e-16
-3.8397100883812706e-17
-2.957296076923024e-16
6.537045140205073e-17
-2.6028611442736443e-16
4.906452707176337e-16
-1.4526850191840147e-16
3.416543383856269e-17
-1.066242525959699e-16
2.177273206758055e-16
9.580107229304883e-17
1.581634557325324e-16
-2.585887331849248e-16
4.624205159346802e-18
-8.650874128653302e-17
-8.827803282493979e-17
-1.07652214962489e-17
1.8555199560771883e-16
-1.1398025622859377e-16
-1.0755628782315774e-16
-2.6536135766415704e-18
2.2419015762838896e-16
-2.469330405802165e-17
-4.834729180550028e-17
5.2061886132105306e-17
2.097870973141624e-17
-2.1036983143908472e-16
8.610994018858092e-17
-1.3454162856171063e-16
2.5880151981221443e-16
-5.989706913981148e-17
-7.116601611844302e-17
-5.725664212734623e-17
1.883197273855971e-16
-7.430430425073713e-17
-6.080316969167381e-17
-5.02639179322595e-17
1.8537139187466756e-16
-6.916358993313017e-18
-2.41463783353554e-17
-4.350934159671329e-17
7.45720789253812e-17
-2.223960367961672e-16
-1.754686647135429e-16
-1.793699948422095e-16
5.772346963519308e-16
-9.200111576621633e-17
-8.734643889918717e-17
-7.45604389853179e-17
2.5390799365071794e-16
4.672052413535137e-16
-5.607531424608009e-16
-2.0015006367081705e-16
2.9369796477813104e-16
3.6323825765382253e-17
-5.567933423176833e-17
-3.208847860999297e-17
5.1443987076378773e-17
-2.230659474774058e-16
1.6634277623146221e-16
-2.1098899715041884e-16
2.677121683963674e-16
-2.0009222981242819e-16
7.161746027754454e-17
-1.8048858263511312e-16
3.0896335217000325e-16
2.6690731692064866e-17
8.947648225909595e-16
-6.15951248962302e-16
-3.0550430532070134e-16
-7.572485225556264e-17
-8.987918456281664e-17
-5.954808447767685e-17
2.251521212960522e-16
-1.0588008352780901e-16
-5.829951369699247e-17
-6.599985112170813e-17
2.301794483465053e-16
-1.879887212447598e-18
-2.4880677211735214e-17
-1.3646936439461293e-17
4.040750086364419e-17
-4.627469145807156e-16
3.505048550743245e-16
-1.618168595061656e-16
2.740589190125819e-16
1.1409006592163863e-16
-9.443217341682113e-16
2.4020874073988363e-16
5.900229275071666e-16
9.563965320042368e-11
-4.05415944200842e-11
1.0820886140808447e-11
-6.591894492114841e-11
4.29497371904658e-15
-2.4751329167436626e-15
-8.502180705537523e-15
6.682339903232937e-15
-3.8291015848550984e-15
5.553828624441231e-16
6.863753128478512e-15
-3.590034406067165e-15
-3.5401967837179374e-17
5.439587183613685e-16
2.100519773089455e-15
-2.609076523613525e-15
2.5779518292344802e-14
-5.00177753669339e-15
-1.3296782608350218e-14
-7.480958147301655e-15
2.7379080220775207e-15
-1.3556154030732733e-15
-8.502015682349663e-16
-5.320910507682383e-16
-1.0595413110922537e-15
9.091195526147536e-16
1.0855654805934274e-15
-9.351437221157937e-16
-1.4281739623214883e-17
1.3373727243102141e-17
-1.9246247737135613e-18
2.8326371538263176e-18
6.119311919445064e-18
-3.765008049869849e-17
-1.4324828825414844e-17
4.5855597404668525e-17
-2.281287496399303e-16
-1.9619406602955033e-16
5.1925740574162256e-17
3.723970750953209e-16
-1.0841662732125955e-18
1.8012190554100365e-18
-3.386766266359136e-18
2.6697134841616876e-18
7.609870044573886e-17
-4.5982415704326355e-17
-4.41757484691279e-18
-2.569870989449973e-17
-1.3540192968100489e-18
-1.3540192968100489e-18
8.92728857644738e-19
1.8153097359753598e-18
-1.876042894835533e-17
-1.0893772122418707e-16
-1.265655504941696e-16
2.5426370066670278e-16
-1.1281277328505806e-18
7.528028253017269e-18
-1.589954625288181e-17
9.4996457327152e-18
1.431333819434343e-18
-3.8765407957858836e-18
6.169555131236898e-19
1.8282514632278513e-18
-9.25849450019776e-16
7.794235657752929e-16
1.6065251467855517e-15
-1.4600992625410816e-15
-5.903891348759492e-17
-1.177958510886412e-16
-3.223370164058058e-16
4.991717809820537e-16
-9.059638386443409e-18
-1.0828929924850146e-17
-8.582181770395364e-18
2.8470750081688886e-17
-3.1570841308475446e-17
2.997375912342876e-17
-3.485537512400809e-17
3.645245730905347e-17
-2.405652795142005e-17
2.2217646383014437e-17
-2.2819639538696616e-17
2.465852110710175e-17
1.561077796995554e-16
-1.454329886542557e-16
-7.85007936343354e-17
6.782600258903094e-17
4.3546062566463096e-16
-1.214290293382553e-16
-1.259029319132581e-16
-1.881286644131221e-16
8.790299144893493e-18
-8.90261623917393e-18
4.5778726875547914e-18
-4.465555593274356e-18
6.787454979636064e-18
-4.48149199899524e-18
-6.299355089082219e-18
3.9933921084413944e-18
2.5480502430836188e-17
-2.5366056140934308e-17
1.3293177640313606e-18
-1.4437640539331557e-18
7.003372172954258e-17
-5.523109053178367e-17
-2.157123276431617e-17
6.7686015665553445e-18
2.6384692289359273e-16
-1.8072872244596462e-16
-8.128443490408128e-16
7.297261485932601e-16
1.0010625894549252e-18
-6.076103564172047e-18
2.9108890536471037e-18
2.1641519210700175e-18
8.899931224993908e-18
-3.1793774158361144e-17
1.5387937085189382e-17
7.505905848177905e-18
6.2411096251699725e-18
-1.3874295045495022e-17
-1.2322035903899785e-17
1.9955221324224852e-17
2.4419618404678693e-16
-9.904637440412097e-17
-4.737116685166044e-17
-9.77786427910068e-17
-8.714805217221672e-18
-9.368002965412523e-18
5.664745102911378e-18
1.2418063079722825e-17
-1.5251980266368843e-17
4.4713630333294555e-17
-1.466191464388122e-17
-1.4799735423044465e-17
5.7309927558809325e-18
1.3924252699723784e-17
-1.036109193491105e-17
-9.294153520693658e-18
-3.1693290327854084e-19
-3.1693290327854084e-19
-3.1693290327854084e-19
9.507987098356225e-19
1.38620569449595e-18
-2.1523773823175345e-18
-2.1523773823175345e-18
2.918549070139119e-18
6.93896560484155e-18
-1.7831115932852824e-17
4.636365611695015e-18
6.255784716316265e-18
-5.977764225853891e-19
-5.977764225853891e-19
5.255976546420043e-19
6.699551905287742e-19
-8.450980459285831e-17
1.2420626607181394e-17
-6.027212618084752e-17
1.3236130416652167e-16
-7.959926271182351e-18
1.438766597991443e-17
-2.0340601141286465e-18
-4.393679594603436e-18
2.7092152533538345e-17
-2.0678719003443682e-17
-1.581359690578004e-18
-4.83207383951665e-18
7.406624567082872e-18
-3.151778927786542e-17
5.5535552706385366e-18
1.8557609440144003e-17
1.0461251344982081e-18
-7.231664039085339e-19
4.0020767331885945e-19
-7.231664039085339e-19
1.0496376986490047e-16
-5.204028101127466e-17
4.9861929788305995e-18
-5.790968183245621e-17
-1.0995465455481911e-17
-1.3187819518563876e-16
-1.0063951497451817e-17
1.5293761213856872e-16
-4.393099709461188e-19
-4.393099709461188e-19
6.840641062812747e-19
1.945558356109629e-19
-1.0860926185131905e-16
-8.329399164190693e-17
1.276956892116108e-16
6.420756428161184e-17
5.4723179243462503e-17
-1.1584107131943468e-17
1.821578505621273e-17
-6.135485716773167e-17
4.7269522101264735e-17
-1.3448488900737995e-18
-3.220715687219699e-17
-1.3717516338994187e-17
7.635905858480208e-18
-8.287717987180476e-18
6.992746306386748e-19
-4.7462501938410655e-20
-2.8252799066067667e-18
-8.133154521826995e-18
1.977212173219549e-18
8.981222255214216e-18
1.3415203321022235e-17
-5.73564582152476e-17
-4.5578765855599664e-18
4.8499131479785335e-17
-5.0753498861198946e-17
-3.912966491701563e-17
-8.678162577428927e-17
1.7666478955249528e-16
8.076448597821447e-18
-1.669363293987294e-17
-3.213144013144224e-18
1.1830328355195734e-17
2.739907454551436e-16
-2.327878413538507e-16
-7.935584238742376e-17
3.8152938286130574e-17
1.5442507280564216e-16
-1.5092687296084077e-16
-4.120414017366328e-17
3.7705940328861405e-17
-7.669715735531875e-19
-2.0419480202193202e-17
1.6815145462186847e-17
4.3713063135596306e-18
6.2316882619459684e-18
-9.691935583714718e-18
4.911927420241399e-18
-1.451680098472652e-18
-3.9158302835889327e-17
6.652975456520214e-18
-2.239146943551589e-17
5.4896796814885206e-17
1.8974798040560153e-19
-2.9888208172508993e-17
2.852724384331546e-17
1.171216348787985e-18
3.4232498117434784e-17
-4.882217433679317e-18
-1.8199425244531957e-17
-1.1150855439223494e-17
-7.74919563028324e-19
2.6690245597122664e-17
-4.910702547409628e-17
2.319169944000151e-17
1.6404224535154513e-17
-1.7212314694573583e-17
-3.61703536162701e-19
1.1697936955817756e-18
7.343279859005773e-19
-6.342838167726395e-18
-7.259677815894248e-19
6.334477963415243e-18
-1.6445654878107136e-17
-1.828426528828175e-18
-1.3327771249593841e-17
3.1601852656529186e-17
-3.7493717557431594e-19
-7.452103329201288e-18
-1.8352329430643183e-18
9.662273447839925e-18
2.4113344667088296e-17
-7.271006982208016e-18
-1.7646977625746314e-17
8.04639940866099e-19
-2.8625364790784673e-18
-6.4011195558919525e-18
9.326117525291557e-18
-6.24614903211354e-20
2.1048429991674444e-19
2.4790264131445278e-17
-1.436454745563737e-17
-1.0636200975724634e-17
-1.5846645163927042e-19
-1.5846645163927042e-19
-1.5846645163927042e-19
4.753993549178113e-19
-8.381224340090181e-18
1.7504950987820097e-17
-3.4102714151325634e-18
-5.71345523259735e-18
4.62569616058694e-18
9.280373027616314e-18
-3.771230834744592e-18
-1.0134838353458648e-17
7.755531245531791e-19
-1.1609487644294014e-17
-3.7574687202008225e-19
1.1209681391760927e-17
-7.922666783012427e-19
-7.869432831928212e-18
4.487682017573114e-18
4.174017492656341e-18
1.267993409494997e-18
-2.1269900547767622e-17
2.115271043838161e-17
-1.1508033001089293e-18
2.567715203809336e-18
-8.04803402663112e-18
6.555828977324996e-18
-1.0755101545032178e-18
6.4584304952428305e-18
-1.3003776427231335e-17
4.9702088084069586e-18
1.5751371235815445e-18
1.6648996729755798e-18
3.2015450161749186e-17
-2.31322024550085e-17
-1.0548147379716405e-17
-6.202555227607665e-18
1.99070471623519e-18
5.789712012285187e-18
-1.5778615009127196e-18
-6.723213867254083e-18
1.739366992224945e-17
-8.015048789612777e-18
-2.655407265382587e-18
6.225253112575629e-18
2.307466904228618e-17
1.1993536779824322e-18
-3.0499275832844206e-17
1.5955091256999006e-17
-1.6545354182513222e-17
-1.1622972809235779e-17
1.2213235734750044e-17
-8.052780433784855e-17
-2.2521786982757484e-17
1.1148629043905322e-16
-8.436699118448435e-18
-7.914095565926192e-18
-7.645356952176481e-17
1.2027378630708279e-17
7.234028645698193e-17
-4.026567492750091e-17
7.435767165660552e-17
-3.3159677525471716e-17
-9.323192036335165e-19
2.3499367949602848e-17
-3.81532415587743e-17
-2.252832731020606e-17
3.718220091937756e-17
1.8365750195521552e-17
-6.032657694873276e-17
-4.063705145562256e-17
8.259787820883186e-17
5.1276244350470866e-18
-2.3181040179460764e-17
8.273433982906233e-18
9.77998176150747e-18
-3.525535843173455e-18
6.4370156390761374e-18
-3.244465991602582e-18
3.3298619569990244e-19
8.135816798302547e-18
-3.2557888585052504e-17
5.6368300406788574e-18
1.878524174607109e-17
-6.346125316678008e-17
-7.287861597731169e-17
7.589660556433173e-17
6.044326357975734e-17
-3.001627100494113e-18
-2.6002417099781724e-17
1.443904968040444e-17
1.456499451987147e-17
-4.3134051328396955e-17
-7.74037883063162e-17
7.917409349265896e-17
4.136374614205323e-17
4.665692915689215e-17
-5.549908402867371e-17
1.9501375197070022e-17
-1.0659220325288753e-17
-1.944560205445275e-17
-3.463373552222934e-17
-1.8151051144925852e-17
7.223038872160814e-17
1.5559807802386388e-17
-2.4017803790752793e-17
5.618807281527244e-18
2.839188706839199e-18
-1.1921000258806353e-17
3.808205885860744e-17
-1.2735378565117002e-17
-1.342568003468409e-17
2.9349109403079843e-18
-3.2164631292689272e-18
6.362695668794086e-18
-6.081143479833103e-18
6.1620400874883234e-18
-2.8760894638621424e-17
1.8122742079902078e-19
2.2417627130334164e-17
4.483487119128192e-19
-1.3209428264939231e-18
9.258053279608636e-19
-5.321121337975978e-20
-5.887376816186887e-19
-2.3580292200254308e-18
2.1354670888841428e-18
8.112998127599772e-19
3.763333628875224e-18
-1.39295817551922e-17
1.078464794381046e-17
-6.183998174934829e-19
-2.808435193068483e-19
-2.808435193068483e-19
8.42530557920545e-19
-2.808435193068483e-19
0.0
0.0
0.0
0.0
-7.49356565723124e-18
1.662331813227229e-17
-3.1685301934529747e-18
-5.961222281588072e-18
2.229069648242182e-17
-2.0172300439339976e-17
7.912051491344838e-18
-1.0030447534426684e-17
0.0
0.0
0.0
0.0
2.718849342105994e-16
-1.2827326425196535e-16
-4.587943609935256e-17
-9.773223385928559e-17
-1.469731463408404e-17
3.884432756014324e-17
-1.084973578635382e-17
-1.329727713970538e-17
8.478436416400753e-18
-7.445187429259931e-18
-1.82831704312296e-18
7.950680559821343e-19
-1.3217883825081851e-17
-5.32293466387781e-18
1.572593380362474e-16
-1.387185195472906e-16
-7.201534902529671e-19
-7.201534902529671e-19
1.5265946642018196e-18
-8.628768369588544e-20
6.598182508001157e-17
-6.755853975485076e-17
2.0656804449130084e-17
-1.9080089774291222e-17
-9.778493528406145e-19
-2.7471408912473566e-18
-5.003927367925699e-19
4.225382980880542e-18
-4.809130863897887e-18
-2.073275470955856e-17
1.5215215761718034e-17
1.0326669811738436e-17
1.3269686538050565e-18
-4.423228846016856e-19
-4.423228846016856e-19
-4.423228846016856e-19
1.5898458854303676e-17
4.629511875672367e-18
-9.545466063915914e-18
-1.0982504666060097e-17
-3.394372020205876e-18
-1.1621844397741204e-18
2.5533189465191618e-17
-2.097663300521158e-17
-1.5846645163927042e-19
-1.5846645163927042e-19
-1.5846645163927042e-19
4.753993549178113e-19
2.653937307610113e-18
-8.846457692033711e-19
-8.846457692033711e-19
-8.846457692033711e-19
2.2146273366639947e-18
-1.3239557401494901e-18
-2.005816629220965e-19
-6.900899335924083e-19
2.0200715010530317e-18
-1.5185115757604528e-18
-1.5185115757604528e-18
1.0169516504678741e-18
2.4052801859891663e-18
-4.671885967637803e-18
-1.3017637359556224e-18
3.568369517604259e-18
-3.539710338821063e-18
1.35000072970555e-17
-4.045092874214979e-18
-5.915204084019454e-18
0.0
0.0
0.0
0.0
7.743203561580605e-19
-2.764262720655424e-18
2.852607665481543e-18
-8.626653009841791e-19
0.0
0.0
0.0
0.0
6.607792626020291e-18
-4.0079566044201624e-18
-1.761208449965375e-18
-8.38627571634754e-19
-1.5846645163927042e-19
-1.5846645163927042e-19
-1.5846645163927042e-19
4.753993549178113e-19
4.483487119128191e-19
-1.3209428264939231e-18
9.258053279608636e-19
-5.321121337975978e-20
0.0
0.0
0.0
0.0
4.58772112496726e-18
-2.4894450286597092e-18
-2.4269687420492263e-19
-1.855579222102628e-18
-2.2668429710259913e-18
9.465000049630343e-18
-3.586603812730559e-18
-3.611553265873793e-18
-1.7213727537065653e-17
-3.3327653088892266e-17
1.8510835579444008e-17
3.2030545046514e-17
0.0
0.0
0.0
0.0
-1.7482011428177745e-18
-3.517492681224516e-18
4.3461258593672365e-18
9.19567964675055e-19
-7.4720413325795905e-19
-2.5164956716647014e-18
1.9770006372448725e-18
1.2866991676777884e-18
1.2276804078809856e-17
-3.9222952241151506e-17
-1.883893773518229e-17
4.57850858975242e-17
0.0
0.0
0.0
0.0
0.0
0.0
0.0
0.0
1.0461251344982081e-18
-7.231664039085339e-19
4.0020767331885945e-19
-7.231664039085339e-19
-5.8677415820810455e-18
2.001843374582923e-17
-6.513659043260395e-18
-7.637033120487787e-18
0.0
0.0
0.0
0.0
-1.5846645163927042e-19
-1.5846645163927042e-19
-1.5846645163927042e-19
4.753993549178113e-19
-7.742547762629514e-19
-4.3128378530764366e-18
2.4274066102879243e-18
2.6596860190514624e-18
3.2788299530956042e-18
-5.567627738938109e-18
3.419364878881038e-18
-1.1305670930385357e-18
2.8662760240962163e-17
4.270908347174378e-17
-4.6936603307311295e-17
-2.443524040539482e-17
2.1058117140705316e-16
-6.823140128332703e-17
-7.937127894154803e-18
-1.344126422295743e-16
-4.031311035038183e-18
-5.71830994375211e-18
-1.2397596123855536e-17
2.2147217102645784e-17
-4.418786424280846e-18
-2.918886796197521e-17
1.462272104989314e-17
1.898493333636296e-17
-6.395298081996993e-17
1.3298356861489708e-16
-5.033105163839988e-17
-1.8699536156528076e-17
-3.5273559149263304e-18
-1.2373813606960051e-17
6.723545705905643e-18
9.177623815980733e-18
3.347040154858088e-18
-1.9608344603621386e-18
-1.9608344603621386e-18
5.746287658661882e-19
4.239834592397933e-18
-8.145206176449265e-18
-2.5283357903122927e-18
6.4337073743636196e-18
-1.5846645163927042e-19
-1.5846645163927042e-19
-1.5846645163927042e-19
4.753993549178113e-19
-1.0731757775032005e-18
-1.0731757775032005e-18
5.019829972419307e-20
2.096153255282208e-18
-3.379879958996462e-18
-9.340952322407538e-18
3.4450475914616e-18
9.275784689942407e-18
7.929756684934657e-18
-1.3301741775946251e-17
9.165739768601609e-18
-3.7937546775900245e-18
-3.1693290327854084e-19
-3.1693290327854084e-19
-3.1693290327854084e-19
9.507987098356225e-19
0.0
0.0
0.0
0.0
5.5024960307263e-18
-8.651836276527642e-18
4.8286526502010805e-18
-1.6793124043997406e-18
6.969919234132334e-18
-1.2492287688341832e-17
6.605071624523851e-18
-1.0827031703143602e-18
5.680860036051849e-18
6.796953826267736e-18
-1.7611537271836006e-18
-1.0716660135135981e-17
3.1113903403847436e-18
-1.1042941966869202e-17
6.9310432687690975e-18
1.000508357715356e-18
-2.9656688763126352e-18
-1.1812126568346344e-17
5.038484590064542e-18
9.739310854594433e-18
-7.860696860233977e-18
1.6256186929269557e-17
-1.6553916477352653e-19
-8.229950904262053e-18
-1.2614037526159218e-17
3.208114697603435e-17
-6.379175598188775e-18
-1.3087933851686366e-17
7.382309721863679e-19
-2.800352104627116e-18
1.6931442042824572e-18
3.689769281582917e-19
0.0
0.0
0.0
0.0
2.0819435872625107e-17
-2.6951435664356905e-17
8.996534806919651e-18
-2.8645350151878303e-18
3.4385291731299847e-18
-1.425438621093743e-17
3.494767930186844e-19
1.0466380244788758e-17
-6.710567991336737e-19
-5.9789314143539e-18
1.1995053821284398e-17
-5.3450656077968174e-18
1.3220945572159086e-17
-1.2039656860304357e-16
-1.3916954276569613e-16
2.463451657965524e-16
1.503512587377728e-18
-3.804362027842499e-18
2.935882435521862e-18
-6.350329950570906e-19
3.3831295388297806e-18
-1.924745076390446e-18
-8.013709991630525e-19
-6.570134632762826e-19
8.876586828589379e-19
-8.816328555478043e-19
2.417412216795891e-19
-2.4776704899072266e-19
0.0
0.0
0.0
0.0
-3.978954729872075e-18
5.983596752377517e-18
1.9189855078357647e-18
-3.923627530341206e-18
-5.4895548266734056e-18
1.620483967623254e-17
-2.034749507897533e-18
-8.680535341661583e-18
2.088347282710626e-18
-4.988818870916346e-18
-1.6186966392341632e-18
4.519168227439882e-18
1.0914670231680703e-17
-6.778245152386722e-18
-1.1613747662497528e-18
-2.97505031304423e-18
0.0
0.0
0.0
0.0
3.2140043140333633e-17
-1.7089130418119762e-16
-1.1807312881760222e-16
2.5682438985845917e-16
1.9078124976346017e-17
-9.8837373863527e-18
-2.714607858620555e-18
-6.479779731372738e-18
-3.210917548606955e-17
5.197331890309738e-17
-2.270057809089408e-17
2.8364346738662138e-18
7.875972441286877e-18
-1.2239432229378136e-17
-1.4057295319465072e-17
1.8420755107556358e-17
-1.771130409988794e-17
-1.259373119083357e-17
-3.443457457138382e-18
3.3748492747859986e-17
1.5730608832992802e-17
-4.9460583752197557e-17
-3.271229542640254e-17
6.644227034560704e-17
-1.4423070500313705e-16
-2.6050893009050012e-18
-1.0027767573642931e-16
2.471134700404691e-16
-2.7794333185203973e-18
3.6445350869157185e-18
8.5669164601931e-18
-9.432018228588426e-18
-5.605163526732769e-17
4.376418126133411e-17
7.448284008950201e-18
4.839169997043058e-18
5.163582659228563e-18
-8.990749648025372e-18
-1.1271311074336182e-18
4.954298096230426e-18
-1.5133637867976868e-17
6.121849261937215e-17
-2.987713046866229e-17
-1.6207724282732997e-17
-2.4856975283134786e-17
6.09948106444388e-17
-8.062215963415628e-18
-2.807561939788841e-17
1.0063232092583677e-17
-2.001472406033093e-17
1.0316376024808692e-17
-3.648840570614109e-19
5.0148078318088665e-18
9.669484698838238e-18
-1.135371009067888e-18
-1.3548921521579214e-17
4.886642126207508e-18
-5.729107104232945e-18
2.1345114363588093e-18
-1.2920464583333734e-18
0.0
0.0
0.0
0.0
-4.3551902537366156e-18
1.4453818920546685e-17
-1.9679071734963947e-18
-8.130721493313672e-18
1.1033448405512944e-18
5.758021707580665e-18
-8.41695623200762e-18
1.5555896838756716e-18
-3.078941623118404e-19
-2.0771857007185828e-18
1.2929365309635975e-18
1.0921433320668257e-18
-3.633151111835661e-18
2.690770108310398e-17
-8.18249925943697e-18
-1.5092050711831334e-17
2.4463080617568413e-18
1.7063536411035823e-17
-1.8026663931505135e-17
-1.4831805412874822e-18
-6.157883246236807e-19
-4.1543714014371656e-18
2.585873061927195e-18
2.1842866641336513e-18
3.1150828114746137e-17
2.611554783538513e-17
-2.1168486240781062e-17
-3.609788970935012e-17
5.534616848517089e-18
-5.081132381923363e-18
-1.7110101502411817e-18
1.2575256836474544e-18
-4.042160336743867e-18
1.122826576072595e-17
-4.070086256089737e-18
-3.116019167892346e-18
8.966974238256384e-19
-2.641885652987846e-18
1.8516106559217276e-18
-1.0642242675951956e-19
-5.9437577564151195e-18
9.326668341054703e-18
-5.971683675760977e-18
2.588773091121389e-18
1.3360073947717572e-18
-2.2025756820417273e-18
1.1675465496404528e-18
-3.0097826237048247e-19
0.0
0.0
0.0
0.0
1.4855649402733505e-17
-1.8760889826994593e-17
-7.86904591356309e-19
4.692145015617418e-18
1.631787127156351e-17
-1.0221501804537619e-17
-3.4812573411732576e-18
-2.6151121258526386e-18
-7.661070849837213e-18
1.8225104478073058e-17
-4.936866079334382e-18
-5.6271675489014645e-18
2.447266832792044e-17
3.3234624967325473e-18
-2.9193427459600996e-17
1.397296634947185e-18
-3.86154709504358e-17
7.293218859888207e-17
-4.383775714950645e-17
9.521039501059547e-18
-2.91085455743341e-17
-4.065869700780054e-18
-5.584340008585638e-17
8.901781536096893e-17
2.6505497243252987e-17
-3.2534321272360355e-17
1.1706152803875785e-17
-5.6773287747683635e-18
2.4835177035090477e-17
-1.812205117483422e-18
-4.0906058421306174e-17
1.7883086503698255e-17
-1.5846645163927042e-19
-1.5846645163927042e-19
-1.5846645163927042e-19
4.753993549178113e-19
-5.746287658661882e-19
-2.343920304272931e-18
-2.343920304272931e-18
5.26246937441205e-18
-1.6709522000885893e-18
-1.6709522000885893e-18
5.757959543661975e-19
2.766108445810982e-18
2.3460431452982728e-18
-2.9618314699219535e-18
4.082907617602263e-19
2.0749756286345436e-19
-1.79144361610818e-18
9.940399404548161e-18
-3.1112044578127563e-18
-5.037751330627222e-18
-6.326330381619629e-19
-9.479090730195676e-18
-3.862220344058708e-18
1.3973944112416355e-17
1.0461251344982081e-18
-7.231664039085339e-19
4.0020767331885945e-19
-7.231664039085339e-19
-9.198787169538642e-18
3.372710579424817e-17
-1.3720209397794082e-17
-1.0808109226915452e-17
-4.393099709461188e-19
-4.393099709461188e-19
6.840641062812747e-19
1.945558356109629e-19
1.0100357505265158e-18
-7.592557878802263e-19
-7.592557878802263e-19
5.084758252339369e-19
0.0
0.0
0.0
0.0
-5.977764225853891e-19
-5.977764225853891e-19
5.255976546420042e-19
6.699551905287742e-19
-1.5846645163927042e-19
-1.5846645163927042e-19
-1.5846645163927042e-19
4.753993549178113e-19
-4.393099709461188e-19
-4.393099709461188e-19
6.840641062812747e-19
1.945558356109629e-19
0.0
0.0
0.0
0.0
8.515692988872456e-19
-9.177222395194968e-19
-9.177222395194968e-19
9.838751801517482e-19
0.0
0.0
0.0
0.0
-7.201534902529671e-19
-7.201534902529671e-19
1.5265946642018196e-18
-8.628768369588544e-20
0.0
0.0
0.0
0.0
0.0
0.0
0.0
0.0
0.0
0.0
0.0
0.0
-2.808435193068483e-19
-2.808435193068483e-19
8.42530557920545e-19
-2.808435193068483e-19
0.0
0.0
0.0
0.0
1.3269686538050565e-18
-4.423228846016856e-19
-4.423228846016856e-19
-4.423228846016856e-19
2.653937307610113e-18
-8.846457692033711e-19
-8.846457692033711e-19
-8.846457692033711e-19
0.0
0.0
0.0
0.0
0.0
0.0
0.0
0.0
0.0
0.0
0.0
0.0
-1.5846645163927042e-19
-1.5846645163927042e-19
-1.5846645163927042e-19
4.753993549178113e-19
-1.5846645163927042e-19
-1.5846645163927042e-19
-1.5846645163927042e-19
4.753993549178113e-19
-1.3540192968100487e-18
-1.3540192968100487e-18
8.927288576447381e-19
1.8153097359753598e-18
-4.393099709461188e-19
-4.393099709461188e-19
6.840641062812747e-19
1.945558356109629e-19
4.9909417119416855e-18
-2.086224441685283e-18
-2.086224441685283e-18
-8.184928285711198e-19
0.0
0.0
0.0
0.0
0.0
0.0
0.0
0.0
0.0
0.0
0.0
0.0
-3.070391100371218e-17
2.5723116519137707e-17
4.542290167693321e-18
4.385043168811298e-19
-5.6162145871858745e-19
-7.638787612345562e-18
6.965075391610557e-18
1.2353336794535869e-18
-1.2554866065363433e-17
3.7448193052050373e-17
-1.3369244371674093e-17
-1.1524082615012843e-17
-1.9449025571585318e-19
-7.271656409342824e-18
3.962084362931111e-18
3.504062302127565e-18
-1.2818405288666639e-18
-1.2818405288666639e-18
3.2116557800429094e-18
-6.479747223095821e-19
-3.039255961309401e-19
-5.611800211351167e-18
8.992062792604947e-18
-3.07633698512284e-18
-8.605424599588364e-19
-4.399125536772322e-18
4.5878670810468244e-18
6.718009156843322e-19
9.740775263450425e-19
-1.494954631931564e-17
8.64130930245962e-18
5.334159490510977e-18
-1.5846645163927042e-19
-1.5846645163927042e-19
-1.5846645163927042e-19
4.753993549178113e-19
1.1504903001274948e-18
-4.1573843150927316e-18
1.4594860710442353e-18
1.5474079439210027e-18
3.4325293875663907e-16
3.305438707583691e-16
-2.3496394596682423e-16
-4.3883286354819153e-16
2.1254582407004104e-17
-8.155462852675354e-17
3.6562930697999264e-17
2.373711542174927e-17
5.725771932544224e-17
-5.262865776194133e-17
4.82670129253186e-18
-9.455762856033074e-18
1.5650783038610745e-17
-1.973504772952409e-17
1.6212922741752492e-17
-1.212865805083913e-17
-7.900689230491457e-18
1.2677611482198584e-17
-3.7441146118444956e-18
-1.0328076398626284e-18
-1.5124857484493193e-18
-1.5124857484493193e-18
7.342624060054678e-19
2.290709090893171e-18
4.661916704348847e-18
-4.837738735875718e-18
7.948261177993429e-18
-7.772439146466551e-18
4.008022184315271e-18
-6.6077270461251846e-18
3.502639648921355e-18
-9.029347871114475e-19
-7.221695298995986e-18
1.1587313875287332e-17
-3.409159098461901e-19
-4.02470266644514e-18
-2.427195074313249e-18
-2.427195074313249e-18
9.429271573689311e-19
3.911462991257567e-18
-4.753993549178113e-19
-4.753993549178113e-19
-4.753993549178113e-19
1.426198064753434e-18
-6.379949307318116e-18
1.1775862118774347e-17
-1.3203971528720058e-17
7.808058717263908e-18
-2.5404678211190165e-18
-1.1386925513152733e-17
8.833807876940351e-18
5.093585457331397e-18
4.650926731839054e-18
-7.734114037008143e-18
5.746374889720577e-18
-2.663187584551489e-18
2.7726690227465166e-16
-1.59393220746266e-16
-1.3584372967384607e-16
1.7970048145461976e-17
5.587564980437009e-17
-5.2241435744606905e-17
-6.555864355545945e-17
6.192442949569495e-17
7.531540692850924e-18
-4.853500075996275e-18
-3.600037670867005e-19
-2.318036849767947e-18
-7.13092474387207e-18
-1.420809089749902e-17
-1.8509760479976996e-18
2.3189991689368767e-17
3.595228468906225e-17
1.983835913723575e-17
-2.942681914489357e-17
-2.636382468140455e-17
6.476376817386013e-18
-2.3700808746476982e-18
-2.3700808746476982e-18
-1.7362150680906165e-18
0.0
0.0
0.0
0.0
0.0
0.0
0.0
0.0
-1.1106296128598277e-18
2.7660931043673074e-17
-9.676017453322667e-18
-1.6874283977490573e-17
-9.147093258639299e-19
-9.147093258639299e-19
2.0866475136346337e-19
1.6207539003643967e-18
0.0
0.0
0.0
0.0
-6.332803847741931e-18
1.860456096100922e-18
-3.3275292256682415e-18
7.79987697730924e-18
1.4680469397346184e-17
-3.839827675485613e-17
3.1665641025574547e-18
2.0551243254952478e-17
2.718703582352572e-19
-5.036004256984971e-18
2.8276142836067844e-18
1.936519615142929e-18
0.0
0.0
0.0
0.0
0.0
0.0
0.0
0.0
-5.585434448383501e-17
-1.9841032414290138e-17
-1.1659489043781807e-16
1.922902673359312e-16
1.3645922061915108e-17
-1.2893451014186028e-17
-5.363361646846963e-19
-2.1613488304439025e-19
-2.808435193068483e-19
-2.808435193068483e-19
8.42530557920545e-19
-2.808435193068483e-19
6.1014396418116935e-18
-9.822184203848983e-18
-4.205313817712019e-18
7.926058379749305e-18
4.859591483202517e-18
-7.525449285644683e-18
2.5849174094018622e-18
8.094039304030082e-20
-3.768265032840387e-17
-1.4198855846470875e-16
-2.0603199840889037e-17
2.002744086339963e-16
1.1685022021657862e-18
-6.00789336240956e-19
-6.00789336240956e-19
3.307647031612567e-20
-8.121715823965175e-18
-1.87374650544056e-17
-6.380350204904306e-18
3.323953108327507e-17
-1.121365733601565e-17
2.286577793573748e-17
-7.730926097893917e-18
-3.921194501827883e-18
4.122593279411268e-19
-1.3570322104656156e-18
-2.336581332382221e-19
1.178431015762711e-18
-2.8754782063309584e-18
-8.183352821551191e-18
5.297136105177528e-18
5.761694922704613e-18
0.0
0.0
0.0
0.0
-7.634020206832221e-18
2.0021446659484795e-17
-5.387272052377434e-18
-7.00015440027514e-18
0.0
0.0
0.0
0.0
0.0
0.0
0.0
0.0
-2.355016306369864e-18
-2.355016306369864e-18
3.261854079767103e-18
1.4481785329726258e-18
-1.5528406494142756e-17
2.5628194931237335e-17
-1.8448998029122747e-17
8.349209592028212e-18
3.872703389395202e-18
-8.512337379451997e-18
4.746552383671539e-19
4.1649787516896404e-18
1.0958499485129266e-17
1.3190687065561055e-17
-1.6787798868868268e-18
-2.2470406663803467e-17
2.364186207126784e-18
-1.3559437638533899e-17
8.908043906013968e-18
2.2872075253931447e-18
2.3229720653504963e-17
-2.2771859345070312e-17
-3.674500032204644e-18
3.2166387237700154e-18
-1.5846645163927042e-19
-1.5846645163927042e-19
-1.5846645163927042e-19
4.753993549178113e-19
8.718120376950106e-18
-8.974795007117314e-18
2.258945765156621e-18
-2.002271134989415e-18
-8.232203075920247e-19
-1.320826107643922e-17
2.5189760047442846e-18
1.1512505379286969e-17
5.344029579087029e-18
-8.810302728166912e-18
4.6701861985618095e-18
-1.2039130494819299e-18
2.0200715010530317e-18
-1.5185115757604528e-18
-1.5185115757604528e-18
1.0169516504678741e-18
-7.389266071497065e-18
2.026620079481995e-17
-7.389266071497065e-18
-5.48766865182582e-18
1.1946423607646378e-17
2.6563651956925337e-17
-1.863691508066215e-17
-1.9873160483909547e-17
1.6168509140786055e-18
-1.921732162734879e-18
3.2501599171990764e-19
-2.0134743063634103e-20
0.0
0.0
0.0
0.0
0.0
0.0
0.0
0.0
3.2310316102665367e-18
-1.6231175312207618e-17
-4.997434539933707e-18
1.7997578241874776e-17
5.937837435491515e-18
-4.677911794948938e-18
-3.554537717721543e-18
2.294612077178962e-18
-5.977764225853891e-19
-5.977764225853891e-19
5.255976546420042e-19
6.699551905287742e-19
-5.3799222233733965e-18
-1.2457088377000361e-17
1.001039316754751e-17
7.826617432826253e-18
-6.314002697668453e-20
-1.832431565383427e-18
-7.090574881560333e-19
2.6046290805161446e-18
1.6168509140786053e-18
-1.921732162734879e-18
3.250159917199078e-19
-2.0134743063634103e-20
9.327868077973307e-19
-2.605796269016153e-18
3.0110741171208136e-18
-1.3380646559019902e-18
-1.133383267008776e-19
-1.8826298651076197e-18
2.6108664438019542e-18
-6.148982519934565e-19
7.291922312196674e-19
-1.0400993071870746e-18
8.327477004031867e-20
2.2763230592708856e-19
7.11180329181376e-19
-4.596694286038851e-18
2.14355017732551e-18
1.7419637795319656e-18
-6.609164495620736e-19
-2.4302079879688157e-18
-1.8345983351402907e-19
3.2745842710449187e-18
1.7031385977744912e-18
-1.8354444790389936e-18
-1.8354444790389936e-18
1.9677503603034965e-18
-4.393099709461188e-19
-4.393099709461188e-19
6.840641062812747e-19
1.945558356109629e-19
4.353238498993919e-18
-1.3339676885073496e-17
1.4081204165522097e-19
8.84562634442436e-18
8.039323185139967e-18
-2.911579912140161e-17
1.4695789890466744e-17
6.380686045794953e-18
2.7583024732393996e-18
-4.318863680387569e-18
1.7463262852200426e-19
1.3859285786261659e-18
-8.05468127531739e-18
-5.890123984708806e-17
-7.513917797551066e-19
6.770731290216052e-17
3.600833031159945e-18
-3.476333122467024e-18
-2.3529590452396307e-18
2.2284591365467106e-18
-5.5112724521125636e-18
-1.789631322095975e-17
1.468153501863466e-17
8.726050654437677e-18
1.2819061087617732e-18
-5.795260044865197e-18
2.068358495726558e-18
2.444995440376866e-18
2.785353116244392e-18
-2.5225214989758353e-18
-2.757733445210482e-19
1.2941727252491566e-20
-1.4763963644776268e-18
-1.4763963644776268e-18
1.8937258672045533e-18
1.0590668617506998e-18
-3.948653983834161e-18
-9.256528599054386e-18
5.347334404901721e-18
7.857848177986821e-18
-9.860125967577365e-17
1.4479976579969399e-16
-5.563106956050631e-17
9.432563436584933e-18
-3.619954483218244e-19
-5.6698700635420535e-18
2.1937484770497028e-18
3.838117034814174e-18
-7.511071195437501e-19
-6.0589817347639805e-18
-4.4211134862701e-19
7.252200202934738e-18
-1.109265161474893e-18
-1.109265161474893e-18
-1.109265161474893e-18
3.3277954844246783e-18
-3.1693290327854084e-19
-3.1693290327854084e-19
-3.1693290327854084e-19
9.507987098356225e-19
-9.816461145810314e-18
1.78390057205067e-17
-6.446338914128131e-18
-1.5762056605682513e-18
-6.0622974176920074e-18
1.9823877910218267e-17
-7.831588956098749e-18
-5.9299915364275046e-18
4.306943185555521e-18
-9.847389121698422e-18
5.879847959485082e-18
-3.394020233421925e-19
2.623636038372597e-18
2.01262497162742e-17
-5.54807294407981e-18
-1.720181281056699e-17
8.25169418310389e-18
-4.133346585743308e-18
-1.88659843128852e-18
-2.231749166072062e-18
-5.025145444265392e-18
1.3783863730017924e-17
-3.761236441252562e-18
-4.997481844499956e-18
2.6552356559003435e-18
-1.6806971266573822e-17
1.1670139690644713e-18
1.2984721641609018e-17
-1.7070415840602822e-18
-1.7070415840602822e-18
-5.836675068328886e-19
3.9977506749534536e-18
7.805296702734161e-18
1.84422433932308e-18
-2.2203869052186773e-18
-7.429134136838568e-18
-2.7050643004992013e-20
-1.7963421814117344e-18
4.5040597304305245e-19
1.3729868513736737e-18
0.0
0.0
0.0
0.0
-1.8551709464426243e-19
-1.9548086330510046e-18
2.9193952140378217e-19
1.848386206291485e-18
-1.6365280097119314e-17
5.998685039022943e-17
-2.998539862057755e-17
-1.3636171672533056e-17
-7.562428742246596e-19
-7.562428742246596e-19
3.671312030027338e-19
1.1453545454465854e-18
6.068151635520895e-19
-1.1624763748546527e-18
1.084271779600134e-18
-5.286105682975711e-19
0.0
0.0
0.0
0.0
-6.306668930769836e-18
1.7157017110542864e-17
-2.4673427695362434e-17
1.382307951558951e-17
-3.622747919484028e-18
-3.622747919484028e-18
1.9941224666529396e-18
5.2513733723151174e-18
1.207188282717935e-18
-3.240935094701018e-17
4.661993601493785e-18
2.6540169062798392e-17
0.0
0.0
0.0
0.0
5.346363956087048e-19
-1.2346551427980377e-18
-1.2346551427980377e-18
1.9346738899873708e-18
-1.1666496337572011e-17
-7.011819470542668e-18
-4.336186251720087e-18
2.3014502059834735e-17
1.2999180108000649e-18
-2.2386650660134198e-18
8.08308844136694e-21
9.306639667719883e-19
-1.2991961961986426e-17
7.586338750703618e-18
1.0261971969526238e-17
-4.8563487582434276e-18
-1.7024832095296476e-17
2.878644619711294e-17
-2.1602106162243645e-17
9.840492060427195e-18
-1.4330183431081308e-17
3.9211458763145957e-17
-1.3852726815033259e-17
-1.1028548517031397e-17
-1.5846645163927042e-19
-1.5846645163927042e-19
-1.5846645163927042e-19
4.753993549178113e-19
0.0
0.0
0.0
0.0
0.0
0.0
0.0
0.0
-1.6348628161168972e-18
-1.6348628161168972e-18
1.735259415565283e-18
1.5344662166685114e-18
1.8294842316229692e-18
-5.247681922004001e-18
4.86268477304254e-18
-1.4444870826615096e-18
-1.3007508327234475e-17
-1.3660706075425332e-17
5.865538301808153e-18
2.0802676100851627e-17
-1.59520389400506e-17
3.228172863895644e-17
-2.8084717035844987e-18
-1.352121799532135e-17
-1.2468447221877336e-17
2.3380279588282544e-17
-4.9696762908940604e-18
-5.942156075511145e-18
-2.4865712162094716e-19
-3.7872401984344315e-18
-4.171179667522512e-19
4.4530152868076304e-18
-1.0280476525648077e-18
-2.7973391909715494e-18
2.8195311951654176e-18
1.0058556483709402e-18
0.0
0.0
0.0
0.0
1.6750519260597074e-19
-1.6017863458007715e-18
1.7683358858814087e-18
-3.3405473268660813e-19
1.2579767690740809e-17
-7.53563697992422e-18
-5.9833778383290095e-18
9.392471275124204e-19
1.917004683713974e-18
-1.4006619161946703e-17
-5.261302352179865e-19
1.261574471345073e-17
-6.609164495620737e-19
-2.4302079879688157e-18
-1.8345983351402907e-19
3.2745842710449187e-18
2.115463505610728e-18
-1.026957726323647e-17
3.2109116634922532e-18
4.943202094133493e-18
8.966974238256384e-19
-2.641885652987846e-18
1.8516106559217272e-18
-1.0642242675951936e-19
-2.7040603778740267e-17
6.662383868034394e-17
-5.1106200029395823e-17
1.1522965127790655e-17
4.1225932794112666e-19
-1.3570322104656156e-18
-2.336581332382222e-19
1.1784310157627111e-18
6.95886315852783e-18
-2.5407922816967358e-18
-2.1119072173289406e-18
-2.3061636595021598e-18
1.0782948929751785e-16
-3.828621801235772e-17
-9.446418785552624e-18
-6.009685249960707e-17
1.3829487401816681e-17
-9.824500345661825e-18
-2.655370817929628e-18
-1.3496162382251853e-18
3.224728667085621e-18
-9.160312101761577e-18
4.3201768249671425e-18
1.6154066097088118e-18
-7.904466065483651e-19
1.094139641410798e-17
-5.480329679935118e-18
-4.670620127624491e-18
0.0
0.0
0.0
0.0
-2.0058057766919116e-17
2.817570981208786e-17
-1.1407986839362576e-17
3.290334794193819e-18
6.476442397281121e-18
-9.447181448379559e-18
2.9099334011217706e-18
6.080564997666672e-20
-3.946833912081284e-18
9.554300646981792e-18
-4.620677292606499e-18
-9.867894422940103e-19
-6.2207638693312784e-18
1.9665411458578994e-17
-7.99005540773802e-18
-5.454592181509693e-18
1.1987911589079009e-17
-1.2782169948615382e-17
4.068441209795522e-18
-3.2741828502591538e-18
5.72090796180106e-17
1.832659584401343e-16
-9.081772266944518e-17
-1.4965731538870595e-16
-1.0572182819771912e-17
5.758668772373426e-17
-1.9333957424711914e-17
-2.7680547479250466e-17
2.2594818818238094e-17
-3.5791801949184406e-17
1.476003152604833e-17
-1.5630483951019872e-18
1.3462421778709053e-17
-1.72687321223964e-17
5.627634486519249e-18
-1.821324142831886e-18
1.4583844624393347e-18
-2.080198614374149e-18
1.6654954008063724e-19
4.552646118541771e-19
-1.0680400228222906e-18
-6.375914638042522e-18
-7.590442519055509e-19
8.202998912770364e-18
-1.014054713840757e-17
3.101605428697252e-17
-1.3061138673387571e-17
-7.814368475177384e-18
1.0325932550062013e-17
-9.13627437241215e-18
9.740923226343904e-19
-2.163750500284252e-18
-1.9336526575669266e-18
-1.2549401888007381e-17
9.918079656540495e-18
4.564974889033825e-18
-5.858637261219234e-18
1.1181080374657322e-17
3.7622466675120743e-19
-5.6986677801892996e-18
-8.76845035966412e-18
2.884956798890248e-17
-1.073412866254801e-17
-9.346988966690336e-18
-1.4729053876016695e-17
4.439305726928979e-17
-2.5624062299915776e-17
-4.039941093357398e-18
-1.040989379817299e-18
-4.579572456630785e-18
-1.209450224948603e-18
6.830012061396688e-18
0.0
0.0
0.0
0.0
-1.043816146068487e-15
9.000746361008217e-16
1.0765205640794974e-15
-9.327790541116966e-16
-2.540533401014126e-18
-4.309824939420869e-18
3.553793601170885e-18
3.2965647392641113e-18
1.1685022021657862e-18
-6.00789336240956e-19
-6.00789336240956e-19
3.307647031612567e-20
6.931028472479751e-19
-1.0761886911587672e-18
-1.0761886911587672e-18
1.4592745350695595e-18
-2.309888181431471e-18
-4.079179719838214e-18
6.031186975208324e-18
3.5788092606135804e-19
-5.1995408834100406e-18
-5.1995408834100406e-18
1.052769619777347e-17
-1.2861443095338665e-19
-2.4973888173446332e-17
1.441342171352704e-17
1.9764688151172245e-17
-9.204221691252914e-18
8.876586828589379e-19
-8.816328555478043e-19
2.417412216795891e-19
-2.4776704899072266e-19
-4.804039498085018e-19
-9.326861641842212e-18
1.0893871748250872e-17
-1.0866061566001518e-18
-5.616870386136966e-19
-5.616870386136966e-19
1.68506111584109e-18
-5.616870386136966e-19
0.0
0.0
0.0
0.0
-1.4312682395392336e-18
-3.2005597779459755e-18
4.663058762645778e-18
-3.123074516056775e-20
-9.911721990577794e-18
1.243587026051901e-17
-6.157336018419046e-19
-1.9084146680992998e-18
0.0
0.0
0.0
0.0
0.0
0.0
0.0
0.0
0.0
0.0
0.0
0.0
0.0
0.0
0.0
0.0
0.0
0.0
0.0
0.0
0.0
0.0
0.0
0.0
0.0
0.0
0.0
0.0
0.0
0.0
0.0
0.0
2.1012890099631177e-18
-3.2065856052571094e-18
2.4102847808798572e-18
-1.3049881855858645e-18
2.471164775066554e-18
-1.448626023111658e-17
5.591837985310129e-17
-4.3903284397051537e-17
6.080177636740481e-18
3.6576883501428815e-18
-6.023793280535836e-18
-3.71407270634752e-18
-2.907235510620842e-17
3.4514131199961734e-17
3.923186690800676e-17
-4.467364300176095e-17
8.085431569607161e-18
-3.987574167354068e-17
4.1170473002707535e-17
-9.380162898774142e-18
1.3269686538050565e-18
-4.423228846016856e-19
-4.423228846016856e-19
-4.423228846016856e-19
-1.7847430211852105e-16
1.462061250471829e-16
1.1899913697913878e-16
-8.673095990780454e-17
-2.7938050770529284e-18
3.770959860013631e-17
-9.308831527538151e-18
-2.5606961995545206e-17
4.144072991695512e-19
-1.793170583308873e-17
1.6198401548100905e-17
1.3188969858183002e-18
-7.855994501503931e-17
1.440724780415706e-16
4.447970568334637e-17
-1.0999223870987953e-16
6.702337717058933e-18
9.691048972902172e-17
-2.7498835160821745e-17
-7.611399228526281e-17
-5.116503302747075e-18
1.1923214333129479e-17
4.488480856905551e-18
-1.1295191887287958e-17
-1.5982681229908744e-16
1.2965808580464746e-16
2.3075237474900385e-18
2.786120274694995e-17
-2.7088152567698825e-16
3.4859167420767068e-16
3.9008501425088316e-17
-1.16718649955776e-16
-1.9681357184867022e-16
1.9109845465765152e-16
2.7105433116357398e-17
-2.1390315925340525e-17
0.0
0.0
0.0
0.0
-1.1616317888425845e-16
4.957932060747807e-17
3.7712049105604286e-17
2.8871809171174614e-17
9.791427314243525e-18
-2.2055820377077817e-17
1.2768776016971366e-17
-5.043829541370561e-19
3.496423974066864e-17
-1.3650131250670042e-17
2.6260127632532693e-17
-4.7574236122531045e-17
-8.884278955264735e-17
-5.794096324003265e-18
5.2845595090956916e-17
4.179129078569099e-17
8.13835585640301e-18
-6.015976450850928e-18
7.242680125134342e-19
-2.8466474180655185e-18
-1.2061333159631035e-17
-6.6711659147174185e-18
-4.363459477002336e-18
2.3095958551350685e-17
3.602810756260878e-17
-4.5359303204101334e-17
9.68602658004097e-18
-3.5483093854850597e-19
1.0050967355309357e-18
-1.668781864853649e-17
1.5890029591057926e-17
-2.0730767805236496e-19
-2.952011494516472e-17
4.617881779399345e-17
3.5271639253471755e-17
-5.1930342102300563e-17
1.7583585550039878e-17
-7.625275822184124e-19
-9.320635135669737e-18
-7.50042283215172e-18
8.76838425656941e-18
-1.6001697281124977e-17
4.2190361089681e-18
3.014276915587471e-18
7.871536133594945e-17
-4.4862452016663314e-17
-4.721152300373425e-17
1.3358613684447118e-17
1.2906231628553017e-16
-9.58280107982921e-17
8.407512267396651e-17
-1.173094281612066e-16
3.48650545711591e-18
-3.6091106136023265e-17
-2.218173214492663e-17
5.478633282383412e-17
-2.0663837424961007e-17
4.7495033118545074e-17
-3.279573426158324e-17
5.96453856799906e-18
4.467291977666701e-17
-1.1075214126726598e-16
-2.210791199891774e-17
8.818713348951476e-17
-4.663606139511109e-19
-2.235652152357853e-18
1.1344700793243272e-18
1.5675426869846367e-18
9.151510026972633e-18
-3.886728490065425e-18
-7.951339734607153e-18
2.6865581976999703e-18
1.897694433385454e-18
-1.6408886434280308e-18
-5.175145662006373e-19
2.607087762432142e-19
4.285159457021657e-18
-3.1100671311113164e-17
1.608103993243736e-17
1.0734471921654204e-17
-1.3341931409088655e-17
1.7198920785850983e-17
-4.410790629961252e-18
5.538012531989354e-19
4.652822930111603e-17
-4.827802339496389e-17
-1.943822416815872e-17
2.1188018262006146e-17
1.979125706027008e-17
-1.5594573707864758e-17
1.2560374505461378e-18
-5.452720802951457e-18
1.1943950652640634e-17
-1.2826130885053762e-17
-7.209260498916799e-18
8.091440731329936e-18
7.153287834348571e-18
1.180796470137795e-17
-1.1354005856029494e-17
-7.607246679697008e-18
1.314158086342784e-19
-1.6378757297724638e-18
6.08872424682323e-19
8.975874964558626e-19
1.1368154698274432e-17
-1.3401926839419963e-17
-1.0448119899186328e-18
3.078584131064164e-18
1.444231157818796e-19
-6.932743037845092e-18
9.91786812056581e-18
-3.1295481985025994e-18
3.31600408030795e-17
7.546459811028561e-18
-1.4328855553275475e-17
-2.6377645060832662e-17
-5.66798441189407e-18
7.83315014716902e-18
-7.24957406282321e-19
-1.4402083289926315e-18
1.1414515591607945e-18
-2.39713151765269e-18
-1.503833631979035e-19
1.4060633216898e-18
-3.923033372109212e-18
2.838711036123715e-17
-8.949838135758564e-18
-1.5514238853369396e-17
2.373159368198374e-18
-8.242589862242083e-18
5.237899064486635e-18
6.315314295570642e-19
1.1591712408433476e-17
-6.7544007238247956e-18
4.147288039073677e-19
-5.252040488516057e-18
5.593722206218169e-18
1.3133784401870168e-17
-1.5216171477306384e-17
-3.511335130781884e-18
1.0100357505265158e-18
-7.592557878802263e-19
-7.592557878802263e-19
5.084758252339369e-19
-7.855692788542883e-18
3.087841935023954e-17
-1.2769888545752645e-17
-1.0252838015944047e-17
-7.416316714502056e-18
1.8469858613408212e-17
-6.938860098454012e-18
-4.1146818004521456e-18
2.658970253561554e-17
-2.295046053977322e-17
-1.6063530724527615e-18
-2.032888923389543e-18
6.254901498560279e-18
-1.8515180039134103e-17
7.322423737095925e-18
4.937854803477908e-18
2.6283161726855673e-19
-3.2757514595449276e-18
1.2177448493646457e-18
1.795174992911725e-18
1.2804760774817298e-18
3.005203673401461e-17
-1.1778408071890678e-17
-1.955410473960567e-17
1.5253865394817237e-17
-2.7209131526944552e-17
8.73883894433201e-18
3.2164271877953442e-18
-7.773045248352746e-18
-6.6569514581368834e-18
5.005674378504881e-18
9.424322327984756e-18
0.0
0.0
0.0
0.0
-1.3398448011624388e-18
-8.417010954789411e-18
1.6933557402571335e-18
8.063500015694718e-18
-1.1303848005997338e-17
1.9237004188942302e-17
-7.989577613006895e-18
5.64214300619296e-20
6.89199860962184e-19
-4.618674754258045e-18
-3.495300677030649e-18
7.424775570326512e-18
1.0841838057284859e-17
-2.1658607382227358e-17
-3.2557370822212565e-18
1.4072506407163792e-17
-5.728724481975608e-18
-4.612630691759731e-18
-1.3170738245211025e-17
2.351209341894641e-17
6.09012154679502e-17
-4.5909474584645103e-17
1.2934862495547137e-17
-2.792660337885225e-17
-1.0851727467588946e-17
3.5612748573011376e-17
-1.5204688850713073e-17
-9.556332254709348e-18
1.6750519260597084e-19
-1.6017863458007715e-18
1.7683358858814087e-18
-3.3405473268660813e-19
-5.784257575068114e-16
4.683467787711452e-16
6.898735343025118e-16
-5.797945555668035e-16
-7.436345951178149e-18
2.3104506243761486e-17
-1.1985694098779444e-17
-3.682466193803864e-18
-3.2179728529446705e-17
6.364081903169907e-18
2.197147826012477e-18
2.3618498800264363e-17
-2.672658304480547e-17
7.68181182668356e-17
-2.7063504735068078e-17
-2.3028030486962054e-17
2.84190550842487e-17
-8.273171180267843e-18
-8.538775128759616e-18
-1.1607108775221195e-17
5.785070783117012e-17
5.548479472748664e-17
5.85065839119652e-17
-1.7184208647063305e-16
4.647257925074807e-17
-5.92220170116314e-17
1.1284945905202708e-17
1.4644918556805598e-18
7.90254339652516e-17
1.0069411202137669e-16
-2.6367093496365656e-18
-1.7708283663699977e-16
1.6535640343788795e-17
-1.8850190424346043e-17
2.4716888851963306e-19
2.0673811920376382e-18
-4.515758932060281e-17
-1.1799685317791686e-16
-1.221028289718115e-16
2.8525727147032665e-16
6.248926454854906e-19
-4.682981969734737e-18
4.30401064808441e-18
-2.4592132383516485e-19
3.533985025728537e-16
1.5573160604945292e-16
9.65585296559659e-17
-6.056886382782722e-16
1.4470440717797358e-17
-1.5607515435117254e-17
-1.0036524311611395e-18
2.1407271484810328e-18
1.6750519260597084e-19
-1.6017863458007715e-18
1.7683358858814087e-18
-3.3405473268660813e-19
-8.536058589638787e-18
3.658680473042587e-18
-1.9768894032856614e-17
2.464627214945286e-17
-5.418457293557385e-17
-6.722281145261213e-17
3.880323687113077e-17
8.260414751705387e-17
-6.225927363685369e-17
-1.4998836017930707e-16
8.105877294842779e-17
1.3118886086772686e-16
9.038740966700336e-21
-1.760252797440042e-18
1.6098694342421385e-18
1.4134462223120314e-19
-4.014909391598242e-17
2.1236012996136465e-18
-2.6920843592422477e-17
6.494633620879133e-17
1.541856920974232e-17
-2.7044427712019467e-17
-5.700320244699049e-18
1.7326178746976213e-17
3.9421441461305904e-17
-3.350011502570164e-17
-1.7190786315824634e-18
-4.202247804022485e-18
-1.587746763342758e-17
-3.5339674555901825e-17
-7.25532262521695e-18
5.847246481454641e-17
4.636037013390519e-20
-4.7986182030612716e-18
-1.6940999198708537e-18
6.446357752798263e-18
-1.0807774472565645e-17
-1.565275304576088e-17
-1.9111991306912583e-19
2.6651647431395628e-17
9.045324789590469e-18
-1.9263339824917398e-17
9.57393565175673e-19
9.260621470151275e-18
-1.0111413580869663e-17
1.7544053285447358e-17
-1.124420963050516e-18
-6.30821874152717e-18
-5.540154547183374e-18
7.307782263688882e-18
-2.665904400162467e-17
2.4891416285119163e-17
1.1047971691962968e-17
3.317607790145139e-18
-5.2404997633062e-18
-9.125079718801913e-18
-6.238775771369571e-18
1.6108816479727218e-17
-5.929780000452831e-18
-3.940260707904815e-18
-8.078786234444092e-19
-2.2039377084325293e-17
-5.188765925914421e-18
2.8036021633684106e-17
3.876606375680993e-18
-4.969851316352718e-18
2.893767224239036e-18
-1.8005222835673097e-18
-1.4303001628286092e-17
2.685359979709399e-17
-3.7431042365373864e-18
-8.807493932270503e-18
-6.929992966969556e-18
2.8918733843190305e-17
-9.541588731032828e-18
-1.2447152145187925e-17
-1.6215133400099192e-17
6.963665252747442e-17
-2.6381351933837452e-17
-2.7040167193537792e-17
-4.356707265217327e-17
5.2247264757650095e-17
-3.5478236098702323e-17
2.6798043993225668e-17
-6.523815876321176e-17
-2.1196172009208576e-17
-4.0130250206198506e-17
1.2656458097861712e-16
5.301673444676853e-17
-8.901520111457656e-17
-7.61072846341865e-17
1.121057513019834e-16
9.79226555686879e-18
2.310309840976603e-17
-2.4609820730767918e-17
-8.2855432358668e-18
3.097399908374681e-17
-1.0768393866017053e-16
-3.1988990421566775e-17
1.0869892999798874e-16
-2.3531306547218774e-18
9.378712365934456e-18
-1.4261433419716583e-18
-5.599438369240922e-18
-8.493329898395933e-18
6.777096199073888e-18
-4.027759508832246e-18
5.743993208154299e-18
2.058157198382863e-17
-6.610998840463347e-18
-5.058739698868157e-18
-8.91183344449711e-18
0.0
0.0
0.0
0.0
3.0120953495412566e-18
-5.834362342492458e-18
-2.1749195635548816e-19
3.0397589493066875e-18
6.4471100072594885e-18
4.833920181052354e-17
-2.9807140247765403e-17
-2.497917157001776e-17
-4.134236658373531e-18
-4.134236658373531e-18
3.5925965053604265e-19
7.909213666211022e-18
-3.810216768870984e-18
-4.463414517061846e-18
4.58966856215539e-19
7.81466442971729e-18
3.433458998344188e-18
-1.602874792412997e-17
6.43873362041789e-18
6.1565553053678905e-18
-1.2079401130550516e-17
3.0846491833236337e-17
-7.613830740986815e-18
-1.1153259961698993e-17
-8.647248421911653e-18
-2.0569393148733785e-17
5.091103700948616e-19
2.8707531200550584e-17
-7.307337517654518e-18
-2.5000252901721907e-17
5.330847183417685e-18
2.697674323595873e-17
6.150470753035881e-18
-8.003861554218058e-18
9.83131063601091e-19
8.702597375810861e-19
-2.557312534657303e-18
-1.671164484191123e-17
2.38571447095445e-18
1.6883242905614086e-17
2.3150895160074894e-18
-8.300659714432967e-18
-1.5604152510686027e-18
7.545985449494079e-18
-1.2442115042020309e-17
1.167476874748322e-17
-9.240453655469431e-18
1.0007799950006553e-17
4.1225932794112666e-19
-1.3570322104656156e-18
-2.336581332382222e-19
1.1784310157627111e-18
-8.444298787171758e-18
8.595418848704803e-18
1.1606853724808682e-18
-1.3118054340139212e-18
-1.8551709464426246e-19
-1.9548086330510046e-18
2.919395214037821e-19
1.8483862062914855e-18
-2.3271160404266735e-18
-1.2110222502107987e-18
1.7191848049795343e-17
-1.365370975915785e-17
7.164409489848188e-18
-5.220631278999008e-18
2.642987261592746e-18
-4.5867654724419254e-18
-7.33718212012488e-18
3.205012776684842e-17
-1.53971874251938e-17
-9.315758221529762e-18
1.5757569352162229e-18
-1.0809283833630978e-17
1.05348236336895e-17
-1.3012967352747483e-18
-3.1693290327854084e-19
-3.1693290327854084e-19
-3.1693290327854084e-19
9.507987098356225e-19
-8.817385854347135e-20
-6.049246221954558e-18
5.6133796146871966e-18
5.240404658108369e-19
1.6060175408975866e-17
-1.2248489205532008e-17
-5.5082447421676526e-18
1.6965585387237887e-18
-6.608508696669642e-19
-9.507308561700682e-18
5.0965544422554304e-18
5.071604989112204e-18
-2.1094041956663619e-16
4.1702435104450536e-16
-6.664043915896821e-17
-1.3944349231890462e-16
-7.111147492862667e-19
-2.4804062876930085e-18
3.1364640984439585e-18
5.505693853531759e-20
3.700193601898541e-18
-1.5762013320575626e-17
1.0075590455654429e-17
1.9862292630226632e-18
2.8847136869829848e-18
-1.480820169708444e-17
1.2152776156373011e-17
-2.2928814627155686e-19
4.683047549629845e-18
-4.163410142403867e-18
-7.932879107216857e-19
2.736505034957058e-19
-3.4642814678447568e-18
-3.4642814678447568e-18
2.1525889182922102e-18
4.775974017397306e-18
3.392168279796481e-18
-3.6849978738304884e-18
8.084984350790857e-19
-5.156688410450795e-19
2.7583024732393996e-18
-4.318863680387569e-18
1.7463262852200435e-19
1.3859285786261653e-18
-2.259689881707278e-18
-4.028981420114021e-18
2.7112630432503402e-18
3.577408258570959e-18
8.787511016824562e-19
-1.327558120557149e-17
9.191900338976384e-18
3.2049297649126438e-18
-2.0470565641629136e-18
-7.354931179383144e-18
7.248931824572973e-18
2.1530559189730835e-18
9.035053280228648e-18
-8.657862103838772e-18
2.575878668435162e-18
-2.9530698448250373e-18
2.776379955172801e-18
-7.839369275267655e-18
3.394371497006276e-18
1.6686178230885718e-18
3.8486124897143037e-16
-2.1130770684195335e-16
-3.4225442716222357e-18
-1.701309978578572e-16
8.559653925310834e-18
-9.13326145875659e-18
2.10047931351735e-18
-1.5268717800716039e-18
3.1018741447230333e-17
-7.236137460502532e-17
-1.7786294434604524e-17
5.912892759239878e-17
1.122641095499675e-16
-7.364522750599415e-17
-4.6174812571002156e-17
7.555930527024203e-18
6.581974751410408e-18
-1.4649523709470485e-17
-4.539157014423954e-18
1.2606705972484029e-17
-9.786168341187507e-18
-4.8710582186135986e-17
7.178772118694695e-19
5.777887331545398e-17
-1.855170946442625e-19
-1.9548086330510046e-18
2.919395214037821e-19
1.848386206291485e-18
-4.753993549178113e-19
-4.753993549178113e-19
-4.753993549178113e-19
1.426198064753434e-18
4.8647272378834264e-18
-1.2828188146183994e-17
1.7756748577721162e-18
6.187786050528457e-18
-5.977764225853891e-19
-5.977764225853891e-19
5.255976546420043e-19
6.699551905287742e-19
0.0
0.0
0.0
0.0
2.5135483379042437e-18
-4.5636178157227256e-18
2.1766266476416353e-18
-1.2655716982315355e-19
-4.19963641775161e-17
-4.041737434527543e-17
8.2193681188386e-17
2.200573344046562e-19
-6.8022173018410386e-18
-1.0340800378654519e-17
1.1003307088665958e-17
6.139710591829605e-18
2.653937307610113e-18
-8.846457692033711e-19
-8.846457692033711e-19
-8.846457692033711e-19
4.844380958845115e-19
-1.2848534425222307e-18
2.0852687891599496e-18
-1.2848534425222307e-18
7.246794187258278e-18
-8.676829658402401e-18
-1.9365851950380366e-18
3.3666206661821542e-18
-4.033187175672277e-18
1.6545113537017774e-17
-7.74023109761706e-18
-4.771695263728427e-18
2.918505463938821e-17
9.99544205277351e-18
-4.710743783798356e-18
-3.446975290836351e-17
-2.0369267612159e-17
5.0212092217944816e-17
-1.927381945427746e-17
-1.0569005151508344e-17
2.540664560804344e-18
-9.844376208042851e-18
7.006234950368046e-18
2.974766968704561e-19
-1.5846645163927042e-19
-1.5846645163927042e-19
-1.5846645163927042e-19
4.753993549178113e-19
1.6750519260597084e-19
-1.6017863458007715e-18
1.7683358858814087e-18
-3.3405473268660813e-19
1.9536813710434253e-18
1.3685524391699767e-17
-6.1063239340255066e-18
-9.53288182871768e-18
4.032861668695357e-19
-6.673879986757435e-18
3.436486708289108e-18
2.8341071115987913e-18
2.6720147895435143e-18
-4.4051513640834546e-18
2.335093099280906e-18
-6.019565247409649e-19
2.551457793628815e-18
1.4283300814285157e-17
-6.631921588667503e-18
-1.0202837019246457e-17
5.5488844527310455e-17
-2.6551763987590426e-17
3.0848470846895585e-18
-3.2021927624409607e-17
-1.5485751324210116e-18
-1.5485751324210116e-18
-4.2520105519361817e-19
3.522351320035642e-18
1.0461251344982081e-18
-7.231664039085339e-19
4.0020767331885945e-19
-7.231664039085339e-19
-5.977764225853891e-19
-5.977764225853891e-19
5.255976546420042e-19
6.699551905287742e-19
2.5336798301401867e-17
-1.0702230214923852e-17
-3.5331006871916675e-18
-1.1101467399286343e-17
2.95451366497192e-17
-4.7105304620268384e-17
-4.7738835349867916e-17
6.529900332041474e-17
-1.3398769016084e-17
1.406639614406717e-17
-1.5672537760828504e-17
1.5004910632845472e-17
2.641061160252731e-18
-9.743979608594463e-18
3.6638708645207503e-19
6.7365313618896605e-18
-1.8673626932408145e-17
6.1787472349795866e-18
-4.8805624265903184e-17
6.130050396333125e-17
-1.5686043690971082e-18
3.086072497932266e-18
-5.472035055519087e-18
3.954566926683919e-18
2.910514632363498e-18
-9.524401943436533e-17
1.99323026230742e-17
7.24012021789266e-17
3.049777579943523e-17
-3.338702128937326e-17
-6.262762320039683e-18
9.152007809977844e-18
-7.505249010991746e-17
-1.8815764293233145e-17
1.0620532051075861e-16
-1.2337066107609097e-17
-2.9095086102936296e-17
-1.2175144384827865e-16
-3.3682806750336073e-18
1.5421481062624536e-16
-7.495863183873285e-18
-8.257070008536962e-18
1.5303854749848446e-16
-1.3728561430607681e-16
-5.25583622588484e-17
8.795115965316825e-17
-4.385153416354397e-17
8.458736769224039e-18
-4.753993549178113e-19
-4.753993549178113e-19
-4.753993549178113e-19
1.426198064753434e-18
-9.314884595071063e-19
-1.3316529228354291e-17
-9.594143788529708e-19
1.5207432066714378e-17
2.7492637322726993e-18
-2.5586108829475274e-18
-1.4352368057201341e-18
1.2445839563949624e-18
3.0842741174846404e-18
-5.7621835745490716e-18
2.1014349660426836e-18
5.764744910217463e-19
1.0658338297278397e-17
-3.180465862448342e-17
4.1433118467931516e-18
1.7003008480411867e-17
1.539418773822878e-17
-4.911518638602045e-18
-2.0726043039033975e-18
-8.410064795723314e-18
-9.570277502394714e-18
-1.1992766788992315e-17
4.163355356559002e-18
1.7399688934828015e-17
-2.837093041154288e-17
8.635262870150793e-19
3.9650411092990057e-17
-1.2143006968462445e-17
-6.96068375348031e-18
-1.0499266830293793e-17
1.084484063702669e-17
6.615109946747419e-18
-4.011991273695777e-18
1.5913111690803425e-17
-1.2436844188373174e-17
5.357237712655369e-19
-2.33675346506409e-18
1.8704443289651053e-17
-2.9437360915250786e-17
1.3069671090663917e-17
-1.5846645163927042e-19
-1.5846645163927042e-19
-1.5846645163927042e-19
4.753993549178113e-19
9.108464816567153e-18
-1.7430908259533978e-17
1.6664510533317088e-18
6.655992389635127e-18
2.662202009309167e-17
-4.0611058366364544e-17
7.694026954413372e-18
6.295011318859508e-18
2.2358232386404915e-18
-1.955957586363829e-18
-4.897194753678209e-18
4.617329101401556e-18
-1.687826048508655e-17
-4.917405974008511e-19
5.982899917471708e-18
1.1387101165015751e-17
-2.9657344562077447e-18
-4.735025994614488e-18
-2.415296857049133e-19
7.942290136527148e-18
9.288838215115403e-19
-6.148282332115431e-18
5.919621312489315e-19
4.627436379354961e-18
-2.176379124350541e-19
-5.5255125276552805e-18
6.8316023218460454e-18
-1.0884518817557099e-18
2.6145898791903995e-18
-3.519373017554205e-17
-2.1869968715798417e-18
3.476613716793151e-17
-3.8874657116001775e-18
-6.30995499819778e-18
4.229296761216585e-18
5.968123948581363e-18
5.896669935318904e-18
-5.779782544732399e-17
5.1111228774101895e-18
4.679003263459478e-17
9.920238484882241e-19
-4.315850766732003e-18
1.301019619404965e-18
2.0228072988388143e-18
-4.1844349580977245e-18
-4.1844349580977245e-18
3.679183582494029e-18
4.689686333701421e-18
-2.738876928730613e-19
1.322724686619002e-17
-9.93472369121742e-18
-3.0186354820995295e-18
1.501411585437277e-17
-1.8602423375355326e-17
-6.284381397170382e-19
4.216745660699606e-18
1.5588466417828302e-18
-9.056902588657627e-18
-1.193284048065869e-18
8.691339994940667e-18
-1.5846645163927042e-19
-1.5846645163927042e-19
-1.5846645163927042e-19
4.753993549178113e-19
-1.4949678002305447e-17
1.0283299577413974e-17
2.154077088330461e-18
2.5123013365610603e-18
6.485415558352713e-18
-4.130333672087741e-18
-7.602114404055601e-19
-1.5948704458594134e-18
-1.8242173171518446e-18
-1.4209258085999036e-17
4.888101226866639e-18
1.1145374176284236e-17
-1.175915254434395e-17
7.049856629939367e-18
1.861871308170207e-18
2.8474246062343704e-18
-1.1871323682544809e-17
3.3991024149250066e-18
-4.035631061298932e-18
1.2507852328918736e-17
-4.778386716411696e-17
-8.708888442139713e-17
1.0645801909346573e-16
2.841473249204561e-17
-2.300564916129836e-17
1.2843077648861513e-17
-3.1497633808137484e-18
1.3312334893250636e-17
-1.4637366548460666e-17
-6.44410660461783e-18
-3.7684733857952265e-18
2.4849946538873724e-17
5.507566205512095e-18
-6.8774745633351006e-18
-1.2606041771981297e-18
2.6305125350211275e-18
-8.497167827986211e-18
1.9282796962884253e-18
-2.401935496745093e-18
8.97082362844296e-18
-1.2846502817494751e-17
1.3039672510415531e-17
1.111442725282013e-18
-1.3046124182027774e-18
-1.0009970095598155e-18
-1.0009970095598155e-18
2.3691252221223647e-18
-3.671312030027338e-19
5.642885000432169e-18
-4.972864230008286e-18
1.7673802333560756e-18
-2.437401003779958e-18
4.6314112772104944e-18
-1.967577421845895e-17
-7.584263317449278e-18
2.2628626258697603e-17
4.774470464807031e-18
-3.609091185201624e-18
-4.998069210920823e-18
3.8326899313154116e-18
1.5627496280686214e-18
-5.5144165255583485e-18
1.2258279378060127e-18
2.725838959683714e-18
-1.4750183151698908e-17
2.640641827368117e-17
-1.3177278377769336e-17
1.5210432557870743e-18
3.2787187065237795e-17
-2.0944756835155312e-17
-2.5418865351492176e-18
-9.300543694933268e-18
7.385644153452844e-17
-5.489083357915766e-18
-4.468032113304093e-18
-6.38993260633084e-17
8.480927716969774e-17
-9.035058513257006e-17
1.4123204049578037e-17
-8.581896086706099e-18
1.383080844368159e-16
-5.614939952853963e-17
-8.845771718467218e-18
-7.331291318981104e-17
1.8669703054795562e-17
2.0928814609440266e-18
-5.341852015279911e-18
-1.542073250045968e-17
0.0
0.0
0.0
0.0
8.897913890356101e-18
-2.3602531549156108e-17
8.280827677578728e-18
6.423789981221308e-18
-5.2215213516292335e-18
-5.2215213516292335e-18
4.888845343417307e-18
5.554197359841159e-18
-1.0409237999221895e-18
-1.1656673030362646e-17
4.0705640508208635e-18
8.627032779463971e-18
-6.301915798346259e-18
1.4276384914343802e-17
-6.638837488608853e-18
-1.3356316273886704e-18
-1.0550982955697995e-18
-4.593681372383284e-18
3.26993716820847e-18
2.378842499744614e-18
-3.1693290327854084e-19
-3.1693290327854084e-19
-3.1693290327854084e-19
9.507987098356225e-19
-8.52024938161071e-18
-9.173447129801547e-18
6.982675015749764e-18
1.0711021495662532e-17
1.5756913553211134e-18
-3.732183259899114e-18
5.254809357920032e-18
-3.0983174533420316e-18
1.1685022021657862e-18
-6.00789336240956e-19
-6.00789336240956e-19
3.307647031612567e-20
-8.897783253765481e-18
1.5219100535738046e-17
1.044122596149752e-18
-7.365439878122315e-18
-6.967968002589239e-18
1.7148915786914292e-17
-6.0130547704931504e-18
-4.167893013831905e-18
-4.753993549178113e-19
-4.753993549178113e-19
-4.753993549178113e-19
1.426198064753434e-18
1.5961664461175468e-17
-6.151571326760746e-19
-3.556394299990435e-18
-1.1790113028508959e-17
3.603439942517691e-17
-6.911500816548491e-17
-3.3061872227908564e-18
3.638679596309808e-17
2.4749096125293233e-17
5.096587496653304e-18
-2.1701109240928005e-17
-8.144574381018698e-18
7.230916579679683e-17
-3.450152425579851e-17
-3.7141687460893636e-19
-3.743622466638933e-17
-1.0507995906972108e-17
3.176469930862387e-17
1.2830621111634267e-17
-3.4087324513285946e-17
4.4614410710138904e-18
-6.154308159426566e-18
-1.6608118505169889e-18
3.3536789389296624e-18
3.3625741115562226e-17
-6.787707432181318e-17
-9.03273724162047e-18
4.3284070447871124e-17
3.162784713933354e-17
1.0702846909585352e-16
-5.514668935535393e-17
-8.350962687983624e-17
1.6750519260597074e-19
-1.6017863458007715e-18
1.7683358858814087e-18
-3.3405473268660813e-19
1.105362175189102e-18
-2.433220901624383e-18
-1.3098468243969894e-18
2.6377055508322703e-18
-3.377993784148871e-18
-3.377993784148871e-18
-7.871552466691185e-21
6.763859120764436e-18
8.45528875968155e-18
-5.699043547572387e-18
1.0412009157919747e-18
-3.79744612790114e-18
2.046454809136103e-16
1.8850583891500425e-16
-1.0761643867475442e-16
-2.8553488115387033e-16
1.4618413886402741e-16
2.1382222644726658e-17
-2.3859708942215975e-17
-1.4370665256654112e-16
-2.802132249887569e-18
-9.879298403514536e-18
-8.923057856953858e-19
1.3573736439097495e-17
1.3269686538050565e-18
-4.423228846016856e-19
-4.423228846016856e-19
-4.423228846016856e-19
7.436467379856869e-17
-5.656290004353024e-17
7.291778950668399e-19
-1.8530951650105312e-17
-1.3165499027409216e-16
-3.121169244401921e-17
2.4462671639084647e-16
-8.17600336727344e-17
6.055144328373296e-18
-6.3298964404739026e-18
1.5337221001178535e-18
-1.2589699880172475e-18
-1.816764810584218e-17
5.995377391991331e-17
-3.001847509089364e-17
-1.176765072317793e-17
-4.004772604481952e-18
-4.657970352672791e-18
-8.589630566228247e-19
9.521706013777577e-18
-3.619954483218246e-19
-5.669870063542054e-18
2.1937484770497035e-18
3.838117034814174e-18
4.240553055545912e-18
5.356646845761794e-18
1.292035601220034e-18
-1.0889235502527752e-17
1.9604955399383142e-17
-1.8203364655349277e-17
-8.787486973162329e-18
7.385896229128544e-18
1.752571243753434e-17
-2.205189915560484e-17
-2.789066239165985e-19
4.805093341987137e-18
-3.210883117312748e-18
4.9024363580532675e-17
-3.238977787682307e-17
-1.342370258639703e-17
-4.892365707445779e-18
-1.0853438070856859e-17
4.179309997467063e-18
1.1566493780835575e-17
2.2922610011036626e-17
-1.2653522463264067e-17
5.483743888250278e-18
-1.575283143602284e-17
-1.765208847372349e-17
3.2810992045184947e-18
-5.811695452797638e-17
7.248794379717828e-17
-1.0257064821302581e-16
-1.7099465697782348e-17
-1.3750513762634414e-16
2.571752515371503e-16
-1.1484367923966425e-17
-3.0946574846440586e-17
-1.4095963688029657e-17
5.652690645843678e-17
-5.200391552747439e-18
6.994347509933952e-18
-6.322860300918672e-18
4.528904343732262e-18
-8.485543026973815e-17
-4.100374522190105e-17
-8.111864977033545e-17
2.0697782526196903e-16
-8.488782493471904e-18
-1.4640156563048883e-17
-5.67501456076288e-19
2.3696440512597193e-17
-1.4654857250235913e-17
3.0503223293982605e-17
-1.4962947692096548e-17
-8.854183516501873e-19
-1.7952712176958155e-17
-1.5214627476001165e-16
-2.7554075020386343e-17
1.976530619573522e-16
-1.407118922020344e-17
2.5316120666769926e-17
-9.774079675771019e-18
-1.4708517707954366e-18
-7.683507461623952e-18
-2.3607131307284594e-17
6.7239687778549875e-18
2.4566669991053556e-17
-2.706674665434759e-18
-2.5707464664722387e-17
9.117131729326778e-18
1.9297007600830377e-17
1.4545470560486544e-18
-1.2699785251205285e-17
3.0274518299782237e-18
8.217786365178412e-18
2.8473801835296036e-17
-4.1181765910757795e-17
-5.9282844523407775e-18
1.863624852780248e-17
-7.398001046717481e-19
1.492387475760038e-18
-2.236407209450695e-17
2.161148472341866e-17
2.5178713425620723e-17
-1.7412630628120647e-18
-2.5005556452835168e-17
1.568106090026633e-18
-3.667204918524166e-17
4.5641153665518515e-17
4.668478988348934e-18
-1.3637583468625871e-17
5.636382701567955e-19
5.218315137186153e-18
-1.0930442618103831e-18
-4.6889091455325665e-18
1.2306010634458358e-17
-2.6918211271522522e-18
-6.593151255817893e-18
-3.0210382514881054e-18
1.60524350162994e-17
-2.6410561905462392e-17
-5.066454438141948e-18
1.542458132730497e-17
1.1413282823212818e-17
-1.5126090252888315e-17
1.7245209055225901e-18
1.988286524152896e-18
6.750909452096835e-19
-4.6327836700105446e-18
9.840867161264236e-19
2.973606008674436e-18
2.3378166011850277e-17
1.1265719578862333e-17
-3.3771566342848996e-17
-8.723192478635097e-19
8.877819596984499e-18
-1.7661553479116626e-17
-8.109423207057338e-19
9.594676202837878e-18
-4.243738101883327e-18
1.0373490247395644e-17
-1.125854473370057e-18
-5.0038976721422474e-18
2.5045095969375434e-18
-2.8033650182826833e-18
5.667572133994969e-19
-2.6790179205435676e-19
6.634843269025283e-18
-2.211614423008428e-18
-2.211614423008428e-18
-2.211614423008428e-18
0.0
0.0
0.0
0.0
6.068151635520896e-19
-1.1624763748546527e-18
1.084271779600134e-18
-5.286105682975711e-19
0.0
0.0
0.0
0.0
-1.8294186517278597e-18
-1.8294186517278597e-18
4.1732950272692703e-19
3.241507800728793e-18
5.70725779580397e-19
-1.198565758826345e-18
-7.519168159895174e-20
7.030316608448999e-19
0.0
0.0
0.0
0.0
1.7589510504400217e-16
-1.8590958469210953e-16
5.4246457619964053e-17
-4.423197797185902e-17
0.0
0.0
0.0
0.0
6.909114097047829e-17
-1.7794446117617886e-17
1.2699935083397807e-17
-6.399662993625812e-17
-6.69843717791912e-16
4.1991128763271093e-16
2.932726312407833e-16
-4.3340201081529836e-17
-3.838566778549069e-16
4.999507351834616e-16
1.5883035913980627e-16
-2.749244164683604e-16
-6.279857667644326e-17
9.232817358485224e-17
4.071464831516914e-18
-3.360106173992659e-17
1.8558267453937184e-19
-5.1222919406808556e-18
4.988074754365684e-18
-5.136548822420176e-20
1.9248106562855563e-18
-6.9216470357481575e-18
4.312093736525778e-18
6.847426429368239e-19
0.0
0.0
0.0
0.0
0.0
0.0
0.0
0.0
3.541595990469051e-18
-1.7662786247511755e-18
-6.429045475237822e-19
-1.132412818194094e-18
2.8408183304397146e-18
-2.192926320725466e-17
6.155088723430138e-18
1.2933356153384818e-17
-6.940851779689137e-18
1.186815739459417e-17
-1.1834464677667355e-18
-3.7438591471382934e-18
-3.502909909916902e-18
-3.0042282986018017e-17
5.905687485258547e-18
2.763950541067636e-17
3.514545347464059e-18
-3.56262080616291e-18
-1.9249857448072958e-19
2.405740331795801e-19
-7.538693782169633e-18
1.834748154574064e-17
-5.937863088894197e-18
-4.870924674676805e-18
-3.1693290327854084e-19
-3.1693290327854084e-19
-3.1693290327854084e-19
9.507987098356225e-19
2.056160885024724e-18
-1.4824221917887605e-18
-3.590481145613669e-19
-2.14690578674597e-19
6.068151635520896e-19
-1.1624763748546527e-18
1.084271779600134e-18
-5.286105682975711e-19
8.24502773052041e-20
-1.0533298953135254e-17
7.004418191386843e-19
9.750406856691366e-18
-1.3901086807817411e-18
-1.3901086807817411e-18
-2.667346035543478e-19
3.0469519651178303e-18
-9.147093258639299e-19
-9.147093258639299e-19
2.0866475136346337e-19
1.6207539003643967e-18
1.7392279817461837e-18
-1.799355095067301e-18
-6.759810178399076e-19
7.361081311610255e-19
-5.682812313994144e-18
8.795834325112231e-20
-1.3010196824680514e-18
6.895873653211091e-18
-1.9413854871105123e-17
1.112699732383452e-17
-7.112591860295556e-18
1.5399449407566158e-17
-2.166977292631681e-17
2.479470311428346e-17
-1.254224538271223e-17
9.417315194745605e-18
-8.190571490765005e-18
1.4157020760331793e-17
-4.5114534881660925e-18
-1.4549957814006812e-18
-1.0964658047157418e-16
1.4837167335317358e-16
-9.276623273570585e-17
5.404113985410621e-17
-8.54359377801524e-18
1.3803998473081542e-17
-5.9878498526437135e-18
7.274451575774137e-19
1.6779148237617537e-17
5.913413608290657e-17
-5.5225780395151146e-17
-2.0687503925373504e-17
-8.087500445541044e-17
9.967502509177059e-17
-3.731565404671106e-17
1.8515633410349873e-17
9.288838215115395e-19
-6.148282332115431e-18
5.919621312489312e-19
4.62743637935496e-18
2.980864204156768e-17
-4.161621724289281e-17
3.747630910570765e-18
8.059944290754197e-18
-8.905523646441955e-18
1.0570278358076395e-18
1.4859129001754483e-18
6.3625829104588694e-18
-2.6379427402096264e-18
1.2632483357260205e-17
-8.282739045692451e-18
-1.7118015713581027e-18
-1.8294186517278597e-18
-1.8294186517278597e-18
4.173295027269269e-19
3.241507800728793e-18
-1.417093743891624e-18
-1.0263551435925341e-17
5.4636856452581714e-18
6.216959534558791e-18
5.403266619777922e-18
-1.0520357225882756e-17
2.960131700845956e-18
2.1569589052588747e-18
2.0301396926341466e-18
1.4085266269593737e-16
-8.188237309293482e-17
-6.100042929563934e-17
5.1945362885193485e-18
-3.651921403514361e-18
8.415749053952113e-19
-2.384189790400198e-18
-3.0914272068033533e-18
1.925616504429343e-17
-8.39930182202358e-18
-7.765436015466497e-18
-8.984921083599158e-18
2.1555931111340472e-17
-1.241089515397307e-17
-1.601148737682232e-19
1.785760440270315e-17
-2.814397559587212e-17
1.1174117107086625e-17
-8.877459139176325e-19
1.2445834331953627e-18
8.784645628847354e-18
2.9021712942186336e-18
-1.2931400356261341e-17
2.862733218763793e-18
-1.4830182165303623e-17
6.5139253020168426e-18
5.4535236445229875e-18
-8.084907976845492e-18
-5.199522648222872e-18
-1.400515352172887e-18
1.4684945977241246e-17
-4.4814702553700324e-17
1.0211878776375244e-16
-3.262514322027417e-17
-2.467894198977831e-17
8.31795263012368e-18
5.875887283058495e-19
-9.093892902372865e-18
1.8835154394334644e-19
-2.97093631398337e-18
1.3415583573702368e-17
-5.947379687655118e-18
-4.497267572063867e-18
2.9540910772454768e-18
-1.2969532768415197e-17
-1.735791996141264e-18
1.175123368731099e-17
-1.3308716400908476e-18
-3.10016317849759e-18
-1.9767891012701964e-18
6.4078239198586374e-18
2.3921727938967603e-16
-2.023701148341273e-16
-1.4544596367663804e-16
1.0859879912108878e-16
1.7866241722884118e-17
-3.87510875061317e-17
-1.516023188435636e-17
3.6045077667603995e-17
1.0873510672923209e-17
-8.588696249550955e-18
3.7684185999503724e-18
-6.0532330233226275e-18
1.1893186208892328e-16
-5.530220812929429e-17
-8.279439387973586e-17
1.9164739920105708e-17
-4.422233266999091e-18
9.078901292063988e-18
-5.0960766475243125e-18
4.394086224594218e-19
2.3455295698301818e-17
-2.4315575838680197e-17
4.892150169231996e-18
-4.031870028853608e-18
-5.257033062158837e-17
1.4282144425536547e-17
-1.7969141582305582e-17
5.625732777835735e-17
-2.6605249424063147e-17
7.47418584768996e-18
-4.025158873075764e-18
2.3156222449449022e-17
-5.348652074920005e-18
3.3075039109479082e-18
-1.3379826131586914e-17
1.5420974295559075e-17
-2.0111645794081107e-17
1.3777487771506157e-17
-2.0026057377931294e-17
2.6360215400506435e-17
-1.0331199987732741e-17
3.4363984514460836e-17
-1.195995660035405e-17
-1.2072827926374049e-17
-1.8175844118886622e-17
-1.7893242312009942e-18
-1.1041920797511863e-17
3.1007089147599434e-17
-3.242292366971493e-18
-3.8954901151623285e-18
-1.58237199002958e-17
2.2961502382429652e-17
-1.6236943792506137e-19
-3.700952514738546e-18
-2.5775784375111524e-18
6.4409003901747616e-18
1.8325785088407147e-17
-7.097494197478109e-18
7.16353302540702e-20
-1.1299926221183102e-17
-5.3279694317914345e-18
1.3481039742491882e-17
-8.557556737688165e-18
4.044864269877364e-19
-1.5980316096579607e-13
6.223864532583315e-13
2.058824864703355e-13
-6.684657787629421e-13
-3.8600435678681646e-15
1.4358109668497488e-14
4.827014299710156e-15
-1.532508040034331e-14
9.708445584209716e-16
-6.930609810846108e-16
-4.085294856406751e-16
1.3074590830453806e-16
-1.2349055863783837e-15
9.761267664169321e-17
1.1891730612518272e-15
-5.1880151515248965e-17
1.914617786727153e-16
9.158683679954044e-16
-3.675103173831032e-16
-7.398198292845861e-16
6.2427015792090685e-16
-1.452482223415683e-16
-7.617019243015645e-16
2.8267998872240086e-16
-1.1819978195581078e-15
8.37489029563564e-16
1.5010743698911251e-15
-1.1565655798963233e-15
4.07412272119949e-16
-3.342603395699982e-16
-3.191122061797347e-16
2.45960273629799e-16
0.0
0.0
0.0
0.0
-1.136858531632387e-15
-4.4090461902640876e-16
-2.931211337085456e-17
1.607075264029389e-15
1.1625850560862079e-17
-1.1374939438425571e-17
9.821754110757583e-19
-1.2330865335122642e-18
-2.4069306573946206e-17
-1.2622531975951318e-16
-4.785473830208729e-17
1.9814936463554258e-16
-2.2885827557760873e-17
-1.1042461239404905e-16
6.998457817844693e-18
1.2631198213396298e-16
1.8268454913452095e-15
-4.411136665561651e-16
3.2584293049470376e-15
-4.644161129735765e-15
2.5726084961022625e-16
