-1.0128611949508561e-11
-3.42327624303662e-12
-1.428856611793416e-11
2.784045431047933e-11
-4.475942465576736e-12
1.5091744494305343e-13
-4.594613859666166e-12
8.919638880299842e-12
-3.4038496100882104e-12
6.174088171610276e-12
-6.935278711062445e-12
4.1650401495403944e-12
-6.225595921376123e-12
7.2196289331020776e-12
-5.605387561364105e-12
4.6113545496381375e-12
-2.6759396924384628e-12
-9.519136603251656e-12
-2.936821375700337e-12
1.513189767139048e-11
1.065258802650384e-11
-1.5765914182079722e-12
1.3461909208874942e-11
-2.253790581717081e-11
-6.56299921396802e-13
-7.134265043412386e-13
-7.605794944509139e-13
2.1303059201889565e-12
3.6261996331730524e-13
-5.379429605256602e-12
-3.8870036648412e-12
8.903813306780516e-12
-4.101464032476921e-14
-3.999470045274372e-14
-3.4891548907228275e-14
1.1590088968474116e-13
7.631753035328013e-12
1.9397673812133839e-13
3.918479647110244e-12
-1.1744209420559626e-11
-6.163138915884664e-13
-6.676056078373678e-13
-7.419052816619137e-13
2.0258247810877503e-12
-1.7976509866039756e-13
-2.0030610762098192e-13
-1.6466688800416922e-13
5.447380942855484e-13
-9.868787828435455e-14
-1.7660722353311555e-13
-1.8453515832154583e-13
4.598302601390164e-13
-2.069736802362446e-13
-2.282888089941967e-13
-1.6545526306710261e-13
6.007177522975432e-13
-1.5575976574464612e-13
-2.780134628579e-13
-2.2662234750970465e-13
6.60395576112251e-13
-3.9986029808335335e-14
-4.582089650386978e-14
-1.8674212788999805e-14
1.0448113910120493e-13
-3.295448140812138e-13
-1.5950462689380222e-13
-1.419467853797255e-13
6.309962263547419e-13
-7.767341830901411e-14
-1.0592422749698594e-13
-4.680939036879715e-14
2.3040703617479717e-13
-1.463948679730625e-13
1.8041232791095678e-13
-1.7051877528102875e-13
1.365013153431342e-13
-1.038733224215225e-14
-8.913105503582024e-15
-1.054268068581157e-14
2.984311843154585e-14
-1.4098054244085804e-12
-7.716808760589793e-13
-2.9748401526952626e-14
2.211234701994516e-12
1.0650471066917558e-12
-4.979984314805056e-12
-2.989311785984542e-12
6.904248994097861e-12
0.0
0.0
0.0
0.0
-1.3870545290444405e-12
3.851010417644709e-12
-1.3855399593710223e-12
-1.0784159292292465e-12
-8.401252685240224e-14
-6.810466157779008e-14
-6.897543212950383e-14
2.2109262055969634e-13
-2.7097180195411603e-13
4.220770566297191e-13
-2.3658319046553374e-13
8.547793578993102e-14
-4.861905933477555e-15
-4.041436742795526e-15
3.2483360877899184e-15
5.655006588483163e-15
-2.4630839036126405e-13
-3.4798615120649317e-13
-1.1756668114923288e-13
7.118612227169894e-13
1.1377069645916888e-11
-4.475373422262021e-12
-1.8207751263883914e-12
-5.0809210972664956e-12
-5.745284211388027e-14
-3.884488775436511e-14
-5.6557768806862495e-14
1.528554986751077e-13
-5.867003915127712e-14
-5.294725772515158e-14
-4.59695222368791e-14
1.5758681911330795e-13
-2.2579898047039797e-13
-1.7639880837962766e-13
-2.0836687425589403e-13
6.105646631059201e-13
-8.49740607326827e-12
1.1385382395572738e-11
1.417881629791855e-12
-4.305857952096284e-12
-2.3943695761588027e-12
6.382871127768716e-12
-5.895430541984122e-12
1.906928990374207e-12
-1.0838847411789827e-13
-8.731858994708904e-14
-6.760148793632663e-14
2.633085520013141e-13
1.4858392393681414e-12
-6.4128472395653784e-12
-1.0116164189568814e-12
5.938624419154123e-12
4.696080043349877e-14
-3.0207607763805474e-13
-2.2702311689886383e-13
4.821383941034199e-13
-7.257154532329741e-13
-8.118184586656989e-13
5.709740920068672e-13
9.665598198918059e-13
-2.0774927720901978e-12
1.3955597800159633e-12
-3.912496063121544e-12
4.594429055195753e-12
-3.62208426196071e-13
3.6204051740968026e-14
-3.9534922527901506e-13
7.213535997341185e-13
-1.507495098374046e-12
1.8372844698981432e-12
-1.0434574556228547e-12
7.136680840987534e-13
-7.660775192504884e-15
-8.281800428380104e-15
-7.804668933568891e-15
2.3747244554453873e-14
-2.525725454605437e-13
3.7629504694944736e-13
-2.1181850534470345e-13
8.80960038557994e-14
-3.38119962916507e-13
-3.043976073106513e-13
-2.5343421309585415e-13
8.959517833230132e-13
-8.111686834339096e-14
-6.092848878732836e-14
-3.6306380072341247e-14
1.783517372030606e-13
3.7777149780778414e-13
-6.437806367046661e-12
9.872078683866102e-12
-3.8120438146271815e-12
-2.3660007928058234e-13
-2.242770762593337e-12
7.42443744951321e-14
2.405126467378794e-12
-6.34582099243504e-13
1.5848787479783906e-13
-2.4678551551815954e-13
7.228797399638285e-13
-4.515970696114943e-13
-3.4850681466811276e-13
-4.2463283338511224e-13
1.224736717664721e-12
-2.4812520871110974e-13
-4.3473081013890424e-13
-3.0907560649706096e-13
9.919316253470743e-13
-5.022969386321704e-15
-1.4933876296662768e-15
-5.0622974020565e-15
1.1578654418044482e-14
0.0
0.0
0.0
0.0
-3.5837541433860517e-13
-1.71671922594482e-13
-2.1770260553557032e-13
7.477499424686568e-13
-1.5525857319813037e-13
-1.5285801001140217e-13
-1.1366703177789318e-13
4.2178361498742496e-13
-4.161778931806598e-12
-3.1062893636862955e-12
-1.925204956743461e-12
9.193273252236357e-12
-2.1702255817247895e-13
3.0776436136737617e-13
-1.9140107887193742e-13
1.0065927567704013e-13
-2.822814153179802e-13
-7.398082105673778e-14
-8.927385594443513e-14
4.4553609231915304e-13
-3.9664006341552535e-14
-1.2148685015336854e-13
-1.719866826320197e-13
3.3313753912694105e-13
-4.639961527059175e-13
-3.4732734255051276e-13
-2.0773498485119086e-13
1.0190584801076212e-12
-2.746162131395318e-13
2.390313409044537e-13
-2.5594917182198366e-13
2.9153404405706155e-13
-2.3359098664925704e-12
5.8701884420384015e-12
-3.885702047119832e-12
3.514234715740062e-13
-4.300194743991777e-14
-4.257485194691578e-14
-6.126720258018271e-14
1.4684400196701633e-13
-2.967016499750338e-15
-1.9961820940605729e-16
-2.2908704528691755e-15
5.45750516202557e-15
-5.18794203672951e-08
8.096713281232518e-08
2.5266316913912076e-08
-5.435402935894174e-08
-1.4893635225213829e-09
-3.776920103634195e-09
9.148732476487236e-09
-3.882448850331664e-09
-1.3332650239423682e-12
3.746550699479285e-12
-1.339452666194897e-12
-1.073833009342019e-12
0.0
0.0
0.0
0.0
-2.0226987047489004e-13
-1.7641159055621596e-12
-1.0943498862147312e-13
2.075820764658512e-12
-1.5575976574464612e-13
-2.780134628579e-13
-2.2662234750970465e-13
6.60395576112251e-13
-9.868787828435455e-14
-1.7660722353311555e-13
-1.8453515832154583e-13
4.598302601390164e-13
8.367368182814806e-14
4.0557263409424717e-13
1.9128785794688556e-12
-2.4021248953912468e-12
-7.366327217781313e-15
-6.14392628612603e-15
-7.415951660233313e-15
2.092620516414065e-14
3.9255060954605656e-14
-4.484262984565539e-14
3.428028353813792e-14
-2.869271464708817e-14
-5.3024814047909544e-14
5.3936334985037e-14
-7.030337761342491e-14
6.939185667629747e-14
1.2144144548070331e-12
-1.5011564134295814e-12
1.7614089419108211e-12
-1.4746669832882703e-12
1.6792444923617474e-12
-3.3112125014374275e-13
-5.870345450739289e-13
-7.610886971440768e-13
1.5577474698660775e-12
-4.30416778607205e-13
-3.851301378092352e-13
-7.422005534496332e-13
-3.602595288740207e-14
-4.065123395172121e-14
4.392855564274218e-15
7.228433127484909e-14
4.772445141750232e-13
-1.1285719972239797e-12
-8.429477218108163e-13
1.4942752048597718e-12
8.798574493844547e-15
-7.232007424853772e-15
-3.5437277396978845e-15
1.9771606707071087e-15
-4.212190074235739e-16
-1.7864284404064812e-14
6.721551938493224e-15
1.1563951472995165e-14
-2.344747057298579e-13
-6.030721269990436e-14
-1.2267342637458e-13
4.1745534480434237e-13
-4.1498829611325293e-14
-5.084741907016951e-14
-4.7191146089638897e-14
1.3953739477113378e-13
-2.822814153179802e-13
-7.398082105673778e-14
-8.927385594443513e-14
4.4553609231915304e-13
-3.9986029808335335e-14
-4.582089650386978e-14
-1.8674212788999805e-14
1.0448113910120493e-13
-6.165796561848935e-14
-5.6075962002967e-14
-4.899957024592588e-14
1.6673349786738213e-13
-7.920986431703067e-14
2.0473809946391397e-14
-1.0973993172274299e-13
1.684759860933824e-13
0.0
0.0
0.0
0.0
-5.022969386321704e-15
-1.4933876296662768e-15
-5.0622974020565e-15
1.1578654418044482e-14
3.168639406291962e-13
-8.281755648556244e-13
7.357635746296572e-13
-2.2445195040322897e-13
-7.767341830901411e-14
-1.0592422749698594e-13
-4.680939036879715e-14
2.3040703617479717e-13
-5.2609485315404715e-14
-4.004675601782852e-14
-5.3733885902882775e-14
1.463901272361161e-13
-1.955618360063372e-13
-2.65925216954956e-13
1.0968417582632241e-13
3.518028771349713e-13
-1.2998016037367015e-13
-1.3348717701370893e-13
-8.8876214471959e-14
3.523435518593377e-13
-1.1677891066076957e-13
-1.0596851975604307e-12
-6.697698813728642e-13
1.8462339895940644e-12
1.4877497610880548e-14
-2.571657853207227e-14
-1.511572164047981e-14
2.595480256167153e-14
0.0
0.0
0.0
0.0
-1.800837082601203e-14
-3.8820645207677336e-14
-1.1352211027198472e-14
6.818122706088788e-14
-6.9811216195698395e-15
-5.533585257516411e-15
-7.126138165248383e-15
1.9640845042334626e-14
1.592809485395844e-14
-2.692227054102288e-14
-3.432689947624339e-14
4.5321075163307825e-14
0.0
0.0
0.0
0.0
-1.7336286555156628e-13
-2.69863496999959e-13
-2.784477680574079e-13
7.216741306089347e-13
-7.476234315954357e-14
-1.64867313138945e-13
-3.062783843965314e-14
2.7025749473814173e-13
-8.725967795517521e-13
-3.2551322741461865e-13
1.985852672613346e-12
-7.877426656469797e-13
6.008192330628021e-13
-8.009028478298459e-13
-5.628929371095986e-13
7.629765518766425e-13
-2.518279096877969e-13
9.803721635561787e-14
-1.8968373653909476e-13
3.434744298712734e-13
-3.1315171428086423e-13
-3.6399883023226224e-13
3.578391975611504e-13
3.1931134695197743e-13
-1.879479087541623e-13
5.0297578789486754e-14
1.9469790475629023e-13
-5.7047574791615e-14
-5.811116881489426e-13
9.773605237462378e-14
-4.243910356394995e-13
9.077666714138163e-13
-2.1536152040297505e-13
3.0942948005607387e-13
-1.89630590704985e-13
9.55626310518861e-14
-1.6610377695039117e-15
-1.6651186886977227e-15
-1.7704881669523878e-15
5.0966446251540226e-15
-3.117065219124407e-14
-8.230697456104125e-14
-9.592555701717759e-14
2.094031837694629e-13
-3.311755876577866e-14
-1.687268477945314e-13
-2.0628191011117603e-14
2.2247259757142768e-13
-4.639961527059175e-13
-3.4732734255051276e-13
-2.0773498485119086e-13
1.0190584801076212e-12
-3.366760020120383e-13
-1.2181038150757706e-12
2.767124892624488e-13
1.2780673278253633e-12
-2.9222538595566987e-13
-4.732783360218089e-13
-1.5874261964355397e-13
9.242463416210323e-13
-2.1940675692396918e-14
-1.7430690925004275e-14
-2.3570648766267428e-14
6.294201538366864e-14
-1.463948679730625e-13
1.8041232791095678e-13
-1.7051877528102875e-13
1.365013153431342e-13
1.4978549141551871e-12
-4.599196321812496e-13
-2.0740919891086263e-13
-8.305260830630727e-13
-3.383517956956136e-14
-1.18024291339659e-13
-1.6643205814523005e-13
3.182915290544506e-13
-5.828826771991161e-15
-3.4625588137095113e-15
-5.554624486789714e-15
1.4846010072490382e-14
0.0
0.0
0.0
0.0
3.7160292622766753e-14
-3.2966132817504665e-14
1.2571536118969452e-14
-1.676569592423154e-14
-4.794296523252789e-13
1.9588377935444443e-12
-1.4067277679904062e-12
-7.26803732287627e-14
-3.0362857212596906e-13
-5.462541392124095e-13
-4.082742502029443e-13
1.2581569615413223e-12
-5.38185616091357e-13
-7.638641319158239e-13
1.2506074542839652e-13
1.1769890025787863e-12
4.4267919963505197e-13
-7.750159364710608e-14
-1.865710655862138e-13
-1.7860654040173215e-13
0.0
0.0
0.0
0.0
1.1099598654830752e-12
-2.255472583935557e-13
2.073887593218219e-13
-1.091801366411336e-12
4.252127910964429e-13
4.5003709582111233e-13
-3.1947125170068204e-13
-5.557786352168724e-13
5.279007064332924e-13
-7.198070950270146e-13
-3.119715871567188e-13
5.038779757504379e-13
-2.5304965055035846e-13
-2.2668054385542785e-13
-7.870839356771724e-14
5.584385879735044e-13
7.897056631568829e-16
-2.0872959842795577e-13
-1.7349944018285517e-13
3.814393329476534e-13
4.192984731202275e-12
-9.164681588846684e-13
-1.540753704541745e-12
-1.7357628677758548e-12
1.2986002033431098e-13
-5.380486113056383e-14
-3.205237233172011e-14
-4.400278687202701e-14
0.0
0.0
0.0
0.0
2.8587513735709314e-14
-1.6433339138505633e-12
9.105369452136205e-13
7.042094549012316e-13
-5.745284211388027e-14
-3.884488775436511e-14
-5.6557768806862495e-14
1.528554986751077e-13
4.735091792429326e-13
-2.850071928143497e-13
9.998817836442228e-13
-1.1883837700728042e-12
-4.861905933477555e-15
-4.041436742795526e-15
3.2483360877899184e-15
5.655006588483163e-15
-1.5505801189070806e-13
-2.898738874647905e-13
-1.4358904790551425e-13
5.885209472610129e-13
3.020139342197002e-14
-6.428175784910927e-13
7.609930129789418e-13
-1.4837682790981832e-13
1.4345412970274156e-12
-2.590706331591356e-12
1.2283136212575622e-12
-7.214858669362332e-14
1.0030719738726577e-12
-5.30255194638674e-13
-3.800304457720805e-13
-9.27863334619045e-14
-8.272119233314433e-15
-2.1334114978299607e-12
1.2108431716733746e-12
9.308404453899003e-13
-3.406210622582411e-15
-3.3795202460656127e-15
-3.4165425205631895e-15
1.0202273389211217e-14
-3.229633874350775e-13
-2.889993048265505e-13
-2.30841879284319e-13
8.428045715459472e-13
-4.030206729786055e-14
-3.785805696660676e-14
-2.2458960148796608e-14
1.0061908441326401e-13
-7.660775192504884e-15
-8.281800428380104e-15
-7.804668933568891e-15
2.3747244554453873e-14
-4.101464032476921e-14
-3.999470045274372e-14
-3.4891548907228275e-14
1.1590088968474116e-13
-5.529203885445463e-13
-5.503967473482815e-13
-5.373101432817008e-13
1.640627279174527e-12
8.482248846907937e-13
-7.419637496873645e-13
1.3153871526600485e-13
-2.3779985026943426e-13
-3.4267635296003894e-13
-6.133740141953939e-13
-2.773531796003769e-13
1.2334035467558094e-12
2.575024521734827e-13
-3.791476877824e-13
7.596260928152675e-13
-6.379808572063498e-13
-4.990911631667978e-14
-3.261170599190496e-13
-2.1211935899163467e-13
5.881455352273637e-13
-1.5503991399374166e-13
-6.61089181107245e-13
-5.379249597019267e-13
1.3540540548029121e-12
2.4955384893663235e-13
1.0629119521097287e-12
8.817467778733232e-13
-2.1942125789196826e-12
7.294773406721817e-13
1.1035037225590789e-12
1.4401273990091693e-12
-3.273108462240422e-12
1.4411302993478316e-12
2.2593459217716433e-13
-3.79835080829899e-14
-1.629081383442005e-12
1.550541032803645e-13
-6.038623547280424e-14
-4.440943113107303e-14
-5.025843667648722e-14
1.6661379267266284e-13
3.949227439478962e-13
-3.8283997340187893e-13
-1.7869656321868012e-13
-3.4235671328783454e-13
6.317662108196485e-13
-8.804289587460598e-14
-2.0136660165720543e-13
1.5009870001035866e-13
8.427173810848423e-14
2.5514627588047504e-13
-4.895167139993171e-13
1.0452232258486488e-12
-4.4776939118790597e-13
-5.092188915794929e-13
-8.82349430812493e-14
-2.3637883733803968e-12
3.3678989241362772e-12
-4.589026161444616e-13
-5.452079346114239e-13
-2.7474673632609833e-13
-2.536341187641991e-13
7.336807391175139e-13
-2.0529988402721617e-13
8.516063115708651e-13
-1.5048554708477268e-13
2.3418692261579656e-13
-9.353076871018863e-13
2.287695377621796e-13
-8.246790187787929e-13
-6.147048307995007e-14
6.573799640965639e-13
6.978725355776301e-15
7.830741889068962e-13
-6.245868337895571e-13
-1.6546608047311379e-13
4.218333338583522e-14
-1.6827855197701466e-13
-9.410101009148008e-14
2.2019622868265971e-13
-1.1663861594321227e-12
3.9250887921289145e-14
1.1926154394084652e-12
-6.548016789763258e-14
-4.805293606146163e-13
-4.3710738904829773e-13
-4.0290910367878443e-13
1.320545853341697e-12
-1.8289941808967657e-12
1.90563262741175e-12
-9.495104354461018e-13
8.728719889311173e-13
-1.8586367282386074e-14
-2.0512351002278712e-13
-3.488703529502148e-14
2.5859691260019434e-13
7.651382978153939e-13
8.297526514781685e-14
-5.22857027764505e-13
-3.252565351987064e-13
-8.401252685240224e-14
-6.810466157779008e-14
-6.897543212950383e-14
2.2109262055969634e-13
1.2250078483663011e-12
3.305955182868863e-13
-8.726293451316297e-13
-6.829740215215522e-13
-8.024335991427148e-14
8.387826607355846e-13
-4.780166712986629e-13
-2.805226295226506e-13
-1.1623748668596312e-12
-1.3536535412576883e-12
3.4582600408538554e-12
-9.422316327365333e-13
1.3047432196262098e-13
-1.0928394531405598e-13
-1.200227886067153e-13
9.883241195815036e-14
-3.066707049759916e-14
-1.3686330959384132e-14
2.640663470731301e-14
1.794676674967026e-14
-2.627010295571962e-13
-3.601050591845252e-13
1.0992201963973345e-12
-4.764141076556163e-13
0.0
0.0
0.0
0.0
-1.9896208937616836e-12
3.9182355101911175e-12
-7.751131874241896e-14
-1.851103297687029e-12
-3.795923920706877e-12
5.66536415890237e-12
-1.5321902873908058e-12
-3.3724995080469277e-13
1.7192922492078295e-14
-1.179063007031737e-13
9.899603578100771e-14
1.7173424300877162e-15
-2.4602949714114897e-13
-3.6442804052689354e-13
1.0492427768052997e-12
-4.3878523913725707e-13
-2.6540838022094466e-13
-2.8155246525164695e-14
-6.820972895028872e-14
3.6177335569639746e-13
-2.746162131395318e-13
2.390313409044537e-13
-2.5594917182198366e-13
2.9153404405706155e-13
-1.115062780629494e-14
-1.0687525512001689e-13
-9.859520733114042e-14
2.166210902574523e-13
-5.867003915127712e-14
-5.294725772515158e-14
-4.59695222368791e-14
1.5758681911330795e-13
1.3884025920132316e-13
-3.406641986230074e-14
3.318496397426212e-13
-4.366234790816438e-13
-1.741982690385436e-13
-2.2698181755337374e-12
1.0938267659424827e-12
1.3501896786297995e-12
-3.538875078071545e-13
1.929493330398186e-13
-1.9722643061439823e-13
3.581646053817333e-13
-3.862242944782217e-13
-4.009861320265845e-13
-4.4854423307311164e-14
8.320648498121171e-13
0.0
0.0
0.0
0.0
-1.7976509866039756e-13
-2.0030610762098192e-13
-1.6466688800416922e-13
5.447380942855484e-13
-1.7318949515499333e-13
-1.3635205236179918e-13
-1.5463298835301125e-13
4.64174535869804e-13
-2.525725454605437e-13
3.7629504694944736e-13
-2.1181850534470345e-13
8.80960038557994e-14
-9.744060690998645e-14
-3.715166034283066e-13
-2.3077732428402875e-13
6.997345346223218e-13
-1.8548441364216059e-13
-1.9629415878874172e-13
-3.810849517924255e-13
7.628635242233287e-13
-6.95764386777488e-14
-3.02431312167786e-13
5.8864253666496996e-15
3.6612132547888514e-13
-1.1632820592405663e-13
-2.6372345193076807e-13
-1.3990526030306787e-13
5.199569181578922e-13
-8.111686834339096e-14
-6.092848878732836e-14
-3.6306380072341247e-14
1.783517372030606e-13
5.005698776455173e-13
-5.583831800598104e-13
6.541152788224459e-13
-5.963019764081537e-13
0.0
0.0
0.0
0.0
1.1661896229583439e-13
-8.29028403458374e-13
3.742173448869841e-13
3.381920962755567e-13
-4.91463876496713e-15
-3.161546020832371e-15
-4.209217116059025e-15
1.2285401901858526e-14
5.977192448514186e-14
1.0476032521588068e-13
-8.584667734224568e-13
6.93934523721434e-13
-1.0939215130530679e-13
-9.911291785890888e-14
-4.311273351833585e-14
2.516178026825515e-13
-1.7430773883053354e-13
-3.090882782986033e-13
-1.303447951818491e-13
6.137408123109838e-13
2.2752890066444413e-12
-1.347319598207779e-13
-1.6726616982472306e-12
-4.678953485764331e-13
2.435687615277332e-14
-7.94039284446437e-15
-2.0952765956932015e-14
4.5362826486230535e-15
1.1165901546877713e-12
-6.156170003422448e-13
-6.543218103381033e-13
1.5334865599257667e-13
3.433852962547991e-13
-3.302156740369562e-13
-2.4120009558677916e-13
2.280304733689356e-13
-1.9989492198497128e-13
-2.939771861154912e-13
-6.616631794353493e-14
5.60038426043997e-13
-4.515970696114943e-13
-3.4850681466811276e-13
-4.2463283338511224e-13
1.224736717664721e-12
0.0
0.0
0.0
0.0
1.4977695963923395e-13
-5.028865754113117e-13
-1.1379021951378337e-13
4.668998352858612e-13
-1.2093679279658823e-14
-2.9390800997593415e-14
-3.117099406639026e-14
7.26554743436425e-14
-2.967016499750338e-15
-1.9961820940605729e-16
-2.2908704528691755e-15
5.45750516202557e-15
-6.351633924540647e-13
1.1194210772950692e-13
-2.9228887686955333e-14
5.524501724115145e-13
-1.513933679978176e-13
1.4468281171543096e-13
-1.3050386736855565e-13
1.3721442365094211e-13
-2.3081498708374206e-13
-3.1497274782342007e-13
-1.4379036762220863e-13
6.895781025293704e-13
-3.0317158764680226e-13
-3.4870671057452604e-13
2.562476279640526e-13
3.956306702572759e-13
1.5985343078945786e-13
-3.880722770927975e-13
4.471287951720064e-13
-2.1890994886866574e-13
-7.219652281793754e-13
1.5409292708230505e-12
-4.182591750013755e-13
-4.007048676423016e-13
-3.8775970480287437e-13
-4.908888541708698e-13
-3.601865066047009e-13
1.238835065578445e-12
-3.2055178895359726e-13
-8.558158636859741e-13
-4.851406760614684e-13
1.6615083287010376e-12
-2.52784128244601e-14
-1.9370832997693227e-14
-2.4790817305934215e-14
6.944006312808756e-14
-1.3455428796408941e-13
-2.1802480450636884e-13
-1.2657573597010117e-13
4.791548284405593e-13
0.0
0.0
0.0
0.0
-6.569601500581231e-13
2.5041100762051576e-13
-1.0545272878937961e-12
1.4610764303314026e-12
0.0
0.0
0.0
0.0
4.77239627218707e-14
-8.602518155646676e-14
8.070091359107745e-14
-4.239969475648145e-14
-1.024536223390355e-13
-8.301137457853964e-14
-6.258183824824071e-14
2.480468351658158e-13
-5.9348517788627334e-15
-4.307215368549445e-15
-5.019649688085966e-15
1.5261716835498144e-14
-1.7882600936777817e-13
-1.2148794622352251e-12
-2.157428352257448e-13
1.6094483068287492e-12
-1.74393032208638e-13
-1.9886289689973957e-13
-8.423013516610698e-14
4.574860642744845e-13
-3.640510112428089e-14
-6.141944928244357e-14
-8.345620182346152e-14
1.8128075223018605e-13
-9.378626362543088e-14
-1.8381882851359785e-13
9.009100526906539e-15
2.6859599161212237e-13
-1.3093957885295853e-12
5.276849454750788e-13
-1.1159429349582213e-12
1.8976537780127314e-12
-1.4839453170100103e-12
3.649264144161317e-12
-2.8122798231659198e-12
6.469609960146251e-13
-9.18909248227765e-14
-1.8289323123875164e-13
-1.0472068115915483e-13
3.7950483722068297e-13
-4.902219394818241e-13
6.705721420169273e-13
-8.174549242336137e-13
6.3710472169851e-13
-5.3789505102072534e-14
1.0445971816542575e-13
-4.6087293176125425e-14
-4.5829198872278e-15
-3.295448140812138e-13
-1.5950462689380222e-13
-1.419467853797255e-13
6.309962263547419e-13
0.0
0.0
0.0
0.0
-1.7094772734884253e-13
-1.8763757504247544e-13
-1.698481186313769e-13
5.284334210226945e-13
-2.309032764224575e-13
4.860783221773582e-14
-2.9976795737839217e-13
4.820634015831132e-13
-7.153578898086087e-14
-8.858685602197204e-14
-7.30277249346863e-14
2.331503699375192e-13
-4.4733749569762064e-13
-2.0750214838708798e-13
-4.3810023244319733e-13
1.0929398765279063e-12
-6.876348794405229e-14
2.115977210712194e-13
-1.1558086508114803e-13
-2.725336804601897e-14
-2.02208314010064e-13
2.104793355584997e-13
-1.2100232538438568e-13
1.1273130383594988e-13
-5.445918268281677e-16
-5.632771698526986e-16
-5.012531717140645e-16
1.6091221683949308e-15
-1.0877279325597204e-12
2.181942716270214e-12
-1.873315214836011e-12
7.791004311255147e-13
2.6252054947623894e-12
-8.85115346772568e-13
-9.961984543007368e-13
-7.438916936890834e-13
-1.0060088002847484e-12
-6.385131491797493e-13
3.795973880790803e-13
1.2649245613854198e-12
-1.5516428132935574e-13
-1.3621114428230025e-12
7.079340928540481e-13
8.093416312983101e-13
0.0
0.0
0.0
0.0
-3.2894652810889438e-12
7.99310058569921e-12
-2.878694898279725e-12
-1.8249404063305367e-12
0.0
0.0
0.0
0.0
1.4011335983145957e-13
6.033789718535049e-14
4.515473372766146e-13
-6.519985942934244e-13
-4.3004897807603836e-13
7.524923222420525e-13
4.476897821279443e-13
-7.701331262939577e-13
-4.300194743991777e-14
-4.257485194691578e-14
-6.126720258018271e-14
1.4684400196701633e-13
1.5847217686829614e-13
6.046832597878051e-13
1.2168376109353636e-12
-1.979993047591469e-12
-9.088112429852078e-13
1.979546947327332e-12
-6.896743203894557e-13
-3.8106138395266304e-13
6.924481514222457e-12
-5.580128633478552e-12
-9.297618269881917e-12
7.953265389137994e-12
-8.357043260445611e-12
-5.691925289764861e-12
-1.2263200351730642e-11
2.631216890194114e-11
-3.016950397342835e-13
2.811237478923452e-13
-2.330898926366729e-13
2.536611844786118e-13
-9.03470326733576e-13
-1.9492956006862987e-12
2.9246481483838663e-13
2.5603011125814823e-12
9.648184922001194e-12
-1.6036289240731056e-12
6.060699559091913e-12
-1.4105255557020009e-11
-1.9830623690115694e-12
3.616993856079397e-12
-2.3667679725889887e-12
7.328364855211658e-13
-9.004433724320399e-13
2.4442295831420863e-12
-7.948459757548205e-13
-7.489402349552248e-13
-6.734718881880198e-13
6.97718000377696e-13
-8.180214692417502e-14
5.755603473450091e-14
-4.335562720914527e-13
8.221258172446422e-13
-2.8409792859189205e-13
-1.0447161656129816e-13
-1.7513955666653036e-12
6.896037532735346e-13
-7.826250411388341e-13
1.8444168545305992e-12
-1.7353033039584058e-13
-1.2792034350864508e-12
3.788284188675865e-13
1.0739053466147072e-12
-9.665832115613412e-13
5.777949622781503e-13
5.889302320255368e-13
-2.0014198274234656e-13
1.177465918286299e-11
-1.918068831160296e-12
-4.164316674242039e-12
-5.69227367746072e-12
-6.282365812647496e-12
-2.3507465007425786e-12
9.193079839719586e-12
-5.599675263294928e-13
6.2789213677610566e-12
-3.9915254684425175e-12
2.2239689531000323e-12
-4.511364852418566e-12
1.3963566232703758e-12
-2.9457466645790297e-12
-3.6447153964990627e-13
1.913861580958558e-12
9.123457713806204e-13
-9.081123486194548e-13
1.4310707646564405e-13
-1.4734049922681157e-13
-5.681286012148406e-12
-3.1214593265858162e-12
-2.2093458615553287e-12
1.1012091200289566e-11
-3.946272344283548e-13
-3.203988437091771e-13
3.0744284245628723e-13
4.0758323568124457e-13
-7.79646411226727e-13
-5.144170819404142e-13
-9.10654743765424e-13
2.20471823693256e-12
-6.498304937728488e-13
-7.11507256512323e-13
-4.1101293665388017e-13
1.7723506869390532e-12
-2.6608652313024546e-13
-4.579308415706245e-13
-1.8648116233304716e-13
9.104985270339187e-13
4.0841997890691593e-13
-4.594684951541193e-13
-5.755846462733522e-14
1.0860698087453855e-13
-9.933782676343787e-14
-4.933890183478537e-13
-1.4589957169454467e-13
7.38626416805838e-13
-5.093811783148895e-13
-2.7136314993899696e-13
-3.219456882204095e-13
1.1026900164742947e-12
-1.7684572845276908e-12
8.925939173523165e-13
-8.788723933949975e-13
1.7547357605703726e-12
-2.8372679632371735e-13
-3.375491062432755e-13
2.0724049144478868e-13
4.140354111222036e-13
-4.511766326827724e-13
2.0384315907874095e-13
-4.0636387851946606e-13
6.536973521234994e-13
-7.869694905300897e-13
-6.458498407389068e-13
-4.1691386520023296e-13
1.8497331964692303e-12
-1.4404167881329038e-12
2.8422375485995727e-12
-1.3001330542780044e-12
-1.0168770618866524e-13
-2.0191531198048143e-12
8.439529569795674e-13
-1.734482531031719e-12
2.909682693856973e-12
-8.809496272102252e-13
2.1573270502807708e-13
-6.964247726870244e-13
1.3616416948691685e-12
5.505941956155599e-13
7.757514296659959e-13
-1.6732681324235168e-12
3.4692250714196004e-13
-5.782122323492383e-13
-4.506484303748101e-13
-1.4243979588820363e-13
1.1713004586122533e-12
-7.50887667788107e-13
-5.064285492341776e-13
-9.832864120863327e-14
1.3556448582309225e-12
-1.2696221843772525e-13
-2.6335502059096346e-13
2.2657335332671348e-13
1.6374388570197593e-13
-1.239898690092672e-12
3.2637811469468413e-13
-7.977955392294288e-13
1.7113161146274142e-12
-3.3242199359362056e-13
-4.416408938372279e-13
-3.4619194013360455e-13
1.1202548275644535e-12
-4.5407979629644033e-13
-3.3597803921150467e-13
-3.3860680490117986e-13
1.1286646404091262e-12
-5.888889770440595e-14
-1.5564925539457294e-13
-2.543514834557971e-13
4.68889636554777e-13
-1.430700115460175e-12
-7.572053155398164e-13
-1.2168475725280485e-12
3.4047530035280385e-12
-6.186013485385486e-13
-4.943657423073717e-13
-5.154855873452775e-13
1.628452678191199e-12
2.6898493899260512e-12
-3.0323240390470576e-12
-1.4535662627772411e-12
1.7960409118982501e-12
1.6627165278325549e-13
-2.9191014070647885e-13
-2.1315075225263935e-13
3.3878924017586327e-13
-1.3525445854747297e-12
1.0382404807789767e-12
-1.3978490895303982e-12
1.7121531942261543e-12
-1.272347059644893e-12
4.820437637309982e-13
-1.189637478659517e-12
1.979940774573414e-12
1.299667005813756e-13
4.874124926665559e-12
-3.700437308468534e-12
-1.3036543187783857e-12
-4.811028521920631e-13
-4.97446912464291e-13
-3.9855774885376843e-13
1.3771075135101244e-12
-6.079181537278631e-13
-3.658538656482194e-13
-4.764767079333495e-13
1.450248727309432e-12
-2.593336128502564e-14
-1.2885885172446908e-13
-8.545036919473245e-14
2.4024258220422707e-13
-2.8852037551891992e-12
1.3729892325643467e-12
-1.2109102206325648e-12
2.7231247432574155e-12
-4.5817667379456536e-12
-4.5905614719795934e-12
-6.04882546433528e-12
1.5221153674260492e-11
2.205217055870551e-07
-2.665568388863971e-07
-2.8977824463893657e-07
3.358133779382781e-07
1.8152861011816447e-11
-1.2881729475916273e-11
-6.113507623207972e-11
5.586394469617949e-11
-2.4837585044726257e-11
2.604116927896353e-12
3.7773386871887055e-11
-1.5539918755057284e-11
-1.2894579802126098e-12
4.848457704855205e-13
1.1479976942741952e-11
-1.0675364733014829e-11
7.560010491723978e-11
-2.6466556080519902e-11
-1.657387141456832e-10
1.166051653089631e-10
9.215383214181282e-12
-9.758160337269467e-12
-1.365618939688232e-11
1.419896651997051e-11
-7.439217230399973e-12
5.994121313950258e-12
4.44118763630348e-12
-2.99609171985376e-12
-8.428916699133642e-14
9.716267125348511e-14
-2.4906115169004907e-14
1.2032610906856196e-14
-2.2622194088229547e-14
-2.227370025942087e-13
-1.4622352699997098e-13
3.915827236824091e-13
-2.2300367283980695e-12
-9.757802187860072e-13
-5.947901909938048e-13
3.8006071381778885e-12
-1.893517338590016e-15
-1.5262245487649523e-14
-1.882200927824069e-14
3.5977772104480233e-14
3.6234315058569895e-13
-2.167964749420705e-13
-1.4055292645460094e-14
-1.314913829981684e-13
-7.693411083965567e-15
-7.37298555605191e-15
3.96349048217118e-15
1.1102906157846303e-14
-5.440928005210419e-13
-6.607185992490547e-13
-1.071022210069096e-12
2.2758336098392024e-12
-2.0161549911173657e-14
9.597999298707193e-14
-1.5188486258343436e-13
7.606641950753607e-14
3.0083886241243043e-15
-1.3139963147625969e-14
-3.796807474155174e-15
1.3928381997656838e-14
-1.1624871203389248e-11
1.2670402411908138e-12
-2.475726985811736e-13
1.060540366077962e-11
-1.8646359893343454e-12
-4.8674869886764933e-14
-4.261361188407144e-12
6.174672047628252e-12
-5.265685542276498e-14
-4.502733895551354e-14
-4.9458913862197844e-14
1.471431082404763e-13
-1.870357468590716e-13
-5.731602597673571e-14
-2.030494361031473e-13
4.4740120893895483e-13
-1.5386181454211738e-13
7.191250569634556e-14
-1.9281954287003063e-13
2.7476885171580205e-13
7.497751516476831e-13
-7.845394858785724e-13
-7.251916922716384e-13
7.599560265025282e-13
2.147692324049818e-12
-1.859442579368601e-13
-1.4092663211340327e-12
-5.524817449789191e-13
4.929130999365325e-14
-5.378176632788147e-14
1.627020623197455e-14
-1.1779749897746353e-14
5.233883743082895e-14
-8.069737985643082e-14
-4.840132582074498e-14
7.675986824634693e-14
1.2693166714756435e-13
-8.543693077259961e-14
-7.19482505194779e-14
3.045351414451313e-14
-5.0839608497351124e-14
-3.2014205851780714e-13
-1.5078990682323132e-13
5.217715738383875e-13
7.5549311410821e-13
-2.0897152898982505e-12
-5.568529586905832e-12
6.9027517626958876e-12
-5.637657180420987e-15
-3.266279993209071e-14
2.667387080838429e-14
1.1626586304127425e-14
1.121597852617122e-14
-1.4926249610784248e-13
7.779172317108863e-14
6.025479441058252e-14
4.3188352982713316e-14
-1.2946002846443395e-13
-6.755350449766238e-14
1.5382517997938316e-13
1.3335796235605824e-12
-4.663706161264643e-13
-3.7529637061160834e-13
-4.919126368225104e-13
-1.0256702266578532e-13
-8.002899692910328e-14
4.4130138590673226e-14
1.3846588100421519e-13
-1.0626891964928223e-13
1.6924048462252988e-13
-4.016703254290343e-14
-2.280453243034432e-14
-3.584114931029774e-14
1.7650457667667028e-13
-7.613425420134873e-14
-6.452917316502384e-14
-1.2748814298240776e-15
-1.3962520122409694e-15
-1.2353421840048053e-15
3.906475626069852e-15
1.3715203730613376e-15
-8.586406956088559e-15
-1.6040646035401983e-14
2.325553261842921e-14
1.8674888192093693e-14
-9.135960628453676e-14
1.503060692232662e-14
5.765411117011653e-14
-5.182210308910082e-15
-5.130531709950966e-16
7.653986012831023e-16
4.9298648786220784e-15
-5.224839497508127e-13
8.038930991754173e-14
-4.797832536639166e-13
9.218778934971835e-13
-3.465850286979937e-14
5.992763809969271e-14
1.4022306874477792e-15
-2.6671365917341124e-14
1.3881144930364238e-13
-9.779202306260124e-14
-1.46484889624248e-14
-2.6370937278616313e-14
2.54668976747809e-14
-1.6372070488371236e-13
-9.681047800025053e-15
1.4793485500895659e-13
7.658512392056504e-15
-2.4535853917804316e-15
-2.117412486613869e-15
-3.0875145136622015e-15
6.93334951000546e-13
-4.867775280543338e-13
5.9201777659047165e-15
-2.1247760071211801e-13
-2.458938983733691e-13
-6.253379787740436e-13
-2.9202339801213095e-13
1.1632552751595428e-12
-2.2999524668850902e-15
-1.691399818218543e-15
2.1327243079767845e-15
1.858627977126849e-15
-8.024170825372418e-13
-7.86375687539509e-13
8.343330113547985e-13
7.54459758721954e-13
2.05348378127524e-13
1.5056790511303728e-13
-8.0225642297444e-14
-2.756906409431174e-13
1.6375874724038546e-13
-7.928769125528664e-14
-1.8498576942591817e-13
1.0051471344081902e-13
5.862580397965623e-14
-3.072523461301112e-14
-1.7516502476351568e-14
-1.0384066890293534e-14
-8.23875270218726e-15
-5.3064296186098036e-14
-6.140512367096013e-15
6.744356125538131e-14
-8.765183215006611e-15
-2.655458651946031e-13
-4.924761935861138e-14
3.235586677682215e-13
-4.0867984004916096e-13
1.4842860604312e-14
-9.28538715305313e-13
1.3223756947501666e-12
4.894272763964158e-14
-8.082719492020014e-14
-5.000122703704982e-14
8.188569431760842e-14
1.4201427111612304e-12
-1.2823046710357644e-12
-8.441465794988427e-13
7.063085393733784e-13
8.620881029795813e-13
-6.699291016634931e-13
-5.602047108070634e-13
3.68045709490976e-13
-1.1627620061916578e-14
-2.608769341406468e-13
9.732595110585344e-14
1.7517860309670993e-13
4.413486320169731e-14
-3.552609686183439e-14
1.1310148851700435e-14
-1.9918915191563374e-14
-2.830562468181288e-13
1.7248231299989796e-13
-2.2974552206163333e-13
3.4031945587986363e-13
-4.4712749409115726e-14
-1.2777589295716565e-13
1.4961918790344574e-13
2.286945446283566e-14
2.1228985548458615e-13
-1.0937020511474063e-14
-1.9642079777772705e-13
-4.932037195385028e-15
-7.270477304659018e-14
1.661081215689738e-13
-3.2506397731229036e-13
2.3166062878990645e-13
1.2482454440333358e-13
-8.338929730085747e-14
-4.1249068534325024e-14
-1.8617856815107576e-16
-3.1011301379325982e-15
-3.369769428090804e-14
-6.490310270703713e-15
4.328913468954437e-14
-1.338007841587182e-13
-3.714549565523918e-14
-1.2121944476181548e-13
2.921657245757725e-13
-6.6671007301023915e-15
-4.337956488971878e-14
-3.6280381743897486e-14
8.632704736371865e-14
1.1790665469206248e-13
-1.772191640966705e-13
-3.5643516594800515e-14
9.495602599940876e-14
-1.946324992293315e-14
-3.359928911752322e-14
4.8208764892405095e-14
4.853774148051269e-15
-3.207144039757738e-14
6.518178736256124e-14
-8.188299478798694e-14
4.87726478230029e-14
-8.195984416616967e-16
-3.465968144716009e-16
-8.60265964464407e-16
2.0264612205977045e-15
-3.087658795470701e-14
5.6728950576494187e-14
-9.780501118063104e-15
-1.607186150372407e-14
6.652739733887819e-14
-2.6004022545369667e-14
-2.4826097984410514e-14
-1.569727680909801e-14
5.0624247199012944e-15
-5.2584622154145235e-14
-1.504627031996208e-14
6.256846775420604e-14
-2.797723425584824e-14
-4.215394372125237e-14
3.283170409773304e-14
3.729947387936758e-14
-6.437265924201652e-14
-4.1908598525354e-14
5.607561453437352e-14
5.020564323299695e-14
5.154066524583649e-15
-5.247685198721325e-14
3.625006047262173e-14
1.1072724990007853e-14
1.9881676566606777e-14
-5.89840593509847e-14
2.2093634368216134e-14
1.7008748416161775e-14
5.083956168394553e-15
1.0963467775320394e-13
-1.8703410314269008e-13
7.231546922109171e-14
-4.707794123299881e-14
4.077216284031206e-14
-4.141580051146797e-15
1.0447358443833513e-14
-2.4518003337175315e-14
8.009358722411924e-14
-4.913997318538994e-14
-6.435610701553966e-15
2.357470719499088e-14
1.4006545052845194e-13
-9.250267962539163e-14
-7.113747809805123e-14
9.556149313930398e-14
-6.586310383183978e-14
-1.3511116012951133e-13
1.0541277082204702e-13
-4.950117998592975e-13
-2.5320650551281213e-13
6.040417390500853e-13
1.4417656632202342e-13
-1.6328843546841297e-13
-3.8034215252939033e-13
-7.632884797075274e-14
6.199594359685561e-13
-2.1143095129436402e-13
2.2392075062320105e-13
-1.4116674287462126e-13
1.2867694354578417e-13
7.708562448790807e-15
-1.4359916517751398e-13
-3.111714710290517e-13
4.4706207375777374e-13
-7.46785710164871e-14
6.678539500018601e-14
-4.868846818208309e-13
4.947778578371313e-13
6.841174635531373e-16
-9.618340503386124e-14
1.728489140311266e-14
7.821439616719544e-14
-6.4205046165719545e-15
-1.8993604913964203e-15
-2.5864608769462295e-14
3.4184473877430707e-14
3.563646599604102e-14
-1.7043119451329698e-13
2.1882704706606217e-14
1.1291202381064994e-13
-4.463331603104374e-13
-3.853514926539468e-13
2.1697947500074133e-13
6.147051779636419e-13
-1.1766637160901254e-14
-1.3911744572498619e-13
7.01852385992478e-14
8.069884428663954e-14
-3.354284773581863e-13
-4.31617562638099e-13
4.0494168883860987e-13
3.6210435115767545e-13
1.3931583309228256e-13
-2.915507559590846e-13
9.527029645126565e-14
5.696462641553684e-14
-1.937857852008082e-13
-2.690957024125024e-13
-1.9229034981582883e-13
6.551718374291392e-13
1.236251046053404e-13
-2.0057477352324623e-13
2.5946339686429083e-14
5.100332923147654e-14
-5.922626529541482e-14
1.426854239947306e-13
-4.662547232842683e-14
-3.6833686370888974e-14
-9.644120085438768e-14
2.325034491355591e-14
-1.285009278933294e-14
8.60409487301648e-14
4.744804182051669e-14
-2.34748369847415e-13
-5.821620998503082e-14
2.4551653801192864e-13
2.570711610673733e-15
-1.1268183448252215e-14
1.1056886224377889e-14
-2.359414386799407e-15
-1.0914268069393867e-14
-1.0893008732246686e-14
1.6899520175312018e-14
4.907756626328535e-15
4.261909252913329e-14
-7.254608072559118e-14
3.326307805948176e-14
-3.336089863023856e-15
-2.697262052554027e-15
-1.7648045657367192e-16
6.130827174945022e-15
-3.2570846658173226e-15
0.0
0.0
0.0
0.0
-1.7252712000297612e-14
-7.096723032376374e-16
1.6626400343094426e-14
1.33598396044082e-15
1.5348250364593393e-13
-9.909923349370385e-14
1.3262680262517199e-14
-6.76459504147472e-14
0.0
0.0
0.0
0.0
1.3456687851066997e-12
-5.883790621895582e-13
-5.646615670989027e-13
-1.9262815581824012e-13
-7.966485047309187e-14
1.883823476123437e-13
-5.379639164976165e-14
-5.4921105489490184e-14
6.381265392152809e-14
-4.097141073043428e-14
-3.137691645863161e-14
8.535673267537795e-15
-8.208241507290971e-14
-2.4561782062501824e-13
6.945537048950942e-13
-3.6685346919716517e-13
-6.611313018157367e-15
-3.6321003913382015e-15
7.512501618981598e-15
2.7309117905139702e-15
2.3334546395742884e-13
-3.244629384106942e-13
3.900734056234465e-14
5.2110133890919816e-14
-5.436632755636031e-16
-1.4248000724350552e-14
-1.3785575983348828e-14
2.8577239983262986e-14
-3.240132152177816e-14
-7.770736106159666e-14
2.3595809169059205e-14
8.651287341431545e-14
4.107028200207242e-15
-1.7068960358365283e-15
-1.431507488330782e-15
-9.686246760399318e-16
8.461608663653986e-14
-2.7291278771337222e-14
-3.89768948960023e-14
-1.8347912969200282e-14
-2.751832960665565e-14
-3.764443522269078e-14
1.0798897720234491e-13
-4.2826212372998584e-14
-4.2382736473345395e-15
-2.265931487304776e-16
-4.214756063141186e-15
8.679622859206203e-15
8.851998988625398e-15
-9.871891806196703e-16
-4.4881301437523816e-15
-3.376679664253348e-15
1.4313339943832235e-14
-3.873629586261326e-15
-7.296042182211875e-15
-3.14366817535903e-15
1.0141781118190073e-14
-4.819921354264358e-15
-1.3217076931922622e-14
7.895217167996905e-15
-2.581793404246038e-15
-2.168542975624799e-14
7.156860346837613e-15
1.7110362813656416e-14
-1.0698716181078042e-14
2.0682852285782973e-14
-4.740959071795329e-15
-5.243177032909592e-15
0.0
0.0
0.0
0.0
-3.208404142006143e-16
-1.84200679385945e-14
1.6773142091908376e-14
1.9677662608867443e-15
0.0
0.0
0.0
0.0
3.15372689469601e-14
-2.068534426706253e-14
-7.354460533556953e-15
-3.4974641463406157e-15
-5.830170517421745e-16
-7.107893490157112e-16
-5.385849283137477e-16
1.8323913290716333e-15
1.7139345650538508e-15
-4.8288793538271064e-15
-1.7507521619364348e-16
3.2900200049669e-15
0.0
0.0
0.0
0.0
2.7154274996931107e-14
-2.2034226210930354e-14
-1.0347975078770083e-15
-4.0852512781237484e-15
-4.231953746468912e-14
7.403086341950409e-14
-2.747312160018048e-14
-4.238204354634499e-15
-1.0747270408573173e-13
-1.9600315091968343e-13
-3.4438990189436955e-15
3.0691975402435896e-13
0.0
0.0
0.0
0.0
-1.0131783289213816e-14
-1.7183868863582602e-14
2.7677236863943914e-14
-3.615847111475077e-16
1.8556925478210592e-15
-1.7910854462077317e-14
7.416093406248998e-15
8.639068508007265e-15
-5.5330078199531064e-14
-3.2342311051233996e-14
-2.568500481900084e-13
3.4452243744077295e-13
0.0
0.0
0.0
0.0
0.0
0.0
0.0
0.0
4.821618375847628e-15
-4.508335075423743e-15
2.6276268905480077e-15
-2.940910190971894e-15
-3.5467175275718596e-14
1.1996238116434406e-13
-4.313521811049978e-14
-4.1359987778125647e-14
0.0
0.0
0.0
0.0
-1.0678522100545205e-15
-6.552765784613886e-16
-5.54166290140825e-16
2.2772950786567346e-15
-9.689911745820545e-15
-1.7915975882971064e-14
1.2294606518872343e-14
1.5311281109919266e-14
1.4257403418459122e-14
-2.4663069411951273e-14
1.4396152462497435e-14
-3.9904864690052674e-15
1.251613146258693e-13
1.4543828804016432e-13
-3.7770491888419764e-13
1.0710531621816353e-13
1.2887129805758809e-12
-6.687833913243822e-13
-1.5865149334050098e-13
-4.612780959109972e-13
-1.7642122576815665e-13
1.232673265840582e-14
-1.9596654067296377e-13
3.600610337827142e-13
-5.510462985326886e-14
-1.2848963903951518e-13
5.921765335407725e-14
1.2437661553870663e-13
-4.441604104326724e-13
7.892613598375371e-13
-3.6309305815766935e-13
1.7992108752804673e-14
-2.031540572086066e-14
-6.098057415906252e-14
3.248812294423821e-14
4.880785693568502e-14
1.1021112514688685e-14
-1.019658254462741e-14
-1.3801505323399016e-14
1.2976975353337742e-14
2.6037906632041122e-14
-4.3530170597717793e-14
-2.518129145831116e-14
4.267355542398786e-14
-9.693959846183626e-16
-4.977273586311364e-16
-8.255304981214978e-16
2.292653841370997e-15
-6.044851554220794e-15
-6.7144499568620826e-15
4.6560814225047496e-15
8.103220088578128e-15
-8.364890756500325e-14
-2.224318205759952e-14
8.06116239943474e-15
9.783092722316815e-14
3.511585956493018e-14
-6.719827380560596e-14
4.698288559276389e-14
-1.4900471352088115e-14
-2.3451158007168767e-15
-4.860563056633299e-16
-1.4440783105251302e-15
4.275250416905337e-15
0.0
0.0
0.0
0.0
1.379096393588926e-14
-4.770599235861674e-14
4.15636229704181e-14
-7.648594547690629e-15
2.3189214158328965e-14
-6.91100391437297e-14
3.110570151156792e-14
1.4815123473832828e-14
7.070393297351272e-14
-2.370382746085018e-14
-3.275539855921064e-14
-1.4244706953451895e-14
-4.05967598690471e-15
-4.55652132612358e-14
3.231622138583472e-14
1.730866786230575e-14
-4.459340918675176e-15
-7.776042796961804e-14
2.7768056915170717e-14
5.445171197312248e-14
-3.4725211225287723e-14
6.315180005258094e-14
1.1379144327444583e-14
-3.980573315473781e-14
-6.755059553441002e-14
1.8158381094129794e-13
-7.521334547751887e-14
-3.881986992936913e-14
-4.385178342794648e-15
-2.443736701642493e-14
1.5244371921447994e-14
1.357817343777158e-14
0.0
0.0
0.0
0.0
6.019311014126134e-14
-1.46907038313504e-13
5.75606226238249e-14
2.915330554841779e-14
-7.052431032472419e-15
-7.341464373067406e-14
-9.383334870054353e-15
8.985040963320091e-14
-1.4284116821495308e-14
-2.9176452279886464e-14
7.001647233883001e-14
-2.6555903237448194e-14
-3.20743378771008e-13
-1.7295934890249114e-12
-1.3394026275022755e-12
3.3897394952982062e-12
1.1128883880445171e-14
-2.7754878167038394e-14
1.764269725078562e-14
-1.0167029641923995e-15
9.309741099326628e-15
-1.2279818378521086e-14
1.0536797607987735e-14
-7.566720328793278e-15
-5.938770146991567e-16
-1.0124150287242976e-15
2.0140472211596896e-15
-4.0775517773623586e-16
0.0
0.0
0.0
0.0
-1.8199586622685967e-14
3.556590894071808e-14
-6.776341680370835e-15
-1.0589980637661266e-14
-2.298003124814763e-14
3.2716666237703076e-14
-1.9175978397583512e-15
-7.819037149797095e-15
1.568074098198423e-14
-1.8581236327522495e-14
-2.1742011835536645e-14
2.464250718107489e-14
7.099063282300933e-14
-4.0390679989550827e-14
-1.795183251601221e-14
-1.2648120317446326e-14
0.0
0.0
0.0
0.0
-2.325175178539378e-13
-7.960396512190328e-13
-1.2135654820917018e-12
2.242122651164676e-12
8.207280832743865e-14
-7.186987394064026e-14
-1.4639698682940077e-14
4.436764296141637e-15
-1.6475482913136787e-13
1.2224968147642964e-13
-1.236676510896894e-13
1.661727987446274e-13
5.28168789107847e-15
-5.6061242676845023e-14
-1.181333207935811e-13
1.6891287557934776e-13
-2.4677686967419394e-13
2.2644815991460495e-13
-2.0223152235159652e-13
2.2256023211118513e-13
6.412861086997687e-14
-2.0930173284295146e-13
-3.559452838304784e-13
5.011184058034533e-13
-1.0163324202053023e-12
1.8870120207623026e-13
-7.791342932034227e-13
1.606765511332491e-12
4.476786447335257e-15
-5.591739517160793e-14
6.224832799207442e-14
-1.0807719267801736e-14
-3.9874752331303535e-13
2.019004542398101e-13
3.25011384509383e-14
1.643459306222869e-13
2.8782347924372844e-14
-4.1660429669720386e-14
-1.5378286040354968e-14
2.82563677857025e-14
-9.954684053113721e-14
2.265977636224526e-13
-1.5596441480449608e-13
2.891349171318086e-14
-9.214629326533748e-14
2.3410256889576877e-13
-5.5537439618255595e-14
-8.641883601217584e-14
1.119804105974433e-14
-8.444872519148256e-14
6.088336666102433e-14
1.2367317470713825e-14
5.517919718996358e-14
4.1781939978603255e-15
-1.7098617135079244e-14
-4.2258774052744655e-14
2.3759409210058128e-14
-2.880213503349681e-14
1.1585808377314193e-15
3.88414498570725e-15
0.0
0.0
0.0
0.0
1.009576025553747e-15
2.018418072082986e-14
1.2241042960234803e-15
-2.2417861042407096e-14
8.122981503794352e-15
-2.1015012615456572e-14
-2.9165420432661253e-14
4.205745154432344e-14
-9.771217164417767e-15
-1.0167095668297949e-14
1.8966875097824187e-14
9.714377348915254e-16
-2.382713270620928e-14
9.675735172256e-14
-3.548662610691093e-14
-3.744359290943973e-14
-7.442802844989367e-14
3.171680362953962e-13
-2.4614706911228127e-13
3.407061266778877e-15
4.059453365841602e-15
-2.564707551519854e-14
1.4093898466833129e-14
7.493723682523812e-15
2.0961917083770622e-13
1.0833090892495948e-13
-2.1072013206925225e-13
-1.0722994769341383e-13
2.0853558956066052e-14
-2.3013841153065557e-14
-9.797482318068498e-15
1.195776451506801e-14
-5.407349856897189e-14
1.293339702157206e-13
-4.6632842292413766e-14
-2.8627629354334935e-14
-1.2932448540093161e-15
-7.658953571382032e-15
9.64754302768966e-15
-6.953446022983132e-16
-3.741971369051206e-14
4.0341200697169785e-14
-4.798445376292959e-14
4.5062966756271845e-14
1.0173268611952966e-14
-1.9004533876084598e-14
8.124897235585129e-15
7.063680285465092e-16
0.0
0.0
0.0
0.0
7.037141802120276e-14
-1.0945209128961539e-13
-8.733361485445605e-15
4.781403475385831e-14
9.404499488694775e-14
-6.136451433744818e-14
-3.795420920909103e-14
5.273728659591404e-15
-4.490326781251332e-14
9.652870059296213e-14
-1.5206681970572162e-14
-3.641875080987664e-14
-9.529669627429749e-14
2.863245116233002e-13
-4.085849617265548e-13
2.1755714637755108e-13
-1.9284132003556135e-13
1.2356699166927425e-13
-2.0851396609932205e-13
2.7778829446560877e-13
-2.3650968346580647e-13
-8.420505239993021e-14
-4.08295477479596e-13
7.290102133453331e-13
1.515348849661714e-13
-2.3609956647673226e-13
1.3097411087935567e-14
7.146727042262526e-14
1.3114403698477555e-13
-2.8358651334482677e-13
-3.5564914664450854e-13
5.080916230045627e-13
-8.542525617778408e-16
-4.730220271173178e-16
-5.027741350596136e-16
1.8300487239547724e-15
-5.965899446581972e-15
-1.0837994246612293e-14
-1.826375860773742e-14
3.506765230093169e-14
-1.2745605798417813e-14
-7.070242034818728e-15
1.7039870933315231e-16
1.964544912390339e-14
8.364934070100912e-16
-1.458124151678416e-14
3.6515925179721904e-16
1.3379588857976855e-14
-2.7038187242155495e-14
3.9462042764251936e-14
-1.3224686132948446e-14
8.008306108520293e-16
-2.1859516007484785e-14
-4.50385215585759e-14
-2.8269934133712417e-14
9.516797169977316e-14
7.417673765461606e-15
-4.8459278917397655e-15
1.300174572795276e-15
-3.871920446517118e-15
-1.930082525229274e-13
5.061295914804967e-13
-1.406080034155587e-13
-1.7251333554201073e-13
-2.2127200082250166e-15
-2.0496755481073616e-15
3.2722205674552637e-15
9.901749888771139e-16
3.5173718310981617e-15
-2.5114948986609532e-15
-3.0465276695294037e-15
2.040650737092196e-15
0.0
0.0
0.0
0.0
-4.102049755701301e-15
-3.673943623904363e-15
-1.30792231858933e-15
9.083915698194996e-15
-1.9056800590336314e-15
-1.4612355316796895e-16
-1.6532003081829554e-15
3.705003920384556e-15
-2.4991526718642624e-15
-1.404561039331417e-15
2.2612620370884402e-15
1.6424516741072388e-15
0.0
0.0
0.0
0.0
2.051979403847369e-15
-3.3610912358670304e-15
-5.837601153190473e-15
7.146712985210136e-15
0.0
0.0
0.0
0.0
-8.666826607945698e-15
-1.8905682441499363e-15
1.3019973946432142e-14
-2.462579094336508e-15
0.0
0.0
0.0
0.0
0.0
0.0
0.0
0.0
0.0
0.0
0.0
0.0
-4.509689237786119e-15
-1.1415255386259274e-16
9.254770366173002e-15
-4.630928574524289e-15
0.0
0.0
0.0
0.0
1.0891414945000595e-14
-6.502111486057452e-15
-2.6143298638761186e-15
-1.7749735950670248e-15
1.2669269920100457e-14
-4.88945546508586e-15
-3.910788456978954e-15
-3.869025998035642e-15
0.0
0.0
0.0
0.0
0.0
0.0
0.0
0.0
0.0
0.0
0.0
0.0
-4.809276752478181e-16
-6.224376603356881e-16
-6.539023265556054e-16
1.7572676621391116e-15
-4.311975204625626e-16
-6.802909003313621e-16
-4.673463405326925e-16
1.5788347613266171e-15
-1.1933234533956626e-14
-5.621077420685643e-15
2.9303713417658225e-16
1.7261274820465682e-14
-1.8570157037949664e-15
-2.195797937780001e-15
2.351641349174746e-15
1.7011722924002211e-15
3.291947366719146e-14
-1.648061831444648e-14
-9.315179305880065e-15
-7.12367604686491e-15
0.0
0.0
0.0
0.0
0.0
0.0
0.0
0.0
0.0
0.0
0.0
0.0
-1.508024119270581e-13
-4.659662249727618e-14
7.222172880978163e-14
1.2517730561455254e-13
2.8379852938284038e-15
-3.551488352703331e-14
2.068581190725566e-14
1.199108632594927e-14
-7.258188237808719e-14
1.7352273522545601e-13
-6.138933971765416e-14
-3.95515131297147e-14
-5.478433207499204e-15
-4.608201879371632e-14
1.9700607064420485e-14
3.185984493679505e-14
-7.14859911391879e-15
-5.254250348889938e-15
1.49808735340278e-14
-2.578024071219069e-15
-1.4056937284572077e-14
-3.3169030045604475e-14
6.204428179084124e-14
-1.481831446066468e-14
-1.3304089630954738e-14
-2.1614277312145194e-14
2.7410589177584288e-14
7.507777765515645e-15
-2.2747558815429294e-14
-7.193994338417439e-14
3.98284361142083e-14
5.485906608539542e-14
-1.0018681443795216e-15
-2.1212599620381224e-15
-1.6496626272930504e-15
4.772790733710694e-15
7.062772070961959e-15
-1.446295578183226e-14
1.1864602558535569e-16
7.281537685284943e-15
2.031759491165338e-12
1.5024946595292974e-12
-1.5529250567857817e-12
-1.9813290939088527e-12
8.350185478485991e-14
-5.367208598783653e-13
1.3443829181635342e-13
3.187807132771516e-13
3.6166540768640806e-13
-3.8308055889845894e-13
-7.465207458759431e-14
9.606722579964402e-14
5.278700391986161e-14
-9.029929418424598e-14
8.022351378672259e-14
-4.271122352233826e-14
-1.891180899318215e-14
2.0666237994726478e-14
-1.9309207133391863e-14
1.7554778131847536e-14
-9.460751711239422e-15
-7.736291653360341e-15
6.24057583060914e-15
1.0956467533990625e-14
9.8076904468786e-15
-8.061349300298302e-14
5.436158391709744e-14
1.644421863900698e-14
1.2930024821177568e-14
-3.266313755763766e-14
1.9733440113966322e-14
-3.2737750621763034e-19
-3.805216506293382e-14
5.948133442390846e-14
-3.0611407244511253e-15
-1.8368028636523458e-14
-1.1754685759046959e-14
-8.687088209770908e-15
-6.953299623851174e-16
2.113710393120299e-14
-2.269029870605499e-15
-3.0082268827115683e-15
-3.555724182159594e-15
8.832980935476662e-15
-8.701854060261359e-14
8.725794172332734e-14
-8.046791991631952e-14
8.022851879560572e-14
-3.9175084333752545e-14
-4.92389287270706e-14
5.245162031250135e-14
3.5962392748321776e-14
9.368541731623743e-15
-3.515102375435012e-14
3.0818308961293186e-14
-5.0358269385667874e-15
1.5284306454118195e-12
-8.336727991034236e-13
-1.2665573700022578e-12
5.717995236938632e-13
1.9010840574908095e-13
-2.7756484049358345e-13
-4.787513813100097e-13
5.662078160545104e-13
4.9673007697490516e-14
-2.3082230650798742e-14
-1.934776601636938e-14
-7.243011030322377e-15
-4.220260214044826e-14
-9.619923980756342e-14
-3.6775112420991896e-14
1.7517695436900358e-13
1.69581914478423e-13
1.7184114424980486e-13
-2.2996438760561565e-13
-1.1145867112261231e-13
3.8408937639770094e-14
-1.5824249126993417e-14
-1.4750840649592994e-14
-7.833847863183685e-15
0.0
0.0
0.0
0.0
0.0
0.0
0.0
0.0
-3.312113212080745e-14
1.7197057679833544e-13
-8.503293753859233e-14
-5.381650713893584e-14
-5.08031285799251e-15
-2.3163104635751147e-15
5.17384030035922e-16
6.879239291531702e-15
0.0
0.0
0.0
0.0
-1.4453600544494458e-13
3.075536294857059e-13
-1.502863295814782e-13
-1.2731294459283454e-14
3.858591361658081e-14
-1.9074223219716485e-13
2.8323593278115076e-15
1.4932395925277238e-13
-5.450633093386796e-15
-2.2931635240060246e-14
9.68353097447764e-15
1.8698737358969415e-14
0.0
0.0
0.0
0.0
0.0
0.0
0.0
0.0
-3.2769370869493966e-13
-3.1291127625002157e-13
-9.679114613436226e-13
1.6085164462885834e-12
9.241224652019742e-14
-8.091699639878799e-14
-2.1394425506882514e-14
9.899175385473082e-15
-1.6027358115707807e-15
-2.0799697667418585e-18
2.666525857863048e-15
-1.0617100765255253e-15
1.6584251344001524e-14
-5.698428953328469e-14
-2.398928043055703e-14
6.438931861984014e-14
1.964311978598345e-14
-4.345873620170522e-14
1.8500833431076158e-14
5.31478298464561e-15
-4.182357360912089e-13
-7.042255380754748e-13
-3.49780262756635e-13
1.4722415369233199e-12
5.666251844720956e-15
-3.48660403894783e-16
-5.876448127404492e-15
5.588566865783191e-16
-4.3863136860505214e-14
-1.0098492875411606e-13
-6.046749915726568e-14
2.0531556477188696e-13
-5.56483319934726e-14
1.4361053191588588e-13
-6.196519000315341e-14
-2.59970099192599e-14
1.5303155552155428e-15
-6.5258694554416546e-15
-1.0065668764822005e-15
6.002120776708314e-15
-1.4668073939999614e-14
-4.3631026815906715e-14
2.5901849771983343e-14
3.239725098392298e-14
0.0
0.0
0.0
0.0
-2.7628927920007865e-14
5.61999070412348e-14
-1.2407606270744123e-14
-1.616337285048282e-14
0.0
0.0
0.0
0.0
0.0
0.0
0.0
0.0
-1.3834542930681414e-14
-1.1203128590185741e-14
2.0310214541997175e-14
4.72745697886998e-15
-7.514964846364404e-14
1.0755419091713694e-13
-1.2279504685510186e-13
9.039050440160899e-14
5.462067246634847e-15
-4.138886040738435e-14
1.189733525538099e-14
2.4029457905368507e-14
1.8327673471931504e-14
1.6204054561805157e-13
-6.163262599398861e-14
-1.1873559309599446e-13
5.202316918081894e-14
-7.977716255049459e-14
1.9554410568534753e-14
8.199582801140915e-15
1.5658940280135296e-13
-1.2229788531872138e-13
-6.866079266371845e-14
3.436927518108691e-14
-2.3154916826174422e-15
-1.2770589206817167e-15
-1.1068792780432413e-15
4.6994298813424e-15
4.0280129017668265e-14
-3.854419455570835e-14
8.188445040004757e-15
-9.924379501964667e-15
-1.5890051934209404e-14
-4.749752744528252e-14
-6.320155980842087e-15
6.9707735360334e-14
3.709272690136736e-14
-5.772082565109813e-14
2.603528680222321e-14
-5.407188052492453e-15
8.836736862209027e-15
-6.5260001908234255e-15
-8.790778444581e-15
6.480041773195399e-15
-2.661020229429608e-14
8.101877239589574e-14
-3.56993782906907e-14
-1.870919181090893e-14
5.988124446920136e-14
1.1695452104996078e-13
-9.389058093320082e-14
-8.294518458596127e-14
1.3740134500073935e-14
-1.806236504557138e-14
7.311888293183768e-16
3.591041716179068e-15
0.0
0.0
0.0
0.0
0.0
0.0
0.0
0.0
1.6389973548439365e-14
-9.535291235274024e-14
-4.493768661048071e-14
1.2390062541478146e-13
3.1326689823719886e-14
-1.8094822114081146e-14
-2.306569191841428e-14
9.833824208775529e-15
-3.1825068393724965e-15
-2.839281441678288e-15
2.35705369393631e-15
3.6647345871144745e-15
-3.7217719864280594e-14
-7.995606830902556e-14
5.3851992592591914e-14
6.332179558071428e-14
1.2634135627514617e-15
-8.139070775785174e-15
-9.34135368530972e-15
1.6217010898343434e-14
-1.6575022870792902e-15
-9.639425246566805e-15
6.202217468922387e-15
5.09471006472371e-15
3.2362981646488935e-15
-1.1588721603011302e-14
1.2250220262897165e-14
-3.8977968245347615e-15
-1.1680354648304422e-15
-1.2217447619807243e-14
1.5919765159830904e-14
-2.534282075193219e-15
8.183103106665081e-16
-5.7422138549837234e-15
-1.986473839259381e-15
6.910377383576595e-15
-6.2180418823811696e-15
-2.3615270073291506e-14
1.837481201036484e-14
1.1458499945307822e-14
-6.245802122369847e-15
-7.83028848518903e-15
-1.3637507930096881e-15
1.5439841400568565e-14
6.071162989766683e-15
-9.697325757904854e-15
-9.228281837307592e-15
1.2854444605445764e-14
-4.3238279300521045e-15
-7.154485879370319e-15
6.648523593506713e-15
4.8297902159157104e-15
7.505417337370656e-15
-7.75465936212856e-14
7.175357494405962e-15
6.2865818789509e-14
1.1596043818411094e-14
-1.5045606364204188e-13
8.365160002043839e-14
5.520841980319235e-14
1.1622936057178546e-14
-2.2261161551711502e-14
-3.6060693881777044e-15
1.424429488271066e-14
-4.5320141635850714e-14
-3.327623903402682e-13
-8.955458408527417e-14
4.676371160613936e-13
2.0051708449473846e-14
-3.172022564962142e-14
-8.07497431680132e-15
1.9743491516948912e-14
-3.81682637406054e-14
-7.080448358991995e-14
5.615158201764348e-14
5.28211653128818e-14
-7.212993551734742e-15
-3.5556445919751576e-14
2.973027557318518e-14
1.3039163898301142e-14
1.4552018684575252e-14
-9.779296775825888e-15
-4.882654314196468e-15
1.0993240544710102e-16
-7.321249222059973e-15
-7.061874866446066e-15
7.022600294500632e-15
7.360523794005405e-15
-3.969341038401001e-14
-5.338415826873667e-14
4.1559312201226665e-14
5.151825645152006e-14
-5.606187349112076e-13
5.232803301423031e-13
-2.633283375222133e-13
3.00666742291117e-13
-6.645079844287312e-16
-2.8426137023882656e-14
2.04479918734181e-15
2.704584582096959e-14
-4.407252372679642e-15
-3.4581128674810717e-14
1.0249587152088024e-15
3.796342233228154e-14
-7.493207577170633e-15
-4.845891986366325e-15
-6.53852978260445e-15
1.887762934614141e-14
-2.588927572310049e-15
-2.448901097231603e-15
-1.5976272284770677e-15
6.63545589801872e-15
-5.6360574437512295e-14
8.355758724274181e-14
-2.898926857725136e-14
1.792255772021819e-15
-7.075313506578118e-14
2.1219744287901225e-13
-1.0666926749787014e-13
-3.477504031536084e-14
3.438519908034263e-14
-6.389612220566511e-14
3.834457063584701e-14
-8.833647510524531e-15
3.674842654969298e-14
1.4474048618893602e-13
-1.0718920430977762e-13
-7.429970842885119e-14
3.2486387867890256e-14
-1.2786539434450393e-14
-1.3759836850920477e-14
-5.940011582519382e-15
-1.067143168217894e-14
1.7270118483655527e-14
-1.236342467374229e-14
5.764737872265712e-15
1.713992700841479e-14
-8.908365745035014e-14
-1.561965840837505e-14
8.756338885031048e-14
-9.351466435457652e-15
-5.665560608548447e-15
-5.724243915226798e-15
2.074127095923289e-14
1.471804792745123e-14
-3.355739958022836e-14
8.137647972565214e-16
1.8025586855520607e-14
-4.663885123671865e-15
-7.7301078804302e-15
4.124619619612637e-15
8.26937338448943e-15
0.0
0.0
0.0
0.0
-2.8387804157325586e-15
-8.959534478496501e-15
-2.2675191199290593e-15
1.4065834014158117e-14
-1.3741374839076251e-13
3.496188093338226e-13
-1.98543014672004e-13
-1.3662046271055958e-14
-7.124961707421012e-15
-2.2638710253332216e-15
4.098455874778522e-15
5.290376857975711e-15
-1.3244738802381542e-15
-3.77269735594889e-15
3.2188427319482277e-15
1.8783285042388153e-15
0.0
0.0
0.0
0.0
-1.42922912949996e-13
2.835380402874531e-13
-1.909368301369949e-13
5.0321702799537705e-14
-2.2051339716035128e-14
-1.703314548207503e-14
3.425142679263424e-15
3.565934251884673e-14
-1.4076046763929225e-14
-1.7379396047485698e-13
-6.248798129824753e-15
1.9411880536861084e-13
0.0
0.0
0.0
0.0
5.086141702914384e-15
-7.114391922791579e-15
-8.67734054592067e-15
1.0705590765797862e-14
-6.752846525834082e-14
-5.6006095556060664e-14
-6.714845811475316e-14
1.9068301892915473e-13
-1.1107663094372968e-15
-8.68728553331541e-15
5.573258616079596e-15
4.224793226673113e-15
-9.015690625088309e-14
-3.171668201809389e-14
1.0862885619069666e-13
1.3244732078280377e-14
-1.722905281762736e-13
1.5977823902283198e-13
-1.0182547383098795e-13
1.1433776298442953e-13
-1.2044153928355523e-13
3.613701926326818e-13
-1.7629242796472834e-13
-6.463622538439837e-14
-1.5662699736959125e-15
-3.311205311320644e-17
-1.201995388535069e-15
2.801377415344188e-15
0.0
0.0
0.0
0.0
0.0
0.0
0.0
0.0
-6.883540286659376e-15
-7.73440250013533e-15
1.9696056113632058e-15
1.2648337175431503e-14
2.131151841778023e-14
-3.8205068416300126e-14
2.1509940829730643e-14
-4.61639083121077e-15
-1.219406733400398e-13
5.4256254939774994e-14
-5.107154539345736e-14
1.1875596379372215e-13
-1.0197106951856487e-13
1.4057326362082394e-13
3.2018967586454615e-15
-4.18040908609046e-14
-5.406557521453972e-14
2.4964517204808687e-14
-3.1113262407744467e-15
3.221238425050547e-14
-6.8918958088649126e-15
-1.5427375304096308e-14
-8.592970519932714e-15
3.091224163289393e-14
-6.59001351421563e-15
-7.577004282529008e-15
1.192793265698299e-14
2.239085139761645e-15
0.0
0.0
0.0
0.0
-3.325593275700142e-15
-7.784427946374333e-15
1.134374224361917e-14
-2.3372102154469654e-16
9.123862506556522e-14
-5.899988914128396e-14
-7.805327883445825e-14
4.581454291017692e-14
-2.3172671148049762e-15
-6.836188782730863e-14
-4.805676323946706e-15
7.548483126606036e-14
-2.1986492227483883e-15
-9.330416986813162e-15
-6.51677962499792e-16
1.218074417206134e-14
-2.2228005128185088e-14
-5.647757393253993e-14
3.333164404092118e-14
4.5373935019803847e-14
-9.40008214917013e-16
-1.282459089893003e-14
1.2107855099662142e-14
1.6567440141848983e-15
-2.0404315891143725e-13
9.027804981437482e-14
-2.837737316967384e-13
3.9753884079379975e-13
-8.889957391805932e-17
-5.162050721152497e-15
-2.241308257278084e-15
7.49225855234864e-15
6.504430107316712e-15
-5.96258136876698e-14
3.228815690515502e-14
2.083322667519804e-14
5.918548084656206e-13
-2.7423979202682404e-13
-2.1583246647148113e-13
-1.0178254996731598e-13
2.1645149443133025e-14
-6.515898819651087e-14
4.2543954525430277e-16
4.308839920812361e-14
1.7302788785735805e-15
-4.057799135513285e-14
1.6604218974915966e-14
2.2243493501643327e-14
-7.131777755276612e-15
6.117595317774004e-14
-3.767718346692525e-14
-1.6366991955538193e-14
0.0
0.0
0.0
0.0
-8.373831813044997e-14
5.838738658650195e-14
-3.3464051185429064e-14
5.881498272937711e-14
3.050735881224236e-14
-6.106202477251256e-14
2.1763383928115533e-14
8.791282032154683e-15
-7.176392934925706e-15
-1.3429218310597008e-14
-1.8632662160945152e-14
3.9238273406467827e-14
-1.7718539524770195e-14
7.613283192641483e-14
-5.242881687252071e-14
-5.985475529123935e-15
5.84432091610651e-14
-6.167033106756729e-14
1.5754019477442278e-14
-1.252689757094011e-14
3.7878800941972314e-13
7.921480897976537e-13
-7.319975605576591e-13
-4.3893853865971596e-13
-2.1402947319717507e-14
2.3607634008752425e-13
-1.1389298198190473e-13
-1.0078041078590175e-13
1.1984248168678717e-13
-1.8307237938754634e-13
3.71353543278991e-14
2.6094543372860306e-14
2.0611543959354604e-14
-1.2506097999107527e-13
5.293569016613966e-14
5.151374586558099e-14
1.0872286348918439e-14
-1.1733053541863768e-14
-3.286622313178178e-15
4.147389506123506e-15
-2.619745624394056e-15
-4.3721686675653125e-14
-7.154721904817753e-15
5.34961542048649e-14
-6.522393643129598e-14
1.61976455868471e-13
-5.629031084267097e-14
-4.0462208594504036e-14
3.246591883993442e-14
-3.56039299645898e-14
-5.573543708479758e-15
8.71155483313513e-15
-1.999068832890596e-14
-7.409505637197845e-14
5.042499276268083e-14
4.366075193820352e-14
-4.395810907039906e-14
2.7746336482427803e-14
1.4104977559291364e-14
2.1067950286798917e-15
-5.169134823496126e-14
1.7953973912581843e-13
-8.527974624009083e-14
-4.256864465076631e-14
-2.447207548892485e-13
4.1361443849061424e-13
-2.510998553688369e-13
8.220617176747087e-14
-1.481590109358714e-14
-1.9802707693946868e-14
-1.6931124614612837e-14
5.1549733402146846e-14
0.0
0.0
0.0
0.0
-7.361062746664826e-12
5.950699964133003e-12
4.385504749892843e-12
-2.975141967361009e-12
-2.887090517248265e-14
-2.8265656225615155e-14
4.37332093306409e-14
1.3403352067456942e-14
1.0096851538958175e-14
-4.8149154416808486e-15
-8.29186308527271e-15
3.0099269879953855e-15
1.6324349281500674e-15
-6.543290666613162e-15
-6.68531898885438e-15
1.1596174727317475e-14
-1.7410578962084043e-14
-2.252839888347252e-14
4.459228678598241e-14
-4.653308940425855e-15
-3.93783565619267e-14
-4.033084001769547e-14
8.648204494040705e-14
-6.772848360784917e-15
-1.8684881269522586e-13
1.1687469156628963e-13
6.439594752348141e-14
5.5781736054547284e-15
5.9195367447090954e-15
-6.657730995990062e-15
8.118599322082382e-16
-7.366568092727132e-17
-9.417794687338762e-15
-4.529855516726991e-14
4.0087412853802025e-14
1.462893700080667e-14
-2.184678937992841e-15
-1.9470935277477268e-15
6.7101236513680674e-15
-2.578351185627501e-15
0.0
0.0
0.0
0.0
-3.893460883234193e-15
-2.6500917618718965e-14
2.6376039448096364e-14
4.018339053856784e-15
-5.364377342140102e-14
1.915897288971785e-14
1.3988553823127855e-14
2.0496246708555312e-14
0.0
0.0
0.0
0.0
0.0
0.0
0.0
0.0
0.0
0.0
0.0
0.0
0.0
0.0
0.0
0.0
0.0
0.0
0.0
0.0
0.0
0.0
0.0
0.0
0.0
0.0
0.0
0.0
0.0
0.0
0.0
0.0
1.007746987374881e-14
-2.304695053917995e-14
1.9484092060989813e-14
-6.514611395558666e-15
-1.4298893304738009e-13
4.255371456570889e-14
2.1354000895084713e-13
-1.131047904691761e-13
2.387211164008773e-14
3.496299721750073e-14
-6.1836232348717e-14
3.0011234911285203e-15
-7.989012957711218e-14
-8.356350585664838e-15
8.768099353227222e-14
5.654866305048415e-16
-1.5697968349014414e-13
1.5159208187967668e-13
7.47325608728957e-14
-6.934495926242831e-14
4.389390024544542e-15
-2.8481534257343147e-16
-3.296495752755289e-15
-8.080789292158218e-16
-1.2213309040296703e-12
9.246292863791338e-13
4.1968174520973996e-13
-1.229801275592057e-13
-1.2864635363779049e-14
7.778570002698214e-14
-2.1892395521850518e-15
-6.27318251110181e-14
3.3156398822050403e-14
-1.720972156461521e-13
8.938352494788488e-14
4.9557291876216895e-14
-4.104265232824147e-13
3.6375455136166883e-13
3.3377569900969755e-13
-2.871037270889519e-13
-5.081387327262658e-14
4.68080354723345e-13
-3.791717450825071e-13
-3.8094736368211566e-14
-5.202983233928389e-14
1.283034710469517e-13
-7.307004519647113e-15
-6.896663418802073e-14
-1.0092546611192817e-12
3.482013101769913e-13
-4.088036317408751e-14
7.019337141163757e-13
-1.614145072782937e-12
1.2090724467646781e-12
2.109680571527094e-13
1.941045688655488e-13
-1.211524885560657e-12
7.30994859971924e-13
1.1233027671284366e-13
3.6819974887589567e-13
0.0
0.0
0.0
0.0
-7.774448608598935e-13
2.604951981310703e-13
2.466429909606979e-13
2.7030667176812435e-13
2.671802483780667e-14
-1.0275445732217861e-13
5.430405766155895e-14
2.173237482281302e-14
1.7639296636557266e-13
1.353849660238095e-13
-2.952146147439988e-14
-2.8225647091498307e-13
-5.599015921457991e-13
-2.237792258826318e-13
2.090705762905109e-13
5.746102417379202e-13
4.5145257710850776e-14
-4.122595178595607e-14
7.15854336989907e-15
-1.1077849294793778e-14
-2.4006510443216257e-13
2.0135522173313129e-13
-2.0428599645708042e-13
2.429958791561115e-13
2.0140694798458716e-13
-2.6381620436040193e-13
1.9574775398889155e-14
4.283448097692528e-14
-4.742924861055438e-15
-7.395202212174899e-14
6.385346772238574e-14
1.4841479260418716e-14
-1.1566774528209663e-13
-8.317913338905407e-14
2.7865013021323715e-13
-7.980325154208607e-14
1.1877538832408933e-13
-6.441403191662579e-14
-5.094932944666151e-14
-3.412026960802157e-15
2.8330411595570646e-14
-1.0119354041032171e-13
2.901882405644748e-14
4.384430475830353e-14
2.717441823764085e-13
-3.110540279616023e-13
-3.722984672266584e-13
4.1160831281185127e-13
6.642508388391506e-13
-5.093810447684755e-13
3.4024816443765376e-13
-4.951179585083308e-13
-4.091395968668723e-14
-2.1313221003562492e-13
-1.4806771054884296e-13
4.0211388027115484e-13
-1.1126184737569426e-13
2.1524214279233536e-13
-1.9594669976263284e-13
9.196640434599187e-14
1.93822948913266e-13
-5.340176044965941e-13
-2.849682681979098e-13
6.251629237812354e-13
-7.588038628666286e-15
-1.1699406271985138e-14
7.225387432025486e-15
1.2062057468625938e-14
5.062433081182646e-14
-6.853320383357847e-14
-3.8351136170045146e-14
5.626000919179717e-14
2.418372725441799e-15
-6.3458166949337775e-15
-4.3308804776058085e-15
8.258324447097787e-15
9.101799987021083e-15
-1.4986022033207125e-13
7.149826873617244e-14
6.926015160887779e-14
-1.162309460908965e-13
1.225797182655427e-13
-3.2529528689580846e-14
2.6180756514934527e-14
1.630131027572686e-13
-2.67141015914968e-13
-2.3798869359683056e-13
3.421166067545303e-13
1.1430364342235245e-13
-6.998867586381327e-14
-1.8687871541173795e-14
-2.5627096017365305e-14
6.25894290924367e-14
-7.52391393571417e-14
-5.621621789006327e-14
6.886592815476821e-14
4.199908133908734e-14
2.0060824140090434e-14
-4.664036922751859e-14
-1.5419536251659172e-14
-3.586595056335688e-15
-5.787791665210915e-15
6.745326043969339e-15
2.6290606775772654e-15
4.2203030406131005e-14
-6.293036453383343e-14
-1.2853565231564712e-14
3.35808993592672e-14
-4.688282337691795e-15
-3.7652967666177836e-14
4.711458608410431e-14
-4.773336080234693e-15
3.242505215567563e-14
1.4542509576765705e-13
-9.838772996594098e-14
-7.946241795739166e-14
-5.944479453032225e-14
7.435338161369717e-14
-1.229939501159478e-14
-2.6091920717800486e-15
-1.0419475488782993e-15
-1.0081308577334514e-14
-3.758286569099771e-15
1.4881542695312587e-14
-8.55404192786759e-17
8.034844081584528e-14
-5.877878930964478e-14
-2.14841110869219e-14
2.883035196313458e-15
-4.9973581621380314e-14
4.703235489643452e-14
5.81915286323545e-17
-7.891597066810577e-15
3.6492687512383794e-14
-2.7002470175910575e-14
-1.5986202696626344e-15
6.084298814939618e-14
-4.99449236103237e-14
-4.364629799741115e-14
3.2748233458338677e-14
2.5887537644984107e-14
-9.757564145552075e-15
-9.588184907209581e-15
-6.5417885922224495e-15
-3.480246034950591e-14
2.007833360931614e-14
-4.84146274459581e-14
6.313875418614792e-14
-4.853302169485702e-14
7.994711942281497e-14
-2.6824548665698117e-14
-4.589549062259832e-15
1.5493509951490433e-13
-1.2667506535084885e-13
-3.6361623961833824e-14
8.101589797778401e-15
2.2003188586832502e-14
-9.817680753835837e-14
2.773387006481397e-14
4.8439748886711794e-14
-2.189966752651852e-14
-2.029344767258896e-14
5.943779201142136e-15
3.624933599796536e-14
-2.3466644315393704e-14
1.557365535426638e-13
-7.229765515257648e-14
-5.997225407469361e-14
6.382053873698297e-14
-1.2313265763429705e-13
1.8144051800133395e-14
4.116806709718055e-14
-3.4345340171625866e-14
-8.58320917798838e-14
2.3305210325064138e-14
9.68722216264454e-14
0.0
0.0
0.0
0.0
-1.8390431793246504e-14
-3.0661323170708737e-14
-2.807459388182547e-15
5.1859214352137804e-14
-6.89722317657957e-14
2.252866193719035e-14
-3.2895196211976844e-14
7.933876604058229e-14
-1.2007466452163228e-14
-1.774017518760992e-14
-3.281785842129418e-14
6.256550006106735e-14
2.732297451732012e-14
-1.7445468177766737e-13
-1.7595338267390464e-14
1.647270455277377e-13
-4.7756944157332846e-14
-8.117162167376207e-14
-5.821024790655706e-14
1.871388137376519e-13
3.791065512388924e-13
-2.9235968063278184e-13
1.6147770307803816e-14
-1.0289464091391446e-13
-3.4798919289935734e-14
8.709186429456565e-14
-6.183469542673285e-14
9.541750422102914e-15
1.0181357630669188e-15
-4.258308100792019e-15
1.0281852981438675e-14
-7.0416806437135725e-15
-4.077651102950834e-12
3.1776210724409626e-12
3.0292023219234792e-12
-2.1291722914136278e-12
-7.689423459483815e-14
2.223334035180717e-13
-1.226739828477583e-13
-2.2765186075474948e-14
-2.2281623985404622e-13
7.946357495155884e-14
-7.002035472578311e-14
2.133730196282703e-13
-1.258075140917198e-13
3.920873038300939e-13
-1.8378561141965952e-13
-8.249417831871458e-14
6.834822690272769e-14
-3.1877445197345866e-14
-7.74198617706737e-14
4.0949080065291714e-14
9.561755291141077e-14
1.7877009488783642e-14
9.025414570618918e-14
-2.0374870810638303e-13
1.1554313086017823e-13
-2.53894301072926e-13
2.851407702579427e-15
1.3549976251016837e-13
4.5364543775082493e-13
6.286764001739937e-14
-3.9893150051483595e-14
-4.766199277167406e-13
7.719508636975497e-14
-9.360622935503403e-14
-1.5783647707614833e-14
3.2194790692893876e-14
-2.4082793215934737e-13
-1.0511923205842397e-12
-9.246847125164763e-13
2.216704965260071e-12
-9.490093544374571e-15
-1.7315813000209735e-14
2.86597624847095e-14
-1.8538559401251946e-15
1.6123470704582336e-12
4.7824013722289995e-14
3.9403005291899307e-13
-2.0542011370995167e-12
4.199767252058927e-14
-6.911329213812049e-14
-7.80592410263426e-15
3.492154372016554e-14
-2.412623571424827e-15
-5.14822133984871e-15
7.170418822610878e-15
3.9042608866265967e-16
-1.1833166416290194e-13
-1.7429102195905716e-14
-1.2451628273606214e-13
2.6027704909486987e-13
-3.8381422952690587e-13
-4.3152203231320105e-13
2.3452504096768403e-13
5.808112208724225e-13
-5.33922724045037e-13
-9.79712880450751e-13
4.1221430069644294e-13
1.1014213037993447e-12
5.2751257211765775e-15
-1.618647997553755e-14
6.6610970154669306e-15
4.250257238894038e-15
-2.8283375951547244e-13
1.6560734805921714e-13
-2.506411027121522e-13
3.678675141684079e-13
7.050977308883432e-14
-1.431218723056017e-13
-8.634070852357688e-14
1.5895280774034402e-13
-7.511332300998675e-14
2.2345884424323068e-13
-2.790784063030754e-13
1.3073288506983095e-13
-8.715643266422394e-14
-1.914721233839797e-13
-9.503658772629003e-14
3.736651437744934e-13
4.622133458995549e-14
-1.1253282868754574e-13
-2.687367652029638e-14
9.318517061788679e-14
-1.332154779653063e-13
-7.245643344013466e-14
-6.285690281856365e-14
2.6852881422400483e-13
5.833512422953563e-14
-1.0630993945369603e-13
-1.2515776684695918e-14
6.049059190885637e-14
-7.995776704236271e-14
1.5863276611169906e-13
-1.556326494486606e-14
-6.311173412447028e-14
-1.0269507675066746e-13
4.380075757529803e-15
-1.5002734763242655e-13
2.4834234862556426e-13
8.029928385685643e-14
-1.3626766732530572e-14
-4.5268182936721994e-14
-2.140433418760387e-14
-2.2072096826065333e-14
6.211480601697044e-14
-2.8027920346573667e-14
-1.2014788844331473e-14
-5.004980084007005e-14
-1.0467171706227514e-13
-5.502681301397147e-14
2.097483309163168e-13
3.671991605321505e-14
-2.7326667975737752e-14
7.204339941486001e-15
-1.659758801896328e-14
-4.055608190156042e-14
5.574372466045952e-14
-1.6608243373012237e-14
1.4206006141130667e-15
-1.6803219315883475e-13
4.301752481851213e-13
-1.434155689021035e-13
-1.1872748612418301e-13
-1.0367550181903187e-13
3.629952558871233e-13
-1.1828969481373374e-13
-1.4103005925435759e-13
-1.7390228000262428e-13
2.0125397466359863e-13
-2.4838111618317176e-13
2.2102942152219786e-13
-4.700093342332899e-13
-1.1022544607979699e-13
-2.594339505629227e-13
8.396687308760091e-13
3.1266701443150804e-13
-5.850230153937482e-13
-8.540984837670281e-13
1.1264544847292637e-12
3.88343810710004e-14
9.963381762188332e-14
-1.7410515485509536e-13
3.563695616221153e-14
5.190181239013867e-14
-4.976334155417649e-13
-2.8013983872370306e-13
7.25871441875329e-13
-5.659453365365817e-15
1.8691093353007407e-14
-5.100968794244143e-15
-7.930671193397436e-15
-6.649161381625434e-14
8.912567359451003e-15
-1.6537007997082714e-14
7.411605445388615e-14
8.789020637443295e-14
-4.877677719916319e-15
-6.175584629849362e-14
-2.125668235602295e-14
0.0
0.0
0.0
0.0
1.7165764011850836e-14
-1.7959821296624742e-14
-1.3546421507558717e-14
1.4340478792332626e-14
2.6915715497927895e-14
2.3543535664409946e-13
-3.0617243514295863e-13
4.3821363000931314e-14
-2.4883942710654962e-14
-1.72430044461084e-14
-7.175268369250786e-15
4.9302215526014175e-14
-3.401460955025406e-14
-1.5419208023272977e-14
-1.302586668331041e-14
6.245968425683746e-14
6.5796897746422e-14
-1.0387895101933426e-13
2.421481518084158e-14
1.3867238092070705e-14
-9.349744392253228e-14
1.415539051250834e-13
-2.968653987881155e-14
-1.8369921323739522e-14
-1.0562510368130345e-13
-1.3823381943954596e-13
-2.0685796198721898e-14
2.6454471931957085e-13
-7.113075437744498e-14
-1.280593344691847e-13
3.347803010771318e-14
1.6571205873891642e-13
2.796196149493475e-14
-2.973428995847544e-14
-1.7406228777729657e-14
1.9178557241270376e-14
-2.5520178503257207e-14
-9.015003057142646e-14
8.042035926747278e-15
1.0762817314793632e-13
5.828867381340036e-15
-4.419172676335102e-14
-2.732811174467405e-14
6.569097112668502e-14
-5.374301494214149e-14
2.6533516137743532e-14
-4.821246935021507e-14
7.542196815461302e-14
4.2208911574221825e-16
-6.340430333714486e-15
-1.8163906470232537e-15
7.734731864995522e-15
-6.046387844505154e-14
5.01340882042044e-15
9.135622778177274e-15
4.631484684645386e-14
5.6775853740529016e-15
-1.2237651777154336e-14
-2.3628417100938567e-15
8.92290811319529e-15
-2.814815223265511e-14
-7.868818293502725e-14
1.4582879540404087e-13
-3.8992460236358535e-14
3.4293549174802536e-14
-1.6194838839158097e-14
6.809711836174101e-15
-2.4908422171818536e-14
-1.5965232952580656e-14
1.0164648848297055e-13
-8.270251868815144e-14
-2.978736842238461e-15
2.127058688258236e-14
-7.837084590345895e-14
6.54491032589067e-14
-8.34884423803016e-15
-1.534313032942502e-15
-8.415410154542484e-16
-1.2325386470878107e-15
3.608392695484561e-15
-3.027254972238049e-14
-4.40672277596611e-14
4.591354817987324e-14
2.842622930216844e-14
8.367934334156694e-14
-6.069641810360585e-14
-4.4809142176335325e-14
2.182621693837421e-14
-2.1180687378855227e-14
-5.396981474902593e-14
4.282885430055921e-14
3.23216478273219e-14
-1.090159760964423e-12
1.7940277829910394e-12
-4.662720787712253e-13
-2.3759594325538835e-13
-6.265731548414891e-15
-1.1983966770110099e-14
1.3109737936731925e-14
5.139960381793065e-15
-1.550412659172913e-15
-7.147619897225377e-14
5.1897582670715377e-14
2.1129028960711277e-14
-4.389943695330043e-15
-6.532702762371883e-14
5.117698593760091e-14
1.8539985381447924e-14
3.359841798182701e-14
-3.2421334047210134e-14
-3.9579113614276326e-15
2.780827426810739e-15
-2.319697789713321e-14
-1.9768544278001267e-14
1.0729017225328938e-15
4.1892620452601586e-14
3.3223812176909406e-15
-1.3118469385128881e-14
7.383321644433098e-15
2.4127665230048428e-15
1.75216972534814e-14
-2.636531972373301e-14
-1.0367295823786126e-14
1.9210918294037764e-14
-1.572923141710389e-14
-1.9381225676822546e-14
1.2730128739906337e-14
2.238032835402009e-14
-5.239031484083806e-16
-6.821110915120794e-14
3.680177813762528e-14
3.1933234161991035e-14
-1.9955727746091063e-14
-3.5349588985726547e-14
3.2075398926032415e-14
2.3229917805785214e-14
4.8638087079514294e-14
-6.433602630471944e-14
1.2035785153586455e-14
3.6621540716187156e-15
7.828635608079363e-15
-5.127370534859728e-14
2.6909400132941386e-14
1.6535669607576547e-14
1.9251824308608916e-12
-9.703861876565965e-13
-3.6462475959234846e-13
-5.901714836119449e-13
4.864486373996746e-14
-4.0614101807424857e-14
-3.832387445850454e-15
-4.198374486692148e-15
-3.2837662584724945e-14
-1.859276690357147e-13
-3.9376981164668024e-13
6.125351432671184e-13
1.4888435314303132e-13
-9.707359263503803e-14
-8.591009226595736e-13
8.072901621515779e-13
4.2954042570606166e-14
-7.040768029804657e-14
-4.4082216108732736e-14
7.153585383617312e-14
-5.972391469288096e-14
-2.681199176561576e-13
-5.0590429811537754e-14
3.78434262160576e-13
7.3114113144737e-15
-1.3704718826625291e-14
-1.2025333680741987e-15
7.595840880225797e-15
-3.4788559351868755e-15
-1.1878371750755966e-15
-3.356629916648487e-15
8.023323026910958e-15
2.871916942282559e-14
-6.63598058495931e-14
1.0587375427915021e-14
2.705326099885246e-14
-2.1353023220576863e-15
-2.5396317928604896e-15
2.2052223742322063e-15
2.4697117406859695e-15
0.0
0.0
0.0
0.0
2.0686235241985116e-14
-3.770528412340428e-14
1.1612901879094091e-14
5.406147002325088e-15
-3.8232204010523467e-13
9.026913783877285e-15
3.307207185122809e-13
4.2574407809076587e-14
-4.442498142704069e-14
-4.2305359317039747e-14
3.46567665402441e-14
5.2073574203836407e-14
1.7562316492842683e-14
-8.024304254207164e-15
-5.6959695331527254e-15
-3.842042705482797e-15
7.949698492343001e-15
-9.736160822712474e-15
1.1081467444842424e-14
-9.29500511447295e-15
9.095001967771955e-15
-3.9864844978168664e-14
6.481555944309708e-15
2.4288287066087017e-14
-2.3221751822819204e-14
1.052647286816685e-13
-7.610582636528097e-14
-5.937150493568324e-15
1.7808046721638872e-13
-1.5612603791021362e-13
1.724983802885878e-14
-3.9204267335033816e-14
-6.264124314823186e-14
1.2513799298031396e-13
-9.360464978487796e-14
3.110789995279586e-14
2.5935892710823145e-15
-3.9312865607114585e-14
3.1220950359022214e-14
5.49832597701007e-15
-6.964649267842785e-16
-1.1202216559544736e-15
-1.5289693214021425e-15
3.345655904140895e-15
7.268423825116729e-16
-1.4307890819375105e-15
4.124446905588946e-15
-3.4205002061631086e-15
5.3080036123362025e-15
7.348475160621122e-14
-3.6098665523816805e-14
-4.2694089694730615e-14
-1.0692228398474776e-14
-3.1749898573232766e-14
2.44937363234691e-14
1.794839064823843e-14
9.302592741377838e-15
-2.2697670116071022e-14
1.9911942780486757e-14
-6.516865405793568e-15
1.2028315891414739e-14
2.975944393492772e-14
-1.4183363539449338e-14
-2.7604396286893115e-14
2.942825272906677e-13
-8.601246946269765e-14
-6.048818206605352e-14
-1.477818757619167e-13
-1.1011471260391984e-14
-5.6456269711798385e-15
-5.9214060737759545e-15
2.2578504305347774e-14
3.749696111126226e-15
-5.416775212876433e-15
3.840997943072064e-15
-2.173918841321856e-15
-3.55803993875804e-15
-6.256758498835117e-15
9.111788204687566e-15
7.030102329055912e-16
1.2726795053060216e-13
-7.375645955151678e-14
-3.354990366129805e-14
-1.9961587317787238e-14
4.548815284145769e-14
-3.725290000217204e-13
-4.279953718505903e-13
7.550362190308531e-13
-1.1780211058998236e-13
3.903419103169179e-14
-8.536663473921286e-14
1.6413455429750346e-13
1.073243383239479e-14
-4.687274567795794e-14
-5.893920764725451e-15
4.2034232610288633e-14
-2.884928852211236e-13
1.9265818901033771e-13
-4.0316309702114934e-13
4.989977932319362e-13
1.7376918900136975e-14
4.028479114504613e-14
-8.668404207246265e-14
2.9022332027279544e-14
-5.6171760557582956e-14
-3.6153447496473904e-13
-9.264998589348463e-14
5.103562214158057e-13
1.354501354739425e-13
-1.650507679854068e-13
-1.9087527656539558e-13
2.2047590907686036e-13
-4.676033283592956e-13
-2.5700784281577033e-13
5.768802328461221e-13
1.4773093832894287e-13
-2.5939609462347047e-13
-6.317034403311576e-13
-9.62951278017823e-14
9.873946627564108e-13
-3.106394649253887e-14
-2.498522129311382e-13
6.978786400724445e-13
-4.1696248064876767e-13
-4.1921025287265214e-13
6.465417164250424e-13
-3.5130946435290263e-13
1.2397800080051143e-13
-3.444507682115735e-15
-2.6343908441678e-15
-2.7062589319427815e-15
8.785157458226316e-15
6.6892156256937766e-15
-6.711379775624331e-14
-2.55550556439179e-14
8.597963777446744e-14
6.522977168979552e-15
-8.130761049553746e-15
-8.07804237751325e-15
9.685826258087438e-15
-1.1069365909857302e-14
-2.9474080955292466e-14
3.736214995172433e-14
3.1812969134254593e-15
3.2483019749821596e-14
-1.3820877407854927e-13
-1.4790788414171456e-14
1.2051654274289907e-13
-2.545546218316535e-15
2.38044582594662e-13
-2.496694181513026e-13
1.4170381774956915e-14
-7.548615084989909e-14
-9.831064338364499e-14
2.7740236410147773e-14
1.460565578233961e-13
-1.9346490869207584e-13
-1.609026779511353e-14
1.6491493915416632e-13
4.4640237333023034e-14
-3.949892698473725e-14
-5.0719414575401426e-14
5.23401208758835e-14
3.78782206842552e-14
4.2129992761911543e-14
3.866857751500323e-15
-9.655094036121533e-14
5.0554089847803423e-14
-6.443228660828155e-14
1.4081686540697746e-13
-2.0467154993560655e-13
1.2828697113691053e-13
-8.673350886901729e-16
-5.629500210595999e-16
-5.83331605364303e-16
2.013616715114076e-15
4.0805132308684463e-14
-9.714860281795227e-14
5.349307440961603e-15
5.099416306830621e-14
1.186111599320029e-13
-2.2579098249228435e-13
3.8191616988711885e-14
6.89882055715693e-14
1.6792224802791445e-14
-4.112676180903237e-14
-3.617664862901099e-14
6.051118563525181e-14
-1.3602186136908742e-13
1.3693547087818384e-15
-5.011200365215915e-14
1.8476451031246502e-13
-2.3657323483219142e-14
-1.827784741311029e-14
-1.0056108587747e-14
5.199127948407642e-14
9.660976771361425e-15
-2.7577236399943827e-14
-7.884686595188973e-15
2.5800946223771384e-14
-2.1144118071604167e-15
-3.3838063119051574e-14
4.1069668000251475e-14
-5.117193074039478e-15
-7.568242241358132e-14
-1.5298371582496692e-13
-7.615418866200403e-14
3.048203269005532e-13
-3.086058243082305e-14
-5.547871522189416e-14
-1.8563341237243906e-14
1.0490263888996116e-13
4.587058858539426e-15
-2.850574991502469e-13
-1.364864541882352e-14
2.9411908571053014e-13
-7.109001982862177e-15
-1.859113701583051e-14
8.573272199489821e-15
1.7126866799202867e-14
-2.1467316741292195e-14
-2.22322565847797e-14
2.0687401566828168e-14
2.3012171759243733e-14
-2.7521498125504647e-14
9.269497859440737e-14
-5.6045351628185876e-14
-9.12812884071681e-15
6.993994464872642e-14
-1.0991215593646321e-13
-1.1012775369836632e-15
4.1073488824720564e-14
1.3029033901251728e-14
-4.131684958113555e-14
-2.2907200546184385e-14
5.119501622606819e-14
-8.98799056289406e-16
-6.889622348764201e-16
-7.098478826532001e-16
2.2976091738190263e-15
-8.850204965494315e-14
-3.4202963079580085e-14
3.621894566932127e-14
8.64860670652021e-14
4.230389805690927e-14
-2.1058510598039823e-14
-7.817095093007099e-15
-1.3428292365862343e-14
-3.150845376108716e-14
-7.700941039568842e-14
3.1746752791907203e-14
7.677111136486842e-14
-3.9933437224744824e-14
6.232334378169667e-15
-8.058917181932952e-15
4.176002002850811e-14
-1.1535174090650235e-13
7.392717572014851e-14
-4.108615185138279e-14
8.25107170377367e-14
-4.0457782127565497e-13
-3.574287804316685e-13
3.712267750538394e-13
3.907798266534849e-13
-1.690924884542323e-13
1.0906161650915157e-13
-4.0214955255687734e-14
1.0024582720076861e-13
-1.6998420675397004e-13
-3.883568184751702e-15
-2.8705181504441556e-14
2.025729564431629e-13
2.4178322967841293e-14
-3.434600475372925e-14
-1.9730974602101402e-14
2.9898656387989346e-14
-8.968300237861612e-14
-1.3350429974746313e-13
3.928750804001634e-14
1.8389979408606321e-13
-6.117564297303068e-14
5.929579346547168e-14
-8.936345376743274e-15
1.0816194884302274e-14
-7.171605581649596e-15
-7.4135785184037e-15
1.5618226585531948e-14
-1.0330424854786481e-15
2.976398676062033e-14
-2.4771417323488206e-14
2.8463786959743684e-15
-7.83894813310649e-15
-4.994198314815796e-16
-1.1494735713696808e-13
-1.2801394159897602e-13
2.434607185674256e-13
-2.968400354819737e-14
2.9319445783352643e-14
-4.5426547223562384e-14
4.579110498840714e-14
-8.404851663616932e-15
-1.92507983910591e-14
7.406128763614573e-15
2.0249521291061464e-14
-7.992687771417378e-14
1.449581034514418e-13
-1.0457706103121515e-13
3.9545835293947065e-14
1.3350630399382903e-13
-5.324752092150023e-14
-4.634729315561441e-14
-3.391148991671427e-14
3.6122115114479813e-13
-2.262690522971205e-13
-6.020880224405636e-15
-1.2893121862327181e-13
3.770896741253603e-13
-4.1832643750048055e-13
-6.6548700045356765e-15
4.7891633379655594e-14
8.130936324393083e-13
-6.187569280542779e-13
-3.3016478145586297e-13
1.3582807707083246e-13
9.506154563171868e-14
6.221536439296736e-14
-6.653688960516771e-14
-9.074002041951822e-14
0.0
0.0
0.0
0.0
9.386280009784419e-14
-1.9117374533884755e-13
-2.1611156763149273e-15
9.947206091731862e-14
-3.6422846543052904e-14
-3.0921160232976306e-14
3.328835046214894e-14
3.4055656313880284e-14
-2.0514714843197155e-14
-7.054441408708023e-14
3.529517629323621e-14
5.576395263704116e-14
-6.370209745814193e-14
2.1087556474578733e-13
-1.4788903914958758e-13
7.155718619420352e-16
-1.4901924525834222e-14
-3.600685276241292e-14
2.2676701632810582e-14
2.8232075655436568e-14
-1.29772283799511e-15
-2.2125255571823806e-16
-2.6566650534899095e-15
4.175640447203258e-15
-9.33951576572413e-14
-4.101357134433661e-14
3.21789754364204e-14
1.022297535651576e-13
4.863581737552981e-15
-1.7316840574855264e-14
2.3095456351647498e-14
-1.0642197514345213e-14
3.280099644665624e-15
-1.0994606033933702e-15
-3.412355854843886e-15
1.2317168135716332e-15
-4.051760381975815e-14
4.2000688085304963e-14
1.0140642130987251e-14
-1.1623726396534072e-14
-4.627954458212469e-14
8.903680604156755e-14
-2.650142626883714e-14
-1.62558351906057e-14
-2.9400815188719044e-15
-1.0909481047921675e-15
-2.2133842900603787e-15
6.244413913724451e-15
1.4826406643928226e-13
-9.683578318579405e-14
-1.4877719849367038e-14
-3.655056340412127e-14
-5.128263820846234e-15
-5.936611382885343e-14
-3.5065114772119994e-13
4.15145525370898e-13
1.1100005076809457e-13
7.437058806103576e-14
-1.4374185797281667e-13
-4.1628780856313505e-14
4.183310008398022e-13
-2.265486887732843e-13
-1.7927947464839144e-14
-1.7385436460167906e-13
-7.972842170177717e-14
1.990991701248745e-13
5.1431761333179953e-14
-1.708025097562774e-13
2.5113778733268556e-14
-3.0753273677978395e-14
-1.791680203350102e-14
2.355629697821086e-14
1.687535247942359e-13
-3.254245530706457e-13
-1.928353558229442e-13
3.495063840993549e-13
1.0087986372124486e-13
4.732634274482564e-13
-6.032226765722214e-13
2.907938540272065e-14
9.80875494682612e-16
-8.604266332482158e-15
9.413816562367648e-15
-1.7904257245681036e-15
8.748756600756064e-15
-1.2963906927746836e-14
-5.937614479224652e-15
1.0152764806215421e-14
-1.9066740020435358e-14
-2.442983784670805e-14
1.5031707525115929e-15
4.1993407114631844e-14
4.421622047825757e-14
-2.2321903996131074e-14
-7.71709454292385e-15
-1.4177221939202633e-14
1.2449757869502615e-12
9.178774722647747e-13
-8.976141882195073e-13
-1.2652390709955296e-12
7.398886728595948e-13
-1.6354719382416279e-13
-2.1808485337362476e-13
-3.582566256618071e-13
-3.286136224381073e-14
-3.9432423956723016e-14
-1.4047907668901974e-14
8.63416938694357e-14
1.3178356692917436e-14
-5.780642558892406e-15
-3.878107407390709e-15
-3.5196067266343228e-15
4.3549428199486664e-13
-2.7322065196640036e-13
-6.000771483641812e-14
-1.0226591519204782e-13
-1.3210306221516143e-12
4.052736974490154e-13
1.0330545480654763e-12
-1.1729762336287677e-13
1.5538661563302434e-14
-3.354051119499327e-14
1.5273624648795267e-14
2.7282249828955785e-15
-1.8238546198742449e-13
3.575985925334546e-13
-1.9402434639988877e-13
1.8811215853858714e-14
-3.172305084605578e-14
-6.303521775037137e-14
-1.849794433987308e-14
1.1325621293630022e-13
-2.289028418462977e-14
-1.94177584464268e-14
8.624626886936801e-15
3.368341574411976e-14
1.6800686531315674e-14
-2.4666478923830832e-14
3.905777157043169e-14
-3.1191979177916566e-14
1.1672680283499287e-13
-1.506340861607779e-13
-6.889995859694869e-14
1.0280724192273366e-13
7.021759197910852e-14
-1.08307170406613e-13
-5.1421229647319723e-14
8.951080807482427e-14
5.2665045169104414e-14
5.247673998037828e-14
-1.2017703263103816e-13
1.5035247481555718e-14
-3.7095781558601656e-14
-1.194479718531845e-13
1.8718465292539894e-14
1.3782528811924603e-13
8.808938030187187e-14
-3.950280612359925e-14
-3.962812448383735e-14
-8.958449694435256e-15
-2.6860624377919e-15
-3.513042450317632e-13
-5.076274209587624e-13
8.616177284283173e-13
-6.604072730841326e-13
-1.5051041877991494e-13
-9.683914824553582e-13
1.7793091743194054e-12
-7.965175521454858e-14
-1.655582729482764e-13
-1.2242892851978157e-13
3.6763895668260545e-13
-1.5000996726020752e-13
3.1573441952518903e-13
-2.0869358804206083e-13
4.2969135777080205e-14
-6.763516189235589e-13
6.56044197594829e-14
-6.864993318434631e-13
1.2972465310075357e-12
-4.8049453309495116e-14
-7.418630315020603e-14
-8.65865369537526e-14
2.0882229341345427e-13
-1.0115956356954917e-13
1.2723309419483881e-13
-1.0466181213426133e-13
7.858828150897151e-14
-2.8104118773266904e-13
-7.684468771031762e-13
-3.5719025075804823e-13
1.4066783155938965e-12
-4.57062684598756e-14
1.848448917112173e-14
-2.357031631132291e-14
5.079209560007672e-14
-2.5899455921738197e-14
-1.2664918363760136e-13
-1.3640658868812422e-14
1.6618929842815208e-13
-4.2890117136992877e-14
-1.1260646072034078e-13
1.991340455149228e-14
1.3558317330584134e-13
7.659129216576837e-15
-7.639642828405449e-14
8.386001230393206e-15
6.035129783708439e-14
1.2345030526191246e-13
-2.2633302075358892e-13
-6.772657401265011e-14
1.7060928950432672e-13
-1.6121879554183795e-13
4.0515694726606207e-13
-3.042390877917922e-13
6.030093606756807e-14
1.513768901823032e-13
-2.0732161484528775e-13
-1.1068076229034757e-13
1.6662548695333175e-13
-2.2045600676498253e-13
6.694362442304578e-14
9.394959097179125e-14
5.956279137014526e-14
-1.5368720018335127e-14
1.0007909432954186e-13
-4.517986972902445e-14
-3.953050458218229e-14
3.793997592304966e-14
-1.6710168607204065e-13
3.7382193053895036e-15
1.254234908436013e-13
6.268585977227375e-14
-1.160594418862122e-13
-6.005319748846384e-14
1.1342677960240233e-13
4.305449316831862e-14
-7.242066396912781e-14
4.194571356152099e-15
2.5171599444657035e-14
-3.908323732065439e-15
-1.7165999290688897e-14
1.7323394860565995e-15
1.9341983536697733e-14
9.904317759806479e-14
8.976639858394201e-14
-2.5245770589393636e-13
6.36481297119301e-14
5.447078527995832e-14
-8.090600978680546e-14
-3.024683007703493e-14
5.66820545838821e-14
-7.56571939119171e-14
7.468539131919181e-14
-3.6483133053676744e-14
3.745493564640199e-14
1.016925623111565e-14
-7.33554887784242e-15
-3.365156543745391e-16
-2.497191698898692e-15
2.7648840340119198e-14
-6.690247646383501e-15
-1.172463672327611e-14
-9.233955970459585e-15
0.0
0.0
0.0
0.0
8.176185813899737e-15
-1.0397759312413133e-14
4.544913604011935e-15
-2.323340105498541e-15
0.0
0.0
0.0
0.0
-1.3046336575430741e-14
-7.73449468919722e-15
5.112588463132626e-15
1.566824280149534e-14
-9.095355171827955e-17
-7.308125408779472e-15
-3.410901341033673e-15
1.0809980301531421e-14
0.0
0.0
0.0
0.0
8.725375013460426e-13
-1.249066998190826e-12
-2.715380496791046e-13
6.480675465238882e-13
0.0
0.0
0.0
0.0
3.842022621302771e-13
-1.4360263780179707e-14
-5.897120407336983e-15
-3.6394487794276026e-13
-4.428148442317196e-12
1.647991966152358e-12
1.0105438674732916e-12
1.7696126086915529e-12
-2.5986911647900673e-12
2.378455545486086e-12
3.855066235870188e-13
-1.652710042830317e-13
-2.3581902494020327e-13
1.7479264919895522e-13
5.971440928998271e-14
1.3119664512651088e-15
-1.2909237256882155e-14
-3.141112238174903e-14
3.6561109240840995e-14
7.759250397790204e-15
-4.394387504009655e-15
-3.0453615921106574e-14
3.840470985378813e-14
-3.5567064286719e-15
0.0
0.0
0.0
0.0
0.0
0.0
0.0
0.0
1.695156532032247e-14
-3.7095918069211856e-15
-1.0303860386485577e-14
-2.938113126915706e-15
8.042104385374854e-15
-1.0460864293783383e-13
2.547341219346554e-14
7.109312635899357e-14
-1.516888754237638e-14
-1.091994482771376e-14
2.199948959346109e-14
4.089342776629067e-15
-4.791628060578077e-14
-1.3008547475000661e-13
-8.193870853275729e-15
1.861956262090632e-13
1.2319425367626752e-14
-1.2852621984444732e-14
-9.225790883039464e-16
1.455775705121934e-15
-2.1984366878386604e-14
6.249059956749296e-14
-3.4366453900738974e-14
-6.1397787883673805e-15
-2.9735944432048155e-15
-4.667751932370821e-16
-3.298228232340791e-15
6.73859786878269e-15
6.338685002815176e-15
-5.970118613111313e-15
-1.50999836384988e-15
1.1414319741460168e-15
1.354581602983943e-15
-1.3471261058523825e-15
1.9927748415837986e-15
-2.0002303387153594e-15
-2.0300146768225798e-14
-4.8480314456123275e-14
1.2347463260625718e-14
5.6432997963723344e-14
-7.084201613157984e-15
-1.005781883961721e-14
5.234205343961255e-15
1.1907815108813935e-14
-2.7624536731181284e-15
-2.8638880941859492e-15
4.781557502835717e-16
5.148186017020504e-15
8.195380487706761e-16
-8.07196061956632e-15
4.4684850072780625e-15
2.7839375635175778e-15
-7.242587882482574e-14
-7.068157110067204e-14
2.2328222821061475e-14
1.207792271044363e-13
-1.6077751877100647e-13
1.1080775220316654e-13
-6.743146455944271e-14
1.1740123112728256e-13
-1.0084030267211272e-13
7.347158172598456e-14
-6.646900455160994e-14
9.383772549773818e-14
-5.861899075222287e-14
1.0789186119546189e-13
-3.701704445835323e-14
-1.2255825984885805e-14
-6.950350255525492e-13
5.741582387027477e-13
-4.976037164728413e-13
6.18480503322642e-13
-6.19851692864746e-14
4.558533928560137e-14
-2.1640364771189825e-14
3.8040194772063076e-14
1.4779846569361523e-13
-7.951310343850916e-14
-2.6944676399129757e-13
2.011614017361908e-13
-3.879317755345924e-13
3.213843810862897e-13
-1.7154857184735955e-13
2.3809596629566325e-13
1.5316277211520843e-14
-3.845545119162131e-14
-1.1526985452819776e-15
2.4291872525382417e-14
1.4078511181128591e-13
-2.593806536000087e-13
5.754073759803997e-14
6.105480419068328e-14
-6.892535564939639e-14
-1.230732589520563e-14
8.587530859592188e-15
7.264515068500994e-14
2.6588506350118988e-14
-3.5757781646578085e-16
-4.198472735403938e-14
1.575379882038619e-14
-1.1285811907123264e-14
-6.203641049303194e-15
-2.4844503217538574e-16
1.773789798860184e-14
-2.3544500109833887e-14
-4.7216504117847197e-14
2.3436169567354188e-14
4.7324834660326877e-14
3.771043271914682e-14
-6.258121096046264e-14
1.6862085816239122e-14
8.00869242507668e-15
-8.630628261741823e-14
7.72978713026601e-13
-5.545779749076583e-13
-1.320944555015222e-13
1.0945472877604477e-14
-7.563055482050982e-15
9.403994465494861e-15
-1.2786411861048362e-14
-2.869016327782385e-14
1.5437412995678784e-13
-6.817773254374712e-14
-5.750623413521688e-14
-1.15253618682035e-13
2.1753345444137768e-13
-1.3111767571040496e-13
2.883783995106215e-14
6.968150733486848e-14
-1.3357466716592386e-13
6.639417884480572e-14
-2.501019013750324e-15
1.4679233234815252e-14
7.997099645296481e-14
-4.7989447993287984e-14
-4.666078169449219e-14
-9.797415425525934e-15
-8.317259930133026e-14
3.283992775648154e-14
6.013008697037462e-14
-4.429038959618003e-14
-6.297929373413648e-14
6.09577810387422e-16
1.0666010551992902e-13
-2.626234264684558e-13
2.6808339643540636e-13
-6.292153408751386e-14
5.746156412056296e-14
7.254281309463683e-14
-1.1725235344500567e-14
-8.644552591990401e-14
2.562794816976775e-14
-5.0643776760982896e-14
4.56897729214148e-14
-1.526085141936707e-14
2.0214855258935154e-14
1.5793612661051672e-14
-7.206084407290877e-14
-9.16060677880446e-15
6.542783819066152e-14
-1.1164808792740093e-14
-1.3361392048919276e-14
-1.2099754311374354e-14
3.662595515303373e-14
1.3110472994729123e-12
-1.0352680605307667e-12
-1.3513343579108066e-12
1.0755551189686634e-12
8.15114995377743e-14
-1.9115440781420613e-13
-1.309520594079384e-13
2.4059496768437037e-13
6.873742239807547e-14
-2.7863897950748605e-14
-4.211077343717614e-15
-3.6662447103609243e-14
5.01363932310766e-13
-1.1150635152722175e-13
-6.27073744681543e-13
2.372161638979971e-13
-7.235854103669258e-14
6.242585294352965e-14
-2.990932753312747e-14
3.9842015626290475e-14
8.308672176994083e-14
-1.149553551002169e-13
1.7436244408940385e-14
1.4432388921335596e-14
-4.584410729170231e-13
3.4115202740073166e-13
-2.6390270679062974e-13
3.811917523069212e-13
-1.51143853548962e-13
-1.6723359782726847e-14
-5.028683538256646e-14
2.1815404871425533e-13
-2.3667698390283626e-13
3.1617383993199516e-13
-1.90753446413652e-13
1.1125659038449294e-13
-1.4868956825056552e-13
-2.6042101852015925e-14
-1.6211332508475113e-13
3.368449951873323e-13
-6.933748067942888e-14
1.6385502214595969e-13
-6.32819493192596e-14
-3.123559214727129e-14
-1.446182180081983e-13
-5.5227577253236495e-14
-8.370245562121585e-14
2.835482508826504e-13
-6.93283377582809e-15
-6.432531166210405e-14
-7.171801883685933e-14
1.4297616427479148e-13
4.969613043539078e-15
-1.3139818875387023e-14
-2.755769497780913e-14
3.572790080965708e-14
1.0181034666034698e-13
-9.550919622344328e-14
-6.608895259908098e-16
-5.640260910912891e-15
-3.6316674990317946e-14
6.566855900283597e-14
-4.370942770940821e-14
1.435754369689018e-14
-4.867198990821651e-09
1.8011369511292346e-09
-4.7454652888983725e-09
7.811527328590814e-09
-1.2293642619501585e-10
4.024812935023735e-11
-1.1944780692793638e-10
2.0213610377271482e-10
3.274160958969059e-12
-4.9719152125750466e-12
-5.937158324080996e-12
7.634912577686998e-12
-1.0652770226992724e-11
1.0826499776568856e-12
2.094000615162589e-12
7.476119634173255e-12
-1.9033427636114947e-12
2.509982899057803e-12
-6.528678160983582e-12
5.922038025537275e-12
1.6992255210747908e-12
-8.537293146097176e-13
-7.481062127142364e-12
6.635565920677279e-12
-1.1659292070813628e-11
1.91303662952844e-12
1.9196481038983753e-12
7.826607337386775e-12
1.358498943464053e-13
-1.8267857988747857e-12
-4.9541899667121954e-12
6.645125871240597e-12
0.0
0.0
0.0
0.0
-9.937375023766877e-12
-2.882415420198644e-12
-4.731233402309413e-12
1.755102384627495e-11
6.09200837431348e-14
-6.335432377046108e-14
7.236827748758074e-15
-4.802587721431805e-15
-2.2049718455163192e-13
-7.435035730867583e-13
-4.0614278201516904e-13
1.3701435396535571e-12
-1.3983946709793552e-13
-8.241223048156559e-13
8.084889934721542e-14
8.831128725663758e-13
6.732142530382058e-12
-4.106887088021745e-12
1.461037363643362e-11
-1.723562907879393e-11
-2.2683640258009804e-12
-6.729759872482332e-12
-1.9393390526933065e-11
