-1.9218987512836637e-14
-1.1332262575846062e-14
-2.6358209085011963e-14
5.690945917369385e-14
-9.537381940100148e-15
-1.0949729743477473e-15
-9.262857440858235e-15
1.9895212355306126e-14
-7.49948093744376e-15
1.3708499268551865e-14
-1.517325745176819e-14
8.96423912066015e-15
-1.2837734047333106e-14
1.5571690801345597e-14
-1.1792379193890904e-14
9.058422439878555e-15
-3.851376968542268e-15
-2.8708634456263205e-14
-2.7009817737533375e-15
3.5260993198558723e-14
2.281872851998002e-14
3.2853308491700137e-15
2.832882437052182e-14
-5.443288373967118e-14
-1.49656148727857e-15
-1.4350833483993034e-15
-1.638471489474039e-15
4.5701163251519126e-15
1.2901523903941333e-15
-1.3366011767881712e-14
-7.611957670025358e-15
1.9687817047512913e-14
-8.847394123801734e-17
-8.840131377144697e-17
-7.390744480446244e-17
2.5078269981392676e-16
1.6174982029447737e-14
2.2925338994765887e-15
8.716652123822312e-15
-2.7184168052746618e-14
-1.416775256049235e-15
-1.3325590085910582e-15
-1.6231563331683869e-15
4.372490597808678e-15
-3.9039762265030835e-16
-4.5886322145439015e-16
-3.5769838699762426e-16
1.2069592311023222e-15
-2.154919899052172e-16
-4.221166766171788e-16
-4.0892309165273216e-16
1.0465317581751292e-15
-4.074684641425565e-16
-5.215512813110244e-16
-3.1885580488505127e-16
1.2478755503386328e-15
-3.218364657208447e-16
-6.428124454561176e-16
-4.556785212631204e-16
1.420327432440082e-15
-7.978623122933539e-17
-1.0252433980824621e-16
-1.5315156305652582e-17
1.9762572734323416e-16
-6.718667419582918e-16
-4.013805168319786e-16
-3.273122207799527e-16
1.4005594795702222e-15
-1.5464790450661552e-16
-2.459309220489562e-16
-7.203929582406127e-17
4.726181223796331e-16
-3.532137618405463e-16
3.4559503627851623e-16
-3.3368618077121044e-16
3.413049063332404e-16
-2.2974527479883768e-17
-2.2873050443939168e-17
-2.3064594545710447e-17
6.891217246953339e-17
-2.8480994441779406e-15
-1.8900512383120923e-15
1.2398259741460955e-16
4.614168085075428e-15
2.546365372253265e-15
-1.2093848927658503e-14
-5.874355007134928e-15
1.5421838562540172e-14
0.0
0.0
0.0
0.0
-3.435554958771877e-15
9.528092079284711e-15
-3.432638505610976e-15
-2.6598986149018558e-15
-1.7181330060674425e-16
-1.9366582876137632e-16
-1.3739284280702386e-16
5.028719721751444e-16
-5.365381801947464e-16
7.245050195088803e-16
-4.3241893279293376e-16
2.4445209347879946e-16
-1.005188768539675e-17
-9.975049252488257e-18
4.51029097966417e-18
1.551664595822084e-17
-5.703486782569042e-16
-9.087390362458871e-16
-1.3240484479496032e-16
1.61149255929775e-15
2.53394007052087e-14
-9.245188383857811e-15
-4.0897441767556566e-15
-1.2004468144595395e-14
-9.504196798669086e-17
-9.421495512639164e-17
-9.577977872500417e-17
2.850367018380867e-16
-9.956834302101502e-17
-1.443339272618032e-16
-1.0294129044148891e-16
3.468435607243071e-16
-4.559716425305698e-16
-4.745348597363751e-16
-3.9523059884185724e-16
1.3257371011088012e-15
-2.0429836128445418e-14
3.316129217709497e-14
2.2242954605610083e-16
-1.2953885594704855e-14
-5.4586442474197534e-15
1.43590980466407e-14
-1.2966869281817071e-14
4.0664154825961495e-15
-2.398572524220183e-16
-2.374472726545545e-16
-1.249648613211627e-16
6.022693863977354e-16
4.432739275639032e-15
-1.9083300125252827e-14
1.1950308452472864e-16
1.4531057765088965e-14
2.5833710911384356e-16
-8.154791503180528e-16
-4.3789058617548035e-16
9.95032627379689e-16
-1.5311330869609837e-15
-2.1969109856742748e-15
1.4709404327238086e-15
2.2571036399114492e-15
-4.1955619465917765e-15
2.177897178685026e-15
-8.161585414134206e-15
1.0179250182040968e-14
-7.158890617083478e-16
3.202701041180726e-17
-8.39102932049507e-16
1.5229649833460471e-15
-3.0230577987011013e-15
3.649582748699263e-15
-2.210653306614209e-15
1.5841283566160471e-15
-1.4944257500820964e-17
-1.475027635405725e-17
-1.5118133277740438e-17
4.481266713261864e-17
-6.817301912931142e-16
1.1054797749745314e-15
-5.814785979068345e-16
1.5772901422541694e-16
-6.878642028358849e-16
-8.148073899420489e-16
-4.851324758268866e-16
1.9878040686048184e-15
-1.7215112205450127e-16
-1.697152480626858e-16
-7.192180238665085e-17
4.13788172503838e-16
2.030525942069771e-15
-1.6928411565612798e-14
2.2625108092167126e-14
-7.727222468624101e-15
-2.9634402830151035e-16
-5.9948952779303435e-15
8.543787852316271e-16
5.43686052100023e-15
-1.3483602349385908e-15
4.56655403212036e-16
-6.985373651976221e-16
1.590242196924171e-15
-8.833962359308005e-16
-9.371797004558368e-16
-8.639096957868251e-16
2.684485632173459e-15
-4.3942560749873045e-16
-1.20275122483195e-15
-5.387292824888232e-16
2.180906114819504e-15
-6.465819207627461e-18
-6.35660579157212e-18
-6.564120971277316e-18
1.93865459704769e-17
0.0
0.0
0.0
0.0
-7.600210643373564e-16
-4.785315704576894e-16
-4.54654060672713e-16
1.6932066954677586e-15
-3.27366124709978e-16
-3.441409767527509e-16
-2.5364204562956227e-16
9.251491470922913e-16
-8.284116244181259e-15
-9.625334331010417e-15
-2.820484858278071e-15
2.072993543346981e-14
-2.980437734662538e-16
2.6966240241311776e-16
-2.330496164628451e-16
2.61430987515981e-16
-6.688157227116193e-16
-1.3892183117552296e-16
-1.745655970621858e-16
9.823031509493275e-16
-4.1971489057065886e-17
-4.0258383218587763e-16
-3.30164275135082e-16
7.747195963780255e-16
-8.82547242566785e-16
-9.100422060261413e-16
-3.74822980625199e-16
2.1674124292181243e-15
-5.718157498972002e-16
4.52927168412883e-16
-5.505761795091651e-16
6.694647609934825e-16
-5.106050184937657e-15
1.3658140565581854e-14
-8.372035425509186e-15
-1.8005495513496385e-16
-7.672762524650865e-17
-9.762261652313147e-17
-1.0171337395717096e-16
2.76063615726811e-16
-4.360944966628619e-18
-4.265607442880522e-18
-4.447201058278845e-18
1.3073753467787983e-17
1.0735254011448434e-08
6.853166424556427e-09
1.452969835580351e-08
-3.211811879181053e-08
-1.5291548218120752e-12
-5.247464965960149e-12
2.1946801560942953e-11
-1.5170181773171152e-11
-3.313119946976199e-15
9.28963164361029e-15
-3.324198905953708e-15
-2.6523127906803833e-15
0.0
0.0
0.0
0.0
-5.08919248727066e-16
-3.8487383095174094e-15
-1.205575591752946e-16
4.4782151174197706e-15
-3.218364657208447e-16
-6.428124454561176e-16
-4.556785212631204e-16
1.420327432440082e-15
-2.154919899052172e-16
-4.221166766171788e-16
-4.0892309165273216e-16
1.0465317581751292e-15
2.0978370454431906e-16
1.146147958528353e-15
4.101616773198138e-15
-5.457548436270808e-15
-1.883271736154473e-17
-1.873617445552235e-17
-1.8918550525459118e-17
5.648744234252622e-17
1.2234352178428207e-16
-1.0578263937433119e-16
3.614317825311115e-17
-5.270406066306209e-17
-1.5144620240661065e-16
1.1964954229430192e-16
-1.4396832749553168e-16
1.757649876078404e-16
2.734315434672e-15
-4.0068067216765494e-15
4.312456623585255e-15
-3.0399653365807164e-15
3.953876639595137e-15
-9.501021712735142e-16
-1.2348001370842723e-15
-1.7689743312373552e-15
3.0334717853506822e-15
-3.4080081818931863e-16
-9.85519987629669e-16
-1.7071509795316982e-15
-5.833154870536623e-17
-8.119847753266862e-17
2.0884477910044344e-17
1.1864554832799048e-16
1.2168302329130875e-15
-2.686876326909045e-15
-1.8347142915990946e-15
3.3047603855950473e-15
1.2522057769398134e-17
-1.0258115985782162e-17
-1.0759382870664352e-17
8.495441087048384e-18
1.7607614916333393e-17
-5.023376201462889e-17
5.8341182048599434e-18
2.679202889343555e-17
-4.936275572131959e-16
-1.4829865391550024e-16
-2.606827862682178e-16
9.02608997396914e-16
-8.231655346648119e-17
-1.2737054227292966e-16
-8.543027913673566e-17
2.951173748761464e-16
-6.688157227116193e-16
-1.3892183117552296e-16
-1.745655970621858e-16
9.823031509493275e-16
-7.978623122933539e-17
-1.0252433980824621e-16
-1.5315156305652582e-17
1.9762572734323416e-16
-1.3707701602099424e-16
-1.8027762520473744e-16
-9.797302440043743e-17
4.153276656261692e-16
-1.1082154037188014e-16
6.86341911621878e-17
-2.6914589819309274e-16
3.113332474027849e-16
0.0
0.0
0.0
0.0
-6.465819207627461e-18
-6.35660579157212e-18
-6.564120971277316e-18
1.93865459704769e-17
7.314822567967556e-16
-2.1619009450559473e-15
1.8901365611456507e-15
-4.597178728864583e-16
-1.5464790450661552e-16
-2.459309220489562e-16
-7.203929582406127e-17
4.726181223796331e-16
-1.121438429328427e-16
-1.110874687942344e-16
-1.1308713348465204e-16
3.3631844521172928e-16
-7.695411628609466e-16
8.801494093376806e-17
1.3308489421712481e-16
5.484413277100538e-16
-2.8847878768635367e-16
-3.0594939203401176e-16
-2.141278437217176e-16
8.085560234420834e-16
-1.1346817490175234e-16
-2.8445672208076178e-15
-1.2558562671651342e-15
4.2138916628745e-15
3.799609516811008e-17
-7.630530461699511e-17
-3.414496285060788e-17
7.245417229949292e-17
0.0
0.0
0.0
0.0
-5.150760158586081e-17
-9.51553484351831e-17
-2.6652983022190653e-17
1.7331593304323456e-16
-1.4620301305084107e-17
-1.4555674363689872e-17
-1.467767378344815e-17
4.3853649452222127e-17
6.441866812461187e-17
-7.301849509980184e-17
-7.457388732795569e-17
8.317371430314562e-17
0.0
0.0
0.0
0.0
-3.2227129706579367e-16
-7.702353482500483e-16
-5.313787784649323e-16
1.6238854237807737e-15
-1.171543104329372e-16
-4.325158765819006e-16
-7.350504023890584e-18
5.570206910387287e-16
-1.845490300004769e-15
-9.18211605551586e-16
4.468513188322313e-15
-1.7048112827659634e-15
1.2601655644018181e-15
-1.8871711652174215e-15
-1.0858889376443033e-15
1.7128945384599012e-15
-4.959239108889531e-16
1.6225366737827305e-16
-4.1033516582059664e-16
7.440054093312763e-16
-6.301293026725495e-16
-1.032908262057263e-15
9.341349747909447e-16
7.28902589938868e-16
-3.235739520516818e-17
-7.91918147518369e-16
8.356826692308485e-16
-1.1407126507312123e-17
-9.983352816637065e-16
3.3903332133771205e-17
-9.675536004766482e-16
1.9319855500065808e-15
-2.958786106374892e-16
2.7178679569860625e-16
-2.3084771571440127e-16
2.549395306532841e-16
-2.165162828764653e-18
-2.1243932854884315e-18
-2.201900748443794e-18
6.491456862696879e-18
-1.0914361044751414e-16
-1.9886084812865364e-16
-1.5962186803581827e-16
4.676263266119862e-16
-2.1947566818068668e-17
-4.549792410740339e-16
4.1427190943303896e-18
4.727840887977721e-16
-8.82547242566785e-16
-9.100422060261413e-16
-3.74822980625199e-16
2.1674124292181243e-15
-4.092301931590843e-16
-3.319444818594798e-15
8.488190543457422e-16
2.8798559574081286e-15
-4.90822597205253e-16
-1.2346393021966919e-15
-3.403584731930361e-16
2.0658203725949785e-15
-4.514608156522227e-17
-4.443125313539486e-17
-4.578880910481995e-17
1.3536614380543707e-16
-3.532137618405463e-16
3.4559503627851623e-16
-3.3368618077121044e-16
3.413049063332404e-16
3.3823585824441016e-15
-8.325959961137639e-16
-6.407781110148107e-16
-1.9089844753155275e-15
-3.329365756546631e-17
-3.9407684631621734e-16
-3.213325732332268e-16
7.487030771149108e-16
-8.677831491599572e-18
-8.506985869660226e-18
-8.831701901855203e-18
2.6016519263114995e-17
0.0
0.0
0.0
0.0
1.0097818273532628e-16
-8.127994136390474e-17
2.5304444956433853e-18
-2.222868586706494e-17
-1.2666245333593305e-15
4.4511827923727865e-15
-3.201709660676578e-15
1.7151401663124548e-17
-7.194871697901631e-16
-1.1045097752173774e-15
-9.191835900647606e-16
2.7431805350722936e-15
-1.1043259386127817e-15
-2.033943251196572e-15
4.830762211111429e-16
2.6551929686982035e-15
7.682313107547615e-16
1.213589192354052e-16
-4.380783368986601e-16
-4.515118930915069e-16
0.0
0.0
0.0
0.0
2.2532563247300705e-15
2.7531269181776453e-16
1.8170461441320348e-16
-2.7102736309610423e-15
7.195678684414189e-16
1.657192652680661e-15
-9.68007972788432e-16
-1.4087525483336518e-15
1.044368990069496e-15
-1.7579802020193808e-15
-4.2875814235617303e-16
1.1423693543060552e-15
-5.143156729513156e-16
-6.631742391368779e-16
-1.601260850432783e-16
1.3376159971314722e-15
9.908635027677927e-18
-4.716024338002166e-16
-3.444428608879305e-16
8.061366596604697e-16
9.306884762621351e-15
-2.1311701967348888e-15
-3.3995060741272475e-15
-3.776208491759236e-15
3.035989529587315e-16
-1.3086576811179668e-16
-7.87385308019568e-17
-9.399465404497808e-17
0.0
0.0
0.0
0.0
3.940169940628997e-16
-4.35643385792754e-15
2.1900056823019192e-15
1.7724111815627198e-15
-9.504196798669086e-17
-9.421495512639164e-17
-9.577977872500417e-17
2.850367018380867e-16
1.1737157637212975e-15
-7.821846263613755e-16
2.2729687386730324e-15
-2.6644998760329564e-15
-1.005188768539675e-17
-9.975049252488257e-18
4.51029097966417e-18
1.551664595822084e-17
-1.5151608607968257e-16
-8.27362466486419e-16
-2.1297363795928049e-16
1.1918521905253816e-15
7.319967195458154e-17
-1.703545742318181e-15
1.9293693532135197e-15
-2.9902328284991945e-16
3.730984090931529e-15
-6.6297770997099516e-15
2.6877432289734466e-15
2.1104977980497116e-16
2.2039382738236183e-15
-1.3784888378408862e-15
-7.143424763249304e-16
-1.1110695965780358e-16
3.3411318761204225e-16
-5.335316556360563e-15
2.7314115378427735e-15
2.2697918309057474e-15
-8.354226174799658e-18
-8.317376080249302e-18
-8.386920762262294e-18
2.505852301731125e-17
-6.685887258670582e-16
-7.730651208764779e-16
-4.422971497490837e-16
1.883950996492618e-15
-8.417040953794391e-17
-1.0552403820205668e-16
-5.020944089923758e-17
2.3990388863923816e-16
-1.4944257500820964e-17
-1.475027635405725e-17
-1.5118133277740438e-17
4.481266713261864e-17
-8.847394123801734e-17
-8.840131377144697e-17
-7.390744480446244e-17
2.5078269981392676e-16
-1.299418020841845e-15
-9.699264144921803e-16
-1.2770432211248497e-15
3.5463876564588666e-15
1.8621707414934513e-15
-1.965291832761592e-15
4.97313037157535e-16
-3.9419194588939575e-16
-7.327074780120556e-16
-1.5543885955357216e-15
-5.597261345548393e-16
2.8468222081026092e-15
5.240456366974031e-16
-7.219238495334343e-16
1.6234029838934654e-15
-1.425524771057435e-15
-4.4700100959844366e-17
-9.007455699055912e-16
-3.9670693522615094e-16
1.3421526060915857e-15
-3.2249567666047707e-16
-1.6506370625054736e-15
-1.0958145180592339e-15
3.0689472572251818e-15
3.3514070444256966e-16
3.3837224286921176e-15
1.604368194262802e-15
-5.323231327397485e-15
1.950601651030464e-15
1.658232677440121e-15
3.708802068311535e-15
-7.317636396782109e-15
2.492214487713636e-15
1.2075759011577937e-15
4.3432460154118595e-17
-3.743222849025557e-15
4.590711502499854e-16
-2.273218483333849e-16
-1.0497070966075796e-16
-1.2677859225584246e-16
3.4533610004510294e-16
1.1893775115209787e-15
-8.54392857939542e-16
-6.803207536265404e-16
-8.575376377333363e-16
1.6912947054087278e-15
-3.5817889200458415e-16
-4.755781756708081e-16
1.0461198428806993e-16
1.3482611374570421e-15
-6.825604874992959e-17
-1.3846170729951892e-15
2.2435891208815252e-15
-8.666141826198102e-16
-1.1524702175265571e-15
-2.2450472073515914e-16
-5.6764065699698696e-15
1.0467942847756468e-14
-2.160936282786305e-15
-2.630599995000264e-15
-4.298309523849282e-16
-8.206928358835924e-16
1.622224929411849e-15
-3.7170114114333013e-16
2.078877899966689e-15
-5.7082025712840335e-16
8.371614616089178e-16
-2.3452191044472117e-15
5.315883787337912e-16
-2.2555387908424322e-15
2.8841184245418794e-16
1.4355385696544526e-15
3.1293246881566033e-16
1.7374429647400178e-15
-1.582427025648466e-15
-4.67948407907222e-16
1.5981941873811557e-16
-4.799528254247057e-16
-1.8299932497909665e-16
5.031327316656868e-16
-2.3150050298625684e-15
-3.151192380021137e-16
2.837002308895821e-15
-2.0687804103114073e-16
-1.0257331720487203e-15
-1.4220287937436494e-15
-6.693194283526758e-16
3.1170813941450317e-15
-4.301432878000692e-15
3.718852492839454e-15
-1.618332497262449e-15
2.2009128824236726e-15
-2.445040972633637e-17
-5.17412835822005e-16
3.0503776643575143e-17
5.113594689047664e-16
2.0690166009476386e-15
-1.537187692951371e-15
-3.788550575735806e-16
-1.529738504226889e-16
-1.7181330060674425e-16
-1.9366582876137632e-16
-1.3739284280702386e-16
5.028719721751444e-16
2.3621663444265215e-15
1.9177228276251802e-15
-2.175511105950845e-15
-2.1043780661008673e-15
-1.0991118049783446e-16
1.450730553116467e-15
-7.051901535400057e-16
-6.356292190786274e-16
-2.566016762624379e-15
-3.0340664340737344e-15
7.655774062157387e-15
-2.0556908654592905e-15
2.976775486584281e-16
-3.1637810580474444e-16
-2.294250649539717e-16
2.4812562210028803e-16
-5.917985316693468e-17
-5.770133189625868e-17
7.115443393557566e-17
4.57267511276177e-17
-6.46217061353999e-16
-5.135123200033329e-16
2.2422547096228843e-15
-1.0825253282655523e-15
0.0
0.0
0.0
0.0
-5.071080113975314e-15
1.1282143231836965e-14
-1.2949302990545779e-15
-4.9161328188070624e-15
-9.009422598199497e-15
1.3557484212848362e-14
-3.238005007602669e-15
-1.3100566070461658e-15
4.572387447115866e-17
-3.822971681137358e-16
2.7202785492839056e-16
6.454543871418685e-17
-6.788393053893033e-16
-2.7571074097899464e-16
1.9503443466869464e-15
-9.957943003186465e-16
-6.87269781493637e-16
-2.471296146624404e-16
-8.917027007931864e-17
1.0235696662353963e-15
-5.718157498972002e-16
4.52927168412883e-16
-5.505761795091651e-16
6.694647609934825e-16
3.4099022251116085e-17
-2.6250782979354514e-16
-1.8031737386842766e-16
4.0872618141085666e-16
-9.956834302101502e-17
-1.443339272618032e-16
-1.0294129044148891e-16
3.468435607243071e-16
3.533985898103579e-16
-5.703571672583679e-17
6.675468141747264e-16
-9.639096872592473e-16
-4.2839412919078705e-17
-6.0431452904360275e-15
2.830578631445144e-15
3.255406071909953e-15
-7.237388303520467e-16
3.6025693955267186e-16
-3.610372369940883e-16
7.245191277934634e-16
-7.562975958151597e-16
-1.0786341687633451e-15
7.67037782377072e-17
1.7582279863407959e-15
0.0
0.0
0.0
0.0
-3.9039762265030835e-16
-4.5886322145439015e-16
-3.5769838699762426e-16
1.2069592311023222e-15
-3.438277995977273e-16
-3.6344739094214012e-16
-2.8214346535720524e-16
9.894186558970728e-16
-6.817301912931142e-16
1.1054797749745314e-15
-5.814785979068345e-16
1.5772901422541694e-16
-2.2843749544214217e-16
-8.266567125396333e-16
-5.211025944434784e-16
1.576196802425253e-15
-3.6470878318218363e-16
-5.632577230674711e-16
-7.954806214426273e-16
1.7234471276922797e-15
-1.8147559842463013e-16
-7.640474008326201e-16
1.7007674139144773e-16
7.754462578658019e-16
-2.2608747982544175e-16
-7.024724982377472e-16
-2.6315798021354898e-16
1.1917179582767382e-15
-1.7215112205450127e-16
-1.697152480626858e-16
-7.192180238665085e-17
4.13788172503838e-16
1.1955865524774445e-15
-1.4847167663356784e-15
1.5323844281600524e-15
-1.243254214301817e-15
0.0
0.0
0.0
0.0
3.135928513001969e-16
-2.3004369734855367e-15
1.1423445059393142e-15
8.44499616246024e-16
-8.432433262228892e-18
-8.365183161019548e-18
-8.492381456713845e-18
2.528999787996228e-17
1.7894427880462544e-16
9.518359731382061e-17
-1.7741824954615257e-15
1.5000546193430772e-15
-2.338638606600831e-16
-2.7673703257599746e-16
-9.262582773928481e-17
6.032267209753656e-16
-3.431811435389458e-16
-6.853565417742349e-16
-2.6761664822241146e-16
1.2961543335355923e-15
4.8647314584110955e-15
6.639510271472061e-16
-4.080461507957236e-15
-1.448220977601071e-15
5.263236292637068e-17
-3.8705124998471706e-17
-4.0293978736755065e-17
2.636674080885608e-17
2.6291862006369286e-15
-1.6218531219122808e-15
-1.3665532599169117e-15
3.59220181192261e-16
9.911869497796733e-16
-9.92164010879162e-16
-5.061876583359779e-16
5.071647194354666e-16
-4.795996915281946e-16
-7.730033108119382e-16
-3.8482184201510776e-17
1.2910851865416412e-15
-8.833962359308005e-16
-9.371797004558368e-16
-8.639096957868251e-16
2.684485632173459e-15
0.0
0.0
0.0
0.0
4.429820193033722e-16
-1.3017002274991068e-15
-1.7294661866792245e-16
1.031664826863656e-15
-1.0673053889176662e-17
-7.940019794241471e-17
-6.552830461757574e-17
1.5560155644916716e-16
-4.360944966628619e-18
-4.265607442880522e-18
-4.447201058278845e-18
1.3073753467787983e-17
-1.4019009789353805e-15
-1.5165289661315573e-17
1.0909757013240402e-16
1.3079686984642926e-15
-2.456825548726644e-16
1.176067100628569e-16
-2.1920421537816397e-16
3.4728006018797163e-16
-4.635906034917745e-16
-8.847828231698024e-16
-3.165360710299167e-16
1.6649094976914946e-15
-6.67139923628351e-16
-8.872656910410141e-16
6.294312856721481e-16
9.24974328997217e-16
4.4122570064930215e-16
-1.0526456507012854e-15
9.88097679770777e-16
-3.766777297187941e-16
-1.627593759758122e-15
3.378423164208336e-15
-8.799271632638662e-16
-8.709022411863494e-16
-8.301798323411589e-16
-1.3125048505567191e-15
-7.009419842776106e-16
2.8436266671754853e-15
-5.809873687009154e-16
-2.239153869068633e-15
-1.0409411839746696e-15
3.861082421744219e-15
-3.888733702362427e-17
-3.819158471873908e-17
-3.9514201907844657e-17
1.1659312365020803e-16
-2.3128846622613167e-16
-5.708252817329575e-16
-2.6051862984283306e-16
1.0626323778019227e-15
0.0
0.0
0.0
0.0
-1.3084549386325008e-15
1.9949229517353628e-16
-2.011289873347252e-15
3.1202525168062123e-15
0.0
0.0
0.0
0.0
1.3130761684627567e-16
-2.323698047499516e-16
1.8238090043420137e-16
-8.131871253052541e-17
-2.250221899554202e-16
-2.2276131040532547e-16
-1.0999666897636864e-16
5.577801693371142e-16
-1.483506246659811e-17
-1.46859622492291e-17
-1.4968192344794056e-17
4.4489217060621266e-17
-2.9159917340369336e-16
-3.1144690542808236e-15
-1.0390942217029345e-16
3.509977649854814e-15
-3.1833770619801355e-16
-5.799892501639833e-16
-1.8405629853738961e-16
1.0823832548993868e-15
-4.690912519771592e-17
-1.591438419688539e-16
-1.6481049952976294e-16
3.708634666963327e-16
-2.018736170517605e-16
-4.695765833321229e-16
1.135242776853886e-16
5.579259226984957e-16
-2.7955654131784565e-15
6.230215561604546e-16
-2.0241330822702753e-15
4.196676939288274e-15
-3.202731702738229e-15
7.815694659401978e-15
-5.957203135156893e-15
1.3442401784931553e-15
-9.291604178313885e-17
-5.023169877087083e-16
-1.9061842477442992e-16
7.85851454266277e-16
-1.1661138833979093e-15
1.999134445756106e-15
-2.0316369123213374e-15
1.1986163499631371e-15
-1.224350117956783e-16
2.38460435674419e-16
-1.084395996572684e-16
-7.58582422147228e-18
-6.718667419582918e-16
-4.013805168319786e-16
-3.273122207799527e-16
1.4005594795702222e-15
0.0
0.0
0.0
0.0
-3.491369154371903e-16
-4.4035280377835574e-16
-3.3974028279509563e-16
1.1292300020106422e-15
-5.528287489884613e-16
2.0718281994891577e-16
-6.057441201183416e-16
9.51390049157886e-16
-1.3149319036229022e-16
-2.004030177246844e-16
-1.7155405296034482e-16
5.034502610473192e-16
-1.0568445702448023e-15
-3.054992783267409e-16
-9.30499685764564e-16
2.2928435343361007e-15
-1.2866012253762792e-17
1.8714033611687362e-16
-1.6053930855851946e-16
-1.3735015304591406e-17
-5.236721679409836e-16
5.373646833920069e-16
-2.7187962423441425e-16
2.581871087833909e-16
-2.1184067289177832e-18
-2.0974482039838252e-18
-2.137078200763259e-18
6.352933133664868e-18
-2.2588061792371944e-15
4.692094588987184e-15
-4.254550190652889e-15
1.8212617809029105e-15
5.810080484074344e-15
-2.2660440948779337e-15
-1.9963915482060398e-15
-1.5476448409903718e-15
-2.0796605128660526e-15
-1.3495626079591763e-15
8.817267696348481e-16
2.5474963511903745e-15
9.077381836438414e-17
-3.7450708636408224e-15
1.8350799241085724e-15
1.819217121167869e-15
0.0
0.0
0.0
0.0
-8.238657623810569e-15
2.0453408267204902e-14
-7.277688914653345e-15
-4.93706172874099e-15
0.0
0.0
0.0
0.0
6.662968604054115e-16
-3.3539090204517904e-16
1.0658310271791419e-15
-1.3967369855393738e-15
-6.685621571760651e-16
1.6257750783534436e-15
8.441264411593756e-16
-1.801339362336755e-15
-7.672762524650865e-17
-9.762261652313147e-17
-1.0171337395717096e-16
2.76063615726811e-16
-2.8041164462841777e-16
3.7994322172370745e-15
1.803018388453873e-15
-5.3220389610624704e-15
-3.7110621755885175e-15
7.966334426155493e-15
-1.2730885752456124e-15
-2.982183675321344e-15
1.7454443754681373e-14
-1.5824138161589175e-14
-1.8963213489925913e-14
1.733290789683376e-14
-1.5845765012752683e-14
-1.7009703694137717e-14
-2.418623733038628e-14
5.704170603727686e-14
-5.641167555580455e-16
3.9641099186224253e-16
-3.784374484615938e-16
5.461432121573956e-16
-1.7730056996366948e-15
-4.778540431830104e-15
1.0258098652965494e-15
5.525736266170243e-15
2.008969735201835e-14
-1.5284695201275902e-16
1.2976527457120468e-14
-3.291337785712592e-14
-3.78687632025025e-15
6.77969644367001e-15
-4.429547239069241e-15
1.4367271156494953e-15
-2.1757445572341808e-15
5.63480851991934e-15
-1.826933815941993e-15
-1.632130146743172e-15
-1.6261780992696054e-15
2.530290897371076e-15
-5.211301394681276e-16
-3.8298265863334806e-16
-1.3011855597990118e-15
3.3405098604487194e-15
-1.2190848526267512e-15
-8.202394480229574e-16
-3.347000274272749e-15
9.841600607069107e-16
-1.7516385691219316e-15
4.114478782687766e-15
-3.993072436018167e-16
-3.178497296856308e-15
1.168383949658547e-15
2.4094205907995724e-15
-2.0380342231831316e-15
8.978380551153062e-16
1.4518703186930192e-15
-3.116741506251972e-16
2.6892430668251747e-14
-5.204140656068878e-15
-8.527713901127277e-15
-1.3160576111055764e-14
-1.3394730980751567e-14
-6.1377856312794416e-15
2.0707036274696085e-14
-1.1745196626651603e-15
1.3121222357184785e-14
-8.344109860803531e-15
4.8081289903692134e-15
-9.58524148675044e-15
3.56230459879107e-15
-9.166414001028666e-15
6.250435185941306e-16
4.979065883643453e-15
2.185703386658528e-15
-2.41501629002769e-15
4.853999138598324e-16
-2.5608701049067344e-16
-1.1466274986629946e-14
-9.707205448895663e-15
-3.620174035985131e-15
2.4793654471510758e-14
-7.981243593723695e-16
-8.999845460634003e-16
7.864292590944489e-16
9.1167964634132e-16
-1.4619991146628857e-15
-1.917335068948845e-15
-1.5710699249769338e-15
4.95040410858867e-15
-1.4290344349318377e-15
-1.6271473630210581e-15
-7.628544022723727e-16
3.819036200225266e-15
-6.137608510775367e-16
-1.09162217057555e-15
-3.861847528085701e-16
2.091567774461656e-15
9.67710167539371e-16
-1.0122298323265337e-15
-1.2309177048639916e-16
1.6761143527356184e-16
-1.6358977882152291e-16
-1.2324656486638464e-15
-2.059267503968854e-16
1.6019821778822533e-15
-1.016201246195075e-15
-9.210973948858962e-16
-5.528074782129568e-16
2.490106119293925e-15
-3.76177353962435e-15
1.3757445662169131e-15
-1.361246633815603e-15
3.747275607223045e-15
-5.9465630060677175e-16
-6.876190927948818e-16
4.485500208253667e-16
8.337253725762866e-16
-7.910198919255055e-16
1.184142681461282e-16
-6.75976141178907e-16
1.3485817649582838e-15
-1.5333659344792463e-15
-1.645744728926363e-15
-8.610072618151818e-16
4.040117925220792e-15
-3.325010165435688e-15
6.663971972924596e-15
-2.989058029698851e-15
-3.499037777900482e-16
-3.992153300488041e-15
7.653168549337569e-16
-3.579345108218997e-15
6.806181553773282e-15
-1.9566954805980485e-15
4.054174874619011e-16
-1.4759533523085831e-15
3.027231345444724e-15
1.0745905793227541e-15
1.953909964306494e-15
-3.601004664480547e-15
5.725041208513005e-16
-1.1598521471013922e-15
-1.1700414085025563e-15
-1.848800118573849e-16
2.5147735674613283e-15
-1.5361248879473615e-15
-1.4324375424455076e-15
-1.04136777654187e-16
3.0726992080470563e-15
-3.5161508820211044e-16
-6.480558780418848e-16
6.376317041162903e-16
3.620392621277049e-16
-2.8248699793158873e-15
1.069360895582106e-15
-1.866747109286355e-15
3.622256193020141e-15
-7.916394555422353e-16
-9.339411665264758e-16
-7.612368534840392e-16
2.4868174755527443e-15
-9.845418574276249e-16
-8.021658233727595e-16
-6.772909813263294e-16
2.463998662126711e-15
-9.579942896064903e-17
-3.180209151994393e-16
-5.743210678614499e-16
9.881414120215378e-16
-2.956188207927946e-15
-2.322439980993631e-15
-2.4159087755622335e-15
7.694536964483818e-15
-1.221964859302983e-15
-1.1523840494252715e-15
-1.0027896807189624e-15
3.377138589447208e-15
5.982473627396099e-15
-7.367167725652644e-15
-2.7431329473907648e-15
4.127827045647346e-15
4.570702245843281e-16
-7.350409347737104e-16
-4.3939005632635214e-16
7.173607665157337e-16
-3.0094331510410947e-15
2.1025860296567584e-15
-2.8883154071497974e-15
3.795162528534143e-15
-2.7052720330001488e-15
8.72006532968697e-16
-2.484489222088921e-15
4.317754722120379e-15
3.2576987463843606e-17
1.1459082140967652e-14
-8.44498303083926e-15
-3.0466760975921882e-15
-9.965343967888889e-16
-1.1770155397987568e-15
-7.892802313099333e-16
2.962830167897575e-15
-1.4406457974899637e-15
-7.964546785372408e-16
-9.43295754288748e-16
3.180396230315953e-15
-2.861212135694782e-17
-3.265784096677848e-16
-1.832880971039388e-16
5.384786281286714e-16
-6.750115249401489e-15
4.141048297235578e-15
-3.1023337559396838e-15
5.71140070810563e-15
-6.88054466994426e-15
-1.7231159491444803e-14
-8.346413826090198e-15
3.245811798748007e-14
6.671194216605268e-10
-8.682031906335197e-10
-6.529363550716158e-10
8.540201240446227e-10
4.401137438323755e-14
-3.928369322304288e-14
-1.2706981179099444e-13
1.2234213063079834e-13
-5.383365603327775e-14
4.904574444406283e-15
8.394673310036155e-14
-3.5017651511489666e-14
-3.384375105155636e-15
5.366600799677845e-15
2.3341425223027693e-14
-2.5323650917549828e-14
2.1294717677246867e-13
-1.375454844950112e-13
-3.415376118975797e-13
2.661359196201216e-13
2.379396425132789e-14
-2.4647445607924846e-14
-2.7347879907167607e-14
2.820136126376577e-14
-1.5841191558408043e-14
1.0638702065616459e-14
1.1335039216121525e-14
-6.132549723329766e-15
-1.9105714315372624e-16
1.7110632116228084e-16
-3.189835009254571e-17
5.184917208399112e-17
3.015282693945672e-17
-5.1973398822361e-16
-2.5431836256583578e-16
7.438995238499903e-16
-4.331425637397821e-15
-3.3599149424470723e-15
-1.1864197854784097e-15
8.877760365323323e-15
-3.1950237000585905e-17
1.2950985341325849e-17
-6.85583260915765e-17
8.755757775083667e-17
9.662938160357608e-16
-6.135346124038163e-16
-9.150937810016636e-17
-2.6124982553177753e-16
-1.804518014155585e-17
-1.7882986476089297e-17
1.1070649066787028e-17
2.4857517550858123e-17
-7.923421302532446e-16
-1.7423508529480013e-15
-2.399312674575112e-15
4.934005657776347e-15
-6.579898664081529e-17
6.785679920524876e-17
-2.771047918546249e-16
2.750469792901917e-16
1.60989787485374e-17
-5.1989618463737085e-17
4.551479130117935e-18
3.133916058508175e-17
-2.502394075656696e-14
2.5080749288972403e-15
3.1378522826395955e-15
1.9378013545030105e-14
-3.3794966736046695e-15
-3.0737233293313307e-15
-7.777950708860143e-15
1.4231170711796068e-14
-1.22374939325159e-16
-1.4369450950719573e-16
-1.1770284113663822e-16
3.8377228996899294e-16
-5.035464658735736e-16
3.3594048194230123e-16
-5.806614772354076e-16
7.482674611666789e-16
-3.9262843101723616e-16
2.425824598278985e-16
-4.0594390586556854e-16
5.559898770549054e-16
1.710236108685874e-15
-2.0844860757401653e-15
-1.4650894790624929e-15
1.8393394461167822e-15
5.187099098827518e-15
-1.8667664459811844e-15
-2.304253138502355e-15
-1.0160795143439853e-15
1.0750808985182426e-16
-1.2002747507296703e-16
5.0020173437429603e-17
-3.7500788216286786e-17
6.581358530040282e-17
-7.163058233485897e-17
-1.1306201577211424e-16
1.1887901280657048e-16
2.7865194217655056e-16
-3.6179382223721264e-16
-5.558719242534489e-17
1.3872907248600732e-16
6.399851552168299e-16
-8.799976947222227e-16
-6.538772480198538e-16
8.938897875252458e-16
1.820367981451826e-15
-3.3078887547030318e-15
-1.2800849811974744e-14
1.4288370585225984e-14
9.261879202437268e-18
-8.136928872901122e-17
3.274157125857103e-17
3.936583826800289e-17
9.410256276141955e-17
-4.2693957685122005e-16
1.7050138975345124e-16
1.6233562433634913e-16
5.675492438298629e-17
-1.9525344379085302e-16
-1.9402126837079135e-16
3.325197877786582e-16
3.106626549488641e-15
-1.3332229084343062e-15
-7.183563582378079e-16
-1.055047282816526e-15
-1.3851280540518321e-16
-1.3674902031100152e-16
3.9468006259665566e-17
2.3579381945651934e-16
-2.2704343295421074e-16
5.656942309312891e-16
-2.300160890936763e-16
-1.0863470888340193e-16
6.349408106084945e-17
1.7482495424372415e-16
-1.5027999524296975e-16
-8.803904006160382e-17
-4.209382539200948e-18
-4.1783331307232e-18
-4.237063735745842e-18
1.2624779405669989e-17
1.6728498191408778e-17
-2.881708834381881e-17
-2.984623135573283e-17
4.193482150814285e-17
7.741726310142587e-17
-2.39852579107599e-16
4.260188616746142e-17
1.1983342983871173e-16
-8.257169383094578e-18
-8.062120362024636e-18
6.19720334446001e-18
1.0122086400659204e-17
-1.1976644117066473e-15
1.0450445174402188e-16
-9.179327976079834e-16
2.0110927575706034e-15
-1.1060007129842863e-16
1.832288372296018e-16
-3.5918650454889944e-17
-3.671011547628328e-17
3.3904816121520674e-16
-2.774600967203885e-16
-3.950549376545189e-17
-2.2082570729366392e-17
7.575042396801498e-17
-4.2270574064569724e-16
4.3934010468170993e-17
3.0302130620951137e-16
1.3022153399940148e-17
-9.77060050242507e-18
4.3826083040430174e-18
-7.634161201558098e-18
1.2915528533952374e-15
-7.22187385153496e-16
-3.8678657752818447e-17
-5.306868104889227e-16
-3.7287954090803515e-16
-1.8536843873857676e-15
-4.452935360199806e-16
2.6718574643137782e-15
-5.983704329332957e-18
-5.8759193233214764e-18
8.549395513811294e-18
3.3102281388431417e-18
-1.6589965465148653e-15
-1.2290132893842477e-15
1.3278452162628424e-15
1.5601646196362685e-15
6.233124009374362e-16
-2.034263949710662e-16
1.1445858219646323e-16
-5.343445881628338e-16
5.390627377321784e-16
-6.2631743099808e-17
-5.244980205469655e-16
4.806702591459501e-17
9.324080660779387e-17
-1.115850414130247e-16
5.789342409441992e-19
1.7765300564286638e-17
-4.1260481498698906e-17
-1.0858312728748046e-16
1.9655563622442057e-17
1.3018804516373726e-16
1.4022138447825515e-16
-7.674440456055925e-16
-1.0656023656675266e-16
7.3378289769409e-16
-9.057648977864607e-16
-6.541242321491446e-16
-1.46570217608583e-15
3.0255913060214235e-15
9.513348503579968e-17
-2.233779248848556e-16
-5.559479566885891e-17
1.8383923551791493e-16
3.1818603928451053e-15
-3.259394609370927e-15
-1.5639922416032598e-15
1.6415264581290877e-15
1.794726030796042e-15
-2.093659747567818e-15
-8.331294398243734e-16
1.132063156596144e-15
-7.92339944427029e-17
-3.0670950482602033e-16
1.239909347440498e-16
2.619525645246732e-16
7.378460728691217e-17
-1.3056080427711626e-16
5.384136897143763e-17
2.9348280187664426e-18
-5.540748225112553e-16
6.042927110357365e-17
-3.5183914796993373e-16
8.454846993776156e-16
-1.7195368786877084e-17
-4.0086153030888977e-16
3.4457060940260893e-16
7.348628969315787e-17
3.84870196237005e-16
-9.943632144515802e-17
-3.207427891123766e-16
3.5308914320529505e-17
-5.3379778584446773e-17
3.2190655165182057e-16
-6.987316386269071e-16
4.3020486555953227e-16
2.0154987562424833e-16
-2.312824092405244e-16
-2.1316714598191985e-17
5.1049248214467943e-17
5.813980356131431e-18
-8.483709326633678e-17
-1.4577268354720144e-17
9.360038126492551e-17
-2.492113351283026e-16
-4.4535905688024103e-17
-2.2152096235484045e-16
5.152682031711676e-16
-8.940185687130136e-18
-9.947218043518256e-17
-2.943863787822901e-17
1.3785100400054173e-16
2.706001759673344e-16
-1.2027779362325407e-16
-2.8946568273409707e-16
1.391433003900168e-16
-4.1795805125455576e-17
-8.602561422929938e-17
1.1526710881336163e-16
1.2554310541393337e-17
-3.724483032726787e-17
2.993068164434412e-16
-2.4194394109739177e-16
-2.0118045018781448e-17
-2.0920167064197056e-18
-2.0814754928498877e-18
-2.1013681377438074e-18
6.2748603370134e-18
-1.174114775162312e-16
2.2314965191487726e-16
-5.577620903438856e-17
-4.996196536425749e-17
4.539266158331957e-17
1.121747432329448e-16
-6.955515358711554e-17
-8.801225122914887e-17
2.6643471869693614e-18
-1.5558926437652883e-16
-1.5086097680270453e-17
1.6801101486982995e-16
-1.5303615875790166e-17
-1.0543856445874594e-16
5.161915147903955e-17
6.912302885549655e-17
-3.7314655509747196e-17
-3.087161904660972e-16
2.0161923431675793e-16
1.4441161165908657e-16
2.7714251877247683e-17
-1.0818026785781956e-16
7.751209178708046e-17
2.95392419349138e-18
7.508491110664847e-17
-1.7466932658245005e-16
5.2332556710671226e-17
4.725185876513034e-17
-4.443770588409509e-17
3.7785112463597975e-16
-3.9182051961121876e-16
5.840710085933377e-17
-9.809000903947841e-17
1.572028358420972e-17
5.1667385544957667e-17
3.0702339910311053e-17
-9.099090115025093e-17
2.2445501758890355e-16
-1.0902785665789277e-16
-2.4436259780759858e-17
2.0562888346712167e-17
2.648571969657677e-16
-6.739540120802287e-17
-2.180246841044569e-16
1.7957787616185501e-16
-2.3216424035185557e-16
-1.9003501962735832e-16
2.426213838173593e-16
-1.1801055570080683e-15
-3.70534396628717e-16
1.2716284942639289e-15
2.7901145937285465e-16
-1.9140520628829835e-16
-1.0477772033027002e-15
3.546396093160276e-17
1.2037184486593944e-15
-5.851163972290306e-16
9.326546622628288e-16
-5.151444655585867e-16
1.6760620052478754e-16
1.8988285539871438e-16
-5.654526380981095e-16
-4.526746848189574e-16
8.282444675183527e-16
1.351109456206915e-16
-8.472766035447114e-16
-6.717606136401768e-16
1.383926271564195e-15
5.131893750786265e-17
-3.1102542868367626e-16
8.654566535628624e-17
1.7316082581952747e-16
-6.126093568101449e-17
7.482476111231592e-17
-6.334090951558229e-17
4.977708408428097e-17
8.550700720567155e-17
-4.3611221298046983e-16
4.538657734121266e-17
3.052186284335855e-16
-1.042749394347671e-15
-1.0768225003980675e-15
6.920613232567254e-16
1.4275105714890086e-15
-5.608034583851448e-17
-3.4868345488205977e-16
1.647766533568673e-16
2.3998714736370707e-16
-6.302773626093709e-16
-1.04848576525811e-15
9.372050584017662e-16
7.415580694657121e-16
5.313054939888281e-16
-7.677601499543248e-16
1.4919376629833765e-16
8.726088966715894e-17
-3.985850921521889e-16
-5.370352394593189e-16
-4.35414501253999e-16
1.3710348328655083e-15
1.6595722386479587e-16
-3.3439363653921823e-16
2.280432380866702e-17
1.456320888657555e-16
-1.6562202007985935e-16
4.898281020058307e-16
-1.8004049148036745e-16
-1.4416559044560385e-16
-3.785736538699122e-17
-8.67188717858351e-17
-2.1511521475399612e-17
1.4608775864822615e-16
2.627107241289397e-17
-4.065131395016264e-16
-7.156260126505354e-17
4.518046683537865e-16
4.947731872892955e-18
-1.7729764409746423e-17
1.0835109833086898e-17
1.9469227037665773e-18
-9.44275152631711e-18
-3.1753505696262756e-17
2.537337320403144e-17
1.582288401854843e-17
3.872555890453533e-17
-1.8746385095615635e-16
1.2632661026849117e-16
2.2411681783129865e-17
-3.891701383431067e-18
-3.7944710841198156e-18
1.065071580318856e-17
-2.9645433356376802e-18
0.0
0.0
0.0
0.0
-1.0628003243213749e-16
2.1140617969049088e-16
-5.320713375563956e-17
-5.191901350271393e-17
2.750274112251998e-16
-2.7168800688054317e-16
8.2034704358294e-17
-8.537410870295078e-17
0.0
0.0
0.0
0.0
3.1787825576388568e-15
-1.883784819263791e-15
-1.0947044060016703e-15
-2.0029333237340209e-16
-2.0169115844042147e-16
4.998212617228182e-16
-1.5537315746901872e-16
-1.4275694581337795e-16
1.0634502575623829e-16
-9.93780270261462e-17
-2.9393295463858206e-17
2.2426296733766106e-17
-4.523302232386904e-16
-2.346990994032671e-16
1.6640182441064264e-15
-9.769889214644733e-16
-9.979259408547199e-18
-9.729918051149585e-18
1.905584792651763e-17
6.533295331791498e-19
7.315493113063718e-16
-9.550382413813374e-16
9.356143265636904e-17
1.2992749741859592e-16
-1.4611298946323652e-17
-3.688521718109157e-17
-9.088914649429203e-18
6.058543077684442e-17
-7.721834722708529e-17
-2.7860715553482307e-16
1.7814406395226986e-16
1.7768143880963845e-16
1.6913722161226863e-17
-5.976192545999579e-18
-6.268289218929894e-18
-4.669240396297391e-18
1.8956012840543415e-16
5.0033124546155133e-17
-1.4838048685350807e-16
-9.121276609808114e-17
-8.658320383849981e-17
-3.998622147185759e-17
2.7427885590639867e-16
-1.477094305960412e-16
-2.1958460440620144e-18
-2.1410106717921162e-18
-2.245625556834645e-18
6.5824822726887744e-18
3.387864580931564e-17
-1.1924982363662772e-17
-1.2463303948492515e-17
-9.490359497160355e-18
2.7945659295022356e-17
-1.7772466821658104e-17
-3.842718519490881e-18
-6.330473953873369e-18
2.5184654684401056e-17
-2.043766595257819e-17
-2.132141553002957e-17
1.6574426798206697e-17
2.8511756306046014e-17
-6.250788968639846e-17
-2.0811453584125256e-17
5.480758696447768e-17
-5.634969808253613e-17
1.6980902664374858e-16
-6.67721409251409e-17
-4.668718763607157e-17
0.0
0.0
0.0
0.0
8.011680521354773e-18
-3.721331566928105e-17
3.4297481105381965e-17
-5.09584595745568e-18
0.0
0.0
0.0
0.0
8.32290826233621e-17
-5.386529992766022e-17
-2.6821862211393218e-17
-2.541920484308695e-18
-2.122159283849503e-18
-2.0997038042095952e-18
-2.1422397767489455e-18
6.364102864808044e-18
4.7387463640477606e-18
-1.78470775668858e-17
1.054208532308413e-17
2.5662458797539035e-18
0.0
0.0
0.0
0.0
5.788157590184501e-17
-3.3519308190311965e-17
-5.7284390470825735e-18
-1.8633828664450464e-17
-4.267228383429264e-17
1.1551879373362827e-16
-6.47459929959955e-17
-8.100516903340117e-18
-3.033590440834553e-16
-4.806318679102559e-16
1.323936137491838e-16
6.515972982445274e-16
0.0
0.0
0.0
0.0
-2.5101190466337077e-17
-4.718099305503951e-17
5.339786212735159e-17
1.888432139402499e-17
-1.1514107153007004e-17
-3.382497915028569e-17
2.3302699242476094e-17
2.2036387060816602e-17
8.277401743107037e-17
-5.563984849175526e-16
-3.5101516642048173e-16
8.246396339069649e-16
0.0
0.0
0.0
0.0
0.0
0.0
0.0
0.0
1.302211513890482e-17
-9.770575526843983e-18
4.3826170037871635e-18
-7.634156615848001e-18
-7.935834270684243e-17
2.5892501959933105e-16
-8.879754219384114e-17
-9.076913469864744e-17
0.0
0.0
0.0
0.0
-2.1958881102922314e-18
-2.1410238710639224e-18
-2.245673519324965e-18
6.5825855006811175e-18
-1.2716522755964814e-17
-5.772899879627133e-17
2.801070016708174e-17
4.2434821385154393e-17
3.882238682565418e-17
-7.479413871199736e-17
3.920437009618516e-17
-3.232618209841957e-18
2.0258923284509661e-16
4.553820564700561e-16
-8.451982333784588e-16
1.8722694406330557e-16
2.5509339653378146e-15
-1.0012703587983285e-15
-3.6658440491851937e-16
-1.18307920162097e-15
-2.1311398385213774e-16
-1.6903699676068077e-16
-3.818965145430472e-16
7.640474951558653e-16
-7.688428251665564e-17
-3.915763990661157e-16
1.6395173929809007e-16
3.045089422846813e-16
-9.2272488761736e-16
1.678717404847455e-15
-7.783739070639832e-16
2.2381389833888507e-17
-5.344933819674343e-17
-1.6559983463949392e-16
7.728587004547686e-17
1.417633027907604e-16
4.224416795971464e-17
-2.6331753369291693e-17
-2.73856943810236e-17
1.1473279790600653e-17
4.998220082518076e-17
-1.0917552397299776e-16
-4.0105267088990984e-17
9.929859023680795e-17
-2.1213375343525106e-18
-2.099216205588625e-18
-2.1411152419239567e-18
6.361668981865091e-18
-1.4645018944610914e-17
-1.4370670760073848e-17
-2.627559198615717e-19
2.927844562454633e-17
-7.114665727090428e-17
-1.376005616912629e-16
7.605643955721591e-18
2.011415750064456e-16
9.344409274390958e-17
-1.7900798806155285e-16
1.0585661216491679e-16
-2.029271684727355e-17
-4.391734360851802e-18
-4.282034756745781e-18
-4.4912995035728146e-18
1.3165068621170397e-17
0.0
0.0
0.0
0.0
6.539128510713046e-17
-1.163732715680284e-16
5.4278392167647573e-17
-3.2964057067496134e-18
8.189805089656754e-17
-1.6791929563830432e-16
7.383359581993939e-17
1.2187648921797349e-17
5.839617930642355e-17
7.938146995693477e-17
-4.437634511534882e-17
-9.340130414800955e-17
3.237675378491139e-17
-1.48605960532018e-16
7.907663665191045e-17
3.715257009519617e-17
-4.7092875255256387e-17
-1.5882807116734026e-16
5.400064467927949e-17
1.519203017433172e-16
-1.0859656343557928e-16
2.079833231398411e-16
-1.061397654893297e-17
-8.877278315532887e-17
-1.8243553125100975e-16
4.0718742717885994e-16
-1.080506317270522e-16
-1.1670126420079784e-16
7.542133574271258e-18
-3.768852496554993e-17
1.920346227536924e-17
1.0942929115909419e-17
0.0
0.0
0.0
0.0
2.534774589442675e-16
-3.614336124668344e-16
9.29329962576247e-17
1.502315726494217e-17
3.562443549985946e-17
-1.9106042395163858e-16
-7.995925949131658e-18
1.6343191440091078e-16
-1.2838803345904597e-17
-8.028051042199338e-17
1.5059592179764636e-16
-5.747660802974837e-17
-1.0269735558968224e-15
-2.27571490925952e-15
-3.456272318602693e-15
6.758960783758999e-15
1.6910811847180742e-17
-5.112053383417784e-17
3.4572157207452345e-17
-3.6243522045524792e-19
4.2723080997403935e-17
-2.585644160902394e-17
-1.2272981808238589e-17
-4.593657580141398e-18
1.082624611611495e-17
-1.1911613754466603e-17
2.1369364064255533e-18
-1.0515687680738997e-18
0.0
0.0
0.0
0.0
-6.808342326815673e-17
6.838929511868116e-17
2.649317333495565e-18
-2.9551891840200388e-18
-1.0209655542500044e-16
1.9311151589956989e-16
-6.858554125457323e-17
-2.242941921999631e-17
2.3987636736933878e-17
-6.68686054839884e-17
-2.5482734220198852e-17
6.836370296725335e-17
1.3734375440523582e-16
-9.110010498075215e-17
-2.173395013798237e-17
-2.4509699286501314e-17
0.0
0.0
0.0
0.0
-4.9656074455835847e-17
-2.502787335551101e-15
-2.178821200304005e-15
4.731264610310928e-15
2.206407861037987e-16
-1.4506677682062769e-16
-7.359548181967175e-17
-1.9785274634992715e-18
-4.543456424656224e-16
6.554515238721225e-16
-3.451063392477399e-16
1.4400045784123987e-16
7.732707997317674e-17
-1.7433309451805613e-16
-2.176628960272542e-16
3.1466891057213354e-16
-2.8831605650132624e-16
-1.9817123173616763e-16
-1.2373160968774738e-16
6.102188979252415e-16
8.648564095326033e-17
-7.141981133684585e-16
-5.881491354473517e-16
1.2158616078625483e-15
-2.0133228335597585e-15
-1.1393395629578528e-16
-1.4904668504754468e-15
3.617723640330987e-15
-4.7700855632539055e-17
4.0549344293302257e-17
9.594647952957836e-17
-8.87949681903416e-17
-8.208879831172379e-16
5.160916546657251e-16
-2.729220340063823e-17
3.320885318521502e-16
6.199068202798203e-17
-1.2021132980995475e-16
-2.1872613837129806e-17
8.009326161910258e-17
-2.392788875412382e-16
7.722138612215315e-16
-4.467252357241045e-16
-8.62097379561888e-17
-3.594810105126674e-16
7.733490198034701e-16
-1.540698607845971e-16
-2.597981485062057e-16
1.1904040047876115e-16
-2.6778276991586003e-16
1.1789801933192638e-16
3.0844350105172586e-17
5.631363126275705e-17
1.2056436238083786e-16
-2.7059581784546192e-17
-1.4981841185904877e-16
5.961063441620326e-17
-7.698945814880106e-17
2.2267640533334044e-17
-4.888816800736246e-18
0.0
0.0
0.0
0.0
-6.281857415204164e-17
1.8459463507971497e-16
-3.393131406247144e-17
-8.784474686520191e-17
-1.8813291769909403e-18
6.544931189501871e-17
-1.3195375643354636e-16
6.838577371551859e-17
-5.275752519423161e-18
-2.780412172769753e-17
1.5108351049250327e-17
1.7971523197870375e-17
-6.192568029146472e-17
3.4171344169145293e-16
-1.264733560918662e-16
-1.53314405308122e-16
5.817733405505089e-18
2.0687816372578641e-16
-2.704970776039004e-16
5.780118047260871e-17
-1.0291352701977274e-17
-5.545510763795199e-17
3.0573545875688526e-17
3.517291446424075e-17
3.278477805058689e-16
2.9426464117733706e-16
-3.825207097983044e-16
-2.395917118849017e-16
6.839854253971267e-17
-6.833879213228806e-17
-2.7345541586713625e-17
2.728579117928899e-17
-5.976213390832739e-17
1.4197724366826577e-16
-6.270396649326604e-17
-1.9511143266672303e-17
9.829437022153139e-18
-3.5496277218289576e-17
2.1577790906110652e-17
4.0890492900257914e-18
-8.910679316001022e-17
1.145274025063422e-16
-9.376556831914633e-17
6.834495897281443e-17
1.585756702755073e-17
-2.959401228590962e-17
1.3089308215258045e-17
6.471370431008474e-19
0.0
0.0
0.0
0.0
1.8052278562896685e-16
-2.5196499133922795e-16
-2.8029517912876446e-17
9.947172362313751e-17
2.050970625874849e-16
-1.3749463436594584e-16
-5.553054720684451e-17
-1.2071881014694491e-17
-1.0414665599874426e-16
2.347159341907044e-16
-7.021625211882086e-17
-6.035302607313933e-17
1.7047822230457535e-16
-4.412750527691466e-17
-5.835059922550589e-16
4.571552752273954e-16
-5.987265831647671e-16
8.931917462719573e-16
-7.021351788955617e-16
4.076700157883713e-16
-4.716512843865412e-16
-1.0759293826454231e-16
-8.541209899869216e-16
1.4333652126380033e-15
3.01063757322601e-16
-4.496420679956397e-16
9.183207581072984e-17
5.674623486230911e-17
1.2119214010086833e-16
-1.4289792932803193e-16
-8.100835160729009e-16
8.317893053000621e-16
-2.1288229859176805e-18
-2.1036301089076403e-18
-2.151371070765441e-18
6.383824165590762e-18
-8.5210018066471e-18
-3.114781210164382e-17
-3.1938940062890784e-17
7.160775397118171e-17
-2.2760558886673757e-17
-2.2352593664442054e-17
6.1318219547783514e-18
3.898133059633746e-17
2.845683328424609e-17
-3.980532044380468e-17
2.4340918380483457e-18
8.914395321510243e-18
-3.2905590926438574e-17
1.2373136893017843e-16
-5.355701566424817e-17
-3.726876233949174e-17
-1.4344467018269327e-17
-1.2706670936326065e-16
-5.866026438254055e-17
2.0007144076407053e-16
1.3154083972394206e-17
-9.69654971246476e-18
4.567717439301487e-18
-8.025251699230934e-18
-1.3027013352261478e-16
4.329544312403304e-16
-1.9289754860003373e-16
-1.0978674911768203e-16
-5.890234610207043e-18
-5.825003105146071e-18
8.682207698284569e-18
3.0330300170685456e-18
1.2656065211928159e-17
-1.0183444988784122e-17
-1.0571028178208805e-17
8.098407955064772e-18
0.0
0.0
0.0
0.0
-8.111425912206713e-18
-7.979170117178162e-18
6.3997716922079376e-18
9.690824337176936e-18
-2.1958814182378865e-18
-2.1410292934640584e-18
-2.2456765315776027e-18
6.582587243279548e-18
-6.009078383355498e-18
-5.8912832083570425e-18
8.515076751517807e-18
3.3852848401947345e-18
0.0
0.0
0.0
0.0
1.0433451486331124e-17
-1.233956471098656e-17
-1.2853874976247087e-17
1.4759988200902524e-17
0.0
0.0
0.0
0.0
-9.79513797938113e-18
-9.62436132875433e-18
1.9311649142325456e-17
1.078501658100059e-19
0.0
0.0
0.0
0.0
0.0
0.0
0.0
0.0
0.0
0.0
0.0
0.0
-3.89169816032928e-18
-3.7944363989664295e-18
1.0650767140488753e-17
-2.964632581193045e-18
0.0
0.0
0.0
0.0
1.691363795420618e-17
-5.9761927642445044e-18
-6.2683481900473446e-18
-4.66909699991433e-18
3.4377348476782414e-17
-1.163616169784024e-17
-1.1773397698053822e-17
-1.0967789080888345e-17
0.0
0.0
0.0
0.0
0.0
0.0
0.0
0.0
0.0
0.0
0.0
0.0
-2.195889434560617e-18
-2.1410237305967057e-18
-2.2456742430585542e-18
6.582587408215877e-18
-2.1183917450430107e-18
-2.097458748744982e-18
-2.137082421342514e-18
6.352932915130505e-18
-1.8762847158965447e-17
-1.8293968426961562e-17
1.007319308771727e-17
2.6983622498209746e-17
-6.020509266864962e-18
-5.898074703475877e-18
8.499392594105915e-18
3.419191376234929e-18
6.338298023055749e-17
-2.811705785107021e-17
-2.939843099869604e-17
-5.867491380791248e-18
0.0
0.0
0.0
0.0
0.0
0.0
0.0
0.0
0.0
0.0
0.0
0.0
-4.41938267188221e-16
3.1033295208783967e-16
1.3684615736900109e-18
1.3023685352669157e-16
-1.2381504969839369e-17
-1.0247534798252602e-16
8.376536477323027e-17
3.109148817913512e-17
-1.7780108274209772e-16
4.793572491768353e-16
-1.937832023979733e-16
-1.0777296403676435e-16
-7.072467247766722e-18
-9.737559344062364e-17
4.536969016125751e-17
5.907837052713287e-17
-1.7730021272615637e-17
-1.7301419877905796e-17
4.0403954078384347e-17
-5.372512927862909e-18
-7.544428312512082e-18
-7.519601405687917e-17
1.121864076336501e-16
-2.944596526425887e-17
-1.4186065396179855e-17
-5.904728175399558e-17
5.566462031783387e-17
1.756872683234157e-17
1.1903863416095845e-18
-2.0144151043326065e-16
9.673751408623393e-17
1.0351361000541713e-16
-2.1958472934241404e-18
-2.1410097993561482e-18
-2.2456251732615608e-18
6.5824822660418486e-18
1.2119014333501641e-17
-5.583361029102753e-17
1.5080044104289134e-17
2.863455185323674e-17
4.020194410243971e-15
4.04095791156156e-15
-3.679278420614967e-15
-4.381873901190575e-15
1.5440096139246185e-16
-1.1340868509575054e-15
3.0802454935480806e-16
6.716613402102343e-16
6.421282656860976e-16
-7.462348896675405e-16
-7.95060263469259e-17
1.8361265032836765e-16
1.8855578544512963e-16
-2.659855149120822e-16
1.9014813049774967e-16
-1.1271840103079715e-16
-1.1185335636092989e-16
1.597817918204475e-16
-6.099327701397959e-17
1.3064841554461979e-17
-2.0958705702270958e-17
-2.0435065675880194e-17
7.827436317113737e-18
3.356633506103741e-17
3.676019361141338e-17
-7.708893668515479e-17
7.061405402665982e-17
-3.028531095291846e-17
4.788427757497415e-17
-8.861280729004286e-17
3.971048443953039e-17
1.0180452755383183e-18
-1.0384447790094871e-16
1.4509106793129228e-16
-1.7816016027309692e-17
-2.3430574003033888e-17
-3.3462980674750103e-17
-3.2696623273290145e-17
9.734189704050484e-18
5.642541424398976e-17
-6.398925329973715e-18
-6.317612064225812e-18
-6.471888073728685e-18
1.9188425467928214e-17
-1.092496676690689e-16
1.3784622199412372e-16
-2.0773730666123853e-16
1.7914075233618376e-16
-4.25748090035412e-17
-1.5384761721445028e-16
1.0198476382360414e-16
9.443766239438738e-17
5.472673687240879e-17
-1.0416176783386128e-16
6.680727100741666e-17
-1.7372240045964176e-17
3.2620496973230217e-15
-2.282240888769069e-15
-2.247391131132619e-15
1.2675823225786634e-15
6.382570766840082e-16
-7.33338789999142e-16
-9.763124093653995e-16
1.0713941226805305e-15
9.470977120545509e-17
-6.520667274009731e-17
-9.32221301785362e-18
-2.018088544750416e-17
-1.0132473958175288e-16
-1.900762276804137e-16
-3.5648275070535973e-17
3.270492423327026e-16
4.3406139372919186e-16
2.3798117194496433e-16
-4.298693180578612e-16
-2.4217324761629496e-16
8.294542776894677e-17
-3.17051478932983e-17
-3.277888865568765e-17
-1.846139121996081e-17
0.0
0.0
0.0
0.0
0.0
0.0
0.0
0.0
-3.612491296590496e-17
3.4755497476026654e-16
-1.5580830023364396e-16
-1.556217615607177e-16
-1.2405961747163615e-17
-1.2207671978078203e-17
2.0459534742080773e-18
2.2567680251033737e-17
0.0
0.0
0.0
0.0
-9.799675148777985e-17
1.5004525163662953e-17
-6.453853382786746e-17
1.4753076015198452e-16
1.6716333549484742e-16
-5.142954928848412e-16
8.317836719897426e-18
3.388143206700963e-16
2.3655250287017684e-19
-6.753193295127952e-17
3.228969529775945e-17
3.50056851506499e-17
0.0
0.0
0.0
0.0
0.0
0.0
0.0
0.0
-1.0858284731645769e-15
-4.696051736279579e-16
-2.010174252725269e-15
3.565607899517786e-15
1.6825915182204806e-16
-1.7347921790971503e-16
-1.999007837244794e-17
2.521014446011489e-17
-3.8916268280982925e-18
-3.794410497138452e-18
1.0650853483719852e-17
-2.9648161584831062e-18
7.240906718309362e-17
-1.3207661900864083e-16
-6.445297587295234e-17
1.2412052769849953e-16
5.773088402730178e-17
-1.012792839875008e-16
2.6029850810638717e-17
1.7518549149560303e-17
-7.254481822509544e-16
-1.9877928392037445e-15
-5.89959774317596e-16
3.3032007957722893e-15
1.479629203348514e-17
-8.073064532222183e-18
-8.404050049774114e-18
1.6808225485111535e-18
-1.1532016460025572e-16
-2.4975116639905497e-16
-9.608861017566426e-17
4.611599411749749e-16
-1.6637414613023412e-16
2.8577928777320917e-16
-1.2852677832264415e-16
9.121636679668999e-18
4.576120166537624e-18
-1.814629622975728e-17
-4.125563052651096e-18
1.769573911587075e-17
-4.342801605275088e-17
-1.1010098879239871e-16
6.078733551639399e-17
9.274166932875564e-17
0.0
0.0
0.0
0.0
-1.0435603227072902e-16
2.57813812521117e-16
-7.688756057427294e-17
-7.657021967611512e-17
0.0
0.0
0.0
0.0
0.0
0.0
0.0
0.0
-3.237753430764462e-17
-3.16733269903928e-17
4.0137573197343676e-17
2.3913288100693747e-17
-2.2318057009512993e-16
3.2145480001337154e-16
-2.690125872126925e-16
1.7073835729445097e-16
4.4911207326789716e-17
-1.1412278352935384e-16
-1.3963566959305407e-18
7.060793289849468e-17
1.112193467619281e-16
1.5331873758563916e-16
-6.517706008717734e-17
-1.9936102426038986e-16
2.2655198919318698e-17
-1.8140649316515402e-16
1.0487637172600962e-16
5.387492251982573e-17
2.870868462921106e-16
-3.056969706833706e-16
-6.904429419975275e-17
8.765441859101272e-17
-2.195883974812183e-18
-2.1410266457440727e-18
-2.2456745664860272e-18
6.582585187042284e-18
1.0695005393489329e-16
-1.207626782705245e-16
2.0364046018519378e-17
-6.5514216828882e-18
-2.0192087808724476e-17
-1.775946192731403e-16
1.9805243528457654e-17
1.7798146355340713e-16
6.362781231116789e-17
-1.182631846127105e-16
5.2630901991929945e-17
2.00447030961264e-18
2.5117626023861208e-17
-2.047509822205264e-17
-2.1415740582695992e-17
1.6773212780887426e-17
-1.0147797631954871e-16
2.6083806314541436e-16
-1.0340713164289226e-16
-5.595295518297339e-17
1.3410112560158665e-16
3.3332347450027558e-16
-2.722315062979313e-16
-1.9519309380393088e-16
1.9755404506088278e-17
-2.5797223983132922e-17
2.447888617900561e-18
3.593930859144082e-18
0.0
0.0
0.0
0.0
0.0
0.0
0.0
0.0
3.222165039854151e-17
-2.1722236992044712e-16
-7.858772364940197e-17
2.6358844317130766e-16
7.40198138817149e-17
-6.287631341391976e-17
-5.08413185289197e-17
3.969781806112459e-17
-8.250715217373207e-18
-8.058714898499963e-18
6.206064403437645e-18
1.0103365712435526e-17
-7.848046231271529e-17
-1.6718241467315466e-16
1.1881885002280778e-16
1.2684402696306231e-16
-2.0848599657936305e-18
-2.4609055351608388e-17
-1.096646728158096e-17
3.766038259898297e-17
1.9534902632730816e-17
-2.592008891728251e-17
2.1380158842294286e-18
4.247170400322266e-18
9.977197418081333e-18
-3.520643578285243e-17
3.622617759764563e-17
-1.0996939232874539e-17
-2.75052119213105e-18
-2.5265929529214213e-17
3.225067349904743e-17
-4.2342227777021706e-18
8.708507848792569e-18
-1.4008254898058262e-17
1.2874565625411334e-21
5.298459592703154e-18
6.5718550086262596e-18
-6.145158838201276e-17
2.4227385089154197e-17
3.065234828423232e-17
-1.0460520463552612e-17
-3.273894878040707e-17
-4.93506465064404e-18
4.813453389460373e-17
2.096924684632453e-17
-2.4621178819252876e-17
-2.5565138484527418e-17
2.921707045745576e-17
-6.087686705127944e-18
-5.935391496264783e-18
8.405120985281095e-18
3.617957216111634e-18
4.825152896247766e-17
-1.7872193431294539e-16
-9.736370477883143e-18
1.4020677582835087e-16
8.37218842847496e-17
-3.9151515624063783e-16
1.6256200998222884e-16
1.452312619736596e-16
3.3129349404707376e-17
-5.789939903501361e-17
-1.5539655395038063e-18
2.632401516981005e-17
-1.7803802132079528e-16
-8.103471497581632e-16
-1.0997179314270727e-16
1.098356964221666e-15
4.4300319312528704e-17
-4.6797310317868896e-17
-3.421435829505748e-17
3.671134930039767e-17
-8.44741569005803e-17
-2.405497990269426e-16
1.7378237377591157e-16
1.5124158215161132e-16
1.3273343308639408e-17
-7.749727908519047e-17
2.2248203204712352e-17
4.1975732571838713e-17
3.4452167485597583e-17
-3.392561359244625e-17
-6.095869501626932e-18
5.569315608475607e-18
-2.0260800560809494e-17
-1.983678382900505e-17
2.3247291278872756e-17
1.6850293110941785e-17
-5.754700751300143e-17
-1.241700507344839e-16
6.125683542933793e-17
1.204602228181474e-16
-1.4133847656105908e-15
1.809832265085021e-15
-9.01925346306812e-16
5.054778468323795e-16
-8.53545607097962e-18
-7.609531201940291e-17
2.333046139501737e-17
6.130030669536515e-17
-1.418353038474233e-17
-8.14980958549722e-17
-1.1802874054214793e-17
1.0748450029392928e-16
-1.50979326868137e-17
-1.483259267510751e-17
-1.533788238090935e-17
4.5268407742830563e-17
-4.39181446168279e-18
-4.282084083047768e-18
-4.491425113321553e-18
1.3165323658052112e-17
-1.3189372816960553e-16
2.2987912059913104e-16
-8.942998654485287e-17
-8.555405884672674e-18
-8.538855246482389e-17
2.5441869074589874e-16
-1.108537424324729e-16
-5.817639584860187e-17
4.885075503592848e-17
-1.3250871938848912e-16
6.663171575652871e-17
1.7026248596031934e-17
-1.2019351618539473e-17
2.3493437135503245e-16
-1.3565716439442155e-16
-8.725785534207148e-17
1.0440462545285027e-16
-5.563267052083892e-17
-2.8780619967172005e-17
-1.9991334964839347e-17
-7.592085902377523e-17
1.733690358701816e-16
-6.3379323117311e-17
-3.4068853729095354e-17
2.3706258803336155e-17
-2.253073344287923e-16
2.878428140398074e-19
2.0131323281141647e-16
-2.365478634729482e-17
-2.3063606143446157e-17
-9.560297035324917e-18
5.627868952606589e-17
8.221715476376897e-17
1.2608069314825976e-17
-5.563262008303212e-17
-3.9192603995562824e-17
-1.2240331402547622e-18
-2.3917486042862794e-17
4.679423880173146e-18
2.0462095302944407e-17
0.0
0.0
0.0
0.0
-3.905650308623517e-18
-2.633436742211513e-17
1.7559835523516856e-18
2.848403417838697e-17
-2.7156267381578556e-16
7.469083373280542e-16
-4.7075891011644295e-16
-4.586753395826515e-18
-1.0479362010568972e-17
-1.0217508470811947e-17
3.913746264219617e-18
1.6783124217161305e-17
6.934465698831864e-18
-1.5706128978905156e-17
1.2787534741415901e-17
-4.015871461342614e-18
0.0
0.0
0.0
0.0
-1.0876083434462402e-16
2.077846439783606e-16
-3.57891739343804e-16
2.588679297100675e-16
-4.94388152595062e-17
-4.8520869165793035e-17
2.2885020966638146e-17
7.507466345866107e-17
-5.384396431117167e-18
-4.34557843995801e-16
3.1788926604987805e-17
4.0815331382193044e-16
0.0
0.0
0.0
0.0
6.15571907794246e-18
-1.6555855106470432e-17
-1.7187361587675728e-17
2.75874976162037e-17
-1.767634440156293e-16
-1.0591074898470575e-16
-9.055616749129932e-17
3.732303604916343e-16
1.547283480197813e-17
-3.0020686136917213e-17
-1.886665339164687e-18
1.6434516674103764e-17
-1.8451271262285293e-16
8.982136711454292e-17
1.1261017485434234e-16
-1.791882934603245e-17
-2.614194971395711e-16
3.5159243760017983e-16
-3.35867343408335e-16
2.4569440294772614e-16
-1.997423099325485e-16
5.03015774973837e-16
-1.9845824628807688e-16
-1.0481521875321175e-16
-2.1959607401637215e-18
-2.1409740609113497e-18
-2.2456536218349784e-18
6.5825884229100504e-18
0.0
0.0
0.0
0.0
0.0
0.0
0.0
0.0
-2.26222174032699e-17
-2.2070972049226982e-17
2.077040567833095e-17
2.3922783774165934e-17
2.000151205691549e-17
-7.058578721401487e-17
5.806935088759705e-17
-7.48507573049769e-18
-1.98327412206369e-16
-1.9492278043280157e-16
3.6694473937734776e-17
3.5655571870143615e-16
-2.230415978181533e-16
4.114001249281338e-16
-5.750610128883383e-17
-1.3085242582114637e-16
-1.8623351113936475e-16
2.905241755798894e-16
-9.750703975305415e-17
-6.783624687470618e-18
-5.851489726287786e-18
-5.086352276624587e-17
-9.01731104911184e-18
6.57323235416455e-17
-1.5152451059613307e-17
-3.747674738544187e-17
3.430836629050979e-17
1.832083215454539e-17
0.0
0.0
0.0
0.0
9.986975216207696e-19
-2.155578102577348e-17
2.1406193700947896e-17
-8.491101967951856e-19
1.3974448235701616e-16
-1.1231923832196726e-16
-1.1099482864500488e-16
8.356958460995593e-17
1.469416926909665e-17
-1.8845548282525412e-16
-2.0964075173662514e-17
1.9472538872982003e-16
-9.615588930343481e-18
-3.225373223247715e-17
-3.762180896771402e-18
4.5631502059592037e-17
2.0151169170950468e-17
-1.3810702025450648e-16
3.166526922113201e-17
8.629058186242403e-17
9.939827121405048e-18
-3.543000892608983e-17
2.1727698584904807e-17
3.762483219779973e-18
-5.210904148914443e-16
7.684208322710594e-16
-8.975838210089742e-16
6.502534036293566e-16
4.628052099331737e-18
-1.8114727418375307e-17
-4.05540615491533e-18
1.7542081473958904e-17
6.811875945177698e-17
-4.630696279674987e-17
-5.844126069778048e-17
3.662946404275345e-17
1.2351655940083935e-15
-5.980288200714177e-16
-3.554699824042006e-16
-2.816667915327752e-16
1.5405677417504119e-16
-1.4328308986267694e-16
-7.035744317171794e-17
5.958375885935367e-17
3.5694310538895137e-17
-1.2301488026562407e-16
4.761478307530417e-17
3.970578665142479e-17
-2.1145110571127803e-17
1.3607052708884324e-16
-8.62197087647038e-17
-2.8705707753011566e-17
0.0
0.0
0.0
0.0
-2.8262254900381834e-16
3.5442647002806754e-16
-1.7799639817968166e-16
1.061924771554325e-16
7.79378565578721e-17
-1.268166716496334e-16
2.9104593772413837e-17
1.9774221319347483e-17
-6.500228950097193e-17
1.1645233270347518e-16
-7.887153230762569e-17
2.7421489105122396e-17
-8.75980213675026e-17
2.5227285294634473e-16
-1.131192297311722e-16
-5.15556018476699e-17
1.4671771361308729e-16
-1.719996912372677e-16
4.005603152174867e-17
-1.477405389756831e-17
4.674787551461521e-16
2.2233079892063474e-15
-1.5637155980607063e-15
-1.1270711462918e-15
-1.7802525240703232e-16
7.263333716255931e-16
-3.0724449179208896e-16
-2.410636274264721e-16
2.6823422465232267e-16
-4.814512180044499e-16
1.5647106189672357e-16
5.674593145540415e-17
1.4365175955515084e-16
-2.435328277325531e-16
2.978276010670009e-17
7.009830807070203e-17
1.7779674112147817e-17
-2.7813938188244096e-17
5.110070150652431e-19
9.523257061031036e-18
-1.7174790555609472e-17
-8.498131915721065e-17
-1.4344232777575434e-17
1.1650034249039558e-16
-1.491471803168285e-16
3.938697392560962e-16
-1.9351567376347352e-16
-5.1206885175794144e-17
1.2738001689123334e-16
-1.2315724031988627e-16
2.920511178616028e-18
-7.143287749963095e-18
-3.4283347753386314e-17
-1.6879007626406032e-16
1.1667275071871616e-16
8.640067329873055e-17
-8.837553202733329e-17
1.385321734168074e-16
-1.1685596015215191e-17
-3.84710453742589e-17
-1.350237316697572e-16
3.635351575176103e-16
-1.6844734876407396e-16
-6.006407708377934e-17
-2.9077185546048513e-16
5.198200834699896e-16
-4.6939634961165005e-16
2.4034812160214563e-16
-1.6348132036441016e-17
-6.129261171542582e-17
-1.957489590839835e-17
9.72156396602652e-17
0.0
0.0
0.0
0.0
-1.5643506091887588e-14
1.0516680691578964e-14
1.1207504322698557e-14
-6.0806789223897605e-15
-3.490886205439337e-17
-5.722098042283503e-17
4.380497262960368e-17
4.8324869847624725e-17
1.4796350344092282e-17
-8.073049152350003e-18
-8.403987683278852e-18
1.680686491536567e-18
8.691937895836798e-18
-1.4222155368245663e-17
-1.4466307510594704e-17
1.9996524983003568e-17
-3.141308669732831e-17
-5.392505158226331e-17
7.674375011829716e-17
8.594388161294463e-18
-7.037168281073763e-17
-6.92929311481174e-17
1.334836603020114e-16
6.180953656843575e-18
-3.5157251108761303e-16
1.721686599055321e-16
2.2135180853079913e-16
-4.194795734871829e-17
1.1123581686547846e-17
-1.173981097513454e-17
2.548520949832849e-18
-1.932291661246157e-18
-1.2301928825175879e-17
-1.2502847128861845e-16
1.3358073779608906e-16
3.749662317705241e-18
-7.441545645998551e-18
-7.392498094822077e-18
2.1775886272075475e-17
-6.941842531254847e-18
0.0
0.0
0.0
0.0
-2.0380747130661394e-17
-4.271691043797549e-17
5.835390850232378e-17
4.7437490663130956e-18
-1.3933348245213907e-16
1.5594188525032828e-16
-2.2090712733904093e-17
5.482309935715027e-18
0.0
0.0
0.0
0.0
0.0
0.0
0.0
0.0
0.0
0.0
0.0
0.0
0.0
0.0
0.0
0.0
0.0
0.0
0.0
0.0
0.0
0.0
0.0
0.0
0.0
0.0
0.0
0.0
0.0
0.0
0.0
0.0
2.4957785261766446e-17
-4.317422484170004e-17
2.807765220797753e-17
-9.861212628043941e-18
-1.0263299468401747e-16
-2.682445808585222e-16
5.434525647746263e-16
-1.7257498923208636e-16
6.394440205256932e-17
3.858807172748729e-17
-9.929395055986149e-17
-3.238523220195038e-18
-5.538304648885747e-16
3.4599776439150027e-16
2.70877677099314e-16
-6.304497660224089e-17
2.0472861891904968e-17
-5.693365982941179e-16
4.1982455046994634e-16
1.2903918593226657e-16
1.6913675472632636e-17
-5.9762189571525205e-18
-6.268359125407831e-18
-4.669097390072283e-18
-2.6368063172074997e-15
1.7194848485402184e-15
1.121902269005278e-15
-2.0458080033800419e-16
-7.104698062427725e-17
4.707890364804001e-16
-1.6888742881913246e-16
-2.3085462703699056e-16
-2.532727750345964e-17
-2.516451360519129e-16
1.688128775326116e-16
1.0815953602276088e-16
-1.1824337986259414e-15
1.782385190992015e-15
3.609179848645383e-16
-9.608693772306132e-16
-1.966414548318531e-16
1.094695920016208e-15
-7.475390267522976e-16
-1.505154384320627e-16
-7.869903498176974e-17
1.482052344398184e-16
4.1878991434429386e-17
-1.1138519089247806e-16
-2.3610235386946285e-15
1.523578382199697e-15
-3.529415497739953e-16
1.1903867062689297e-15
-4.076735838635103e-15
4.2158683414361946e-15
-2.441233439839491e-16
1.0499084118286252e-16
-2.8158370703831724e-15
2.339551182499174e-15
7.001865402938801e-18
4.692840224810554e-16
0.0
0.0
0.0
0.0
-1.6264867493200661e-15
5.782302907477988e-16
3.358950928824184e-16
7.12361365689848e-16
1.1217031977536032e-16
-2.962877168330377e-16
1.4522569555008664e-16
3.88917015075908e-17
3.7309638351215715e-16
-2.2618135889361806e-16
2.2904449239686773e-16
-3.7595951701540584e-16
-1.3537272012145753e-15
-1.9177854742150005e-16
4.1891905035271547e-16
1.1265866982833573e-15
1.0203707743129315e-16
-8.068145014211759e-17
4.005181253498879e-18
-2.5360808542674467e-17
-3.1354888278479273e-16
-1.79066467559539e-16
-2.71490868439044e-16
7.641062187833739e-16
4.3620663394685324e-16
-6.101464424442503e-16
8.078040583704892e-17
9.315940266034806e-17
4.648771217292329e-19
-2.2474612581916175e-16
1.895909547349209e-16
3.469029396251165e-17
-4.776953086417116e-16
5.468021552690167e-16
3.311302240301457e-16
-4.0023707065745064e-16
2.090663143243646e-16
-2.1645117377884587e-17
-1.4878703684868541e-16
-3.863416009779462e-17
1.0219991423778024e-16
-2.154417027799084e-16
3.8452991850508536e-17
7.47887966916197e-17
8.974008483009926e-16
-6.594973026487625e-16
-7.902631568074399e-16
5.523596111552091e-16
1.548324201850164e-15
-1.325882349059593e-15
9.127924571043994e-16
-1.135234309894974e-15
5.466857194042259e-18
-4.936627816059106e-16
-3.4359752786191746e-16
8.317934522737864e-16
-3.119033646654261e-16
5.933409881200047e-16
-4.85792210153953e-16
2.0435458669937473e-16
4.2425181563721937e-16
-1.5354596154074849e-15
-5.038515478665898e-16
1.6150593476368531e-15
-7.455063548127011e-18
-2.993348303108841e-17
1.2883251681867825e-17
2.4505294897347598e-17
9.821588196501074e-17
-6.296395580488255e-17
-1.3234208788619999e-16
9.709016172607179e-17
2.3662404524224692e-17
-2.1992830707318057e-17
-8.182760636670268e-18
6.513186819763634e-18
3.480415864819962e-17
-4.1741412626166213e-16
1.8061012712945432e-16
2.0199984048400818e-16
-2.0069753741950787e-16
2.0815747828225442e-16
-9.443265596822519e-17
8.697271510547847e-17
4.430481813959981e-16
-7.248362917790184e-16
-4.766283655752554e-16
7.584164759582752e-16
2.479201838302067e-16
-2.0889006841696205e-16
2.851048537507427e-18
-4.1881163950752123e-17
1.4756841910486138e-16
-1.7176454454685833e-16
-1.0483760043162804e-16
1.29033725873625e-16
8.212348885293194e-17
1.4726964632540553e-16
-1.6300616130398304e-16
-6.638697387435441e-17
5.528068451019332e-19
-2.2013733707683534e-17
6.3394366467694275e-18
1.512149021581217e-17
1.389047574792347e-16
-1.7994202508684592e-16
-2.6160329181984917e-17
6.719759678959622e-17
-3.1280501225357012e-18
-9.323353943702566e-17
1.22287741661507e-16
-2.5926152101945668e-17
3.541284085816413e-16
5.259337232737773e-17
-2.9340963309317034e-16
-1.1331214781584859e-16
-8.563895646303539e-17
9.500399191810303e-17
-2.560516959713811e-17
1.6240134142070554e-17
1.3642566005750241e-17
-3.194751502758906e-17
-3.6297438497704525e-18
2.1934692871609273e-17
-7.147582252433397e-17
3.577504363549258e-16
-1.4458248809708218e-16
-1.4169212573350964e-16
2.4812985163834018e-17
-1.1092682547571218e-16
5.984002188336779e-17
2.627381842851039e-17
1.2654271355733811e-16
-1.0233722430527588e-16
-2.8137445480868953e-17
3.931956228806712e-18
4.157450891818597e-17
1.5270308231055977e-16
-2.4116817592486375e-16
4.6890584696117783e-17
1.255467493210931e-17
-1.0240428598807591e-17
-1.0712952911044856e-17
8.398706577743135e-18
-1.3940238686153274e-16
3.8034101511193197e-16
-2.1724394050459403e-16
-2.369468774580528e-17
-1.0392855541473456e-16
2.3625256912382114e-16
-1.0047156233530095e-16
-3.185245137378566e-17
3.2988585388418187e-16
-3.085580696723549e-16
-4.3461382537139983e-17
2.2133598325313038e-17
6.792871659695425e-17
-2.490981372459638e-16
7.677978060440438e-17
1.0438964004460516e-16
1.0584638179553208e-18
-4.405719262510523e-17
1.2616568280878194e-17
3.038216052627172e-17
-2.380743999616118e-19
3.8140591604614633e-16
-1.7658600129225628e-16
-2.0458184035392836e-16
1.7920283914634232e-16
-3.6582897991496475e-16
8.710758054578728e-17
9.951856022283512e-17
-1.249159778613318e-16
-1.0065240927230604e-16
3.2703925159950943e-17
1.928644619736868e-16
0.0
0.0
0.0
0.0
-2.2763768240685027e-17
-1.1276438760850117e-16
1.4777377015712282e-17
1.207507788334739e-16
-1.7111119232106938e-16
2.3646746662392035e-16
-1.368358445342201e-16
7.147957023136913e-17
6.6502795836189824e-18
-6.154019308854438e-17
-4.8694896799494365e-17
1.0358481030441977e-16
1.1099862341299287e-16
-2.9997684956256876e-16
-8.372851520581687e-17
2.7270674135539265e-16
-9.200623913465312e-17
-7.046259750620256e-17
-1.9524942264141754e-16
3.577182592822734e-16
7.374175095732323e-16
-6.306312251029903e-16
9.181900141841337e-17
-1.9860528588865548e-16
-1.4893003839399763e-16
4.592161782002083e-16
-2.0831723667892177e-16
-1.0196890312728891e-16
1.287735280999542e-18
-2.1389224798338145e-17
2.180535383074312e-17
-1.7038643134045192e-18
-8.557240624299729e-15
5.499005482996861e-15
7.577092507022884e-15
-4.5188573657199846e-15
-1.2108582201841873e-16
2.8670000268734214e-16
-1.8940598149634922e-16
2.3791800827425942e-17
-5.236931048613786e-16
2.1216557884155598e-17
-1.148159359784685e-16
6.172924829556918e-16
-3.6834744627428994e-16
9.884286023309053e-16
-3.801615444223605e-16
-2.3991961163425477e-16
3.2126180906490804e-16
-1.3641976218373353e-16
-1.783823882828709e-16
-6.4596585983034486e-18
2.0450385510777355e-16
4.0078186616220376e-16
7.108600376944117e-18
-6.123943216469336e-16
5.258193954023665e-16
-8.181646688910089e-16
3.805540117395447e-17
2.5428987231468746e-16
6.709491679706617e-16
1.1009098741544468e-15
-5.265078821858781e-16
-1.2453511599392382e-15
2.0176536416558651e-16
-2.535020419187309e-16
-1.54396530675501e-17
6.717633082069443e-17
-8.870492070153738e-16
-1.7142045177179614e-15
-1.9989511089213523e-15
4.6002048336546845e-15
4.734222683109591e-18
-6.299076564620729e-17
5.137782745423797e-17
6.878715508859716e-18
3.678008579677912e-15
1.486472468447959e-15
-1.4303875292979647e-17
-5.150177172832897e-15
1.787697460736493e-16
-2.0900924952149175e-16
-2.6334564364008794e-17
5.657406781185135e-17
8.651940691240929e-19
-2.163177839518089e-17
2.1218850471697828e-17
-4.522661456410284e-19
-1.6730061490790346e-16
1.453942836678026e-17
-3.3442559470396594e-16
4.871867812450894e-16
-7.619230139036292e-16
-9.088053790099684e-16
4.28437169064049e-16
1.2422912238495472e-15
-1.0328067225742522e-15
-2.0845601316968403e-15
7.515810390298937e-16
2.365785815241195e-15
-1.0789505529346249e-18
-2.3631308766031416e-17
1.93263831234694e-17
5.383876195496632e-18
-5.677548216891665e-16
9.5330256385995e-19
-4.1185777449394855e-16
9.786592936192547e-16
1.8575476793054173e-16
-3.611602342387406e-16
-9.481782183262326e-17
2.702232881408222e-16
3.787334346459469e-16
-5.156586588321342e-16
-2.071349305932917e-16
3.4406015477947836e-16
-2.248717269006276e-16
-4.710202528426507e-16
-1.1918825472318177e-16
8.1508023446646e-16
-3.70307723737997e-17
-8.475155193553995e-17
-7.35996772452445e-17
1.9538200155458412e-16
-1.8560955313471066e-16
-2.303566944882225e-16
-6.392375234399057e-17
4.798899999669236e-16
1.0586922700576215e-16
-2.579270038785215e-16
-3.887683913787908e-18
1.5594546078654723e-16
-1.3981043333864128e-16
2.2375317710378466e-16
-2.5804289724973666e-17
-5.813845404016974e-17
-1.0035275447138182e-16
7.850467519101028e-17
-3.8581858792453085e-16
4.0766666720490255e-16
1.2643254727319615e-16
3.293705145703005e-17
-9.220841127936436e-17
-6.716118745086188e-17
-8.640289199323285e-17
2.0669297107190843e-16
-8.42160534570589e-17
-3.6074025621616664e-17
-2.4233223691564044e-17
-2.951450924487063e-16
-8.635559956290973e-17
4.0573391570318013e-16
4.684873036110832e-17
-6.686044374334692e-17
3.2700742486820164e-17
-1.268902910458155e-17
-2.074700045780514e-16
3.3731825885705024e-16
-7.788370269041006e-17
-5.196455158858889e-17
-1.0868982044139823e-16
3.657594505950694e-16
-1.4954231848531102e-16
-1.0752731166836009e-16
-2.37035654737333e-16
8.9171533840807e-16
-3.7905922547522996e-16
-2.756204581955069e-16
-6.218391870278532e-16
6.482670466160227e-16
-5.365674802104817e-16
5.101396206223126e-16
-9.134082968837475e-16
-3.1369602230732124e-16
-6.100127910045072e-16
1.8371171101955727e-15
3.5081878308097246e-16
-1.3603585313092168e-15
-1.4561757805683801e-15
2.465715528796611e-15
7.230404987052808e-17
2.681406317934583e-16
-3.9604591883413235e-16
5.560123717014603e-17
3.2287278241342646e-16
-1.450211870873926e-15
-5.267532760635704e-16
1.6540923645240656e-15
-4.289739099447844e-17
1.149141580333588e-16
-3.5348892704315664e-17
-3.6667874334564636e-17
-1.2177318235262636e-16
8.161785901535866e-17
-6.768457718303538e-17
1.0783990052030318e-16
2.455911438781158e-16
-9.936314289401125e-17
-9.66617062431998e-17
-4.95662947409047e-17
0.0
0.0
0.0
0.0
3.602799157869294e-17
-7.789178229486785e-17
-7.200556586454712e-18
4.9064347302629623e-17
-4.619735142294319e-17
5.526619563399412e-16
-5.665516044539333e-16
6.008699953693615e-17
-5.5455358076711565e-17
-5.481173778559465e-17
2.4882344609777593e-18
1.0777886140132846e-16
-6.74302513324427e-17
-6.871524112415058e-17
-1.8344582585070585e-17
1.544900750416639e-16
3.4406865318094514e-17
-2.1484558312788934e-16
6.973701986725555e-17
1.1070169794253918e-16
-1.7254217480458263e-16
3.9272980492318054e-16
-1.1999300846955381e-16
-1.001946216490442e-16
-1.6565687694132726e-16
-2.9907835865815995e-16
-6.618051902615314e-17
5.309157546256401e-16
-1.1010946567353902e-16
-3.3444034342297905e-16
4.897416944626317e-17
3.9557563965025497e-16
7.522767677495135e-17
-1.0711814763019341e-16
6.124540066972119e-18
2.576593078826996e-17
-4.4536044741489944e-17
-2.242556625828681e-16
1.5656039645658894e-17
2.531356676786993e-16
2.4950207991893537e-17
-1.1117668712274746e-16
-2.7450635931561077e-17
1.1367711506241498e-16
-1.739598196909087e-16
1.4505811398270347e-16
-1.3672159711916085e-16
1.6562330282736617e-16
4.3725416163877285e-18
-1.8259917542448645e-17
-4.4116258428603884e-18
1.8299001768921305e-17
-1.2343950259818925e-16
1.0405024465781552e-16
-3.3887711509934006e-18
2.277802909136715e-17
-3.512240799301136e-18
-2.610716648467475e-17
2.300725254047995e-18
2.7318682029927896e-17
-5.3019737539186395e-17
-2.908587138514854e-17
1.9267011452358312e-16
-1.1056450559924815e-16
8.956544433772398e-17
-7.01968148716241e-17
2.928572393711265e-17
-4.865435340321257e-17
-1.136566836553743e-16
4.0681700626348417e-16
-2.254290519684865e-16
-6.77312706396233e-17
1.3367584908484144e-17
-1.4499378515246344e-16
1.2738984965279033e-16
4.236350591188931e-18
-4.391770687199479e-18
-4.2820525254912195e-18
-4.491349957352459e-18
1.316517317004316e-17
-2.184997301342989e-17
-9.10457105146378e-17
4.477397821713925e-17
6.812170531092838e-17
2.0054312230550125e-16
-1.645987783954107e-16
-8.357334680597705e-17
4.7629002895886466e-17
-1.4476083599249303e-17
-1.2728326951693461e-16
5.832795324831098e-17
8.343139986787295e-17
-3.065478966401119e-15
5.2445864827382555e-15
-1.305436572313012e-15
-8.736709440241375e-16
-1.1112672233851886e-17
-3.339228456566955e-17
3.830606011279255e-17
6.198896686728896e-18
3.785592824411239e-17
-2.1137010585636484e-16
1.1704124274440533e-16
5.647293486784712e-17
2.5888349042465184e-17
-1.997084051665426e-16
1.4221030407004296e-16
3.1609752054034514e-17
5.796213938181781e-17
-5.600706228981677e-17
-1.448689090383586e-17
1.2531813811834838e-17
-4.7018940837969485e-17
-4.623441560563315e-17
2.5423632119347855e-17
6.782972432425476e-17
4.124493430754479e-17
-4.9711606635754054e-17
6.49311005386788e-18
1.9735622743413656e-18
3.317730601395122e-17
-5.786346347524013e-17
-1.4963203695629075e-18
2.6182477830851806e-17
-3.2254970173467683e-17
-5.413065099605527e-17
3.142787639394191e-17
5.4957744775581044e-17
3.2767451418378857e-18
-1.7772393294885627e-16
1.0852129348830892e-16
6.592589431870947e-17
-2.95889306294248e-17
-9.755559305390429e-17
9.043474046156123e-17
3.6709783221767865e-17
1.118590453262984e-16
-1.1618406249815947e-16
2.5573886601876672e-17
-2.1248869430015622e-17
3.0724829789155047e-17
-1.0529632429144284e-16
3.674728044376763e-17
3.7824214058520157e-17
4.714004195786259e-15
-2.9277930664242135e-15
-4.540024402187596e-16
-1.3322086891432894e-15
1.0586796984695174e-16
-1.2226976807516966e-16
1.9683109942772278e-17
-3.28131171455436e-18
1.4649026395313202e-16
-1.0945701433383378e-15
-5.84356304667229e-16
1.5324361840524335e-15
8.707341557402314e-16
-1.3078101365332413e-15
-1.4124696517444179e-15
1.8495456325374195e-15
7.73390346212449e-17
-1.957752937357633e-16
-7.057326601866705e-17
1.8900952513318543e-16
-1.5686233557605756e-16
-6.518240796208431e-16
-3.0894614475890185e-17
8.39581029672791e-16
-3.2448081091391503e-18
-2.595693923810746e-17
2.675583850339578e-18
2.652616349690703e-17
-6.362519841234866e-18
-6.295996515697793e-18
-6.4221153260043306e-18
1.908063168293699e-17
5.579494918334029e-17
-1.7156075178333753e-16
1.2795761302031138e-17
1.029700412979661e-16
-8.209771242980327e-18
-8.035152549020713e-18
6.2628583788857125e-18
9.982065413115326e-18
0.0
0.0
0.0
0.0
2.9910751853802934e-17
-6.111254072985991e-17
2.4486126362527618e-17
6.715662513529383e-18
-6.25337907453232e-16
-5.726960981029092e-16
9.6306403679647e-16
2.3496996875967e-16
-9.469346007791459e-17
-1.3830713115266112e-16
1.3497004336946224e-16
9.803054786111344e-17
3.382744015597529e-17
-1.1952323542512313e-17
-1.2536494214961519e-17
-9.338622398501467e-18
5.238879314030198e-18
-1.735940897944862e-17
2.568431876150041e-17
-1.3563789096081993e-17
8.887048057878268e-17
-1.1626777792719514e-16
-3.2766148558228583e-17
6.016344590664108e-17
-6.106269816174993e-17
2.104795390600313e-16
-1.1254584161129594e-16
-3.6870999286985446e-17
2.8723297792408126e-16
7.553845128301209e-17
-1.8885498077385632e-16
-1.7391644843323717e-16
-2.9070672619099305e-16
6.39058721111914e-16
-2.8598092079181242e-16
-6.237107412910849e-17
2.714357405092224e-17
-1.317122791161449e-16
8.308780894721924e-17
2.148089611800342e-17
-2.1958912130899683e-18
-2.1410217729348237e-18
-2.245672712181705e-18
6.582585698206496e-18
9.393017344776662e-19
-2.159078245950582e-17
2.1323355440657545e-17
-6.7187471562939205e-19
1.4621088324326488e-17
1.7189034185225996e-16
-9.441012190109879e-17
-9.210130827548756e-17
5.271376922974175e-19
-8.969852271577886e-17
3.82671884861326e-17
5.0904196537348854e-17
3.1713680926380326e-17
-5.917860539773488e-17
2.616461376400962e-17
1.3003107073449247e-18
2.2773086331699043e-17
1.798963594293308e-16
-1.0075763736433461e-16
-1.0191180839669512e-16
6.833482641818894e-16
-3.6892971045796434e-16
-1.3842370028587907e-17
-3.005761836953372e-16
-2.108222741597605e-17
-2.0709802422776594e-17
-6.788189889021719e-18
4.8580219727774365e-17
1.3022168849613962e-17
-9.770536937905684e-18
4.382709025322352e-18
-7.63434093703063e-18
-8.204834499628897e-18
-8.03228161904254e-18
6.2695312198200825e-18
9.967584898851355e-18
3.01955298259123e-16
-1.5587661290513325e-16
-8.449293914807601e-17
-6.158574620591384e-17
1.956035135379686e-16
-7.253495447448351e-16
-8.808842159190335e-16
1.4106302471258965e-15
-2.3715251690225915e-16
1.462014839022192e-16
-2.8997762553737024e-16
3.8092865853741067e-16
2.8363010303381095e-17
-1.3047929667145203e-16
-3.4842062638174364e-18
1.0560049263188839e-16
-3.7578001907422613e-16
1.990886758686205e-18
-8.171306691696423e-16
1.1909198014851796e-15
-3.7219567764345855e-17
3.0301135183566804e-17
-9.430273482133374e-17
1.0122116740211261e-16
-9.443423214702371e-17
-1.3186609624994573e-15
7.8297390943913e-17
1.3347978037025665e-15
3.176114182631394e-16
-4.81698191805636e-16
-1.907865868581905e-16
3.5487336040068732e-16
-1.1048613345911244e-15
-3.199754230626227e-16
1.2082776237245127e-15
2.1655913392923223e-16
-4.667784434918423e-16
-1.637725769760487e-15
-1.6406244694606922e-16
2.2685666601983925e-15
-3.370100710798999e-16
-2.4851706393468583e-16
1.6646369035004112e-15
-1.0791097684858292e-15
-7.371208189075828e-16
1.1140225855548242e-15
-6.428030466950853e-16
2.659012800478434e-16
-6.490889635322304e-18
-6.369066226505607e-18
-6.60082490085351e-18
1.946078076268142e-17
-2.0213209435727093e-17
-1.7820870097796078e-16
-2.3566988272524354e-17
2.2198889868621222e-16
3.404848918229675e-17
-3.435485883001698e-17
-2.110697243336712e-17
2.141334208108735e-17
3.568434123152969e-17
-7.767237517203422e-17
2.1198964409972962e-17
2.078906953053154e-17
1.1806083568924588e-16
-4.264783786611503e-16
2.5525652360207986e-17
2.8289189061169655e-16
1.1939712507345634e-16
-1.1168379827590653e-16
-1.3830188163171843e-16
1.3058855483416882e-16
-1.480170344680737e-16
-1.7003978873397171e-16
2.2245328181341026e-17
2.958114950207044e-16
-4.298724136565938e-16
-2.4649823916192068e-17
4.339197824294018e-16
2.060245514338436e-17
-9.710980518720392e-17
-1.4056183557970023e-16
1.324042955796253e-16
1.052673451872789e-16
-7.864582440021581e-17
1.916734684538751e-16
-1.9815645741187536e-16
8.51288133582159e-17
-7.139515330116787e-17
2.1936060802575345e-16
-4.3946524072010984e-16
2.914997859955247e-16
-2.196220088173494e-18
-2.1407934177413453e-18
-2.245578611298297e-18
6.582592117213137e-18
1.0737964817649907e-16
-2.33649381757225e-16
6.280694471499463e-18
1.1998903910922655e-16
3.2159323028953185e-16
-5.437637563102016e-16
6.578092204566431e-17
1.563896039750055e-16
7.93862698934478e-18
-3.7949147545843806e-17
-9.284381765983498e-17
1.2285433821633402e-16
-2.576595155002999e-16
-2.868411701373171e-17
2.5989622256825224e-17
2.603540102572063e-16
-4.099602931099735e-17
-6.30805750458499e-17
-6.3812438247488935e-18
1.1045784818159612e-16
8.07319891233393e-18
-8.244728333058154e-17
2.189824674796137e-18
7.218425974345147e-17
-7.134284722946331e-18
-7.44841586115478e-17
8.306059303408452e-17
-1.4421496995904417e-18
-6.420655007963467e-18
-4.822311172899143e-16
-8.397932218100853e-17
5.726310944788861e-16
-7.589075587163036e-17
-9.702349761456628e-17
2.038110763249791e-17
1.5253314585369868e-16
4.296883270520434e-17
-7.72836761200379e-16
2.0321472701429737e-17
7.095464557937447e-16
1.0676029862542788e-17
-5.754105580286822e-17
1.3876635968588378e-17
3.298838997173705e-17
-5.716968977484534e-17
-5.606772412499504e-17
4.4246596847024996e-17
6.89908170528154e-17
-1.406822125771913e-17
1.6610247351557549e-16
-1.4381636931567594e-16
-8.217882942180522e-18
1.8430081636955055e-16
-2.489465986165405e-16
-2.3554731784991828e-17
8.820051403198192e-17
1.437217487152624e-17
-1.214476407961432e-16
-2.3678400866745304e-17
1.307538667913623e-16
-2.1766809052266416e-18
-2.130747581823299e-18
-2.21821218611121e-18
6.52564067316115e-18
-2.2216113108468664e-16
1.1770202936727488e-16
-9.563751184863956e-18
1.1402285290227578e-16
8.197958287859274e-17
-5.526965758313998e-17
-1.3296933522230477e-17
-1.341299177322227e-17
-3.2448103651202005e-17
-1.902081033239887e-16
5.177165558097433e-17
1.7088455139421632e-16
-1.6803396929025126e-16
8.30751031699052e-17
3.800053127009672e-18
8.115881299333649e-17
-1.7253016149171165e-16
3.374829538638687e-17
-7.718132499095821e-17
2.1596319109628314e-16
-7.948472079089593e-16
-1.2359963941840203e-15
1.1499297719673475e-15
8.809138301256299e-16
-3.2391601489022717e-16
1.5280329057631332e-16
-7.418955245406733e-17
2.4530227676798135e-16
-2.1271493066305505e-16
-9.695675160230422e-17
-7.935009909467057e-17
3.8902178136003e-16
6.725008975451879e-17
-9.221876585519256e-17
-2.2555056892646094e-17
4.752373299331985e-17
-1.6149997206617839e-16
-4.960290254992856e-18
-1.0088642531091504e-16
2.673466876320862e-16
-1.7888046569933173e-16
1.6305676822221382e-16
-1.421454767899596e-18
1.7245152245017482e-17
-1.3804072202518458e-17
-1.3486681109526452e-17
2.980118707753098e-17
-2.5104337654860647e-18
7.03835433385177e-17
-6.660634074640774e-17
1.8763604104798543e-17
-2.25408066969085e-17
1.5563264296745545e-17
-2.828126230127503e-16
-1.5997724689619713e-16
4.272266056122019e-16
3.358942594143454e-17
-6.405930120587758e-17
-1.0409413449462114e-16
1.34564009759064e-16
1.6354308804780465e-17
-7.417125452487036e-17
1.0475736616479789e-17
4.734120910361011e-17
-2.0854615066194996e-16
3.3410187221801773e-16
-1.9404344971406066e-16
6.848772815799277e-17
3.958990606908906e-16
-2.910491836399115e-16
-7.587045974121194e-17
-2.8979417309767085e-17
8.567319110600181e-16
-1.332496959831326e-16
-2.0270227348360984e-16
-5.207799415932761e-16
1.0409114141095286e-15
-1.2141523715407359e-15
9.657431894100249e-17
7.666663849020511e-17
1.4398175170762013e-15
-9.438500194782736e-16
-6.116334916019924e-16
1.1566599400406332e-16
2.2322837471421668e-16
1.5581186052214622e-17
-9.697403128769015e-17
-1.418355294787413e-16
0.0
0.0
0.0
0.0
8.050866920589754e-17
-3.2823850588158525e-16
5.931529839036279e-17
1.884145382853251e-16
-7.190554431588377e-17
-7.028949157867698e-17
5.830531572664982e-17
8.388972016791092e-17
-2.1898325946973525e-17
-1.567140529552705e-16
4.155405594169292e-17
1.3705832296055113e-16
-9.217982551120346e-17
1.80003869209361e-16
-1.0035254603369296e-16
1.2528502335535382e-17
-1.6512141123698943e-17
-6.146294517597272e-17
3.879034011208499e-17
3.918474618758669e-17
-4.3917733572896864e-18
-4.282050560785846e-18
-4.491349033628215e-18
1.316517295170375e-17
-1.366012098105825e-16
-1.345498377075474e-16
5.575035756827694e-17
2.1540068994985286e-16
1.741193300222456e-17
-5.042495092173402e-17
6.415596362522348e-17
-3.1142945705714034e-17
1.4717864517088333e-17
-8.117179535184816e-18
-8.513889321805707e-18
1.9132043399021916e-18
-1.2597862189302627e-16
1.923037566827611e-16
-2.96732196635383e-19
-6.602840259309949e-17
-9.520617490069338e-17
2.206469675736912e-16
-8.43477430499875e-17
-4.1093049623010324e-17
-6.458399805168688e-18
-6.3467034359830456e-18
-6.557711016615809e-18
1.936281425776754e-17
1.8582461353069976e-16
-2.093748200463418e-17
-7.666004065313847e-17
-8.822709087292706e-17
2.1751461589904282e-16
-1.0491124346731427e-15
-3.8783249335177486e-16
1.219430312125872e-15
2.6395699450005013e-16
3.206656151699492e-17
-3.628021903692104e-16
6.677863435216488e-17
8.975605575090293e-16
-4.753585650618814e-16
-6.54780896334187e-17
-3.567239028137296e-16
-1.7750987937085858e-16
3.898908446574868e-16
1.1116822267141392e-16
-3.2354918795804203e-16
5.4297803779094703e-17
-8.240754546556231e-17
-2.6841238254514534e-17
5.495097994098213e-17
3.8436127373456e-16
-9.157470678834346e-16
-1.909789588401303e-16
7.223647529890044e-16
9.209951025514439e-17
1.2056526397366385e-15
-1.1571930226127604e-15
-1.4055912737902593e-16
1.0885360789581898e-18
-2.1506738608546564e-17
2.153249144636247e-17
-1.1142889167740918e-18
1.2896731864969414e-17
-3.25795640375679e-17
-1.9109394334749856e-17
3.8792226507348334e-17
-4.6383064037408576e-17
-4.5408830818041717e-17
-3.3720384846610788e-18
9.516393334011138e-17
1.0537206840776983e-16
-7.699930141128702e-17
7.021268552722883e-18
-3.539403554920569e-17
2.332214180775815e-15
2.2599233344548676e-15
-1.8597069881922224e-15
-2.7324305270384746e-15
1.6091882393037858e-15
1.0531601239770989e-16
-7.155589286319254e-16
-9.989453230695744e-16
-4.316681465810061e-17
-1.3258967995650483e-16
-2.07791236793301e-17
1.9653561829393546e-16
1.7119546756498926e-17
-5.8608082918077335e-18
-5.979498476892644e-18
-5.2792399877985506e-18
9.257642166711276e-16
-7.617765479464038e-16
-4.9241364572267495e-17
-1.1474630415245592e-16
-2.1330343039443084e-15
-6.546839340741117e-16
2.613736032744468e-15
1.7398220527394875e-16
7.446758551424114e-17
-8.502653470237882e-17
1.394416206472978e-17
-3.385212876592116e-18
-2.94682938987364e-16
7.466752322084763e-16
-4.706934896688495e-16
1.8701196447736165e-17
-7.399608032436068e-17
-7.355526942458784e-17
-4.112319531480703e-17
1.886745450637557e-16
-9.439064524659783e-18
-7.66048821687212e-17
2.206553732685059e-17
6.397840936653038e-17
4.0988294930833755e-17
6.134556839090609e-17
-2.678781445865917e-18
-9.96550818758739e-17
2.253871333806867e-16
-2.5474726954545287e-16
-1.5550478021183744e-16
1.848649163766037e-16
1.9595550166000378e-16
-3.062584326519621e-16
-4.790813470790451e-17
1.582110656998629e-16
-8.520773873686059e-17
6.129524206777115e-16
-4.81384099737999e-16
-4.6360582202852265e-17
-9.039281957561545e-17
-1.5706721400149543e-16
1.783169261657622e-17
2.296283409605347e-16
2.3335565261321e-16
-2.0321864979095716e-16
-1.800032479498358e-17
-1.2136678027268987e-17
-5.006611725195106e-16
-1.1671523539224898e-16
-1.128468711301419e-15
1.7458451192131746e-15
-1.5259726868725378e-15
-3.3502514119783157e-16
-2.0513178592089934e-15
3.9123156872793564e-15
-1.7010120304594112e-16
-4.1514397212622143e-16
-2.117464970461572e-16
7.969916722183203e-16
-1.125490972415301e-16
6.453659647578849e-17
-1.4367569266030518e-16
1.9168819342604672e-16
-1.2241740445375987e-15
-6.047458467672184e-16
-1.2191305595899653e-15
3.0480504508947736e-15
-1.9197578934477446e-16
-2.387865783798883e-16
-1.189212561639789e-16
5.496836238886412e-16
-2.4859247023169724e-16
3.6330207996253446e-16
-2.7412174204158167e-16
1.5941213231074435e-16
-4.10059466708028e-16
-2.0858067350312425e-15
-6.001443387272957e-16
3.096010540466563e-15
-2.0082889402979082e-16
3.1925679921080686e-16
-1.5128115952429227e-16
3.2853254343276303e-17
-1.1341328979789187e-16
-3.153747359771896e-16
6.932449496993134e-17
3.5946353080515013e-16
-5.042256714271582e-17
-3.4381699518901894e-16
9.80002367806056e-17
2.9623932555112927e-16
1.137160970174206e-17
-1.6988528166296434e-16
2.906691883367316e-17
1.2944675312754916e-16
3.229924704150492e-16
-5.645026033692898e-16
-1.4288085292155153e-16
3.8439098587579194e-16
-4.48354038221924e-17
-1.3865118197256578e-18
-3.394630750580221e-16
3.856849906999402e-16
2.243948403142809e-16
-8.39626216954379e-17
-4.673630920498984e-16
3.2693087343105566e-16
-5.286645536350998e-16
5.645188281011486e-16
-9.436375725414314e-18
-2.6417898740634528e-17
-3.4441946342285546e-18
6.153035099552572e-17
-2.894845704647388e-17
-2.913769931482327e-17
8.36549206991797e-17
-8.026888708952561e-17
-1.9089236230243556e-16
1.8750632869278159e-16
1.9243260137557598e-16
-3.5379289698318926e-16
-8.876922145201922e-17
2.5012951705963247e-16
1.3964006085441902e-16
-2.0232977763530517e-16
1.0135354305551792e-17
5.2554362475334386e-17
6.5778931538598545e-18
-6.166148376705297e-17
9.800444725535698e-18
4.5283145887657426e-17
2.1586737095494199e-16
9.453689647765152e-17
-5.614214902849214e-16
2.510172228523278e-16
1.0450018236507143e-16
-2.365945659117798e-16
-2.5799500813802652e-17
1.57893884360511e-16
-8.538091985260325e-17
1.1729754844021962e-16
-5.590274523367483e-17
2.3986116646058713e-17
3.0927216795899123e-17
-3.7515884726603027e-17
5.070677625189824e-18
1.517990305514084e-18
8.456883657535895e-17
-2.988076661736348e-17
-3.134101130355706e-17
-2.3347058654438443e-17
0.0
0.0
0.0
0.0
7.071899270395693e-18
-1.5628603835075262e-17
1.2979864981638017e-17
-4.423160416958446e-18
0.0
0.0
0.0
0.0
-2.502834891698001e-17
-2.4531601399287852e-17
3.782702088668566e-18
4.57772482275993e-17
6.591515717191079e-18
-1.6105248001601176e-17
-2.1343395502566903e-18
1.1648071834666786e-17
0.0
0.0
0.0
0.0
1.704881248119443e-15
-2.766109034475559e-15
-9.785122005975735e-17
1.1590790064158701e-15
0.0
0.0
0.0
0.0
8.21427378573298e-16
-2.777198196543756e-16
5.757168671249792e-17
-6.012792456314204e-16
-1.0121515619305046e-14
4.642382840605573e-15
1.9052596744977612e-15
3.573873104201767e-15
-5.918956777808323e-15
5.968021092353318e-15
8.083009892033602e-16
-8.573653037483335e-16
-9.263061080894968e-16
1.1386581633712201e-15
-9.582386998759074e-17
-1.1652818529413263e-16
-1.685926496224066e-18
-6.911726952474308e-17
5.932117725372276e-17
1.1482018767244401e-17
2.114500459394269e-17
-9.247586602215642e-17
5.07958677054627e-17
2.0534993722751036e-17
0.0
0.0
0.0
0.0
0.0
0.0
0.0
0.0
4.465374572896394e-17
-2.3863941980782272e-17
-1.0399523022453935e-17
-1.0390280725727732e-17
2.2372509728299684e-17
-2.942484063523354e-16
6.012552332375291e-17
2.1175037330028257e-16
-1.0174909918027347e-16
1.4789942632421263e-16
-3.1009602302510837e-17
-1.5140724841428376e-17
-6.662374653622706e-17
-4.0363907113566127e-16
4.809867877508828e-17
4.221641388967999e-16
4.353576656039687e-17
-4.7726070658022574e-17
-5.5662930089492955e-18
9.75659710657498e-18
-1.0235617934882132e-16
2.364360886735823e-16
-8.299396160049271e-17
-5.1085947724268346e-17
-4.326332270552431e-18
-4.2465936724061235e-18
-4.398221085283109e-18
1.2971147028241661e-17
2.570735331087233e-17
-1.993787128031124e-17
-6.147233811724547e-18
3.777517811634552e-19
7.064491155917773e-18
-1.563019373748002e-17
1.296676178514133e-17
-4.401059203579079e-18
-6.305000617320386e-18
-1.415284563709896e-16
-1.002949838629861e-18
1.4883640682693978e-16
-1.9195805018848975e-17
-1.8744240498891085e-17
-4.9746573284872835e-18
4.291470284622734e-17
-1.2438931613390457e-17
-1.2227772554507208e-17
2.001523975348414e-18
2.2665180192549252e-17
2.1209754608107792e-17
-2.4279741197438414e-17
-1.07863676464542e-17
1.3856354235784826e-17
-1.1343042199844749e-16
-2.2039136587270058e-17
-7.106476448629027e-17
2.065343230720078e-16
-2.828771785168899e-16
1.272504677740266e-16
-1.3386826532415385e-16
2.8949497606701724e-16
-3.0143596762071496e-16
3.1155613927005727e-16
-1.8965455311476658e-16
1.7953438146542429e-16
-1.1342942215224004e-16
1.803291332371206e-16
-6.794985734181537e-17
1.0501462569348824e-18
-1.5846561517823885e-15
1.8398535419338525e-15
-1.4227971229405763e-15
1.1675997327891115e-15
-1.1737418228878492e-16
1.7608832397820471e-16
-8.625370723093279e-17
2.7539565541513033e-17
6.490616664023029e-17
6.793979278909755e-16
-9.297034033819913e-16
1.853993088507857e-16
-1.1380326327873848e-15
1.2483579425106733e-15
-6.023674329859522e-16
4.920421232626636e-16
7.85217789056132e-18
-8.256055295074126e-17
1.8684903568522957e-18
7.283988470332764e-17
3.418012647026406e-16
-5.693060122782222e-16
-1.4837195733817893e-17
2.4234194330939915e-16
-1.3084874361104262e-16
4.922893749138474e-18
-9.46310288761782e-19
1.268721601506658e-16
-4.4766188408218044e-17
1.5839871557105651e-16
-1.2216325413367143e-16
8.530726970832969e-18
-2.535173073772743e-17
-2.471613835220127e-17
3.336599313351781e-18
4.673126977657691e-17
-2.533390090278618e-17
-1.377187786015991e-16
6.171884684947878e-17
1.0133383265490656e-16
6.263757577667203e-17
-1.415795844984699e-16
2.795075826618079e-17
5.0991250455617075e-17
-1.672477757191097e-16
1.720527812380374e-15
-1.3323460431838684e-15
-2.2093399347739824e-16
6.461011903889945e-17
-4.934058059001163e-17
6.770577418046354e-18
-2.204011586693417e-17
-4.2353849774759477e-17
2.495125509539029e-16
-1.1221165590669937e-16
-9.494704527244406e-17
-1.4146677228365706e-16
2.663821028447748e-16
-1.952303914043789e-16
7.031506084326135e-17
2.1378306678164407e-16
-3.776292515895227e-16
1.1976109361155516e-16
4.408509119632363e-17
-1.9389373909042686e-17
9.351327648997931e-17
-1.1127537370539733e-17
-6.299636521039675e-17
2.5733462485300754e-17
-1.9991660732223576e-16
6.895161117205296e-17
1.0523153366488201e-16
-1.3012806255949045e-16
-8.228753275378794e-17
-5.2376945715070704e-17
2.647925410283492e-16
-6.597269497994941e-16
1.2849899573842686e-15
-5.290826473381325e-16
-9.618036024664239e-17
9.273631316488859e-17
-1.6228493561711682e-18
-1.39737850381539e-16
4.8624386572821574e-17
-6.158317924257412e-17
1.6109331102093438e-16
-1.0870371242822686e-16
9.193580649866736e-18
3.086860040676958e-17
-1.7343497212347798e-16
-3.2996115722315567e-17
1.7556248743902394e-16
-1.9486572136828985e-17
-4.164400925346495e-17
-2.8701077396578135e-17
8.983165878687209e-17
2.8501599940540214e-15
-2.7925421065572282e-15
-2.2578054761634467e-15
2.2001875886666496e-15
2.062161665945193e-16
-5.20368874667787e-16
-2.3367639590510266e-16
5.478291039783705e-16
1.3477091149889765e-16
-1.1586712087750828e-16
3.9662871595262466e-17
-5.856666221665183e-17
1.4576857236844332e-15
-7.748526506532923e-16
-1.2026292021552774e-15
5.197961291241355e-16
-7.032796874001161e-17
1.1075132562224134e-16
-8.385114494389926e-17
4.342778806166956e-17
2.892230846488332e-16
-3.262719126848837e-16
4.142833684151407e-17
-4.3795088054635496e-18
-7.7468624129367e-16
1.3252260015441482e-16
-3.5704547608330677e-16
9.992091172225624e-16
-3.751253117064576e-16
8.034310541866616e-17
-9.154671371715097e-17
3.8632892000494237e-16
-1.181273367088155e-16
1.435589313562655e-17
-2.4057472105884704e-16
3.4434616463203604e-16
-3.532393112331192e-16
1.2574841175106193e-16
-3.862099872555279e-16
6.137008867375862e-16
-1.5100997418709473e-16
4.37911803191657e-16
-1.7840631944389566e-16
-1.0849550956066645e-16
-2.7266378496995873e-16
-4.4575783300925525e-17
-1.9302106396484832e-16
5.102606322357324e-16
-6.370172429682161e-17
-6.33847548326621e-17
-2.3554799092990906e-16
3.6263447005939267e-16
-4.456718721669527e-18
-4.958863597362773e-17
-3.677433644187083e-17
9.081969113716809e-17
2.130394340806609e-16
-1.0748541287134381e-16
-3.426399971712381e-17
-7.129002149219345e-17
-8.015318887168459e-17
1.692632960325063e-16
-1.262504903628585e-16
3.714038320203669e-17
-1.0232631123560463e-11
3.2998475257730723e-12
-8.498534331282885e-12
1.543131792907019e-11
-2.534591098196596e-13
6.719965228755756e-14
-2.158088006993753e-13
4.0206825823146797e-13
7.939080376856865e-15
-1.1799452087273967e-14
-1.1774541951596665e-14
1.563491366201389e-14
-2.1659924724786423e-14
-2.0173407417649465e-15
7.839153989029743e-15
1.583811147752152e-14
-4.347531432930601e-15
7.895328404150713e-15
-1.4170221005876013e-14
1.0622424034656295e-14
4.590416818043118e-15
-3.978590908178058e-15
-1.4775399872900848e-14
1.4163573963035956e-14
-2.5399623258808974e-14
5.008464902102899e-15
5.825872387647374e-15
1.4565285969058895e-14
1.6739718126861875e-15
-6.494733353099129e-15
-9.137758943791855e-15
1.3958520484204825e-14
0.0
0.0
0.0
0.0
-2.0456569123797224e-14
-9.078106615772693e-15
-8.12568612237182e-15
3.7660361861941426e-14
1.4774151568079225e-16
-1.5036100011396618e-16
7.810096486252582e-18
-5.190612053078663e-18
-3.8868110276182253e-16
-1.689242508839974e-15
-7.253611341451137e-16
2.8032847457469057e-15
-3.5014254689222314e-16
-1.4692391943591644e-15
2.0133801528691245e-17
1.7992479397226927e-15
1.668008192955599e-14
-9.931894263574485e-15
3.267508891166056e-14
-3.9423276577641594e-14
-3.2180813426304332e-15
